<0>:18
    0.108916   -0.0337453  -0.00684686  -0.00484064    0.0860549   -0.0723967   -0.0236874   0.00853013    0.0517387
   0.0162427   -0.0229314  -0.00659289   -0.0416128   -0.0657573   -0.0105552    0.0215283    0.0232702    0.0143962
   -0.081649   -0.0635074   -0.0119287    0.0076643  -0.00613322   -0.0514813   0.00857765    0.0420514   -0.0111476
 -0.00964352   -0.0161716    0.0243919   -0.0163686   0.00176677   -0.0409888    0.0333824   -0.0190593   -0.0431078
   -0.033974   -0.0385494     0.056459    0.0554788  -0.00509772   -0.0512696   0.00127299    0.0488528    0.0200837
   0.0254893  -0.00352637    0.0361312   0.00876497  -0.00206204    0.0681658    0.0212506   0.00722109    0.0246273
  0.00288283    0.0214234    0.0359318  8.40385e-05    0.0624094     0.029661     0.034611   -0.0115946   -0.0403255
 -0.00682319 -0.000663238   -0.0645297  -0.00275539     0.076077    0.0347983  -0.00333865    0.0122759   0.00829485
  -0.0546098   -0.0116153  -0.00515241   0.00254744    0.0185183   -0.0163977    0.0438781    0.0268155   0.00030533
   0.0352014    0.0173204   -0.0815831  -0.00948157     0.055755    0.0463718   -0.0417396  -0.00344871     0.035118
#
   0.0441923    0.0238875   -0.0153046    0.0362369    0.0127089  -0.00331773    0.0121142    0.0330246  -0.00804191    0.0218117
  -0.0180876    0.0316579  -0.00703429    -0.055096    0.0116702   -0.0463431    0.0170077   -0.0466256   -0.0371389  -0.00993578
  -0.0280952    0.0466203   -0.0148984   -0.0138784  -0.00532903   -0.0341575    0.0171204   -0.0187635    0.0470386   0.00516864
  0.00870505   -0.0279453   -0.0239246    -0.026223   0.00510254   -0.0275501    0.0179308    0.0655671   0.00992486     0.018474
 -0.00903883    0.0569959    0.0316458   -0.0266132     0.029247    0.0232455    0.0053059   -0.0250982    0.0328984   0.00515551
  -0.0652599    0.0315808   -0.0323029   -0.0203112    0.0851028   0.00841381   -0.0386487   -0.0927894    0.0679947   0.00778308
  -0.0473383   -0.0635894    0.0281031   -0.0586231   0.00230229   -0.0133739    0.0738282   -0.0571046    0.0087824    0.0237032
  -0.0451279   -0.0117219    0.0245819    -0.043118   -0.0823255   -0.0403921  -0.00294526    0.0495045    0.0590485    0.0208096
  0.00738587    0.0262329   -0.0659161     0.029228    0.0388348    0.0139832    0.0158393   -0.0195968    0.0467172   -0.0113023
   0.0349795      -0.1068   -0.0360999    0.0284776     0.044702 -0.000161456  -0.00117938    0.0442315    0.0088172    -0.116461
#
  0.0199845   -0.026093 -0.00254058   0.0197205   0.0275078  -0.0305457  -0.0106987  -0.0473853   0.0416512  -0.0412431
 -0.0459335  -0.0331462  0.00365107 0.000152919   0.0766187  -0.0306741   0.0271212  -0.0249584   0.0153345    0.031821
 -0.0415974  -0.0482316  -0.0481786    0.035888   0.0378901  -0.0279224 -0.00821545   0.0419865  -0.0117635   0.0438911
 -0.0396964  -0.0332569   0.0395111    0.037674 -0.00558422   0.0173412   0.0147458  -0.0828402  0.00322115   0.0227045
 -0.0123347   0.0247877    0.030424  -0.0706398   0.0449999  -0.0457347  -0.0434146   0.0302519 -0.00540297   -0.086748
 -0.0320386   0.0294056  -0.0322847  0.00538968  0.00143438  -0.0355588   0.0919738   0.0116671  -0.0816752   0.0277079
  0.0589759  -0.0710185   0.0330371   -0.017731      0.0704  -0.0340203  0.00651229   0.0562669  -0.0148897  0.00310598
 -0.0328632  -0.0225639  -0.0108383  -0.0277667  -0.0629165    0.031097  -0.0285284 -0.00827226  -0.0980751 -0.00387554
 -0.0240688   0.0724383   0.0435586   -0.069102   0.0244235  -0.0168931   0.0781098   0.0112607  -0.0319211   -0.030321
  0.0527203    0.046017   0.0280185   0.0351871  -0.0451287   0.0307295  -0.0146192  -0.0148068   0.0162329   0.0268941
#
 -0.0119235  -0.0314783   0.0173487 -0.00970887  -0.0048464  0.00338511   -0.027135   0.0330383   0.0419115   0.0221425
  0.0423797  -0.0676998    0.042683   0.0125456   0.0311939  -0.0622726  -0.0462991  -0.0266146   0.0130786   0.0397865
  0.0110528   0.0545909   0.0522433  -0.0182736  -0.0449204  -0.0318139  -0.0351851    0.026968  0.00870225  -0.0295166
#
!
<3>:18
   0.0617957    -0.037665  -0.00630804   0.00355298    0.0318525   -0.0682035   -0.0393359    0.0509636    0.0625835
   0.0395364    0.0106998   -0.0338516  -0.00903978 -0.000664111   -0.0499771    0.0281609    0.0471776    0.0129154
  -0.0833676    -0.102581    0.0629795   -0.0226794   -0.0340353     -0.08369    0.0231317    0.0952087    0.0263882
   0.0205365   -0.0178762  -0.00843239   -0.0583731    0.0683916   -0.0597142    0.0278018  -0.00096445   -0.0790073
  -0.0627888   -0.0840779   -0.0171474     0.103862   -0.0457427   -0.0814008   0.00693761   0.00814927    -0.010115
   0.0160137    0.0090787    0.0356817   0.00743342   -0.0208266    0.0818267    0.0757946    0.0137912  -0.00837366
  -0.0216528    0.0418166    0.0492135   -0.0237228    0.0824352    0.0321135    0.0649129  -0.00330218   0.00516151
   0.0437218   -0.0465315   -0.0786204   -0.0160639    0.0594652     0.068876    0.0246577    0.0248641    0.0147975
  -0.0928194   -0.0412843    0.0308102   -0.0166521   0.00061572   -0.0359255    0.0875713  -0.00670183    0.0404924
   0.0298506   -0.0208937   -0.0141347   -0.0950415   0.00696188    0.0706751   -0.0488806   -0.0166771     0.025616
#
   0.0403248    0.0484017    -0.068277   -0.0214338    0.0384723    -0.057956   -0.0152719      0.01996   -0.0644574    -0.024927
  -0.0465065    0.0543984   0.00572441    -0.059822    0.0155547   -0.0582494   0.00846715   -0.0525042   -0.0632217    0.0282911
   0.0241724    0.0355555      0.01536    0.0113731  -0.00685237   -0.0304594   -0.0217354    0.0522696    0.0798888   0.00907398
   0.0782178   -0.0192757   -0.0539306    0.0137764   -0.0188729   -0.0327164    0.0148474     0.121775   -0.0161063    0.0110318
  -0.0419333    0.0577085    0.0374189    0.0489032   -0.0964936   -0.0246326    0.0518198  -0.00181637    0.0291921 -0.000494255
  -0.0774656    0.0676468    0.0381924   -0.0386327      0.12013   -0.0118573    0.0100759  -0.00496223     0.119919  -0.00266402
  -0.0974459    -0.131916   -0.0440578    -0.011155    0.0351692  -0.00234776    0.0601435    -0.106068    0.0262215    0.0285816
  -0.0281893    0.0112646   -0.0751442   -0.0738154   -0.0426217    0.0155591   -0.0129647    0.0142319    0.0949205    0.0354977
  0.00811535    -0.015579    -0.043661    0.0962916    0.0178427   -0.0178437   -0.0296402   -0.0093041    0.0596296  -0.00914328
 -0.00335433    -0.133051   -0.0180025    0.0294273  -0.00916284 -0.000135595   0.00804108   -0.0235602   0.00906767   -0.0783242
#
  0.0204752  -0.0486832  -0.0237363   0.0322419   0.0215042 -0.00217885  -0.0384038   0.0215883   0.0169168   -0.129579
 -0.0180576  -0.0971701   0.0392329  -0.0205556    0.102762  -0.0354924   0.0258306  -0.0403036    0.015375   0.0685226
-0.00279988   -0.023427   -0.106934   0.0566743   0.0906018 -0.00202931  -0.0261616   0.0147923 -0.00804019   0.0783723
 -0.0104318     0.01279   0.0247218   0.0282392 -0.00310908  -0.0620081   0.0189965  -0.0753098  -0.0535579  0.00244522
 0.00909181   0.0527765   0.0438742  -0.0244316 -0.00498252  -0.0504337  -0.0786495  0.00719666    -0.03981  -0.0982594
 -0.0193436   0.0418905  -0.0728872   0.0332158  0.00900406  -0.0750072    0.095025   0.0472277   -0.148765   0.0542522
  0.0957403  -0.0233413 -0.00614956  -0.0108683   0.0640286  -0.0133862   0.0412632   0.0308762   0.0282575   0.0217406
 -0.0870575   0.0244244  -0.0239207  -0.0199113  -0.0738669    0.107941  -0.0726691  -0.0555096    -0.11858  -0.0560525
-0.00797598   0.0789929   0.0683197  -0.0347509   0.0100868  -0.0433513     0.11097     0.09504  -0.0689134  -0.0519461
   0.012189  -0.0180497   0.0364386   0.0315573  -0.0250547   0.0484479 -0.00742409   0.0135459   0.0634373   0.0541323
#
 -0.0568551 -0.00138199   0.0329667  -0.0560819  -0.0827996   0.0701909  -0.0477899  -0.0658935    0.104193  -0.0152701
 0.00233522  -0.0295908  -0.0054846  0.00851707   0.0329639  -0.0572505  -0.0354556  0.00899346  -0.0275763   0.0336555
 -0.0597892   0.0199619   0.0854438  -0.0822374  -0.0855401  -0.0825671  -0.0813866   0.0792159  -0.0224459  -0.0686406
#
!
<11>:18
   0.119695  -0.0233199  -0.0166756  -0.0295836   0.0917537   -0.078906  -0.0360128  -0.0015049   0.0557508
  0.0294851  -0.0164466  -0.0134584  -0.0509536  -0.0675519  -0.0056406   0.0170153    0.034197  -0.0016615
 -0.0638293  -0.0783688  -0.0197958  -0.0129078  0.00865937  -0.0578078  0.00206395   0.0500634  -0.0167664
 -0.0311557  -0.0353101   0.0300881  -0.0118368   0.0289698  -0.0540369   0.0250909   0.0102738   -0.036102
 -0.0267222  -0.0480022   0.0547817   0.0278101   0.0150876  -0.0553228 -0.00446457   0.0595617   0.0120427
  0.0362541  -0.0112492   0.0218082 -0.00721965  -0.0231117    0.058343   0.0248078 -0.00508377  0.00995385
-0.00638913   0.0182908    0.037745 -0.00124036   0.0664743   0.0125104   0.0535907 -0.00175361  -0.0301168
  0.0282396 -0.00988395  -0.0772036 -0.00295707   0.0676842   0.0354517  -0.0286023   0.0167051  0.00324249
 -0.0566949  -0.0188271  0.00524529   -0.012374   0.0300056  -0.0167934   0.0347557   0.0264212  -0.0140562
  0.0362748  -0.0130715  -0.0841344  -0.0231482   0.0594845   0.0365755  -0.0425746 -0.00680289   0.0273267
#
  0.0441916   0.0246972 -0.00515897   0.0219388   0.0114938   0.0157704   0.0106057    0.037608  -0.0159192   0.0182934
-0.00499916   0.0384697  -0.0137568  -0.0559066   0.0217661  -0.0257983  0.00599634  -0.0535557  -0.0587655  0.00337716
 -0.0396378   0.0530717  -0.0238456  -0.0108793  0.00778578  -0.0223727   0.0230346  -0.0330191   0.0468364   0.0172921
  0.0354503  -0.0216981  -0.0187452  -0.0219991    0.021295   -0.031834   0.0302349   0.0687425  0.00336188  -0.0013179
 0.00540713   0.0567487   0.0149749  -0.0350654   0.0269246    0.041875  0.00731645  -0.0328195   0.0193401  0.00407984
 -0.0563445   0.0312124  -0.0461429  -0.0079968   0.0659802  0.00222339  -0.0314347  -0.0871024   0.0919548 -0.00947055
 -0.0602153  -0.0689418   0.0688433  -0.0571807  0.00931554  -0.0347218   0.0520711  -0.0748383 -0.00549046   0.0315219
 -0.0836118  -0.0358707   0.0234132  -0.0491885  -0.0819456  -0.0321709  -0.0154053   0.0568719   0.0460061   0.0278628
  0.0103174   0.0309586  -0.0579335    0.034269   0.0231636   0.0200961   0.0303938  -0.0187311   0.0419984 -0.00222694
  0.0315022  -0.0963452   -0.033163   0.0131505   0.0268803   0.0167703 -0.00415123   0.0260195   0.0239864   -0.129292
#
  0.0134191  -0.0273896  0.00688664   0.0469701   0.0273099  -0.0381868  -0.0030152  -0.0299894   0.0196412  -0.0485583
 -0.0546694  -0.0289946   0.0171726  0.00453019   0.0592468  -0.0300147   0.0308047  -0.0272766   0.0178269   0.0493185
 -0.0241998  -0.0447671  -0.0521451   0.0509458   0.0303305  -0.0324498  0.00517682   0.0396697  -0.0145955   0.0481649
 -0.0411477  -0.0414209   0.0370822   0.0328785  0.00155498   0.0208164 0.000493811  -0.0700625 -0.00821426   0.0336278
 -0.0150455   0.0313816   0.0300372  -0.0660012   0.0310898  -0.0545862  -0.0595685 -0.00297437  0.00653826   -0.120307
 -0.0335683   0.0400836  -0.0370903  0.00582561 -0.00168764  -0.0332084   0.0819967   0.0197492  -0.0841473   0.0197167
  0.0764752  -0.0596264   0.0236847  -0.0330578   0.0725947 -0.00963751    0.010161   0.0565014  -0.0385389   0.0113105
 -0.0273205 -0.00720763  -0.0247802    -0.04027  -0.0434056   0.0356616  -0.0160138  -0.0129134   -0.109432   0.0114745
 -0.0211992   0.0904117   0.0560876  -0.0811614   0.0105851  -0.0164332   0.0581328   0.0172248  -0.0509767  -0.0309451
  0.0617272   0.0302665   0.0171436   0.0619639  -0.0668669   0.0195036 -0.00447779   0.0100663   0.0145909   0.0187116
#
 -0.00671648   -0.0482891    0.0141547   -0.0083004 -0.000884421   0.00334591   -0.0270387    0.0351389    0.0283504    0.0122581
   0.0412298   -0.0390742    0.0240512    0.0118508     0.017762   -0.0418467   -0.0294218  -0.00258675    0.0198004    0.0157195
 -0.00545637    0.0524727    0.0377143   -0.0176436    -0.066503   -0.0294087   -0.0506872     0.055107    0.0197171   -0.0295652
#
!
<85>:17
   0.0384335   -0.0177895   -0.0213693   -0.0249381    0.0665858   -0.0519255 -5.43794e-05   0.00118509    0.0165738
   0.0108747   -0.0152726    0.0536382   -0.0422281   -0.0271639   -0.0163703  -0.00843203    0.0572033   -0.0147193
  -0.0785978   -0.0255039   -0.0356267   0.00557985   -0.0334236    0.0222344  -0.00509012    0.0641205  -0.00568997
  -0.0176513   -0.0232913    0.0116493    0.0149049   -0.0397346   0.00361043    0.0286314    0.0249201  -0.00774581
  -0.0567193  -0.00139291    0.0485399    0.0285265    0.0370921  -0.00993542   -0.0220346    0.0265185    0.0398054
  -0.0177204    0.0239072    0.0186236   0.00153846   0.00913233     0.030559   -0.0240088    0.0050102    0.0294092
   0.0411286    0.0272026    0.0266619   -0.0310427     0.056221    0.0424076   -0.0211758    0.0204309    0.0128858
  -0.0325932   -0.0259834   -0.0228828   -0.0186118    0.0472202     0.028119    0.0294161   -0.0437921    0.0439692
  -0.0261736   -0.0106354   -0.0238677    0.0143813    0.0493854   0.00286653    0.0533253   -0.0142053   -0.0543267
   0.0485398    0.0141964   -0.0207389   -0.0021405     0.031063   0.00592774   -0.0233488   -0.0139419    0.0348486
#
  0.00105546    0.0169214  -0.00596367    0.0118506    0.0304588    0.0104372   0.00183619   -0.0160825  -0.00508616    0.0133814
   0.0335662   -0.0056105   0.00688646  -0.00776321    -0.025309    0.0195469  -0.00631057   -0.0846575     0.013418   0.00302974
  -0.0315084     0.063141  -0.00886834    0.0184249   0.00119895    0.0575166   -0.0293674   -0.0242978    0.0345454   -0.0150123
  -0.0297639    0.0183904   -0.0126478   -0.0531823   0.00617619   -0.0137005  -0.00754922    0.0112379   0.00736984   0.00435204
   0.0115028    0.0103706    0.0134731  -0.00612024    0.0576974    0.0467692    0.0210914   -0.0350473   -0.0335584   -0.0399163
  -0.0645327    0.0105513   0.00937263   0.00271978    0.0324331   -0.0130441   -0.0213653    -0.111887    0.0540739   -0.0389573
  -0.0720305   0.00110913   0.00847329   -0.0789503  -0.00517602   0.00367525    0.0529022   0.00114034   0.00831645 -0.000794617
 -0.00746813   0.00663276    0.0653527   -0.0604403   -0.0364892   0.00896326    0.0025869  -0.00605188    0.0628143   -0.0184134
  0.00248491  -0.00930424   -0.0267527    0.0302347   -0.0100623 -0.000933432  -0.00412559   -0.0132229    0.0499146  -0.00166641
  -0.0131924   -0.0855132   -0.0414466    0.0377716   0.00537328   0.00192819    0.0108752    0.0380191    0.0311442   -0.0603714
#
   0.0539614   -0.0118038   -0.0120667  -0.00618055    0.0470201   0.00247728    0.0390118   -0.0208383    0.0154704     0.050022
  -0.0688873   -0.0430754    0.0622595   0.00187999    0.0118621   -0.0351719  -0.00103307   0.00934298    0.0445206   -0.0177072
  -0.0186345   -0.0425857   -0.0779698   -0.0498521    0.0377196   -0.0385537   -0.0223802    0.0133911    0.0273618    0.0507331
  0.00995002    0.0181498    0.0625226  -0.00484616     0.016412   0.00707202    0.0233699   -0.0621046  -0.00739034  -0.00073011
 -0.00116222    0.0182599   -0.0054548  -0.00870671    0.0194343    0.0320687  0.000834287     0.010764   -0.0163502   -0.0520974
  0.00172713   0.00580374    0.0161203 -0.000636349    -0.013285   -0.0509559    0.0283862   -0.0111144   -0.0664184   -0.0248178
  -0.0199065   -0.0556637    0.0476427  -0.00582909  -0.00114818   -0.0215534 -0.000262438  -0.00934633   0.00436156    0.0241883
  -0.0239634   -0.0301711   -0.0869388   -0.0437375   -0.0474813    0.0166213   0.00131458  -0.00312223   -0.0461632   -0.0198117
  -0.0181747    0.0683114  -0.00948693    -0.024745   -0.0211673    -0.038941    0.0410338   -0.0250001    0.0273699  -0.00334039
   0.0214652  -0.00646113   0.00794519    0.0265313   -0.0234216    0.0394266   -0.0244428   -0.0409602    0.0280866   0.00590928
#
  0.0352499  -0.0254304  -0.0238882  -0.0372975   0.0229186  0.00576188   -0.034658  -0.0212209   0.0311834  -0.0316929
  0.0207786 -0.00976798   0.0128528   0.0556823  0.00809408  -0.0752534  -0.0439048  -0.0261189  0.00577244   0.0371753
  0.0152969   0.0553271    0.057412   0.0211904  -0.0304247  -0.0594886 -0.00960321  -0.0253687   0.0576833  -0.0209885
#
!
<12>:16
  0.0976434  -0.0066208  -0.0120999 -0.00776185   0.0751671  -0.0897165  -0.0185418 0.000948489   0.0541266
  0.0302041    -0.01757 -0.00924691  -0.0341911  -0.0599496   -0.013857  0.00649543   0.0116232   0.0120198
 -0.0795612   -0.058185 -0.00334098  0.00782189   -0.015327  -0.0670197     0.01721   0.0306842  -0.0364934
-0.00832399  -0.0268896   0.0250619  -0.0196259   0.0155798  -0.0521591   0.0131259 -0.00180845  -0.0150193
-0.00664285  -0.0579034   0.0264079   0.0432676   0.0036318  -0.0336357 -0.00634588   0.0396918  0.00786789
  0.0389333  -0.0110325   0.0401021  0.00411376  0.00980667   0.0676165   0.0321355  -0.0142434   0.0145664
 0.00998488   0.0162512   0.0355739  -0.0104703   0.0742584   0.0163871   0.0435109 0.000122763  -0.0342133
  0.0185347 -0.00327537  -0.0746515   0.0111314   0.0718851   0.0306886  -0.0199738 -0.00892992  -0.0201441
   -0.05396  -0.0249756  0.00925669 -0.00490768   0.0233255 -0.00192014   0.0423488  0.00248602 -0.00884438
  0.0255278   0.0104325   -0.070455  -0.0078843   0.0473044   0.0394656   -0.011442   0.0176993   0.0342531
#
   0.0168799    0.0243741   -0.0154543    0.0360387    0.0120464    0.0115556    0.0044776    0.0291767   -0.0371506    0.0251529
  -0.0227667    0.0233198   -0.0269311   -0.0662353    0.0217844   -0.0391742    0.0247162   -0.0465895   -0.0403276  -0.00735582
  -0.0352281    0.0401016   -0.0126398   0.00473504    0.0112063   -0.0325043    0.0244329   -0.0188057    0.0462181    0.0136742
  -0.0101557   -0.0413621    -0.032597   -0.0233112    0.0256467   -0.0344326    0.0146238    0.0667382    0.0104824    0.0114165
  0.00112128    0.0645394    0.0298914   -0.0423412    0.0146883    0.0422971   -0.0121891    -0.028887    0.0374561 -0.000165947
   -0.058929    0.0429791   -0.0230734   -0.0230791    0.0529441     0.017777   -0.0423036   -0.0999593    0.0920076   -0.0136161
   -0.059259   -0.0686515    0.0295257   -0.0538246  -0.00269277   -0.0349889     0.076039   -0.0444267     0.011451    0.0204426
  -0.0503441   -0.0337705    0.0179322   -0.0456989   -0.0928572   -0.0352539  -0.00609593    0.0468934    0.0508629   0.00973411
   0.0191404     0.023389   -0.0573915    0.0283316    0.0244327    0.0156853   0.00930135   -0.0213171      0.04112  -0.00607842
   0.0412416   -0.0973132   -0.0129379    0.0332006    0.0418193  -0.00783181   0.00709498   0.00348307     0.022262    -0.108378
#
    0.036095   -0.0332723  -0.00921054    0.0292224    0.0164336    -0.002703   -0.0263317   -0.0360202    0.0435983   -0.0445167
  -0.0574364    -0.029811  -0.00462268   0.00687707    0.0635111   -0.0243913    0.0559604   -0.0410544 -0.000839293    0.0274973
  -0.0300236   -0.0303913   -0.0462144    0.0606615    0.0190406   -0.0327649  -0.00751431    0.0420023   -0.0152023      0.02336
  -0.0216456   -0.0423533    0.0437253    0.0411794  -0.00989595    0.0399474    0.0160477    -0.071659   -0.0122715    0.0252284
  0.00310572    0.0203657    0.0264323   -0.0775261     0.052749   -0.0477657   -0.0526515    0.0214384  -0.00307472   -0.0802807
  -0.0383244     0.042583     -0.04559  -0.00680347    0.0127781   -0.0240298    0.0695982    0.0277398   -0.0971984    0.0170213
   0.0703528   -0.0884066    0.0291542   -0.0144302    0.0905789   -0.0277403     0.015588    0.0472666   -0.0337838    0.0154561
  -0.0328298  -0.00944903   -0.0126959   -0.0403177    -0.046516    0.0438048   -0.0214905   -0.0188945    -0.097445    0.0205722
  -0.0204562    0.0959451     0.041552   -0.0679909    0.0324841  -0.00967515    0.0783033    0.0332411   -0.0383386    -0.031359
   0.0621575    0.0470248    0.0500332    0.0326955   -0.0615053    0.0310483  -0.00071031  -0.00924621    0.0175149    0.0228822
#
 -0.0221537  -0.0363883   0.0422837 -0.00490536 0.000679795 -0.00569359   -0.019868   0.0367332   0.0445583   0.0132761
  0.0335674  -0.0381813   0.0356291   0.0176143   0.0299613  -0.0555386  -0.0338598  -0.0193507  0.00362192    0.035347
-0.00340429   0.0590645   0.0529325  -0.0218881  -0.0426555  -0.0114368   -0.061971   0.0239742 -0.00917846   -0.041351
#
!
<71>:15
   0.0421614   -0.0409224    -0.021083   -0.0316489    0.0624803    -0.067226   -0.0172376   -0.0133772  -0.00392084
 -0.00101099    0.0100245    0.0404162   -0.0153161   -0.0232409 -0.000951666  -0.00596001      0.03609   -0.0018428
   -0.076394    -0.034887   -0.0473807   0.00805027   -0.0238132    0.0235031   0.00994502    0.0640693   0.00936672
 -0.00397336   -0.0266476    0.0125722  -0.00632236   -0.0308747   -0.0125629    0.0223579    0.0338079   -0.0123727
  -0.0420411   -0.0177285    0.0422941    0.0377061    0.0233886    -0.012627   -0.0186123    0.0534256    0.0108879
  0.00469286   0.00386142    0.0069433   -0.0154516   -0.0153906    0.0274199   -0.0164541    0.0116664    0.0274232
   0.0466865    0.0103488    0.0325181   -0.0264355    0.0678684    0.0601006   -0.0082696    0.0342475    0.0144789
  -0.0125963   -0.0327397   -0.0137564   -0.0131686    0.0615168    0.0219986    0.0510078   -0.0398939     0.035546
  -0.0204822   -0.0253532   -0.0455794   0.00354191    0.0460302    -0.024998    0.0427558   -0.0189075   -0.0549956
   0.0513217    0.0144089   -0.0251367   -0.0216432    0.0235389  0.000126817   -0.0158591   -0.0114024    0.0425407
#
   0.0085494  -0.00719261   0.00402126    0.0337329    0.0221129   0.00632679  8.29961e-05 -0.000878918   -0.0266951    0.0247351
   0.0239073   -0.0172413   -0.0226942   -0.0110509    -0.033006    0.0366328   -0.0230453   -0.0731763    0.0342321   -0.0183429
  -0.0322261    0.0361238   -0.0205651    0.0274321   0.00748688    0.0647747   -0.0192248   0.00137633    0.0186998   0.00731347
  -0.0167933    0.0160423    -0.016812   -0.0483161   0.00330737   -0.0243075  -0.00751127    0.0172092    0.0137728   -0.0149381
  -0.0126786    0.0228997   0.00426825    0.0129665     0.038211    0.0436448    0.0448791   -0.0390632   -0.0307779   -0.0424138
  -0.0782494  -0.00402349  -0.00055153    0.0116535    0.0354966  -0.00364723   -0.0109886    -0.106093       0.0562   -0.0460543
  -0.0699254   0.00101561  -0.00929488   -0.0732733   0.00204568   -0.0182922    0.0596545   -0.0192074   0.00622603    0.0184239
  -0.0108932    0.0344458     0.026537   -0.0559237   -0.0211054   0.00262068  -0.00248174  -0.00714372    0.0636917  -0.00208331
  -0.0103976   -0.0307911   -0.0428927    0.0438048   0.00435496  -0.00779383   0.00546534    -0.013092    0.0748122 -0.000969431
 0.000338034    -0.099442  -0.00984438    0.0265135   0.00718191   -0.0200014     0.011194    0.0123885    0.0312415   -0.0491451
#
   0.0467586   0.00603189   -0.0125228   -0.0100543    0.0488033  -0.00619992     0.027201   -0.0187546    0.0128049    0.0288355
  -0.0743641   -0.0523403    0.0492579    0.0162307    0.0115461   -0.0416287   -0.0152772    0.0164005    0.0460933   -0.0275557
 -0.00578514   -0.0493985   -0.0788002   -0.0276082    0.0148452   -0.0369657   -0.0310307   0.00930898    0.0250929    0.0366788
  -0.0222654  -0.00507092    0.0828318   0.00425775   0.00939723    0.0346576    0.0212842   -0.0853068    0.0072409   -0.0226833
  0.00450552     0.019751   -0.0285772  -0.00602266    0.0164037    0.0354719  -0.00201421   0.00655747  -0.00492772   -0.0343898
  -0.0109733    0.0167431    0.0280609  -0.00676362   -0.0260836   -0.0655477    0.0137117  -0.00438892   -0.0895387    -0.010195
  -0.0292709   -0.0708517    0.0496366   -0.0194809   -0.0214271  -0.00618824   0.00589819  -0.00973683 -0.000935501    0.0327027
   0.0034341   -0.0367849   -0.0843009   -0.0350086   -0.0658882    0.0310384    0.0380684  -0.00615286   -0.0498172   -0.0193629
 -0.00969178    0.0462231  -0.00409886   -0.0340043   -0.0250245    -0.048137    0.0473679  -0.00130804    0.0225256    0.0238105
   0.0138408  -0.00937169  -0.00187035    0.0291565   -0.0298328     0.047639   -0.0269972   -0.0240494    0.0139128    0.0247668
#
  0.0165932  -0.0293499   -0.029253  -0.0395456   0.0219812   0.0075544  -0.0299477  -0.0108613   0.0444823  -0.0292375
-0.00661408  -0.0154267   0.0380672   0.0811997   0.0211131  -0.0759859  -0.0401984  -0.0342945  -0.0142793   0.0115586
  0.0143149   0.0699923   0.0369249  0.00861006  -0.0344574  -0.0692197  -0.0431858 -0.00650884   0.0252386  -0.0315227
#
!
<6>:15
   0.101787   -0.029714  -0.0196691  -0.0229302   0.0940883  -0.0817989  -0.0365921  0.00479269   0.0530518
  0.0216255  -0.0363375 -0.00259495  -0.0514105  -0.0756933  -0.0125041   0.0341911   0.0200097 -0.00417401
 -0.0911108  -0.0716416  -0.0114015  0.00765579  0.00459064  -0.0531351 -0.00197902   0.0581212   -0.011875
 -0.0250683  -0.0186093   0.0116021 -0.00828128   0.0104418  -0.0373174   0.0342054  0.00849011  -0.0471694
 -0.0244391  -0.0588931    0.048716   0.0573043  0.00880515  -0.0393372  0.00115451   0.0518165  0.00701838
  0.0379109  -0.0135518   0.0248918  0.00698117 -0.00195588   0.0670387    0.038663   0.0129783   0.0240501
 0.00464585   0.0208455    0.055375 0.000351163   0.0664536   0.0156568   0.0509628  0.00750844  -0.0247879
0.000723459  0.00538539  -0.0631904  -0.0092948   0.0795174   0.0495595 -0.00844859     0.01011 -0.00577232
 -0.0551607  -0.0219001   0.0139028  0.00486508  -0.0124116  -0.0073206   0.0457686   0.0188773 -0.00604872
  0.0132686 -0.00913919  -0.0568856   -0.011521   0.0286214   0.0194963  -0.0367731  -0.0162233   0.0465983
#
   0.0489222   0.00271324  -0.00205567    0.0277144  0.000935024   0.00298844    0.0252344    0.0360909   -0.0174128    0.0134971
  -0.0408173    0.0279024     -0.02293   -0.0564479     0.031036   -0.0447442    0.0438434   -0.0410567    -0.055311  -0.00336567
  -0.0458317    0.0413244   -0.0208792   0.00280093  -0.00900426   -0.0298707     0.034459   -0.0298526    0.0495479    0.0272062
   0.0232861   -0.0353522   -0.0394697  -0.00403146   0.00618527   -0.0389093    0.0318325    0.0634347   0.00552411   0.00466648
 -0.00849433    0.0564165    0.0209054   -0.0438755     0.038723    0.0405566    0.0311056      -0.0537    0.0490782   0.00823388
  -0.0576512    0.0307981   -0.0326708   -0.0239194    0.0775754    0.0107913   -0.0642182   -0.0934147     0.088984   -0.0142561
  -0.0412349    -0.083327    0.0370979   -0.0394947  -0.00880654   -0.0396114    0.0757242   -0.0592974   0.00236385    0.0245765
  -0.0462947   -0.0221194    0.0189797   -0.0446932   -0.0806437   -0.0171024   0.00592474    0.0555016    0.0697984    0.0119314
    0.033348    0.0500231   -0.0944552    0.0344394    0.0502697    0.0247925     0.028854  0.000399646    0.0342534 -3.83304e-05
   0.0374368    -0.107861   -0.0074958    0.0268457    0.0340082   0.00641051   -0.0123354    0.0297342   -0.0038155    -0.127282
#
  0.0295902  -0.0254755  -0.0127493   0.0450046   0.0203286  -0.0343475  -0.0289965  -0.0400475   0.0371151   -0.046492
 -0.0722586  -0.0523767   0.0222368  -0.0153094   0.0645062 -0.00926704   0.0222061   -0.028001   0.0217989   0.0328915
 -0.0286359  -0.0544065  -0.0446881    0.032583   0.0364287  -0.0519103  -0.0021738   0.0406641  -0.0162886   0.0349118
 -0.0384249  -0.0579792   0.0379498   0.0346854   0.0045627   0.0129167   0.0265406  -0.0501244  -0.0263936   0.0130942
 -0.0239728   0.0200905   0.0229458  -0.0638989   0.0388238  -0.0323421  -0.0386053     0.03758 -0.00646683  -0.0810615
 -0.0307394   0.0444677  -0.0299602  0.00934138   0.0106884  -0.0415268    0.089554  0.00753846   -0.074973   0.0267504
  0.0753894  -0.0575533   0.0437444  -0.0205385   0.0770677  -0.0118853   0.0137561   0.0424872  -0.0330875   0.0202312
 -0.0472993  0.00443945  -0.0118408  -0.0483753  -0.0478154   0.0344402  -0.0253377  -0.0217672  -0.0782026 0.000937933
 -0.0270319   0.0615092   0.0632486  -0.0679554  0.00823288 -0.00306493   0.0759464  0.00580979  -0.0426702  -0.0290471
  0.0402083   0.0446181   0.0231709   0.0314936  -0.0622127    0.035527  0.00890547  0.00315171   0.0140927   0.0308025
#
 -0.0120615  -0.0149854   0.0446218 -0.00618011 0.000579791  0.00214209  -0.0199464   0.0249138   0.0364208   0.0116339
  0.0408956  -0.0579758   0.0260732   0.0470214 -0.00134863  -0.0491222  -0.0299708 -0.00577317 -0.00211341    0.010385
  0.0225634   0.0507764   0.0392726  -0.0316037  -0.0555601  -0.0187149  -0.0390643   0.0273231  -0.0102716  -0.0375743
#
!
<84>:15
    0.038227   -0.0351217   -0.0122346   -0.0212499    0.0747954   -0.0696584   -0.0144443   0.00520069    0.0127131
 -0.00144986   0.00284005    0.0398073   -0.0224564   -0.0222223   0.00805409  -0.00365638    0.0360574 -0.000163399
  -0.0636547   -0.0155805   -0.0326349  0.000296988   -0.0355176    0.0134565   -0.0118821    0.0721953   -0.0109879
  -0.0114918   -0.0327744    0.0103449   0.00210842   -0.0349372   -0.0138075    0.0070044    0.0397249   0.00113061
  -0.0605609   -0.0119906     0.040996    0.0473076    0.0161398  0.000107258   -0.0271242    0.0251335     0.048632
  -0.0149037   0.00424729    0.0136528    -0.013298  0.000288118    0.0415933   -0.0171592    0.0415986    0.0379755
   0.0448161    0.0320162    0.0272714    -0.034717    0.0781516    0.0592542   -0.0244457    0.0214824    0.0144245
   -0.016662   -0.0217879  -0.00144903  -0.00883845    0.0544809    0.0164878    0.0218628   -0.0376932    0.0236057
   -0.023761  -0.00585081    -0.024288    0.0160112    0.0426069   0.00107497    0.0488001   -0.0166164   -0.0689428
   0.0491262    0.0268621    -0.024738   -0.0105591    0.0176855    0.0211864   -0.0027127   0.00248384    0.0176122
#
   0.0050554    0.0179253  -0.00522891    0.0109628       0.0421   0.00697968  -0.00100781   -0.0140528  -0.00997012    0.0325666
   0.0352441   -0.0160128   0.00307205  -0.00857085   -0.0303357    0.0349691    -0.021144   -0.0597521    0.0207505   0.00300579
   -0.024599    0.0474949  -0.00546235    0.0346673   0.00844055    0.0716842   -0.0257387  -0.00164117    0.0405367 -0.000416713
  -0.0266608    0.0321441   -0.0105532   -0.0501107  -0.00237904   -0.0178673   -0.0236878   0.00200349   0.00548035   -0.0263029
   0.0163408    0.0319606   0.00444804   0.00404862    0.0254954    0.0495906    0.0445091   -0.0219259   -0.0142028   -0.0451083
  -0.0564951    0.0233392    0.0063483    0.0281638    0.0213882   -0.0215141  -0.00369179   -0.0756743    0.0520846   -0.0383803
  -0.0854333  -0.00274295    0.0203966   -0.0662673   -0.0205825   -0.0201756    0.0482869    -0.028423   0.00612545   0.00153406
 -0.00933883    0.0194739    0.0304792   -0.0361858   -0.0373122   -0.0062966   0.00651603   0.00275548    0.0444956    0.0148246
  0.00108456  -0.00883575   -0.0343168    0.0415547    -0.021317   -0.0111496   -0.0127225   -0.0139212    0.0568087   0.00790059
 -0.00668773    -0.088855   -0.0334893    0.0261311   0.00216699   -0.0110388   0.00853977    0.0267095    0.0286178   -0.0733683
#
  0.0472568  0.00287032  -0.0272315 -0.00899482   0.0446663  -0.0325517   0.0253915  -0.0101717   0.0402608   0.0299274
 -0.0915129  -0.0558958   0.0503083  -0.0117797   0.0173245  -0.0437243  -0.0100068   0.0183768   0.0157158   0.0067122
-0.00133255  -0.0493402  -0.0690895  -0.0340517    0.014378  -0.0243963  -0.0138779   0.0125769   0.0443641   0.0347578
 0.00469711  0.00439508   0.0838892   0.0145741   0.0196365   0.0413084   0.0242945  -0.0646295  -0.0116144 -0.00642097
  0.0121138   0.0103087  -0.0131958  -0.0240255   0.0108434   0.0420377  -0.0173102   0.0177391  0.00359229  -0.0482743
 0.00529618   0.0287448     0.03354 0.000551636  0.00273169 -0.00561761   0.0428982 -0.00112361  -0.0612871  -0.0040846
 -0.0384932  -0.0528204   0.0449619  -0.0198553  -0.0167469  -0.0205591   0.0440567  0.00178659   -0.014413    0.022911
  0.0196649 -0.00922697  -0.0889626  -0.0293253  -0.0481538    0.024309   0.0281015 -0.00476292  -0.0719345  -0.0280421
 -0.0237834   0.0361666  0.00981827  -0.0468211  -0.0124066  -0.0452693   0.0421598  -0.0152585    0.020889  0.00350215
 0.00356379 -0.00159271   0.0142965   0.0379104   -0.010769   0.0397218  -0.0189709  -0.0297891   0.0179912   0.0192944
#
  0.0339041  -0.0280621  -0.0270158  -0.0257071  0.00048469  -0.0120117  -0.0311908   0.0131168   0.0235998  -0.0302241
-0.00901935 -0.00103924   0.0125375   0.0689283   0.0261596  -0.0761252  -0.0406115  -0.0300163 -0.00320624   0.0375844
  0.0027484   0.0472392   0.0577039   0.0202244 -0.00510523  -0.0663757  -0.0233655 -0.00281489   0.0772412  -0.0383586
#
!
<2>:14
    0.096875    -0.029273  -0.00282437   -0.0287138    0.0675901   -0.0757587   -0.0153829  -0.00302849    0.0470898
   0.0239125   -0.0260365   -0.0197462   -0.0324458   -0.0680299   -0.0107207    0.0204433    0.0158395   0.00930486
  -0.0970345   -0.0519293   -0.0186297    0.0134316  -0.00590009   -0.0406515 -0.000681657     0.034091   -0.0194172
  -0.0206436   -0.0120147    0.0124587  -0.00327152    0.0233791   -0.0657464    0.0302507   0.00403043   -0.0479862
  -0.0204631   -0.0306692    0.0390551    0.0645215   0.00603053   -0.0643667   0.00577816    0.0503017    0.0081173
   0.0557602   -0.0124493    0.0405999   0.00433185  -0.00544644    0.0742585     0.019615  -0.00116197  -0.00130345
   0.0143638    0.0310541    0.0305246    0.0103689    0.0674639   0.00999728    0.0514987  -0.00750802   -0.0367381
  0.00794907  -0.00210838   -0.0777306  -0.00335167    0.0744259    0.0298027   -0.0330209    0.0253571    0.0310981
   -0.049761   -0.0209872   0.00353724   -0.0131211    0.0173575   -0.0288842    0.0366195    0.0130138   -0.0104804
   0.0258206  -0.00605202   -0.0891829   -0.0173048    0.0547645    0.0244403   -0.0222812   -0.0066782    0.0607139
#
  0.0505714   0.0196956  0.00502155   0.0265618   0.0137044   0.0217741   0.0392974   0.0515794  -0.0118554   0.0215551
 -0.0306867   0.0263463  -0.0272672   -0.067429   0.0190864   -0.047421   0.0318645  -0.0394786  -0.0287284  -0.0072644
 -0.0291749   0.0390547  -0.0101771  -0.0115246    0.024675  -0.0234894   0.0567175  -0.0361122   0.0336621  0.00600812
  0.0367659  -0.0416301  -0.0316634  -0.0316636   0.0127288  -0.0341195   0.0179834    0.062931   0.0255164   0.0141552
-0.00646487   0.0373514   0.0260133  -0.0223833   0.0475747   0.0506748  0.00539856   -0.014637   0.0520129   0.0198456
 -0.0598723   0.0525976  -0.0539827  -0.0213865   0.0705717  0.00929978  -0.0427123   -0.109938   0.0681525   0.0069977
 -0.0433825  -0.0792204   0.0616567  -0.0568983   0.0042082  -0.0149792   0.0798957  -0.0727854   0.0173433   0.0232141
 -0.0649139  -0.0213781   0.0209677  -0.0216243  -0.0822598  -0.0302868  0.00420652   0.0623501   0.0672895  0.00687827
 0.00261195     0.01435  -0.0567531    0.039035    0.031687   0.0363509    0.016186 -0.00381622   0.0616621  -0.0185234
  0.0547155    -0.10404  -0.0273696   0.0117512   0.0462495  0.00752142 -0.00693309   0.0254204   0.0106604  -0.0971585
#
  0.0191324  -0.0446999   0.0053487   0.0237909   0.0260716 0.000214102  -0.0104227  -0.0242102   0.0262317  -0.0522519
 -0.0525682  -0.0456052  0.00565961  -0.0115328   0.0415626  -0.0302059   0.0397397  -0.0332314   0.0186418    0.047088
  -0.025425  -0.0431037  -0.0659552   0.0524885    0.013831  -0.0435247 -0.00761671   0.0475001  -0.0219137   0.0349691
   -0.02094  -0.0488427    0.034176   0.0442264 0.000369172   0.0154825   0.0050775  -0.0778001  0.00631496   0.0299648
 -0.0139965   0.0310294   0.0195726  -0.0739614   0.0411817  -0.0546759  -0.0556219   0.0408576  -0.0205337  -0.0963489
 -0.0456485   0.0297996  -0.0524394  0.00608398   0.0231364  -0.0335513   0.0801211   0.0265282   -0.067442   0.0450334
  0.0811602  -0.0742848   0.0312473  -0.0262554   0.0844132 -0.00697227   0.0144135    0.053407  -0.0334475   0.0160787
 -0.0464157  -0.0287845  -0.0261481  -0.0411509  -0.0475159   0.0363463  -0.0289868  -0.0126265   -0.106585 -0.00106176
 -0.0263759    0.077775   0.0731195  -0.0655039   0.0184712 -0.00427677   0.0781347   0.0343367  -0.0324535  -0.0262057
  0.0430245    0.049541   0.0527202   0.0289417  -0.0636173   0.0188888 -0.00292502 -0.00859658   0.0202565   0.0123144
#
 -0.0102932  -0.0325475   0.0243855  -0.0148873 -0.00715172  -0.0046278  -0.0205306   0.0239621    0.030069   0.0334804
  0.0510392  -0.0522222   0.0394604   0.0157324   0.0304994  -0.0287942  -0.0268822 -0.00966109   0.0152809    0.018057
-0.00454427   0.0396027   0.0314723  -0.0215333  -0.0580097  -0.0267841  -0.0403508    0.050348 -0.00166123  -0.0212453
#
!
<9>:14
     0.10336   -0.0415797   -0.0105933   -0.0128258    0.0903905   -0.0917216   -0.0410772   -0.0123862      0.03167
   0.0301954   -0.0114668   -0.0251204   -0.0311683   -0.0618693   -0.0253827     0.029373    0.0258474  -0.00292421
  -0.0915844    -0.057571   -0.0114841   -0.0118734   -0.0104885   -0.0499891 -9.14797e-05    0.0346018   -0.0144153
  -0.0101964   -0.0016908   0.00615481   -0.0273313    0.0207176   -0.0356857    0.0241858   0.00651801   -0.0483718
  -0.0258741   -0.0492461    0.0515098    0.0723693   -0.0109944   -0.0454401  -0.00753378    0.0385549    -0.016389
   0.0377718   -0.0333611    0.0367498   0.00257581   -0.0102947    0.0605056    0.0375961   0.00326486    0.0136456
  -0.0212752   0.00536494     0.044807    0.0104323    0.0568071    0.0124697     0.032783   -0.0223378   -0.0188604
  0.00855313    0.0159727   -0.0848987   0.00813675    0.0882332    0.0302053   -0.0252927   0.00485468    0.0188807
  -0.0601851   -0.0158758   -0.0162373   -0.0121992    0.0201314  -0.00155632    0.0654328    0.0214017  -0.00280985
   0.0268127  -0.00784122   -0.0966635   -0.0127654    0.0316328    0.0426267   -0.0322978  -0.00521072    0.0486872
#
   0.0400299    0.0069893    -0.020415    0.0214636    0.0187937     0.019741  -0.00485117    0.0415314   -0.0324393   0.00517719
  -0.0364741    0.0574306  -0.00345113   -0.0572516    0.0388641   -0.0433877    0.0416326   -0.0720929   -0.0340975 -0.000841518
   -0.038952    0.0467441  -0.00168919  -0.00903648   0.00915079   -0.0202056    0.0485783   -0.0416798     0.044237    0.0119213
  0.00795129   -0.0314581   -0.0142671    -0.029452    0.0113154   -0.0249937    0.0216654    0.0673749   0.00997474    0.0104245
 -0.00846737    0.0559187    0.0298016     -0.03139      0.02922    0.0389436   0.00766137   -0.0325474    0.0425677  -0.00425806
  -0.0516792    0.0274103   -0.0427639   -0.0121836    0.0737597   -0.0125142   -0.0295585   -0.0959571    0.0990839    0.0215449
  -0.0654769   -0.0887292    0.0473431   -0.0583072  -0.00487136   -0.0127603    0.0618542   -0.0412259  -0.00663069     0.028478
  -0.0475519   -0.0230632   0.00977908    -0.019174   -0.0842726   -0.0418107   -0.0162095    0.0456249    0.0547615   0.00169857
  0.00739453    0.0535946   -0.0744807    0.0127338   0.00868634    0.0291322    0.0287537  0.000119207    0.0189011    -0.019018
   0.0571132   -0.0982013   -0.0383335    0.0390763    0.0246514   0.00463807   0.00612588    0.0337579  -0.00422739    -0.114985
#
  0.0199586  -0.0453353 -0.00286003   0.0241886  0.00843569  -0.0200803  -0.0270171  -0.0150287   0.0367373  -0.0454502
 -0.0552182   -0.024682   0.0088005   -0.013408   0.0591336  -0.0289655   0.0287205  -0.0337422  -0.0157366   0.0604267
 -0.0403079  -0.0384503   -0.050561   0.0593154   0.0364549  -0.0357757 -0.00532331    0.050674  0.00829587   0.0335476
 -0.0348199  -0.0278524   0.0416684   0.0475545   0.0128984    0.011825   0.0174797  -0.0665033  -0.0236092   0.0248268
 -0.0194436   0.0176662   0.0262827  -0.0629602   0.0348959  -0.0109165  -0.0619649   0.0284851  -0.0187343  -0.0763694
 -0.0262633   0.0471804  -0.0333411   0.0115102   0.0168845  -0.0169027   0.0864966   0.0180276  -0.0631197   0.0309842
    0.07244  -0.0803587   0.0462498  -0.0257894   0.0751761  -0.0388305   0.0119063   0.0459361  -0.0472474   0.0186017
 -0.0255275  -0.0252634  -0.0153672  -0.0467364  -0.0474427   0.0287681  -0.0206028  -0.0280944  -0.0861709  0.00835436
 -0.0446217    0.082405   0.0591233    -0.09481   0.0379425  -0.0196873   0.0828575   0.0154756  -0.0361274  -0.0324811
  0.0247288   0.0358606   0.0361693   0.0302108   -0.062734   0.0192563  -0.0168916  0.00481622   0.0144624   0.0271938
#
 -0.0126342  -0.0375858    0.032199  -0.0110197   0.0168112  -0.0154635 -0.00394397   0.0272239   0.0136906   0.0303143
  0.0332192  -0.0685983   0.0358647   0.0224814   0.0156444  -0.0460981  -0.0237082  -0.0016079  -0.0100889   0.0319416
 -0.0100826   0.0568547   0.0385978  -0.0359556    -0.05787  -0.0334046  -0.0564002    0.038779 -0.00348417  -0.0134352
#
!
<66>:13
   0.0543444    -0.048964   -0.0153837   -0.0477854    0.0691018   -0.0737864   -0.0141603   0.00196824    0.0218933
    0.021094  -0.00646644    0.0501151   -0.0470345   -0.0237277  -0.00406414   -0.0348179    0.0458956  -0.00338925
  -0.0640666   -0.0133942   -0.0538837 -0.000800456   -0.0191635    0.0242852   -0.0227706    0.0681796  -0.00730221
  0.00325731   -0.0390673   0.00554219   0.00547762   -0.0358891   -0.0100014    0.0185842    0.0264065  -0.00386477
    -0.03739   -0.0085402    0.0310441    0.0254757    0.0263823   -0.0208221   -0.0183379    0.0262248    0.0188103
 -0.00965662    0.0156786   0.00949474  -0.00323042   -0.0143268    0.0217167   -0.0276848      0.02491    0.0561255
   0.0321574    0.0421416    0.0611178   -0.0341006    0.0677548    0.0485842   -0.0261729    0.0203011    0.0192896
  -0.0274512   -0.0154658   -0.0118783   -0.0177217    0.0559771    0.0114732     0.041156   -0.0526872    0.0225098
  -0.0222647  -0.00613568   -0.0320675  -0.00878255    0.0311643   -0.0154878    0.0575162   -0.0161735   -0.0625226
   0.0550389    0.0135994   -0.0114633   -0.0279721   0.00531224   0.00617838   -0.0178407  -0.00219743    0.0343016
#
  0.0154981   0.0138988 -0.00772388    0.016926   0.0179918   0.0218805   0.0121058  0.00220252 -0.00100034   0.0137197
  0.0330443  -0.0147394  -0.0145851  -0.0115024  -0.0158416   0.0363103 -0.00920539  -0.0638723   0.0230546 -0.00867451
 -0.0286763    0.050945  -0.0168643   0.0366483   -0.011431   0.0630244  -0.0278541  -0.0155877   0.0456767 -0.00021139
 -0.0210418   0.0346628  -0.0437987  -0.0408307  0.00387636  -0.0103842  -0.0349209   0.0018984 -0.00965493 -0.00269923
  0.0078001   0.0215505  -0.0104262  -0.0208064   0.0353818   0.0296796    0.030629   -0.041282  -0.0283613  -0.0363724
 -0.0397442  0.00909811  0.00756676  0.00702663   0.0369487 -0.00320124  0.00240961   -0.100364   0.0403785   -0.044802
 -0.0745031  -0.0213846   0.0251579  -0.0721795 -0.00933219 -0.00999822   0.0535289  -0.0145867   0.0189749   0.0183825
-0.00738896   0.0264224   0.0446057  -0.0530391  -0.0153075 -0.00926441  -0.0249551 -0.00607802   0.0387419  0.00386258
  -0.012696  -0.0175754   -0.024346    0.033207  -0.0123145 -0.00201839 -0.00222124 -0.00407789   0.0768768 -0.00427501
-0.00209037  -0.0781219  -0.0346827   0.0181431 -0.00117552  -0.0188128  0.00819168   0.0105644   0.0511409  -0.0621716
#
  0.0517466  0.00481421  -0.0339313 -0.00483577   0.0477332  -0.0153647   0.0250435  -0.0351017  0.00490594   0.0288468
   -0.07894  -0.0569538   0.0667072  -0.0215807   0.0278715  -0.0331303   -0.012833   0.0211792   0.0348229  -0.0375554
 -0.0347948  -0.0387492  -0.0719093  -0.0313399   0.0397483  -0.0152434 -0.00946932   0.0394665   0.0230624   0.0507065
 -0.0265393  0.00990623   0.0666819  -0.0107263   0.0259031   0.0152314   0.0168093  -0.0548389 -0.00349072   -0.013655
-0.00740856    0.011418   -0.024013 0.000766646   0.0205297   0.0335007  0.00321287  0.00735825 -0.00480716  -0.0480394
 -0.0177182   0.0160076  0.00927775  0.00228844  -0.0249893  -0.0412301   0.0215105  -0.0194829  -0.0730603 -0.00286317
 -0.0126127  -0.0680932   0.0529627  -0.0119313  -0.0110779  -0.0127221   0.0227836  0.00561927   0.0211516   0.0232983
  0.0175417  -0.0154083   -0.100792   -0.039673  -0.0572308  0.00608875  0.00221027   0.0237205   -0.056933 -0.00473614
-0.00733263   0.0390993 -0.00601304   -0.063708 -0.00687616  -0.0494074   0.0393506  -0.0226741   0.0253122  -0.0266465
  0.0141957  0.00246562   0.0168274   0.0250522 -0.00880248   0.0640011 -0.00103298  -0.0344872   0.0339056   0.0210165
#
 0.00875033  -0.0118732  -0.0134922  -0.0184456   0.0118526   0.0125212  -0.0153189  0.00611044    0.025337  -0.0404271
 0.00845022 -0.00523268   0.0214735   0.0697491   0.0382805  -0.0655695  -0.0518577  -0.0385873 -0.00762674    0.043899
  0.0141067   0.0558233   0.0600086   0.0155635  -0.0295073  -0.0534471  -0.0382436  -0.0323894   0.0378595  -0.0157997
#
!
<60>:13
   0.0329526   -0.0263367   -0.0194042   -0.0408717     0.069284   -0.0613505   -0.0135269 -2.97868e-05    0.0116865
  0.00341301   0.00336183    0.0381549   -0.0243922    -0.025416  -0.00708038   -0.0100333    0.0421756  -0.00673581
   -0.062618   -0.0129631   -0.0370947   0.00574033   -0.0245438    0.0139099  -0.00874702    0.0650963   0.00221507
  -0.0131719   -0.0274419   0.00936554   0.00613921   -0.0331776   -0.0052534    0.0279477    0.0215654  -0.00681851
  -0.0464584   -0.0120104    0.0353325    0.0208555    0.0255653  -0.00922778   -0.0211343    0.0340423    0.0319788
 -0.00258728    0.0134415     0.017464   -0.0164199  -0.00627113    0.0320051   -0.0151153    0.0187134    0.0411069
   0.0416767    0.0243309    0.0312083   -0.0326942    0.0613632    0.0511249   -0.0188988    0.0179338   0.00880515
  -0.0178437   -0.0308094   -0.0189369    -0.014029    0.0543302    0.0189498     0.029575   -0.0466757    0.0272461
  -0.0301572   -0.0124021   -0.0305879   0.00438931    0.0327103   -0.0198092    0.0453045    -0.020762   -0.0533763
   0.0497119    0.0123477    -0.024044    -0.021571    0.0310734   0.00953385   -0.0111187   -0.0130765    0.0337095
#
 0.000327453   0.00187743  -0.00292251   0.00194571    0.0256526    0.0072635   0.00619709  -0.00433573   -0.0125824    0.0231874
   0.0358269  -0.00883767   0.00340393   -0.0067085   -0.0293479     0.030499   -0.0103652   -0.0717791    0.0140092   -0.0111161
  -0.0276684    0.0483105   -0.0149314     0.023447   -0.0010149    0.0554061   -0.0204852   -0.0113458    0.0306846   0.00191553
  -0.0266585    0.0136539   -0.0143045    -0.042353  -0.00474085   -0.0140183   -0.0154733    0.0139594   0.00629554   -0.0106585
 -0.00514342    0.0221947   0.00337799   -0.0100684    0.0363542    0.0473799     0.045347   -0.0329475   -0.0204592   -0.0375271
   -0.058818   0.00984547 -0.000620035    0.0134673    0.0316387   -0.0192254  -0.00192961   -0.0899375    0.0456146   -0.0403152
  -0.0731075  -0.00370913    0.0125408   -0.0715632   -0.0116411   -0.0137874    0.0519611   -0.0283065   0.00984111   0.00851958
 -0.00436527    0.0208689    0.0441023   -0.0527166   -0.0359979  0.000641357  0.000422015  0.000468131    0.0542653   0.00531154
 -0.00165023  -0.00661001   -0.0310248    0.0403647  -0.00142171  0.000174916   0.00735672   -0.0138405    0.0635753  4.06284e-05
   0.0056955   -0.0871629   -0.0378418    0.0328665   0.00731569    -0.014182    0.0201249    0.0289416    0.0324283   -0.0623244
#
    0.046392   0.00620047   -0.0166471  -0.00524438    0.0467791   -0.0137863     0.025337   -0.0178689    0.0188625    0.0311311
  -0.0756481   -0.0441676    0.0603318  -0.00275488    0.0163029   -0.0440081   -0.0166761    0.0125469    0.0387792   -0.0243956
 -0.00983665   -0.0437209   -0.0734279   -0.0302494    0.0201068   -0.0262218    -0.020784    0.0155009    0.0302967    0.0393837
  -0.0143761   0.00620395    0.0723764   -0.0155603    0.0175072    0.0258095     0.029775   -0.0712602   0.00929712  -0.00748732
-0.000955467    0.0224378   -0.0138571   -0.0204364    0.0193202    0.0335526  -0.00179198   0.00457273   -0.0081334   -0.0525794
 -0.00149033    0.0129925    0.0082423   0.00022272   -0.0213212   -0.0387267    0.0287708   -0.0186878   -0.0665895   -0.0124919
  -0.0184583   -0.0565127    0.0436836  -0.00748663   -0.0091055    -0.017024    0.0167021  -0.00498598   0.00404179    0.0253843
   0.0074488    -0.018368   -0.0867498   -0.0401067   -0.0530636    0.0198739    0.0216812   -0.0010574   -0.0591134  -0.00576009
  -0.0181733    0.0389686    0.0039126   -0.0336502   -0.0195134   -0.0471728    0.0443303     -0.02333    0.0189076  0.000668619
   0.0216812  -0.00768322  -0.00479457    0.0280448   -0.0166376    0.0545064   -0.0217647   -0.0232524     0.027123    0.0127955
#
  0.0231075  -0.0180174  -0.0215607  -0.0306589   0.0133617  0.00400229  -0.0246288 -0.00436886   0.0267275  -0.0405546
-0.00242954  -0.0119861   0.0130667    0.071916   0.0197639  -0.0658473  -0.0507206  -0.0288712 -0.00996128   0.0340871
  0.0146153   0.0569531   0.0493651   0.0157705  -0.0244165  -0.0542617  -0.0220722  -0.0166068   0.0409933  -0.0316209
#
!
<7>:13
 -0.0268547    0.169268    -0.05207  -0.0217307  -0.0585746     0.01363  -0.0353457   0.0871662   0.0759701
-0.00867038   -0.148195  -0.0244729   0.0201679   0.0681817   0.0564355  -0.0500289  -0.0242905   0.0314474
-0.00636456 -0.00707563 -0.00174958   0.0114478  -0.0236526 -0.00823774   0.0326329  -0.0879071 -0.00493965
  0.0460566   0.0531914  -0.0344641   0.0149349   0.0293774   0.0225614   0.0579046   0.0479803   0.0234952
 -0.0543415  -0.0538498   0.0132343   0.0322555   0.0427248   0.0132938  0.00959508  -0.0248711   0.0323743
  0.0347699  -0.0150349   0.0257551  -0.0547696  0.00362797   0.0631399 -0.00703974   0.0464485  -0.0414673
 -0.0128736 -0.00983326  -0.0101226  0.00618354   -0.046975  -0.0182962    0.011216   -0.102593  0.00221747
 -0.0550459   0.0608614   0.0668398  -0.0779731   -0.117906  -0.0510743   -0.010678   0.0653295    0.113315
  0.0476552  -0.0358781  -0.0436148  -0.0827192   0.0182744 -0.00782405   0.0438749  -0.0449535   0.0166195
  0.0356785    0.124242 -0.00806741  -0.0427585  -0.0272748   0.0353577  -0.0226775    0.047052   0.0845664
#
 -0.0566912  0.00283022  -0.0620076  -0.0110066  0.00398493    -0.03019   0.0730932   0.0329068   -0.118554  0.00650507
 -0.0393536   0.0140877  -0.0776828  0.00716663  -0.0669355   0.0368481  -0.0381142   0.0270232    0.128536   0.0339744
 0.00669664     0.04732   0.0242025  -0.0908698  -0.0821189  -0.0402768   0.0168862    0.112655   0.0672043  -0.0375388
   0.100523    0.033528  -0.0175929   0.0713671  -0.0256175   -0.045993   0.0308744  -0.0448125   -0.168448 -0.00370056
 -0.0185631     0.10633  -0.0342039    0.086988  0.00554504   0.0499737  0.00984475   -0.029448  -0.0189675   0.0347082
 -0.0374281  -0.0354951   0.0181077   0.0757445 -0.00610239    0.016133   -0.048392    0.088867  0.00232345  -0.0437287
 0.00581671 -0.00250624    0.106114  -0.0529741   -0.050946   0.0886068   0.0380404   0.0149816   0.0345946  0.00125127
 -0.0195458  -0.0865913  -0.0346603  -0.0696671  -0.0579891  -0.0224734  -0.0659682   0.0154951  -0.0244948  -0.0539852
   0.112033   0.0904789  0.00640386  0.00394704  -0.0246988   0.0355859   0.0567981   0.0177689  0.00905983   0.0230805
  0.0151128   -0.134913  -0.0993121   -0.107084  -0.0339231  -0.0129784  -0.0165569   0.0809698   0.0648392  -0.0116641
#
    0.054363     0.012037   -0.0191077   0.00226174    0.0392624   -0.0205145   -0.0167825   0.00788215   -0.0196723   -0.0891559
  -0.0144573   -0.0154394   -0.0109898   -0.0186029    0.0307751    -0.061834     0.103324   -0.0269937    0.0366939     0.032662
  -0.0417048   -0.0765004   -0.0448148  0.000308241    0.0372775   -0.0313507   -0.0132042    0.0107541   -0.0441246    0.0522387
   0.0164534     0.024993   0.00778578   -0.0125646    0.0289044     0.022338    0.0270866   0.00184943    0.0123119   -0.0240378
   0.0311197    -0.043626  -0.00294832    0.0445383   -0.0377907    0.0237046   -0.0589808    0.0174492   -0.0644439   -0.0318009
  -0.0494641   -0.0167124    0.0514059    0.0795413   -0.0744817   -0.0580927    -0.060257   -0.0156584    0.0372609   -0.0671088
-0.000197611      0.07999    0.0707111  -0.00890429     0.106215    -0.071168   -0.0473827    0.0132603   -0.0352471    0.0603095
   0.0276493 -0.000910971    0.0223796    0.0367434    0.0455861   -0.0457512    0.0599706     0.011021    -0.069415   -0.0505543
   0.0229415    0.0669754     0.101834  -0.00989889     0.040385   -0.0468457   -0.0988653    0.0236148   -0.0681631    -0.043448
  -0.0574395    0.0325594    0.0206184   -0.0688727     0.007889    0.0996262    0.0957846     0.023813  -0.00280719    0.0327109
#
 -0.0537758  -0.0478528  -0.0988153  -0.0352509  -0.0143163   0.0238867  0.00774978   0.0246857  -0.0290044  -0.0299469
 -0.0427498  -0.0967037   0.0233961  -0.0214894   -0.119585   0.0580864  -0.0405817   -0.074106  -0.0257807   0.0496486
 -0.0166709  -0.0646876   0.0585146 -0.00231991   -0.097012   0.0225012   0.0432895 -0.00783266  -0.0114014    0.023187
#
!
<8>:12
   0.0896335   -0.0323506   -0.0179061   -0.0397182     0.079815    -0.101218   -0.0306164     0.010074    0.0394732
 0.000381791   -0.0398039 -0.000732079   -0.0376485    -0.046413  -0.00354972    0.0154187    0.0260298    0.0143904
  -0.0745779   -0.0438057   -0.0162439   0.00802856   -0.0152581   -0.0557676    0.0189113    0.0104859   0.00866456
  0.00293577   -0.0195477   0.00701915   -0.0359121   0.00885056   -0.0506624    0.0178412   -0.0051807   -0.0501717
  -0.0251816   -0.0508104    0.0248646     0.046277   0.00481244   -0.0657178    0.0104151    0.0366486    0.0114132
   0.0192418  -0.00200665    0.0225467    0.0215074   -0.0115227    0.0786139    0.0286574     0.014536    0.0230409
  0.00574018   0.00526601    0.0357662   0.00978896    0.0752145    0.0270459    0.0647922   -0.0061331   -0.0208063
 -0.00892633 -0.000832148   -0.0873731   0.00739092    0.0748781    0.0434344   -0.0020654   0.00873223   -0.0159489
  -0.0561413  -0.00822546  -0.00584145   -0.0114645    0.0413354   -0.0173631    0.0681573   0.00651861   0.00840046
    0.043817    0.0250876   -0.0895729     -0.01727    0.0471521    0.0288581   -0.0435172   -0.0226791    0.0348147
#
   0.0319932     0.012339    0.0125983    0.0304907    0.0144634     0.021067    0.0222727    0.0457311  -0.00792305     0.019646
  -0.0115298    0.0194958    -0.022225   -0.0777542    0.0246523   -0.0490419    0.0353337   -0.0466019    -0.051678   -0.0284417
  -0.0321319    0.0335763  -0.00869455 -0.000340146   0.00177069   -0.0233945    0.0176743   -0.0194523     0.031057    0.0159971
  0.00886163   -0.0424584   -0.0192456   -0.0247056   0.00370044   -0.0333592    0.0241821    0.0795545    0.0077552   0.00677326
 -0.00847788    0.0243216    0.0137538   -0.0313197    0.0368327    0.0125147    0.0303822   -0.0257063    0.0355492  -0.00327751
   -0.049962    0.0199466   -0.0187094    0.0171729    0.0628806    0.0207174   -0.0535882    -0.103883    0.0825911   0.00360493
  -0.0682684   -0.0702862    0.0283477   -0.0365981   0.00470389   -0.0327754    0.0669561   -0.0549292   0.00504345    0.0282604
   -0.049526   -0.0298279    0.0209107   -0.0477229   -0.0825875   -0.0228365   -0.0102609    0.0257973    0.0518915    0.0203395
   0.0238564    0.0312582   -0.0741026    0.0501829    0.0348274    0.0158635    0.0127979  -0.00463214      0.04015   -0.0199192
   0.0296625   -0.0825764   -0.0341381    0.0190672    0.0134768   -0.0122058    0.0149978     0.022765    -0.024932    -0.137061
#
   0.0229591   -0.0365064  -0.00531574    0.0218552 -0.000725016   -0.0433895   -0.0395929   -0.0170212    0.0605148    -0.038613
  -0.0408126   -0.0236152   0.00236767  -0.00325194    0.0669836  -0.00835868    0.0135152   -0.0157991    0.0211468    0.0348169
  -0.0166442   -0.0448609   -0.0497068    0.0330519    0.0396343   -0.0412666  0.000105778    0.0621658  -0.00671984    0.0203455
  -0.0527858   -0.0343931    0.0239988    0.0460808   0.00244793    0.0203547   0.00399122   -0.0638929  -0.00101354     0.025184
  -0.0194009    0.0337782    0.0292789   -0.0644891    0.0434501   -0.0268523   -0.0624718    0.0220634  -0.00323512   -0.0920907
  -0.0444825    0.0608034   -0.0502697  -0.00712692    0.0240538   -0.0330351    0.0931223    0.0233635   -0.0670122   0.00536354
   0.0598881   -0.0639874    0.0333475 -0.000378052    0.0560653   -0.0152296  -0.00373993    0.0371668   -0.0381382    0.0153031
 -0.00056378  -0.00450678    -0.023543   -0.0346782   -0.0546395    0.0251373   -0.0236189   0.00608722   -0.0991469    0.0237344
  -0.0112806    0.0778086    0.0554108   -0.0684086    0.0251672   0.00787136    0.0754604    0.0110544   -0.0299527   -0.0293265
   0.0503128    0.0491036    0.0515829     0.036532   -0.0450682     0.018113   -0.0223028    0.0179654    0.0168717    0.0120866
#
 0.00106374  -0.0209596   0.0208413 -0.00899766   0.0189731  -0.0107256 -0.00598181   0.0183623  0.00784641   0.0161153
  0.0357145  -0.0698051   0.0253219  0.00681107    0.025957  -0.0669432  -0.0283607 -0.00192117  -0.0157789    0.028687
-0.00576563    0.047032   0.0305455  -0.0265425  -0.0566921  -0.0293002  -0.0341103    0.031964  -0.0057426  -0.0127952
#
!
<61>:12
   0.0282286   -0.0170845   -0.0301678   -0.0645945    0.0636382   -0.0693469  -0.00332315   0.00626355   0.00576387
-0.000292294    0.0124182    0.0366398   -0.0325609   -0.0103927   -0.0047472   -0.0173197    0.0555814  -0.00818069
  -0.0610809    -0.016473   -0.0365647    0.0153202   -0.0469105   0.00888791    0.0107766    0.0632265   0.00217134
 -0.00240119   -0.0191339    0.0161466   -0.0129062   -0.0324596   -0.0204199    0.0227656    0.0243775  -0.00412613
  -0.0512758   -0.0150414    0.0457501    0.0170412    0.0400364   -0.0138588   -0.0259171    0.0465389    0.0322531
    0.011579    0.0199493  0.000648745   0.00365573  -0.00400087    0.0329102   -0.0202788    0.0402152    0.0395387
    0.050851    0.0125869    0.0339526   -0.0396323    0.0488172    0.0491436   -0.0198125    0.0263993   0.00871595
  -0.0135596   -0.0152137   -0.0145425   -0.0276608    0.0631193    0.0159568    0.0332885   -0.0570417    0.0193385
  -0.0278608     -0.01838   -0.0361882   -0.0172276    0.0299352    -0.029355    0.0721779   -0.0345238   -0.0624504
   0.0501341   0.00955988   -0.0346792   -0.0165658    0.0305177    0.0120073  -0.00265075  -0.00858722    0.0238581
#
  0.00970667     0.015446   -0.0199367   -0.0150387    0.0330104   0.00649951  -0.00676728   0.00397972  -0.00856218    0.0145763
   0.0376077    0.0031647   0.00125565  -0.00344649   -0.0262767    0.0248855   -0.0140284   -0.0772251      0.02429   0.00134343
  -0.0570781    0.0608709   -0.0182094    0.0292471    0.0151398    0.0407157   -0.0238032  -0.00825799    0.0196162    0.0130159
  -0.0237056    0.0129394    -0.019967   -0.0509217   -0.0105671     -0.03632  -0.00986755    0.0165407   0.00238506  -0.00396644
  -0.0215408    0.0263316    0.0100845   -0.0220379    0.0456362    0.0423176    0.0405584   -0.0256973      -0.0198   -0.0358691
  -0.0748444    0.0146772  -0.00068675  -0.00673501    0.0262458   -0.0232728   -0.0183294   -0.0751935    0.0511254    -0.049611
  -0.0804075  -0.00764428    0.0110943   -0.0640697  -0.00831447   -0.0069936     0.022162   -0.0259248    0.0210508  -0.00302755
 0.000273937    0.0240556    0.0443524     -0.05155   -0.0488353  -0.00468902  -0.00941505  -0.00225422    0.0564899    0.0190297
-0.000418592  -0.00431567   -0.0254608    0.0575117   0.00749698  -0.00826825    0.0144965   -0.0281037      0.06269   -0.0118857
  0.00782209   -0.0713981   -0.0471961    0.0374263   0.00709041   -0.0230263   0.00870939    0.0296513    0.0553504   -0.0735374
#
   0.0451757    0.0128428   -0.0043726   -0.0326304    0.0309391   -0.0115453    0.0194714  -0.00077892    0.0212289    0.0288266
  -0.0876528   -0.0610387    0.0658971  -0.00447846  -0.00232211   -0.0316337   -0.0250357    0.0172328    0.0497254   -0.0424885
 -0.00974032   -0.0399186   -0.0617779   -0.0378908    0.0231368   -0.0217776   -0.0235421      0.02201    0.0168187    0.0254174
 -0.00720746    0.0138424    0.0913232   -0.0175878    0.0245249    0.0271535    0.0446892    -0.060877    0.0124102  -0.00297327
  0.00395152   0.00620505   -0.0101591    -0.018167    0.0188158    0.0102773 -0.000410206  -0.00291826  -0.00509107   -0.0694305
 -0.00680937    0.0106674    0.0133291    0.0136279   -0.0191874   -0.0143305    0.0264961   -0.0153764   -0.0615936    -0.007082
  -0.0208934   -0.0689209    0.0506605  -0.00667042  -0.00836965   -0.0232622    0.0159311   0.00228371 -0.000457196    0.0260471
  -0.0103194   -0.0146071   -0.0938266   -0.0389847   -0.0711125    0.0320051    0.0206786  5.90411e-05   -0.0524664   -0.0177697
 -0.00708932    0.0350905  -0.00969174    -0.032523   -0.0184406   -0.0421008    0.0615012   -0.0301469    0.0289868  -0.00477249
  0.00635262   0.00614641  -0.00521859    0.0441641   -0.0351884    0.0679287   -0.0360818   -0.0172107    0.0203786    0.0236336
#
 0.0274767 -0.0151929 -0.0459554  -0.021405  0.0101151 -0.0157156 -0.0228877 -0.0077922  0.0220084 -0.0387466
-0.0113047 -0.0080778  0.0260035   0.065056 0.00164678 -0.0623918  -0.074053 -0.0306449 -0.0107662  0.0576884
 0.0214661  0.0711728  0.0530421  0.0225301 -0.0343469 -0.0709036 -0.0104798 -0.0104744  0.0473857   -0.01841
#
!
<90>:12
  0.0294779  -0.0277837 -0.00340503  -0.0459675   0.0740754  -0.0595725   -0.010653  0.00317271   0.0229928
   0.015427  0.00564147   0.0458243  -0.0325124   -0.023305 -0.00827936 -0.00474734   0.0344662 -0.00450402
 -0.0719278  -0.0192821  -0.0448412    0.031103  -0.0357165  0.00451077 -0.00296587   0.0827417   0.0162696
 -0.0168064  -0.0167846  0.00704469  0.00283533  -0.0359903   -0.013318   0.0346299    0.027475  0.00200712
 -0.0583885 -0.00932802   0.0496556   0.0191543   0.0296044 -0.00671917  -0.0311885   0.0540108   0.0377797
 0.00105102   0.0266021   0.0136582  -0.0166615 -0.00578745   0.0339182  -0.0171373  0.00789934   0.0366774
    0.05607  0.00823805   0.0326081  -0.0297323   0.0617404   0.0490111  -0.0207632   0.0169805   0.0140987
-0.00652729  -0.0484973  -0.0163755  -0.0125377   0.0712559    0.022629   0.0256044  -0.0579493   0.0351218
 -0.0326884  0.00360934  -0.0321625  0.00704687   0.0213776  -0.0185064   0.0646356  -0.0312689  -0.0511019
  0.0394473   0.0117614  -0.0195239 -0.00753581   0.0386904  -0.0033056  -0.0207093  -0.0292646   0.0392054
#
 0.000121192   0.00465425 -0.000880412   0.00585188    0.0252055  0.000518722   0.00238248   -0.0177512   -0.0180168    0.0290574
    0.041372   -0.0151387   -0.0117214  -0.00631989   -0.0408095    0.0296104   -0.0198993   -0.0650816    0.0084837  -0.00950787
  -0.0240585    0.0346004   -0.0549786    0.0184897   -0.0148802    0.0411828   -0.0147859   -0.0276941    0.0277756   0.00657252
  -0.0276535    0.0162577     0.010493   -0.0421518  -0.00793115    -0.031751   0.00409436   0.00308356    0.0181558   -0.0390597
  -0.0204024    0.0332085    0.0029793   0.00603204    0.0328191    0.0648279    0.0455343   -0.0340012   -0.0259887   -0.0394168
  -0.0449362   0.00827625  -0.00598736    0.0187063    0.0249693   -0.0172498   -0.0184245   -0.0995122    0.0604452   -0.0301323
  -0.0774735  -0.00191763    0.0116494   -0.0785562  -0.00904526   -0.0117369    0.0663544   -0.0166046    0.0185747   0.00753619
  0.00625163   0.00399946    0.0400961   -0.0433932   -0.0360311    0.0080305   0.00465808    0.0255168    0.0678712  -0.00137726
  -0.0107887  -0.00192876  -0.00150283    0.0455829 -0.000781012   -0.0083675   0.00214595   -0.0200969    0.0509291  -0.00956316
   0.0048386   -0.0983713   -0.0377847    0.0320948     0.020349   -0.0154107    0.0215061    0.0104092   0.00871616   -0.0623989
#
  0.0536177  0.00826732  -0.0196448 -0.00431436   0.0440475  -0.0029961  0.00975556 -0.00878082 -0.00362962   0.0160333
 -0.0789183  -0.0412212   0.0676972 -0.00285216  0.00130877  -0.0447562  -0.0232286   0.0139053    0.047984  -0.0278543
  -0.014996  -0.0489813  -0.0883407  -0.0413942   0.0305943  -0.0237812   -0.016709  0.00971692   0.0216915   0.0427284
 -0.0270689  0.00991831   0.0666576  -0.0195109   0.0301345   0.0232717   0.0394116  -0.0953692 6.27027e-05 -0.00723472
  0.0204593   0.0292269  -0.0146698  -0.0359769   0.0164713   0.0243166   0.0036923 -0.00376359  -0.0157965  -0.0589246
-0.00765619   0.0107107   0.0179645 -0.00365581  -0.0214238  -0.0223384  0.00958801  0.00121547  -0.0790628  -0.0130746
-0.00370328  -0.0533675   0.0422051 -0.00839791 -0.00694199  -0.0216245  0.00241499  -0.0301276   0.0225503   0.0389214
  0.0191971  -0.0042739   -0.100295  -0.0101236  -0.0572234   0.0304534   0.0325645 -0.00641529  -0.0618491  -0.0123149
  -0.015764   0.0466721   0.0191972  -0.0183728  -0.0314195  -0.0391837   0.0436213   -0.028174  0.00148518  0.00384676
  0.0369907   -0.026757  0.00933856   0.0166012 -0.00744843    0.056823    -0.01067  -0.0241654   0.0210001  0.00765287
#
  0.0230646  -0.0127748  -0.0141989  -0.0244623   0.0142955   0.0224956   -0.035813 0.000388977   0.0228229   -0.050212
-0.00632829  -0.0108438   0.0145743   0.0620295  0.00807387  -0.0685423  -0.0459535  -0.0201002 -0.00307168   0.0459658
   0.012682   0.0414774   0.0500249   0.0167471 -0.00745154  -0.0523521  -0.0528826 -0.00414295   0.0434011  -0.0283228
#
!
<69>:11
   0.0319516     -0.02754   -0.0275621   -0.0454504    0.0698485   -0.0595056    -0.019973    0.0144852   0.00392205
   0.0263969     0.032176    0.0523117   -0.0151154   -0.0351063   -0.0121029   -0.0071253    0.0534019  -0.00722731
  -0.0586898  -0.00357177    -0.033036   -0.0117573  -0.00703236    0.0206366  -0.00460683    0.0678475    0.0168882
  -0.0075857   -0.0457833    0.0128962   0.00120342   -0.0301425  -0.00852975    0.0430557    0.0146866  -0.00906478
  -0.0437223  -0.00545214    0.0316175    0.0304152    0.0213117 -0.000676799   -0.0322423    0.0229132    0.0457475
-0.000311584   0.00645963    0.0305539   -0.0163545  -0.00300586    0.0237784   -0.0112407    0.0111293     0.030061
   0.0428488    0.0367296    0.0338017   -0.0405535     0.053053    0.0586386   -0.0389017    0.0129853    0.0209032
 -0.00631465   -0.0325538   -0.0296684   -0.0178689    0.0458017    0.0164005    0.0129818   -0.0301611    0.0311622
  -0.0225245   -0.0154436    -0.032241   -0.0078893    0.0457287    -0.023098     0.038414   -0.0256514   -0.0645689
   0.0589773    0.0186977  -0.00568286    -0.025431   0.00914693   0.00305876  -0.00858578  -0.00785235    0.0496858
#
-0.000202634  -0.00120549  -0.00503471  0.000714848    0.0345573    0.0173026   0.00761186 -5.26248e-05   -0.0131569    0.0209178
    0.038395   -0.0173897  -0.00504726     0.005955   -0.0376906    0.0341026   -0.0146619    -0.095414   0.00385505   -0.0232258
  -0.0140792    0.0549546   -0.0142385    0.0323485   0.00443482    0.0485846   -0.0167776   -0.0109754     0.037329  -0.00746216
  -0.0299259    0.0290533   -0.0203044   -0.0255851   -0.0105367   -0.0120327   -0.0141726    0.0119722   0.00357089  -0.00261197
 -0.00476188    0.0250298   0.00525658   -0.0106196    0.0289549    0.0272376    0.0372543   -0.0116051   -0.0221064   -0.0539272
  -0.0691537    0.0110465    0.0046454   0.00516357    0.0238108   -0.0171016   0.00279079   -0.0846507    0.0389445    -0.039341
  -0.0891323   0.00123219    0.0238958   -0.0684279   0.00101959  -0.00801935    0.0481702   -0.0067963    0.0140182   0.00865588
   0.0152464    0.0325892    0.0253116   -0.0489171   -0.0470411 -0.000709372 -3.70307e-05   0.00942831    0.0561246   0.00823487
  0.00157714   -0.0085873   -0.0334362    0.0577152 -0.000902239   -0.0160731     0.013234   -0.0264967    0.0632701   0.00491833
   0.0202115     -0.08334   -0.0409283    0.0188764  -0.00155796   -0.0142029    0.0218284    0.0189468    0.0218087   -0.0643717
#
   0.0435805     0.001639   -0.0176141   0.00738886    0.0608863   -0.0103518     0.037191   -0.0261161    0.0205324    0.0293599
  -0.0801227   -0.0367368     0.080336   -0.0124634   0.00477485   -0.0553107  -0.00368355    0.0131588    0.0289487   -0.0446162
  -0.0122057   -0.0508153   -0.0784619   -0.0306758    0.0227575   -0.0126278   -0.0268313   0.00435283    0.0163342    0.0400078
  -0.0144669    0.0272055    0.0757487   -0.0183179    0.0100093    0.0381924    0.0398566   -0.0740181   0.00148892   -0.0227673
-0.000465324    0.0278468   0.00244174   -0.0247114    0.0212578    0.0428666   -0.0123878   0.00298006  -0.00385819   -0.0516436
-0.000800559   0.00899279   0.00209545 -0.000209355   -0.0256017    -0.029804    0.0300118   -0.0100055   -0.0572487    -0.022155
  -0.0126269   -0.0489571    0.0379242    0.0083588   -0.0100105  -0.00662096  -0.00326482  -0.00248456   -0.0033828    0.0192458
   0.0128978   -0.0271635   -0.0792551   -0.0178123   -0.0541796    0.0153916    0.0271871  -0.00664807   -0.0558684   -0.0111365
  -0.0100708    0.0445762    0.0163946   -0.0430033  -0.00554578   -0.0501083    0.0540424    -0.037776    0.0147586  -0.00661151
 -0.00109354   -0.0116454  6.37408e-05    0.0271264   -0.0164285    0.0446824   -0.0272773   0.00165181    0.0178652   0.00783202
#
 0.0344768 -0.0188409  -0.038626 -0.0264048 0.00826923  0.0033658 -0.0358123 0.00486124 0.00960332 -0.0265605
0.00143422 0.00974945 0.00922374  0.0506809  0.0287331 -0.0682501 -0.0268979 -0.0237255 -0.0148815  0.0277141
0.00697896  0.0310055  0.0503002  0.0207915 -0.0280091 -0.0570548 -0.0308535 -0.0141942  0.0299219 -0.0312219
#
!
<13>:11
   0.0969344   -0.0327847   -0.0309149   -0.0129454    0.0797208   -0.0938852    -0.028849    0.0144984    0.0456496
   0.0291446   -0.0283619   -0.0252941     -0.04804   -0.0570421   -0.0149992   0.00173691   0.00722502    0.0147593
   -0.100152   -0.0605027   -0.0205288   -0.0127889   0.00418181   -0.0529126  -0.00721917    0.0417829  -0.00697917
 -0.00539497   -0.0406748  -0.00193296   -0.0079877    0.0181873   -0.0603112    0.0237122   -0.0347648   -0.0329979
  -0.0312693   -0.0546299    0.0233864    0.0544634  -0.00158515   -0.0658584    0.0111675    0.0400219    0.0137125
   0.0224313   0.00145154    0.0448965    0.0184269   0.00300356     0.104661   0.00687806    0.0258811    0.0107038
 0.000914311  -0.00970358    0.0215569   -0.0259906    0.0595784    0.0177275    0.0498441   -0.0376549   -0.0101286
  0.00848988   -0.0295539   -0.0537276    0.0053436     0.086278    0.0310484  -0.00664439   0.00893683   -0.0419257
  -0.0350732   -0.0361421   -0.0207829   0.00911764    0.0355882   0.00323382    0.0428594    0.0220076 -6.96719e-05
   0.0439171  0.000821411   -0.0615956   -0.0392772    0.0373083    0.0184218   -0.0324381   -0.0151393    0.0299125
#
   0.0351147    0.0483205   -0.0142125    0.0152027    0.0199677   -0.0175599   0.00477896    0.0496705   -0.0343719    0.0343239
-0.000738944    0.0390827   -0.0304617    -0.031353    0.0341594   -0.0259233    0.0133245   -0.0357329   -0.0397671  -0.00897439
  -0.0220928    0.0411709    -0.017391     0.016526   0.00838671    -0.029342      0.03316   -0.0103244    0.0385248    0.0187731
    0.014846   -0.0359036   -0.0216998   -0.0130683    0.0276012   -0.0284418    0.0177141    0.0588099  -0.00122746   0.00894595
  -0.0171174    0.0572188    0.0288062   -0.0194657    0.0528519    0.0395742    0.0313075   -0.0217192    0.0389939    0.0128631
  -0.0584007    0.0349545   -0.0321037    0.0103054    0.0673532   0.00687417   -0.0318096    -0.106364    0.0640677    0.0121369
  -0.0615646   -0.0972394    0.0247221   -0.0510272  -0.00592829   -0.0178489    0.0593742   -0.0355736    0.0256145    0.0303545
  -0.0640456   -0.0158932   0.00508253   -0.0391419   -0.0845584    -0.024354   -0.0102171    0.0418203    0.0469193    0.0203629
   0.0363503    0.0376489   -0.0610479    0.0333923    0.0279705    0.0428613   0.00740467   -0.0127054    0.0342277   -0.0212885
   0.0246294    -0.117665  -0.00927361    0.0173058    0.0336309    -0.014097  -0.00830993    0.0287283      -0.0287    -0.118868
#
   0.0184904   -0.0122237     -0.02139    0.0161672    0.0110997   -0.0460069   -0.0412106   -0.0416189    0.0603212   -0.0488063
  -0.0523586   -0.0487503   0.00408229   -0.0291761    0.0577266   -0.0156205    0.0190324   -0.0159352    0.0302171    0.0310306
  -0.0465493   -0.0354426   -0.0557964    0.0364533    0.0122665   -0.0366119  -0.00392116    0.0691138    0.0135605    0.0326097
  -0.0410359   -0.0236766    0.0327227    0.0306675   -0.0139706    0.0286332    0.0248195   -0.0850365  0.000982199    0.0380642
-0.000537622    0.0344177    0.0281499   -0.0738575     0.069521   -0.0281574   -0.0509951    0.0309151  -0.00305798    -0.093643
  -0.0253703    0.0418837   -0.0296839    0.0194068    0.0144574   -0.0346295     0.098315    0.0320848   -0.0674768    0.0159173
    0.073804    -0.072038    0.0331815   -0.0153754    0.0621736   -0.0157721   0.00479253    0.0309819   -0.0303579   -0.0087219
   -0.029601   -0.0224555   -0.0228291   -0.0411556   -0.0400694    0.0186012   -0.0077142   -0.0226993   -0.0839108   0.00372351
  -0.0142543    0.0817153    0.0777629   -0.0591573    0.0314599   0.00487797    0.0852314    0.0219957   -0.0328967   -0.0361939
   0.0601099     0.033946    0.0602146     0.036425   -0.0515228    0.0253454   -0.0121415   0.00614436   0.00573597    0.0303782
#
 -0.0144316 -0.00568123   0.0247747 -0.00925328   0.0158112  0.00592069 -0.00838223   0.0181112  0.00244585   0.0226237
  0.0361437   -0.057971   0.0150332   0.0213793    0.030894  -0.0751083  -0.0439729  -0.0124571  0.00657792   0.0302613
  0.0218647     0.04601   0.0607918  -0.0480723  -0.0531024  -0.0150729  -0.0569595   0.0121443  0.00153704  -0.0230519
#
!
<88>:11
  0.0399603   -0.034517 -0.00639049  -0.0380391   0.0761207  -0.0687885 -0.00869782   0.0183418  0.00256342
-0.00441551  0.00730233   0.0459481  -0.0259196  -0.0344192  -0.0167975 -0.00523156   0.0380688   0.0126263
  -0.058627  -0.0137089  -0.0105131   0.0216787 -0.00300067  0.00102454   -0.017678    0.080602  -0.0146301
 -0.0146363  -0.0282819   0.0146541  0.00282354  -0.0291296  0.00134404   0.0206256    0.004524 -0.00235752
 -0.0314159 -0.00851603   0.0420898   0.0143098   0.0258814  -0.0116877 -0.00902714   0.0299662   0.0239918
 0.00944462   0.0153963  0.00566608  -0.0306071 -0.00644507   0.0512549  -0.0105137   0.0206898   0.0421219
  0.0475714   0.0189125   0.0315974  -0.0351168    0.070388   0.0660158  -0.0210345   0.0174444  0.00986637
 -0.0287055  -0.0325898  -0.0244402 -0.00632658   0.0439262   0.0103717   0.0133685  -0.0505642   0.0191808
 -0.0186464  -0.0270624   -0.031891 -0.00285775   0.0168367   -0.011954   0.0227371  -0.0269489  -0.0527517
  0.0422789   0.0381052  -0.0316111  -0.0307657   0.0267489  -0.0030693  -0.0282385  0.00373643   0.0339174
#
 -0.00490721   0.00765484  -0.00769818  -0.00407294     0.023785    0.0197743   0.00162605   -0.0046721   0.00074837    0.0321187
   0.0462554   -0.0031944    0.0203813  -0.00915166   -0.0186802    0.0301503  -0.00400523   -0.0740934    0.0113318   -0.0181152
  -0.0389244    0.0451457    -0.012385    0.0350127  -0.00551427    0.0655868    -0.027681  -0.00792224    0.0592426   0.00365173
  -0.0162609    0.0244255   -0.0135252   -0.0538518  -0.00305681   -0.0265023  -0.00563698    0.0178913  -0.00097882   -0.0159489
 -0.00390398    0.0310202   -0.0271634   -0.0188504     0.028178    0.0646254    0.0536699   -0.0317437   -0.0311105   -0.0493126
  -0.0565627    0.0136558  -0.00804841    0.0154409    0.0179508  -0.00911568    0.0270484    -0.095984    0.0575891   -0.0429076
  -0.0853724   0.00771488    0.0149919    -0.067287   -0.0139038   -0.0239441     0.061005   -0.0305015    0.0161587    0.0217749
 -0.00176904    0.0334175     0.040397   -0.0506334   -0.0263497  -0.00509415   -0.0140234 -0.000130514    0.0488994   0.00793925
  0.00122226   -0.0138836   -0.0282103    0.0540563   -0.0129567    -0.014469    0.0201773   -0.0225701    0.0615019  -0.00226917
 0.000348388   -0.0903891   -0.0399027    0.0179625    0.0131549  -0.00163202    0.0243799    0.0206217    0.0190743   -0.0691785
#
   0.0534444   0.00200686   -0.0124165    0.0164095    0.0502266   -0.0121268    0.0223836   -0.0275232    0.0132146    0.0353201
  -0.0873238   -0.0453898    0.0476401  0.000462169    0.0234124   -0.0392137   -0.0297563   -0.0010348    0.0469434   -0.0224042
  -0.0123641   -0.0526706     -0.10353   -0.0308891    0.0101116    -0.026609   -0.0248148    0.0223859    0.0233043    0.0322381
  -0.0275794   0.00112841    0.0557332   -0.0226537   0.00934492    0.0340027    0.0327202    -0.065561     0.016286  -0.00304302
  -0.0114003    0.0123682  -0.00660158   -0.0173177    0.0228526    0.0182204   -0.0137088  -0.00660783   -0.0142601   -0.0551772
   0.0116299    0.0192418  -0.00586049  -0.00631437   -0.0351139   -0.0453292    0.0221092   -0.0223335   -0.0586388  -0.00267684
   -0.019832   -0.0393501    0.0363609   -0.0216113  -0.00262559   -0.0179428   0.00657101    0.0134077   0.00738858     0.018158
   0.0069257   -0.0178267   -0.0845051   -0.0305747   -0.0435957    0.0198099   0.00259117   0.00143895   -0.0729783   -0.0240676
  -0.0128454    0.0326522   -0.0122904   -0.0494049   -0.0152235   -0.0542888    0.0525695    -0.038055   0.00679671   0.00349153
   0.0202558  -0.00499871  -0.00825526    0.0284081   -0.0146036    0.0631242   -0.0368616  -0.00579758    0.0166743 -0.000869587
#
   0.0139657   -0.0212017 -0.000263668    -0.029237   0.00376816     0.012659   -0.0290188   0.00183653    0.0264113   -0.0277082
  -0.0111513   -0.0212826     0.018295    0.0739985     0.025863   -0.0728126   -0.0502385   -0.0364949   -0.0257684    0.0272113
   0.0056793    0.0542785    0.0586917    0.0153712   -0.0104166   -0.0449249  -0.00171147   0.00024338     0.040478   -0.0290214
#
!
<19>:10
   0.108398  -0.0503529  -0.0224149  -0.0118063   0.0726497   -0.111512  -0.0165665  -0.0103519   0.0304202
  0.0100063  -0.0464766   -0.035817  -0.0385312  -0.0624974  -0.0235236  0.00739491   0.0229057  0.00411067
 -0.0697237  -0.0432157  -0.0280434 -0.00350216  -0.0221869   -0.053962  -0.0101899   0.0368637 -0.00716817
 -0.0089692   -0.012514   0.0103953  -0.0114185   0.0152091   -0.069724   0.0530803  -0.0146189  -0.0519717
 -0.0230557  -0.0326535   0.0282601   0.0515506   0.0222888  -0.0457005  -0.0043726   0.0453789  -0.0153541
  0.0209828 -0.00299326   0.0330673    0.036497  0.00203996    0.090961   0.0183113   0.0132351   0.0155697
 0.00958197  0.00129718   0.0324427 -0.00052186   0.0779566   0.0137229   0.0496116 -0.00669314  -0.0266571
 0.00473128   0.0056223   -0.047845  0.00607735   0.0896175   0.0322349 -0.00842969  0.00424594  0.00728947
 -0.0454482  0.00394173  -0.0125531   0.0135272   0.0474436  -0.0179088   0.0560918   0.0111137  0.00507657
   0.022539   0.0238175   -0.071547  -0.0292655   0.0303713   0.0297966  -0.0320541  -0.0217458   0.0490255
#
   0.0329034    0.0419015   -0.0351348     0.028334   0.00515372  -0.00897234  -0.00288796    0.0525497   -0.0209325    0.0113937
  -0.0198597    0.0381269   -0.0125252   -0.0529788    0.0264727   -0.0236673     0.031543   -0.0526595   -0.0495643   0.00848782
   -0.035468    0.0549123 -0.000442791   -0.0176733 -0.000411794   -0.0256986    0.0234188   -0.0342028    0.0237802    0.0168339
   0.0010599   -0.0594199   -0.0313375   -0.0124347    0.0105099    -0.035259    0.0117999    0.0683985    0.0208914   0.00503547
   -0.013312    0.0256925    0.0168588   -0.0132065    0.0458921    0.0221256     0.030248   -0.0151092    0.0483047  0.000503201
  -0.0605609    0.0272308   -0.0453765    0.0196921    0.0676807    0.0240346   -0.0524089    -0.107129    0.0682874   0.00825089
  -0.0596406    -0.074389    0.0378716   -0.0522191   -0.0127707   -0.0193464    0.0500506   -0.0459354   0.00974948    0.0304331
  -0.0503866     -0.01194    0.0146022   -0.0404419   -0.0857313   -0.0426975   -0.0254532    0.0439895    0.0554351    0.0137767
     0.01632    0.0400997    -0.058188    0.0508211    0.0132996    0.0181689   0.00932804   -0.0172041    0.0361227   -0.0276575
   0.0320016    -0.100069   -0.0318873    0.0402748    0.0417798    0.0175508  -0.00423862    0.0372852    -0.012561    -0.116808
#
   0.0368437    -0.042942   0.00167171    0.0277573    0.0233544   -0.0359514   -0.0374755   -0.0338758     0.039004   -0.0528608
  -0.0568121   -0.0601265    0.0181064    0.0109136    0.0773287    -0.018207    0.0353082  -0.00936366    0.0316087    0.0392798
   -0.036677   -0.0217545   -0.0424353    0.0417369    0.0256837   -0.0344907   -0.0111794    0.0466112 -0.000517075    0.0379944
  -0.0249401    -0.024436    0.0412354    0.0543559 -0.000706226    0.0189299    0.0228701   -0.0714245   -0.0169025    0.0394277
  0.00802101    0.0333591    0.0415091   -0.0563045    0.0580132   -0.0325919   -0.0385174    0.0115891   0.00564093   -0.0841884
  -0.0486165    0.0434469   -0.0450908   0.00472695    0.0124799   -0.0236059    0.0846424    0.0262379   -0.0877363     0.011822
   0.0892259   -0.0666065    0.0379204   -0.0212559     0.073083    -0.016367    0.0197469    0.0460503    -0.015221    0.0161309
 -0.00922649  -0.00957134  -0.00663336   -0.0610547   -0.0427908    0.0351892   -0.0386838   -0.0133748   -0.0916149    0.0273613
 -0.00637235    0.0723238    0.0671356    -0.068226    0.0280571   -0.0255428    0.0731364    0.0138759   -0.0386899   -0.0337742
   0.0573523    0.0435369    0.0644579     0.026623   -0.0384218    0.0177653  -0.00542406    0.0122902    0.0240015    0.0217166
#
-0.00690261   -0.017709   0.0232122  -0.0142618   0.0197032   0.0147981  -0.0248452   0.0384235   0.0220184    0.017259
  0.0448636  -0.0616804   0.0183144   0.0118504   0.0259943    -0.04895  -0.0174048 -0.00833028 -0.00873639   0.0300725
  0.0105381   0.0374603    0.046686  -0.0191596  -0.0823719  -0.0378743  -0.0401156   0.0397805   0.0194772  -0.0191522
#
!
<68>:10
  0.0492411  -0.0263463 -0.00674757  -0.0546907   0.0628344  -0.0679792  -0.0112764  0.00200951   0.0117218
  0.0101044  0.00684282   0.0123651  -0.0200603  -0.0167943  -0.0209326 -0.00401251   0.0574469   0.0088525
 -0.0634955  -0.0206717  -0.0361788 -0.00146149  -0.0279199  -0.0216266 -0.00466638   0.0627586   0.0184533
 -0.0281372 -0.00951172   0.0099891  0.00120298  -0.0426011 -0.00927175   0.0313863   0.0128666    0.019267
 -0.0652148  -0.0071198   0.0231595   0.0209619    0.021002  -0.0137033   -0.036481   0.0352235   0.0464577
 -0.0108407   0.0215489   0.0265929 -0.00382052   0.0113789   0.0341099  -0.0212192   0.0134181   0.0428065
  0.0426003   0.0293809   0.0260813  -0.0466205   0.0628268   0.0486458  -0.0183131   0.0277137   0.0110842
-0.00993245  -0.0315571  -0.0282702  -0.0078185   0.0478754   0.0119391    0.041086  -0.0478238   0.0106488
 -0.0166679  -0.0172226  -0.0216596  -0.0030456   0.0164276 -0.00696786   0.0581671  -0.0295229  -0.0398465
  0.0426457   0.0146047  -0.0172752  -0.0161203   0.0384257   0.0320103 -0.00629873  -0.0304768   0.0221197
#
  0.00353374   -0.0134146  -0.00543094   -0.0132173    0.0316041    0.0198389    0.0170234    0.0066916   -0.0217819    0.0246106
   0.0288284     -0.00996   0.00848653  -0.00201857   -0.0319449    0.0370115   -0.0104045    -0.065024    0.0118723  -0.00957207
  -0.0281548     0.040112   -0.0248681    0.0368218    0.0193811    0.0449161   -0.0269276   -0.0115509    0.0521732   0.00537945
  -0.0170537    0.0106956   -0.0205031   -0.0396721   0.00716179   -0.0317638   -0.0106145   0.00428834   -0.0164614   0.00030848
 -0.00518422    0.0416624   0.00961718   -0.0171168    0.0288731    0.0425682    0.0542086   -0.0193273   -0.0242096   -0.0513689
  -0.0717376    0.0165375   0.00585685    0.0282444    0.0281343  -0.00947459   0.00524446   -0.0820923    0.0601815   -0.0421172
  -0.0648826   0.00300492     0.011787   -0.0677393   -0.0315155   -0.0169007    0.0239732    -0.029727   0.00336202    0.0155145
  0.00274206    0.0248794    0.0325778   -0.0594577   -0.0381834   0.00833338    0.0173612 -0.000132126    0.0531778   0.00712375
 -0.00810047  0.000619562   -0.0201319    0.0328253   0.00568526   0.00994405  -0.00381227   -0.0301832    0.0704085    0.0041087
 -0.00652143   -0.0932524   -0.0208402    0.0311984 -7.25234e-05   -0.0209996    0.0283594    0.0507116    0.0335821   -0.0647385
#
   0.0425107    0.0145429    -0.011824   -0.0193239    0.0399838   -0.0355459    0.0046736    -0.026678    0.0370849    0.0368205
  -0.0706796   -0.0410595    0.0835631   0.00283313   0.00349002   -0.0338951   -0.0136733    0.0180878    0.0303584   -0.0258534
  -0.0187049   -0.0434121   -0.0829023   -0.0440358    0.0205537  -0.00750558  -0.00613695 -0.000480023    0.0397687    0.0293508
 -0.00562368    0.0190609    0.0711146   -0.0298965    0.0107405    0.0432024    0.0198775   -0.0655599   -0.0143131    0.0133231
    0.013958    0.0322972   -0.0228777   -0.0252416     0.019691    0.0418745    0.0112426  -0.00466457  -0.00377588   -0.0743276
 -0.00100016     0.017776    0.0129745   0.00263835   -0.0262757    -0.031747    0.0241063   -0.0231798   -0.0513827   -0.0166282
  -0.0298036   -0.0653704    0.0439785   -0.0170434   -0.0118598   -0.0160606    0.0144407   -0.0163089   0.00274432   0.00838322
  0.00475183  -0.00476002   -0.0862577   -0.0593709   -0.0716526    0.0196735    0.0268741  -0.00126357   -0.0537699  -0.00582867
   -0.017119    0.0260998  0.000195292   -0.0455211   -0.0325281   -0.0423283    0.0516528   -0.0363543    0.0142096   0.00841591
   0.0154707   -0.0217718    0.0108013    0.0242391   -0.0258709    0.0580185   -0.0245423   -0.0193163     0.010568    0.0127825
#
  0.0220714  -0.0219263  -0.0154737  -0.0371982   0.0100356 0.000502487  -0.0459463 -0.00581998   0.0109523  -0.0408868
-0.00125784 -0.00103207  0.00848019   0.0779174   0.0287455  -0.0539574   -0.046206  -0.0206929 -0.00267822    0.037284
  0.0215673   0.0422121   0.0422732   0.0282425  -0.0207342  -0.0664457 -0.00721731  -0.0253039   0.0486473  -0.0290944
#
!
<23>:9
 0.00997472     0.10001   0.0693714   0.0599623   0.0156368  -0.0417721 -0.00182967   -0.123914  -0.0179135
  0.0486136  -0.0458444 -0.00964831   0.0458334   0.0193323  -0.0448736  -0.0700004  -0.0261055  0.00103179
 0.00757837  -0.0706154  -0.0563494   0.0254503   -0.024799  0.00167286   0.0365102  -0.0298694   0.0663699
 -0.0295426 -0.00742201   0.0147002  0.00203958   0.0162794  -0.0168471  -0.0478434  0.00436777  -0.0450809
  0.0346099  -0.0410774   0.0711857  -0.0666361   0.0254258    0.079511  -0.0423107   0.0414187  -0.0531547
 -0.0287994   0.0398666  0.00432742   0.0568414  -0.0216407  -0.0738154  -0.0552391   0.0632779  -0.0417152
  0.0211336   0.0499752   0.0258985   0.0813536  -0.0157464 -0.00551591   0.0330923   0.0567773    0.150113
 -0.0302672   0.0189194  -0.0015143   -0.115481  -0.0496386  -0.0797909  -0.0215548   -0.075794  -0.0339541
 -0.0714544   0.0733838  -0.0819253   0.0100282   0.0749762   0.0156074    0.030709   0.0236296  -0.0278485
  -0.145963 -0.00417153  -0.0298217   -0.114436   0.0485442 -0.00208083    -0.03795   0.0656061   0.0407746
#
   0.0804947    -0.119183    0.0207436   0.00434343   -0.0766385    -0.113906   -0.0213661    0.0390043   -0.0359741   -0.0601624
 -0.00305069   -0.0105919   0.00893767  -0.00448035    0.0227294   0.00550113   -0.0504508   0.00617828   -0.0264584   -0.0108718
    0.104364    0.0118513   0.00519707   -0.0589001   -0.0176613    0.0181934     -0.11086   -0.0551275   -0.0217851   -0.0107777
 0.000369596   -0.0380595    0.0447919    0.0741734    -0.062504 -0.000278469   -0.0588573    -0.074106    -0.021399   -0.0242923
 -0.00528058   -0.0580647    0.0183818   -0.0322976  -0.00223103   -0.0486096    0.0150352     0.125838   -0.0362501    0.0791612
   0.0155927   -0.0781935 -0.000262066    0.0570854   -0.0294668   0.00426264   0.00885917    0.0172712    0.0356533    0.0812091
   0.0290694   0.00563177  -0.00361667    0.0240704    -0.054684    0.0361238   0.00412985   -0.0814091    -0.020715    0.0153665
  -0.0139135    0.0579869   0.00365104   -0.0141976     0.029872   -0.0191363   0.00569612   -0.0523167   -0.0171079    0.0284531
  -0.0783329   -0.0185132   -0.0414078    -0.100592   -0.0269534     0.078498   -0.0208754    0.0464139    0.0331885   -0.0278666
 -0.00449496   -0.0112247   -0.0809725    0.0733499   -0.0427098   -0.0134081    0.0127073     -0.03337   -0.0719306    -0.029366
#
 -0.0322005   0.0577645  -0.0760751     0.06036  -0.0211149  -0.0257277  -0.0522196  -0.0685679   0.0548896  -0.0530162
 -0.0337736  -0.0776128 -0.00788782  -0.0353857   0.0353563   0.0490711  -0.0320856   0.0606845  -0.0576112    0.107473
 -0.0239029   -0.116442   0.0106122  -0.0038497  -0.0233682  -0.0311359  -0.0535873 -0.00468482  -0.0606579   0.0461506
  -0.049012  -0.0592002 -0.00537198  -0.0415639   0.0380573   0.0216758   0.0486461   0.0475995   0.0183663   0.0651129
  -0.074157  0.00372568  -0.0435399  0.00872719   0.0268974  0.00158253   0.0421577  -0.0520256  -0.0343337   0.0605131
  0.0703742  -0.0349413  -0.0358186      0.1076   0.0730111    -0.02354   0.0279974   0.0883228    0.181463  0.00406759
  -0.145463  -0.0138797   -0.118137   0.0383192   0.0331954   0.0356564   0.0710208   0.0383672  0.00267763  0.00092711
  0.0917852 -0.00841024  -0.0129044    0.047367  -0.0619966   0.0134098  -0.0430167  -0.0414563   0.0557842  -0.0552892
  0.0321148 -0.00822005 -0.00302733   0.0988428  -0.0448121       0.156  -0.0356283   0.0633876   0.0301849  -0.0165477
  0.0330356  -0.0281897  -0.0391422   0.0292882   -0.114618    0.056072   0.0153428 -0.00770394   0.0191785    0.157892
#
   0.026953  -0.0625947 -0.00250301  -0.0522955  -0.0651165  -0.0106748   0.0260655   0.0264464   0.0235473    0.078391
  0.0717801  -0.0027674   0.0650225   0.0530149   0.0512155     0.03218   0.0669376    0.063471   -0.021086  -0.0350291
-0.00187329  -0.0506923   0.0422063   0.0260282   0.0076076   0.0476299  -0.0748679 -0.00852712   0.0158923   0.0584606
#
!
<24>:9
   0.0399447    0.0423048    0.0567922    0.0446855 -0.000971087    0.0118613    -0.025033    0.0258803   -0.0294066
  -0.0958575    0.0558847   -0.0264205  -0.00173859    0.0392785  6.95428e-05    0.0214181   0.00125383   -0.0915534
   0.0461425   -0.0451811   -0.0772382   -0.0149524 -0.000222972  -0.00759749    0.0299219   0.00353982   -0.0711784
    -0.09141    0.0910871   -0.0523847   -0.0124457    0.0424667    0.0023507   -0.0370569   -0.0308969    0.0318865
 -0.00642014    -0.103712    0.0339051    0.0401397     0.057925    0.0144004    0.0541203     0.035784    0.0526412
  0.00325959     0.056358   -0.0371505   -0.0309231   -0.0176688    0.0291129   -0.0560899   -0.0285372    0.0119934
   0.0319073   0.00331909    0.0770224    0.0303952    0.0383335   -0.0578398   -0.0299171   -0.0613995    0.0883095
  -0.0260966   0.00358853   0.00536897    0.0152792   -0.0184855   0.00598837    0.0831607    0.0733326    0.0028935
 -0.00828203  -0.00897352    0.0291885    0.0195357   -0.0696921    0.0504142    -0.106122    0.0307682   -0.0525526
  0.00380456    0.0402174   -0.0287629   -0.0597393   -0.0213315    0.0467923    0.0515247    0.0233177   -0.0121235
#
   0.0476513    0.0863488    0.0724718    0.0140326  -0.00165466    0.0333072   -0.0327024    0.0244045    0.0535995    0.0416835
-0.000178366   -0.0246304    0.0799933   -0.0416045     0.036134    -0.162698   -0.0215893    0.0233596   -0.0650814   -0.0207117
   0.0728092  -0.00633773    0.0530403    0.0278048    0.0770191    0.0102381   -0.0161043   -0.0928554   -0.0260442   -0.0376082
   0.0208653   0.00145265   0.00964467   -0.0112535    0.0237525    0.0203009   -0.0577433    0.0612124    0.0195477    0.0327502
   0.0457149    0.0367027   -0.0563383    0.0212679     0.018823  -0.00500599    -0.101151   0.00514785   0.00273982   -0.0511874
 -0.00111973    0.0270157  -0.00607446   -0.0678958   -0.0125372   -0.0105721    0.0276252    0.0533241   0.00368804    0.0679631
 -0.00814868   -0.0364413    0.0155421   -0.0181649   0.00171605    0.0468135   -0.0420558   -0.0210137    0.0472155   -0.0821899
 -0.00397395   -0.0152541    0.0366107    0.0818231      0.00443    0.0733857   -0.0568343    0.0183097   -0.0981127     0.027946
  -0.0184747   -0.0790888   -0.0332983  -0.00637865    0.0249554    0.0479106   -0.0350137    0.0508725    0.0916618    0.0207939
   0.0173445  -0.00182087     0.108983   -0.0416459    0.0589552    0.0410238   -0.0779389   -0.0578361    0.0279155  0.000906636
#
 0.00679037   0.0465206 -0.00451499    0.042831 -0.00726468   -0.069099    0.019036     0.08739   0.0650498  -0.0587353
  0.0520911   0.0348776  -0.0505021   0.0384128   -0.108376    -0.06988   0.0209039  -0.0304845   0.0074751   0.0399162
 -0.0432716  -0.0780335   0.0408705   -0.157451   0.0893749   0.0261856   0.0398938  -0.0483852  -0.0180404  -0.0124194
   0.058587  -0.0104858   -0.105319   0.0740488 -0.00648483  -0.0408509    0.103334   -0.055185   0.0230658  -0.0749619
 -0.0603872   -0.108945  -0.0610122   -0.120649  -0.0493714    -0.11228  -0.0205231  0.00572729   0.0132934   0.0101644
  0.0953924 -0.00580906   0.0383562   0.0539755  0.00519282   0.0917497  -0.0389692  -0.0670176    0.067826   0.0355499
  0.0436881   0.0231775   0.0563892  -0.0649742  0.00355158 -0.00939214  -0.0288146   0.0249349   0.0276485   0.0171155
  0.0462443     0.04774  -0.0743864  0.00840505  -0.0662794  -0.0208667  -0.0271475   0.0166423   -0.035573  -0.0486746
  0.0506944  -0.0606307   -0.116419  -0.0271518   0.0577192  -0.0471831  -0.0327068  -0.0100238   0.0230309  -0.0331341
  0.0180511  -0.0138133     0.03727 -0.00384705   0.0433113   0.0342768  0.00759169  -0.0387658  -0.0346136  -0.0826834
#
  0.0190729   0.0455944    0.036689   -0.023711   -0.065044  -0.0343131  -0.0148351    -0.03342  -0.0111633  -0.0097969
  0.0125444  -0.0598917     -0.0179    0.108908  -0.0827848 -0.00270082  0.00751009  -0.0254834  -0.0308262  -0.0310434
 -0.0048323  -0.0425807   0.0654386   -0.059082  -0.0142972   0.0108423  -0.0409814  0.00895683  -0.0574399  -0.0125092
#
!
<25>:9
 0.000667055     0.079283   -0.0369889 -0.000557442    0.0331794    0.0992502   -0.0613463    0.0666537    0.0199879
  0.00616217    0.0365945     0.128155    0.0364727    -0.068335    0.0887576     -0.01051   -0.0112315   -0.0472443
  -0.0536059   -0.0748511    0.0436316   -0.0905461    0.0566663    -0.026935   -0.0207307    -0.099347   -0.0337734
   0.0214727   -0.0382822    0.0012228   -0.0538863    0.0250596    0.0472998    0.0700166    0.0581716   -0.0208185
   0.0780292    0.0630874   0.00834148   -0.0179002  -0.00388483   -0.0379794    -0.065543    0.0549182   -0.0124355
   0.0733124   -0.0495822   -0.0259234   -0.0445498   -0.0323526    0.0883202    -0.120301   -0.0108832   -0.0766468
   -0.010189   -0.0456407     0.117669  -0.00211762    0.0316894    0.0325606   -0.0350711    0.0127091   -0.0428631
  -0.0148831    0.0294128     0.110836   -0.0322476   -0.0294802    0.0479615    0.0145388   -0.0156572    0.0610599
   0.0168977   -0.0431661    -0.038934    0.0123298    0.0126662   -0.0421445   -0.0792359    0.0258401    0.0966795
  -0.0123423    0.0413407    0.0824171   -0.0110343     0.038527  -0.00913915   -0.0358763    0.0480835    0.0701085
#
  -0.0198425    0.0509404   -0.0271214    0.0351373    0.0306281   -0.0241574   0.00225647   -0.0123631  -0.00752195    0.0280899
  -0.0820119   -0.0594385    0.0475603   -0.0491523    0.0811911   -0.0705093    0.0237302    0.0319747   -0.0507321     0.126608
   -0.115405    0.0379009    0.0225596    0.0174076    0.0238621 -0.000827771   -0.0320441    0.0216611    0.0579066   -0.0462357
  -0.0379928   -0.0418263    0.0159959   -0.0143573   -0.0255041    0.0882366   -0.0229061   -0.0391812   -0.0550588   0.00392096
  -0.0462225    0.0346788   0.00291401   -0.0363131    0.0987239    0.0596584   -0.0285131   -0.0163758   -0.0421185    0.0521347
-0.000872563    0.0510977   -0.0340313   -0.0298101     0.046247    0.0230623   -0.0504333   -0.0403352    0.0207151     0.056565
  -0.0191049    0.0257115   0.00312026   -0.0201368   -0.0133772    0.0665271   -0.0363017   0.00375643    -0.025352   -0.0208894
 0.000323969    0.0144373   -0.0447458    0.0207216   -0.0278568   -0.0346467   -0.0525273     0.013541    -0.029401  0.000532222
  -0.0282153     0.102624    0.0510987    0.0404626    0.0652993     0.104457  -0.00314679    -0.116367  -0.00285902   -0.0604671
  -0.0282095  -0.00189161    0.0284399   -0.0570449    0.0101793    -0.020811    0.0620875  -0.00590484   -0.0376146    0.0193414
#
  -0.0318108   0.00201766    0.0529403    0.0281279  -0.00801101    0.0535714   -0.0527977  -0.00839626   -0.0616669   -0.0345742
  -0.0110503  -0.00595952 -0.000283605    -0.111788   -0.0397337    0.0413464    0.0242967    0.0864127    0.0279661   0.00490833
  -0.0149097    0.0735989    0.0536443    -0.133836    0.0283948    0.0356139    0.0596915   -0.0188806   -0.0160836    0.0046827
   0.0120493    0.0573811   -0.0316726    0.0186628   -0.0679511    0.0511372   -0.0176704   -0.0459213 -0.000817198   -0.0584552
  -0.0217825    0.0587176    -0.100801    0.0693225    0.0833069   -0.0159459    0.0931306    0.0114164   0.00729503   0.00936959
   -0.118094   -0.0193967     0.042961    0.0685726    0.0660225   -0.0459907   -0.0160315    0.0860683   -0.0513809   -0.0471539
  0.00449165   -0.0539206    0.0517841    0.0903202     0.037099  -0.00182085  -0.00798934   -0.0876641    0.0134205   -0.0546773
  -0.0383515   -0.0554609   0.00875419   -0.0456317    0.0336491   -0.0173646    0.0588218   -0.0625374    0.0123148  -0.00722121
  -0.0633211   -0.0118744   -0.0190899   -0.0262615   -0.0849981   -0.0742583    0.0587789    0.0136116    -0.047742    0.0524469
   0.0193162   -0.0447882    0.0506805    0.0239955   -0.0521762   0.00281083    0.0482492   0.00238495  -0.00376603   -0.0531507
#
    -0.00592   -0.0380108   -0.0660236    0.0760678 -0.000315477  -0.00980916   -0.0320113     0.116875   -0.0711361   -0.0326475
 -0.00210959    0.0218928    0.0600748    0.0329296     0.032493   -0.0091877   -0.0291901    0.0906333    0.0194386   -0.0626888
  0.00921489   -0.0351892   -0.0375485   -0.0385488    0.0436063   -0.0459106    0.0587729    0.0376184   -0.0510626   -0.0582882
#
!
<26>:9
 -0.0257252   0.0410318  -0.0568487   0.0772439 0.000641892   0.0236574   0.0397157   0.0766826   -0.046636
  0.0454158   0.0363173  0.00674775   -0.035638   0.0648884 -0.00589878  0.00234014  0.00598193  -0.0145513
 -0.0380756   0.0324144  -0.0352579    0.044054    0.053881  -0.0664085   0.0230445   0.0745044   0.0414945
 -0.0400168  -0.0350777  -0.0621869  -0.0250326   0.0315871  0.00925223  -0.0161507  -0.0371767   0.0210453
  0.0196473  -0.0751199  -0.0345869    0.038815  -0.0516869  -0.0101374   0.0411456  -0.0500318   0.0469331
 -0.0979197  -0.0658514   0.0191579   0.0229171  -0.0227543   0.0190969   0.0138605   -0.131022  -0.0595591
   0.111815   0.0593049  -0.0483607   0.0590518     -0.1214  -0.0153523   0.0451572 -0.00818604  -0.0786905
  0.0213227   0.0430702  -0.0447392 -0.00786491   0.0393561  -0.0229513  -0.0392414  -0.0280481    0.163351
  0.0306282  -0.0277357   0.0772924   0.0772034  -0.0143103  -0.0632258  -0.0197402  -0.0238237  -0.0141967
  0.0095151  -0.0367209   0.0277459   0.0202387   0.0152747   0.0031278   0.0644108  -0.0232399  -0.0157689
#
   0.056732  0.00681915   0.0479839   0.0645191   0.0827925  -0.0139377   0.0260509   0.0202935  -0.0852646   0.0271529
0.000441245  -0.0255518  -0.0644036   0.0262917   -0.038439 -0.00530677   0.0302405  -0.0841398   0.0316877  -0.0237055
-0.00713303  -0.0215995   0.0321654   0.0742166  -0.0250165  -0.0337294  -0.0284818   0.0820737   0.0615163   0.0413445
 0.00306921   0.0455599  -0.0108686   -0.018826  -0.0542996   0.0157429   0.0223567   0.0437044   0.0615096   0.0292583
 -0.0261422   0.0516782   0.0750723   0.0188925   0.0170622   0.0324578   0.0788494  -0.0271752  -0.0349447   -0.117616
 -0.0348916   0.0363819   0.0504271 -0.00664958  -0.0187566  -0.0869519    0.094414   0.0627081   0.0274455  0.00905088
 0.00668678  -0.0170303   0.0120735  -0.0353547  -0.0344492  -0.0717487  -0.0270715   -0.049921  -0.0178366   0.0263385
  0.0486071    0.102214    0.079262  -0.0035977   -0.029933  -0.0199937  0.00311427    0.073599   0.0541905  -0.0073276
-0.00525902    0.088806   0.0182457 -0.00902332   0.0246244 -0.00302587  -0.0251561  -0.0601354   0.0728186  -0.0203248
 -0.0713025 -0.00148886   0.0338031  -0.0114252   0.0964882   0.0760222  -0.0582471    0.074726    0.018207   0.0779035
#
 0.00712262   0.0155695   0.0294572   0.0538721   0.0278549  -0.0107034   0.0112237  -0.0272033   0.0664231    0.093872
  0.0198673   0.0047532  -0.0656464  -0.0744024  -0.0276194 -0.00769526  -0.0834653  -0.0754779  -0.0157684     0.01335
 -0.0361816  -0.0234208 -0.00125466   0.0375323   0.0432159   0.0689599   0.0245017   0.0175317   0.0561927   0.0552833
