<0>:2
0 0 0 0 0 0 0 0 0
0 0 0 0 0 0 0 0 0
0 0 0 0 0 0 0 0 0
0 0 0 0 0 0 0 0 0
0 0 0 0 0 0 0 0 0
0 0 0 0 0 0 0 0 0
0 0 0 0 0 0 0 0 0
0 0 0 0 0 0 0 0 0
0 0 0 0 0 0 0 0 0
0 0 0 0 0 0 0 0 0
#
0 0 0 0 0 0 0 0 0 0
0 0 0 0 0 0 0 0 0 0
0 0 0 0 0 0 0 0 0 0
0 0 0 0 0 0 0 0 0 0
0 0 0 0 0 0 0 0 0 0
0 0 0 0 0 0 0 0 0 0
0 0 0 0 0 0 0 0 0 0
0 0 0 0 0 0 0 0 0 0
0 0 0 0 0 0 0 0 0 0
0 0 0 0 0 0 0 0 0 0
#
0 0 0 0 0 0 0 0 0 0
0 0 0 0 0 0 0 0 0 0
0 0 0 0 0 0 0 0 0 0
0 0 0 0 0 0 0 0 0 0
0 0 0 0 0 0 0 0 0 0
0 0 0 0 0 0 0 0 0 0
0 0 0 0 0 0 0 0 0 0
0 0 0 0 0 0 0 0 0 0
0 0 0 0 0 0 0 0 0 0
0 0 0 0 0 0 0 0 0 0
#
0 0 0 0 0 0 0 0 0 0
0 0 0 0 0 0 0 0 0 0
0 0 0 0 0 0 0 0 0 0
#
!
<50>:2
0 0 0 0 0 0 0 0 0
0 0 0 0 0 0 0 0 0
0 0 0 0 0 0 0 0 0
0 0 0 0 0 0 0 0 0
0 0 0 0 0 0 0 0 0
0 0 0 0 0 0 0 0 0
0 0 0 0 0 0 0 0 0
0 0 0 0 0 0 0 0 0
0 0 0 0 0 0 0 0 0
0 0 0 0 0 0 0 0 0
#
0 0 0 0 0 0 0 0 0 0
0 0 0 0 0 0 0 0 0 0
0 0 0 0 0 0 0 0 0 0
0 0 0 0 0 0 0 0 0 0
0 0 0 0 0 0 0 0 0 0
0 0 0 0 0 0 0 0 0 0
0 0 0 0 0 0 0 0 0 0
0 0 0 0 0 0 0 0 0 0
0 0 0 0 0 0 0 0 0 0
0 0 0 0 0 0 0 0 0 0
#
0 0 0 0 0 0 0 0 0 0
0 0 0 0 0 0 0 0 0 0
0 0 0 0 0 0 0 0 0 0
0 0 0 0 0 0 0 0 0 0
0 0 0 0 0 0 0 0 0 0
0 0 0 0 0 0 0 0 0 0
0 0 0 0 0 0 0 0 0 0
0 0 0 0 0 0 0 0 0 0
0 0 0 0 0 0 0 0 0 0
0 0 0 0 0 0 0 0 0 0
#
0 0 0 0 0 0 0 0 0 0
0 0 0 0 0 0 0 0 0 0
0 0 0 0 0 0 0 0 0 0
#
!
<1>:2
0 0 0 0 0 0 0 0 0
0 0 0 0 0 0 0 0 0
0 0 0 0 0 0 0 0 0
0 0 0 0 0 0 0 0 0
0 0 0 0 0 0 0 0 0
0 0 0 0 0 0 0 0 0
0 0 0 0 0 0 0 0 0
0 0 0 0 0 0 0 0 0
0 0 0 0 0 0 0 0 0
0 0 0 0 0 0 0 0 0
#
0 0 0 0 0 0 0 0 0 0
0 0 0 0 0 0 0 0 0 0
0 0 0 0 0 0 0 0 0 0
0 0 0 0 0 0 0 0 0 0
0 0 0 0 0 0 0 0 0 0
0 0 0 0 0 0 0 0 0 0
0 0 0 0 0 0 0 0 0 0
0 0 0 0 0 0 0 0 0 0
0 0 0 0 0 0 0 0 0 0
0 0 0 0 0 0 0 0 0 0
#
0 0 0 0 0 0 0 0 0 0
0 0 0 0 0 0 0 0 0 0
0 0 0 0 0 0 0 0 0 0
0 0 0 0 0 0 0 0 0 0
0 0 0 0 0 0 0 0 0 0
0 0 0 0 0 0 0 0 0 0
0 0 0 0 0 0 0 0 0 0
0 0 0 0 0 0 0 0 0 0
0 0 0 0 0 0 0 0 0 0
0 0 0 0 0 0 0 0 0 0
#
0 0 0 0 0 0 0 0 0 0
0 0 0 0 0 0 0 0 0 0
0 0 0 0 0 0 0 0 0 0
#
!
<2>:2
0 0 0 0 0 0 0 0 0
0 0 0 0 0 0 0 0 0
0 0 0 0 0 0 0 0 0
0 0 0 0 0 0 0 0 0
0 0 0 0 0 0 0 0 0
0 0 0 0 0 0 0 0 0
0 0 0 0 0 0 0 0 0
0 0 0 0 0 0 0 0 0
0 0 0 0 0 0 0 0 0
0 0 0 0 0 0 0 0 0
#
0 0 0 0 0 0 0 0 0 0
0 0 0 0 0 0 0 0 0 0
0 0 0 0 0 0 0 0 0 0
0 0 0 0 0 0 0 0 0 0
0 0 0 0 0 0 0 0 0 0
0 0 0 0 0 0 0 0 0 0
0 0 0 0 0 0 0 0 0 0
0 0 0 0 0 0 0 0 0 0
0 0 0 0 0 0 0 0 0 0
0 0 0 0 0 0 0 0 0 0
#
0 0 0 0 0 0 0 0 0 0
0 0 0 0 0 0 0 0 0 0
0 0 0 0 0 0 0 0 0 0
0 0 0 0 0 0 0 0 0 0
0 0 0 0 0 0 0 0 0 0
0 0 0 0 0 0 0 0 0 0
0 0 0 0 0 0 0 0 0 0
0 0 0 0 0 0 0 0 0 0
0 0 0 0 0 0 0 0 0 0
0 0 0 0 0 0 0 0 0 0
#
0 0 0 0 0 0 0 0 0 0
0 0 0 0 0 0 0 0 0 0
0 0 0 0 0 0 0 0 0 0
#
!
<65>:2
 -0.0275712  -0.0444709   0.0456566  -0.0612223  -0.0241766   0.0291902  -0.0233636   0.0897939  -0.0252316
  0.0107421   0.0553908   0.0587459   -0.026654    0.142351   0.0407882  -0.0455344   0.0765713  -0.0575798
  0.0137679   0.0301551 -0.00703393   -0.103712   0.0527004   0.0416067    0.109877   0.0637811  -0.0368042
 -0.0597704  -0.0257292  -0.0176174   0.0702753   0.0271541  -0.0562222    -0.10393    0.106552  -0.0713796
  0.0219669   0.0234937    0.058459   0.0530674  -0.0240163 -0.00659046    0.100685  0.00160457  -0.0537682
  0.0296332   0.0411907  -0.0249122   0.0337224   0.0243068  -0.0476328  -0.0349358  -0.0237958  -0.0555118
  0.0474139   0.0823951    0.106495   -0.068503  -0.0309488   0.0271999   0.0427066  -0.0628268   0.0456926
  0.0123878   0.0450821   -0.140014  -0.0350847 -0.00989197   -0.127038   0.0192559  -0.0314595   0.0222709
  0.0175808  -0.0853476   0.0200998 -0.00305446   0.0225861  0.00764437  -0.0289299  -0.0325871  -0.0622886
  0.0267017  -0.0036969  -0.0346267  -0.0781811  -0.0722681   0.0160483  -0.0187507   -0.072887  -0.0184139
#
 -0.00107692   -0.0502072    0.0707792   0.00520973    0.0258414    0.0122058   -0.0634587    0.0457758    0.0127637   -0.0138001
  -0.0428392   -0.0466295    0.0410341    0.0308731     0.014501   -0.0513517  -0.00952904    0.0874523    0.0091539   -0.0578706
    0.077035   -0.0272188    0.0329756    0.0510355    0.0802261   -0.0606062    0.0973994     0.100201    0.0460449     0.091591
   0.0450709    0.0935306    0.0366414    0.0107652   -0.0302502    0.0348529    0.0600774     0.136052    0.0280913    0.0309337
  -0.0614192   -0.0313377   -0.0471727    0.0327268  -0.00605625   -0.0891129      0.10646    0.0118746   -0.0463323   -0.0259355
  -0.0106517   -0.0122775    0.0255934    0.0217157    0.0777683    0.0132231 -0.000800121    0.0676936    0.0277532   -0.0541793
   0.0614563    0.0102043  -0.00570694    0.0374266  -0.00379565  -0.00533947    0.0615891    -0.104284    0.0599706   -0.0309647
   0.0528535    0.0198091   -0.0604031   -0.0574075   -0.0666946 -8.71428e-05   -0.0432122    -0.028996    0.0224401    0.0325166
  -0.0478771    0.0552473   -0.0852188    0.0383239   -0.0693436   0.00796515   -0.0814621   -0.0490022     0.032983    0.0301196
   0.0210891   -0.0186806   -0.0126119   0.00464432   -0.0733019    0.0267693   -0.0547456   -0.0358207   -0.0179059   -0.0217817
#
  0.00129854    0.0235524   -0.0682915    0.0262154   -0.0939498    0.0497054   0.00953772     0.064793    0.0555176  -0.00627813
  -0.0230012   -0.0288482  -0.00284874   -0.0580932    0.0102824   -0.0413047   -0.0189771   -0.0261436   -0.0466434   -0.0560151
  -0.0731134   -0.0754445   0.00235217   0.00272643   -0.0410977   -0.0453917   -0.0706866    0.0392343   -0.0228017      0.07454
  -0.0262061   -0.0092774   -0.0225704    0.0893614   -0.0221887   -0.0516282   -0.0269344   -0.0135066   -0.0243428      0.06118
  0.00792333     0.107747   -0.0346699    0.0440922  -0.00326651    -0.015868   -0.0463566    -0.018062    -0.152857   -0.0551634
  -0.0904093    0.0431774 -0.000842205   -0.0336671    0.0170597   -0.0578744   -0.0296869   -0.0364387   -0.0298835    0.0224618
 -0.00864184    0.0192531   -0.0143735    0.0948289   -0.0205004    0.0564156   -0.0265088    0.0225417   -0.0559589   -0.0247739
   0.0452067    0.0805297    -0.029877   -0.0219746   -0.0198785    0.0298645   -0.0202289   -0.0101672   -0.0683628    0.0218785
    0.124017    0.0111429   -0.0218114    0.0286719   0.00992656   -0.0172962   -0.0396221  -0.00324126   -0.0247253    0.0163052
  -0.0781206  -0.00193063   -0.0260892    0.0852922    0.0509889   -0.0107446    0.0395962    0.0291933    0.0199621     0.018414
#
  0.0154628   -0.035562  -0.0576512   0.0150023   0.0178531 -0.00330891  -0.0909727   0.0108836  -0.0468479   -0.107601
 -0.0384384 -0.00106318  0.00834695   0.0383469  -0.0372261    -0.03657 -0.00837118  -0.0469786  -0.0988676   -0.032676
 -0.0032139   0.0318749  -0.0252088   0.0139326    0.022045  -0.0486728  -0.0290562 -0.00439983   0.0718665 -0.00767667
#
!
<3>:2
0 0 0 0 0 0 0 0 0
0 0 0 0 0 0 0 0 0
0 0 0 0 0 0 0 0 0
0 0 0 0 0 0 0 0 0
0 0 0 0 0 0 0 0 0
0 0 0 0 0 0 0 0 0
0 0 0 0 0 0 0 0 0
0 0 0 0 0 0 0 0 0
0 0 0 0 0 0 0 0 0
0 0 0 0 0 0 0 0 0
#
0 0 0 0 0 0 0 0 0 0
0 0 0 0 0 0 0 0 0 0
0 0 0 0 0 0 0 0 0 0
0 0 0 0 0 0 0 0 0 0
0 0 0 0 0 0 0 0 0 0
0 0 0 0 0 0 0 0 0 0
0 0 0 0 0 0 0 0 0 0
0 0 0 0 0 0 0 0 0 0
0 0 0 0 0 0 0 0 0 0
0 0 0 0 0 0 0 0 0 0
#
0 0 0 0 0 0 0 0 0 0
0 0 0 0 0 0 0 0 0 0
0 0 0 0 0 0 0 0 0 0
0 0 0 0 0 0 0 0 0 0
0 0 0 0 0 0 0 0 0 0
0 0 0 0 0 0 0 0 0 0
0 0 0 0 0 0 0 0 0 0
0 0 0 0 0 0 0 0 0 0
0 0 0 0 0 0 0 0 0 0
0 0 0 0 0 0 0 0 0 0
#
0 0 0 0 0 0 0 0 0 0
0 0 0 0 0 0 0 0 0 0
0 0 0 0 0 0 0 0 0 0
#
!
<4>:2
0 0 0 0 0 0 0 0 0
0 0 0 0 0 0 0 0 0
0 0 0 0 0 0 0 0 0
0 0 0 0 0 0 0 0 0
0 0 0 0 0 0 0 0 0
0 0 0 0 0 0 0 0 0
0 0 0 0 0 0 0 0 0
0 0 0 0 0 0 0 0 0
0 0 0 0 0 0 0 0 0
0 0 0 0 0 0 0 0 0
#
0 0 0 0 0 0 0 0 0 0
0 0 0 0 0 0 0 0 0 0
0 0 0 0 0 0 0 0 0 0
0 0 0 0 0 0 0 0 0 0
0 0 0 0 0 0 0 0 0 0
0 0 0 0 0 0 0 0 0 0
0 0 0 0 0 0 0 0 0 0
0 0 0 0 0 0 0 0 0 0
0 0 0 0 0 0 0 0 0 0
0 0 0 0 0 0 0 0 0 0
#
0 0 0 0 0 0 0 0 0 0
0 0 0 0 0 0 0 0 0 0
0 0 0 0 0 0 0 0 0 0
0 0 0 0 0 0 0 0 0 0
0 0 0 0 0 0 0 0 0 0
0 0 0 0 0 0 0 0 0 0
0 0 0 0 0 0 0 0 0 0
0 0 0 0 0 0 0 0 0 0
0 0 0 0 0 0 0 0 0 0
0 0 0 0 0 0 0 0 0 0
#
0 0 0 0 0 0 0 0 0 0
0 0 0 0 0 0 0 0 0 0
0 0 0 0 0 0 0 0 0 0
#
!
<68>:2
   0.0092776      0.12241   0.00642932   -0.0871403    -0.136507  -0.00346352   -0.0273075   -0.0491914    0.0297791
 -0.00262507   -0.0636652    -0.122106    -0.018663 -3.60002e-05    0.0408449     0.056714     0.112531   -0.0805317
   0.0560347    0.0123195   -0.0828814   -0.0467694    0.0296341   -0.0774084    0.0102603  -0.00397331    -0.068464
  -0.0297746   0.00588288     0.077915 -0.000509262   0.00367095    0.0573459    -0.109347 -0.000293671    0.0575029
  0.00439374   -0.0303506   -0.0399358   0.00931208    0.0258676   0.00697368   -0.0186529    0.0120217  -0.00591082
  -0.0142634   0.00709098    0.0681081   -0.0309745     -0.00462    0.0497594   -0.0112028    0.0478582   -0.0466649
   0.0160691   -0.0178943   -0.0843716    0.0407208      -0.0391    0.0263017  -0.00717803    0.0187866   -0.0421666
   0.0303259    0.0984946    0.0142007   0.00699788   0.00940079    0.0281184    0.0685799   -0.0125377    -0.052671
  -0.0422434    0.0570996    0.0730346    0.0172768   -0.0682108    0.0432853     0.035229    0.0244615   -0.0545323
   0.0485382    -0.016943  -0.00517784   -0.0477722   -0.0218952    0.0538688    0.0528988  -0.00257832    0.0332326
#
  0.0554593    0.101505   0.0406778  -0.0598398   -0.012512  -0.0124559  0.00102956  -0.0451424  -0.0113804   0.0232437
 -0.0149207 -0.00722957    0.154753   0.0413293   0.0579533  -0.0812286   0.0460326   0.0350397  -0.0446802  -0.0313685
   0.108376   0.0556455   0.0389186   0.0466293 -0.00945876   0.0576195  -0.0513101  -0.0265907  -0.0649726  -0.0214189
 0.00643523   0.0186772   0.0334936  -0.0233208   0.0232047  0.00169908   0.0509311  -0.0587107 0.000604966 -0.00388309
  0.0141373   0.0586486    0.045054  -0.0223894   -0.090555  -0.0336893   0.0413916  0.00138074  -0.0259847   0.0951386
 -0.0509155    -0.06963  -0.0133042  -0.0570372  -0.0256344   0.0562819   0.0454992  -0.0279434   0.0272807  0.00714348
0.000534931 -0.00277663  -0.0243288  -0.0151029    0.036033  -0.0126199   0.0404378  -0.0331809   0.0417423   0.0852286
 -0.0246133   0.0662784   0.0574147  -0.0580379   0.0872687  -0.0280069   -0.040881  -0.0291263  -0.0024226    0.020344
 -0.0677733   0.0205314  -0.0614406   0.0439458   0.0363788  -0.0229908    0.026147  -0.0276722   0.0447077  -0.0281772
  0.0620305   0.0572472   -0.116855  -0.0647093  -0.0539905  -0.0154276    -0.15791   0.0998205  0.00265795   0.0162568
#
   0.0292733    0.0731649    0.0478879   0.00785067     -0.10348   -0.0389249   0.00893976    0.0836863    0.0755703    0.0229526
  0.00406101     0.035391     0.100546     0.068895   -0.0824775   -0.0468233    0.0299029    0.0113657   -0.0293503    0.0201693
   0.0208485   -0.0186737    -0.151225    0.0697948    -0.118548    0.0162363    0.0626494   -0.0603936   -0.0199853   -0.0515346
  -0.0736606   -0.0162965   -0.0309009   -0.0115513    0.0343343   -0.0126416   -0.0320537     0.040394   -0.0185673    0.0239428
   0.0551499   -0.0116569    0.0306728    0.0127367    0.0503858     0.053719   -0.0512673    0.0152078    0.0162496    -0.018024
  -0.0084885    0.0939575     0.104392    0.0141923    0.0295512   -0.0276828    0.0558001   -0.0542884   -0.0108902  -0.00591764
   0.0389097    0.0213075   0.00290174    0.0657202     0.027519 -0.000395736    0.0125417    0.0757564   -0.0137753    0.0437751
   0.0232279   -0.0200709   -0.0372723   -0.0332379     0.034574   -0.0629192   0.00826045    0.0754465    0.0122247    0.0550215
   0.0724218    0.0953322   -0.0145568   -0.0601693    0.0591759    0.0511966   -0.0569344   -0.0150889   -0.0299734   -0.0254402
  -0.0296344   -0.0406094   -0.0883233    0.0635515    0.0610932   0.00206457   0.00526386  -0.00804116    0.0425033  -0.00524823
#
 -0.0251968   0.0663779   0.0452112   0.0628226  -0.0381078  -0.0554508 -0.00847271   0.0433762   0.0404628   0.0163938
 -0.0113708  -0.0337613  -0.0363436   0.0952971  -0.0265037  -0.0859542   0.0662985  -0.0565906   -0.055801  -0.0466082
0.000124483  -0.0267646  -0.0587621   0.0626918  -0.0375509   -0.056308   0.0615888  -0.0754794   0.0645776   0.0915455
#
!
<69>:2
  -0.0664784   -0.0205576   -0.0288836    0.0123809   -0.0726081    0.0100811     0.108402     0.101344    0.0135291
 0.000483754     0.108733    0.0225151  -0.00110051    0.0590752   -0.0464349  -0.00646835     0.072265    0.0119461
  -0.0089689   -0.0559434   -0.0401166    0.0570103   -0.0988374    0.0147348   -0.0950589   0.00363123    0.0769817
 -0.00462772     0.105695    0.0634429    0.0214748    0.0889437    0.0190591    0.0295453   -0.0403212    0.0225088
  -0.0235993   -0.0189255   0.00399085    -0.105397    0.0363115    0.0417846  -0.00313961   -0.0314689    0.0470989
   0.0536643   -0.0719977  -0.00145631   -0.0501182   -0.0108731   -0.0112986 -0.000645144   -0.0132708    0.0510535
    0.056489   -0.0548362    0.0135465   -0.0334523   -0.0064734   -0.0281172    0.0542286    0.0790621    0.0328207
   0.0266363   -0.0424059   -0.0786748   0.00731238   -0.0499624   -0.0810291   -0.0140797   -0.0670785    0.0388325
  -0.0230324   0.00895659     0.123355    0.0011995   -0.0733564    0.0843814    0.0461493    -0.026216   -0.0824835
  0.00849483   -0.0758617   -0.0120327    0.0203152    0.0127841   -0.0149615    0.0104506   -0.0869282   -0.0359658
#
 -0.0230512  -0.0470422   0.0909624   0.0324336   0.0313975  -0.0190731  -0.0470065   0.0621929  -0.0515778   0.0136816
  0.0129956   0.0269252  -0.0281502  -0.0280179  -0.0311746  -0.0634162   0.0541331  0.00631534  -0.0535013   0.0297814
 -0.0608433     0.11857  0.00208849   -0.051361  -0.0706043 -0.00751009    0.126515    0.106946  -0.0129169  -0.0309729
-0.00517062   -0.026801  -0.0442874  -0.0209958  -0.0901941     0.12539 -0.00932218   0.0356597  0.00193823   0.0580011
 0.00311907  -0.0572894   -0.115803   0.0264152 -0.00402832   0.0285207   0.0138953  -0.0427368  -0.0450021   0.0804876
  0.0406769   -0.141854  0.00772665  -0.0435436    0.101408   0.0397616  -0.0247906    0.106623   0.0507151 -0.00590696
  0.0317704   -0.006735   0.0814172  -0.0334484   0.0731044   0.0113096    0.127242  0.00297628   0.0158226  -0.0333216
  0.0200166  -0.0426563   0.0242368    0.012747 -0.00457466  -0.0322257   0.0247444  -0.0155637  -0.0216383   0.0386269
  0.0144321   0.0427886   0.0546907 -0.00361244  -0.0142271    0.051102  -0.0493626   0.0309762  -0.0389598  -0.0156184
  0.0157273  0.00573957   0.0292058   0.0683758  -0.0391777  0.00167728  -0.0047323  -0.0600858  -0.0233491  -0.0392744
#
 -0.0188002 -0.00851516   0.0623611 -0.00959026 0.000413642   0.0152641   0.0553607   0.0262318  -0.0425335   0.0280061
  0.0178983   0.0504295  -0.0925812  -0.0310419 -0.00220274   0.0536247 -0.00707359    0.070353   0.0298226 -0.00794397
  0.0286542  -0.0221765  -0.0280877  -0.0078072  -0.0360784  -0.0353588  -0.0614507  -0.0267259  -0.0572866   0.0392245
 0.00545473  -0.0159345   0.0769594  0.00207986   0.0263278  -0.0544164  -0.0546149   0.0340611   0.0110842    0.052273
  0.0359874  -0.0167243  0.00674492   -0.049896   -0.063718    0.028629  -0.0306131  -0.0313561 -0.00311671   0.0540933
 -0.0302458 -0.00182366  -0.0192609  -0.0920638  -0.0358183  0.00406953  -0.0108179  -0.0256195   0.0121461   0.0192068
 -0.0403276  -0.0918832   0.0226164   0.0353579  -0.0117803   0.0672126   0.0184642  0.00739806   0.0552858   0.0366312
  0.0479468  0.00150345  -0.0110581   0.0977626    0.042993   0.0194825   0.0738963  -0.0133367  -0.0175812  -0.0139107
  0.0505345  -0.0427049 -0.00138208  -0.0571465   -0.078144  -0.0378436   0.0582276  -0.0186421  -0.0168646  0.00665043
  0.0916347 0.000546577  -0.0505745   0.0362208   0.0225092  -0.0566764   0.0382468  -0.0113796   -0.040012    0.130969
#
 0.00506881 -0.00301875   0.0262017   0.0860294  0.00997346   0.0131893   0.0572665  -0.0216907   0.0673081   0.0227063
 -0.0047395   0.0703185   0.0461469   0.0337632  0.00319313   -0.012351  -0.0427271 0.000176793  -0.0887274   0.0170274
 -0.0494359  0.00513475   0.0706764   0.0770329  -0.0369511  0.00891562 -0.00705151   0.0536198    -0.01327   0.0304609
#
!
<5>:2
0 0 0 0 0 0 0 0 0
0 0 0 0 0 0 0 0 0
0 0 0 0 0 0 0 0 0
0 0 0 0 0 0 0 0 0
0 0 0 0 0 0 0 0 0
0 0 0 0 0 0 0 0 0
0 0 0 0 0 0 0 0 0
0 0 0 0 0 0 0 0 0
0 0 0 0 0 0 0 0 0
0 0 0 0 0 0 0 0 0
#
0 0 0 0 0 0 0 0 0 0
0 0 0 0 0 0 0 0 0 0
0 0 0 0 0 0 0 0 0 0
0 0 0 0 0 0 0 0 0 0
0 0 0 0 0 0 0 0 0 0
0 0 0 0 0 0 0 0 0 0
0 0 0 0 0 0 0 0 0 0
0 0 0 0 0 0 0 0 0 0
0 0 0 0 0 0 0 0 0 0
0 0 0 0 0 0 0 0 0 0
#
0 0 0 0 0 0 0 0 0 0
0 0 0 0 0 0 0 0 0 0
0 0 0 0 0 0 0 0 0 0
0 0 0 0 0 0 0 0 0 0
0 0 0 0 0 0 0 0 0 0
0 0 0 0 0 0 0 0 0 0
0 0 0 0 0 0 0 0 0 0
0 0 0 0 0 0 0 0 0 0
0 0 0 0 0 0 0 0 0 0
0 0 0 0 0 0 0 0 0 0
#
0 0 0 0 0 0 0 0 0 0
0 0 0 0 0 0 0 0 0 0
0 0 0 0 0 0 0 0 0 0
#
!
<71>:2
 -0.0279281   0.0542921  -0.0134988  -0.0687095  0.00809473  -0.0939759   -0.068932   0.0118713  -0.0366939
 -0.0148683   0.0196427   0.0239584   -0.079934   -0.116699   0.0643719  -0.0162963  -0.0622346 -0.00798281
 -0.0064907 -0.00968733  -0.0803738   0.0225333   0.0104135  0.00605605   0.0268872  -0.0213191  -0.0848739
  -0.110559   0.0629446  -0.0336994    0.122797  -0.0230229   0.0112934    0.039434  -0.0329342  -0.0269106
  0.0904567 -0.00505862   0.0377546    0.038648  -0.0735817   0.0229238  -0.0507233   0.0201599  0.00922483
  -0.123719   0.0613693  -0.0815928  -0.0761671  -0.0913993 -0.00717989    0.112357   0.0210012 -0.00098658
 -0.0516792   0.0574937   0.0159323  -0.0051788  -0.0975051   0.0569111  -0.0831205   0.0575298  0.00810592
 -0.0446302   0.0628169  -0.0837558 -0.00498006  -0.0348649   -0.109101   0.0270351   0.0366742   0.0039946
 -0.0217993   0.0299953   0.0788811  0.00389531  0.00501151   0.0456686   0.0107573  -0.0580162  -0.0283628
 -0.0357257  0.00707054   0.0699441    0.106746  -0.0305861   0.0385632  0.00986547  -0.0389701  -0.0937434
#
  0.0269408 -0.00182482 -0.00366467   0.0503492  -0.0941944  -0.0509234   0.0881638   0.0210912  -0.0892676   0.0393799
  0.0347243  -0.0396981  -0.0130485  -0.0210503  -0.0397806  -0.0352624  -0.0444554   0.0527914  -0.0805329  -0.0535653
  0.0613058   0.0198398  -0.0381373   0.0234077   0.0494469   0.0265064  -0.0192022  -0.0161121   0.0805866    0.112263
 -0.0148219    0.024163   0.0724968   0.0793001    0.027509 -0.00904814 -0.00578011 0.000692293  -0.0278569   0.0315565
  0.0735032  -0.0437979   0.0494089   -0.059289   0.0474661  -0.0144441 -0.00556288  -0.0809074  -0.0784529   0.0516059
  0.0229543   0.0307263   0.0293223  -0.0155527   0.0294261   -0.048878  -0.0168368   0.0263681 -0.00881124   0.0134029
 -0.0456119   -0.028603   0.0698437  -0.0286016   0.0188131   0.0825404    0.014946   0.0288179   0.0173638  -0.0258829
 -0.0527422 0.000490707   0.0638903  -0.0134903   0.0657017  -0.0508433 -0.00516923 -0.00426747   0.0187799  -0.0224806
 -0.0398859  -0.0161353  -0.0465754  -0.0270677  -0.0697208 -0.00346549   0.0842081 -0.00637348  -0.0284827   0.0120963
 -0.0146639  -0.0587103 -0.00659806   0.0354588  0.00702543  -0.0204331   0.0574829   0.0287675 0.000325779  -0.0553999
#
 -0.0528933  -0.0146726   -0.014651   0.0225062  -0.0808267  -0.0271599   0.0144933  -0.0252114   0.0329885    0.023747
  0.0765308   0.0866499   -0.021858  0.00998341   0.0257926   0.0197252   0.0345024   0.0246734  0.00105138  0.00256068
 -0.0479846  -0.0234841  -0.0628411   0.0218056   0.0576819    0.040518  -0.0669644  -0.0433498  -0.0156149   0.0204992
 -0.0526266   0.0421437   -0.051873  -0.0522172   0.0217152   0.0530813   -0.010733  -0.0268679  -0.0673635   0.0260369
  0.0192721   0.0562893   0.0288607   0.0687371  -0.0178693   0.0269106   0.0409661 -0.00837225   0.0478412  -0.0051675
  0.0511875  -0.0163547   0.0269108  0.00434826   0.0257777  -0.0447434  -0.0329626    0.043484  -0.0301753   0.0697935
  0.0288562   0.0661287  -0.0909776  -0.0419322  -0.0217891  0.00937978   0.0351823  -0.0461428   0.0216621 -0.00367901
 -0.0256556  -0.0646054   0.0294449  -0.0456708  -0.0752335   0.0130117  -0.0372141  -0.0170105  -0.0717358   0.0453273
  0.0636816    0.138458  -0.0633996   0.0745829  -0.0326691 -0.00148552   0.0803217   0.0486893  -0.0333659   0.0290094
 -0.0898133   0.0796054   0.0151313  -0.0711368  -0.0427061   0.0138336  -0.0498009 -0.00579837   0.0199315   -0.013717
#
0.00468405  0.0537189  0.0807543 -0.0224486  0.0226655  0.0844624  0.0105972  0.0547237   0.111323 -0.0165357
 0.0550072  0.0116987  0.0149716  0.0383596 0.00459178 -0.0532052  0.0370617 -0.0209985 -0.0202647  0.0199309
 0.0726426 0.00235753 0.00116742   0.049843 -0.0449155  0.0531294  0.0722146 -0.0957349 0.00983763 -0.0175137
#
!
<6>:2
0 0 0 0 0 0 0 0 0
0 0 0 0 0 0 0 0 0
0 0 0 0 0 0 0 0 0
0 0 0 0 0 0 0 0 0
0 0 0 0 0 0 0 0 0
0 0 0 0 0 0 0 0 0
0 0 0 0 0 0 0 0 0
0 0 0 0 0 0 0 0 0
0 0 0 0 0 0 0 0 0
0 0 0 0 0 0 0 0 0
#
0 0 0 0 0 0 0 0 0 0
0 0 0 0 0 0 0 0 0 0
0 0 0 0 0 0 0 0 0 0
0 0 0 0 0 0 0 0 0 0
0 0 0 0 0 0 0 0 0 0
0 0 0 0 0 0 0 0 0 0
0 0 0 0 0 0 0 0 0 0
0 0 0 0 0 0 0 0 0 0
0 0 0 0 0 0 0 0 0 0
0 0 0 0 0 0 0 0 0 0
#
0 0 0 0 0 0 0 0 0 0
0 0 0 0 0 0 0 0 0 0
0 0 0 0 0 0 0 0 0 0
0 0 0 0 0 0 0 0 0 0
0 0 0 0 0 0 0 0 0 0
0 0 0 0 0 0 0 0 0 0
0 0 0 0 0 0 0 0 0 0
0 0 0 0 0 0 0 0 0 0
0 0 0 0 0 0 0 0 0 0
0 0 0 0 0 0 0 0 0 0
#
0 0 0 0 0 0 0 0 0 0
0 0 0 0 0 0 0 0 0 0
0 0 0 0 0 0 0 0 0 0
#
!
<73>:2
  -0.047211  -0.0751921  -0.0223655  -0.0450199   0.0553293   0.0111919   0.0206337    0.097716   0.0687805
  0.0529594  -0.0237759  -0.0246578   -0.067161  -0.0445213   0.0502302  -0.0134808  0.00356533   0.0313365
  0.0594224  -0.0425289  -0.0214171   0.0947611  -0.0500779   0.0971358  -0.0365447  0.00581953  -0.0210182
 -0.0473816  -0.0126876  -0.0419942   0.0210732  0.00882308  -0.0402005    0.048634   0.0184279   0.0565544
-0.00341043  -0.0283842  -0.0287527 -0.00098654  0.00557033  -0.0602474  -0.0394113    0.027445 -0.00754442
 -0.0591719  -0.0919901   0.0778231  -0.0220704  -0.0287405   0.0463463   -0.035131  -0.0279055   -0.012019
-0.00350738  -0.0993464  -0.0421426   0.0436469   0.0241875  -0.0325701  -0.0184561  0.00113089   0.0780747
   0.028224  -0.0396447  -0.0247837  0.00986409  -0.0461526   0.0661156  0.00971926   -0.100547  -0.0309717
-0.00802336 -0.00701039  -0.0237566   0.0671505 -0.00717144   0.0576483   0.0482742   -0.044307   0.0510408
 -0.0280601   0.0646728   0.0231721   0.0333086  -0.0448548   0.0817361  -0.0465665  -0.0344449 -0.00676773
#
  0.0175722  -0.0834035  -0.0157594    0.009968      0.0446   0.0069012   0.0183075   0.0844538  -0.0565671  0.00168279
 -0.0156291   0.0753661   0.0443489  -0.0943892 -0.00481047  -0.0672013    0.123366   -0.047423  -0.0205286 -0.00709581
 -0.0120033   0.0144856  -0.0230263  0.00720111   0.0331571  -0.0106828  0.00387172   0.0346187   0.0103279   0.0437757
 -0.0335657   0.0586263  -0.0146929  -0.0602899   0.0104382   0.0317438   0.0420353  0.00768827  -0.0240072  -0.0273229
  0.0232318   0.0119061  -0.0867529   0.0572867   0.0265222  -0.0638386    0.023638  -0.0613035   0.0168857   0.0044081
  0.0272929   0.0717836  -0.0828633  -0.0717347  -0.0207968    -0.13653   0.0528945  0.00138409  0.00779435   0.0351254
  0.0663925 -0.00517168   -0.010745   0.0983258   0.0681512   0.0308376  -0.0289006  -0.0456579  -0.0462183   0.0138075
  0.0274151  -0.0236846  -0.0433658  -0.0775741   0.0273753  -0.0765544  -0.0208672  0.00269607   0.0253422  -0.0479866
 0.00425393   0.0330282    -0.02541   0.0296289  -0.0274554   0.0175903   0.0105161    0.101934  -0.0386036  -0.0443031
 -0.0219702   0.0311572  -0.0420179   -0.015893   0.0071467   0.0146067   -0.011727  -0.0100531   0.0204378  -0.0848452
#
   0.0164483   -0.0764226   -0.0636218   -0.0150014     0.119802    0.0692632  -0.00885783   0.00123579   -0.0829364   0.00504635
  -0.0895336   -0.0514549    0.0209978   -0.0171952    0.0191931   -0.0145389     0.074735   -0.0129158    0.0518804   -0.0309409
   0.0353745   -0.0541793    0.0218372    0.0574734    0.0191086    0.0796404    0.0303223    0.0674506   -0.0140973    0.0268174
   0.0306125    0.0206059   -0.0154495   0.00111348   -0.0116054    -0.042744   0.00621164     0.139036    0.0434971     0.033088
   0.0351422   -0.0549704   -0.0113045    0.0216802   0.00417602    0.0360198    0.0589889    0.0485846    0.0441373    0.0457734
   0.0205382    0.0161154    0.0772545   -0.0608728    0.0571885    0.0211528    0.0280336    0.0124028   -0.0547569   -0.0537905
  -0.0548477   -0.0661832   0.00038153    0.0678145   -0.0621558   -0.0263061   -0.0389845    0.0609579    0.0360117    0.0482732
   0.0162272   -0.0633748   -0.0403729 -0.000289129   -0.0398485   -0.0762447     0.118913   -0.0346912   -0.0968087   -0.0185173
  -0.0245815    0.0191866    0.0101709    0.0698654     0.159963   -0.0236999   -0.0899807    0.0951654    0.0213347    0.0778401
   0.0158363   0.00601899     0.042393   -0.0516694     -0.04492    0.0609973    -0.018299   -0.0554754  -0.00530472    0.0218224
#
 -0.0163304   0.0481457    0.105514  0.00161562  0.00277562   0.0472583   0.0460718   0.0465825   0.0239213  -0.0438751
  0.0396623  -0.0587703  -0.0432329  -0.0406292   0.0088365  -0.0490506   0.0365536  0.00398546  -0.0452384 -0.00684325
 -0.0515707 -0.00870995   0.0665147 -0.00514986    0.102445 -0.00691489  0.00421258  -0.0371268 -0.00530058   0.0245695
#
!
<7>:2
0 0 0 0 0 0 0 0 0
0 0 0 0 0 0 0 0 0
0 0 0 0 0 0 0 0 0
0 0 0 0 0 0 0 0 0
0 0 0 0 0 0 0 0 0
0 0 0 0 0 0 0 0 0
0 0 0 0 0 0 0 0 0
0 0 0 0 0 0 0 0 0
0 0 0 0 0 0 0 0 0
0 0 0 0 0 0 0 0 0
#
0 0 0 0 0 0 0 0 0 0
0 0 0 0 0 0 0 0 0 0
0 0 0 0 0 0 0 0 0 0
0 0 0 0 0 0 0 0 0 0
0 0 0 0 0 0 0 0 0 0
0 0 0 0 0 0 0 0 0 0
0 0 0 0 0 0 0 0 0 0
0 0 0 0 0 0 0 0 0 0
0 0 0 0 0 0 0 0 0 0
0 0 0 0 0 0 0 0 0 0
#
0 0 0 0 0 0 0 0 0 0
0 0 0 0 0 0 0 0 0 0
0 0 0 0 0 0 0 0 0 0
0 0 0 0 0 0 0 0 0 0
0 0 0 0 0 0 0 0 0 0
0 0 0 0 0 0 0 0 0 0
0 0 0 0 0 0 0 0 0 0
0 0 0 0 0 0 0 0 0 0
0 0 0 0 0 0 0 0 0 0
0 0 0 0 0 0 0 0 0 0
#
0 0 0 0 0 0 0 0 0 0
0 0 0 0 0 0 0 0 0 0
0 0 0 0 0 0 0 0 0 0
#
!
<8>:2
0 0 0 0 0 0 0 0 0
0 0 0 0 0 0 0 0 0
0 0 0 0 0 0 0 0 0
0 0 0 0 0 0 0 0 0
0 0 0 0 0 0 0 0 0
0 0 0 0 0 0 0 0 0
0 0 0 0 0 0 0 0 0
0 0 0 0 0 0 0 0 0
0 0 0 0 0 0 0 0 0
0 0 0 0 0 0 0 0 0
#
0 0 0 0 0 0 0 0 0 0
0 0 0 0 0 0 0 0 0 0
0 0 0 0 0 0 0 0 0 0
0 0 0 0 0 0 0 0 0 0
0 0 0 0 0 0 0 0 0 0
0 0 0 0 0 0 0 0 0 0
0 0 0 0 0 0 0 0 0 0
0 0 0 0 0 0 0 0 0 0
0 0 0 0 0 0 0 0 0 0
0 0 0 0 0 0 0 0 0 0
#
0 0 0 0 0 0 0 0 0 0
0 0 0 0 0 0 0 0 0 0
0 0 0 0 0 0 0 0 0 0
0 0 0 0 0 0 0 0 0 0
0 0 0 0 0 0 0 0 0 0
0 0 0 0 0 0 0 0 0 0
0 0 0 0 0 0 0 0 0 0
0 0 0 0 0 0 0 0 0 0
0 0 0 0 0 0 0 0 0 0
0 0 0 0 0 0 0 0 0 0
#
0 0 0 0 0 0 0 0 0 0
0 0 0 0 0 0 0 0 0 0
0 0 0 0 0 0 0 0 0 0
#
!
<76>:2
   0.0426581    0.0213432    -0.029744   -0.0996928    0.0705342   -0.0064623   -0.0280005   -0.0341353    0.0254876
 -0.00175784  -0.00809477   -0.0299375     0.083549   -0.0567632   -0.0851632 -0.000372053    0.0780977   -0.0518364
   0.0323065    0.0553709   -0.0142691    0.0936834   -0.0746147   -0.0151161   -0.0516108   -0.0357852    0.0266968
    0.053385    0.0360451   -0.0220569    0.0174563   -0.0155459   -0.0206001    -0.111057    0.0248163    0.0553361
   0.0725633    0.0597312   -0.0362023    0.0458537    -0.015875    0.0262837  -0.00417819     -0.01082    0.0403714
  -0.0827533   -0.0382058   -0.0208332   -0.0495119     -0.01072    0.0331816   -0.0846446   -0.0605353     0.044375
  -0.0272742   -0.0756937   -0.0446698   0.00732345     0.045085   -0.0790615   -0.0724339    0.0193584   -0.0119785
  -0.0156333   -0.0702867    -0.030527   -0.0330148    0.0419945   0.00911289   -0.0292015    0.0103861    -0.150499
  -0.0252623   -0.0111203     0.039246   -0.0635431    0.0779192   -0.0331231    0.0341365    -0.026345    0.0232627
   0.0304294  -0.00145795    0.0338685    0.0202144    0.0329152    -0.019505    0.0168531   0.00385303    0.0139338
#
  -0.0327082    0.0255492    0.0248951   -0.0717892  -0.00181546   -0.0730961    0.0650972   -0.0120654    0.0724758   -0.0536296
   0.0289586   -0.0660342    0.0568615   -0.0185877   -0.0755978    0.0215128    0.0590594   -0.0115301   -0.0585958   -0.0757117
  -0.0270332    0.0113619   -0.0274649    0.0489756    0.0810254  -0.00752414   -0.0466602    0.0131083    0.0581485   -0.0158536
   0.0772076   0.00137802   -0.0244922    0.0199394   -0.0999764    -0.104485  -0.00336748  -0.00388469   -0.0788512   -0.0811688
  -0.0710973    0.0224405    -0.119113    0.0399891    -0.012403    0.0211312    -0.021866    0.0096243    0.0023404   -0.0134121
   0.0455479  -0.00122377  -0.00282174   -0.0950521   -0.0628876    0.0288386    0.0263999   -0.0973266    0.0762976    0.0188075
   0.0543588    0.0483852 -0.000800031    0.0497531   -0.0485338    0.0194113    -0.035825     0.050249    0.0258859   -0.0255817
   0.0232343   0.00474063    0.0397003   -0.0439561   -0.0296928    0.0833604     -0.06825    0.0110857   -0.0381457    -0.056561
  -0.0127258   -0.0557424   0.00416249     0.092513    0.0503207    0.0303896   -0.0888579  -0.00259316  0.000747678    0.0551919
  -0.0398989   -0.0937109   -0.0773685   -0.0143164    0.0104712   -0.0285916   -0.0631192   -0.0252051   -0.0269537    0.0712494
#
 -0.0182177  0.00298595   0.0777662  -0.0105805   0.0166046   0.0793813  -0.0761651   0.0612663   0.0892383   -0.026447
-0.00394514   0.0536222  -0.0976945 -0.00507272  -0.0328251  -0.0192145  0.00349965   0.0153866  -0.0958904  -0.0508571
  0.0562988   0.0266926  -0.0336862  -0.0107265 -0.00102853  -0.0427765  -0.0749265  -0.0294004  -0.0328438   0.0527336
  0.0497086   -0.025939 -0.00443124   0.0319531   0.0612715   0.0719063 -0.00547588  -0.0369689  -0.0657587   0.0173248
 -0.0558085 -0.00610284  -0.0114029  0.00589579   0.0100081   0.0110696   0.0264047   -0.102529   0.0349639  0.00138874
   0.120275   0.0539798   0.0220717  -0.0217094 -0.00247413   0.0263822   0.0128352    0.102355  -0.0432807  -0.0976005
  0.0385077   -0.115561    0.067961  -0.0166648   0.0329137   0.0487727   0.0396394   0.0612852   -0.041287   0.0541401
 -0.0304241  -0.0881508  -0.0357004   0.0124378   -0.120118  0.00249198  -0.0587832  0.00414441   0.0291674  -0.0169372
 -0.0910916  -0.0392542  -0.0521195  -0.0351104   0.0362037  -0.0848512   0.0138832    0.047909  -0.0315443  -0.0650771
  0.0478071   0.0313916   0.0317865  0.00237095   0.0539168  0.00825447  0.00154447  -0.0564791   0.0600719   0.0119587
#
  0.0103754   0.0948891   0.0576275   0.0613947  -0.0258874    0.100636   0.0658902  0.00838457   0.0456801   0.0144426
  0.0328899   0.0681927   0.0546762  -0.0298796  -0.0377956  -0.0122012  0.00187427   0.0148738   0.0963165  -0.0642466
  0.0368755  -0.0279409  -0.0144425   -0.019861 -0.00819294 -0.00295489  0.00776232   0.0428623  -0.0222139  -0.0397206
#
!
<9>:2
0 0 0 0 0 0 0 0 0
0 0 0 0 0 0 0 0 0
0 0 0 0 0 0 0 0 0
0 0 0 0 0 0 0 0 0
0 0 0 0 0 0 0 0 0
0 0 0 0 0 0 0 0 0
0 0 0 0 0 0 0 0 0
0 0 0 0 0 0 0 0 0
0 0 0 0 0 0 0 0 0
0 0 0 0 0 0 0 0 0
#
0 0 0 0 0 0 0 0 0 0
0 0 0 0 0 0 0 0 0 0
0 0 0 0 0 0 0 0 0 0
0 0 0 0 0 0 0 0 0 0
0 0 0 0 0 0 0 0 0 0
0 0 0 0 0 0 0 0 0 0
0 0 0 0 0 0 0 0 0 0
0 0 0 0 0 0 0 0 0 0
0 0 0 0 0 0 0 0 0 0
0 0 0 0 0 0 0 0 0 0
#
0 0 0 0 0 0 0 0 0 0
0 0 0 0 0 0 0 0 0 0
0 0 0 0 0 0 0 0 0 0
0 0 0 0 0 0 0 0 0 0
0 0 0 0 0 0 0 0 0 0
0 0 0 0 0 0 0 0 0 0
0 0 0 0 0 0 0 0 0 0
0 0 0 0 0 0 0 0 0 0
0 0 0 0 0 0 0 0 0 0
0 0 0 0 0 0 0 0 0 0
#
0 0 0 0 0 0 0 0 0 0
0 0 0 0 0 0 0 0 0 0
0 0 0 0 0 0 0 0 0 0
#
!
<10>:2
0 0 0 0 0 0 0 0 0
0 0 0 0 0 0 0 0 0
0 0 0 0 0 0 0 0 0
0 0 0 0 0 0 0 0 0
0 0 0 0 0 0 0 0 0
0 0 0 0 0 0 0 0 0
0 0 0 0 0 0 0 0 0
0 0 0 0 0 0 0 0 0
0 0 0 0 0 0 0 0 0
0 0 0 0 0 0 0 0 0
#
0 0 0 0 0 0 0 0 0 0
0 0 0 0 0 0 0 0 0 0
0 0 0 0 0 0 0 0 0 0
0 0 0 0 0 0 0 0 0 0
0 0 0 0 0 0 0 0 0 0
0 0 0 0 0 0 0 0 0 0
0 0 0 0 0 0 0 0 0 0
0 0 0 0 0 0 0 0 0 0
0 0 0 0 0 0 0 0 0 0
0 0 0 0 0 0 0 0 0 0
#
0 0 0 0 0 0 0 0 0 0
0 0 0 0 0 0 0 0 0 0
0 0 0 0 0 0 0 0 0 0
0 0 0 0 0 0 0 0 0 0
0 0 0 0 0 0 0 0 0 0
0 0 0 0 0 0 0 0 0 0
0 0 0 0 0 0 0 0 0 0
0 0 0 0 0 0 0 0 0 0
0 0 0 0 0 0 0 0 0 0
0 0 0 0 0 0 0 0 0 0
#
0 0 0 0 0 0 0 0 0 0
0 0 0 0 0 0 0 0 0 0
0 0 0 0 0 0 0 0 0 0
#
!
<11>:2
0 0 0 0 0 0 0 0 0
0 0 0 0 0 0 0 0 0
0 0 0 0 0 0 0 0 0
0 0 0 0 0 0 0 0 0
0 0 0 0 0 0 0 0 0
0 0 0 0 0 0 0 0 0
0 0 0 0 0 0 0 0 0
0 0 0 0 0 0 0 0 0
0 0 0 0 0 0 0 0 0
0 0 0 0 0 0 0 0 0
#
0 0 0 0 0 0 0 0 0 0
0 0 0 0 0 0 0 0 0 0
0 0 0 0 0 0 0 0 0 0
0 0 0 0 0 0 0 0 0 0
0 0 0 0 0 0 0 0 0 0
0 0 0 0 0 0 0 0 0 0
0 0 0 0 0 0 0 0 0 0
0 0 0 0 0 0 0 0 0 0
0 0 0 0 0 0 0 0 0 0
0 0 0 0 0 0 0 0 0 0
#
0 0 0 0 0 0 0 0 0 0
0 0 0 0 0 0 0 0 0 0
0 0 0 0 0 0 0 0 0 0
0 0 0 0 0 0 0 0 0 0
0 0 0 0 0 0 0 0 0 0
0 0 0 0 0 0 0 0 0 0
0 0 0 0 0 0 0 0 0 0
0 0 0 0 0 0 0 0 0 0
0 0 0 0 0 0 0 0 0 0
0 0 0 0 0 0 0 0 0 0
#
0 0 0 0 0 0 0 0 0 0
0 0 0 0 0 0 0 0 0 0
0 0 0 0 0 0 0 0 0 0
#
!
<80>:2
 -0.0283427   0.0243338  -0.0224986   0.0880202  -0.0278507   -0.057373  -0.0318152   0.0830742  0.00717918
  -0.038652  -0.0171279  -0.0722481   0.0283961   -0.012004  -0.0661781  -0.0290822  -0.0435609 -0.00349625
  0.0973149  -0.0498875  -0.0438419   0.0605615  -0.0316996  -0.0831694 -0.00118725  0.00549973  -0.0128612
 -0.0238228   0.0161415   -0.020121   0.0476611    0.118793  -0.0322828   0.0366296   0.0585025  -0.0328254
 -0.0151326   0.0129575  -0.0201295  -0.0363343  -0.0395915   0.0180064   0.0319512   0.0213493   0.0720182
 -0.0614411   0.0215453  -0.0156694  -0.0150478  -0.0201658  -0.0135605  -0.0110853  -0.0359875  -0.0539845
  0.0280963   0.0237333  0.00789632   0.0419357    -0.03605    -0.04578  -0.0298101   0.0230554    0.106612
-0.00177036  0.00841108   0.0750544  -0.0511444   0.0746847   -0.104032  -0.0517243    0.029402   0.0440833
  0.0332562  0.00629746   -0.114648  -0.0373851    0.182795   -0.057007   0.0874439  -0.0268111  -0.0787011
  0.0457882  0.00804044   0.0397144   0.0254757  -0.0418825   0.0370985   0.0387205   0.0289192 -0.00870295
#
  -0.0208064 -0.000721594   0.00140152   -0.0877523   -0.0276944   -0.0266988      0.09593    0.0746204    0.0474307    0.0122933
    0.078008    0.0689139    0.0230733   -0.0407385   -0.0670733    0.0185393    -0.016931   -0.0560883   0.00705073    0.0688533
   0.0264377    0.0238665   -0.0711161   0.00904346    0.0240997    0.0842217     0.018994    0.0191604    0.0340253   -0.0411391
 -0.00477217    -0.020667    0.0109317    0.0268961   -0.0409742   -0.0593076   -0.0360511   -0.0282687    -0.059009   -0.0407394
  -0.0623846   -0.0188407    0.0535121   -0.0434864    0.0427336    0.0550197   -0.0816131  -0.00819184   -0.0321231   -0.0134614
    0.054997    0.0342451   -0.0173847    0.0110339    0.0485275    0.0563548     0.044213   -0.0130804   -0.0358015  -0.00670134
   0.0653224   0.00733238    0.0111979    0.0740387    0.0150285    0.0283724   0.00628589    0.0754641    0.0304966   -0.0152393
  -0.0037727  -0.00538669   -0.0314147    0.0369272   -0.0198793    -0.146422   0.00310701  0.000766056    0.0269338    0.0187851
   0.0909523   -0.0347351   -0.0566749    0.0244341   -0.0296459   -0.0077895  -0.00852671    0.0083523   0.00805718   -0.0766729
  -0.0897969   -0.0422573   -0.0362974      0.13166   -0.0313888   -0.0449396   -0.0418755    0.0142747     0.036119   -0.0219077
#
 -0.0361065   -0.107187   0.0329526   0.0491255  -0.0294768  0.00656877   0.0820564  0.00166326  -0.0502258   -0.065919
  0.0238032  -0.0567344  -0.0259074  0.00904576   0.0322419  -0.0361312   0.0169438   -0.150163   0.0457891 -0.00996667
  0.0621547   0.0151679   -0.016019 -0.00497544 -0.00922241   0.0802649   0.0501511  -0.0368034   0.0421112   0.0545391
-0.00122128   0.0864531   0.0422484 -0.00911906   0.0257315   -0.063188  0.00618259  -0.0702296  0.00524797  -0.0357622
 -0.0361074  -0.0448192  -0.0432109  -0.0439735   0.0395052  -0.0417513   0.0716064   0.0388349  -0.0811615   -0.026404
 -0.0333882  -0.0164681  -0.0330394   0.0269495  -0.0589961  0.00265579 -0.00322205  -0.0251211  -0.0315699  -0.0234703
  0.0362064   0.0810018   -0.105584    0.036144   0.0177661  -0.0764152  -0.0131367   -0.010745  0.00906269 -0.00589581
 0.00122506  0.00926133    0.012224  -0.0018022   0.0374942  -0.0113193  -0.0742731   0.0639535   0.0231448 -0.00521708
  0.0906032  -0.0142922   0.0694519  -0.0160569 -0.00954651   0.0306054  -0.0368857  -0.0331639  -0.0499974   0.0658515
-0.00332958   0.0620117   -0.136473   0.0219912  -0.0454307  -0.0144213  0.00234991 -0.00971664  -0.0270898    0.011061
#
  0.0401172  -0.0621694   0.0385896  0.00184688   -0.126229   0.0358616  -0.0658184  -0.0295038  0.00915338 -0.00995018
 -0.0426043  -0.0127963  -0.0330847  -0.0259081  -0.0123488   0.0313126  -0.0395912    0.059777   0.0454412   0.0866133
  -0.018897  -0.0624557  -0.0436923  -0.0371858  -0.0219154  -0.0312754  -0.0174448  0.00426869  -0.0103174  -0.0268848
#
!
<13>:2
0 0 0 0 0 0 0 0 0
0 0 0 0 0 0 0 0 0
0 0 0 0 0 0 0 0 0
0 0 0 0 0 0 0 0 0
0 0 0 0 0 0 0 0 0
0 0 0 0 0 0 0 0 0
0 0 0 0 0 0 0 0 0
0 0 0 0 0 0 0 0 0
0 0 0 0 0 0 0 0 0
0 0 0 0 0 0 0 0 0
#
0 0 0 0 0 0 0 0 0 0
0 0 0 0 0 0 0 0 0 0
0 0 0 0 0 0 0 0 0 0
0 0 0 0 0 0 0 0 0 0
0 0 0 0 0 0 0 0 0 0
0 0 0 0 0 0 0 0 0 0
0 0 0 0 0 0 0 0 0 0
0 0 0 0 0 0 0 0 0 0
0 0 0 0 0 0 0 0 0 0
0 0 0 0 0 0 0 0 0 0
#
0 0 0 0 0 0 0 0 0 0
0 0 0 0 0 0 0 0 0 0
0 0 0 0 0 0 0 0 0 0
0 0 0 0 0 0 0 0 0 0
0 0 0 0 0 0 0 0 0 0
0 0 0 0 0 0 0 0 0 0
0 0 0 0 0 0 0 0 0 0
0 0 0 0 0 0 0 0 0 0
0 0 0 0 0 0 0 0 0 0
0 0 0 0 0 0 0 0 0 0
#
0 0 0 0 0 0 0 0 0 0
0 0 0 0 0 0 0 0 0 0
0 0 0 0 0 0 0 0 0 0
#
!
<14>:2
0 0 0 0 0 0 0 0 0
0 0 0 0 0 0 0 0 0
0 0 0 0 0 0 0 0 0
0 0 0 0 0 0 0 0 0
0 0 0 0 0 0 0 0 0
0 0 0 0 0 0 0 0 0
0 0 0 0 0 0 0 0 0
0 0 0 0 0 0 0 0 0
0 0 0 0 0 0 0 0 0
0 0 0 0 0 0 0 0 0
#
0 0 0 0 0 0 0 0 0 0
0 0 0 0 0 0 0 0 0 0
0 0 0 0 0 0 0 0 0 0
0 0 0 0 0 0 0 0 0 0
0 0 0 0 0 0 0 0 0 0
0 0 0 0 0 0 0 0 0 0
0 0 0 0 0 0 0 0 0 0
0 0 0 0 0 0 0 0 0 0
0 0 0 0 0 0 0 0 0 0
0 0 0 0 0 0 0 0 0 0
#
0 0 0 0 0 0 0 0 0 0
0 0 0 0 0 0 0 0 0 0
0 0 0 0 0 0 0 0 0 0
0 0 0 0 0 0 0 0 0 0
0 0 0 0 0 0 0 0 0 0
0 0 0 0 0 0 0 0 0 0
0 0 0 0 0 0 0 0 0 0
0 0 0 0 0 0 0 0 0 0
0 0 0 0 0 0 0 0 0 0
0 0 0 0 0 0 0 0 0 0
#
0 0 0 0 0 0 0 0 0 0
0 0 0 0 0 0 0 0 0 0
0 0 0 0 0 0 0 0 0 0
#
!
<15>:2
0 0 0 0 0 0 0 0 0
0 0 0 0 0 0 0 0 0
0 0 0 0 0 0 0 0 0
0 0 0 0 0 0 0 0 0
0 0 0 0 0 0 0 0 0
0 0 0 0 0 0 0 0 0
0 0 0 0 0 0 0 0 0
0 0 0 0 0 0 0 0 0
0 0 0 0 0 0 0 0 0
0 0 0 0 0 0 0 0 0
#
0 0 0 0 0 0 0 0 0 0
0 0 0 0 0 0 0 0 0 0
0 0 0 0 0 0 0 0 0 0
0 0 0 0 0 0 0 0 0 0
0 0 0 0 0 0 0 0 0 0
0 0 0 0 0 0 0 0 0 0
0 0 0 0 0 0 0 0 0 0
0 0 0 0 0 0 0 0 0 0
0 0 0 0 0 0 0 0 0 0
0 0 0 0 0 0 0 0 0 0
#
0 0 0 0 0 0 0 0 0 0
0 0 0 0 0 0 0 0 0 0
0 0 0 0 0 0 0 0 0 0
0 0 0 0 0 0 0 0 0 0
0 0 0 0 0 0 0 0 0 0
0 0 0 0 0 0 0 0 0 0
0 0 0 0 0 0 0 0 0 0
0 0 0 0 0 0 0 0 0 0
0 0 0 0 0 0 0 0 0 0
0 0 0 0 0 0 0 0 0 0
#
0 0 0 0 0 0 0 0 0 0
0 0 0 0 0 0 0 0 0 0
0 0 0 0 0 0 0 0 0 0
#
!
<16>:2
0 0 0 0 0 0 0 0 0
0 0 0 0 0 0 0 0 0
0 0 0 0 0 0 0 0 0
0 0 0 0 0 0 0 0 0
0 0 0 0 0 0 0 0 0
0 0 0 0 0 0 0 0 0
0 0 0 0 0 0 0 0 0
0 0 0 0 0 0 0 0 0
0 0 0 0 0 0 0 0 0
0 0 0 0 0 0 0 0 0
#
0 0 0 0 0 0 0 0 0 0
0 0 0 0 0 0 0 0 0 0
0 0 0 0 0 0 0 0 0 0
0 0 0 0 0 0 0 0 0 0
0 0 0 0 0 0 0 0 0 0
0 0 0 0 0 0 0 0 0 0
0 0 0 0 0 0 0 0 0 0
0 0 0 0 0 0 0 0 0 0
0 0 0 0 0 0 0 0 0 0
0 0 0 0 0 0 0 0 0 0
#
0 0 0 0 0 0 0 0 0 0
0 0 0 0 0 0 0 0 0 0
0 0 0 0 0 0 0 0 0 0
0 0 0 0 0 0 0 0 0 0
0 0 0 0 0 0 0 0 0 0
0 0 0 0 0 0 0 0 0 0
0 0 0 0 0 0 0 0 0 0
0 0 0 0 0 0 0 0 0 0
0 0 0 0 0 0 0 0 0 0
0 0 0 0 0 0 0 0 0 0
#
0 0 0 0 0 0 0 0 0 0
0 0 0 0 0 0 0 0 0 0
0 0 0 0 0 0 0 0 0 0
#
!
<85>:2
     0.0573   0.0296161   -0.075105  -0.0144909  -0.0404495 -0.00680214   0.0261147    0.057215  -0.0506959
 -0.0141482  -0.0101691   0.0328771 -0.00285527   0.0227314   0.0236842   0.0260918  -0.0199589 -0.00616156
 -0.0829837    0.153165  0.00806961   0.0364865  -0.0173642  -0.0418427    0.122896    0.045806 -0.00121548
 -0.0382319   0.0289374  -0.0686141  -0.0152193  -0.0323896  -0.0409527    0.104747   0.0570083   0.0650804
  0.0183874   0.0420405    0.051666  -0.0204746   0.0150806   0.0397968   0.0903071   -0.043381  -0.0126041
  -0.049808   0.0660265  -0.0097491   0.0688366  -0.0522199  -0.0160118  0.00499373   0.0380216   0.0415782
 -0.0467609   0.0285914   0.0602163  0.00814468  0.00734881   0.0188466    0.052268   0.0187154   0.0398074
  0.0258845   0.0229737   0.0567158   0.0191998  -0.0771636  -0.0386129   0.0579812  -0.0919613  -0.0169043
  0.0837528  0.00853194    0.103119  -0.0073711 -0.00716548   0.0312849  -0.0467584    0.020952  -0.0180534
 0.00432702  -0.0108897  -0.0402958   0.0464445  0.00267286   0.0639167   0.0736934   0.0278627   0.0783437
#
  -0.0155597  -0.00710292   0.00107893   -0.0200355    0.0136786  -0.00445389    -0.115398   -0.0371922   -0.0655672    0.0830523
  -0.0212677     0.126368    -0.037916    -0.119694    -0.063115   -0.0496224    0.0394937   0.00368316    0.0204904   -0.0192651
  -0.0856678    0.0366636     0.113668    0.0777823    0.0158264   -0.0172887    0.0153407    0.0104931   0.00524993     0.035617
   0.0624595   -0.0281191     0.061686  -0.00974394     0.010489   -0.0575188    0.0103935   -0.0345862    0.0428957   -0.0670981
  -0.0413919   -0.0182296   -0.0572234    0.0133346   -0.0158454    0.0999138    0.0447957    0.0661964   -0.0287944  -0.00895459
  -0.0392257  0.000124989    -0.015335    0.0559674  -0.00781512   -0.0142848   -0.0253804     -0.10143    0.0159345    0.0794291
   0.0264974    0.0448522    0.0302128   -0.0546632    0.0669036    0.0645432   -0.0426008 -0.000916707   -0.0578604   -0.0181424
   0.0308626     0.110054    0.0438058   -0.0229809   -0.0226258    0.0102466  -0.00276943   -0.0631663    0.0192906   -0.0216147
    0.026013    -0.108564    0.0393926    0.0274005   -0.0515553   -0.0299875   -0.0688369    0.0103959  -0.00953523    0.0371167
 -0.00436152     0.013628    0.0466005     0.010814    0.0277492    -0.039845   0.00337439   -0.0225893   -0.0222996   -0.0101364
#
  -0.0510908   -0.0252845   -0.0200818    0.0385011  -0.00864819   0.00877135    0.0345202   -0.0160438   0.00436469   -0.0327278
   0.0205669  -0.00786615   -0.0373324      0.01865    0.0630226   -0.0364384    0.0838435  -0.00762569   -0.0544629   0.00172096
   -0.026345   -0.0348946   -0.0192595   -0.0639717    0.0620735    0.0328768  -0.00414367    0.0827507    0.0870831   -0.0783297
   0.0245825    0.0619505   -0.0205453  -0.00734387    -0.012982    0.0387615   0.00696368   -0.0723375   -0.0663689   -0.0663573
  -0.0811632  -0.00874799 -0.000932598     -0.01329    0.0449428   -0.0351381    -0.080245   -0.0347632  -0.00281753    0.0680566
   0.0556406   -0.0181369   -0.0231354    0.0346517    0.0438167    0.0159469   -0.0625658   -0.0350584   -0.0274638    0.0361691
  -0.0873354   -0.0131299   -0.0977721   -0.0594287   -0.0390737    0.0024417    0.0354915    0.0348997  -0.00140714    0.0187812
  -0.0112847   -0.0487359    0.0191948    0.0613904     0.143312    0.0265955    0.0969195   -0.0464865   -0.0454999    0.0402008
  -0.0297004   -0.0107291    -0.032929   -0.0340954   -0.0172273   -0.0364312     0.134542    0.0217965   -0.0502072  -0.00548503
   0.0299488    0.0266355    0.0766685   -0.0223421   -0.0373479    0.0171295    0.0626607  -0.00280032    0.0190676   -0.0219844
#
  0.0810616   0.0079897  -0.0117623  0.00874709   0.0981966    0.112119    0.139796  -0.0518119  -0.0419634  0.00938526
  0.0550237   0.0180877    0.048329  -0.0394007    0.101469   -0.144751   0.0321772   -0.059741   0.0266027  0.00405469
  -0.099761    0.128836      0.0159   0.0386459  0.00568874 -0.00157693   0.0550963   0.0479288   0.0522817 -0.00158154
#
!
<17>:2
0 0 0 0 0 0 0 0 0
0 0 0 0 0 0 0 0 0
0 0 0 0 0 0 0 0 0
0 0 0 0 0 0 0 0 0
0 0 0 0 0 0 0 0 0
0 0 0 0 0 0 0 0 0
0 0 0 0 0 0 0 0 0
0 0 0 0 0 0 0 0 0
0 0 0 0 0 0 0 0 0
0 0 0 0 0 0 0 0 0
#
0 0 0 0 0 0 0 0 0 0
0 0 0 0 0 0 0 0 0 0
0 0 0 0 0 0 0 0 0 0
0 0 0 0 0 0 0 0 0 0
0 0 0 0 0 0 0 0 0 0
0 0 0 0 0 0 0 0 0 0
0 0 0 0 0 0 0 0 0 0
0 0 0 0 0 0 0 0 0 0
0 0 0 0 0 0 0 0 0 0
0 0 0 0 0 0 0 0 0 0
#
0 0 0 0 0 0 0 0 0 0
0 0 0 0 0 0 0 0 0 0
0 0 0 0 0 0 0 0 0 0
0 0 0 0 0 0 0 0 0 0
0 0 0 0 0 0 0 0 0 0
0 0 0 0 0 0 0 0 0 0
0 0 0 0 0 0 0 0 0 0
0 0 0 0 0 0 0 0 0 0
0 0 0 0 0 0 0 0 0 0
0 0 0 0 0 0 0 0 0 0
#
0 0 0 0 0 0 0 0 0 0
0 0 0 0 0 0 0 0 0 0
0 0 0 0 0 0 0 0 0 0
#
!
<38>:2
0 0 0 0 0 0 0 0 0
0 0 0 0 0 0 0 0 0
0 0 0 0 0 0 0 0 0
0 0 0 0 0 0 0 0 0
0 0 0 0 0 0 0 0 0
0 0 0 0 0 0 0 0 0
0 0 0 0 0 0 0 0 0
0 0 0 0 0 0 0 0 0
0 0 0 0 0 0 0 0 0
0 0 0 0 0 0 0 0 0
#
0 0 0 0 0 0 0 0 0 0
0 0 0 0 0 0 0 0 0 0
0 0 0 0 0 0 0 0 0 0
0 0 0 0 0 0 0 0 0 0
0 0 0 0 0 0 0 0 0 0
0 0 0 0 0 0 0 0 0 0
0 0 0 0 0 0 0 0 0 0
0 0 0 0 0 0 0 0 0 0
0 0 0 0 0 0 0 0 0 0
0 0 0 0 0 0 0 0 0 0
#
0 0 0 0 0 0 0 0 0 0
0 0 0 0 0 0 0 0 0 0
0 0 0 0 0 0 0 0 0 0
0 0 0 0 0 0 0 0 0 0
0 0 0 0 0 0 0 0 0 0
0 0 0 0 0 0 0 0 0 0
0 0 0 0 0 0 0 0 0 0
0 0 0 0 0 0 0 0 0 0
0 0 0 0 0 0 0 0 0 0
0 0 0 0 0 0 0 0 0 0
#
0 0 0 0 0 0 0 0 0 0
0 0 0 0 0 0 0 0 0 0
0 0 0 0 0 0 0 0 0 0
#
!
<89>:2
  0.00264426    0.0544261   -0.0522268   -0.0472824   -0.0444616    0.0586108   -0.0225931   -0.0124775   -0.0195893
  -0.0106694    -0.074435   0.00463739    0.0209973    0.0811717    0.0169933  -0.00395046    0.0225341    0.0108329
    0.112692   -0.0447541    0.0358657    0.0204535   -0.0424281    0.0304917    0.0578956  0.000103382   -0.0452879
  -0.0813213 -0.000203406   -0.0342041     0.126248    0.0664704    0.0470451        0.029   -0.0126901    0.0444954
   0.0230853    0.0983528   0.00825179   -0.0184573   0.00484499   -0.0893337  -0.00109073    0.0610637      0.11096
 -0.00598087   -0.0203919   -0.0646019    0.0562415   -0.0819353 -0.000386718  0.000376225   -0.0487007   -0.0380697
  -0.0248622    0.0282116    0.0495184   -0.0512198   -0.0119448   -0.0140881    0.0858128    0.0345279  -0.00800158
-0.000320556  -0.00243837   -0.0288675   -0.0363916    0.0267722   -0.0559599    0.0445059     0.115218    0.0741617
   0.0129663    0.0536197     0.010983    0.0290178   -0.0479812   -0.0256605   -0.0133524   -0.0129634    0.0413094
   0.0214871   0.00322548     0.059567   0.00332207   -0.0218871    0.0183475   -0.0458128   0.00968727   0.00851407
#
    0.125543   0.00462398   -0.0419971 -0.000487565      0.01601   -0.0240306     0.017009    0.0943328    0.0569493   -0.0801069
  -0.0217004   -0.0342053    0.0195476     0.122635    0.0100295   -0.0376724    0.0118896    0.0920276 -0.000527828   -0.0366204
  -0.0132495   0.00965645   0.00405276    0.0248134   0.00113469  -0.00788352    -0.043546    0.0343878   -0.0564528   -0.0721502
 -0.00919177    -0.118478    0.0424006   -0.0793068     0.108161 -0.000681335    0.0457531    0.0214102   -0.0780696   -0.0390953
  -0.0832783   -0.0329137   -0.0616193    0.0070475   -0.0285548  0.000393277   -0.0467026   -0.0146829   -0.0476677    0.0260238
  -0.0500375   0.00871288   -0.0223946    0.0151689   -0.0477505   -0.0451533   -0.0589326   -0.0204906 -0.000364129  -0.00848107
  -0.0096833    0.0108717    0.0276141    0.0179801   0.00356068  0.000633731    0.0395105  -0.00971073   -0.0494008   -0.0484367
   0.0242553  -0.00947315  -0.00672168   0.00820289   -0.0257148  -0.00591119   -0.0812848   -0.0744277   0.00385975    0.0752937
   0.0207195   -0.0871904    0.0266094  -0.00704177    0.0402541  -0.00667834   0.00393075    0.0574038    0.0330849    0.0351826
   0.0187308  -0.00205433    0.0171317    0.0571123    0.0289712   -0.0325777    0.0254126    -0.068591   -0.0222276  -0.00855629
#
  0.0204766   0.0048607   0.0460184 0.000384266   0.0596421   0.0016023   0.0139416  -0.0134406  -0.0241417  -0.0850942
  -0.119924   0.0449762  -0.0110184    0.035331   0.0199234  0.00110797 -0.00688693    0.109729   0.0301828  -0.0109465
-0.00496364  -0.0302658  -0.0245325   0.0118021   0.0375286 -0.00395561  -0.0105195 -0.00291483  -0.0416232   -0.125187
 -0.0128119  -0.0296866  0.00696118   0.0399421  -0.0105529  -0.0182165   0.0248015  0.00650059  -0.0039318  -0.0449792
  0.0476595  0.00593335  -0.0380418   0.0473435  0.00164757  0.00442152  -0.0566648  -0.0365892   0.0145588   0.0381955
-0.00169996   0.0384954   0.0997604   0.0464273  -0.0123963  -0.0411965   -0.149695   0.0785094  -0.0154906   0.0393529
 -0.0543709   0.0360104 0.000535692  -0.0559125 -0.00180043  -0.0694645   0.0651611    0.143204  -0.0145549    0.112469
 -0.0395861  -0.0137016  -0.0375824   0.0140326   0.0456018  0.00745478   -0.013174  -0.0436473  -0.0402704   0.0147752
  0.0425952   0.0371234  -0.0111709  -0.0596773   0.0614245 -0.00181457  -0.0440613   0.0737733    0.059947  -0.0255565
  0.0162695   0.0711515   0.0248602   -0.015175    0.096436   0.0355447    0.021538  -0.0871712   0.0348834   0.0185092
#
  0.0340168  -0.0815596   -0.012607  -0.0062934    0.184994  0.00175993   0.0376051  -0.0278168  -0.0768919  -0.0317988
  0.0344167  -0.0574466   0.0359883   0.0279236  -0.0336345   0.0201622   0.0651665    0.079195   0.0297103  -0.0283329
  0.0279702  -0.0487377   0.0148387 0.000211119   0.0214294   0.0246348  -0.0165967   0.0746735    0.013098   0.0642581
#
!
<18>:2
0 0 0 0 0 0 0 0 0
0 0 0 0 0 0 0 0 0
0 0 0 0 0 0 0 0 0
0 0 0 0 0 0 0 0 0
0 0 0 0 0 0 0 0 0
0 0 0 0 0 0 0 0 0
0 0 0 0 0 0 0 0 0
0 0 0 0 0 0 0 0 0
0 0 0 0 0 0 0 0 0
0 0 0 0 0 0 0 0 0
#
0 0 0 0 0 0 0 0 0 0
0 0 0 0 0 0 0 0 0 0
0 0 0 0 0 0 0 0 0 0
0 0 0 0 0 0 0 0 0 0
0 0 0 0 0 0 0 0 0 0
0 0 0 0 0 0 0 0 0 0
0 0 0 0 0 0 0 0 0 0
0 0 0 0 0 0 0 0 0 0
0 0 0 0 0 0 0 0 0 0
0 0 0 0 0 0 0 0 0 0
#
0 0 0 0 0 0 0 0 0 0
0 0 0 0 0 0 0 0 0 0
0 0 0 0 0 0 0 0 0 0
0 0 0 0 0 0 0 0 0 0
0 0 0 0 0 0 0 0 0 0
0 0 0 0 0 0 0 0 0 0
0 0 0 0 0 0 0 0 0 0
0 0 0 0 0 0 0 0 0 0
0 0 0 0 0 0 0 0 0 0
0 0 0 0 0 0 0 0 0 0
#
0 0 0 0 0 0 0 0 0 0
0 0 0 0 0 0 0 0 0 0
0 0 0 0 0 0 0 0 0 0
#
!
<91>:2
  0.0302551   0.0137808  -0.0619229   0.0427734  0.00558145   0.0495221  -0.0266235 -0.00762827   0.0209646
 -0.0160393   0.0637538  0.00865506   0.0397501  -0.0794036   0.0356022   0.0930835  -0.0944003   0.0671988
  -0.041895   -0.171638   0.0224837    0.122933  -0.0358977   0.0192341   0.0128022 -0.00226125   0.0392371
 -0.0270427  -0.0698431   -0.141671  -0.0564877  -0.0252603  0.00321726  0.00608884   0.0707825  -0.0201263
   0.024078  -0.0446867 -0.00897882  -0.0164028    0.039713   0.0196913   0.0679168   0.0372013   0.0419486
 0.00658814   0.0708878 -0.00449628   0.0405489  -0.0135994  -0.0239651  -0.0908886  -0.0132841  -0.0140744
  0.0375966 -0.00202015   0.0213068  -0.0253317 0.000411098   -0.059626   0.0283803  -0.0382523   0.0135649
  -0.043928  -0.0119861   0.0254649  -0.0130824  -0.0891254  -0.0553381   0.0506181  -0.0558605  -0.0742079
  0.0168585   0.0214623  0.00813583   0.0150687  -0.0101591   0.0287763  -0.0564961  -0.0625611  -0.0294855
 0.00514416  -0.0538455  -0.0305895   0.0558476  -0.0358742  -0.0284028    0.095246    0.141341   0.0569635
#
   0.0218036    0.0859656    0.0845588    0.0257246   -0.0775657     0.011536   0.00356513   -0.0176295    -0.122345     0.055672
  -0.0443462   -0.0506028     0.013151    0.0087896    0.0639906   -0.0375919    0.0211993   -0.0382774    0.0176732    -0.096411
   0.0024434     0.123216    0.0556477   -0.0536174    0.0514153    0.0746056    0.0753014   -0.0802564    0.0788168    0.0397142
   0.0555933   -0.0170265    -0.011291   -0.0439216   -0.0461504    0.0503891    0.0057849   -0.0396186   -0.0110382    0.0618877
    -0.11499     -0.10214   -0.0161282     0.132767     -0.04956   -0.0735024     0.072809    0.0418603    0.0143389   -0.0345342
  -0.0222145    -0.016112    -0.108851   -0.0140141   -0.0367018   -0.0249873     0.109379   -0.0874209   -0.0277821   -0.0241739
  -0.0159438     0.061561    -0.104398   -0.0483501   -0.0393314    0.0261378   -0.0260524   0.00635765   -0.0299103   -0.0278644
 -0.00925761     0.042673   -0.0188135     -0.02937    0.0478402    0.0238696   -0.0437941    0.0426009   0.00558196     0.028051
-0.000363556    0.0730162    0.0355412   -0.0567076   -0.0292331   -0.0277545     0.012578     -0.03355    0.0839496   -0.0211751
   0.0565552    0.0441768  -0.00142465    0.0974404   -0.0592958 -0.000575769    0.0418647    -0.026727   -0.0562997     0.097892
#
 -0.0537247  0.00415924   0.0388577 -0.00706921  -0.0760051   0.0552213  -0.0502549   -0.023418  -0.0164662   0.0392058
  0.0810554  -0.0356359  -0.0291887 -0.00319265   0.0524956   0.0594441  -0.0309302  -0.0680771  -0.0955318   0.0170206
 -0.0647839   0.0333103   -0.064941   0.0838497     0.09734  -0.0234752   0.0221065   0.0193272  -0.0133922  -0.0444376
  0.0128392   -0.016148  0.00845502  -0.0058815 -0.00242243   0.0581534   0.0355516  -0.0537529  0.00776956  -0.0201917
 -0.0906615   0.0137106   -0.044575   0.0171837   0.0123314   0.0161741  -0.0667831   0.0176655  -0.0411678 -0.00273293
  0.0159931  -0.0548834   0.0828997  -0.0399131 -0.00430369   0.0663859    0.074425 -0.00859859    0.022406   0.0257664
 -0.0043525   0.0214765  -0.0257961   0.0402901  -0.0261055  0.00633427   0.0203756  -0.0434802  -0.0329751   0.0570606
-0.00544757   0.0252014   0.0191518    -0.11177  -0.0607252  0.00630014   -0.049676   0.0493969   0.0091072    0.031883
 -0.0494064   -0.018998   0.0743685  -0.0586894    0.111598  -0.0186377 -0.00028516   0.0159225  -0.0599719  -0.0228615
   0.055047    0.042589   0.0505296  -0.0092724   0.0176639  -0.0953995  -0.0459683  -0.0199316   0.0348247  0.00146945
#
 0.00401321   0.0285781  0.00744028  -0.0650715  -0.0421648 -0.00375446  -0.0377545  -0.0764501  -0.0246494    0.066421
-0.00215138 -0.00421233  -0.0816428  -0.0629198  -0.0442122  -0.0561085 -0.00319044  -0.0354946   -0.169246 -0.00683734
  -0.007166  -0.0149498   0.0668879  -0.0133815  -0.0764702  -0.0330302   0.0275125   0.0958699  0.00802531  -0.0456425
#
!
<92>:2
  -0.0101767    0.0679782    -0.147788    -0.075772     0.072447    0.0346271   -0.0522522    0.0601324   -0.0830814
   0.0783866   0.00678452     -0.04323    0.0585067   -0.0605069    -0.113392   -0.0632088     0.026853    0.0370687
   0.0332463    0.0105871    0.0830252   -0.0289453   -0.0201985   0.00473399   -0.0379029    0.0284285   -0.0127945
  -0.0042839  -0.00804721   -0.0141626   0.00250608    0.0137217    0.0368225   -0.0149925   -0.0502831   -0.0386898
  -0.0161578   -0.0591079    0.0221465   -0.0625904    0.0446353    0.0309072    0.0614554  -0.00852414 -0.000260023
  -0.0279745    0.0600112    0.0464899   -0.0105431   -0.0667101  -0.00654564    0.0013578    0.0126317    0.0527965
  -0.0239399   -0.0303546    0.0187249    0.0429241   -0.0680328   -0.0101969   -0.0485759   -0.0218111   -0.0671076
-0.000352169    0.0421317    -0.066204    0.0414338   -0.0150594    0.0269696    0.0374965   -0.0306141    -0.114641
  -0.0178209    0.0212036    0.0379848   -0.0359742   -0.0974889     0.104388  -0.00993906  -0.00734935    0.0198425
  -0.0426964    0.0250479   -0.0260326    0.0152865   -0.0243618   -0.0306263    -0.020367   -0.0350794    0.0277525
#
 -0.0177162   0.0458388 -0.00435001  0.00611781  -0.0364069   0.0212816   0.0391744  0.00652549   0.0262342 -0.00861098
 -0.0234549   0.0761231  0.00240417   0.0713141  -0.0301466   0.0213471   0.0466475  -0.0514739   0.0851601   0.0231002
 -0.0276644  -0.0494893  -0.0156622  -0.0704704   -0.018591 0.000184503   0.0649838   0.0422651   0.0532246   0.0499294
    0.12604  -0.0193807   0.0484082  0.00833774 -0.00176174   0.0389782  -0.0092413  -0.0358581   0.0935108    0.147993
 -0.0103369 -0.00379989   -0.044007  -0.0316511   0.0209412  -0.0178173  -0.0288815  -0.0829912  -0.0211198    0.104147
 -0.0617452 -0.00416808   0.0161657    0.115551  -0.0384826   0.0397725   0.0302603   0.0725048   0.0931286   0.0594757
  0.0775226   0.0390573   0.0829464  -0.0868697 -0.00167515  -0.0190378  -0.0858362  -0.0418256  -0.0242336   0.0331474
 -0.0134287  -0.0359519   0.0251958   0.0129615  -0.0507157 -0.00880434   0.0236643 -0.00881029   0.0346892   0.0583427
 -0.0857453   0.0427155  -0.0414289  -0.0230276  -0.0287937   0.0508179   0.0470616   -0.043229  -0.0189622  -0.0282461
 -0.0312659   0.0165974   -0.114393   0.0411226  -0.0403796 -0.00751801  -0.0850736    0.102713   0.0560523  -0.0400886
#
  0.0425143    -0.06442   0.0128835   -0.112985  -0.0735756  0.00644112   0.0456009  -0.0468123    0.039838  -0.0588965
  -0.124755  -0.0433835  0.00566465  -0.0886893  -0.0399347  -0.0180194    0.010578   0.0469249   0.0871325 -0.00699189
 -0.0322312  -0.0235042  -0.0507522   0.0361288   -0.137208   0.0129463   0.0402741   0.0439348 -0.00709759  -0.0231501
 -0.0437271  0.00865428   -0.101917  -0.0160584   0.0602321  -0.0571976   0.0631509   0.0248455  -0.0437475 -0.00631586
  0.0806858  -0.0601882   0.0425494  -0.0330195   0.0787581    0.023271   0.0675825  -0.0709932   0.0172813   0.0243076
 -0.0128752    0.004501  -0.0523611  -0.0052781  -0.0938375  -0.0105994  -0.0877016  0.00803215   -0.015511   0.0161993
-0.00559916 -0.00769092  0.00994814  -0.0444569  0.00257986  -0.0131859 -0.00573155  0.00718683   0.0137364  -0.0268201
   -0.01018   0.0788325   -0.065859   0.0202525   0.0965659   0.0495705   0.0068553   0.0225237   0.0575198  0.00675127
  -0.083879   0.0616787    0.154185    0.030194   0.0166728  -0.0216481  -0.0189345   0.0190142   0.0152467   0.0451054
  0.0326513  -0.0180024   0.0904042   0.0760261  -0.0111577  -0.0410088  -0.0347942    0.019247   0.0146909   0.0189123
#
 -0.0758301   0.0502583  -0.0324691   0.0352309  -0.0529382  -0.0163382   0.0523562   0.0431294 -0.00178602   0.0445849
 -0.0400196   0.0344269  -0.0325614   0.0269696 -0.00914841  -0.0415521  0.00284728    0.026921  -0.0202175   0.0304803
 -0.0317854   0.0244335   0.0573529 -0.00738095   0.0613012   0.0393281    0.005331  0.00122311 0.000634798 -0.00516589
#
!
<93>:2
 -0.0605138  0.00895949   0.0339947  -0.0463523  -0.0569198   0.0251757   0.0608144  -0.0277994  -0.0235993
 -0.0429073  -0.0858179  -0.0106371    0.038833  -0.0117241     0.08161   0.0659099  -0.0589541   0.0758764
  0.0391201 -0.00881378   0.0420751   0.0451622   -0.057805   0.0464482    0.019665  -0.0187019   0.0167588
 -0.0396899   0.0327733    0.121837    -0.04844  -0.0554274  -0.0178644   0.0646116 -0.00204667  -0.0713396
  -0.120126   -0.047198  -0.0152177  -0.0271975  -0.0359444     -0.1187  -0.0387852  -0.0408549  -0.0246409
 -0.0648568   0.0111379  -0.0036251   0.0511062   0.0174527   0.0613084  -0.0328785   0.0672788   -0.131953
 -0.0805853  0.00986623   0.0291325  -0.0858275   0.0461451   0.0338459   -0.028878    0.062605  0.00834843
  0.0519614   0.0549852    0.120034 -0.00525829  -0.0424633   0.0708032   0.0625864  -0.0512496  -0.0343273
  0.0866354   -0.010517   0.0377245  -0.0744685  -0.0183691 -0.00432791  -0.0716281   0.0406687   0.0426766
 -0.0170289  -0.0532567   0.0164669   0.0205479   0.0948304  0.00411614    0.092635  -0.0890575  -0.0688053
#
  -0.0182405   -0.0134829   -0.0792024    0.0470577   -0.0185868    0.0319852   -0.0707042    0.0676883     -0.03389    0.0217301
 -0.00417162   0.00226375   -0.0308892   -0.0504987   -0.0531001  -0.00837322   -0.0252203     0.123729    0.0037656    0.0294671
     0.01192   0.00802993   0.00516547    0.0275675    0.0150174    0.0383015   -0.0273666   -0.0690116   -0.0132065   -0.0179349
   0.0494463     0.102762    -0.086734    0.0153892   0.00802239   -0.0291939    -0.033102     0.041047  -0.00806436  0.000710412
   0.0490735      0.02801   -0.0110844    0.0202825    0.0405085    0.0481295   -0.0738066   -0.0748104    -0.046018   -0.0672542
   0.0956484    0.0255947    0.0524072    0.0339054  -0.00827167     0.129323     0.105839   -0.0835307     0.030554    0.0155789
   0.0638627   -0.0128891    0.0680396   -0.0245515   0.00482768   0.00379877   -0.0543711     0.013282    0.0150513    -0.104849
  0.00431033   -0.0474894    -0.047961    0.0439768    0.0597568   -0.0039061    0.0432187   -0.0750101   -0.0256293    0.0599894
-0.000619472  -0.00879996    0.0787232    0.0631159    0.0171592   -0.0765427      0.05033   0.00703668   -0.0456652    0.0170468
   0.0672534     0.031284   -0.0100828   -0.0108575   -0.0244708 -0.000230343  -0.00213291    0.0128839    0.0104247   -0.0253845
#
 -0.0153221  -0.0310459  0.00737422    0.143591   0.0796966  -0.0118906 -0.00282734   -0.092954   -0.043291   0.0378753
 -0.0295435   -0.107552  -0.0103177  -0.0599405 -0.00329222   0.0366817   0.0515599  -0.0664906  0.00858234  0.00227503
 -0.0416493 -0.00602411    0.043181  -0.0947885   0.0553325  0.00291816   0.0157339   0.0527165    0.123197    0.112495
 0.00966718  -0.0539493   0.0789156   0.0322773  -0.0210196   0.0859662    0.120583 0.000185908   0.0559361    0.015734
 -0.0105307   0.0133879   0.0421705   0.0626827   0.0120665   0.0501903  0.00948412  -0.0341042   0.0120665  -0.0236143
 0.00585033   0.0324981   0.0585215  0.00592849   0.0841646  0.00857544   -0.042214   0.0414943  -0.0146067     0.02507
  0.0012547  -0.0803594   -0.025298  -0.0674747   0.0148709  -0.0653652  -0.0464018   -0.011303   0.0116311   0.0109676
  0.0334071   0.0534639   0.0826386   -0.152095   0.0187261  -0.0135762  -0.0642423  0.00311694  -0.0159816  -0.0481067
 0.00436628   -0.049744    0.011998  -0.0432786  0.00348631  -0.0338168  -0.0406795    0.114123   0.0164467  0.00799536
  -0.047324   -0.044096  0.00534453   0.0445097  -0.0164785  -0.0628171   0.0500721   0.0869076  0.00475293 -0.00674624
#
   0.0422097    0.0555457    0.0785334    0.0386336    0.0281655   -0.0877319   -0.0427859 -0.000887196   0.00816224    -0.045363
  -0.0425555   -0.0311137    0.0204158    -0.111672   -0.0265928   -0.0954459   -0.0809222   -0.0519513    0.0583332    0.0526098
  -0.0308148   -0.0208497   0.00821242    0.0576937   -0.0173004     0.030924   -0.0856553    0.0045273    0.0500268   -0.0591136
#
!
<19>:2
0 0 0 0 0 0 0 0 0
0 0 0 0 0 0 0 0 0
0 0 0 0 0 0 0 0 0
0 0 0 0 0 0 0 0 0
0 0 0 0 0 0 0 0 0
0 0 0 0 0 0 0 0 0
0 0 0 0 0 0 0 0 0
0 0 0 0 0 0 0 0 0
0 0 0 0 0 0 0 0 0
0 0 0 0 0 0 0 0 0
#
0 0 0 0 0 0 0 0 0 0
0 0 0 0 0 0 0 0 0 0
0 0 0 0 0 0 0 0 0 0
0 0 0 0 0 0 0 0 0 0
0 0 0 0 0 0 0 0 0 0
0 0 0 0 0 0 0 0 0 0
0 0 0 0 0 0 0 0 0 0
0 0 0 0 0 0 0 0 0 0
0 0 0 0 0 0 0 0 0 0
0 0 0 0 0 0 0 0 0 0
#
0 0 0 0 0 0 0 0 0 0
0 0 0 0 0 0 0 0 0 0
0 0 0 0 0 0 0 0 0 0
0 0 0 0 0 0 0 0 0 0
0 0 0 0 0 0 0 0 0 0
0 0 0 0 0 0 0 0 0 0
0 0 0 0 0 0 0 0 0 0
0 0 0 0 0 0 0 0 0 0
0 0 0 0 0 0 0 0 0 0
0 0 0 0 0 0 0 0 0 0
#
0 0 0 0 0 0 0 0 0 0
0 0 0 0 0 0 0 0 0 0
0 0 0 0 0 0 0 0 0 0
#
!
<95>:2
   0.0222077    0.0326892   -0.0106831    0.0111783   -0.0507079     0.032947    0.0935623    0.0602836    0.0552114
   0.0207899    0.0221683   -0.0745806   -0.0190315   0.00814643   -0.0468697    0.0294022   0.00926831 -0.000673493
    0.110371    0.0168494 -0.000575744   -0.0635032   -0.0576149     -0.12282    0.0639264    -0.027896   -0.0528504
   0.0716189     0.120567   0.00762259     0.019779   -0.0442147    -0.034783   -0.0214711   -0.0157548   -0.0635593
  0.00546726    0.0515011   -0.0332619     -0.10231   0.00323878    0.0736614 -0.000946625    0.0611228    0.0279863
-0.000550214   -0.0552471   0.00780917   -0.0358959   -0.0148657    0.0125406   -0.0296543   -0.0108362   -0.0400522
    0.144318    -0.010488   -0.0458929   -0.0425005    0.0776135    0.0360361   -0.0208675    0.0585229   -0.0373091
  -0.0371721  -0.00981497   -0.0420601   -0.0367476    0.0138289    0.0605735   0.00371725    0.0980842   0.00318371
    0.026088    -0.127365  -0.00950872   -0.0157506     0.114074   -0.0112371  -0.00900825   -0.0240727    0.0116541
  -0.0397636    0.0914085   -0.0647893    0.0962985   -0.0707017    0.0685437   -0.0764032     0.105975   -0.0126189
#
 -0.0473654   0.0363994   0.0722693   0.0327036   0.0204928  -0.0435525  -0.0507502   0.0595302   0.0163325   0.0150842
 -0.0294188  -0.0759594 -0.00956365  0.00859716   0.0283405  -0.0266782  -0.0262273  0.00981236    0.123883   0.0184589
  0.0963234  -0.0487641  -0.0956285  0.00071436  -0.0148896 -0.00739991   0.0220841   0.0176893   -0.103388  -0.0506583
  0.0110029   0.0775789   0.0733517    0.051658  -0.0844029   -0.106407   0.0452084   0.0160125  -0.0216523  -0.0330069
 -0.0168937  0.00356156   0.0747188  -0.0682251  -0.0166163   -0.074497  -0.0282182   0.0208658   0.0544066  -0.0904894
 -0.0428914   0.0202794   0.0203991   0.0187555   0.0587288    0.139806   0.0607869  -0.0467874   -0.065889   0.0605182
 -0.0201262  -0.0346218   0.0409507   0.0537298  -0.0072919   0.0613412     0.13006  -0.0347927    0.021153  -0.0377317
    -0.0198  -0.0325593   0.0175362   0.0469903   0.0316923   0.0707639 -0.00430428   0.0674237   0.0517712   0.0192713
  0.0252605   0.0351984  -0.0766391  -0.0653482   0.0698163  -0.0444049   -0.005862  -0.0526597  0.00197935  -0.0186569
 -0.0318272  -0.0531592  -0.0661144  -0.0045028   0.0393442  -0.0106173  -0.0455076  -0.0237931  -0.0311402  -0.0689866
#
 -0.0057733   0.0522515   0.0434612  -0.0518365   0.0304671   0.0319016   0.0567731  -0.0778982    0.015629  -0.0157782
 -0.0246317  -0.0249955  -0.0203305    0.041384   0.0114558  0.00938197   0.0225545  -0.0298957   0.0389066  0.00095627
  -0.058315   -0.028053    0.140225  -0.0553062   0.0360765  -0.0515496   0.0864866   0.0170397  -0.0120674   0.0536011
 -0.0274666  -0.0332112 -0.00755874   0.0860402  0.00708152  -0.0499466   0.0557231   0.0504308   0.0830762  -0.0266057
 0.00211405     0.02048   -0.103994  -0.0962766   0.0205248  -0.0300051   -0.033384   0.0606178   0.0796601   -0.025664
 -0.0441162   0.0284728   0.0613664  0.00812872   0.0569314  -0.0200569   -0.102277   -0.026827 -0.00604506   0.0281477
 -0.0600915   0.0201522  -0.0418209  -0.0229372  -0.0377598 -0.00905615   0.0404768   -0.004713  0.00107561   0.0291122
  -0.116402   0.0296023   -0.020449 -0.00643579  -0.0255765  -0.0381345   -0.108066 -0.00771632  -0.0023269 -0.00995492
 -0.0613841  -0.0806137    0.022764   0.0180434  -0.0436464  0.00241627    0.042727   0.0512144  -0.0168126   0.0691196
 0.00668148  -0.0418456   -0.089362  -0.0768492  -0.0630244   -0.107812   0.0250339  -0.0647017  0.00887511   0.0118343
#
  0.00143274   -0.0380163   -0.0594553    0.0282358   -0.0409402     0.107097   -0.0430767    0.0841682     0.054243   -0.0180697
  -0.0373226    0.0641274   -0.0821761 -0.000956371    0.0106022     0.123808    0.0102424   -0.0454957   -0.0479844   -0.0700239
   0.0460967   -0.0241392   -0.0371729   -0.0367106   0.00715238    0.0140806  -0.00399843    0.0350386    0.0201358    0.0953838
#
!
<96>:2
 -0.0479075  0.00639316  -0.0674389   0.0497095  -0.0268025  0.00952456  -0.0275056  -0.0068968  -0.0368677
  0.0341321  -0.0632215  -0.0183663 -0.00895815   -0.014618    0.050198 -0.00590851   0.0444144  0.00873435
 -0.0137475  0.00179478  -0.0689593  -0.0326699  -0.0221393   0.0224506    0.034838   0.0368637  -0.0568671
-0.00509344   0.0948727  -0.0116255     0.01265  -0.0202842  -0.0136833  -0.0208326  -0.0293056  -0.0409692
-0.00440637   -0.106617  0.00369998   0.0869246    0.043089   0.0770565   0.0365682    0.036219   0.0372015
 -0.0694552   0.0400497  -0.0138699   0.0119849   0.0272321   0.0645447    0.025695  -0.0998207  -0.0118845
-0.00727119   -0.107268   0.0793856   0.0398482  -0.0949371   0.0113169   0.0184223  -0.0305277   0.0801274
  0.0575685   0.0806361 -0.00566327  -0.0421853 -0.00159906 -0.00708726   0.0586976   0.0337771  0.00266627
 -0.0874045  0.00269626   0.0794695  -0.0334053   0.0140947  0.00230153   0.0225186   0.0372949   0.0126859
 -0.0246893   0.0139291  0.00875402  -0.0412327  -0.0235816  -0.0275589 -0.00245573    0.113614   0.0865912
#
 0.00263319   0.0466271   0.0244003    0.079292  -0.0792261   -0.157812  -0.0709718  -0.0490668   0.0421797   -0.025845
 -0.0229238   -0.089047  -0.0224297    0.022732   0.0296972    0.106725 0.000966036  -0.0615126   0.0204365  0.00576051
  0.0955123   0.0290941   0.0658074  -0.0376856   0.0240269  -0.0216483   0.0150224   0.0983351   0.0696241  -0.0347177
  -0.046802   0.0221797  -0.0731545  -0.0726278   0.0251645   0.0131123   0.0158985  0.00219827  -0.0665718   0.0777184
 -0.0332654   0.0226111    0.105431  -0.0194785   0.0549681   0.0303264  -0.0219191   0.0787801  -0.0454498   0.0844096
 -0.0497653   0.0734407  -0.0188925   0.0200983 -0.00200235  -0.0116219   0.0163143  0.00940949   0.0993875  0.00489918
  0.0351975  -0.0255634  0.00742613    0.100553  -0.0302981 -0.00422712    0.033729 -0.00830778  -0.0477139   0.0545661
-0.00424664  -0.0389548  -0.0209604   0.0138241   0.0325901  0.00129277   0.0744533   0.0328527   0.0338593  -0.0122394
  0.0275638  -0.0274145   0.0341375  -0.0105221  -0.0160279  -0.0478268  -0.0571701    0.021096  -0.0441027 -0.00772063
 -0.0141643  -0.0403667  -0.0121349   0.0120357   -0.102983   0.0272528   0.0333722   0.0409296  0.00608026 -0.00110817
#
 -0.0253378  -0.0880896   0.0708715  -0.0588632   0.0726493  -0.0259845     0.01013   0.0200099   -0.112757 -0.00741059
  0.0387071    0.034154   0.0364985  -0.0228989   0.0183541   -0.060321   -0.032303  0.00904575  -0.0117634   0.0197861
0.000556487   0.0510964  -0.0611255   0.0451306   0.0999904   0.0483193   -0.109974   0.0175633  -0.0365851   0.0832789
 -0.0431151   0.0631552  -0.0322038  0.00306364   0.0658471   0.0394218  -0.0296847  0.00996004  -0.0488285  -0.0728282
  0.0222878 -0.00344766  -0.0175269   -0.022555  -0.0240592  -0.0551949    0.019813   0.0579117  -0.0115173   0.0776586
  -0.055011   0.0361306  -0.0206028   0.0489894    0.029433  -0.0911411   0.0342795   0.0130541   0.0383658  -0.0108424
 -0.0143381     0.12524   0.0804561  0.00660055  0.00171948  -0.0757134   0.0115906   0.0373098  0.00984014  -0.0919138
  0.0044343    -0.10055   0.0637806   0.0353022 -0.00714203  -0.0183743    0.034826  -0.0604248    0.024081   0.0224104
  0.0816641   0.0570653   0.0313965  0.00210345   0.0479337  0.00623557    0.100584   -0.045649  -0.0345596  -0.0116726
 -0.0126538  -0.0190001   0.0284358    0.112169  -0.0103501  -0.0645264  -0.0079196  -0.0610837  -0.0489839   0.0207864
#
0.00490939  0.0591531 -0.0521147  0.0950415 -0.0493023  0.0540955   0.045776 -0.0222109    -0.1334 -0.0228779
-0.0721639  0.0456573 -0.0364279   0.018999 -0.0231986 0.00129621 -0.0294033  0.0784668  0.0311616 -0.0657083
-0.0305749 -0.0521617 -0.0637235  0.0508384 -0.0420747  0.0253555 0.00335359   0.026011  0.0725622 0.00316034
#
!
<97>:2
  -0.0481348    0.0013445   -0.0701406   0.00454058    0.0379209  0.000275803    -0.043568    -0.136005   0.00530383
   0.0644292  -0.00429387   -0.0121153   -0.0561079   -0.0364488   -0.0239671  0.000550065   -0.0830717   -0.0535384
   0.0816085    -0.103783  -0.00626566    0.0633463   -0.0164097   -0.0251108   -0.0544161   -0.0901718   -0.0143191
   0.0432481    0.0818847    -0.058641    0.0109642    0.0284976    0.0652487   0.00632891     0.110442    0.0318425
  -0.0146546    -0.099147   -0.0603472  0.000299267   -0.0038331   -0.0553478    -0.067092    0.0180518     0.031022
  -0.0630011   -0.0176944    -0.033906    0.0492295   -0.0123963   -0.0418512    0.0480236    0.0941713    -0.035027
 -0.00484139    0.0544057   -0.0343595   -0.0149814   -0.0712439    0.0373767   -0.0718578   -0.0283553   -0.0258209
  -0.0489165   -0.0284187    -0.101963   -0.0770824   -0.0372313     0.014729    0.0731822   -0.0195407    0.0251126
   0.0100817    0.0656386   0.00141517     0.033154    0.0227157   -0.0478508    0.0832179  -0.00216996    0.0679588
 -0.00797117   -0.0208156    0.0646726    0.0693824 -0.000932528    0.0432601    0.0414776   -0.0103028   -0.0393209
#
  0.0293557   0.0142625  -0.0056267  0.00597445    0.087344   0.0241011   0.0239672   0.0542109   0.0422605   -0.071602
-0.00260132  -0.0929531   0.0162037  -0.0647386 -0.00843539  -0.0865316   0.0483949  -0.0145339   0.0833302   0.0177075
  0.0412916   0.0190808   0.0612562 0.000825466   0.0480322  -0.0260581   0.0537735   0.0227698  0.00911361  -0.0178423
 0.00749731  -0.0332616  -0.0320207   0.0293615  -0.0762523   0.0594682  -0.0867762    0.050051 -0.00731591  0.00800248
  -0.127099    0.021597 -0.00917519  -0.0683912  0.00342325  -0.0379032   0.0329948  -0.0108862  -0.0833582  -0.0217204
  0.0466353 -0.00450214    0.031332   0.0679282  -0.0302018   -0.039347  -0.0209506  -0.0202165   -0.042665  -0.0233199
 -0.0703062  -0.0426908  0.00850993    0.059204  0.00513717   0.0364078   0.0376621   0.0119031  -0.0136222  -0.0763105
  0.0829996   0.0164883   0.0271884  -0.0255528  -0.0096491  0.00408826  -0.0150507  0.00641114   0.0117605  -0.0735704
  0.0172618  -0.0352612   0.0104694   0.0787866 -0.00277746   -0.049886 -0.00666956  -0.0203913  -0.0415225   0.0315171
  0.0138835  -0.0331366  -0.0407213  -0.0183904  -0.0480727    0.025295   0.0265288  -0.0361819   0.0414049   0.0651683
#
 -0.00420049    0.0417123   -0.0774589    -0.151295    0.0923384    0.0445072    0.0517134   -0.0472937    0.0201738    0.0470006
   0.0441885   -0.0264585    0.0577866    0.0382906    0.0044189     0.117492   -0.0650443   -0.0303969   0.00799892  -0.00531735
   0.0431724    0.0603249   -0.0585779    -0.100837   -0.0232118    -0.031323    0.0212247    0.0307457   -0.0920697   -0.0524384
   0.0233784    0.0423557   -0.0192461     0.074277   0.00840531   -0.0165709   -0.0391478   -0.0969337   8.1351e-05   -0.0177597
   0.0280617    -0.106973    0.0112862    0.0200274    0.0356431   -0.0706979   -0.0519939   -0.0192736    0.0326852  -0.00324606
  -0.0755966    0.0914946    0.0287659    0.0573026   -0.0143976   -0.0264192    0.0117593   -0.0390021    0.0093225    0.0628198
  0.00573392    0.0335544   -0.0353208    0.0266374   -0.0124788   -0.0761611  -0.00339326   -0.0293193    0.0541629   0.00866898
  -0.0297568    -0.102212   -0.0441663     0.143859    0.0565517   -0.0317055    0.0783244    0.0239617   -0.0960159   -0.0223396
  -0.0728946    0.0645696    0.0237434   -0.0407628   -0.0355479    0.0345463    0.0397584    0.0629091    0.0791874    0.0889147
   0.0415136    0.0112939 -0.000932639  -0.00136394    0.0126036    0.0248691   -0.0365456   -0.0740882   -0.0210035    0.0365827
#
-0.00844739   0.0217072    0.033028  -0.0484434   0.0551195   0.0563198  -0.0690571    0.087983  -0.0208996   0.0415742
  0.0824008   0.0166171  -0.0570973  -0.0274898  -0.0473691   0.0234199   -0.152526   -0.036861  -0.0601351   0.0112829
  0.0939279 -0.00906085  -0.0114332  -0.0695729   0.0157001  -0.0839504   0.0111059   0.0334386 -0.00161718  -0.0214922
#
!
<98>:2
  -0.0760702    -0.015436   -0.0416632   0.00885219   -0.0630993    0.0305234  -0.00723881    0.0237457    0.0513841
  -0.0472736    0.0687985    0.0229018   -0.0263065   -0.0321121    0.0255569   -0.0288125    0.0898397   -0.0019265
   0.0728761    0.0360093   -0.0850292    0.0303503    0.0224402   -0.0234026    0.0221481    0.0310689   -0.0200031
  -0.0618691     0.068695 -0.000577391   -0.0121504    0.0253898    0.0337178  -0.00780724      0.03902   0.00261546
   0.0267378  -0.00466082   -0.0209662    -0.002027    -0.014938   -0.0337969    0.0286238   -0.0292288   -0.0237408
   0.0474672   -0.0500779    0.0592708    0.0844395   -0.0384817    0.0431727   -0.0370463   -0.0629607    -0.038636
   0.0222054  -0.00378518  -0.00267541   -0.0373013    0.0278941   -0.0235665    0.0113058    0.0708826    0.0217783
  -0.0294932    0.0392158   -0.0174919   -0.0694419   -0.0418463    0.0195101    0.0524073  -0.00872345   -0.0916581
   0.0848048     0.025632   -0.0535863   -0.0722469   -0.0132431    0.0306724      0.09848   -0.0165167    0.0927273
   0.0221786   0.00498302   -0.0613459   -0.0302169  -0.00233392   -0.0368335   -0.0163973    0.0612464   -0.0867244
#
  0.0613805   0.0454065   0.0039407   0.0138358   0.0298052 -0.00899053   0.0607393   0.0213457  -0.0652506  -0.0274786
-0.00922351   0.0235279  -0.0197438  -0.0580251 -0.00170615  -0.0265708  -0.0951307     0.09508   0.0242138   0.0319318
  -0.079011   0.0506108 0.000936888  -0.0526046   0.0284907   0.0277395  0.00453065    0.126634 -0.00298202  -0.0173295
  0.0399744  -0.0433245  -0.0353629 -0.00677128  -0.0271164   0.0014391  0.00123973   0.0681175 -0.00773626  -0.0728017
  0.0644115   -0.118388   0.0234025  -0.0107596  -0.0581732   0.0149554 -0.00228655   0.0264758   0.0397893  -0.0811474
 -0.0924185   0.0511791   0.0226083  -0.0555119   0.0711813  -0.0245854   0.0645028    0.028135  -0.0336296  -0.0500386
   0.048723    0.014247 -0.00326668   0.0209423  -0.0213655  -0.0383444  0.00663266   0.0196425  -0.0252722  -0.0466188
-0.00598852  -0.0817443 -0.00457932   0.0843243   0.0215701   0.0344986    0.052877  -0.0244394   0.0167231   0.0136165
  0.0309072   0.0279389  0.00217593   0.0534546  -0.0348481 -0.00992799  -0.0133824   0.0550526  -0.0222349 -0.00585067
  0.0113412  -0.0535389   0.0541054   0.0473979  -0.0086188  0.00225026  -0.0857795  -0.0128807  -0.0108324   0.0447825
#
  -0.0279643   0.00866403   -0.0741589   -0.0662072    0.0581462   -0.0569403  -0.00261866    0.0390642   0.00510644   -0.0252923
   0.0640008   -0.0213822     0.026027     0.011438   -0.0453657   -0.0970899   -0.0318323    0.0137564   -0.0300206   -0.0126002
  -0.0475508    0.0073369    0.0769873   -0.0242032   0.00941899   -0.0100037   -0.0278187 -6.98888e-05   -0.0756751    0.0170597
    0.108317   -0.0499059   -0.0354693    -0.090146    0.0196603    0.0193499   0.00707973  -0.00696768  -0.00293978   -0.0707846
   0.0437649   -0.0270401    0.0142961    0.0272912   -0.0158075  0.000116675   0.00973046    0.0621885    0.0419489    0.0443587
  -0.0135239  -0.00213268   -0.0644281   -0.0578675    0.0729146   -0.0296947    0.0915595   -0.0182649   -0.0737255     0.069748
   0.0738711   -0.0149023   -0.0677502    0.0362276   0.00725766     0.010416  -0.00734637    0.0147159   -0.0470008   -0.0370201
 -0.00387501    0.0422904    0.0732076    0.0469819   -0.0268912     0.121262   0.00697927   -0.0596343   0.00164265   -0.0606087
   0.0184495   -0.0118571   -0.0195469   -0.0100359    0.0247072   -0.0396599    0.0388094    0.0318688    0.0110276   -0.0214466
  -0.0300669   -0.0557219     0.029467    0.0069002   0.00832656    0.0284296    -0.111722   -0.0742579    0.0945703    0.0471183
#
   -0.026487     0.044092   0.00912245    -0.102025    0.0249961    0.0306599    0.0726012    0.0139553   -0.0280323    0.0265316
  -0.0822147  -0.00810734    0.0442103   -0.0499865   -0.0746975   -0.0307505   -0.0456157   -0.0884231   -0.0475763    0.0655488
  -0.0776832    0.0445621   -0.0650302   -0.0802054   -0.0510605     0.100571    0.0658864   0.00393975 -0.000768665     0.125602
#
!
<88>:1
 -0.0396164 -0.00336291    0.026675 -0.00683072  -0.0454157  -0.0493158  0.00944854  -0.0485134   -0.026739
 -0.0693081  0.00952017   0.0702608   0.0302404   0.0466911 -0.00521934  -0.0110166   0.0398314   0.0254757
 -0.0422677 -0.00811149  -0.0983048  -0.0581721  -0.0202676  -0.0575806   0.0108086  -0.0140599    0.015265
   0.040194    0.082227  0.00291267   0.0499544 -0.00984443   0.0637873  -0.0646923  0.00339413   0.0353619
 0.00681761  -0.0933536  -0.0611968  -0.0229177 -0.00715906    0.020464  -0.0350338    0.072495  -0.0230509
  0.0449401  -0.0716776   -0.117506  -0.0526177    0.025695  -0.0501322   0.0252917   0.0514651   -0.100364
  0.0780506   -0.060368  -0.0248414  -0.0107883   0.0234721  -0.0500001  0.00823363  -0.0033462  -0.0136179
 -0.0501315   0.0606558    0.055271   0.0660287 -0.00974975  -0.0851796   0.0317635  -0.0813898   0.0395309
 -0.0478305   0.0238051   0.0560687  0.00549636   0.0982059   -0.013263 -0.00738798 -0.00782797   0.0438224
 -0.0247683   0.0948777  -0.0342565   0.0381923  0.00191822  -0.0520369   0.0567864  -0.0675136   0.0146676
#
  0.0791021   -0.182885  -0.0558082   0.0299773   0.0164937  -0.0207869  -0.0149141  -0.0634763   0.0106185  0.00793653
 -0.0380499   0.0122554   0.0215909   0.0914375    0.102504   0.0527671   0.0503958  -0.0182308  -0.0622155  -0.0311481
   0.122522  -0.0290781  -0.0106049  -0.0356958 -0.00366343   0.0409021 -0.00465809  -0.0386478   0.0580036   0.0155285
  0.0288737  -0.0280615   0.0174794   0.0281635  -0.0312991  -0.0129783   -0.033545   0.0349592   0.0504995   -0.035913
 -0.0635867   0.0688445  -0.0642982   0.0165405  -0.0301294   0.0189423  -0.0413566  -0.0338319  -0.0319709  -0.0293124
 -0.0466916   0.0953695 -0.00603521  -0.0260521    0.065131   0.0191063  -0.0480308    0.012502    0.146045  -0.0179485
  0.0456105   0.0609005  0.00776988   -0.016355  -0.0198399   0.0171001   0.0756557   0.0775922   0.0922429 0.000805439
  0.0315027  0.00335094  0.00739605   0.0787387  0.00391183   0.0233133  -0.0301815   0.0646229  0.00799154  -0.0519168
  0.0162629  -0.0798529   0.0693712   0.0295935  -0.0192831   0.0455504   0.0963005  0.00479878   0.0195053   0.0807113
-0.00936063  -0.0139174  -0.0470016  -0.0215586  -0.0303112    0.091883  -0.0505931    0.144744   0.0118843  -0.0204875
#
  0.0496624  0.00535914  -0.0557956   0.0322878    -0.11937   -0.123472  -0.0503761   0.0451635   0.0262342   0.0657936
 0.00233225  -0.0473961  -0.0392226   0.0233274  -0.0245896  -0.0797121   -0.119591   0.0289939  -0.0467705   0.0895689
   0.134699 -0.00462889  -0.0371408  -0.0473486 -0.00031212   -0.049793   0.0450379 -0.00323874  -0.0793226    0.026976
  0.0939789    0.102651  -0.0297579  0.00287227 -0.00489536  -0.0258032  -0.0900897   -0.111096   0.0647216 -0.00393269
-0.00113797  0.00459641   0.0229811   0.0288081   0.0116198  -0.0699628   0.0927576  -0.0561427   0.0366732   0.0304288
  0.0722396   0.0408578  -0.0277264  -0.0286329  -0.0477929  0.00853968  -0.0260527   -0.075053 -0.00158693   0.0157373
  0.0942981   -0.063951  0.00430841   -0.068054   0.0492676   0.0999276   0.0187841   -0.024207  -0.0205237  -0.0875763
 0.00444321  -0.0168852   0.0288672  -0.0338278   0.0786217   0.0719397  -0.0355676  -0.0146208   0.0732866  -0.0221014
  0.0335654  -0.0285873  -0.0660342  -0.0365833   0.0129302  -0.0160959   -0.068655  -0.0580657  -0.0953646  -0.0475737
  0.0293494   -0.025781  -0.0959331   0.0223839   -0.137565   0.0956672   0.0547124   -0.076817  0.00225004   0.0448785
#
  0.0302977   0.0314269   -0.072016  -0.0233284  -0.0211823  -0.0131265  -0.0659835   0.0791313  -0.0123998    0.030318
 -0.0734839  -0.0574193  -0.0116935   0.0874209   0.0404112   0.0047471   0.0200238   0.0254736   -0.124648  -0.0226783
 -0.0162056    0.024987   0.0453716   0.0237745  -0.0519234 -0.00585759   0.0133417  -0.0165765   -0.150295   0.0342368
#
!
<75>:1
  -0.0720717   0.00296861  -0.00325078   0.00756359  -0.00378433   -0.0141067    0.0806351   -0.0054969  -0.00572012
   0.0113153     0.127451    0.0279851    0.0749447   -0.0607203   -0.0402935    0.0601935   -0.0810836    0.0632106
  -0.0451569   -0.0573658   -0.0197492    0.0301964  -0.00315616    0.0323485     0.107378   -0.0495032   0.00809951
 -0.00554643    0.0477757     0.016279    0.0535171    0.0356654   -0.0602814    0.0764756  -0.00562358    0.0532502
 -0.00924045   -0.0189101    0.0363655   0.00190064    0.0074626   -0.0622418  -0.00170898   -0.0468866   -0.0680895
  -0.0374694    -0.038333    0.0435409    0.0461466    0.0981718    0.0614611    0.0126764   -0.0613009    0.0282999
  -0.0617734 -0.000678471   -0.0204616   -0.0820394   -0.0567491    0.0148088   -0.0142371   -0.0170837   -0.0574724
  0.00892298   0.00702171    0.0142486    0.0188823   0.00494581     0.021619   -0.0309751   -0.0165012     0.038425
   0.0140459     0.103839  -0.00717591   -0.0416881    0.0337623   0.00484074    -0.033394     0.055034   -0.0589786
   0.0187626   -0.0587738   -0.0288298    0.0904326   -0.0275338   -0.0278987    0.0989204  -0.00152261   -0.0520545
#
  0.0365769   0.0156074  -0.0658383   0.0178192  -0.0150271  -0.0247288  0.00787126   0.0104337  -0.0752157   0.0136628
  0.0470082    0.119627  0.00169675   0.0632188  -0.0230257   0.0163753  -0.0555782   0.0169922  -0.0128985  0.00352096
 0.00356222   0.0255391  -0.0163429    0.027364  -0.0511713  -0.0576793  -0.0238072   0.0386696   0.0844057   -0.025376
  0.0616106   0.0148985    0.025954   0.0606798   0.0165129   0.0344323    0.036596  0.00157876    0.048443  -0.0420283
  0.0304514   0.0369917   0.0329325   0.0605336   0.0668392   -0.042192   0.0166042  -0.0632792  -0.0342496    0.015475
-0.00724098  -0.0236295   0.0398212 -0.00473115  0.00324277  -0.0706093   -0.019341   0.0346396   0.0546609  0.00748422
 -0.0034211  -0.0338074 -0.00901814 -0.00238003  -0.0116739  -0.0231054   0.0021533  -0.0768973 -0.00430101   0.0253633
 -0.0162321   0.0353731  -0.0114384  0.00851057  0.00234566   0.0534233  -0.0144878   0.0186958  -0.0681367  -0.0898872
  0.0518615  -0.0278697   0.0225258   0.0712506    0.123084   0.0751611  -0.0399117  -0.0315953   0.0477187 -0.00292234
 -0.0752352   0.0660172   0.0122443  -0.0168322   0.0971973   -0.015898   0.0722838  -0.0253065   -0.070029   0.0103303
#
 -0.0125098   0.0256362    0.127696  -0.0176407    0.033248  -0.0406694   0.0147461   0.0450423   0.0281137  -0.0377693
 0.00775595  -0.0228971  0.00789674   0.0323344   0.0646834   0.0793912   0.0548734  -0.0122593  -0.0610964   0.0138304
  0.0366303   0.0409757   0.0183529   0.0907612   0.0471422   0.0315931  -0.0786343  -0.0191385    0.074128   0.0495569
  0.0194522  -0.0620056  -0.0886789  -0.0280752  -0.0499287   0.0326237   0.0945924  -0.0615844   0.0228489 -0.00205095
   0.021854   0.0481806  -0.0345697 0.000629479   -0.011242  -0.0228771  -0.0244636  -0.0421089    0.034461   0.0297169
  -0.028781  -0.0751737   0.0705269 -0.00242396  -0.0274434  -0.0294123   0.0572128   0.0095913  0.00708847   0.0407739
-0.00915138   0.0032903   0.0742199  -0.0597335  -0.0212014   0.0411994    0.035464   0.0427698  -0.0268613  -0.0135425
  0.0409357  0.00694089  -0.0487252   0.0125585  -0.0418118  -0.0541069 -0.00662285  -0.0905003   0.0937733   0.0258169
  0.0389572  -0.0129433   0.0642194  -0.0926761   0.0430204  -0.0451021   0.0235647   0.0395211   0.0666532   0.0112744
  -0.063421   0.0497773   0.0123941  0.00535538   0.0584959   0.0344397   -0.036717   0.0238531  -0.0721512  -0.0086049
#
  0.112609  0.0490288  -0.024869  0.0566508 0.00202109  0.0306511 0.00279395  0.0209668  0.0229225  0.0418222
0.00738015 -0.0392414  0.0662207  0.0829609    0.10907 -0.0408872  0.0280911 -0.0477708 -0.0180567 -0.0602469
 0.0767395 -0.0881565 -0.0591504  0.0473846  0.0160427  0.0154729 -0.0887541  0.0619764 0.00570015 0.00841695
#
!
