<0>:25
   0.0350902  -0.00540063  -0.00776028   -0.0102682    0.0798596    -0.072147   -0.0242485   -0.0231071    0.0344423
  0.00960657     0.013029    0.0328477   0.00161953    -0.025924   0.00608381  -0.00189474    0.0284686 -0.000654886
  -0.0807295   -0.0305073   -0.0334626    0.0120129  -0.00367411    0.0116088   0.00854494    0.0257134   -0.0344427
  -0.0139312   -0.0327888  -0.00986641    -0.013533   -0.0423023   -0.0220895   0.00817514    0.0296095   0.00734342
  -0.0658609  -0.00363042    0.0449468    0.0303883    0.0267848   -0.0130834   -0.0235925    0.0413436    0.0433023
  -0.0144609    0.0215328     0.034768   -0.0258261   -0.0346781    0.0462073   -0.0427737  -0.00227147     0.017154
   0.0483388    0.0146259     0.041217   -0.0222193    0.0439881    0.0463183  -0.00823386   0.00954736    0.0476344
 -0.00182328   -0.0444141   -0.0131879   -0.0313024    0.0762014    0.0429044     0.038503   -0.0512885    0.0373847
  -0.0048416   -0.0335975   -0.0242815  -0.00907693    0.0531237   -0.0111938    0.0417943   -0.0153589    -0.026465
   0.0644997    0.0417255   -0.0256242   -0.0442696    0.0278397   0.00139424   -0.0173612   -0.0204633    0.0169551
#
 0.00847122  -0.0164252  0.00231149 -0.00935002   0.0436943 -0.00580347  0.00688949  -0.0154283  0.00233101    0.029786
  0.0691034  0.00380725   0.0154677   0.0128395  -0.0464662 -0.00144611 -0.00582087   -0.051434  -0.0194687  -0.0101705
-0.00548178   0.0689998 -0.00904847   0.0296459 -0.00549904   0.0468913  -0.0197169  -0.0263812   0.0337252  0.00654036
 -0.0183535   0.0255616  0.00268366  -0.0367183 -0.00116512  -0.0040154 -0.00406618 0.000881727    0.022077 -0.00448269
-0.00738941   0.0135145  -0.0197773  0.00400215   0.0456665   0.0752496   0.0304741  -0.0212009 -0.00752657  -0.0422195
 -0.0743339 -0.00109485 -0.00748688   0.0147045   0.0465357  -0.0289345  -0.0280029  -0.0670328   0.0586231 -0.00691157
 -0.0277609   0.0135957   0.0322547  -0.0652492  -0.0118536  0.00648944   0.0363348  -0.0436747 -0.00197478   0.0355358
 -0.0236657   0.0265422   0.0355085   -0.031108  -0.0354556  0.00429693  -0.0164819 -0.00743253   0.0667167   0.0131014
-0.00337037  0.00843808   -0.019452   0.0452872 -0.00494189  -0.0234075   0.0123752  -0.0173836   0.0489075 -0.00667595
 0.00652395  -0.0889633  -0.0195636  0.00992936  -0.0112866   0.0043018   0.0395411    0.033714   0.0322888  -0.0678284
#
   0.0340877    0.0232435  -0.00503111   -0.0185579     0.077833  -0.00512458    0.0321152   -0.0125788  -0.00356864    0.0339944
  -0.0684041   -0.0101816    0.0671465    0.0036354      0.02332   -0.0439133  -0.00480861    0.0161378    0.0471605   -0.0362456
  -0.0249818   -0.0690308   -0.0726177   -0.0355333    0.0333298   -0.0165006   -0.0304236   -0.0276291    0.0193966    0.0390667
   -0.031147   -0.0117537    0.0565185   -0.0335841    0.0239848     0.029755    0.0195119   -0.0682349    0.0171378   -0.0202135
  -0.0179514    0.0223213   0.00218363   -0.0290007    0.0264123    0.0335957    0.0140557    0.0276134  0.000577861   -0.0528807
 -0.00352647    0.0188949   0.00903389   -0.0107709  -0.00851438   -0.0484918     0.019142    -0.030409   -0.0466404   0.00108082
   0.0210521   -0.0629203    0.0187216   0.00228229   -0.0119597   -0.0027937  -0.00564854  -0.00628799   -0.0240021    0.0338464
  -0.0219009   -0.0150338    -0.085485   -0.0550463   -0.0535141    0.0251011    0.0229942  -0.00564348   -0.0867076  -0.00381535
  -0.0157318    0.0333659   0.00893585   -0.0380491   -0.0229777   -0.0480413    0.0607333   -0.0130219    0.0418259    0.0155669
   0.0152132   -0.0256348 -0.000118709   0.00481936    -0.022851    0.0515848   -0.0348891  -0.00947163    0.0440726    0.0209488
#
  0.0202156  -0.0220047  0.00195458  -0.0266859  -0.0012625 -0.00344748  -0.0312063  -0.0202089   0.0372624  -0.0669073
 0.00724489   0.0224563  0.00144549   0.0625687   0.0229965  -0.0617931  -0.0389111   -0.024468  0.00954608   0.0766844
-0.00483581    0.069854   0.0604234   0.0200244 -0.00486435  -0.0582464  -0.0247162  -0.0418494   0.0389756  -0.0464362
#
!
<74>:25
    0.032612  -0.00354284  -0.00281106   -0.0346113    0.0768043   -0.0733518   -0.0368244   -0.0373906    0.0205078
  0.00853676    0.0201926     0.039523  -0.00128388   -0.0366963 -0.000806208  -0.00627943    0.0279887   -0.0108063
  -0.0787724   -0.0155573   -0.0491825    0.0417136   -0.0169285  0.000116637   -0.0188918    0.0428238   -0.0262057
  -0.0182366    -0.031117   -0.0228927  -0.00628677   -0.0425827   -0.0114329    0.0247862    0.0289585  -0.00307152
  -0.0601111   -0.0304363    0.0467569    0.0192003    0.0191293    -0.010797    -0.024366    0.0370972     0.021194
 -0.00326014    0.0066715    0.0482477   -0.0319914   -0.0254378    0.0431729   -0.0294828    0.0130024     0.024134
   0.0575529    0.0156283    0.0266211   -0.0127837    0.0573699    0.0593173    0.0253202   0.00213059    0.0445423
  -0.0112795    -0.046697   -0.0309977   -0.0477974    0.0752501    0.0339275    0.0200531   -0.0521399    0.0378621
-6.71784e-05    -0.028157   -0.0406957   -0.0306022    0.0612376   -0.0128405    0.0479411   -0.0188948    -0.029709
   0.0544869    0.0433144   -0.0268887    -0.040906     0.041149    0.0191315   -0.0126712   -0.0258451    0.0235249
#
   0.0146054   -0.0153637    0.0128414   -0.0206339    0.0413916   0.00716291    0.0208583   -0.0109053   0.00121767    0.0206042
   0.0588682    0.0060678    0.0141442   0.00636147   -0.0480226   0.00344888  -0.00291349   -0.0373802   -0.0184821   -0.0303842
  -0.0101277    0.0618549  -0.00806934     0.041447  -0.00609635    0.0455222  -0.00610378   -0.0197998    0.0199138 -0.000244485
  -0.0287816    0.0089067   0.00892866    -0.038951   -0.0121828   -0.0175221  -0.00950752   -0.0192093    0.0204085   -0.0245228
  -0.0163659    0.0176835   0.00303499   0.00980978    0.0420654    0.0635485    0.0452119  -0.00823285    -0.010569   -0.0416959
  -0.0792022    0.0170326   -0.0179737    0.0139131    0.0388125   -0.0279353   -0.0214449    -0.062397    0.0528716   -0.0120941
  -0.0123141    0.0133798    0.0166355   -0.0721295   0.00583027   0.00503738    0.0385554   -0.0577098  0.000642237    0.0330407
  -0.0158661    0.0176204    0.0324987   -0.0377783 -0.000170372    -0.015524   -0.0186581   -0.0100048     0.079379    0.0118367
 -0.00125956    0.0121478   -0.0177844    0.0508744  -0.00197773   -0.0308013    0.0245605   -0.0348222    0.0534661   0.00584723
   0.0135564   -0.0868222   -0.0326125    0.0215391  0.000331399  -0.00253887    0.0216802    0.0323014    0.0445887   -0.0748065
#
   0.0479199    0.0174274   -0.0131659   -0.0232569    0.0793372  -0.00227845     0.021326  -0.00607473   0.00342561    0.0212508
  -0.0787056  -0.00862421    0.0445395   0.00832091    0.0115446   -0.0461011   0.00893208 -0.000885903    0.0540302   -0.0426351
  -0.0301215   -0.0686637   -0.0801844   -0.0193388    0.0423953   -0.0216595   -0.0251572   -0.0323218    0.0360639    0.0338884
  -0.0586424    0.0205231    0.0716978   -0.0196904      0.02823    0.0371302    0.0251155   -0.0680616 -0.000918444 -0.000327907
  -0.0241047    0.0202341  -0.00626766   -0.0258525    0.0254654    0.0362223    0.0132099    0.0440262    0.0021339   -0.0526902
   0.0109055     0.005585   0.00106962   0.00503692   -0.0159534   -0.0606994     0.024758   -0.0114609   -0.0698936   -0.0153631
   0.0254947   -0.0583109    0.0173794    0.0092568  -0.00596828  -0.00556621   0.00890549    0.0207236   -0.0328715    0.0322263
 -0.00829131   -0.0113669    -0.093913   -0.0634046    -0.042364    0.0294811   0.00615397    0.0063644   -0.0505425   -0.0146407
  -0.0151837    0.0330014 -0.000432696   -0.0312362   -0.0297676   -0.0531721    0.0598666  -0.00853542    0.0398346    0.0108292
    0.015301   -0.0182532     0.007122    0.0144236   -0.0193453    0.0491642   -0.0319552    -0.013326     0.038191     0.038327
#
  0.0191443  0.00332033 -0.00564713  -0.0113245 -0.00965416 -0.00804364  -0.0369435  -0.0267825   0.0307661  -0.0484315
-0.00758731   0.0393808  0.00297873   0.0723398   0.0471218  -0.0473593  -0.0109258  -0.0163268    0.010361   0.0727604
-0.00262397   0.0750254   0.0587168   0.0337082  0.00171807  -0.0536036  -0.0165037   -0.036538   0.0405037  -0.0412064
#
!
<10>:24
   0.0368542   -0.0122615   -0.0116065   -0.0366579    0.0900816   -0.0559096   -0.0193827   -0.0172964    0.0344375
   0.0158665   0.00333305    0.0231356    -0.005636   -0.0389081    0.0146816  -0.00392318    0.0317312   0.00227839
   -0.059693   -0.0211797   -0.0332849    0.0152305   -0.0147503    0.0130734   0.00729757     0.050501   -0.0166868
  -0.0124529   -0.0220773    0.0044408   -0.0138619   -0.0411004   0.00897547    0.0166939    0.0245602  -0.00377596
  -0.0554421   -0.0182996    0.0404911     0.021987    0.0120008   -0.0153732   -0.0229971    0.0470973    0.0346236
-0.000905653    0.0141184    0.0379634    -0.015925   -0.0230979    0.0481215   -0.0188348    0.0100245    0.0490039
   0.0510374    0.0287932    0.0306995   -0.0414919    0.0530926    0.0518397   -0.0194035    0.0135627    0.0395622
   0.0020217   -0.0255073     -0.01629   -0.0126619     0.056806    0.0298201    0.0393564    -0.054573    0.0283859
  -0.0176883   -0.0378347   -0.0443468  -0.00527001     0.055653  -0.00400304    0.0545398   -0.0183695   -0.0281551
   0.0574479    0.0346522   -0.0305375   -0.0268364    0.0260301   0.00626802   0.00106816   -0.0164524     0.032483
#
   0.0125249  -0.00928621  -0.00761192  -0.00608965    0.0383681    0.0158063    0.0125074   -0.0252783  1.58693e-05    0.0310611
   0.0294574   0.00676915     0.015664  0.000725191   -0.0439489    0.0173233   -0.0155675   -0.0597833   0.00364976  -0.00152415
 -0.00536492    0.0632655   -0.0175803    0.0412722   0.00195127    0.0685192   -0.0154407   -0.0349394    0.0397922   -0.0069694
  -0.0374665      0.01303   -0.0120942   -0.0426249  -0.00707757   -0.0147732   -0.0216045   0.00486793    0.0130179   -0.0112638
  -0.0116805   0.00190727   -0.0095833  -0.00889384    0.0396593    0.0651795    0.0339439   -0.0197102   -0.0213664   -0.0446813
  -0.0683523    0.0139339  -0.00354677   0.00144637    0.0516945   -0.0271315   -0.0138445   -0.0816981    0.0611376    -0.028439
  -0.0423409     0.003329    0.0124897   -0.0862523   -0.0157802  -0.00249496    0.0364925   -0.0256528  -0.00142302    0.0224833
  -0.0283803    0.0166138    0.0542629    -0.037142   -0.0354582   0.00903711  -0.00663018  -0.00284035    0.0640118   0.00165268
   0.0101471   0.00741927   -0.0302517    0.0465953   -0.0196594    -0.013288    0.0146923    -0.019462     0.063775  0.000634298
  0.00947636   -0.0920909   -0.0300122    0.0312206 -0.000252224   -0.0176502    0.0321444    0.0282897    0.0176475   -0.0702228
#
  0.0577022  0.00999075  -0.0018044  -0.0177953   0.0607121 -0.00507113   0.0237469  -0.0132274  0.00281345   0.0288363
 -0.0617335  -0.0401427   0.0698847  0.00172241   0.0271988  -0.0225952 -0.00806432   0.0101598   0.0447704  -0.0215986
  -0.018338  -0.0651838   -0.069275  -0.0178496    0.023477   -0.033885  -0.0305706  -0.0207295   0.0260182   0.0339132
 -0.0435635   0.0130395   0.0692514 -0.00810078   0.0283137   0.0353808   0.0392946  -0.0800382  0.00484002  0.00193831
 -0.0035542   0.0142448  -0.0188323  -0.0218658    0.013235   0.0403635   0.0156791   0.0171058  -0.0052305   -0.044717
-0.00148461  0.00853413   0.0146817 -0.00505744  -0.0181008  -0.0430228   0.0316884  -0.0355042  -0.0585785  -0.0164255
-0.00642544  -0.0508276   0.0246567 -0.00250105 -0.00443231 -0.00955211  0.00916912  -0.0035166 -0.00518415   0.0404583
 -0.0272629  -0.0207109  -0.0928261  -0.0554607  -0.0490334   0.0163436    0.014039  0.00338801  -0.0709157 -0.00824917
  -0.018392   0.0474276 -0.00301855  -0.0240642  -0.0261806  -0.0446159   0.0462335 -0.00635374   0.0347644  0.00549353
  0.0188444  -0.0056136   0.0133731   0.0186352 -0.00951338   0.0384961  -0.0237881  -0.0169767   0.0321809   0.0247454
#
   0.0236292  -0.00586474   -0.0183331    -0.014371     0.012785 -0.000629975   -0.0250291   -0.0129584    0.0380234   -0.0331736
 -0.00354064    0.0162857    0.0204201    0.0759413    0.0214695    -0.072111   -0.0508277    -0.029695 -0.000114959    0.0472014
   0.0136633    0.0614158     0.063234     0.018918   -0.0204626   -0.0565941   -0.0232913   -0.0246155    0.0320996   -0.0502395
#
!
<15>:24
   0.0376539   -0.0140635   -0.0119431   -0.0445214    0.0832794   -0.0562516   -0.0191082   -0.0267936    0.0369718
   0.0166731     0.014344     0.035526   -0.0052403   -0.0156213    0.0147615   0.00726924    0.0191268  -0.00611923
  -0.0667007  -0.00975777   -0.0482045 -0.000509192   -0.0079015    0.0282966   0.00500356    0.0392039   0.00276018
 -0.00558641   -0.0160277   0.00165293   -0.0164204   -0.0293486   0.00873752    0.0104108    0.0377379  -0.00283194
  -0.0566675   -0.0077471    0.0357517    0.0372253  -0.00284618  -0.00808244     -0.03109    0.0367926    0.0529855
  -0.0232367    0.0153964    0.0593693  -0.00874257   -0.0191117    0.0694454  -0.00958808     0.015923     0.035766
   0.0534591   0.00540506    0.0436208   -0.0337955    0.0737859    0.0378474  -0.00726428   0.00078989    0.0555164
   0.0012587   -0.0411932  -0.00478794   -0.0148115    0.0519805    0.0344081    0.0431353   -0.0557522    0.0418103
  -0.0178554   -0.0461414   -0.0395198    -0.019898    0.0516352   -0.0197391    0.0627114  -0.00484324   -0.0388484
   0.0337318    0.0209329   -0.0400116   -0.0505486    0.0145943   0.00493029   0.00740341   -0.0208161     0.046756
#
   0.0115464  -0.00918253   -0.0263397    0.0064606    0.0293001  -0.00355032   0.00901965   -0.0158771   -0.0239157    0.0280369
   0.0469171  -0.00726369    0.0103557  -0.00677678   -0.0382828   0.00996789  -0.00665249   -0.0542069   -0.0026795   -0.0191803
  0.00596031    0.0718725   -0.0120067     0.038709 -0.000626321    0.0452504   0.00269886   -0.0206876    0.0230549  -0.00788145
  -0.0286921   0.00803147  -0.00189837   -0.0119777   0.00312141   -0.0243557   -0.0190749   0.00182301    0.0344976   -0.0220361
 -0.00501948    0.0169903   -0.0132113   0.00677461    0.0361207    0.0639197    0.0335999   -0.0195255   -0.0254441    -0.061784
  -0.0548256    0.0447678    0.0035479   -0.0079993    0.0459309   -0.0390122   -0.0225194   -0.0839661    0.0531585   -0.0170404
  -0.0411367    0.0171366    0.0262413   -0.0859997    -0.026859  -0.00187149    0.0377695   -0.0245904   0.00752155    0.0325966
 -0.00613097   0.00377301    0.0675433    -0.037514   -0.0327966   0.00916351  -0.00308762  -0.00975028    0.0420997   0.00354774
   0.0206879    0.0173083   -0.0146132    0.0522487   -0.0190598   -0.0351281 -4.89864e-05   -0.0216139    0.0519492   -0.0137689
  0.00865377   -0.0892365   -0.0357491      0.02132   0.00377731   -0.0107169   0.00944381    0.0326768    0.0437515   -0.0870993
#
   0.0732771   0.00881335   -0.0156994   -0.0267345    0.0800096   -0.0128366    0.0129001   -0.0536632  -0.00248879    0.0228471
  -0.0677017   -0.0372902    0.0712363    0.0247912    0.0370766   -0.0547854  -0.00285424    0.0035926    0.0346427   -0.0364594
 -0.00949915   -0.0528055   -0.0616682  -0.00530821     0.025311   -0.0313266   -0.0232779   -0.0277911    0.0137456    0.0249266
  -0.0675505   0.00913981    0.0573966   -0.0273832    0.0355361    0.0249223    0.0491326    -0.107204    0.0218888   0.00797395
  -0.0167609   0.00529791   -0.0214323   -0.0217399    0.0311716    0.0314981  -0.00395518   0.00486685  -0.00663084   -0.0649995
 -0.00557777   -0.0101777    0.0124678    0.0213604  -0.00264981   -0.0517712    0.0262379   -0.0299181   -0.0732875    0.0116453
 -0.00156041   -0.0600306  -0.00666262  -0.00148656    0.0129494   -0.0133116    0.0138971   0.00531875   -0.0289348    0.0158326
  -0.0255306   -0.0103356   -0.0677374   -0.0680376   -0.0426288    0.0243142 -8.05571e-06  -0.00701319   -0.0692455   0.00392391
 -0.00821897    0.0411334    0.0151294   -0.0602677   -0.0376653   -0.0426806    0.0447422  -0.00567227    0.0499451    0.0158636
    0.023716  -0.00524457    0.0307165    0.0231795  -0.00800502    0.0266935   -0.0380499   -0.0293487    0.0405384    0.0385253
#
  0.0338898 -0.00936667   0.0115225  -0.0242441  0.00619107  0.00297603  -0.0305216  -0.0432013   0.0099399  -0.0290184
  0.0249766  0.00199583    0.016192   0.0688309   0.0315509  -0.0856491  -0.0424069  -0.0294064  -0.0171191   0.0607006
 -0.0086094   0.0447337   0.0462511   0.0374894   -0.012623  -0.0456991  -0.0191073  -0.0266225   0.0235642  -0.0285086
#
!
<19>:24
   0.0332566   -0.0247101   0.00209752   -0.0387671    0.0880806   -0.0655106   -0.0329964   -0.0205985    0.0268439
   0.0183547  -0.00103227    0.0357168  0.000742127    -0.049564    0.0252472   -0.0108098    0.0415635    0.0125642
  -0.0512114 -0.000656717    -0.037032    0.0149076    0.0101355  0.000382318    0.0211272     0.050972   -0.0223158
  -0.0209716   -0.0300272   0.00199675   0.00816903   -0.0318456   0.00977393    0.0375244    0.0189739   -0.0105091
  -0.0474344   -0.0201709    0.0521748   0.00509838   0.00295173   -0.0328778   -0.0293077    0.0418331     0.025863
  0.00475355    0.0408479    0.0308836   -0.0269682   -0.0225047    0.0409161   -0.0335571    0.0141758    0.0494333
   0.0655449    0.0288437    0.0318603    -0.057344    0.0297336    0.0620031  -0.00698881    0.0400026    0.0554133
  0.00210801   -0.0418227   0.00401849   -0.0130733    0.0684127    0.0310615    0.0313077   -0.0530162    0.0390017
   -0.033892   -0.0435654   -0.0442744    -0.013631    0.0476799  -0.00548039     0.043323   -0.0201168   -0.0176714
   0.0484914     0.038469   -0.0208898   -0.0301092    0.0367264    0.0181062  -0.00791203    0.0023033   0.00876868
#
  0.00374995   -0.0176375   -0.0148409   -0.0207126    0.0581136    0.0257885   0.00582344   -0.0291289  0.000134575    0.0230296
   0.0312518    0.0113011    0.0264281    0.0010849    -0.037247   0.00982018   -0.0254724   -0.0467179   0.00408714  -0.00735176
   0.0010432    0.0815333   -0.0283168     0.030988 -0.000883995    0.0701071   -0.0140359   -0.0356493    0.0650227  -0.00154002
  -0.0307851  0.000756301   -0.0162354   -0.0426166    0.0141219   -0.0295129   -0.0211458   0.00933979    0.0139568   -0.0172374
   -0.011007    0.0148461  -0.00727416  -0.00885415    0.0424044     0.068656    0.0438119   -0.0145128   -0.0129719   -0.0347242
  -0.0461557    0.0162298  -0.00564239   0.00327493    0.0520605   -0.0288767   0.00536339   -0.0891387    0.0570822   -0.0243693
   -0.034509   0.00406318   0.00816574   -0.0898095   -0.0102111   0.00424635    0.0409108   -0.0282503  -0.00637139    0.0141442
  -0.0167302  -0.00642808    0.0462581   -0.0292579   -0.0397232 -0.000925381  -0.00839656  -0.00228688    0.0596206  -0.00511755
 0.000772283  0.000997072    -0.026475    0.0333491   -0.0160432  -0.00929014   0.00220599   -0.0195511    0.0505078   0.00398555
   0.0121443   -0.0784644   -0.0309326    0.0224733   0.00731131   -0.0272721    0.0396433    0.0277239    0.0154319   -0.0757334
#
   0.059168  0.00820302  -0.0187713  -0.0192146   0.0600323  -0.0228929   0.0131584 -0.00442072 0.000307502   0.0193236
 -0.0616306  -0.0542991    0.062873  -0.0130826   0.0304823  -0.0206496  -0.0220747  0.00205894   0.0265981  -0.0179775
 -0.0137417  -0.0716598   -0.082698  -0.0119183   0.0271119     -0.0251  -0.0229924 -0.00276234   0.0178039   0.0344183
 -0.0273001   0.0164894     0.07717  -0.0168325   0.0281846   0.0407465    0.033797  -0.0928219 -0.00373637  -0.0123257
  -0.019864   0.0196808 -0.00153887  -0.0142767   0.0165233   0.0252012   0.0199656   0.0174222  -0.0125724  -0.0527837
-0.00590513  0.00729891  0.00426617 -0.00217368  -0.0122218   -0.038211   0.0446268  -0.0396807  -0.0557203 -0.00509427
 -0.0111861  -0.0430975   0.0242536   0.0221568  -0.0158334  -0.0267528  0.00408362  0.00520028  -0.0018259   0.0586838
 -0.0319632  -0.0106064  -0.0853541    -0.06075  -0.0654011  0.00166883   0.0241499   0.0189066  -0.0637065  -0.0166617
 -0.0213816   0.0654819  0.00633409  -0.0334882  -0.0191918  -0.0269774   0.0429165  0.00902859   0.0223078  0.00383399
 0.00968929  0.00887752 -0.00013934   0.0218285 -0.00104985   0.0238772  -0.0138184  -0.0239633   0.0332991   0.0213323
#
  0.0359404  0.00262848  -0.0218791 -0.00953469   0.0311009  0.00989885  -0.0239375  -0.0384029   0.0494593  -0.0551482
 -0.0184368   0.0159738   0.0315569   0.0654647   0.0290738  -0.0727614  -0.0450139  -0.0171175 -0.00484245   0.0450674
   0.016993   0.0529582    0.071158   0.0172767  -0.0173652  -0.0722863  -0.0299902   -0.034934   0.0450118  -0.0467488
#
!
<21>:24
  0.0349079  -0.0233386  -0.0158407  -0.0314388    0.105201  -0.0713127  -0.0172614  -0.0118063   0.0154181
   0.012996   0.0107674   0.0256056   -0.014121  -0.0426802   0.0263623   -0.022077   0.0420949 0.000177654
  -0.053453 -0.00985813  -0.0455204   0.0180941  -0.0142805   0.0124084 8.90178e-06   0.0602535  -0.0159557
-0.00933989  -0.0213274  -0.0214024  -0.0105996  -0.0398996   0.0169156   0.0147501   0.0354492 -0.00518531
 -0.0502463 -0.00805122   0.0555904   0.0441556  -0.0148656  -0.0392771  -0.0177055    0.039404   0.0283569
 0.00478241  0.00547573    0.039463 -0.00197385   -0.044489   0.0602952  -0.0510968   0.0165954   0.0446465
   0.037985    0.035633   0.0187938  -0.0419101   0.0569092    0.053238  -0.0237374   0.0172516   0.0359157
   0.017332  -0.0287325  -0.0287155 -0.00428765    0.061799   0.0287299   0.0379519  -0.0542287   0.0231643
 -0.0254761  -0.0345596  -0.0395657  -0.0118501   0.0496013 -0.00819363   0.0412966 -0.00450896  -0.0198796
  0.0560674    0.039255  -0.0380973  -0.0160395   0.0145793 -0.00284124  -0.0136061  -0.0246727   0.0279225
#
   0.0104917   -0.0176698   0.00741709   -0.0121626     0.038401   0.00672171    0.0125133  -0.00919227 -0.000239809    0.0208461
   0.0356806    0.0151146     0.030093    0.0171051   -0.0573885   0.00169557  -0.00363098   -0.0590535   -0.0133165   -0.0153617
-0.000771176    0.0599707   -0.0258659    0.0367758  -0.00775292     0.061192  -0.00532705   -0.0332013    0.0356617  -0.00265825
  -0.0278241    0.0147308   -0.0255161    -0.028742    0.0128623  -0.00883299   -0.0323505     0.029404   0.00281777  -0.00483423
 -0.00859566 -3.24238e-05   -0.0120955 -0.000459152     0.046116    0.0577784    0.0353061   -0.0224522   -0.0225077   -0.0467007
  -0.0719194    0.0148936   0.00280163  -0.00466037    0.0616474   -0.0313221   -0.0167508   -0.0797015    0.0680316   -0.0197305
  -0.0385718   -0.0325104  -0.00625366   -0.0718106   -0.0272293   0.00769792    0.0416883   -0.0300623   0.00183782    0.0280074
   -0.033553   0.00650427    0.0492061   -0.0394336   -0.0316155   0.00609426  -0.00858548  -0.00934568    0.0478174   0.00487725
   0.0138394  -0.00671234   -0.0375749    0.0213679   -0.0114053  -0.00398078   0.00167203   -0.0301394    0.0820021   0.00697888
   0.0226605   -0.0942817   -0.0389419    0.0175847  -0.00166227   -0.0115494    0.0132134    0.0212157    0.0256427   -0.0636736
#
   0.0619087   0.00348112  -0.00420698  -0.00857701    0.0652616  -0.00384383     0.026013   -0.0166579    0.0107137    0.0405273
  -0.0618051   -0.0434251    0.0872164   0.00907475    0.0340182   -0.0240288  -0.00559416   0.00717586    0.0386692   -0.0242254
  -0.0278855    -0.046908   -0.0729401    -0.019024    0.0291483   -0.0479733   -0.0366816   -0.0206564    0.0393939     0.041056
  -0.0493831    0.0131086    0.0664029  -0.00755568    0.0343679    0.0291688    0.0239034   -0.0755424    0.0210232   0.00161766
 -0.00985686 -0.000462364   -0.0199513   -0.0134635    0.0197462    0.0427134    0.0279847   0.00655001    -0.015149   -0.0483488
  0.00801459   0.00891032    0.0146744  0.000819009    -0.021674   -0.0380954    0.0376498    -0.047775    -0.053954    -0.018051
  -0.0124787   -0.0613713    0.0236641  -0.00367127  -0.00987989  -0.00771077    0.0131963  -0.00417407   0.00400463    0.0458209
  -0.0394969    -0.019238    -0.115007   -0.0446984   -0.0328145      0.02884      0.01124   0.00948545   -0.0718373  -0.00421802
  -0.0422693    0.0420926    0.0239474   -0.0117985   -0.0297744   -0.0474965    0.0648088    0.0132317    0.0283905   -0.0138623
   0.0258661   -0.0134263    0.0194436     0.022269   -0.0183059     0.041442   -0.0253355   -0.0245526    0.0262638    0.0262484
#
  0.0259043 -0.00738876  -0.0210583  -0.0286538   0.0216577 -0.00240922  -0.0148445 -0.00577682   0.0454986  -0.0405014
 0.00952684   0.0223947   0.0144345   0.0640612  0.00482566  -0.0716835  -0.0596223  -0.0395221  0.00133198   0.0641109
 0.00526285   0.0502861   0.0838707   0.0259458   -0.013416  -0.0498482   -0.032268 -0.00932291   0.0312422  -0.0337127
#
!
<30>:23
   0.0293266   -0.0170935  -0.00952184   -0.0354623    0.0871268   -0.0579369   -0.0250874   -0.0354797 -0.000631587
 0.000757487   0.00429753    0.0194378    0.0226582   -0.0122344    0.0271666   0.00632587    0.0086771   0.00462327
  -0.0476806   -0.0348696   -0.0382026   0.00298289   0.00239946    0.0169098   0.00207762    0.0798483   -0.0180341
  0.00879167   -0.0277751   -0.0104763    -0.028039   -0.0262382  -0.00967281   0.00663117    0.0359636    0.0175339
  -0.0629289   -0.0178898    0.0634445    0.0201508    0.0275752   -0.0356863   -0.0106705    0.0418285    0.0374319
 -0.00371083     0.014042    0.0603848  -0.00407439    -0.028227     0.062389    -0.034089    0.0160917    0.0484147
   0.0670422     0.018472    0.0372722   -0.0400696    0.0621857    0.0392037   0.00723578     0.020534    0.0476784
  0.00581809   -0.0398398   -0.0207888   -0.0301586    0.0609735    0.0237419    0.0112095   -0.0364509    0.0226059
 -0.00444072   -0.0181947   -0.0308252   -0.0230014    0.0529901   -0.0117408    0.0450084   -0.0189859   -0.0298588
   0.0562465    0.0057844   -0.0285797    -0.052235    0.0353911   0.00152479   0.00796478  -0.00213473    0.0517535
#
   0.0263547   -0.0298226   0.00959925   -0.0117761     0.058286   0.00801671    0.0211512   -0.0137468  -0.00596125     0.041609
     0.02542    0.0023546   0.00772922   0.00454053   -0.0651794 -0.000538149  -0.00910881   -0.0569318  -0.00339528   -0.0171369
  -0.0110728    0.0382178   -0.0086712    0.0254216   0.00817147    0.0703864   -0.0244697   -0.0306751    0.0361181   -0.0102436
  -0.0396048     0.038589   0.00284876    -0.054605  -0.00275396   -0.0253708   -0.0108877  -0.00351457    0.0118615   -0.0136106
  -0.0175627    0.0100896   -0.0145681   0.00365884    0.0507857    0.0709886    0.0490222  -0.00131861   -0.0204672   -0.0522785
  -0.0626651    0.0194274  -0.00249514     0.014303    0.0627298   -0.0472244   -0.0263836    -0.103798    0.0560718   -0.0161493
  -0.0271728  -0.00539545    0.0241238   -0.0859349    0.0120035    0.0192403    0.0375882   -0.0178169   0.00220612    0.0334338
  -0.0460801    0.0257908     0.068903   -0.0351132  -0.00768663    0.0133438  -0.00718182   0.00479572    0.0746201  -0.00812323
   0.0124053    0.0137375    -0.026182    0.0553368  -0.00995802   -0.0231685   -0.0110196   -0.0179387    0.0530564  -0.00424843
  0.00698519   -0.0913253   -0.0176028    0.0133824   -0.0115563   -0.0198203    0.0310402    0.0353924    0.0266772    -0.074077
#
  0.0663401  0.00797739  -0.0118438  -0.0241842   0.0670346  -0.0101159   0.0159114  -0.0273988  -0.0314108   0.0414948
 -0.0560416  -0.0390653   0.0517735   0.0261632   0.0411101  -0.0624968  -0.0121747  -0.0245421   0.0428958  -0.0338588
 -0.0261349  -0.0584907  -0.0548599  -0.0212844   0.0324998  -0.0355598  -0.0323168  -0.0140719   0.0263956    0.028769
  -0.032004 -0.00366147   0.0765533  -0.0353104   0.0307079   0.0265532   0.0290805  -0.0924282   0.0160393 -0.00262062
  -0.030523   0.0126064  -0.0138548 -0.00775512   0.0280771   0.0233084  0.00033767 -0.00394415  0.00531027  -0.0474708
 -0.0194615 -0.00761501  0.00961748 -0.00304097  0.00391458  -0.0470432   0.0274582   -0.022234  -0.0723008 -0.00838343
 -0.0179323  -0.0553061   0.0347923 -0.00768987    0.016905  0.00562191  0.00288046 -0.00335593  -0.0102938   0.0252135
 -0.0428281  -0.0143313   -0.102973   -0.040993  -0.0344829    0.041334 -0.00179029   0.0144388  -0.0788688 -0.00256501
 -0.0312989   0.0384066   0.0104503  -0.0472923  -0.0157066  -0.0538776   0.0500355  -0.0105777   0.0268857   0.0132623
   0.017866 -0.00825198   0.0193976  0.00973868  -0.0183796   0.0235649  -0.0229567 -0.00256902   0.0229136   0.0194476
#
   0.025008  -0.0228061  -0.0142519  -0.0467817   0.0209992  0.00333867  -0.0120095   -0.012356   0.0255856  -0.0163401
  0.0170408   0.0311731   0.0228572   0.0532445   0.0308816  -0.0436387  -0.0291278 -0.00928243  -0.0132411   0.0490716
 0.00272863   0.0760349   0.0491165   0.0325932  -0.0173269  -0.0711845  -0.0289139  -0.0403166   0.0341184  -0.0255373
#
!
<32>:23
  0.0387582  -0.0165459  -0.0123128  -0.0347719    0.094397   -0.058816  -0.0151861  -0.0109633   0.0390218
  0.0242626   0.0028154   0.0198734 -0.00143548  -0.0493855   0.0172244 -0.00721138   0.0376431  0.00274969
 -0.0628388  -0.0245692    -0.03325   0.0262714  -0.0184733   0.0191373   0.0153029   0.0493667  -0.0272444
 -0.0134739   -0.020554   0.0142335  -0.0125609  -0.0484518   0.0198757   0.0212877   0.0182823 -0.00435907
 -0.0599607  -0.0261333   0.0378768   0.0199104  0.00740934  -0.0120522  -0.0287519   0.0475571   0.0332989
 0.00632601    0.017206   0.0290122  -0.0216397  -0.0172419   0.0328188  -0.0137256  0.00746904   0.0580173
  0.0505693   0.0456485   0.0242857  -0.0495324   0.0511086   0.0552423  -0.0278226   0.0177311   0.0398423
 0.00552038  -0.0238023  -0.0185647 -0.00365622   0.0542771   0.0287833   0.0348327  -0.0558386   0.0247224
  -0.019194  -0.0417934  -0.0524674 -0.00112391    0.051217 0.000855361   0.0570514  -0.0269538  -0.0308696
  0.0655091   0.0429538  -0.0264658  -0.0133433   0.0200733   0.0034124  0.00456683  -0.0206882   0.0218495
#
  0.00959194   -0.0158944   -0.0129941  -0.00943518    0.0339453    0.0276185    0.0114802   -0.0305242   0.00396174    0.0347028
   0.0161401    0.0111149    0.0129758   0.00118439   -0.0414039    0.0267748    -0.016512   -0.0680716   0.00849147    0.0103697
 -0.00258384    0.0639095   -0.0242144    0.0399723 -6.70892e-05    0.0801351   -0.0129117   -0.0478734    0.0420706   -0.0129701
  -0.0463069   0.00707537   -0.0171523    -0.042623   -0.0100087  -0.00985873   -0.0268813  -0.00304069    0.0110382  -0.00550271
  -0.0170962   -0.0111572   -0.0113356   -0.0162016    0.0441832    0.0673954    0.0294106   -0.0191483   -0.0265655    -0.053105
  -0.0696268   0.00141837   -0.0027428  -0.00211159    0.0529293   -0.0238983  -0.00486996    -0.075542    0.0612767   -0.0376385
  -0.0453125   -0.0041531   0.00420572   -0.0983232   -0.0286704  -0.00804615     0.026165   -0.0191505  -0.00740134     0.021991
  -0.0322416    0.0180512    0.0542801   -0.0399544   -0.0374446    0.0169437   -0.0128928    0.0107811     0.071403  -0.00498307
  0.00617404   0.00616705   -0.0330374    0.0411368   -0.0238624   0.00273717    0.0120885   -0.0154051    0.0751235   0.00178894
  0.00378654   -0.0842097   -0.0270535    0.0405517  -0.00742192   -0.0254839    0.0364885      0.02775    0.0120565   -0.0662978
#
   0.0561938   0.00792479   0.00649081  -0.00935078    0.0494611 -0.000938172    0.0243926  -0.00433283 -0.000678461    0.0306217
  -0.0603802   -0.0405003    0.0709296  -0.00910245    0.0256118  -0.00556238  -0.00842773    0.0226845     0.045496   -0.0174326
  -0.0139402   -0.0766455   -0.0720285   -0.0201427    0.0250876   -0.0409074   -0.0289571   -0.0182915    0.0264092    0.0338772
  -0.0479582    0.0135932     0.068734    0.0069446    0.0259493     0.046112    0.0369073   -0.0751353  -0.00750771    0.0053505
   0.0100723    0.0137006   -0.0322122    -0.021232   0.00864494    0.0498432    0.0205943    0.0246547    -0.010586   -0.0357296
 -0.00441274   0.00624334    0.0172096  -0.00806413   -0.0300274   -0.0373178    0.0308621   -0.0444211    -0.054999   -0.0262162
 -0.00910996   -0.0448389    0.0243122 -0.000662454   -0.0134596   -0.0145069    0.0183133   -0.0053002    0.0011475    0.0496781
  -0.0252627   -0.0257984    -0.101113   -0.0549011   -0.0529966   0.00386447    0.0160907   0.00203377   -0.0625654    -0.018851
  -0.0137354    0.0593719   -0.0153235    -0.012877   -0.0312238   -0.0405453      0.04848    0.0056824    0.0369505   0.00141512
   0.0177158  -0.00225621    0.0156138    0.0112896  -0.00706293    0.0388619   -0.0256122   -0.0133078     0.034032    0.0307749
#
   0.0215566    -0.001633   -0.0187471  -0.00123966    0.0205122  0.000299444   -0.0188217   -0.0053122     0.052669   -0.0264946
  -0.0160151    0.0188207    0.0349151    0.0823679    0.0116143    -0.083654   -0.0625185   -0.0405449 -0.000682305    0.0435491
   0.0217175    0.0519267    0.0743176    0.0111022    -0.030296   -0.0509412   -0.0294287   -0.0222505    0.0235794    -0.063935
#
!
<34>:23
  0.0399223  -0.0134869  -0.0118062  -0.0331893   0.0934911  -0.0575552  -0.0071671  -0.0210769    0.026659
  0.0104644   0.0171406   0.0280118  -0.0102124  -0.0632886  0.00026577   0.0017689   0.0296934  0.00310233
 -0.0587367  -0.0211235    -0.03535    0.019545 -0.00424988   0.0177477  0.00754752   0.0490448  -0.0186079
 -0.0162329  -0.0236877  0.00469247  0.00348172  -0.0432269 0.000305348   0.0314694   0.0136863 -0.00431155
  -0.056375 -0.00332847   0.0263382   0.0204027   0.0229236  -0.0210704  -0.0210593   0.0467031   0.0442492
-0.00468864  0.00981973   0.0315524  -0.0185783   -0.015667   0.0465619  0.00395148   0.0132314   0.0345507
  0.0503308   0.0204657   0.0305741  -0.0321457   0.0533928    0.032927  -0.0131628   0.0141995    0.039218
 0.00285861  -0.0143657  -0.0130426  -0.0213748   0.0442822   0.0191522   0.0462294  -0.0505566   0.0419667
 -0.0202005  -0.0289304  -0.0448083    -0.01273    0.054608   0.0140055   0.0565593   -0.027485  -0.0433652
  0.0676796   0.0368338  -0.0363408  -0.0352831   0.0210898 -0.00608436   0.0255011  -0.0194648   0.0279284
#
   0.0187297   -0.0153707   -0.0206272    -0.013601    0.0344402    0.0219396    0.0317287   -0.0373236 -0.000453483    0.0324422
   0.0233127   0.00185262    0.0212836   0.00124017   -0.0232662    0.0184224   -0.0152325   -0.0443062   0.00243683 -0.000671655
 -0.00510318    0.0573201   -0.0221541    0.0479293   0.00863432     0.065087  -0.00840467   -0.0331181    0.0549129   -0.0183045
  -0.0387926    0.0354491   -0.0191142   -0.0469572   -0.0222891   -0.0333289   -0.0185089   0.00350912    0.0211968  0.000967756
 -0.00245321    0.0141711  -0.00203937 -0.000685095    0.0467831     0.072378    0.0406488   -0.0533959   -0.0356963   -0.0514147
  -0.0755173  -0.00446612   0.00205606   0.00543165    0.0470351   -0.0382598   -0.0258316   -0.0684618     0.065655   -0.0402181
  -0.0390024   0.00450916   0.00179072    -0.111052   -0.0150531   0.00737548    0.0414445   -0.0321142   -0.0114321    0.0134563
  -0.0308072    0.0164275    0.0682474   -0.0302987   -0.0287563    0.0195804   -0.0100531   -0.0215713    0.0691519   0.00721017
    0.014514    0.0225853   -0.0399429    0.0346894   0.00102122  -0.00561196    0.0234185   -0.0315094    0.0481597  -0.00826835
  0.00971359   -0.0830871   -0.0217558    0.0474669  -0.00325683   -0.0171169    0.0397919     0.025817    0.0124781   -0.0655375
#
   0.0517144  -0.00128303   -0.0160462   -0.0151644    0.0544921  -0.00683981    0.0269861   0.00254755  -0.00487616    0.0180225
   -0.033953   -0.0456582    0.0578339   -0.0103634    0.0274074   -0.0307628  0.000898222   0.00795319    0.0330007   -0.0240361
  -0.0147279   -0.0381166   -0.0693317   -0.0144753    0.0201426   -0.0263547   -0.0271299   -0.0153199     0.012622    0.0303467
  -0.0444035    0.0203296    0.0634302   -0.0163348    0.0439019    0.0205378    0.0374541   -0.0715738 -0.000928984   0.00811215
  0.00500169   0.00824863    -0.015448   -0.0279896   0.00464858    0.0474742    0.0107865    0.0253265    0.0124607   -0.0465865
  -0.0092714  -0.00322111    0.0126879   -0.0113971   -0.0183875   -0.0439234    0.0317803   -0.0365533   -0.0695336   -0.0169017
  -0.0163934   -0.0470147    0.0377024   0.00385041  -0.00634094  -0.00126303    0.0199153    0.0018915   0.00835382    0.0498011
  -0.0249938   -0.0295295   -0.0800164   -0.0638051   -0.0486071    0.0271912   0.00465068   0.00260707    -0.087817  -0.00467129
 0.000335893    0.0546087   0.00893777   -0.0341457   -0.0395104   -0.0472021    0.0602519    0.0123687    0.0265738  -0.00568003
   0.0231028  -0.00693414    0.0070318   0.00633811   -0.0242098    0.0408871   -0.0233385   -0.0311264     0.045905   0.00251361
#
  0.0250939  -0.0136539   -0.028758 -0.00798007  0.00772115   0.0093084  -0.0341486   -0.010984   0.0418992  -0.0391199
 0.00336738   0.0198272   0.0152952   0.0799034   0.0347029   -0.104946  -0.0610994  -0.0285001 -0.00661662   0.0520176
   0.012244   0.0624192   0.0707533  0.00467649  -0.0295593   -0.069294  -0.0297811  -0.0205635   0.0320133  -0.0473116
#
!
<36>:23
   0.0401538  -0.00609081   -0.0174098   -0.0430877     0.084525   -0.0562592   -0.0223212   -0.0114959     0.024279
  0.00475475   0.00226576    0.0171468  -0.00620915    -0.038444   0.00397135  -0.00662598    0.0407192    0.0166914
  -0.0763116   -0.0359024    -0.045982 -0.000380196   0.00571589    0.0161665  -0.00421331     0.030752   -0.0085728
 -0.00207783   -0.0075597   -0.0106917  -0.00669532   -0.0361493  0.000749288    0.0145319    0.0192795   -0.0118311
  -0.0614675   -0.0324746    0.0353749    0.0216454    0.0351972   -0.0136985   -0.0368099    0.0331641    0.0285396
  -0.0144454  -0.00262456     0.016866   -0.0248322   -0.0231731    0.0478005   -0.0342557   0.00238643    0.0481044
   0.0331611    0.0525453    0.0156167   -0.0279025    0.0424574    0.0756094  -0.00646826    0.0149433    0.0320208
  -0.0183375  -0.00963172   -0.0134921  0.000801754    0.0487903    0.0319327     0.035816   -0.0572647    0.0298617
  -0.0147459   -0.0304365   -0.0157606  -0.00989377    0.0385291  -0.00276421    0.0492091  -0.00749394    -0.026287
   0.0528004    0.0274049   -0.0289329   -0.0137103    0.0509405   0.00142958  -0.00727946    -0.025762    0.0134674
#
   0.0188241   0.00187577  -0.00607012   0.00713087    0.0178314      0.01229    0.0157526  -0.00321161   -0.0213061    0.0319352
   0.0283736   -0.0130557    0.0139409  -0.00352716   -0.0396218    0.0242365   -0.0248009   -0.0555682   -0.0160074  -0.00769088
   -0.003418    0.0591618   -0.0112308    0.0351766  -0.00326388    0.0603161   -0.0279563   -0.0113004    0.0195694  -0.00644994
  -0.0187712   0.00610947  -0.00977414   -0.0539142  -0.00902537   -0.0215907   -0.0146507    0.0218409    0.0187761  -0.00754797
 -0.00767747   0.00425555   -0.0124694  -0.00829028    0.0355635     0.057875     0.020534   -0.0585214  -0.00930252   -0.0559895
  -0.0674256     0.032787  -0.00124361  -0.00212424    0.0453517    -0.034263   -0.0116436   -0.0966646    0.0405476   -0.0313039
  -0.0502669    0.0135961     0.010819   -0.0790986  -0.00828454    -0.024559    0.0252848     -0.04385    0.0186665    0.0254345
  -0.0310382    0.0241811    0.0531036   -0.0560842   -0.0409042   -0.0132457   -0.0185089 -5.12935e-05    0.0531492   0.00717268
   0.0149746   0.00432561   -0.0312898    0.0413487  -0.00773711   -0.0230142   0.00205081  -0.00710894    0.0646848   -0.0118223
   0.0178975   -0.0978154    -0.046512    0.0178135    0.0139777  -0.00800391    0.0118175    0.0474007    0.0108258   -0.0439738
#
   0.0588776    0.0248619   -0.0164248   -0.0324356      0.07207  -0.00455561    0.0376643   -0.0362151    0.0153686    0.0510626
  -0.0673282    -0.036712    0.0586671   0.00241301    0.0171806   -0.0284691   -0.0179932   0.00383326    0.0382585   -0.0207137
 -0.00809909   -0.0504151   -0.0623699   -0.0219718    0.0202675   -0.0333546   -0.0261262   0.00481861    0.0230802    0.0355768
  -0.0138942    0.0197545    0.0637298 -0.000189266    0.0295095    0.0195766    0.0404278   -0.0923759    0.0173903  -0.00226709
  -0.0250675    0.0194774   -0.0113187   -0.0373679    0.0235703    0.0421694    0.0152738    0.0167245   -0.0106576   -0.0718431
  0.00672538   0.00728864    0.0260518   -0.0205775   -0.0249087   -0.0507629     0.018341  -0.00736025   -0.0771234   -0.0109011
 -0.00977836   -0.0543993   0.00982697   0.00352114  -0.00479178  -0.00992283   0.00866875  -0.00401882  -0.00911447    0.0222956
 -0.00633822    -0.027624   -0.0894415   -0.0447629   -0.0601954    0.0236903     0.025112    0.0133643   -0.0615408     0.006474
  -0.0235417    0.0271158  0.000201493   -0.0514124   -0.0310951   -0.0352894    0.0267987   -0.0207576    0.0424456    0.0215946
   0.0332683    0.0150406  -9.5982e-05    0.0281315   -0.0225657    0.0532566   -0.0165237   -0.0365166    0.0293986    0.0228539
#
  0.0367477 -0.00616039  -0.0234849  -0.0371307   0.0114542 -0.00340322  -0.0190376  -0.0234157   0.0371064  -0.0419415
0.000712727 -0.00675989 -0.00965964   0.0878008   0.0251832  -0.0507874  -0.0512042  -0.0188838  0.00696947   0.0415314
0.000942717   0.0680611   0.0452036   0.0241743  -0.0162421  -0.0659539  -0.0292435  0.00146323   0.0445934  -0.0327358
#
!
<37>:23
   0.0340377   -0.0147433   -0.0147986   -0.0351916    0.0881431   -0.0369884  -0.00747266   -0.0280799    0.0293075
   0.0183854   0.00442807    0.0290462  -0.00305158   -0.0322686  -0.00277385     0.014732     0.041621  -0.00104241
  -0.0599593   -0.0251313   -0.0381909   -0.0124555   -0.0180793   -0.0153859   0.00432587    0.0490266  -0.00572677
 -0.00424162   -0.0123931  -0.00296838   -0.0269107   -0.0309781  -0.00688998  -0.00250398     0.035322   -0.0195433
  -0.0511771  -0.00275481    0.0397066    0.0260793    0.0351271   -0.0274208 -0.000442214    0.0480767    0.0329313
   0.0163725   0.00773397    0.0451333   -0.0145624   -0.0289377    0.0692184   -0.0272737    0.0215271    0.0501186
   0.0460909   0.00607223    0.0304816    -0.047243    0.0527212    0.0460496  0.000154396    0.0185501    0.0262428
 -0.00608794   -0.0384036   -0.0143996   -0.0100952    0.0642242    0.0336132    0.0456623   -0.0757306      0.03162
 -0.00308936   -0.0303632   -0.0140948   -0.0169091    0.0556037   -0.0328722    0.0622974   -0.0305584   -0.0349602
   0.0553418    0.0248833   -0.0384258   -0.0247607    0.0299538   0.00925473   -0.0136033   -0.0195856    0.0455643
#
   0.0368467     0.010285   0.00338179    0.0120626    0.0423301   -0.0165883   0.00870686   -0.0160526  -0.00485223     0.024366
   0.0378682   -0.0138699      0.03331   -0.0153963   -0.0488067   0.00898454  -0.00111819   -0.0504499    0.0159487   -0.0134983
  -0.0344017    0.0662614   -0.0111206    0.0590591  -0.00595383     0.059306   -0.0127426   -0.0385575    0.0478759   -0.0187596
  -0.0240071     0.018438    0.0146827   -0.0419528   0.00232813   -0.0166269   -0.0194264 -0.000142146   0.00754458   -0.0204273
 -0.00864057    0.0108625   -0.0262644   -0.0134162    0.0214738    0.0519257    0.0344136   -0.0276888    -0.015375   -0.0545207
  -0.0667201    0.0226351   -0.0138855    0.0200692    0.0613696   -0.0206686   -0.0146575   -0.0880508    0.0574282    -0.013988
   -0.013595     0.024315    0.0344514   -0.0678131   0.00238108  -0.00213349    0.0400875   -0.0255456   0.00219643    0.0284719
  -0.0249206    0.0425867    0.0416827   -0.0402326   -0.0410807  0.000677556   -0.0169731   -0.0269085    0.0544102   0.00722868
  -0.0100541  -0.00172213   -0.0224306    0.0472434   -0.0176721   -0.0341876    0.0270465    -0.036331    0.0599723  -0.00485289
   0.0310516   -0.0989646   -0.0404009    0.0253596   0.00491181   0.00128682    0.0392959    0.0342792    0.0385915   -0.0784944
#
   0.0582327    0.0102232   -0.0107131   -0.0208669    0.0686979   -0.0206414    0.0244962   -0.0142582  -0.00778777    0.0134309
  -0.0736877   -0.0405984    0.0572714   0.00873542    0.0239383   -0.0386846  -0.00346651  -0.00220759    0.0415462  -0.00906324
  -0.0261448   -0.0561655   -0.0542167   -0.0244312    0.0314916   -0.0203532   -0.0479447   -0.0233303    0.0189714    0.0464045
  -0.0456285   0.00659186    0.0608372   -0.0281559    0.0359385    0.0155389    0.0295787   -0.0856765    0.0117786  0.000937666
  -0.0189493    0.0103887  -0.00844567   -0.0314445    0.0191421    0.0222896    0.0390147    0.0326768   0.00703958   -0.0321806
  -0.0163239    0.0252005    0.0197316   -0.0060814   -0.0167649   -0.0600573    0.0279724   -0.0219206   -0.0762057    0.0125165
   -0.021319   -0.0597303    0.0256131  -0.00756986   0.00866255  0.000924009  -0.00248483   -0.0108144   -0.0288639    0.0338375
  -0.0194227    -0.011552   -0.0731533   -0.0533758   -0.0357899    0.0130201   0.00787287    0.0200704   -0.0727187    0.0131984
  -0.0232462     0.036584     0.024964   -0.0417071   -0.0370259   -0.0421396     0.049692   -0.0167718    0.0359548   0.00621715
  0.00720613   -0.0151366 -0.000673437    0.0257562   -0.0168048    0.0197854   -0.0173303   -0.0381116    0.0143359   0.00872564
#
  0.0290162 -0.00428014  -0.0125094  -0.0409614  0.00560181 -0.00270671    -0.03552  -0.0231996   0.0180977   -0.057243
  0.0303962  0.00417405 0.000993222   0.0601512     0.04198  -0.0689002  -0.0444181  -0.0256751 -0.00481597   0.0482517
 0.00494395   0.0580526   0.0517083   0.0164633  -0.0107549  -0.0604574  -0.0235932  -0.0261089   0.0428087  -0.0286326
#
!
<17>:23
  0.0289407  0.00242641   -0.013007  -0.0357592   0.0908324  -0.0520953  -0.0008334  -0.0136326   0.0340769
  0.0141852   0.0167198   0.0278972  0.00785843  -0.0229728  0.00243264 -0.00782827   0.0251017   0.0107337
 -0.0696331 -0.00217702  -0.0394633 -0.00308581  -0.0228604  -0.0039346  0.00190573   0.0625107 -0.00779453
 -0.0229293  -0.0177349  0.00584337 -0.00985375  -0.0360394 -0.00804702   0.0138508   0.0477021 -0.00798412
 -0.0472508 -0.00114819   0.0426166  0.00994004   0.0135216  -0.0213187  -0.0252606   0.0385823   0.0253271
-0.00827716   0.0259733   0.0501728  -0.0055034  -0.0224733   0.0763121  -0.0184528    0.017967   0.0473472
   0.053317  0.00351998   0.0391881  -0.0133923   0.0653317    0.048091  -0.0142407  0.00896843   0.0389002
-0.00789782   -0.045961 -0.00254538  -0.0118355   0.0573454   0.0208524   0.0367481  -0.0553682   0.0387126
-0.00535582  -0.0372577  -0.0435437  -0.0257704   0.0665331 -0.00071936   0.0388941   0.0106165  -0.0122857
   0.065854   0.0119818  -0.0447607  -0.0552018   0.0296475    0.028474 0.000564525 -0.00572736   0.0589648
#
   0.0245127  0.000630955   0.00575968   -0.0100346    0.0450487   0.00102283    0.0101978   -0.0279708   0.00880332    0.0363526
   0.0592971  0.000194706    0.0339113   -0.0052353   -0.0379969    0.0196187   -0.0302975   -0.0351782  -0.00227431   -0.0353955
 -0.00822782     0.078068   -0.0239707    0.0464461  -0.00781545    0.0665028   -0.0227127    -0.027722    0.0387443   -0.0162514
  -0.0166293   0.00105345  0.000988496   -0.0433969  -0.00689754  -0.00115546  -0.00850631     0.007109    0.0253967   -0.0494365
 -0.00554955    0.0150792    -0.024975   -0.0104992    0.0397647    0.0540112    0.0397095   -0.0186197   -0.0155977   -0.0440417
  -0.0676223    0.0365046 -0.000970303   0.00334837     0.046016   -0.0308566    -0.025004   -0.0921002    0.0625235   -0.0281489
  -0.0412455    0.0148866    0.0267583   -0.0713162   0.00996844  -0.00579991    0.0410086   -0.0256803    0.0117669    0.0299912
  -0.0183306    0.0109045    0.0557674   -0.0221454   -0.0557231   -0.0169415   -0.0101225    -0.014349    0.0615704   0.00849891
   0.0214456    0.0169594   -0.0196107    0.0713073   -0.0299207   -0.0308642    0.0136581   -0.0262881    0.0295954  -0.00733928
  0.00116113   -0.0988267   -0.0453718    0.0264484  -0.00331596  -0.00546188    0.0206998    0.0262831    0.0192412   -0.0657345
#
  0.0688417   0.0201037 -0.00812883  -0.0175491   0.0605669  -0.0119593   0.0220412  -0.0168944   0.0162322   0.0412284
 -0.0503295   -0.040295   0.0778103  0.00904201   0.0326524  -0.0387672 -0.00204103  0.00944212   0.0378193  -0.0350073
 -0.0342564  -0.0759232  -0.0648631  -0.0214416 -0.00310673  -0.0262738  -0.0368182  -0.0151285   0.0206807   0.0260801
 -0.0553738   0.0282011   0.0734435  -0.0323323   0.0322574   0.0240407   0.0421762  -0.0944674   0.0118302 0.000869537
 -0.0153965   0.0181912 0.000868668  -0.0160354   0.0145973    0.029182   0.0134751  0.00931356 -0.00786241  -0.0559929
 -0.0181956  0.00894228   0.0159767  0.00828489 -0.00499389  -0.0427943   0.0349751  -0.0320034  -0.0669211 -0.00838329
  0.0020496  -0.0676475    0.041839  -0.0290736  0.00808801  -0.0141315  -0.0221356 -0.00104319  -0.0190153   0.0170631
 -0.0147874  -0.0134603  -0.0926151  -0.0588238  -0.0160771   0.0341917   0.0175535  0.00127424  -0.0979349 -0.00277109
 -0.0307191   0.0356246   0.0204633  -0.0298871  -0.0268475  -0.0484392   0.0590996  0.00165148   0.0314454  -0.0120433
-0.00110772  -0.0161912   0.0156896   0.0214037  -0.0215542   0.0186788   -0.018513  -0.0215856   0.0288964   0.0233472
#
  0.0348576    0.018307  -0.0124293  -0.0155266 -0.00894017  0.00854389  -0.0222997  -0.0301817   0.0154342   -0.041713
 0.00751661   0.0328557   0.0220067   0.0861209   0.0281477  -0.0508048  -0.0372289  -0.0115013 0.000566979   0.0361307
 0.00578315    0.064442   0.0562478   0.0297696  -0.0103981  -0.0465312    -0.02135 -0.00579568   0.0501127  -0.0392111
#
!
<18>:23
   0.0435365   -0.0185502     0.001479   -0.0387343     0.085938   -0.0512511   -0.0183466   -0.0253644    0.0435837
   0.0048864  -0.00223778    0.0154677 -0.000850731   -0.0322717   0.00727907  -0.00504473    0.0397055   0.00932319
  -0.0456744    -0.016907   -0.0283409  -0.00579522   -0.0102245  -0.00253438    0.0123403    0.0582039    0.0116663
  -0.0119179   -0.0193856  -0.00188055   -0.0344066   -0.0444102  -0.00895625  -0.00703614    0.0256927   0.00392002
   -0.055918   -0.0180693    0.0370483    0.0385885   0.00549399   -0.0107798   -0.0260161    0.0587533    0.0340804
 -0.00831488    0.0115561    0.0415398  -0.00820536   -0.0271334    0.0705751   -0.0256156   0.00750751    0.0490998
   0.0509513    0.0103066     0.040811   -0.0427456      0.06626    0.0393627    -0.026692 -0.000957098    0.0337026
  0.00180776   -0.0237254   -0.0225628   -0.0263714    0.0845834    0.0429308    0.0469534   -0.0403743    0.0249056
 -0.00738044   -0.0369445   -0.0305678   -0.0308843    0.0459206   0.00212533    0.0584921   -0.0110445   -0.0198936
   0.0538437    0.0317871   -0.0344351   -0.0420494    0.0329472   0.00503661   -0.0078005   -0.0128481     0.042288
#
-0.00902484 -0.00119263  -0.0130829  0.00529172    0.034288  0.00393594   0.0190955  -0.0181858   0.0145832   0.0173784
  0.0370268   0.0175796  0.00571779 -0.00204635   -0.051454   0.0303852  0.00126848  -0.0540224 -0.00811766 -0.00771956
 0.00816246   0.0520121  -0.0277082   0.0409448 -0.00514177   0.0325628  -0.0190109  -0.0232315   0.0558824 0.000331481
 -0.0200069  0.00807978  -0.0234334  -0.0340457  -0.0176015  -0.0334862  -0.0233363  0.00883358    0.024077  -0.0176723
-0.00345402   0.0187831  -0.0191893  -0.0181632   0.0353303   0.0660424   0.0280589  -0.0143968  -0.0253999  -0.0525207
 -0.0817018   0.0295304   0.0124314   0.0127239    0.037979  -0.0291362 -0.00937207  -0.0905401   0.0644171  -0.0163146
 -0.0328136  0.00141901   0.0260857  -0.0584634    0.012495    0.010882   0.0591757  -0.0392722  -0.0123909   0.0196017
 -0.0100865   0.0176323   0.0575715  -0.0373966  -0.0472943 -0.00413381 -0.00482591 5.43075e-05    0.065781  0.00458067
  0.0285176    0.017411  -0.0311217    0.055289  -0.0162036  -0.0416083  0.00941947  -0.0211782   0.0394669  -0.0088776
  0.0130393  -0.0880208  -0.0383366   0.0287648   0.0231268 -0.00114672   0.0381871   0.0338813   0.0317786  -0.0774543
#
  0.0506266   0.0229698  -0.0163258  -0.0165738   0.0647472  0.00500841   0.0255713  -0.0324821 0.000142461   0.0285091
 -0.0755311  -0.0400077   0.0596756  0.00949487   0.0123807  -0.0418966  -0.0190217   0.0161282   0.0466643  -0.0312092
 -0.0339895  -0.0516058  -0.0609016   -0.025314   0.0059479  -0.0219184  -0.0344806   -0.020375   0.0163709   0.0366471
 -0.0362126  0.00371229   0.0871284   -0.015893   0.0171203    0.013761   0.0423364  -0.0942321   0.0204874  0.00440685
 -0.0139909  0.00606602 -0.00312109  -0.0160368   0.0272011   0.0334174   0.0128398 -0.00346811  -0.0135207  -0.0579471
 0.00574959   0.0227206  0.00241668  -0.0152279 -0.00241922  -0.0529687   0.0282788   -0.026583  -0.0617943 -0.00755176
-0.00993717  -0.0429484   0.0270624 -0.00245527  -0.0269405  -0.0156649  0.00687739  0.00343779  0.00131183   0.0372763
  -0.028673  -0.0121819  -0.0952807   -0.060572   -0.053108   0.0300989  0.00798914   0.0177255  -0.0724144   0.0216066
 -0.0193535   0.0378432  0.00781408  -0.0513585  -0.0161755  -0.0533731   0.0533913  -0.0136693   0.0345154  0.00877314
   0.011872  0.00156585   0.0151297   0.0450987  -0.0121878   0.0463786  -0.0209765  -0.0318772   0.0334506   0.0222487
#
  0.0184914  -0.0140424  -0.0222156  -0.0383471   0.0222659  0.00258029  -0.0518664  -0.0186571   0.0197534  -0.0464812
  0.0121394   0.0201881 -0.00693677   0.0643055   0.0252902    -0.06202  -0.0279876  -0.0314897  0.00865813   0.0497338
 0.00497362   0.0856147    0.042515   0.0241695  -0.0131474  -0.0750402  -0.0154762  -0.0337258   0.0514386  -0.0573493
#
!
<25>:23
   0.0451186   -0.0135597   0.00919696   -0.0461388    0.0844301   -0.0492314   -0.0262491    -0.021735     0.041683
  0.00433472  -0.00426585    0.0162368   0.00185124    -0.028212  -0.00447141   0.00438891    0.0190419   0.00604024
  -0.0570804   -0.0250558   -0.0361962   0.00183935   -0.0230089   0.00580087   0.00348359    0.0463632  -0.00527793
  0.00213225   -0.0453502  -0.00862279   -0.0162349   -0.0187791  -0.00398841     0.018822    0.0410013    0.0121753
   -0.046351  -0.00979327    0.0440168    0.0186162    0.0256824    -0.014849  -0.00474819    0.0590601    0.0339148
  -0.0148439    0.0088658    0.0408003  -0.00858823    -0.025237    0.0761153   -0.0149388    0.0254664       0.0461
   0.0545559    0.0379627    0.0511619   -0.0376118    0.0616369    0.0725062   -0.0256272   0.00765529    0.0381405
  -0.0116265   -0.0364436 -0.000310373   -0.0176741    0.0682641    0.0454849    0.0311177   -0.0405054    0.0408589
  -0.0238501   -0.0239429   -0.0315146   -0.0290154    0.0556306   0.00358422    0.0544612   -0.0240554   -0.0240221
   0.0565989    0.0305513   -0.0252188   -0.0372501    0.0287868    0.0154299    0.0103545   -0.0302763    0.0578168
#
  0.0183597  -0.0080607 -0.00585289  -0.0078675   0.0533357  -0.0208532   0.0188295  -0.0341993  0.00998149   0.0309758
  0.0465573  0.00474393   0.0203129 -0.00958144  -0.0466632  0.00210765  -0.0052736  -0.0484291   0.0120786 -0.00695567
-0.00120444   0.0636273 -0.00651533   0.0507125  0.00768015   0.0382475 -0.00662281  -0.0230049   0.0348445 -0.00334942
 -0.0185845   0.0118904  -0.0112496  -0.0411966 -0.00466781  -0.0109072 -0.00627968   0.0146066   0.0210841 -0.00450601
  0.0112022   0.0143794 -0.00162302  0.00915177   0.0594477   0.0560244   0.0472714  -0.0302894  -0.0303354  -0.0478934
 -0.0610392  0.00431698  0.00953364  0.00771478   0.0591642  -0.0378483   -0.020966  -0.0776724   0.0723454  -0.0271755
 -0.0299476  0.00181468   0.0174995  -0.0763828  -0.0202062  0.00770087   0.0373608  -0.0435154  0.00833718   0.0193306
 -0.0240879   0.0349333   0.0516645  -0.0275532  -0.0307298   0.0211579  -0.0120817   -0.022536   0.0521083   0.0040184
  0.0195732  0.00978341  -0.0201499   0.0474176 -0.00964092  -0.0392654  0.00939982  -0.0183126    0.051232 -0.00764935
  0.0249813   -0.111937  -0.0309867   0.0279532 -0.00739625  -0.0183283   0.0286705  0.00597088   0.0128396  -0.0808484
#
   0.0581563     0.014396   -0.0268409   -0.0278095    0.0763767   -0.0118163     0.023551    -0.015079    0.0309019   0.00903808
   -0.051986   -0.0238263    0.0585668    0.0259827    0.0451361   -0.0338018   -0.0336452   0.00457732    0.0438309    -0.021019
  -0.0203622    -0.054055   -0.0755725  -0.00364446   0.00565649   -0.0245913   -0.0408601   -0.0310659    0.0169236    0.0443834
  -0.0359291   0.00962335    0.0571615   -0.0444823    0.0208453   0.00805298    0.0456723    -0.079598     0.025293   0.00853314
 -0.00968525   0.00820494  7.79554e-05   -0.0121353    0.0289742    0.0247154    0.0259773   0.00387696    0.0131651   -0.0518272
  0.00347908    0.0157279    0.0128433    -0.018874   0.00857016   -0.0655948    0.0302915   -0.0182274   -0.0475359  -0.00537947
 -0.00846946   -0.0466286    0.0275661    0.0121958  -0.00206921   -0.0270911   -0.0132284    0.0124997  -0.00472232     0.024087
  -0.0285243   -0.0307542   -0.0820225   -0.0716163   -0.0523239    0.0381738      0.01886   0.00331473   -0.0834992   -0.0136329
 -0.00729826    0.0242643   0.00569288   -0.0271822   -0.0371063    -0.055132    0.0628059  -0.00589461     0.027607    0.0292332
   0.0241882 -0.000389711    0.0220272   0.00652774   -0.0182347    0.0390672   -0.0229153   -0.0275166    0.0426841    0.0286644
#
  0.0212816  -0.0153293  -0.0368781  -0.0138349 -0.00530125 -0.00440518  -0.0308821 -0.00810863   0.0160868   -0.055137
 0.00889927   0.0117961 -0.00516679   0.0727028   0.0261136  -0.0588333  -0.0327445  -0.0214848 -0.00988968   0.0389917
   0.012932   0.0740171   0.0479096     0.01378 -0.00377863  -0.0834012 -0.00733537  -0.0441407    0.043645  -0.0379051
#
!
<26>:23
   0.0426921  -0.00483298    0.0104745   -0.0303464    0.0880001   -0.0593659   -0.0271639   -0.0238054     0.028519
-0.000605374   0.00303636    0.0311915  -0.00639134   -0.0298548   0.00701357    -0.012326    0.0317316   0.00345156
  -0.0643889   -0.0335554   -0.0334787  -0.00669474  -0.00692457   0.00817163     0.019339    0.0517755    -0.015564
  -0.0125892   -0.0308644   -0.0134451   -0.0157949   -0.0273606    0.0158707    0.0186921     0.025722 -0.000850484
  -0.0526436   -0.0243888    0.0577278    0.0153153     0.025442   -0.0181295   -0.0143155    0.0422833    0.0342498
  0.00486906    0.0376956    0.0346177   -0.0178551     -0.02383    0.0824773   -0.0176816    0.0230907    0.0424887
   0.0443524    0.0136879    0.0409428   -0.0283357    0.0626147    0.0573754   -0.0254593    0.0246973    0.0441637
  -0.0134873    -0.030775   0.00274967    -0.026137    0.0644781    0.0324562    0.0466847   -0.0403231    0.0379044
 -0.00667491   -0.0464858   -0.0462574    0.0126011    0.0667676   -0.0306364    0.0518708  -0.00286098   -0.0280263
   0.0542994    0.0264741   -0.0373345   -0.0319922     0.051281   -0.0172223  -0.00198018   0.00293838    0.0458098
#
  0.00234664  -0.00164572  -0.00826297   0.00563747    0.0397862   0.00754337    0.0160645   -0.0146652  -0.00342106    0.0273066
   0.0382703   0.00188857    0.0172405  -0.00492344    -0.053363   -0.0229403   -0.0177654    -0.056522   0.00360612  -0.00739286
  -0.0121827    0.0713678   0.00580744    0.0375767    0.0157665    0.0415719   -0.0242206   -0.0158974    0.0409622   -0.0136108
  -0.0385949    0.0208583  -0.00354032   -0.0494558  -0.00153614    -0.017584  6.90196e-05    0.0172118    0.0262591   -0.0173638
   0.0101723    0.0126918    0.0109119  -0.00360459     0.028069    0.0873484    0.0469839   0.00114894   -0.0173165   -0.0392976
  -0.0654058    0.0260821     0.011163    0.0227306    0.0495483   -0.0191538   -0.0203861   -0.0898048    0.0566455   -0.0219318
  -0.0372148    0.0117585   -0.0021058   -0.0681604   -0.0171376  -0.00305663    0.0451625   -0.0425127   0.00456415    0.0249327
  -0.0289743     0.019892    0.0747743   -0.0360955   -0.0404472  -0.00380735    0.0018332 -0.000790546    0.0668886    0.0207306
   0.0133475  -0.00258897   -0.0442064    0.0641886   -0.0174954   -0.0411183     0.022159   -0.0339224    0.0557802   -0.0078162
   0.0232575    -0.108432   -0.0330978    0.0233016   0.00126291    -0.022998    0.0304538   0.00322088    0.0316718    -0.066456
#
   0.0541582   0.00791644    -0.005674   -0.0362775    0.0771202   -0.0217396    0.0345643  0.000346762  0.000715482    0.0290488
  -0.0660222   -0.0352857    0.0640114    0.0208445    0.0276376   -0.0312468   -0.0156444    0.0153466    0.0377829   -0.0357043
   -0.017035   -0.0599396   -0.0667931   -0.0279703    0.0151677   -0.0307977   -0.0264219   -0.0133285    0.0172931    0.0336665
  -0.0391083   0.00844886      0.07563    -0.020824    0.0280713    0.0183572    0.0408014   -0.0965074   0.00937664   -0.0169281
  -0.0330829   0.00567268  -0.00158107  -0.00663432     0.019926    0.0350523    0.0189863    0.0117276 -0.000268282   -0.0534902
 -0.00196122   0.00193601    0.0029433  -0.00731497  -0.00672978   -0.0630087    0.0246643   -0.0381577   -0.0540264   0.00480534
  0.00954483   -0.0600988    0.0192521   -0.0175479   0.00114269   -0.0194157  -0.00612835    0.0107079  -0.00150578    0.0319629
  -0.0420642   -0.0166652   -0.0845912   -0.0575988   -0.0435672     0.032605    0.0172378    0.0123916   -0.0593197  -0.00851899
  -0.0237179    0.0194178 -0.000501778   -0.0419254   -0.0149674    -0.069144     0.061658    -0.028527    0.0362554   0.00943075
   0.0157973  -0.00258701    0.0118482    0.0241112   0.00142401    0.0533191   -0.0304097   -0.0343358     0.045488    0.0204797
#
    0.023903    -0.018294  -0.00103051   -0.0319105    0.0228176 -0.000553173   -0.0277274  -0.00587263    0.0308657   -0.0318094
   0.0128831    0.0142157  -0.00769718    0.0818361    0.0395946    -0.064016   -0.0374955   -0.0375933    0.0187762    0.0392102
 -0.00910856     0.070748     0.063747    0.0452598   0.00179935   -0.0602571   -0.0169956   -0.0169445    0.0338071   -0.0487188
#
!
<29>:23
   0.0311013  -0.00728527  -0.00630796   -0.0267443    0.0944213   -0.0561769   -0.0229598   -0.0240759    0.0240855
   0.0102234   0.00874363     0.018233    0.0094056   -0.0462911    0.0142612  0.000273749     0.044583   0.00471812
  -0.0626853   -0.0256992   -0.0240954  -0.00346207   -0.0127548   0.00194242   -0.0104339    0.0536338    -0.004206
   -0.024573   -0.0147403  -0.00559732   -0.0140697   -0.0423925   0.00360564     0.013917    0.0212143  -0.00704332
  -0.0512253   -0.0142744    0.0348337    0.0285159    0.0260819   -0.0250371     -0.00853     0.053171    0.0404352
  -0.0156333  -0.00157714    0.0372706   -0.0287272   -0.0227246    0.0679011   -0.0375421   0.00943059    0.0439384
     0.03907    0.0238218    0.0470685   -0.0448049     0.061918    0.0477633  -0.00530996   0.00298172    0.0513182
 -0.00322151   -0.0319255   -0.0130581   -0.0132346    0.0605015    0.0283671    0.0583263   -0.0560004    0.0391818
  -0.0191234   -0.0545234    -0.024863  -0.00768382    0.0524622   -0.0178546    0.0588652  -0.00604013   -0.0204837
   0.0381257    0.0132062   -0.0447336   -0.0316341    0.0111457   0.00127508   0.00860719 -0.000933085    0.0462252
#
  0.00717941  -0.00280795  0.000204793   -0.0171556    0.0418563    0.0121751    0.0161784   -0.0206282    0.0101623    0.0209972
   0.0350188  0.000546446    0.0114388   -0.0161177   -0.0499265  -0.00373123  -0.00790805   -0.0437802  5.71543e-05   -0.0022041
  -0.0110441    0.0487563  -0.00982081    0.0402128      0.00728    0.0369841   -0.0178817   -0.0207693    0.0226965   -0.0145391
   -0.030741    0.0225475  -0.00655839   -0.0447937   -0.0122426   -0.0113733   -0.0149131    0.0130087    0.0270662   0.00058768
 -0.00122058    0.0361414   -0.0229834   0.00421275    0.0435935    0.0841044    0.0396381    -0.021051   -0.0336872   -0.0438911
  -0.0680283    0.0321015   -0.0171273   0.00456355    0.0493405   -0.0245106   -0.0256526   -0.0975552    0.0642144   -0.0101233
  -0.0382789    0.0159132   0.00964658   -0.0784578  -0.00700397   0.00120279    0.0465677   -0.0229605    0.0121591      0.01136
  -0.0352451    0.0159709     0.055553    -0.041716   -0.0356633  -0.00133775   0.00160552   -0.0113933    0.0684831  -0.00324811
   0.0223175   0.00647933    -0.016527    0.0438209    0.0119219   -0.0266502    0.0171067   -0.0153258    0.0486438 -0.000587983
   0.0263098   -0.0955872   -0.0233611    0.0292325    0.0161332  -0.00118223    0.0300949    0.0190701    0.0324504   -0.0784108
#
  0.0430264   0.0105068  -0.0110339 -0.00735449   0.0638767  -0.0200419   0.0221137  -0.0464904  0.00336162   0.0158854
 -0.0570036  -0.0330225   0.0731794  0.00783158   0.0361768  -0.0613664 -0.00592226   -0.011087   0.0442665  -0.0163638
 -0.0158598  -0.0436899   -0.053876  -0.0153866   0.0326623  -0.0265461  -0.0259162   -0.013541   0.0432659   0.0201089
 -0.0266428  0.00207021   0.0699194  -0.0336321    0.042954   0.0255854   0.0364209  -0.0831428  0.00924495 -0.00493897
 -0.0383457  0.00340234 -0.00743209  -0.0113036   0.0261156   0.0321724  -0.0068229    0.018035  0.00898112  -0.0655944
 0.00752675  0.00640612   0.0222003  0.00725223 -0.00880063  -0.0762794   0.0231302  -0.0291995  -0.0628267  -0.0175144
 -0.0141118  -0.0592609   0.0391291  -0.0135543 -0.00213247 -0.00928912   0.0133676 -0.00134729   -0.021646   0.0266267
 -0.0128436  -0.0174576  -0.0848057  -0.0681846  -0.0608898   0.0340002   0.0296838 -0.00510268  -0.0581765 -0.00942082
 -0.0164891   0.0216495 -0.00416405   -0.029009  -0.0202991  -0.0384496   0.0467439  -0.0139705   0.0433758  0.00228902
  0.0252619  -0.0216572   0.0114188   0.0158795  -0.0254513   0.0442134  -0.0313188   -0.019317   0.0335197   0.0033124
#
  0.0268456  -0.0218306 -0.00329675  -0.0215102 -0.00816577  -0.0123437  -0.0199849  -0.0218868   0.0289699  -0.0213082
0.000377309   0.0102198  0.00891943   0.0717071   0.0332237  -0.0705708  -0.0400354  -0.0122389  0.00069511   0.0460123
  0.0100001   0.0721039    0.050618   0.0268272  -0.0253422  -0.0637146   -0.016749  -0.0316451   0.0233439  -0.0369789
#
!
<39>:22
   0.0375679  -0.00126564  -0.00810279   -0.0364159    0.0878336   -0.0430232   -0.0239289   -0.0220249    0.0264596
   0.0137338    0.0113337    0.0207829  -0.00267084   -0.0326564    0.0239186    0.0115958    0.0226507   -0.0087582
  -0.0559753    -0.015867   -0.0339122  0.000144775   -0.0281137  -0.00428804    0.0048694    0.0579624  -0.00972995
 -0.00057095   -0.0150473    0.0023598   -0.0263176   -0.0507919   0.00619968   0.00519084    0.0460265  -0.00423694
  -0.0638222   -0.0152387    0.0479801   0.00699976    0.0123385   -0.0173714   -0.0268472    0.0512172    0.0403412
  0.00102464    0.0151459     0.055095 -0.000460591   -0.0250111    0.0638981   -0.0345059   0.00679876    0.0476991
   0.0383737     0.023611    0.0472921   -0.0462861     0.058441    0.0512568  -0.00863121  -0.00942482    0.0434649
  -0.0146973   -0.0246777  -0.00736621   -0.0154022     0.043248    0.0425311    0.0486805   -0.0572864    0.0307881
  -0.0381785   -0.0404089   -0.0396221  -0.00833104    0.0438113   0.00949162    0.0586299   -0.0173677   -0.0274625
   0.0492781    0.0314782   -0.0334497   -0.0470345    0.0273625   0.00540651  -0.00693298   -0.0143691    0.0358365
#
   0.0227939   -0.0127996  -0.00360713  0.000444895    0.0511308    0.0163172   0.00794919    -0.014362 -0.000772333    0.0326777
   0.0265628   -0.0128979  -0.00486695  -0.00256317   -0.0381513    0.0162164   -0.0168093   -0.0448293  -0.00773649   -0.0233041
 -0.00843241    0.0830873   -0.0102145     0.035076  -0.00868934    0.0658121    -0.038167   -0.0294023    0.0424405  -0.00522162
 -0.00732905    0.0272486   0.00951734   -0.0569506  -0.00107423   -0.0359586   -0.0281423   0.00511706    0.0286544   -0.0368076
  0.00313996   0.00212646 -0.000441391   -0.0131001    0.0288718    0.0692281    0.0658368   -0.0197631   -0.0215595    -0.028856
  -0.0812454   0.00979885   0.00149174    0.0164289    0.0370521   -0.0306902   -0.0145653   -0.0847113    0.0593648   -0.0205458
  -0.0426615   0.00900551    0.0274663   -0.0566546    0.0100076  -0.00390176    0.0484575   -0.0278926     0.019727    0.0161283
  -0.0568372   0.00223028    0.0475377   -0.0471473   -0.0163603   0.00605026    0.0292463   -0.0208535    0.0509762    0.0223306
   0.0160793    0.0139591   -0.0422452    0.0648436   -0.0224256   -0.0270816    0.0121379   -0.0282032    0.0593452   0.00638163
   0.0220771    -0.106423   -0.0295022    0.0154407   0.00979096   -0.0190148    0.0457515    0.0266168    0.0302255    -0.072025
#
   0.0624814   0.00689783  -0.00621001   -0.0257195    0.0790476  -0.00935886    0.0225407   -0.0242931   -0.0109178    0.0218149
  -0.0607524   -0.0420766    0.0760735     0.026066    0.0239476   -0.0360936   -0.0147055  0.000234714    0.0330323   -0.0269776
  -0.0282463   -0.0576203   -0.0741932  -0.00652742    0.0293977  -0.00789439    -0.034943   -0.0231125    0.0249996    0.0393466
  -0.0504556    0.0263416    0.0817039   -0.0255522       0.0426    0.0143903    0.0505082   -0.0757857   0.00750078    0.0166743
 -0.00740061    0.0160725   -0.0178052   -0.0374759    0.0142442    0.0462994 -0.000906549    0.0308261  0.000112362   -0.0443245
   0.0190437    0.0028005    0.0119684  -0.00255822   -0.0142818   -0.0676306    0.0269479   -0.0179713   -0.0746631   0.00255788
 -0.00199882   -0.0563612    0.0312751    0.0167789   0.00975328 -0.000612318   0.00384615 -0.000849839  -0.00447022    0.0198709
  -0.0156094   -0.0119224   -0.0638149   -0.0607781   -0.0457486    0.0309818   0.00237138   0.00126715   -0.0801848   0.00726107
  -0.0148584    0.0257921    0.0138444   -0.0259191   -0.0214351   -0.0505811    0.0440233   -0.0113185    0.0265696   0.00460669
   0.0100309   -0.0093873  -0.00640421    0.0325005   -0.0268583    0.0335341  -0.00447195   -0.0317203     0.023075    0.0164203
#
  0.0237659  0.00134103  -0.0272182   -0.044273  0.00102353   0.0171465  -0.0449915   0.0026077   0.0161282  -0.0476969
  0.0017098    0.013301 -0.00203865   0.0668584   0.0241074  -0.0476059  -0.0455124   -0.016915  0.00403039   0.0613438
 0.00243282   0.0725642   0.0484115   0.0381954  -0.0510432  -0.0562923 -0.00876155  -0.0402876   0.0178588  -0.0337444
#
!
<28>:22
    0.037074   -0.0263276  -0.00377708   -0.0321023     0.079038    -0.058586   -0.0287165   0.00353639    0.0218184
 -0.00972037  0.000433118    0.0414518   -0.0110683   -0.0379486  -0.00101705  -0.00127934    0.0226609   0.00907304
  -0.0454807   -0.0397977    -0.024158  0.000902647   -0.0156578    0.0233166 -0.000281686    0.0576066   -0.0107594
  0.00328479   -0.0353168  -0.00523289  -0.00406519   -0.0383062   -0.0192176    0.0152418    0.0212883   -0.0195632
  -0.0525212   0.00363676    0.0318913    0.0239432   0.00359788   -0.0103464   -0.0242395    0.0267095     0.037947
   0.0147095   0.00951983    0.0186779   -0.0199705    -0.019908    0.0471491   -0.0393388    0.0209624    0.0491771
   0.0405886    0.0221887    0.0304856   -0.0313372    0.0631197    0.0408487   -0.0121784     0.014986    0.0187571
   0.0137262   -0.0236902   -0.0180898   -0.0188149    0.0628654    0.0364355     0.039698   -0.0570035    0.0162225
   -0.023263   -0.0308453   -0.0498089    0.0264555    0.0524046  0.000944708    0.0356162  -0.00739588  -0.00508178
   0.0608097    0.0514966   -0.0353806   -0.0352442    0.0310202   0.00442202    0.0155707   -0.0206747    0.0285455
#
   0.0102081   0.00797908   0.00298111  -0.00191164    0.0347918     0.012107    0.0245154   -0.0116057  -0.00866196    0.0101483
   0.0327197   -0.0046607    0.0146027  -0.00615827   -0.0430804    0.0307295   -0.0158584   -0.0568437   -0.0174417   0.00186521
  -0.0206044    0.0606481    -0.012153    0.0359865   0.00214943    0.0618387   -0.0256424   -0.0293011    0.0463019   -0.0200678
   -0.028862    0.0203632   -0.0257892   -0.0509334  0.000555133   -0.0252435   -0.0286166    0.0178261    0.0182418   0.00590397
  0.00576315    0.0187313    -0.022982   0.00395435    0.0393773    0.0649676    0.0519185   -0.0355952    0.0112387   -0.0498696
  -0.0503915    0.0122995    0.0138357    0.0068664     0.036495   -0.0397866   -0.0190871   -0.0872243    0.0606711   -0.0400866
  -0.0362916  0.000236813    0.0163618   -0.0884283  -0.00740036  -0.00505062    0.0383027    -0.030304    0.0101407     0.024426
  -0.0295305   0.00663456    0.0658599    -0.034299   -0.0315418  -0.00128908  -0.00764784   -0.0221156    0.0625047   0.00383307
   0.0199992   0.00916187   -0.0298519    0.0490027 -0.000586034   -0.0156194    0.0191864   -0.0296274    0.0674644   -0.0180543
  0.00980959   -0.0741193   -0.0482244    0.0214145  -0.00401732  -0.00901743     0.024213    0.0222207    0.0222487   -0.0772249
#
   0.053884   0.0108763  -0.0109058  -0.0277909   0.0480445  -0.0343456   0.0206049  -0.0268928   0.0130501   0.0336992
  -0.076267   -0.051177   0.0626411   0.0060769  0.00557921  -0.0193138  -0.0189428  0.00273026   0.0261154  -0.0236127
 -0.0136807  -0.0578088  -0.0463371  -0.0146701  0.00983418  -0.0208458  -0.0295852  0.00117515   0.0233192    0.055795
 -0.0353018  -0.0093967   0.0597481 -0.00726614   0.0315193   0.0225808   0.0384573  -0.0822684   0.0203047  -0.0184444
-0.00855917   0.0141057  -0.0183251  -0.0245446  0.00876444     0.05359 -0.00379574   0.0157734   -0.011458  -0.0269795
0.000977634   0.0203887  0.00738117 -0.00371766  -0.0374838  -0.0407879   0.0352125  -0.0350868  -0.0602482  -0.0218058
 -0.0161314  -0.0576914   0.0355969 0.000501845  0.00416213 -0.00605071  0.00654068 -0.00668504  0.00172105   0.0578169
  -0.010703  -0.0171249  -0.0916321  -0.0407331  -0.0572869  0.00627722   0.0320087  0.00468022   -0.081264 -0.00451807
 -0.0121435   0.0461321  -0.0203534  -0.0221391  -0.0338048  -0.0471557   0.0394661  -0.0049297   0.0247634 0.000975171
   0.041039  0.00117194  0.00545265  0.00587173  -0.0231158   0.0297865  -0.0434641  -0.0193876   0.0360798  0.00482145
#
  0.0324354 -0.00765759  -0.0205707  -0.0164869   0.0134894 -0.00994659  -0.0109905 -0.00801807   0.0317439   -0.021011
 0.00143434  -0.0172272  0.00412696   0.0782846   0.0176684  -0.0515675  -0.0645198   -0.018544 -0.00190634   0.0614614
-0.00594269   0.0638051   0.0655901   0.0277256   -0.011874  -0.0490345   -0.006364  -0.0348271   0.0399315   -0.028087
#
!
<35>:22
  0.0261217  -0.0170998  -0.0161535  -0.0509276   0.0939092  -0.0727064  -0.0221386 -0.00937513    0.014315
   0.021539  0.00194777   0.0466772  -0.0142775  -0.0204504 -0.00280153  -0.0194591   0.0340159 -0.00719026
 -0.0726843  -0.0174715   -0.047178   0.0133135 -0.00444769   0.0197376  0.00473942   0.0473868  0.00809877
 -0.0236115  -0.0207219   0.0166615   -0.012349  -0.0446439  0.00359082   0.0277869   0.0432522  -0.0115569
 -0.0578499   -0.025497   0.0346197   0.0244134  0.00443682 -0.00814828  -0.0306532   0.0235149   0.0257825
-0.00172779   0.0205141   0.0176871  -0.0421151  -0.0141566   0.0301871  -0.0225443   0.0238302   0.0257191
  0.0390922   0.0116149   0.0344791  -0.0382802   0.0774672   0.0376596  -0.0131734   0.0316587   0.0188485
 -0.0144849  -0.0335488  0.00457415  0.00351428    0.073852   0.0398372   0.0370867  -0.0469572   0.0277899
 -0.0196413  -0.0199047  -0.0418876 0.000505686   0.0474656 -0.00499355   0.0523304   -0.018166  -0.0323319
    0.07269   0.0285571  -0.0227705 -0.00702189   0.0317044 -0.00468006  -0.0226839  -0.0198925   0.0404713
#
 -0.00137059   0.00365425   0.00655275    0.0227009     0.013191    0.0255787   0.00572214   0.00954296   -0.0186003     0.029725
   0.0497218 -0.000314601    0.0138152  -0.00807103   -0.0390095    0.0257746  -0.00534747   -0.0617385   -0.0094545   -0.0324608
  -0.0243351    0.0705083   -0.0211571    0.0380339  -0.00349483    0.0567138   -0.0128605   -0.0125553    0.0364544   -0.0100564
   -0.032416    0.0171931  -0.00530167    -0.026259 -0.000606307  -0.00447942   -0.0313299    0.0181293    0.0155963  -0.00942109
   0.0089659    0.0236853   0.00811242   0.00708272    0.0210755     0.046427    0.0273736   -0.0372046   -0.0244338    -0.049366
  -0.0767385   0.00621679  0.000115659  -0.00526258    0.0509643    -0.016469   0.00139223   -0.0746727    0.0482998   -0.0382727
  -0.0657202 -0.000740023  -0.00590986    -0.087675    -0.013626  -0.00347402    0.0284968   -0.0324645   0.00236127   0.00492878
 -0.00743639    0.0190661    0.0293601    -0.040238   -0.0324379  0.000526579  -0.00287692   -0.0243679    0.0709991   0.00456694
   0.0147872    0.0149359   -0.0111354    0.0717394   -0.0116196   -0.0282282  -0.00829888   -0.0166205    0.0556914   -0.0135003
  0.00358118    -0.090288   -0.0388522    0.0337124  -0.00614197  -0.00527138    0.0256715    0.0375757   0.00831085   -0.0550855
#
  0.0345198 -0.00140474   -0.011966  -0.0243529   0.0680403  -0.0122528   0.0310821  -0.0137216  0.00331842    0.029011
 -0.0807654  -0.0489781   0.0719044 0.000328185  0.00159288  -0.0136965 -0.00849109   0.0112285   0.0374552  -0.0458403
-0.00985919  -0.0624522  -0.0731414  -0.0271598   0.0114291  -0.0400544  -0.0335704   0.0101807   0.0424587   0.0287403
 -0.0214774   0.0013023   0.0676869  -0.0113284   0.0168675    0.039695   0.0340639  -0.0847681 -0.00535483  -0.0127475
-0.00880872  0.00664472 -0.00721821 -0.00104325    0.014569    0.033936  0.00883343  0.00531097 -0.00390472  -0.0504983
  0.0199572   0.0155784 -0.00448453  0.00403423  -0.0373598  -0.0446204   0.0389551  -0.0286276  -0.0640359  -0.0336981
-0.00848693  -0.0593496    0.028217  -0.0236116  -0.0041826  -0.0104505   0.0274403  0.00404619  -0.0100602   0.0266526
 0.00365777  -0.0185415  -0.0962716   -0.037917   -0.045266  0.00843274   0.0401856  0.00550252  -0.0787755   0.0123944
 -0.0252048   0.0430535   0.0178108  -0.0312616   -0.027803    -0.02915   0.0351767 -0.00839335    0.022413  0.00910605
  0.0358814  -0.0111631  0.00444512   0.0150891  -0.0144466   0.0447871  -0.0291087  -0.0277682   0.0366853  0.00648353
#
  0.0303365   0.0199571 -0.00871007  -0.0235826  0.00144048  -0.0179618  0.00253513  -0.0309421   0.0240433  -0.0380613
 -0.0139416  -0.0209219   0.0216903   0.0890405   0.0162614  -0.0799737  -0.0463837  -0.0322982 -0.00499182   0.0436346
 0.00466927   0.0708015   0.0657192   0.0347489   -0.039504  -0.0695269   -0.024954  -0.0231849   0.0651892  -0.0341437
#
!
<31>:22
   0.025737  -0.0107602  -0.0075334  -0.0317065   0.0709932  -0.0475887  -0.0102355  0.00119321   0.0128273
  0.0130706  0.00785795   0.0272585  -0.0192201  -0.0387366  0.00671492 -0.00659909   0.0181857  0.00245898
 -0.0642026  -0.0134042  -0.0319179   0.0124007  -0.0123912   0.0161129  0.00214177   0.0515776 -0.00831221
 -0.0107312  -0.0165401   0.0200257 -0.00655112  -0.0408366  0.00347957   0.0203164    0.027915 -0.00123328
 -0.0666149  -0.0156754   0.0368518   0.0107951    0.021943  -0.0136526  -0.0389354   0.0348766   0.0254618
-0.00563613   0.0125728   0.0252848  -0.0137932  -0.0205715   0.0374019  -0.0317894   0.0109372   0.0518472
  0.0496965   0.0319948   0.0428884  -0.0249922   0.0615701   0.0532075  -0.0212371     0.01565   0.0271306
 -0.0232741  -0.0251245 -0.00829213  -0.0118641   0.0603526   0.0092938   0.0382071  -0.0431606   0.0280495
 -0.0287124  -0.0274221  -0.0228167 -0.00797987   0.0304254  -0.0157245   0.0457199  -0.0158935  -0.0301226
  0.0513071   0.0262031   -0.033266  -0.0252692    0.035377  0.00259644  -0.0063172  -0.0183779   0.0461734
#
  0.0110732  0.00993063 -0.00793599  0.00631204   0.0314997  0.00354366  0.00805062  -0.0134073  -0.0248778   0.0300668
  0.0428369  -0.0141407  0.00355495   0.0133276  -0.0342245   0.0350738 -0.00693829  -0.0670316  0.00370293 -0.00436623
  -0.019794   0.0607682 -0.00553405   0.0459132   -0.011421   0.0533216  -0.0167583  -0.0227909   0.0324887  -0.0115507
 -0.0271302   0.0364877 0.000224039  -0.0411131  -0.0108626  -0.0128788  -0.0232504   0.0187259 -0.00212828   0.0137193
-0.00421217 0.000640765 -0.00572337  -0.0121775   0.0437009   0.0530037   0.0508051  -0.0218884  -0.0137002  -0.0482635
 -0.0671546   0.0152775  0.00432387   0.0122385   0.0475939  -0.0217485 0.000770451  -0.0847598   0.0408156  -0.0459643
 -0.0446319  0.00413844   0.0211314  -0.0888103  -0.0226293 -0.00123125   0.0209653   -0.034786  0.00974756   0.0302922
 -0.0177573  0.00590938   0.0503006  -0.0531718  -0.0329189  -0.0153351  -0.0197676  -0.0143721   0.0667331 -0.00206013
-0.00759795  0.00317103  -0.0367864   0.0520539  0.00185591  -0.0136549   0.0109947  -0.0219127   0.0689935 -0.00230253
  0.0102921  -0.0760756  -0.0552522   0.0424061 -0.00748686  -0.0248843   0.0423177    0.027266   0.0318291  -0.0559374
#
   0.0504998    0.0196999   0.00047434  -0.00155217    0.0400637   -0.0210108    0.0259391   -0.0234107   0.00827111    0.0228067
  -0.0578504   -0.0375949    0.0802172  -0.00482867    0.0149597   -0.0315323   -0.0102224    0.0176056    0.0232381   -0.0350937
  -0.0175522   -0.0493876   -0.0643315   -0.0265264    0.0125357   -0.0317557   -0.0366801  -0.00178244    0.0428894    0.0513298
  -0.0285168    0.0151879     0.070695   -0.0277422    0.0110324    0.0420622    0.0389467   -0.0693007   0.00188069   -0.0117186
  0.00562934    0.0110015    -0.027687   -0.0307804    0.0114784    0.0390373   0.00467498   0.00617679   -0.0228438   -0.0551712
   0.0155931    0.0140002     0.016816  0.000432162   -0.0207804   -0.0299127   0.00855492   -0.0282882   -0.0703057   -0.0225426
  -0.0060369   -0.0556001     0.042456  -0.00743126   -0.0120592   -0.0109476    0.0290263   0.00196739     0.025384    0.0297229
 -0.00196748  -0.00990265   -0.0989223   -0.0475119    -0.041192    0.0174825    0.0331084    0.0124427   -0.0756689   -0.0171548
  -0.0368983    0.0286901 -0.000246429   -0.0415126  -0.00445353   -0.0347168    0.0413284   -0.0207182    0.0280396  -0.00439796
   0.0240137   -0.0114334    0.0191741     0.014476   -0.0030855     0.045902   -0.0243276   -0.0163092    0.0229698    0.0192389
#
   0.0149667   0.00100663   -0.0108651   -0.0369186    0.0173767 -0.000732745   -0.0199218  -0.00525597    0.0275563   -0.0375898
 -0.00954187  -0.00375867    0.0168685    0.0766329    0.0111792   -0.0627117    -0.057975   -0.0250104   -0.0205889    0.0459799
  0.00186536    0.0520679    0.0539607    0.0144452   -0.0155105   -0.0547379  -0.00833608   -0.0159079    0.0555287   -0.0428487
#
!
<27>:22
   0.0330571   0.00642417   -0.0219285   -0.0412896    0.0886706   -0.0442576   -0.0234656   -0.0302218     0.048562
 -0.00118881   0.00216584   0.00256572   0.00466731   -0.0332104    0.0206044   0.00915101    0.0437043 -0.000890814
  -0.0639063  -0.00421726   -0.0302284   0.00463932  -0.00081419    0.0021046    0.0219666    0.0577205    -0.009478
 -0.00980383   -0.0214001    0.0052181  -0.00350484   -0.0150625   0.00995698   0.00987658    0.0263488     -0.01514
  -0.0585072 -0.000477818     0.030686    0.0297462    0.0299803   -0.0176356    -0.011378    0.0494499    0.0327671
  -0.0217852    0.0149698    0.0291185   -0.0106719   -0.0185832    0.0528794   -0.0376655  -0.00458663    0.0393917
    0.049307    0.0167207    0.0467004   -0.0571028    0.0612736    0.0421312  -0.00456506   0.00407003    0.0467104
  -0.0246637   -0.0266211   -0.0135298   -0.0188418     0.065312    0.0272039    0.0558268   -0.0414598    0.0270875
  -0.0223813   -0.0243403  -0.00632784   -0.0150093    0.0748305  -0.00604941    0.0438339   -0.0165312   -0.0133578
   0.0430381    0.0393618   -0.0379577   -0.0484648    0.0334963   0.00209168   -0.0278034  -0.00692454    0.0325877
#
  0.00236138   -0.0105842   -0.0268677   -0.0160625    0.0490144 -0.000129015   0.00812544    -0.016731  -0.00775296    0.0287111
   0.0477008  0.000182517    0.0229043  -0.00705112   -0.0404261  -0.00362463   0.00639694   -0.0370183  -0.00810926   -0.0258294
  0.00541219    0.0626598   0.00161064    0.0352188     0.012423    0.0622259   -0.0256068   -0.0354748    0.0324598   0.00062469
  -0.0233189    0.0211881    -0.018146   -0.0503948   0.00757018   -0.0275155   -0.0137985    0.0198333  -0.00165283   0.00124912
  -0.0132866    0.0104118  -0.00684096   -0.0108169    0.0402089    0.0786266    0.0333988     -0.01549   -0.0299481   -0.0302753
  -0.0574688    0.0298676   0.00524165   0.00771811    0.0591687   -0.0407391   -0.0252144   -0.0997499    0.0725503   -0.0363028
  -0.0461879    0.0128549     0.029406   -0.0845627    -0.016032   0.00345714    0.0352468   -0.0282022   0.00579844    0.0322356
   -0.025563    0.0185977    0.0532979   -0.0212394   -0.0240137   0.00377485   -0.0188532   -0.0101057    0.0412152   0.00806739
   0.0111911   0.00402248   -0.0457331    0.0570775   -0.0201451   -0.0218939    0.0208809   -0.0160994    0.0444559   -0.0131702
   0.0165082   -0.0992021   -0.0425684    0.0204562    0.0116704   -0.0280625    0.0250365    0.0410781    0.0228187   -0.0876981
#
   0.0609634   0.00833989   -0.0120911   -0.0271055    0.0682141  -0.00270928     0.024484    -0.031712  -0.00592311    0.0153755
  -0.0676812   -0.0406982    0.0698283    0.0105739    0.0190069    -0.038214   -0.0217014  -0.00610806    0.0395805  -0.00351948
   -0.028418   -0.0484601   -0.0593099   -0.0173408   0.00958404   -0.0255749    -0.025471    -0.017328    0.0286082    0.0186889
  -0.0297811    0.0221039    0.0819563   -0.0267974    0.0390329    0.0151581     0.038469   -0.0873174    0.0124323  -0.00865894
  -0.0242634    0.0139356    0.0020047   -0.0344207     0.026525     0.028328    0.0236533    0.0235647 -5.34935e-05    -0.040566
 0.000504546    0.0111728    0.0100193   -0.0129121   0.00897915   -0.0406048    0.0471962   -0.0302914   -0.0632178   -0.0227392
  -0.0084634   -0.0646337    0.0388492  -0.00414493  -0.00640595   0.00501977   0.00158034   -0.0187522  -0.00910618    0.0330576
  -0.0210574   -0.0118398   -0.0872006   -0.0376523   -0.0563084    0.0223349    0.0134721    0.0168261   -0.0820221   0.00259472
  -0.0174194    0.0338735    0.0083169   -0.0484721   -0.0222078   -0.0673539     0.045255   -0.0259233    0.0209093    0.0139533
   0.0171573  -0.00227094   0.00181833    0.0140902   0.00724632    0.0386055   -0.0153404   -0.0158941    0.0237865    0.0200156
#
  0.0260968  -0.0170713  -0.0291181  -0.0263261  0.00776538  0.00574315  -0.0320136  -0.0227645   0.0324442  -0.0347151
-0.00503554  0.00932582  0.00305515   0.0610726    0.042219   -0.069994  -0.0424119   -0.014125  0.00461784   0.0426316
   0.007196    0.063485   0.0571458   0.0297139  -0.0232293  -0.0705952  -0.0286795  -0.0307861   0.0320838  -0.0410579
#
!
<33>:21
    0.014673  -0.00110714    -0.031141   -0.0359231    0.0838018   -0.0472933   -0.0280503   -0.0240339    0.0269675
  0.00986915   0.00840066    0.0432122   -0.0330335   -0.0320231    0.0111007  -0.00555345    0.0135447   -0.0059768
  -0.0410177   -0.0187811   -0.0352504   -0.0163544   -0.0223159  -0.00225613  -0.00558019    0.0568939  -0.00159601
  -0.0171025  -0.00292012  -0.00793348   -0.0285641   -0.0377586    0.0109243     0.012927    0.0298949 -0.000514783
  -0.0487341   0.00220366    0.0167438     0.041406   0.00938428  0.000271101   -0.0186503    0.0406263     0.050889
  -0.0104434    0.0275036     0.048167   -0.0121335   -0.0432761    0.0554792   -0.0277116    0.0135499    0.0383439
   0.0583303   0.00224012    0.0455944   -0.0238495    0.0621742    0.0388454   -0.0178934   0.00187294    0.0406361
  -0.0186347   -0.0289768   -0.0204236   -0.0332297    0.0842173    0.0174355    0.0623878   -0.0572851    0.0443087
  -0.0135375   -0.0404159   -0.0327324   -0.0087642    0.0586057   -0.0138765    0.0611026   -0.0121606   -0.0270005
   0.0449815     0.027633   -0.0491187   -0.0244135    0.0236262   0.00300552 -0.000993858  -0.00728045      0.03703
#
 -0.00446952   -0.0105545   -0.0086721  -0.00126816    0.0381537  -0.00994311    0.0143603   -0.0208413   -0.0189159     0.037546
   0.0377683  -0.00312437    0.0187296    0.0145527   -0.0423413    0.0129801   -0.0107944   -0.0477305  -0.00280299 -0.000949945
 -0.00478201    0.0513858   -0.0118239    0.0708138   0.00820002    0.0574229   -0.0344079   -0.0174206    0.0383644   -0.0186808
  -0.0421296   0.00714697  -0.00019069   -0.0500215   0.00597475   -0.0298933   -0.0203446    0.0129299    0.0280814     -0.01569
  -0.0142669   0.00743957   -0.0182495   -0.0185196    0.0457063    0.0653656    0.0327319   -0.0172095   -0.0128584   -0.0231808
  -0.0593337    0.0255213   0.00718058   0.00805657    0.0423829   -0.0309713   -0.0183305   -0.0977328    0.0694564   -0.0267489
  -0.0256553    0.0159452    0.0181659   -0.0829462  -0.00427465   0.00449609    0.0525639   -0.0225771  0.000207531    0.0322201
   -0.022925    0.0126305    0.0242927   -0.0165678   -0.0357558    0.0174713   0.00280132  -0.00557886    0.0618538    0.0174795
  0.00572592    0.0317995   -0.0308177    0.0442773   -0.0181654    -0.053692    0.0223602   -0.0173733    0.0535276   -0.0165583
   0.0167267   -0.0932795    -0.041958    0.0231466   0.00202009   -0.0204852    0.0294304    0.0271252    0.0347341   -0.0721565
#
   0.0540333    0.0122558    -0.029204   -0.0319761    0.0595281   -0.0121504    0.0221405   -0.0204673    0.0145994    0.0255421
  -0.0598151   -0.0440883    0.0721502    0.0192663    0.0122285   -0.0389027   -0.0254474   -0.0061646    0.0207056   -0.0221745
  -0.0283932   -0.0386736   -0.0621689   -0.0239533    0.0285158  -0.00727423    -0.030519   -0.0219539    0.0157666     0.038201
  -0.0482045   0.00837528    0.0656755   -0.0113775    0.0239103    0.0368686    0.0487419   -0.0904719    0.0220611   -0.0148518
  -0.0117725    0.0198061    0.0066242   -0.0210952    0.0139822    0.0294318    0.0120052   0.00369606   0.00548684   -0.0526589
 0.000609542 -0.000963546  0.000533221    0.0119346   -0.0132153   -0.0342852    0.0320235   -0.0444243   -0.0473133   -0.0165264
  -0.0048215   -0.0408573    0.0259046   -0.0185843   0.00893844   0.00865396  -0.00303083   -0.0117573   -0.0182181     0.034895
   -0.035695   -0.0139307   -0.0533602   -0.0680745   -0.0541933    0.0455596   0.00495172    0.0246823   -0.0897125   0.00902886
  -0.0361462    0.0455488    0.0030308   -0.0363089   -0.0169609   -0.0520901    0.0396687   -0.0113124    0.0383039     0.012897
   0.0233277   0.00777401   0.00883909    0.0276748   -0.0100463    0.0514631   -0.0361943   -0.0167164    0.0431215    0.0232326
#
   0.016231 -0.00763528  -0.0170764  -0.0375824   0.0112311  -0.0177362  -0.0198012  -0.0197369   0.0232394  -0.0360314
 0.00208943   0.0176995  0.00208953   0.0621995   0.0129639  -0.0742073  -0.0436683  -0.0258498  -0.0111994   0.0494372
 0.00880114   0.0499913   0.0545432   0.0352052  0.00191326  -0.0704029 -0.00714024  -0.0440533   0.0223684  -0.0210985
#
!
<77>:21
  0.0263107   -0.002912 0.000902879  -0.0315536   0.0774769  -0.0618803  -0.0225678  -0.0404045   0.0322202
  0.0176021   0.0144694   0.0203966 -0.00463634   -0.026571  0.00756768  0.00522068   0.0163252  -0.0115103
 -0.0883756 -0.00962122  -0.0501543   0.0139707  -0.0108176 -0.00250423   0.0151545   0.0413546 -0.00389303
 -0.0174618  -0.0325853   -0.026967  -0.0182653  -0.0360101 0.000810209 -0.00991228   0.0266147   0.0034165
 -0.0526649 0.000344333   0.0738283   0.0264079   0.0268146  -0.0373267 -0.00548817   0.0390106   0.0511645
 -0.0120402  0.00118844   0.0518665  -0.0250857  -0.0456071   0.0575364  -0.0421766  0.00562038   0.0338831
  0.0665361    0.013829   0.0340211  -0.0170336   0.0607069   0.0418916 -0.00386779   0.0228747   0.0475731
 -0.0089707  -0.0334026 -0.00140894  -0.0374025   0.0623515   0.0465812   0.0446004  -0.0508127   0.0354719
 -0.0111789  -0.0203488  -0.0392659 -0.00739783   0.0644511  -0.0110965   0.0591354  -0.0194064  -0.0466394
  0.0572437   0.0232623  -0.0294768  -0.0553709    0.037559   0.0147347  -0.0063541  -0.0086739   0.0457005
#
   0.0202501  -0.00783956  -0.00593149   -0.0109402     0.046548  -0.00963535   0.00952467   -0.0220346  -0.00854655    0.0310418
   0.0505558 -0.000374766  0.000877292  -0.00527336   -0.0547326   0.00931443   -0.0111154    -0.055339  -0.00105632   -0.0208231
  -0.0105423    0.0825755   -0.0246533    0.0433825    0.0226565    0.0456954  -0.00598506   -0.0202309    0.0454274   0.00805896
  -0.0361455    0.0105788  -0.00209317   -0.0393521 -0.000565305   -0.0213146  -0.00915082    0.0180182       0.0295    0.0152936
-0.000272353    0.0203149  0.000351501    0.0035767    0.0352237    0.0774772     0.024269   -0.0303337   -0.0275693   -0.0529078
  -0.0548462   0.00540209   -0.0197393    0.0072526    0.0587394   -0.0561782   -0.0141693   -0.0894195    0.0407949   0.00791878
  -0.0513068  -0.00581686    0.0217509   -0.0720506  -0.00346417   0.00891212    0.0381636   -0.0134599 -0.000261679    0.0183401
  -0.0118875    0.0420614    0.0670421   -0.0389909   -0.0348109    0.0101428   0.00328742   -0.0248578    0.0771248    0.0019254
 -0.00130126   0.00518483   -0.0177042     0.059572   0.00520398   -0.0368459   0.00361091   -0.0359537    0.0631523  -0.00516001
   0.0169287   -0.0926498   -0.0233474   0.00758188   0.00734339   -0.0140914    0.0414984    0.0255757     0.035232   -0.0666385
#
   0.0577955   0.00734422   0.00321405   -0.0240791    0.0922546  -0.00818684    0.0141806   -0.0198495     0.003311    0.0280125
  -0.0631502   -0.0279369    0.0593525   0.00511031    0.0429466   -0.0453831  -0.00941665  -0.00567243    0.0486198   -0.0504236
   -0.033344   -0.0532372   -0.0474739    0.0025632    0.0224093   -0.0210944   -0.0236929   -0.0221641   0.00608204    0.0255953
  -0.0492247  -0.00386866    0.0537121    -0.039356    0.0316367    0.0308634    0.0331601   -0.0509476    0.0331544   -0.0027843
  -0.0300457    0.0142839   0.00029168   -0.0236778    0.0270391    0.0352064    0.0212144   0.00924189   -0.0117163   -0.0609361
 0.000277739    0.0288307    0.0105504  -0.00451194   0.00325949   -0.0420565    0.0317217   -0.0395744   -0.0746924  -0.00113277
 -0.00442673   -0.0610131    0.0231808    0.0267547  -0.00360462  0.000559199  0.000767319 -0.000984784   -0.0219929    0.0311815
  -0.0279506   -0.0219745   -0.0941525   -0.0643191   -0.0527094    0.0410484    0.0237034   0.00432412   -0.0742777   0.00999075
   -0.016064    0.0369743   0.00805142   -0.0507281   -0.0194683   -0.0466667    0.0430206  -0.00737782    0.0438089   0.00697792
    0.013355   -0.0206801  -0.00203928   0.00668933   -0.0216644    0.0426526   -0.0327966   -0.0178106      0.03768    0.0121419
#
  0.0103092  -0.0324621  -0.0109501  -0.0319889   0.0135035 -0.00151639  -0.0258216  -0.0100081   0.0452972  -0.0520499
 0.00519597   0.0289839  0.00310542   0.0560453    0.021508  -0.0616376  -0.0299752 -0.00550805  0.00821621   0.0632181
-0.00139778   0.0773074   0.0616857   0.0113404 -0.00609987  -0.0622499  -0.0242265  -0.0560877   0.0282436  -0.0368038
#
!
<40>:20
  0.0382764  -0.0126217  -0.0322191  -0.0228881   0.0656453  -0.0647606 -0.00766969  -0.0264372   0.0204552
  0.0151157  0.00130524   0.0297375   -0.016874  -0.0403159  0.00530019  -0.0028211   0.0309109  0.00322516
 -0.0551782  -0.0283524  -0.0463522 -0.00723991 -0.00350398 -0.00452256  0.00503865   0.0495619  -0.0177981
-0.00279721   -0.016596 -0.00316173  -0.0119273  -0.0581615  0.00629134   0.0232759   0.0237576 -0.00738387
 -0.0590535  -0.0242628   0.0299252   0.0238512   0.0252873 -0.00430863  -0.0286075   0.0349597   0.0479348
 0.00103925   0.0169471   0.0304908 -0.00299743  -0.0500022    0.051023  -0.0292568  -0.0100442   0.0548045
  0.0266632   0.0378603   0.0304533  -0.0395167   0.0651717   0.0565372 -0.00783863 -0.00440075   0.0238914
 0.00787889  -0.0157948  -0.0202933 -0.00829944   0.0531049   0.0327172   0.0448312  -0.0541458    0.018661
 -0.0364106  -0.0343948   -0.045891  0.00683528   0.0349697 -0.00756228    0.043512  -0.0300435   -0.018125
  0.0471926   0.0329052  -0.0141044  -0.0112826   0.0174488 0.000959731  -0.0202814  -0.0336641   0.0227271
#
-0.00378239 -0.00486064 0.000878429 -0.00544851   0.0425958   0.0152801    0.011767 -0.00904723 -0.00861444   0.0323125
  0.0538903 -0.00835396  0.00919964   0.0117995  -0.0427841  0.00869548  -0.0241472  -0.0649664  -0.0143325  0.00176688
  -0.015106   0.0506123  -0.0171028   0.0314918 -0.00613275   0.0704881  -0.0123723  -0.0158683   0.0298693  -0.0220314
 -0.0196064   0.0197848  -0.0142347  -0.0365141  -0.0146423  -0.0214874  -0.0265378   0.0424862 -0.00238815  -0.0054938
-0.00407151 -0.00380789 -0.00484506   -0.006658   0.0172613   0.0555909   0.0304587  -0.0193014  -0.0166052  -0.0235169
 -0.0663863    0.015279 -0.00191143 -0.00377036   0.0513446  -0.0204846  -0.0031395  -0.0923341   0.0565912  -0.0347472
 -0.0620625  0.00997693   0.0212141  -0.0907772  0.00688305 -0.00236427   0.0394332  -0.0154086   0.0118529   0.0453575
  -0.027754  0.00861326   0.0564258  -0.0237171  -0.0389021  0.00551259   -0.012974 -0.00650597   0.0512171  0.00660428
  0.0159753  0.00618973  -0.0236952   0.0380565 -0.00665296  -0.0223702  0.00845521  -0.0090577   0.0685123  -0.0206934
  0.0119855   -0.063104  -0.0603465   0.0280234 -0.00766459  -0.0340055   0.0402559   0.0540144   0.0300754   -0.036418
#
  0.0573361  -0.0109229  0.00236953  -0.0184193   0.0698248   -0.023883   0.0308374  -0.0344892   0.0247726   0.0256857
 -0.0784034  -0.0306529   0.0740227 -0.00603409   0.0136104  -0.0380609  -0.0206264    0.007581   0.0261997  -0.0304371
-0.00362464  -0.0557543  -0.0646681  -0.0378191   0.0188018  -0.0230009  -0.0518327  -0.0151392   0.0214171   0.0395929
 -0.0169605   0.0186045   0.0658098  -0.0235617   0.0139949    0.030914   0.0509358  -0.0693126   0.0150695 -0.00933385
 -0.0126366  0.00414822   -0.022025  -0.0101076  0.00799555   0.0357192  0.00189338    0.021381 0.000928423  -0.0455053
  0.0221399   0.0244948 -0.00705799  -0.0129359  0.00311363  -0.0176789   0.0157475  -0.0381126  -0.0734477   -0.013651
-0.00428932   -0.026382    0.013202  0.00366773 -0.00635447  0.00178815   0.0038306 -0.00361612  0.00152365   0.0500995
 0.00425443 -0.00789492  -0.0867141  -0.0453694  -0.0617641   0.0118833    0.032522  -0.0188867  -0.0727304   0.0210191
 -0.0240235   0.0489739 -0.00249679  -0.0245342   -0.037804  -0.0426171   0.0481858  -0.0150089    0.026084   0.0164597
  0.0256611 -0.00443185   0.0221044   0.0204647  -0.0091409   0.0690365  -0.0334163  -0.0247394     0.02769   0.0119193
#
   0.0316885  -0.00150005   -0.0366484   -0.0187027   0.00576211  -0.00723109   -0.0359035 -0.000994127    0.0331287   -0.0284704
 -0.00751217  -0.00255876    0.0274382    0.0737819    0.0164912   -0.0637635   -0.0396187   -0.0239086  -0.00200535    0.0545935
  0.00177895    0.0510224    0.0582788   0.00290096   -0.0535698   -0.0793047   -0.0406845   -0.0176233    0.0579297   -0.0371221
#
!
<41>:20
    0.034399   -0.0153803   -0.0202615   -0.0569235    0.0791435   -0.0467653   -0.0251256   -0.0150367   0.00648989
  0.00546948   0.00951816    0.0531159   -0.0305535   -0.0394079   0.00704038    -0.022796    0.0465109  -0.00680322
     -0.0701   -0.0225031   -0.0495588  0.000995696     0.013326   0.00988784   0.00283138    0.0599478   0.00782005
 -0.00413161   -0.0289593    0.0102173   -0.0131706   -0.0580521   0.00436086   0.00753297    0.0290442   -0.0104665
   -0.075399   -0.0155744    0.0393055    0.0339564    0.0189881 -0.000757237    -0.025776    0.0305217    0.0152561
 -0.00103787    0.0178533    0.0351833   -0.0124346  -0.00664452    0.0592602   -0.0199534    0.0139127    0.0327539
    0.044284    0.0453698   0.00978876   -0.0153658    0.0554361    0.0551845   -0.0305627    0.0178741    0.0311802
  0.00531719    -0.026977  0.000851571  -0.00599024    0.0472119    0.0249447    0.0291634   -0.0488719    0.0320537
  -0.0163521   -0.0321886   -0.0298923  -0.00285317    0.0662913  -0.00221706    0.0410037   -0.0233848   -0.0433691
   0.0596008    0.0181285   -0.0205386   -0.0301412    0.0425209    0.0155091   0.00142138   -0.0346976    0.0345747
#
 -0.00277754    0.0251812   0.00553209    0.0199954    0.0391643    0.0173015    0.0120972   -0.0254172   -0.0271344    0.0221887
   0.0393945   -0.0104054  -0.00543869  -0.00119803    -0.051842   0.00716049  -0.00467782   -0.0594016    0.0133943  -0.00851741
  -0.0206619    0.0423066   -0.0149268     0.056041   0.00567064    0.0616844   -0.0112966  -0.00387031    0.0377693   -0.0151993
  -0.0331865    0.0419258   0.00341276   -0.0277102  -0.00257474   -0.0222944   -0.0158898   0.00520521   -0.0343892   -0.0218299
  0.00556254  -0.00696143   -0.0132047   -0.0166406    0.0432495    0.0723271    0.0493775   -0.0170055   -0.0245867   -0.0434658
   -0.069105 -0.000351784    0.0216652    0.0303424    0.0496229   -0.0304317   0.00364663   -0.0856539    0.0697281    -0.043173
  -0.0532693  -0.00247499   0.00619123   -0.0806037   -0.0320545   -0.0136882    0.0287068   -0.0135448    0.0180625    0.0284432
  -0.0366362   0.00460927    0.0496511   -0.0596565   -0.0364962  0.000621652   -0.0132903  -0.00767502       0.0415   -0.0174054
 -0.00750933   0.00189343   -0.0237611    0.0352494    0.0145558  -0.00955364    0.0175905    -0.016464    0.0634253  -0.00484578
