<0>:54
   0.0360002  -0.00982606   -0.0134678   -0.0348569    0.0847349   -0.0564791   -0.0230772    -0.018981    0.0305246
  0.00988204   0.00435062     0.023474  -0.00885298   -0.0289956   0.00938345 -0.000990605    0.0294016  0.000610993
  -0.0565825   -0.0232676   -0.0344654   0.00109948  -0.00719906   0.00962644   0.00213178     0.051384   -0.0101851
  -0.0102312   -0.0205297  -0.00691889   -0.0136701   -0.0405609  -0.00255071    0.0144633    0.0274604  -0.00373096
   -0.052436   -0.0115293    0.0414039    0.0245607    0.0196992    -0.015406   -0.0199934     0.045702    0.0326277
  -0.0084276    0.0101469    0.0394602  -0.00974441   -0.0321463    0.0557192    -0.021303    0.0129521    0.0407658
   0.0478816    0.0187126    0.0358308   -0.0341993    0.0575314    0.0497743   -0.0139103   0.00920813    0.0395864
 -0.00417772   -0.0267022    -0.015087   -0.0207883    0.0649185    0.0350077    0.0457345   -0.0528993    0.0318306
  -0.0179081   -0.0366183   -0.0348044  -0.00382359    0.0577017   -0.0102384     0.052435   -0.0128539   -0.0258588
   0.0506016    0.0293238   -0.0328726   -0.0340012    0.0324893   0.00673114  -0.00831394   -0.0115261    0.0390464
#
  0.0128892 -0.00150103 -0.00233349 -0.00329394   0.0426092  0.00460187   0.0132962  -0.0188516 -0.00237728   0.0233181
  0.0358468 -0.00153329   0.0196363  0.00292383  -0.0463415   0.0110887  -0.0145612  -0.0566635 -0.00429252 -0.00959182
-0.00705839   0.0610158 -0.00977093   0.0406362   0.0041717   0.0600807  -0.0228332  -0.0223091   0.0373817  -0.0064654
 -0.0284043   0.0198425 -0.00877148  -0.0432831 -0.00286166   -0.022066  -0.0181848   0.0145167   0.0165791  -0.0125215
-0.00529854   0.0126946 -0.00991703 -0.00333063   0.0349454   0.0636908   0.0362579  -0.0247294  -0.0115519  -0.0352518
 -0.0646966   0.0286732 -0.00363955  0.00518714   0.0497643  -0.0289361  -0.0173702  -0.0888524   0.0599122  -0.0248734
 -0.0388867  0.00964677   0.0204674  -0.0767973 -0.00556018  0.00185329      0.0437  -0.0305654  0.00287932   0.0249325
 -0.0273921   0.0130484   0.0500955  -0.0328827  -0.0328688 0.000493381 -0.00488032  -0.0143673   0.0569674  0.00732346
  0.0176668  0.00538461  -0.0263415   0.0495444  -0.0138961  -0.0258677   0.0174701  -0.0218998   0.0571425 -0.00190705
  0.0171412  -0.0985644  -0.0337392   0.0228867  0.00759177 -0.00848891   0.0311996   0.0299964   0.0190028  -0.0723198
#
  0.0563178   0.0113673 -0.00849502  -0.0258259   0.0697517 -0.00965025    0.023617  -0.0222334  0.00726883   0.0260893
  -0.064765  -0.0380705   0.0678328  0.00867931   0.0269236   -0.034174 -0.00721323 -0.00311325   0.0417103  -0.0241544
 -0.0183131  -0.0534291  -0.0639994  -0.0202813   0.0239171  -0.0249868  -0.0274497  -0.0194686   0.0223654   0.0340019
 -0.0372155   0.0110365   0.0693532  -0.0170166   0.0295863   0.0240784   0.0379673  -0.0873448   0.0142195 -0.00334656
 -0.0154413   0.0170609  -0.0060558  -0.0270783   0.0119744   0.0311785  0.00907743   0.0132435 -0.00132783  -0.0524479
 0.00382783   0.0138206    0.014718 -0.00825865  -0.0090705  -0.0451542   0.0305961  -0.0283718  -0.0613177 -0.00697475
-0.00759548    -0.04994   0.0245031 -0.00142214  0.00303273 -0.00646469  0.00157703 -0.00418833  -0.0121655   0.0388387
 -0.0261982  -0.0165353  -0.0837949  -0.0540364  -0.0467988   0.0258719   0.0176416  0.00098498  -0.0783779  0.00760886
 -0.0264853   0.0387266  0.00586677  -0.0353262  -0.0209334  -0.0468894   0.0465144  -0.0176916   0.0309663   0.0106527
   0.018689 -0.00736008   0.0120385   0.0272833  -0.0114128   0.0439724  -0.0241019  -0.0203211   0.0312829   0.0203422
#
 0.0251939 -0.0128801 -0.0225442 -0.0272678   0.009458  -0.000277 -0.0298787 -0.0186899  0.0261647 -0.0403474
0.00767701  0.0108265 0.00798272  0.0684452   0.026232 -0.0594136 -0.0430789 -0.0221171 0.00356784  0.0523587
0.00722593   0.067586  0.0539081  0.0259488 -0.0138718 -0.0626814 -0.0148938 -0.0241009  0.0397593 -0.0411124
#
!
<5>:53
  0.0381003   -0.013524   -0.018603  -0.0274829   0.0826723  -0.0634308  -0.0220729  -0.0096838   0.0318675
  0.0147055  0.00535044   0.0176262 -0.00688593  -0.0301255  0.00387285 -0.00170185   0.0365663 -0.00178119
 -0.0566529  -0.0342225  -0.0367563 -0.00508077  0.00045755   0.0148602  0.00781086   0.0508813   -0.018297
-0.00782974  -0.0143881  -0.0100529  -0.0106845  -0.0541848 -0.00380268   0.0191899   0.0207049 -0.00480716
 -0.0554611  -0.0136561   0.0380009   0.0255548    0.025913 -0.00882958  -0.0254956   0.0438309   0.0259863
-0.00900819  0.00837896   0.0245513 -0.00881278  -0.0385309   0.0403089   -0.016021   0.0136965   0.0423163
  0.0406337    0.032262   0.0332657  -0.0356948   0.0624413   0.0524485   -0.019762  0.00883582   0.0401951
-0.00957919   -0.025682  -0.0172306  -0.0190294   0.0760856   0.0433093   0.0494432   -0.052083   0.0313931
 -0.0213591  -0.0421032  -0.0319606  0.00736144    0.052927  -0.0129923   0.0532486  -0.0189912   -0.026695
  0.0530313   0.0352701  -0.0293994  -0.0213449   0.0334939  0.00194614  -0.0200808  -0.0101452   0.0309064
#
  0.00775204  0.000852918  -0.00254092  -0.00439358    0.0422459   0.00581734    0.0128196     -0.01649  0.000728172    0.0151157
   0.0219913  -0.00944664    0.0222048    0.0082395   -0.0460368    0.0175226   -0.0144377   -0.0670005   -0.0104937   -0.0019394
 -0.00488317    0.0578043  -0.00742046    0.0367645   0.00457584    0.0664353   -0.0325602   -0.0229162    0.0371177   -0.0174588
  -0.0279609    0.0215584   -0.0122422   -0.0445955 -0.000292068   -0.0268228   -0.0218992    0.0179971     0.019742  -0.00351459
 -0.00336609    0.0081404    -0.014089  -0.00681964    0.0345655    0.0651452    0.0318194   -0.0336437  -0.00232124     -0.03324
  -0.0599342    0.0331206  -0.00221719   0.00555274    0.0483734   -0.0260789  -0.00647242    -0.090849    0.0577394   -0.0361412
  -0.0379216   0.00731813    0.0198547   -0.0820289   -0.0109006 -0.000552565    0.0374597   -0.0273859 -0.000472642    0.0288466
   -0.033138   0.00879233    0.0417949   -0.0299889    -0.031663  -0.00078086   -0.0139058   -0.0101784     0.057661   0.00539352
   0.0247602  -0.00118914   -0.0240927    0.0445256   -0.0107755   -0.0189766     0.017818   -0.0186613    0.0665743  -0.00468047
   0.0210912   -0.0957493    -0.035276    0.0248813   0.00894037   -0.0058338    0.0379985    0.0323301    0.0105315   -0.0686638
#
   0.0505323   0.00998857  -0.00528584   -0.0249981    0.0653288   -0.0105426    0.0246486   -0.0224563   0.00919575    0.0241661
  -0.0681214   -0.0346413    0.0658186  0.000943388    0.0231988    -0.023266  -0.00623786  -0.00460999    0.0370413   -0.0209341
 -0.00946776   -0.0528431   -0.0589553    -0.029731    0.0280186   -0.0212354   -0.0179808    -0.012071    0.0158416    0.0341075
   -0.033309   0.00813802    0.0685219  -0.00475739    0.0274025     0.022936    0.0305382   -0.0921521   0.00828303  -0.00709191
  -0.0119626    0.0216045  -0.00726246   -0.0362359  0.000273079    0.0317677   0.00570431    0.0206169  -0.00423357   -0.0499348
  0.00859645    0.0198121    0.0198465   -0.0206745   -0.0148631    -0.038007    0.0267588   -0.0319409   -0.0596372  -0.00765456
  -0.0153046   -0.0361876    0.0235068   0.00441289  -9.1805e-05   -0.0101994   0.00468117    -0.009099    -0.013465    0.0540391
  -0.0200686   -0.0183592   -0.0823066   -0.0500685   -0.0502563    0.0199701    0.0289504  -0.00652957   -0.0766015    0.0181212
  -0.0333586    0.0452132 -0.000972497   -0.0354757   -0.0205252   -0.0432953    0.0515694    -0.016295    0.0277421    0.0128143
   0.0161208  -0.00413827    0.0138509    0.0298885   -0.0103107    0.0556567   -0.0283777   -0.0196723    0.0331893     0.023595
#
 0.0241779 -0.0184474 -0.0317946 -0.0267986  0.0182586 0.00228779 -0.0271631 -0.0148604  0.0317384 -0.0413369
 0.0051634 0.00497829  0.0120981  0.0663065  0.0160464 -0.0571047 -0.0509627 -0.0286612 0.00979873  0.0553685
 0.0104597  0.0609483  0.0574236  0.0243787 -0.0203568 -0.0635503 -0.0103736 -0.0183419  0.0380383 -0.0502495
#
!
<60>:53
   0.0354751  -0.00890158    -0.012184   -0.0367004    0.0852505   -0.0547412   -0.0233283   -0.0213052    0.0301889
  0.00867618   0.00410066    0.0249359  -0.00934475   -0.0287132    0.0107611 -0.000812793    0.0276104   0.00120904
  -0.0565649   -0.0205289   -0.0338926   0.00264455  -0.00911321     0.008318  0.000712015    0.0515097   -0.0081571
  -0.0108316   -0.0220651  -0.00613539   -0.0144165    -0.037155  -0.00223772    0.0132817    0.0291492  -0.00346191
  -0.0516798   -0.0109976    0.0422546    0.0243122    0.0181457   -0.0170501   -0.0186178    0.0461698     0.034288
 -0.00828246    0.0105889    0.0431874  -0.00997731   -0.0305501    0.0595717   -0.0226235     0.012766    0.0403781
   0.0496936    0.0153252     0.036472   -0.0338254     0.056304    0.0491057   -0.0124473   0.00930121    0.0394342
 -0.00282735   -0.0269573   -0.0145512    -0.021228    0.0621267    0.0329322    0.0448073   -0.0531034      0.03194
  -0.0170453   -0.0352471   -0.0355153  -0.00661985    0.0588954  -0.00954992    0.0522316   -0.0113195   -0.0256497
   0.0499942    0.0278372   -0.0337409   -0.0371653    0.0322381   0.00792739  -0.00537222   -0.0118713    0.0410814
#
  0.0141735 -0.00208952 -0.00228163 -0.00301903      0.0427    0.004298   0.0134154   -0.019442 -0.00315364   0.0253687
  0.0393107 0.000445051   0.0189942  0.00159491  -0.0464177  0.00948023   -0.014592  -0.0540792 -0.00274223  -0.0115049
-0.00760219   0.0618186  -0.0103585   0.0416042  0.00407066    0.058492  -0.0204015  -0.0221573   0.0374478 -0.00371705
 -0.0285152   0.0194135 -0.00790381   -0.042955 -0.00350406  -0.0208768  -0.0172562   0.0136466   0.0157883  -0.0147732
-0.00578165   0.0138332 -0.00887404 -0.00245838   0.0350404   0.0633272   0.0373675  -0.0225008  -0.0138596  -0.0357547
 -0.0658872   0.0275613 -0.00399514  0.00509574    0.050112  -0.0296504  -0.0200947  -0.0883533   0.0604553  -0.0220565
  -0.039128   0.0102289   0.0206206  -0.0754894 -0.00422507  0.00245476     0.04526  -0.0313603  0.00371731    0.023954
 -0.0259556   0.0141124   0.0521706  -0.0336061  -0.0331703 0.000811941 -0.00262396  -0.0154145    0.056794  0.00780594
  0.0158935  0.00702805  -0.0269037   0.0507991  -0.0146762  -0.0275904   0.0173831  -0.0227094   0.0547846  -0.0012137
  0.0161537  -0.0992682   -0.033355    0.022388  0.00725462 -0.00915269   0.0294999   0.0294129   0.0211206  -0.0732338
#
   0.0577642     0.011712  -0.00929732   -0.0260329    0.0708574  -0.00942717    0.0233591   -0.0221777    0.0067871    0.0265701
  -0.0639259   -0.0389279    0.0683363    0.0106133    0.0278547    -0.036901  -0.00745707  -0.00273906    0.0428776   -0.0249595
  -0.0205244   -0.0535756   -0.0652604   -0.0179189    0.0228917   -0.0259246   -0.0298169    -0.021318    0.0239963    0.0339755
  -0.0381921    0.0117612     0.069561   -0.0200814    0.0301322     0.024364    0.0398246   -0.0861429    0.0157036  -0.00241023
   -0.016311     0.015925  -0.00575414    -0.024789    0.0148998    0.0310312   0.00992071    0.0114002 -0.000601398   -0.0530762
  0.00263568    0.0123228    0.0134358  -0.00515469  -0.00762233    -0.046941    0.0315554   -0.0274796   -0.0617378   -0.0068048
  -0.0056682   -0.0533781    0.0247521  -0.00288089   0.00381386    -0.005531  0.000800995  -0.00296067   -0.0118407    0.0350386
  -0.0277307   -0.0160793    -0.084167   -0.0550284   -0.0459344    0.0273474    0.0148144   0.00286362    -0.078822   0.00498077
  -0.0247669     0.037105   0.00757658   -0.0352888   -0.0210355    -0.047788    0.0452507   -0.0180407    0.0317723    0.0101123
    0.019331  -0.00816554    0.0115854    0.0266321   -0.0116883    0.0410513   -0.0230329   -0.0204833    0.0308063     0.019529
#
   0.0254478   -0.0114883   -0.0202316   -0.0273851   0.00725786 -0.000918196   -0.0305576   -0.0196472    0.0247713   -0.0401001
  0.00830542    0.0122886   0.00695386    0.0689799    0.0287784   -0.0599908   -0.0411079   -0.0204811   0.00201011    0.0516063
  0.00641748    0.0692454    0.0530292    0.0263413   -0.0122505   -0.0624642   -0.0160239   -0.0255407    0.0401896   -0.0388282
#
!
<3>:52
   0.0317806   -0.0115558   -0.0127233   -0.0601751    0.0825082   -0.0535899   -0.0293689   -0.0138842    0.0200454
  0.00350684  -0.00790196    0.0180303  -0.00461164   -0.0450335    0.0245618   -0.0119422    0.0371525    0.0056845
  -0.0626425   -0.0306419   -0.0444241  -0.00428766   -0.0125274    0.0096174  -0.00490207    0.0490801  -0.00888234
  -0.0152971   -0.0300005   -0.0183087   0.00157235   -0.0248613  -0.00650878    0.0101488    0.0222903  -0.00302593
  -0.0583409   -0.0110498    0.0477449    0.0293526    0.0326549   0.00320342    -0.023849    0.0415918    0.0439713
  -0.0244435   0.00784404    0.0446261   -0.0118245   -0.0439032    0.0675014   -0.0212317    0.0233646    0.0378601
    0.044442 -0.000417963    0.0315435   -0.0343812    0.0602607    0.0421319   -0.0126271   0.00630575    0.0521291
  -0.0193382   -0.0221147  -0.00301702   -0.0306682    0.0789873    0.0327033    0.0353931   -0.0630551    0.0171423
  -0.0235198   -0.0353483   -0.0401311  -0.00484113    0.0597886  -0.00822301    0.0588472   -0.0112466   -0.0307267
   0.0440826    0.0339005   -0.0266277  -0.00732926     0.040704   0.00719714    0.0117632  -0.00529736    0.0462052
#
  -0.0026153  -0.00969735    0.0214382    0.0131764    0.0361218   0.00764582    0.0247604   -0.0168063   -0.0103978    0.0367144
   0.0369349     0.028955    0.0249437 -0.000878201    -0.028587   0.00973281   -0.0164895   -0.0558873  -0.00345211  -0.00711191
 -0.00681255    0.0761901   0.00553099    0.0357502   0.00586655    0.0802861   -0.0232038   -0.0207847    0.0448627 -0.000820413
  -0.0335587     0.034345  -0.00660705   -0.0477971  -0.00923502   -0.0178071   -0.0142913    0.0251286    0.0168864  -0.00824457
  -0.0109987    0.0205546   0.00418707   -0.0175625    0.0483185    0.0570941    0.0414237   -0.0287624    -0.021543   -0.0256382
  -0.0740231    0.0278709   0.00305592   0.00497519    0.0410388   -0.0302851   -0.0337432   -0.0894293    0.0374287   -0.0295298
  -0.0396722    0.0289904    0.0124837   -0.0735777   -0.0153319  2.80613e-05    0.0373599   -0.0352897 -0.000135356    0.0331705
  -0.0256851   0.00746876    0.0521422   -0.0328627   -0.0133798   -0.0299422   -0.0113575   -0.0320284    0.0566605   0.00715304
  0.00951093    0.0166543   -0.0233615    0.0412413   -0.0218282   -0.0148512    0.0403589   -0.0157688    0.0570873   -0.0124534
   0.0196956   -0.0882781    -0.032058   0.00640949 -0.000655815   -0.0168649    0.0453881    0.0268863   0.00979774   -0.0759668
#
   0.0655698    0.0204189   -0.0125073  -0.00967429    0.0487887  -0.00545912    0.0297103    -0.018644   0.00572342    0.0363705
  -0.0687833   -0.0364695    0.0715174   0.00579013    0.0338016   -0.0347709  -0.00403276   0.00823777    0.0407556   -0.0197564
  -0.0333459   -0.0528505   -0.0480241   0.00391498    0.0314459   -0.0335239   -0.0299151   -0.0245687    0.0257443    0.0338382
  -0.0517176   -0.0202977    0.0606366  -0.00589892    0.0322589    0.0148559    0.0271235   -0.0826828    0.0026543  0.000472108
  -0.0187298     0.023243   0.00511682   -0.0449753   0.00506002    0.0275133  -0.00869948    0.0138464  -0.00716603   -0.0386236
  0.00766568    0.0111011   0.00437028   -0.0197884 -0.000599177   -0.0411948     0.040393   -0.0173662   -0.0631121  -0.00733193
 -0.00776659   -0.0304548    0.0266396    -0.015963   0.00252411    -0.014033  -0.00208916   -0.0160908   -0.0160882    0.0372767
 -0.00926974    0.0114748   -0.0980582   -0.0536303   -0.0479997   0.00243745    0.0241824   -0.0142489   -0.0694482    0.0138005
  -0.0326099    0.0458828   0.00631821    -0.036594   -0.0273412   -0.0492767    0.0444878  -0.00145942    0.0304144    0.0326826
   0.0256489  -0.00588472    0.0327313    0.0287665   -0.0130193    0.0301116    -0.022124   -0.0232033    0.0243536     0.036086
#
  0.0207726  -0.0196919   -0.014906  -0.0318297   0.0139432  -0.0222813  -0.0347427 -0.00450686   0.0221538  -0.0497825
  0.0185796   0.0166191 -0.00249665   0.0707711   0.0208601  -0.0508844  -0.0525177  -0.0117281  0.00627623   0.0607283
-0.00293054   0.0691986   0.0503845   0.0182812  -0.0129511  -0.0585848 -0.00813149  -0.0233774    0.044572  -0.0268558
#
!
<4>:52
  0.00304552   -0.0093305    -0.012121   -0.0483996    0.0780266   -0.0529693   -0.0277535    0.0022557     0.031235
   0.0162417    0.0111477     0.027833   0.00349302   -0.0348207   0.00232716   0.00110425    0.0311196  0.000149916
  -0.0650828   -0.0219887   -0.0309762  -0.00150756   -0.0178306    0.0105921    0.0256808    0.0586228   -0.0358578
  -0.0103479   -0.0238812 -0.000330778   -0.0216386   -0.0491228   0.00288692    0.0241876    0.0146859   0.00149109
   -0.061701  0.000976023    0.0364238    0.0364037    0.0122187   -0.0167568   -0.0199782    0.0476328    0.0326464
  -0.0043765   0.00227816    0.0416754   -0.0185712   -0.0354175    0.0490087   -0.0366106  -0.00670108    0.0450339
   0.0521593    0.0170841    0.0417323   -0.0493604     0.063043    0.0515223   -0.0199554    0.0202253    0.0369361
 -0.00345403   -0.0203834  -0.00723709   -0.0228215    0.0523413    0.0252717    0.0467445   -0.0705441    0.0260417
  -0.0324565   -0.0372056   -0.0322929  -0.00301345    0.0657181  0.000374458    0.0493414  -0.00102092   -0.0241614
   0.0478645    0.0509214   -0.0397497    -0.026654    0.0276024    0.0080582   -0.0174782  -0.00146282    0.0354568
#
  0.0252423 0.000236884  -0.0106953  -0.0081074   0.0515891 -0.00713377   0.0212781  -0.0364281  -0.0121512   0.0123128
  0.0566908  -0.0118238   0.0240207   0.0139523  -0.0358907   0.0202486   -0.018725   -0.069693 -0.00693965  -0.0135876
   0.017235   0.0578985  -0.0109469   0.0258484   0.0114453   0.0462352  -0.0151074  -0.0176016   0.0353639 -0.00638378
 -0.0472491   0.0214865  0.00190368  -0.0395168   0.0073721  -0.0293728 -0.00442936   0.0116468   0.0266337  -0.0299144
-0.00367705 0.000174369   -0.013062  0.00214936   0.0305118   0.0492751   0.0378764  -0.0426192  -0.0210665  -0.0383001
 -0.0460783   0.0343691 -0.00366906   0.0138629   0.0366514  -0.0357812  -0.0131924  -0.0662115   0.0670103  -0.0335976
 -0.0150162   0.0136728 -0.00231162  -0.0822664  -0.0151779 -0.00953237   0.0410259  -0.0238878 -0.00614907   0.0108198
 -0.0309282  0.00502129   0.0471915  -0.0351252  -0.0406252 -0.00082511  0.00725271  -0.0064035   0.0510434   0.0270193
  0.0192951 -0.00934545  -0.0184842   0.0498498 -0.00948322   -0.016958   0.0164645  -0.0054675   0.0414287  0.00221239
  0.0153516  -0.0862329  -0.0444968   0.0206233   0.0158164 -0.00229989   0.0158012   0.0312346   0.0240729  -0.0840263
#
    0.045833    0.0100549   0.00101068   -0.0132858    0.0708076  -0.00508498    0.0172763   -0.0352522   0.00833436    0.0392217
  -0.0547496   -0.0491207    0.0833062    0.0219824    0.0462014   -0.0297549   0.00321092   -0.0142322    0.0515066   -0.0248674
  -0.0174937   -0.0658625   -0.0613037   -0.0185601    0.0200137   -0.0155731   -0.0280792   -0.0114536    0.0182005    0.0302176
  -0.0337648    0.0319416    0.0650386   -0.0211272    0.0431257    0.0274839    0.0575753   -0.0867518    0.0274777  -0.00622736
  -0.0133967    0.0268673   -0.0068069   -0.0286804    0.0225025    0.0228476   0.00189186    0.0228028  -0.00092152   -0.0457876
   0.0173079    0.0126124    0.0177192   -0.0111738   -0.0265956   -0.0478536      0.02995   -0.0220511   -0.0626535   -0.0164315
  -0.0107476   -0.0361681    0.0152725  -0.00179876   0.00994263    -0.025772  -0.00793658 -0.000348071   -0.0131888    0.0564832
  -0.0291769  -0.00691665   -0.0798789   -0.0556552   -0.0514561    0.0297436    0.0100196  -0.00570958   -0.0967887      0.02049
  -0.0368224   0.00537343    0.0071158   -0.0295987   -0.0211303   -0.0350735    0.0362709   -0.0159292      0.05056    0.0183504
   0.0181253  -0.00373412     0.032234    0.0201795  -0.00812201     0.045104   -0.0173371   -0.0113663    0.0328629    0.0172119
#
  0.0137896 -0.00776543  -0.0130988  -0.0330455  0.00748649  0.00620872   -0.047252  -0.0102896   0.0433134  -0.0390919
  0.0250019   0.0302215   0.0207794    0.058356   0.0231942  -0.0648761  -0.0398069  -0.0232817 -0.00517745   0.0612177
 0.00432607   0.0682882   0.0448796   0.0240074 -0.00820519  -0.0668514  -0.0232672  -0.0148291   0.0246504  -0.0335421
#
!
<98>:51
   0.0365496  -0.00544442   -0.0251666   -0.0318972    0.0877659   -0.0589279   -0.0362826   -0.0287387    0.0351028
  -0.0111531    0.0107741    0.0260365   -0.0107253   -0.0214513     0.012051    0.0113803    0.0181648  -0.00253601
  -0.0569406   -0.0519762  -0.00926427  0.000268059  -0.00615891   0.00807628   0.00054053    0.0408636  -0.00748539
  -0.0126491     -0.01307   0.00409691   0.00428686   -0.0319885  -0.00679208    0.0110866    0.0223888    0.0025984
  -0.0491686  -0.00141979    0.0478092    0.0343686    0.0361928   -0.0101214   -0.0259471    0.0445842    0.0554181
-0.000406545  -0.00159664    0.0602931    -0.018485   -0.0401741    0.0646667   -0.0248968     0.007239    0.0442731
    0.058739    0.0182317    0.0205043   -0.0417274    0.0527869    0.0478596  0.000140987  0.000450317    0.0383618
 -0.00828897   -0.0113978   -0.0114686   -0.0156425     0.065718    0.0467868    0.0432569   -0.0543416    0.0376304
  -0.0093049   -0.0409949   -0.0188826  -0.00296391    0.0633969  -0.00437692    0.0483722  -0.00540924   -0.0416872
   0.0622527    0.0107591   -0.0333991   -0.0406297    0.0316825    0.0114413  -0.00152308   -0.0019548    0.0437528
#
  0.0125771   0.0164208  -0.0098166 0.000390311   0.0388728   0.0106609   0.0169886  -0.0150457  -0.0190096   0.0206264
  0.0198785  0.00406581    0.021748   0.0119158  -0.0660378  0.00965473 -0.00850463  -0.0499667  -0.0280278  -0.0278525
-0.00712477   0.0611039 -0.00435323   0.0401075  -0.0057372   0.0653224  -0.0257689  -0.0417954   0.0431717  0.00740982
 -0.0297736   0.0106169  -0.0185828  -0.0399463 -0.00671006 -0.00894871  -0.0180477  0.00547657   0.0219087  -0.0173698
 0.00338942   0.0169445 -0.00333954  0.00815374   0.0356373   0.0876834   0.0419229  -0.0123514  -0.0311641  -0.0303048
 -0.0759049   0.0275619  0.00756274  0.00454092   0.0574161  -0.0251177  -0.0124006  -0.0978417   0.0834274  -0.0276148
 -0.0386016   0.0101752  0.00471303  -0.0879017  -0.0126871  -0.0125068   0.0393237   -0.030167 -0.00086148   0.0408196
 -0.0252281  0.00805394   0.0598114   -0.028638  -0.0308942  0.00933309  0.00322111  -0.0287565    0.069809 -0.00101461
 0.00954969   0.0101632  -0.0194494   0.0530533  -0.0274955   -0.020925  0.00918295  -0.0281234    0.054166  -0.0221918
  0.0198072  -0.0907045  -0.0333212   0.0126885  0.00827504  -0.0104268   0.0417855   0.0344902  0.00430561  -0.0716753
#
   0.0440359    0.0156327   -0.0218501   -0.0256535    0.0596922   -0.0106827    0.0154629   -0.0290525   0.00831699     0.034533
  -0.0668103   -0.0257341    0.0582703    0.0179801    0.0287816   -0.0401546  -0.00713962 -0.000505032    0.0539106   -0.0308127
  -0.0238896   -0.0720006   -0.0661806   -0.0170104    0.0265326   -0.0346168   -0.0222626  -0.00944521    0.0313324    0.0355803
  -0.0368843    0.0128873    0.0731272   -0.0261523    0.0329305    0.0150115    0.0272828   -0.0875566    0.0104629 -0.000527271
  -0.0186529    0.0274764   -0.0120246   -0.0163434    0.0141462    0.0406549    0.0134026    0.0103677  -0.00359757   -0.0479173
  0.00244882    0.0118821    0.0220553 -0.000607481   0.00031428    -0.051695    0.0452484   -0.0218162   -0.0615245   -0.0112315
  0.00226415   -0.0406588     0.021789  -0.00223194  -0.00161406   0.00822423     0.008995    0.0102878   0.00842723    0.0246445
  -0.0316049   -0.0171196   -0.0965209    -0.057943   -0.0334466    0.0134344    0.0330856   0.00233175   -0.0616544   0.00473487
  -0.0416727    0.0461341  -0.00795347   -0.0302157   -0.0040438   -0.0514797    0.0491202  -0.00931367    0.0319976     0.025473
  0.00364536   -0.0240618  -0.00340458    0.0243329   0.00242191     0.050451   -0.0334255  -0.00628451    0.0347744    0.0183094
#
  0.0150382  -0.0312881  -0.0188801  -0.0118322 -0.00530216  -0.0101959   -0.038587  0.00594723   0.0123009  -0.0526434
 0.00890618 0.000119623   0.0281915   0.0582765   0.0252316  -0.0611398  -0.0361084  0.00652147  0.00415035   0.0490885
 0.00493542   0.0726853    0.056478   0.0248524  -0.0313717  -0.0566493  -0.0154944  -0.0263351   0.0536034  -0.0334894
#
!
<86>:51
   0.0435365   -0.0185502     0.001479   -0.0387343     0.085938   -0.0512511   -0.0183466   -0.0253644    0.0435837
   0.0048864  -0.00223778    0.0154677 -0.000850731   -0.0322717   0.00727907  -0.00504473    0.0397055   0.00932319
  -0.0456744    -0.016907   -0.0283409  -0.00579522   -0.0102245  -0.00253438    0.0123403    0.0582039    0.0116663
  -0.0119179   -0.0193856  -0.00188055   -0.0344066   -0.0444102  -0.00895625  -0.00703614    0.0256927   0.00392002
   -0.055918   -0.0180693    0.0370483    0.0385885   0.00549399   -0.0107798   -0.0260161    0.0587533    0.0340804
 -0.00831488    0.0115561    0.0415398  -0.00820536   -0.0271334    0.0705751   -0.0256156   0.00750751    0.0490998
   0.0509513    0.0103066     0.040811   -0.0427456      0.06626    0.0393627    -0.026692 -0.000957098    0.0337026
  0.00180776   -0.0237254   -0.0225628   -0.0263714    0.0845834    0.0429308    0.0469534   -0.0403743    0.0249056
 -0.00738044   -0.0369445   -0.0305678   -0.0308843    0.0459206   0.00212533    0.0584921   -0.0110445   -0.0198936
   0.0538437    0.0317871   -0.0344351   -0.0420494    0.0329472   0.00503661   -0.0078005   -0.0128481     0.042288
#
-0.00902484 -0.00119263  -0.0130829  0.00529172    0.034288  0.00393594   0.0190955  -0.0181858   0.0145832   0.0173784
  0.0370268   0.0175796  0.00571779 -0.00204635   -0.051454   0.0303852  0.00126848  -0.0540224 -0.00811766 -0.00771956
 0.00816246   0.0520121  -0.0277082   0.0409448 -0.00514177   0.0325628  -0.0190109  -0.0232315   0.0558824 0.000331481
 -0.0200069  0.00807978  -0.0234334  -0.0340457  -0.0176015  -0.0334862  -0.0233363  0.00883358    0.024077  -0.0176723
-0.00345402   0.0187831  -0.0191893  -0.0181632   0.0353303   0.0660424   0.0280589  -0.0143968  -0.0253999  -0.0525207
 -0.0817018   0.0295304   0.0124314   0.0127239    0.037979  -0.0291362 -0.00937207  -0.0905401   0.0644171  -0.0163146
 -0.0328136  0.00141901   0.0260857  -0.0584634    0.012495    0.010882   0.0591757  -0.0392722  -0.0123909   0.0196017
 -0.0100865   0.0176323   0.0575715  -0.0373966  -0.0472943 -0.00413381 -0.00482591 5.43075e-05    0.065781  0.00458067
  0.0285176    0.017411  -0.0311217    0.055289  -0.0162036  -0.0416083  0.00941947  -0.0211782   0.0394669  -0.0088776
  0.0130393  -0.0880208  -0.0383366   0.0287648   0.0231268 -0.00114672   0.0381871   0.0338813   0.0317786  -0.0774543
#
  0.0506266   0.0229698  -0.0163258  -0.0165738   0.0647472  0.00500841   0.0255713  -0.0324821 0.000142461   0.0285091
 -0.0755311  -0.0400077   0.0596756  0.00949487   0.0123807  -0.0418966  -0.0190217   0.0161282   0.0466643  -0.0312092
 -0.0339895  -0.0516058  -0.0609016   -0.025314   0.0059479  -0.0219184  -0.0344806   -0.020375   0.0163709   0.0366471
 -0.0362126  0.00371229   0.0871284   -0.015893   0.0171203    0.013761   0.0423364  -0.0942321   0.0204874  0.00440685
 -0.0139909  0.00606602 -0.00312109  -0.0160368   0.0272011   0.0334174   0.0128398 -0.00346811  -0.0135207  -0.0579471
 0.00574959   0.0227206  0.00241668  -0.0152279 -0.00241922  -0.0529687   0.0282788   -0.026583  -0.0617943 -0.00755176
-0.00993717  -0.0429484   0.0270624 -0.00245527  -0.0269405  -0.0156649  0.00687739  0.00343779  0.00131183   0.0372763
  -0.028673  -0.0121819  -0.0952807   -0.060572   -0.053108   0.0300989  0.00798914   0.0177255  -0.0724144   0.0216066
 -0.0193535   0.0378432  0.00781408  -0.0513585  -0.0161755  -0.0533731   0.0533913  -0.0136693   0.0345154  0.00877314
   0.011872  0.00156585   0.0151297   0.0450987  -0.0121878   0.0463786  -0.0209765  -0.0318772   0.0334506   0.0222487
#
  0.0184914  -0.0140424  -0.0222156  -0.0383471   0.0222659  0.00258029  -0.0518664  -0.0186571   0.0197534  -0.0464812
  0.0121394   0.0201881 -0.00693677   0.0643055   0.0252902    -0.06202  -0.0279876  -0.0314897  0.00865813   0.0497338
 0.00497362   0.0856147    0.042515   0.0241695  -0.0131474  -0.0750402  -0.0154762  -0.0337258   0.0514386  -0.0573493
#
!
<7>:50
   0.0350902  -0.00540063  -0.00776028   -0.0102682    0.0798596    -0.072147   -0.0242485   -0.0231071    0.0344423
  0.00960657     0.013029    0.0328477   0.00161953    -0.025924   0.00608381  -0.00189474    0.0284686 -0.000654886
  -0.0807295   -0.0305073   -0.0334626    0.0120129  -0.00367411    0.0116088   0.00854494    0.0257134   -0.0344427
  -0.0139312   -0.0327888  -0.00986641    -0.013533   -0.0423023   -0.0220895   0.00817514    0.0296095   0.00734342
  -0.0658609  -0.00363042    0.0449468    0.0303883    0.0267848   -0.0130834   -0.0235925    0.0413436    0.0433023
  -0.0144609    0.0215328     0.034768   -0.0258261   -0.0346781    0.0462073   -0.0427737  -0.00227147     0.017154
   0.0483388    0.0146259     0.041217   -0.0222193    0.0439881    0.0463183  -0.00823386   0.00954736    0.0476344
 -0.00182328   -0.0444141   -0.0131879   -0.0313024    0.0762014    0.0429044     0.038503   -0.0512885    0.0373847
  -0.0048416   -0.0335975   -0.0242815  -0.00907693    0.0531237   -0.0111938    0.0417943   -0.0153589    -0.026465
   0.0644997    0.0417255   -0.0256242   -0.0442696    0.0278397   0.00139424   -0.0173612   -0.0204633    0.0169551
#
 0.00847122  -0.0164252  0.00231149 -0.00935002   0.0436943 -0.00580347  0.00688949  -0.0154283  0.00233101    0.029786
  0.0691034  0.00380725   0.0154677   0.0128395  -0.0464662 -0.00144611 -0.00582087   -0.051434  -0.0194687  -0.0101705
-0.00548178   0.0689998 -0.00904847   0.0296459 -0.00549904   0.0468913  -0.0197169  -0.0263812   0.0337252  0.00654036
 -0.0183535   0.0255616  0.00268366  -0.0367183 -0.00116512  -0.0040154 -0.00406618 0.000881727    0.022077 -0.00448269
-0.00738941   0.0135145  -0.0197773  0.00400215   0.0456665   0.0752496   0.0304741  -0.0212009 -0.00752657  -0.0422195
 -0.0743339 -0.00109485 -0.00748688   0.0147045   0.0465357  -0.0289345  -0.0280029  -0.0670328   0.0586231 -0.00691157
 -0.0277609   0.0135957   0.0322547  -0.0652492  -0.0118536  0.00648944   0.0363348  -0.0436747 -0.00197478   0.0355358
 -0.0236657   0.0265422   0.0355085   -0.031108  -0.0354556  0.00429693  -0.0164819 -0.00743253   0.0667167   0.0131014
-0.00337037  0.00843808   -0.019452   0.0452872 -0.00494189  -0.0234075   0.0123752  -0.0173836   0.0489075 -0.00667595
 0.00652395  -0.0889633  -0.0195636  0.00992936  -0.0112866   0.0043018   0.0395411    0.033714   0.0322888  -0.0678284
#
   0.0340877    0.0232435  -0.00503111   -0.0185579     0.077833  -0.00512458    0.0321152   -0.0125788  -0.00356864    0.0339944
  -0.0684041   -0.0101816    0.0671465    0.0036354      0.02332   -0.0439133  -0.00480861    0.0161378    0.0471605   -0.0362456
  -0.0249818   -0.0690308   -0.0726177   -0.0355333    0.0333298   -0.0165006   -0.0304236   -0.0276291    0.0193966    0.0390667
   -0.031147   -0.0117537    0.0565185   -0.0335841    0.0239848     0.029755    0.0195119   -0.0682349    0.0171378   -0.0202135
  -0.0179514    0.0223213   0.00218363   -0.0290007    0.0264123    0.0335957    0.0140557    0.0276134  0.000577861   -0.0528807
 -0.00352647    0.0188949   0.00903389   -0.0107709  -0.00851438   -0.0484918     0.019142    -0.030409   -0.0466404   0.00108082
   0.0210521   -0.0629203    0.0187216   0.00228229   -0.0119597   -0.0027937  -0.00564854  -0.00628799   -0.0240021    0.0338464
  -0.0219009   -0.0150338    -0.085485   -0.0550463   -0.0535141    0.0251011    0.0229942  -0.00564348   -0.0867076  -0.00381535
  -0.0157318    0.0333659   0.00893585   -0.0380491   -0.0229777   -0.0480413    0.0607333   -0.0130219    0.0418259    0.0155669
   0.0152132   -0.0256348 -0.000118709   0.00481936    -0.022851    0.0515848   -0.0348891  -0.00947163    0.0440726    0.0209488
#
  0.0202156  -0.0220047  0.00195458  -0.0266859  -0.0012625 -0.00344748  -0.0312063  -0.0202089   0.0372624  -0.0669073
 0.00724489   0.0224563  0.00144549   0.0625687   0.0229965  -0.0617931  -0.0389111   -0.024468  0.00954608   0.0766844
-0.00483581    0.069854   0.0604234   0.0200244 -0.00486435  -0.0582464  -0.0247162  -0.0418494   0.0389756  -0.0464362
#
!
<9>:50
   0.0357114   -0.0150582   -0.0161724   -0.0355949    0.0792129   -0.0591762   -0.0205875   -0.0080479    0.0238039
   0.0105101   0.00892313    0.0246205   -0.0132002   -0.0300665   0.00353731  -0.00854242    0.0346881 -0.000348732
  -0.0618307   -0.0247573   -0.0379901  0.000722118  -0.00470933    0.0164831   0.00589354       0.0554   -0.0126754
 -0.00757529   -0.0190859  -0.00154726  -0.00852925   -0.0508249   0.00195065    0.0187125    0.0234185  -0.00645976
  -0.0553382   -0.0141268    0.0358949     0.022513    0.0192723  -0.00818665   -0.0297924    0.0385088    0.0261987
 -0.00687212    0.0143575    0.0249425   -0.0109383   -0.0255673    0.0428852   -0.0186456    0.0148489    0.0422167
   0.0418389    0.0297194    0.0295622   -0.0307232    0.0590825    0.0522033   -0.0214614    0.0141656    0.0327063
 -0.00812682   -0.0251942   -0.0149514   -0.0125644    0.0700581    0.0298819     0.043257    -0.049379    0.0288529
  -0.0252609   -0.0338465   -0.0332351   0.00231605    0.0454432   -0.0116038    0.0510388   -0.0198155   -0.0296207
   0.0540791    0.0279958   -0.0289855   -0.0217477    0.0330832   0.00394182   -0.0140232   -0.0168652    0.0370942
#
   0.0061698   0.00556853 -0.000821524  -0.00339719    0.0361177    0.0107282    0.0110281   -0.0109888  -0.00859636    0.0193065
   0.0298418   -0.0101745    0.0139978   0.00329215   -0.0454026    0.0239041   -0.0106227   -0.0649737   -0.0047794   -0.0077455
  -0.0133204    0.0562319  -0.00979583    0.0354809   0.00208928    0.0639851    -0.027105   -0.0199311    0.0350517   -0.0094301
  -0.0288049    0.0233502   -0.0125083   -0.0416471  -0.00461151   -0.0173348   -0.0214791    0.0153854   0.00955793  -0.00462072
 0.000380644     0.011153  -0.00549754  -0.00705481    0.0354191    0.0608769    0.0334786   -0.0293221  -0.00951855   -0.0398605
  -0.0612163    0.0212798   0.00153499   0.00660461    0.0455012   -0.0244981 -0.000611628   -0.0868917      0.05357   -0.0372147
  -0.0456743    0.0037687    0.0162462   -0.0814088   -0.0124474  -0.00174688    0.0370609   -0.0296774   0.00261927    0.0264814
  -0.0267325   0.00816194    0.0440873   -0.0428599   -0.0342889  -0.00456264  -0.00985976   -0.0102535    0.0597245   0.00528244
  0.00949781   0.00117741   -0.0241821    0.0464616  -0.00508764   -0.0170618    0.0138652   -0.0166546    0.0652396  -0.00659856
   0.0108542   -0.0912792   -0.0427834    0.0306459   0.00409605   -0.0102514    0.0338932    0.0317959    0.0210547   -0.0651298
#
   0.0489839   0.00918429   -0.0053575   -0.0176779    0.0595064  -0.00997915    0.0279262   -0.0214387    0.0093883    0.0239042
  -0.0679817   -0.0344661     0.068549 -0.000544674    0.0204725   -0.0295786   -0.0113713   0.00593887    0.0333589   -0.0242712
  -0.0106322   -0.0532393   -0.0650848   -0.0264598    0.0217695    -0.026714   -0.0285216  -0.00389351    0.0252184    0.0381126
  -0.0281917   0.00987078    0.0686045   -0.0139088     0.021346     0.030796    0.0332774   -0.0812691   0.00619424   -0.0123388
 -0.00549556    0.0161662    -0.013784   -0.0292222     0.007876    0.0336047   0.00551006    0.0119919  -0.00890263   -0.0523114
  0.00722874      0.01531     0.014466   -0.0121915   -0.0181059   -0.0368719     0.025862   -0.0279001   -0.0592845   -0.0146631
  -0.0110445   -0.0426483    0.0296822  0.000552581  -0.00383805  -0.00558215   0.00934865  -0.00724637  -0.00345196    0.0458914
  -0.0117544   -0.0155893   -0.0891355   -0.0441594   -0.0524195    0.0187446    0.0267862   -0.0015012   -0.0763133   0.00489252
  -0.0277723    0.0421911   0.00223101   -0.0348842   -0.0182931   -0.0426337    0.0445154   -0.0139248     0.027411   0.00956384
   0.0231469  -0.00451889   0.00886623    0.0242793   -0.0129792    0.0510784   -0.0267169   -0.0191932    0.0310587    0.0190434
#
  0.0249972 -0.00927669  -0.0252516  -0.0244281   0.0138121 -0.00221395  -0.0194512  -0.0118234   0.0275525  -0.0404184
0.000466243 -0.00134562   0.0102364   0.0741428   0.0156477  -0.0641369  -0.0503852  -0.0252406   0.0017777   0.0452061
 0.00913275   0.0605171   0.0574549   0.0206822  -0.0216943  -0.0628115  -0.0141964  -0.0191173   0.0411814  -0.0435612
#
!
<11>:50
   0.028042  0.00130901 -0.00223726  -0.0371872   0.0698569  -0.0608823  -0.0193922  -0.0112886    0.041244
 0.00785222  0.00365462   0.0116503 -0.00556975  -0.0315373   0.0225426  -0.0108088   0.0229148 -0.00399869
 -0.0680963  -0.0380265  -0.0379161  0.00848011  -0.0153995  0.00800367   0.0317518    0.040878  -0.0173074
 -0.0100339   -0.030907  -0.0153964  -0.0129534  -0.0416794  0.00349635 -0.00134652  0.00743321  -0.0146504
 -0.0319474  0.00540775   0.0467088   0.0275653   0.0199179  -0.0166263  -0.0211728   0.0530684   0.0358174
 0.00182243   0.0101039   0.0449974 -0.00773915   -0.039886   0.0569686  -0.0233191   0.0211509   0.0604313
  0.0446255   0.0223038   0.0269856  -0.0230389   0.0706561   0.0450614  -0.0191514  0.00822717   0.0218048
 -0.0136523  -0.0395231  0.00191462  -0.0465708    0.074879   0.0261223   0.0487407  -0.0521643   0.0288759
 0.00194246   -0.046985   -0.017211  0.00401527   0.0607667 -0.00508039   0.0618793  -0.0139406   -0.047218
   0.049821     0.02871  -0.0262134  -0.0500526   0.0465719  -0.0036259   0.0164384  -0.0281752   0.0388241
#
 -0.0121092 -0.00202374  0.00831904   0.0171619   0.0368221   0.0327028   0.0293818  -0.0375378   0.0146408   0.0234926
  0.0214037  0.00651497  0.00995489     0.01049  -0.0406309   0.0174378  -0.0244438  -0.0598077 -0.00190143  0.00302118
-0.00096465   0.0687356 -0.00262659   0.0488515  0.00791452   0.0560039  -0.0506912  -0.0205415   0.0511737 -0.00870556
 -0.0271117   0.0275569 -0.00967793  -0.0618037   0.0085804 -0.00618761 -0.00863938  0.00738268   0.0109503 -0.00909666
 -0.0230562  0.00677238  -0.0181617 -0.00359219   0.0459611   0.0700475   0.0497234  -0.0355887  -0.0128229   -0.025843
 -0.0737265   0.0285373  -0.0146218  0.00960129   0.0565775  -0.0218751 -0.00843761  -0.0990868   0.0546641  -0.0172474
 -0.0308947  0.00191585  0.00810514  -0.0786461  0.00735613  0.00529672   0.0452457  -0.0379263 -0.00427127  0.00869027
 -0.0273273   0.0170224   0.0447925  -0.0454064  -0.0368068  0.00713405  0.00174722 -0.00708452   0.0558869   0.0175664
  0.0141987 -0.00790189  -0.0282405   0.0539729  0.00727845  -0.0354905 0.000880455  -0.0124915   0.0674946 -0.00575004
0.000177595  -0.0901704  -0.0347595   0.0327921   0.0135001  0.00977202   0.0313598    0.017942   0.0158545  -0.0696158
#
   0.0649143    0.0139373   -0.0102476    -0.022678     0.075867  -0.00474657    0.0212499   -0.0367306 -0.000539122    0.0213037
  -0.0684616   -0.0368633    0.0556839    0.0118046    0.0362862   -0.0359807   -0.0164463   -0.0046297    0.0315464   -0.0226332
 -0.00641944   -0.0494593    -0.065598   -0.0275889    0.0297574   -0.0296635   -0.0353186   -0.0163778    0.0321978    0.0413723
  -0.0326834 -0.000913909    0.0821731   -0.0148872    0.0338695    0.0195221    0.0477153   -0.0797984    0.0253379  -0.00706929
  -0.0207918    0.0265606  -0.00746115   -0.0399428    0.0108705    0.0135606    0.0185164   0.00487194    0.0157008    -0.056556
  0.00268544   -0.0018415   0.00156735  -0.00592951  -0.00608086   -0.0561205    0.0373081   -0.0186333   -0.0676648   -0.0184234
 -0.00263606    -0.041386    0.0102203   -0.0275206   -0.0124565  -0.00592606    0.0129224    0.0226049   -0.0295964    0.0361824
  -0.0403174    -0.021072   -0.0993041   -0.0449295    -0.048924    0.0328614    0.0189709   -0.0188502   -0.0736634   0.00175408
  -0.0348937    0.0381751    0.0028934   -0.0224592    -0.014525   -0.0467277    0.0464701   -0.0211462    0.0351718  -0.00991837
   0.0184933  0.000587241   0.00133799    0.0295694  -0.00671922    0.0551587   -0.0119945   -0.0259046    0.0175366    0.0216956
#
  0.0266205  -0.0146164  -0.0250944  -0.0283002   0.0102476  -0.0106189  -0.0302459 -0.00850176   0.0252792  -0.0432619
  0.0100247   0.0134793 -0.00165285   0.0655938  0.00860522  -0.0641957  -0.0440379  -0.0160606   0.0271907   0.0609544
  -0.011089   0.0846961   0.0564949   0.0260401  -0.0122415  -0.0568877 -0.00902353  -0.0199252   0.0299618  -0.0384752
#
!
<76>:50
   0.0307834   -0.0152623  0.000335048   -0.0486749    0.0823118   -0.0658992   -0.0288388   0.00389629    0.0432397
 -0.00871584   -0.0106424    0.0360925  -0.00468584   -0.0229864   0.00789302   0.00973585    0.0412566   0.00553732
  -0.0564711   -0.0193581   -0.0485615   0.00133701    0.0071734    0.0178661  -0.00834786    0.0402354   -0.0177028
 -0.00817743  -0.00641811  -0.00286816   -0.0226611   -0.0448319   -0.0092469    0.0167445     0.025412   -0.0123834
  -0.0369553   -0.0256407    0.0421461     0.020233     0.020264    -0.018827   -0.0290172    0.0481018     0.029256
  -0.0100773    0.0144579    0.0467021   -0.0300853   -0.0313036    0.0591976   -0.0179954    0.0113946    0.0345873
   0.0410572    0.0186712    0.0363299   -0.0328697    0.0513111    0.0554497   -0.0126585  -0.00434731    0.0526665
-0.000712821   -0.0158322   -0.0180285   -0.0259196    0.0522976    0.0179476    0.0314478   -0.0366257    0.0398184
  -0.0293473   -0.0262816   -0.0308818   0.00866917    0.0765764   0.00732358    0.0579673  0.000387136   -0.0370263
   0.0413881    0.0386174  -0.00828938   -0.0264375    0.0214522    0.0041793  -0.00706819   -0.0238623    0.0528686
#
  0.00644918   0.00673787  -0.00906035  -0.00926287    0.0504953  -0.00126567    0.0148891   -0.0151894   0.00499593    0.0345166
   0.0317422   0.00160556    0.0140308     0.012731   -0.0343168   0.00347167  0.000559765   -0.0495689     -0.01301  -0.00775136
  0.00466019    0.0594801  -0.00743774    0.0408912    0.0070106    0.0596346   -0.0190724   -0.0336791    0.0453526   0.00240643
  -0.0126308    0.0338927  -0.00542761   -0.0395015   -0.0144953   -0.0195404   -0.0159243   0.00728973    0.0199559   -0.0212667
 -0.00650254   9.9433e-05   -0.0134542  -0.00388576    0.0434952    0.0677543    0.0368814   -0.0286492   -0.0203898   -0.0362447
  -0.0758452    0.0452303  -0.00936926    0.0132915    0.0409679   -0.0324049   -0.0367036   -0.0982295    0.0468188   -0.0187257
  -0.0181136   0.00616294    0.0135848   -0.0680007  -0.00655785   0.00466944    0.0460452   -0.0400641  0.000908877    0.0306691
  -0.0390663    0.0158957    0.0384187     -0.03861    -0.020314  -0.00881909  -0.00672647   -0.0261849      0.05667 -0.000928582
   0.0141813    0.0113632   -0.0286715    0.0634348  -0.00988124   -0.0288167    0.0195047   -0.0102374    0.0613269  -0.00199624
  0.00495552   -0.0854971   -0.0357227    0.0293586 -0.000714424  -0.00800819    0.0360707    0.0257269    0.0124992   -0.0768025
#
   0.0728529   0.00249474  -0.00416395  -0.00939782    0.0656318   -0.0124699   0.00682672   -0.0262871   0.00406973    0.0144267
  -0.0691732   -0.0372796    0.0762303   0.00642378    0.0152852   -0.0286196   -0.0246516   -0.0018936    0.0391709   -0.0388867
  -0.0166022    -0.057702   -0.0750003   -0.0208027   0.00900946   -0.0401492   -0.0168224   -0.0262072    0.0172531    0.0409182
  -0.0348353     0.013818    0.0717846  -0.00971804    0.0395047    0.0327583    0.0210297   -0.0921832   0.00382174  -0.00616926
  0.00175296     0.021235   -0.0244081   -0.0339142  0.000782153    0.0360354   0.00493012     0.014553  0.000819889   -0.0498062
  0.00869658   0.00608933    0.0311902  -0.00951037   -0.0115514    -0.030438    0.0315483   -0.0271252   -0.0520629    0.0106623
  -0.0153936   -0.0618581    0.0272716  0.000339573    0.0120368  -0.00793782   0.00434732   -0.0125773   -0.0260991    0.0313103
 -0.00503391  -0.00611254   -0.0719853    -0.066557   -0.0486616    0.0542433   0.00622123 -0.000598798   -0.0882422    0.0147247
  -0.0246351    0.0181688    0.0051418   -0.0500182   -0.0391227   -0.0516245    0.0473127    0.0107553    0.0169363    0.0198183
   0.0199316  -0.00857402   0.00237886    0.0361884  -0.00334674    0.0268084   -0.0358958   -0.0156107    0.0370347    0.0154354
#
 0.0322913 -0.0102262 -0.0406735 -0.0246878 0.00108808 -0.0117607 -0.0160266 -0.0123407  0.0130487 -0.0487326
0.00989117  0.0292241  0.0161492  0.0856879  0.0534109 -0.0570592 -0.0370886  -0.016847   0.008749  0.0361946
 0.0132954  0.0582366   0.073113   0.038395 -0.0177836 -0.0787571 0.00129919 -0.0119626  0.0568934 -0.0454405
#
!
<70>:50
   0.0311013  -0.00728527  -0.00630796   -0.0267443    0.0944213   -0.0561769   -0.0229598   -0.0240759    0.0240855
   0.0102234   0.00874363     0.018233    0.0094056   -0.0462911    0.0142612  0.000273749     0.044583   0.00471812
  -0.0626853   -0.0256992   -0.0240954  -0.00346207   -0.0127548   0.00194242   -0.0104339    0.0536338    -0.004206
   -0.024573   -0.0147403  -0.00559732   -0.0140697   -0.0423925   0.00360564     0.013917    0.0212143  -0.00704332
  -0.0512253   -0.0142744    0.0348337    0.0285159    0.0260819   -0.0250371     -0.00853     0.053171    0.0404352
  -0.0156333  -0.00157714    0.0372706   -0.0287272   -0.0227246    0.0679011   -0.0375421   0.00943059    0.0439384
     0.03907    0.0238218    0.0470685   -0.0448049     0.061918    0.0477633  -0.00530996   0.00298172    0.0513182
 -0.00322151   -0.0319255   -0.0130581   -0.0132346    0.0605015    0.0283671    0.0583263   -0.0560004    0.0391818
  -0.0191234   -0.0545234    -0.024863  -0.00768382    0.0524622   -0.0178546    0.0588652  -0.00604013   -0.0204837
   0.0381257    0.0132062   -0.0447336   -0.0316341    0.0111457   0.00127508   0.00860719 -0.000933085    0.0462252
#
  0.00717941  -0.00280795  0.000204793   -0.0171556    0.0418563    0.0121751    0.0161784   -0.0206282    0.0101623    0.0209972
   0.0350188  0.000546446    0.0114388   -0.0161177   -0.0499265  -0.00373123  -0.00790805   -0.0437802  5.71543e-05   -0.0022041
  -0.0110441    0.0487563  -0.00982081    0.0402128      0.00728    0.0369841   -0.0178817   -0.0207693    0.0226965   -0.0145391
   -0.030741    0.0225475  -0.00655839   -0.0447937   -0.0122426   -0.0113733   -0.0149131    0.0130087    0.0270662   0.00058768
 -0.00122058    0.0361414   -0.0229834   0.00421275    0.0435935    0.0841044    0.0396381    -0.021051   -0.0336872   -0.0438911
  -0.0680283    0.0321015   -0.0171273   0.00456355    0.0493405   -0.0245106   -0.0256526   -0.0975552    0.0642144   -0.0101233
  -0.0382789    0.0159132   0.00964658   -0.0784578  -0.00700397   0.00120279    0.0465677   -0.0229605    0.0121591      0.01136
  -0.0352451    0.0159709     0.055553    -0.041716   -0.0356633  -0.00133775   0.00160552   -0.0113933    0.0684831  -0.00324811
   0.0223175   0.00647933    -0.016527    0.0438209    0.0119219   -0.0266502    0.0171067   -0.0153258    0.0486438 -0.000587983
   0.0263098   -0.0955872   -0.0233611    0.0292325    0.0161332  -0.00118223    0.0300949    0.0190701    0.0324504   -0.0784108
#
  0.0430264   0.0105068  -0.0110339 -0.00735449   0.0638767  -0.0200419   0.0221137  -0.0464904  0.00336162   0.0158854
 -0.0570036  -0.0330225   0.0731794  0.00783158   0.0361768  -0.0613664 -0.00592226   -0.011087   0.0442665  -0.0163638
 -0.0158598  -0.0436899   -0.053876  -0.0153866   0.0326623  -0.0265461  -0.0259162   -0.013541   0.0432659   0.0201089
 -0.0266428  0.00207021   0.0699194  -0.0336321    0.042954   0.0255854   0.0364209  -0.0831428  0.00924495 -0.00493897
 -0.0383457  0.00340234 -0.00743209  -0.0113036   0.0261156   0.0321724  -0.0068229    0.018035  0.00898112  -0.0655944
 0.00752675  0.00640612   0.0222003  0.00725223 -0.00880063  -0.0762794   0.0231302  -0.0291995  -0.0628267  -0.0175144
 -0.0141118  -0.0592609   0.0391291  -0.0135543 -0.00213247 -0.00928912   0.0133676 -0.00134729   -0.021646   0.0266267
 -0.0128436  -0.0174576  -0.0848057  -0.0681846  -0.0608898   0.0340002   0.0296838 -0.00510268  -0.0581765 -0.00942082
 -0.0164891   0.0216495 -0.00416405   -0.029009  -0.0202991  -0.0384496   0.0467439  -0.0139705   0.0433758  0.00228902
  0.0252619  -0.0216572   0.0114188   0.0158795  -0.0254513   0.0442134  -0.0313188   -0.019317   0.0335197   0.0033124
#
  0.0268456  -0.0218306 -0.00329675  -0.0215102 -0.00816577  -0.0123437  -0.0199849  -0.0218868   0.0289699  -0.0213082
0.000377309   0.0102198  0.00891943   0.0717071   0.0332237  -0.0705708  -0.0400354  -0.0122389  0.00069511   0.0460123
  0.0100001   0.0721039    0.050618   0.0268272  -0.0253422  -0.0637146   -0.016749  -0.0316451   0.0233439  -0.0369789
#
!
<8>:48
  0.0333225  -0.0165925  -0.0137418   -0.043707   0.0757535  -0.0549215   -0.019102 -0.00641199   0.0157403
 0.00631484   0.0124958   0.0316147  -0.0195145  -0.0300075  0.00320177   -0.015383   0.0328099  0.00108373
 -0.0670085   -0.015292  -0.0392239  0.00652501 -0.00987622    0.018106  0.00397621   0.0599187  -0.0070537
-0.00732084  -0.0237837  0.00695837 -0.00637404  -0.0474649  0.00770398   0.0182351   0.0261321 -0.00811235
 -0.0552152  -0.0145976    0.033789   0.0194713   0.0126316 -0.00754372  -0.0340893   0.0331867    0.026411
-0.00473604   0.0203361   0.0253336  -0.0130639  -0.0126037   0.0454615  -0.0212702   0.0160012    0.042117
  0.0430442   0.0271768   0.0258586  -0.0257516   0.0557237   0.0519581  -0.0231607   0.0194955   0.0252174
-0.00667446  -0.0247063  -0.0126723 -0.00609942   0.0640306   0.0164545   0.0370708  -0.0466749   0.0263127
 -0.0291627  -0.0255899  -0.0345096 -0.00272935   0.0379593  -0.0102153    0.048829  -0.0206399  -0.0325463
   0.055127   0.0207215  -0.0285716  -0.0221506   0.0326724  0.00593751  -0.0079657  -0.0235852   0.0432819
#
  0.00458756    0.0102841  0.000897876  -0.00240079    0.0299896    0.0156391   0.00923666  -0.00548756   -0.0179209    0.0234973
   0.0376924   -0.0109024   0.00579081   -0.0016552   -0.0447684    0.0302855   -0.0068077    -0.062947  0.000934876   -0.0135516
  -0.0217576    0.0546595   -0.0121712    0.0341974 -0.000397288    0.0615349   -0.0216498    -0.016946    0.0329856   -0.0014014
  -0.0296489    0.0251419   -0.0127744   -0.0386988  -0.00893095  -0.00784685    -0.021059    0.0127738 -0.000626164  -0.00572686
  0.00412738    0.0141656   0.00309394  -0.00728997    0.0362728    0.0566087    0.0351378   -0.0250005   -0.0167158   -0.0464809
  -0.0624984   0.00943904   0.00528717   0.00765648    0.0426289   -0.0229172   0.00524917   -0.0829345    0.0494005   -0.0382882
   -0.053427  0.000219268    0.0126377   -0.0807886   -0.0139941  -0.00294119    0.0366622   -0.0319689   0.00571118    0.0241162
   -0.020327   0.00753154    0.0463796   -0.0557308   -0.0369148  -0.00834442  -0.00581375   -0.0103285     0.061788   0.00517137
 -0.00576459   0.00354395   -0.0242715    0.0483977  0.000600208   -0.0151471   0.00991241    -0.014648     0.063905  -0.00851665
 0.000617128   -0.0868092   -0.0502908    0.0364105 -0.000748277    -0.014669    0.0297879    0.0312616     0.031578   -0.0615958
#
   0.0474355   0.00838001  -0.00542917   -0.0103577     0.053684   -0.0094157    0.0312039    -0.020421   0.00958085    0.0236423
  -0.0678421    -0.034291    0.0712794  -0.00203274    0.0177462   -0.0358911   -0.0165048    0.0164877    0.0296765   -0.0276082
  -0.0117967   -0.0536355   -0.0712144   -0.0231886    0.0155205   -0.0321926   -0.0390624   0.00428403    0.0345952    0.0421177
  -0.0230744    0.0116035    0.0686871   -0.0230603    0.0152895    0.0386561    0.0360166   -0.0703861   0.00410545   -0.0175856
 0.000971457    0.0107279   -0.0203055   -0.0222085    0.0154789    0.0354416   0.00531581   0.00336703   -0.0135717   -0.0546881
  0.00586103     0.010808   0.00908541  -0.00370845   -0.0213487   -0.0357369    0.0249652   -0.0238594   -0.0589318   -0.0216717
 -0.00678441   -0.0491091    0.0358576  -0.00330773  -0.00758429 -0.000964864    0.0140161  -0.00539374   0.00656107    0.0377438
 -0.00344021   -0.0128194   -0.0959644   -0.0382502   -0.0545828    0.0175191    0.0246219   0.00352717   -0.0760251  -0.00833619
  -0.0221861    0.0391689   0.00543452   -0.0342927   -0.0160611    -0.041972    0.0374614   -0.0115546    0.0270798   0.00631339
    0.030173  -0.00489952   0.00388154    0.0186701   -0.0156477       0.0465    -0.025056   -0.0187141    0.0289282    0.0144918
#
   0.0258166 -0.000105961   -0.0187086   -0.0220577   0.00936559  -0.00671569   -0.0117392  -0.00878643    0.0233667   -0.0394998
 -0.00423091  -0.00766952   0.00837471    0.0819791     0.015249    -0.071169   -0.0498077   -0.0218199  -0.00624333    0.0350437
  0.00780576    0.0600859    0.0574862    0.0169858   -0.0230317   -0.0620727   -0.0180191   -0.0198928    0.0443245   -0.0368728
#
!
<12>:48
    0.037074   -0.0263276  -0.00377708   -0.0321023     0.079038    -0.058586   -0.0287165   0.00353639    0.0218184
 -0.00972037  0.000433118    0.0414518   -0.0110683   -0.0379486  -0.00101705  -0.00127934    0.0226609   0.00907304
  -0.0454807   -0.0397977    -0.024158  0.000902647   -0.0156578    0.0233166 -0.000281686    0.0576066   -0.0107594
  0.00328479   -0.0353168  -0.00523289  -0.00406519   -0.0383062   -0.0192176    0.0152418    0.0212883   -0.0195632
  -0.0525212   0.00363676    0.0318913    0.0239432   0.00359788   -0.0103464   -0.0242395    0.0267095     0.037947
   0.0147095   0.00951983    0.0186779   -0.0199705    -0.019908    0.0471491   -0.0393388    0.0209624    0.0491771
   0.0405886    0.0221887    0.0304856   -0.0313372    0.0631197    0.0408487   -0.0121784     0.014986    0.0187571
   0.0137262   -0.0236902   -0.0180898   -0.0188149    0.0628654    0.0364355     0.039698   -0.0570035    0.0162225
   -0.023263   -0.0308453   -0.0498089    0.0264555    0.0524046  0.000944708    0.0356162  -0.00739588  -0.00508178
   0.0608097    0.0514966   -0.0353806   -0.0352442    0.0310202   0.00442202    0.0155707   -0.0206747    0.0285455
#
   0.0102081   0.00797908   0.00298111  -0.00191164    0.0347918     0.012107    0.0245154   -0.0116057  -0.00866196    0.0101483
   0.0327197   -0.0046607    0.0146027  -0.00615827   -0.0430804    0.0307295   -0.0158584   -0.0568437   -0.0174417   0.00186521
  -0.0206044    0.0606481    -0.012153    0.0359865   0.00214943    0.0618387   -0.0256424   -0.0293011    0.0463019   -0.0200678
   -0.028862    0.0203632   -0.0257892   -0.0509334  0.000555133   -0.0252435   -0.0286166    0.0178261    0.0182418   0.00590397
  0.00576315    0.0187313    -0.022982   0.00395435    0.0393773    0.0649676    0.0519185   -0.0355952    0.0112387   -0.0498696
  -0.0503915    0.0122995    0.0138357    0.0068664     0.036495   -0.0397866   -0.0190871   -0.0872243    0.0606711   -0.0400866
  -0.0362916  0.000236813    0.0163618   -0.0884283  -0.00740036  -0.00505062    0.0383027    -0.030304    0.0101407     0.024426
  -0.0295305   0.00663456    0.0658599    -0.034299   -0.0315418  -0.00128908  -0.00764784   -0.0221156    0.0625047   0.00383307
   0.0199992   0.00916187   -0.0298519    0.0490027 -0.000586034   -0.0156194    0.0191864   -0.0296274    0.0674644   -0.0180543
  0.00980959   -0.0741193   -0.0482244    0.0214145  -0.00401732  -0.00901743     0.024213    0.0222207    0.0222487   -0.0772249
#
   0.053884   0.0108763  -0.0109058  -0.0277909   0.0480445  -0.0343456   0.0206049  -0.0268928   0.0130501   0.0336992
  -0.076267   -0.051177   0.0626411   0.0060769  0.00557921  -0.0193138  -0.0189428  0.00273026   0.0261154  -0.0236127
 -0.0136807  -0.0578088  -0.0463371  -0.0146701  0.00983418  -0.0208458  -0.0295852  0.00117515   0.0233192    0.055795
 -0.0353018  -0.0093967   0.0597481 -0.00726614   0.0315193   0.0225808   0.0384573  -0.0822684   0.0203047  -0.0184444
-0.00855917   0.0141057  -0.0183251  -0.0245446  0.00876444     0.05359 -0.00379574   0.0157734   -0.011458  -0.0269795
0.000977634   0.0203887  0.00738117 -0.00371766  -0.0374838  -0.0407879   0.0352125  -0.0350868  -0.0602482  -0.0218058
 -0.0161314  -0.0576914   0.0355969 0.000501845  0.00416213 -0.00605071  0.00654068 -0.00668504  0.00172105   0.0578169
  -0.010703  -0.0171249  -0.0916321  -0.0407331  -0.0572869  0.00627722   0.0320087  0.00468022   -0.081264 -0.00451807
 -0.0121435   0.0461321  -0.0203534  -0.0221391  -0.0338048  -0.0471557   0.0394661  -0.0049297   0.0247634 0.000975171
   0.041039  0.00117194  0.00545265  0.00587173  -0.0231158   0.0297865  -0.0434641  -0.0193876   0.0360798  0.00482145
#
  0.0324354 -0.00765759  -0.0205707  -0.0164869   0.0134894 -0.00994659  -0.0109905 -0.00801807   0.0317439   -0.021011
 0.00143434  -0.0172272  0.00412696   0.0782846   0.0176684  -0.0515675  -0.0645198   -0.018544 -0.00190634   0.0614614
-0.00594269   0.0638051   0.0655901   0.0277256   -0.011874  -0.0490345   -0.006364  -0.0348271   0.0399315   -0.028087
#
!
<19>:48
   0.0357424   -0.0235642   -0.0155056   -0.0305114    0.0625773   -0.0464351   0.00275165    0.0105014   0.00574511
  0.00271631  -0.00791351    0.0444957   -0.0230303   -0.0268909   0.00898094   -0.0312687    0.0417016   -0.0111471
  -0.0488418   -0.0157766   -0.0379508   0.00739879   -0.0384993    0.0143868   -0.0130957    0.0592561  -0.00723291
  -0.0222933   -0.0262944    0.0105377   0.00743479   -0.0310808  -0.00804535    0.0169595    0.0218878  -0.00136502
  -0.0588517   -0.0123334    0.0385221    0.0157853    0.0311013   -0.0232201   -0.0298288    0.0428474    0.0499327
   0.0116511     0.003038    0.0203794   -0.0267419   -0.0116641    0.0193558    -0.012682    0.0288665    0.0417089
   0.0422361      0.02238    0.0345193   -0.0360531    0.0671987    0.0652541   -0.0107616  0.000433614 -0.000154277
  -0.0200497   -0.0363162   -0.0109135   -0.0167385    0.0554257    0.0267793   0.00847827   -0.0558425     0.034792
  -0.0142169   -0.0168755   -0.0291939  -0.00723081    0.0161078   -0.0177847    0.0554644  -0.00683641   -0.0662795
     0.05908    0.0218374   -0.0129616   -0.0262871    0.0236995   0.00698703   -0.0182485   0.00268609    0.0525994
#
-0.00280035  0.00830159  0.00683483  -0.0164133    0.025519  0.00361749    0.020058 -0.00705431  -0.0232315    0.022955
  0.0327795 -0.00168155  0.00310444  -0.0140012  -0.0438996   0.0273872 -0.00905452  -0.0765462   0.0223925 -0.00975377
-0.00953041   0.0341945  -0.0243662   0.0187529  0.00709751    0.043675  -0.0161507 -0.00959573   0.0338957   0.0044613
 -0.0262581   0.0214292  -0.0269148  -0.0286775  -0.0299607  -0.0112119  -0.0259938   0.0196441  0.00105003  -0.0122839
-0.00294628   0.0357921  0.00653251  -0.0021428   0.0311684   0.0638275   0.0425267  -0.0347656  -0.0270786    -0.04642
 -0.0474424   0.0175036 -0.00237032   0.0187194   0.0174428   -0.005114  -0.0122353   -0.096659   0.0450208  -0.0256346
 -0.0673939 -0.00484962   0.0168342  -0.0726884 -0.00836293  -0.0219177   0.0687496  -0.0469837  0.00788443    0.020275
 0.00621298  0.00825521   0.0477874  -0.0504672  -0.0475725   0.0285247 -0.00460801   0.0119121   0.0405025   0.0182195
  0.0033885  -0.0131544  -0.0516278   0.0475141 -0.00708559  0.00642117   0.0157025  -0.0180052    0.069555  0.00935652
  0.0112544  -0.0835854  -0.0440035    0.031457  0.00947495 -0.00937251    0.021022   0.0275158   0.0298114  -0.0453318
#
   0.0470858    0.0120566  -0.00513094  -0.00786413    0.0326479   0.00201351    0.0226683   -0.0103324   0.00350633    0.0230002
  -0.0838323    -0.041692    0.0922502   -0.0102698    0.0137084   -0.0539945   -0.0144282    0.0166429    0.0436837    -0.035459
-0.000665694   -0.0563171   -0.0797187   -0.0109462    0.0238627   -0.0257816   -0.0226223  -0.00275134    0.0350136    0.0430738
  -0.0173497   0.00675373    0.0622452   -0.0217819   0.00861265     0.029597    0.0345975   -0.0687992   0.00432196   -0.0140693
   0.0079224   0.00744142   -0.0175485   -0.0314592   0.00305317    0.0325593    0.0136307  -0.00277415   0.00545992   -0.0530744
  0.00250568   0.00745872    0.0166667   0.00381624   -0.0182266   -0.0256747    0.0239348   -0.0155714   -0.0737651    -0.014652
  -0.0327714   -0.0392633    0.0446477 -0.000619651   0.00232531   -0.0181161    0.0269663  -0.00358226   0.00895248   0.00938117
    0.015785   -0.0335181   -0.0847724   -0.0421618   -0.0426953    0.0270896    0.0326499   0.00956248   -0.0603746   -0.0264598
  -0.0158069    0.0498158   -0.0116859   -0.0406023   -0.0189607   -0.0491227    0.0316427   -0.0418812    0.0258153  -0.00191502
   0.0235844   0.00123261   0.00386293    0.0285032   -0.0249807    0.0556169   -0.0228321   -0.0264555    0.0233148   0.00627866
#
   0.0311737   -0.0390355   -0.0291463   -0.0479935    0.0153567    0.0193466    -0.024483   -0.0137138   0.00609323    -0.038006
  0.00988021   -0.0145565    0.0167031    0.0637735   0.00591729   -0.0597961    -0.045378   -0.0386874  -0.00335562    0.0383678
   0.0128539    0.0532647    0.0489013    0.0116642   -0.0140852   -0.0518024   -0.0176917 -0.000868187    0.0364225   -0.0268607
#
!
<6>:47
  0.0391848  -0.0314334 -0.00208854  -0.0446914       0.086  -0.0589274  -0.0174252 -0.00104133   0.0125423
  0.0161676   0.0299844   0.0283902  -0.0103959  -0.0438514  -0.0156851  -0.0184063   0.0275327   0.0147194
 -0.0794124  -0.0198533  -0.0363874   0.0132975  -0.0127855   0.0191745  0.00889118   0.0662472  -0.0181897
-0.00369324   -0.028566 -0.00241828  0.00780596   -0.046022   0.0193481   0.0231716   0.0145241  -0.0113126
 -0.0411784  0.00162482     0.04724    0.028213   0.0165148  -0.0197499   -0.027871   0.0227895    0.037698
  0.0161581   0.0156983   0.0185756  0.00387323 -0.00179477   0.0313531  -0.0426347   0.0197188   0.0197302
  0.0369227   0.0257331   0.0399782  -0.0205213    0.069513   0.0586619  -0.0311098   0.0113845   0.0170552
 -0.0114813  -0.0378279  -0.0126386  -0.0239049   0.0542641  0.00299075   0.0378592  -0.0475694     0.03625
 -0.0159716  -0.0334033  -0.0129828  0.00139294   0.0172145 -0.00580214   0.0395979  -0.0241898  -0.0434799
  0.0415542   0.0151854  -0.0348279  -0.0137499   0.0274834   0.0112104 -0.00256895   -0.034127   0.0239744
#
 -0.00971386 -0.000950681  -0.00423288  -0.00971998    0.0324883    0.0252857   0.00383841  -0.00578748   0.00341139    0.0246877
   0.0486057   -0.0111714    0.0128331  -0.00775762    -0.027569    0.0398509  -0.00100696   -0.0709346   0.00350963  -0.00477905
  -0.0178212    0.0398994   -0.0106633    0.0276052    0.0149076    0.0556019   -0.0195597   -0.0167146    0.0165617  -0.00718999
  -0.0104403    0.0167887   -0.0109233   -0.0282957   -0.0035093   0.00123504   -0.0143144   0.00827118   0.00398649   -0.0252837
 0.000609052  -0.00143924  -0.00958124   -0.0156532    0.0299237    0.0381808    0.0188309   -0.0293798  -0.00791091   -0.0445961
  -0.0539372   0.00880957  -0.00821293   0.00204699    0.0402349   -0.0471884  -0.00423327   -0.0813801    0.0454331   -0.0769531
  -0.0561788   0.00832261    0.0277109   -0.0957586   -0.0103267   -0.0145357    0.0424152   -0.0458634   0.00431842    0.0259996
  -0.0279249    0.0260466    0.0467624   -0.0629177   -0.0385366     0.014388  -0.00810633   -0.0110962    0.0516325    0.0059296
 -0.00582703   -0.0102356   -0.0278128    0.0261857  -0.00119964   -0.0231914    0.0146562  -0.00124221    0.0853433   0.00987279
  0.00224269   -0.0957414   -0.0571436    0.0301605 -0.000945211   -0.0271506    0.0259575    0.0240928    0.0398662   -0.0412213
#
  0.0634811   0.0125535  0.00394579  0.00341323    0.059374 -0.00688905   0.0375375  -0.0203445   0.0152712    0.030075
 -0.0532621  -0.0271339     0.07639  -0.0116078   0.0370787  -0.0316638 -0.00893242   0.0104288   0.0280583 -0.00675486
 -0.0232606  -0.0510561  -0.0717791  -0.0302182   0.0218062  -0.0403974  -0.0370943   0.0062485   0.0334259   0.0391541
 -0.0288353  0.00335641   0.0777568   -0.030431   0.0171451   0.0330058   0.0443203  -0.0754754  0.00588197  -0.0179319
 -0.0148419   0.0228039  -0.0194064  -0.0208552   0.0126548   0.0330491   0.0130858  0.00903308  -0.0121309  -0.0563087
0.000976488  0.00864853   0.0255513   0.0136436 -0.00152922  -0.0507042   0.0248601 -0.00856337  -0.0415647  -0.0183953
 0.00590651  -0.0511486   0.0381381 -0.00287769  -0.0141652  -0.0137259  0.00854583  0.00138304   0.0107021   0.0294607
  -0.012738   0.0113074  -0.0849421  -0.0369247  -0.0395964   0.0223357   0.0284539   0.0126515  -0.0848442  -0.0138711
 -0.0356321   0.0218868  -0.0112023  -0.0226442  -0.0173871   -0.044726   0.0541987   0.0113905   0.0108093 -0.00983429
  0.0236559  -0.0122189  0.00828211  0.00818665 0.000780364   0.0572272  -0.0406693  -0.0081911   0.0283415   0.0225247
#
  0.0217653  0.00325916  -0.0148109  -0.0288486    0.011509  -0.0114336 -0.00758277  -0.0138084   0.0307632  -0.0475055
 0.00678358  -0.0255801   0.0118071    0.100852  0.00825493  -0.0774965  -0.0597724  -0.0318429  -0.0151652   0.0517768
-0.00462601   0.0705735   0.0516728   0.0201609  -0.0269502  -0.0688886 -0.00517232  -0.0271718   0.0282724  -0.0424073
#
!
<71>:47
   0.0256159  -0.00476973  -0.00879099   -0.0280964    0.0918249   -0.0335065   -0.0208488   -0.0272822     0.029879
  0.00290031    0.0018724    0.0175352   -0.0060754    -0.013669  0.000431635     0.011136    0.0273542   0.00401336
  -0.0426558   -0.0208343   -0.0273144   -0.0222873   -0.0225538    0.0184616    0.0180354    0.0472861   -0.0169973
 -0.00374904   -0.0214586   -0.0018571    -0.010382   -0.0472634   -0.0172971   0.00275802    0.0402905  -0.00194327
  -0.0577799   0.00429247    0.0641686     0.020998    0.0255682   -0.0157782   -0.0284077    0.0438168    0.0242168
  0.00421999    0.0082662     0.049572  -0.00255642   -0.0430661    0.0592017    -0.038159   0.00625193    0.0570343
   0.0526807   0.00642919     0.024748   -0.0358251    0.0342618    0.0439753   -0.0156958 -0.000585452    0.0372659
  -0.0124151   -0.0275276   0.00364907   -0.0264246    0.0683755    0.0175243    0.0504173   -0.0547338    0.0476863
 -0.00945375    -0.038486   -0.0372913  -0.00619846    0.0587612   -0.0158391    0.0711466   -0.0151557     -0.01761
   0.0498973    0.0132404   -0.0352261   -0.0368857    0.0507566    0.0136897   0.00571448  -0.00415007    0.0372409
#
   0.0150057  -0.00478689    0.0119489  -0.00941956     0.045834  -0.00594108    0.0223827   -0.0236852    0.0048537    0.0269248
   0.0540196    0.0123252    0.0287268   -0.0031263   -0.0607495   0.00737145  -0.00852457   -0.0799784   -0.0137344   -0.0168074
  0.00534942     0.060062   -0.0258773    0.0347924    0.0218555    0.0450787   -0.0299748   -0.0175095    0.0410031  -0.00742017
  -0.0322812    0.0276059  -0.00154938   -0.0438673  -0.00173293   -0.0279009   -0.0142408    0.0194473    0.0252327   -0.0324992
  -0.0111375    0.0159798   -0.0150699  -0.00247153    0.0544835    0.0697382    0.0344606   -0.0169961    -0.004587   -0.0504598
  -0.0664969    0.0160444   0.00351563   0.00887253    0.0633784   -0.0199737  -0.00845705   -0.0863484    0.0539417   -0.0155499
  -0.0553399   0.00309895    0.0119749    -0.094679  -0.00042512   0.00390315    0.0456738   -0.0281921   0.00962792    0.0396855
  -0.0187963     0.013425      0.06386   -0.0451072   -0.0295505   -0.0171712  -0.00974985   -0.0195477    0.0548902    0.0224255
  0.00569169    0.0230104   -0.0217181    0.0361162   -0.0216032   -0.0270806    0.0156168   -0.0287441    0.0613134      0.02446
   0.0269719   -0.0943885  -0.00912876   0.00895214 -0.000590993   -0.0065026    0.0212632     0.041927    0.0266223   -0.0740988
#
  0.0506424   0.0084482  -0.0210185  -0.0391643   0.0647024  -0.0159387   0.0288213  -0.0339206  0.00521628   0.0324494
 -0.0580423  -0.0249677   0.0675213   0.0152943   0.0346457  -0.0413262  0.00326397    0.011795   0.0478106  -0.0335409
 -0.0107658  -0.0470502  -0.0651998  -0.0131615   0.0339362  -0.0169636  -0.0418448  -0.0275933   0.0281045   0.0253618
 -0.0573938  -0.0055829   0.0554807  -0.0257416   0.0267633   0.0271459   0.0248225   -0.080855   0.0305509  0.00718046
 -0.0105201   0.0284501 -0.00959622   -0.033668   0.0124036   0.0277497   0.0116852 -0.00607867  -0.0123167  -0.0537514
 -0.0085155   0.0159273   0.0252406   0.0144159  -0.0037444  -0.0489364   0.0327295  -0.0286663  -0.0647082  -0.0120337
 0.00248552  -0.0681583   0.0376803  -0.0179749  0.00360339  0.00904308  0.00667399  -0.0013998 -0.00525224   0.0229132
 -0.0329511  -0.0407406  -0.0824197  -0.0547006   -0.034805   0.0358275   0.0107976  0.00950885  -0.0685086  0.00695975
 -0.0223103   0.0384264   0.0145349  -0.0494423  -0.0287037  -0.0297475   0.0407431 -0.00492324   0.0465669   0.0102453
  0.0169764 -0.00544982   0.0296045   0.0405265   0.0145295   0.0432947 -0.00936547  -0.0280364   0.0322102   0.0258434
#
  0.0190276  -0.0250725  -0.0321153  -0.0232278   0.0270576  0.00508231  -0.0385354  -0.0289994   0.0328302  -0.0169712
 0.00356522  0.00128725  0.00599809   0.0682883   0.0120827  -0.0696869  -0.0229475  -0.0334743 -0.00156388   0.0704447
-0.00394755   0.0690466   0.0690931   0.0165746 -0.00953237  -0.0756396   -0.019303  -0.0350655    0.025956  -0.0466515
#
!
<13>:47
   0.025737  -0.0107602  -0.0075334  -0.0317065   0.0709932  -0.0475887  -0.0102355  0.00119321   0.0128273
  0.0130706  0.00785795   0.0272585  -0.0192201  -0.0387366  0.00671492 -0.00659909   0.0181857  0.00245898
 -0.0642026  -0.0134042  -0.0319179   0.0124007  -0.0123912   0.0161129  0.00214177   0.0515776 -0.00831221
 -0.0107312  -0.0165401   0.0200257 -0.00655112  -0.0408366  0.00347957   0.0203164    0.027915 -0.00123328
 -0.0666149  -0.0156754   0.0368518   0.0107951    0.021943  -0.0136526  -0.0389354   0.0348766   0.0254618
-0.00563613   0.0125728   0.0252848  -0.0137932  -0.0205715   0.0374019  -0.0317894   0.0109372   0.0518472
  0.0496965   0.0319948   0.0428884  -0.0249922   0.0615701   0.0532075  -0.0212371     0.01565   0.0271306
 -0.0232741  -0.0251245 -0.00829213  -0.0118641   0.0603526   0.0092938   0.0382071  -0.0431606   0.0280495
 -0.0287124  -0.0274221  -0.0228167 -0.00797987   0.0304254  -0.0157245   0.0457199  -0.0158935  -0.0301226
  0.0513071   0.0262031   -0.033266  -0.0252692    0.035377  0.00259644  -0.0063172  -0.0183779   0.0461734
#
  0.0110732  0.00993063 -0.00793599  0.00631204   0.0314997  0.00354366  0.00805062  -0.0134073  -0.0248778   0.0300668
  0.0428369  -0.0141407  0.00355495   0.0133276  -0.0342245   0.0350738 -0.00693829  -0.0670316  0.00370293 -0.00436623
  -0.019794   0.0607682 -0.00553405   0.0459132   -0.011421   0.0533216  -0.0167583  -0.0227909   0.0324887  -0.0115507
 -0.0271302   0.0364877 0.000224039  -0.0411131  -0.0108626  -0.0128788  -0.0232504   0.0187259 -0.00212828   0.0137193
-0.00421217 0.000640765 -0.00572337  -0.0121775   0.0437009   0.0530037   0.0508051  -0.0218884  -0.0137002  -0.0482635
 -0.0671546   0.0152775  0.00432387   0.0122385   0.0475939  -0.0217485 0.000770451  -0.0847598   0.0408156  -0.0459643
 -0.0446319  0.00413844   0.0211314  -0.0888103  -0.0226293 -0.00123125   0.0209653   -0.034786  0.00974756   0.0302922
 -0.0177573  0.00590938   0.0503006  -0.0531718  -0.0329189  -0.0153351  -0.0197676  -0.0143721   0.0667331 -0.00206013
-0.00759795  0.00317103  -0.0367864   0.0520539  0.00185591  -0.0136549   0.0109947  -0.0219127   0.0689935 -0.00230253
  0.0102921  -0.0760756  -0.0552522   0.0424061 -0.00748686  -0.0248843   0.0423177    0.027266   0.0318291  -0.0559374
#
   0.0504998    0.0196999   0.00047434  -0.00155217    0.0400637   -0.0210108    0.0259391   -0.0234107   0.00827111    0.0228067
  -0.0578504   -0.0375949    0.0802172  -0.00482867    0.0149597   -0.0315323   -0.0102224    0.0176056    0.0232381   -0.0350937
  -0.0175522   -0.0493876   -0.0643315   -0.0265264    0.0125357   -0.0317557   -0.0366801  -0.00178244    0.0428894    0.0513298
  -0.0285168    0.0151879     0.070695   -0.0277422    0.0110324    0.0420622    0.0389467   -0.0693007   0.00188069   -0.0117186
  0.00562934    0.0110015    -0.027687   -0.0307804    0.0114784    0.0390373   0.00467498   0.00617679   -0.0228438   -0.0551712
   0.0155931    0.0140002     0.016816  0.000432162   -0.0207804   -0.0299127   0.00855492   -0.0282882   -0.0703057   -0.0225426
  -0.0060369   -0.0556001     0.042456  -0.00743126   -0.0120592   -0.0109476    0.0290263   0.00196739     0.025384    0.0297229
 -0.00196748  -0.00990265   -0.0989223   -0.0475119    -0.041192    0.0174825    0.0331084    0.0124427   -0.0756689   -0.0171548
  -0.0368983    0.0286901 -0.000246429   -0.0415126  -0.00445353   -0.0347168    0.0413284   -0.0207182    0.0280396  -0.00439796
   0.0240137   -0.0114334    0.0191741     0.014476   -0.0030855     0.045902   -0.0243276   -0.0163092    0.0229698    0.0192389
#
   0.0149667   0.00100663   -0.0108651   -0.0369186    0.0173767 -0.000732745   -0.0199218  -0.00525597    0.0275563   -0.0375898
 -0.00954187  -0.00375867    0.0168685    0.0766329    0.0111792   -0.0627117    -0.057975   -0.0250104   -0.0205889    0.0459799
  0.00186536    0.0520679    0.0539607    0.0144452   -0.0155105   -0.0547379  -0.00833608   -0.0159079    0.0555287   -0.0428487
#
!
<17>:46
  0.0261217  -0.0170998  -0.0161535  -0.0509276   0.0939092  -0.0727064  -0.0221386 -0.00937513    0.014315
   0.021539  0.00194777   0.0466772  -0.0142775  -0.0204504 -0.00280153  -0.0194591   0.0340159 -0.00719026
 -0.0726843  -0.0174715   -0.047178   0.0133135 -0.00444769   0.0197376  0.00473942   0.0473868  0.00809877
 -0.0236115  -0.0207219   0.0166615   -0.012349  -0.0446439  0.00359082   0.0277869   0.0432522  -0.0115569
 -0.0578499   -0.025497   0.0346197   0.0244134  0.00443682 -0.00814828  -0.0306532   0.0235149   0.0257825
-0.00172779   0.0205141   0.0176871  -0.0421151  -0.0141566   0.0301871  -0.0225443   0.0238302   0.0257191
  0.0390922   0.0116149   0.0344791  -0.0382802   0.0774672   0.0376596  -0.0131734   0.0316587   0.0188485
 -0.0144849  -0.0335488  0.00457415  0.00351428    0.073852   0.0398372   0.0370867  -0.0469572   0.0277899
 -0.0196413  -0.0199047  -0.0418876 0.000505686   0.0474656 -0.00499355   0.0523304   -0.018166  -0.0323319
    0.07269   0.0285571  -0.0227705 -0.00702189   0.0317044 -0.00468006  -0.0226839  -0.0198925   0.0404713
#
 -0.00137059   0.00365425   0.00655275    0.0227009     0.013191    0.0255787   0.00572214   0.00954296   -0.0186003     0.029725
   0.0497218 -0.000314601    0.0138152  -0.00807103   -0.0390095    0.0257746  -0.00534747   -0.0617385   -0.0094545   -0.0324608
  -0.0243351    0.0705083   -0.0211571    0.0380339  -0.00349483    0.0567138   -0.0128605   -0.0125553    0.0364544   -0.0100564
   -0.032416    0.0171931  -0.00530167    -0.026259 -0.000606307  -0.00447942   -0.0313299    0.0181293    0.0155963  -0.00942109
   0.0089659    0.0236853   0.00811242   0.00708272    0.0210755     0.046427    0.0273736   -0.0372046   -0.0244338    -0.049366
  -0.0767385   0.00621679  0.000115659  -0.00526258    0.0509643    -0.016469   0.00139223   -0.0746727    0.0482998   -0.0382727
  -0.0657202 -0.000740023  -0.00590986    -0.087675    -0.013626  -0.00347402    0.0284968   -0.0324645   0.00236127   0.00492878
 -0.00743639    0.0190661    0.0293601    -0.040238   -0.0324379  0.000526579  -0.00287692   -0.0243679    0.0709991   0.00456694
   0.0147872    0.0149359   -0.0111354    0.0717394   -0.0116196   -0.0282282  -0.00829888   -0.0166205    0.0556914   -0.0135003
  0.00358118    -0.090288   -0.0388522    0.0337124  -0.00614197  -0.00527138    0.0256715    0.0375757   0.00831085   -0.0550855
#
  0.0345198 -0.00140474   -0.011966  -0.0243529   0.0680403  -0.0122528   0.0310821  -0.0137216  0.00331842    0.029011
 -0.0807654  -0.0489781   0.0719044 0.000328185  0.00159288  -0.0136965 -0.00849109   0.0112285   0.0374552  -0.0458403
-0.00985919  -0.0624522  -0.0731414  -0.0271598   0.0114291  -0.0400544  -0.0335704   0.0101807   0.0424587   0.0287403
 -0.0214774   0.0013023   0.0676869  -0.0113284   0.0168675    0.039695   0.0340639  -0.0847681 -0.00535483  -0.0127475
-0.00880872  0.00664472 -0.00721821 -0.00104325    0.014569    0.033936  0.00883343  0.00531097 -0.00390472  -0.0504983
  0.0199572   0.0155784 -0.00448453  0.00403423  -0.0373598  -0.0446204   0.0389551  -0.0286276  -0.0640359  -0.0336981
-0.00848693  -0.0593496    0.028217  -0.0236116  -0.0041826  -0.0104505   0.0274403  0.00404619  -0.0100602   0.0266526
 0.00365777  -0.0185415  -0.0962716   -0.037917   -0.045266  0.00843274   0.0401856  0.00550252  -0.0787755   0.0123944
 -0.0252048   0.0430535   0.0178108  -0.0312616   -0.027803    -0.02915   0.0351767 -0.00839335    0.022413  0.00910605
  0.0358814  -0.0111631  0.00444512   0.0150891  -0.0144466   0.0447871  -0.0291087  -0.0277682   0.0366853  0.00648353
#
  0.0303365   0.0199571 -0.00871007  -0.0235826  0.00144048  -0.0179618  0.00253513  -0.0309421   0.0240433  -0.0380613
 -0.0139416  -0.0209219   0.0216903   0.0890405   0.0162614  -0.0799737  -0.0463837  -0.0322982 -0.00499182   0.0436346
 0.00466927   0.0708015   0.0657192   0.0347489   -0.039504  -0.0695269   -0.024954  -0.0231849   0.0651892  -0.0341437
#
!
<10>:45
   0.0401538  -0.00609081   -0.0174098   -0.0430877     0.084525   -0.0562592   -0.0223212   -0.0114959     0.024279
  0.00475475   0.00226576    0.0171468  -0.00620915    -0.038444   0.00397135  -0.00662598    0.0407192    0.0166914
  -0.0763116   -0.0359024    -0.045982 -0.000380196   0.00571589    0.0161665  -0.00421331     0.030752   -0.0085728
 -0.00207783   -0.0075597   -0.0106917  -0.00669532   -0.0361493  0.000749288    0.0145319    0.0192795   -0.0118311
  -0.0614675   -0.0324746    0.0353749    0.0216454    0.0351972   -0.0136985   -0.0368099    0.0331641    0.0285396
  -0.0144454  -0.00262456     0.016866   -0.0248322   -0.0231731    0.0478005   -0.0342557   0.00238643    0.0481044
   0.0331611    0.0525453    0.0156167   -0.0279025    0.0424574    0.0756094  -0.00646826    0.0149433    0.0320208
  -0.0183375  -0.00963172   -0.0134921  0.000801754    0.0487903    0.0319327     0.035816   -0.0572647    0.0298617
  -0.0147459   -0.0304365   -0.0157606  -0.00989377    0.0385291  -0.00276421    0.0492091  -0.00749394    -0.026287
   0.0528004    0.0274049   -0.0289329   -0.0137103    0.0509405   0.00142958  -0.00727946    -0.025762    0.0134674
#
   0.0188241   0.00187577  -0.00607012   0.00713087    0.0178314      0.01229    0.0157526  -0.00321161   -0.0213061    0.0319352
   0.0283736   -0.0130557    0.0139409  -0.00352716   -0.0396218    0.0242365   -0.0248009   -0.0555682   -0.0160074  -0.00769088
   -0.003418    0.0591618   -0.0112308    0.0351766  -0.00326388    0.0603161   -0.0279563   -0.0113004    0.0195694  -0.00644994
  -0.0187712   0.00610947  -0.00977414   -0.0539142  -0.00902537   -0.0215907   -0.0146507    0.0218409    0.0187761  -0.00754797
 -0.00767747   0.00425555   -0.0124694  -0.00829028    0.0355635     0.057875     0.020534   -0.0585214  -0.00930252   -0.0559895
  -0.0674256     0.032787  -0.00124361  -0.00212424    0.0453517    -0.034263   -0.0116436   -0.0966646    0.0405476   -0.0313039
  -0.0502669    0.0135961     0.010819   -0.0790986  -0.00828454    -0.024559    0.0252848     -0.04385    0.0186665    0.0254345
  -0.0310382    0.0241811    0.0531036   -0.0560842   -0.0409042   -0.0132457   -0.0185089 -5.12935e-05    0.0531492   0.00717268
   0.0149746   0.00432561   -0.0312898    0.0413487  -0.00773711   -0.0230142   0.00205081  -0.00710894    0.0646848   -0.0118223
   0.0178975   -0.0978154    -0.046512    0.0178135    0.0139777  -0.00800391    0.0118175    0.0474007    0.0108258   -0.0439738
#
   0.0588776    0.0248619   -0.0164248   -0.0324356      0.07207  -0.00455561    0.0376643   -0.0362151    0.0153686    0.0510626
  -0.0673282    -0.036712    0.0586671   0.00241301    0.0171806   -0.0284691   -0.0179932   0.00383326    0.0382585   -0.0207137
 -0.00809909   -0.0504151   -0.0623699   -0.0219718    0.0202675   -0.0333546   -0.0261262   0.00481861    0.0230802    0.0355768
  -0.0138942    0.0197545    0.0637298 -0.000189266    0.0295095    0.0195766    0.0404278   -0.0923759    0.0173903  -0.00226709
  -0.0250675    0.0194774   -0.0113187   -0.0373679    0.0235703    0.0421694    0.0152738    0.0167245   -0.0106576   -0.0718431
  0.00672538   0.00728864    0.0260518   -0.0205775   -0.0249087   -0.0507629     0.018341  -0.00736025   -0.0771234   -0.0109011
 -0.00977836   -0.0543993   0.00982697   0.00352114  -0.00479178  -0.00992283   0.00866875  -0.00401882  -0.00911447    0.0222956
 -0.00633822    -0.027624   -0.0894415   -0.0447629   -0.0601954    0.0236903     0.025112    0.0133643   -0.0615408     0.006474
  -0.0235417    0.0271158  0.000201493   -0.0514124   -0.0310951   -0.0352894    0.0267987   -0.0207576    0.0424456    0.0215946
   0.0332683    0.0150406  -9.5982e-05    0.0281315   -0.0225657    0.0532566   -0.0165237   -0.0365166    0.0293986    0.0228539
#
  0.0367477 -0.00616039  -0.0234849  -0.0371307   0.0114542 -0.00340322  -0.0190376  -0.0234157   0.0371064  -0.0419415
0.000712727 -0.00675989 -0.00965964   0.0878008   0.0251832  -0.0507874  -0.0512042  -0.0188838  0.00696947   0.0415314
0.000942717   0.0680611   0.0452036   0.0241743  -0.0162421  -0.0659539  -0.0292435  0.00146323   0.0445934  -0.0327358
#
!
<14>:45
  0.0387582  -0.0165459  -0.0123128  -0.0347719    0.094397   -0.058816  -0.0151861  -0.0109633   0.0390218
  0.0242626   0.0028154   0.0198734 -0.00143548  -0.0493855   0.0172244 -0.00721138   0.0376431  0.00274969
 -0.0628388  -0.0245692    -0.03325   0.0262714  -0.0184733   0.0191373   0.0153029   0.0493667  -0.0272444
 -0.0134739   -0.020554   0.0142335  -0.0125609  -0.0484518   0.0198757   0.0212877   0.0182823 -0.00435907
 -0.0599607  -0.0261333   0.0378768   0.0199104  0.00740934  -0.0120522  -0.0287519   0.0475571   0.0332989
 0.00632601    0.017206   0.0290122  -0.0216397  -0.0172419   0.0328188  -0.0137256  0.00746904   0.0580173
  0.0505693   0.0456485   0.0242857  -0.0495324   0.0511086   0.0552423  -0.0278226   0.0177311   0.0398423
 0.00552038  -0.0238023  -0.0185647 -0.00365622   0.0542771   0.0287833   0.0348327  -0.0558386   0.0247224
  -0.019194  -0.0417934  -0.0524674 -0.00112391    0.051217 0.000855361   0.0570514  -0.0269538  -0.0308696
  0.0655091   0.0429538  -0.0264658  -0.0133433   0.0200733   0.0034124  0.00456683  -0.0206882   0.0218495
#
  0.00959194   -0.0158944   -0.0129941  -0.00943518    0.0339453    0.0276185    0.0114802   -0.0305242   0.00396174    0.0347028
   0.0161401    0.0111149    0.0129758   0.00118439   -0.0414039    0.0267748    -0.016512   -0.0680716   0.00849147    0.0103697
 -0.00258384    0.0639095   -0.0242144    0.0399723 -6.70892e-05    0.0801351   -0.0129117   -0.0478734    0.0420706   -0.0129701
  -0.0463069   0.00707537   -0.0171523    -0.042623   -0.0100087  -0.00985873   -0.0268813  -0.00304069    0.0110382  -0.00550271
  -0.0170962   -0.0111572   -0.0113356   -0.0162016    0.0441832    0.0673954    0.0294106   -0.0191483   -0.0265655    -0.053105
  -0.0696268   0.00141837   -0.0027428  -0.00211159    0.0529293   -0.0238983  -0.00486996    -0.075542    0.0612767   -0.0376385
  -0.0453125   -0.0041531   0.00420572   -0.0983232   -0.0286704  -0.00804615     0.026165   -0.0191505  -0.00740134     0.021991
  -0.0322416    0.0180512    0.0542801   -0.0399544   -0.0374446    0.0169437   -0.0128928    0.0107811     0.071403  -0.00498307
  0.00617404   0.00616705   -0.0330374    0.0411368   -0.0238624   0.00273717    0.0120885   -0.0154051    0.0751235   0.00178894
  0.00378654   -0.0842097   -0.0270535    0.0405517  -0.00742192   -0.0254839    0.0364885      0.02775    0.0120565   -0.0662978
#
   0.0561938   0.00792479   0.00649081  -0.00935078    0.0494611 -0.000938172    0.0243926  -0.00433283 -0.000678461    0.0306217
  -0.0603802   -0.0405003    0.0709296  -0.00910245    0.0256118  -0.00556238  -0.00842773    0.0226845     0.045496   -0.0174326
  -0.0139402   -0.0766455   -0.0720285   -0.0201427    0.0250876   -0.0409074   -0.0289571   -0.0182915    0.0264092    0.0338772
  -0.0479582    0.0135932     0.068734    0.0069446    0.0259493     0.046112    0.0369073   -0.0751353  -0.00750771    0.0053505
   0.0100723    0.0137006   -0.0322122    -0.021232   0.00864494    0.0498432    0.0205943    0.0246547    -0.010586   -0.0357296
 -0.00441274   0.00624334    0.0172096  -0.00806413   -0.0300274   -0.0373178    0.0308621   -0.0444211    -0.054999   -0.0262162
 -0.00910996   -0.0448389    0.0243122 -0.000662454   -0.0134596   -0.0145069    0.0183133   -0.0053002    0.0011475    0.0496781
  -0.0252627   -0.0257984    -0.101113   -0.0549011   -0.0529966   0.00386447    0.0160907   0.00203377   -0.0625654    -0.018851
  -0.0137354    0.0593719   -0.0153235    -0.012877   -0.0312238   -0.0405453      0.04848    0.0056824    0.0369505   0.00141512
   0.0177158  -0.00225621    0.0156138    0.0112896  -0.00706293    0.0388619   -0.0256122   -0.0133078     0.034032    0.0307749
#
   0.0215566    -0.001633   -0.0187471  -0.00123966    0.0205122  0.000299444   -0.0188217   -0.0053122     0.052669   -0.0264946
  -0.0160151    0.0188207    0.0349151    0.0823679    0.0116143    -0.083654   -0.0625185   -0.0405449 -0.000682305    0.0435491
   0.0217175    0.0519267    0.0743176    0.0111022    -0.030296   -0.0509412   -0.0294287   -0.0222505    0.0235794    -0.063935
#
!
<95>:45
   0.0330571   0.00642417   -0.0219285   -0.0412896    0.0886706   -0.0442576   -0.0234656   -0.0302218     0.048562
 -0.00118881   0.00216584   0.00256572   0.00466731   -0.0332104    0.0206044   0.00915101    0.0437043 -0.000890814
  -0.0639063  -0.00421726   -0.0302284   0.00463932  -0.00081419    0.0021046    0.0219666    0.0577205    -0.009478
 -0.00980383   -0.0214001    0.0052181  -0.00350484   -0.0150625   0.00995698   0.00987658    0.0263488     -0.01514
  -0.0585072 -0.000477818     0.030686    0.0297462    0.0299803   -0.0176356    -0.011378    0.0494499    0.0327671
  -0.0217852    0.0149698    0.0291185   -0.0106719   -0.0185832    0.0528794   -0.0376655  -0.00458663    0.0393917
    0.049307    0.0167207    0.0467004   -0.0571028    0.0612736    0.0421312  -0.00456506   0.00407003    0.0467104
  -0.0246637   -0.0266211   -0.0135298   -0.0188418     0.065312    0.0272039    0.0558268   -0.0414598    0.0270875
  -0.0223813   -0.0243403  -0.00632784   -0.0150093    0.0748305  -0.00604941    0.0438339   -0.0165312   -0.0133578
   0.0430381    0.0393618   -0.0379577   -0.0484648    0.0334963   0.00209168   -0.0278034  -0.00692454    0.0325877
#
  0.00236138   -0.0105842   -0.0268677   -0.0160625    0.0490144 -0.000129015   0.00812544    -0.016731  -0.00775296    0.0287111
   0.0477008  0.000182517    0.0229043  -0.00705112   -0.0404261  -0.00362463   0.00639694   -0.0370183  -0.00810926   -0.0258294
  0.00541219    0.0626598   0.00161064    0.0352188     0.012423    0.0622259   -0.0256068   -0.0354748    0.0324598   0.00062469
  -0.0233189    0.0211881    -0.018146   -0.0503948   0.00757018   -0.0275155   -0.0137985    0.0198333  -0.00165283   0.00124912
  -0.0132866    0.0104118  -0.00684096   -0.0108169    0.0402089    0.0786266    0.0333988     -0.01549   -0.0299481   -0.0302753
  -0.0574688    0.0298676   0.00524165   0.00771811    0.0591687   -0.0407391   -0.0252144   -0.0997499    0.0725503   -0.0363028
  -0.0461879    0.0128549     0.029406   -0.0845627    -0.016032   0.00345714    0.0352468   -0.0282022   0.00579844    0.0322356
   -0.025563    0.0185977    0.0532979   -0.0212394   -0.0240137   0.00377485   -0.0188532   -0.0101057    0.0412152   0.00806739
   0.0111911   0.00402248   -0.0457331    0.0570775   -0.0201451   -0.0218939    0.0208809   -0.0160994    0.0444559   -0.0131702
   0.0165082   -0.0992021   -0.0425684    0.0204562    0.0116704   -0.0280625    0.0250365    0.0410781    0.0228187   -0.0876981
#
   0.0609634   0.00833989   -0.0120911   -0.0271055    0.0682141  -0.00270928     0.024484    -0.031712  -0.00592311    0.0153755
  -0.0676812   -0.0406982    0.0698283    0.0105739    0.0190069    -0.038214   -0.0217014  -0.00610806    0.0395805  -0.00351948
   -0.028418   -0.0484601   -0.0593099   -0.0173408   0.00958404   -0.0255749    -0.025471    -0.017328    0.0286082    0.0186889
  -0.0297811    0.0221039    0.0819563   -0.0267974    0.0390329    0.0151581     0.038469   -0.0873174    0.0124323  -0.00865894
  -0.0242634    0.0139356    0.0020047   -0.0344207     0.026525     0.028328    0.0236533    0.0235647 -5.34935e-05    -0.040566
 0.000504546    0.0111728    0.0100193   -0.0129121   0.00897915   -0.0406048    0.0471962   -0.0302914   -0.0632178   -0.0227392
  -0.0084634   -0.0646337    0.0388492  -0.00414493  -0.00640595   0.00501977   0.00158034   -0.0187522  -0.00910618    0.0330576
  -0.0210574   -0.0118398   -0.0872006   -0.0376523   -0.0563084    0.0223349    0.0134721    0.0168261   -0.0820221   0.00259472
  -0.0174194    0.0338735    0.0083169   -0.0484721   -0.0222078   -0.0673539     0.045255   -0.0259233    0.0209093    0.0139533
   0.0171573  -0.00227094   0.00181833    0.0140902   0.00724632    0.0386055   -0.0153404   -0.0158941    0.0237865    0.0200156
#
  0.0260968  -0.0170713  -0.0291181  -0.0263261  0.00776538  0.00574315  -0.0320136  -0.0227645   0.0324442  -0.0347151
-0.00503554  0.00932582  0.00305515   0.0610726    0.042219   -0.069994  -0.0424119   -0.014125  0.00461784   0.0426316
   0.007196    0.063485   0.0571458   0.0297139  -0.0232293  -0.0705952  -0.0286795  -0.0307861   0.0320838  -0.0410579
#
!
<15>:44
   0.0274369   -0.0039804  -0.00935597   -0.0283348    0.0915993   -0.0554711   -0.0243353   -0.0121304    0.0413126
  0.00337217   0.00382698    0.0175938   -0.0110669   -0.0111538   0.00688298   0.00747678    0.0175233  -0.00693376
  -0.0593025   -0.0118637   -0.0260931    0.0285552  -0.00284803  -0.00423754  0.000661693    0.0329662    0.0132074
  -0.0315324   -0.0162292   -0.0135984   -0.0143584   -0.0281003   0.00722497  -0.00601848    0.0355427    0.0010915
  -0.0601092  -0.00308916    0.0355944    0.0152692   0.00497677   -0.0253838    -0.037119     0.037573    0.0458212
  -0.0047768   0.00428942    0.0720272 -0.000519738     -0.01649    0.0635687   -0.0146256    0.0105667    0.0426335
   0.0469149     0.025024    0.0326527   -0.0251092    0.0400536    0.0554456  0.000449731  -0.00116451    0.0343702
 -0.00957574   -0.0312151   -0.0242013   -0.0176897    0.0738582    0.0330908    0.0479927   -0.0460018    0.0225764
  -0.0349166   -0.0329787   -0.0323884   -0.0278178    0.0551651   -0.0197236    0.0535326   -0.0198073   -0.0203653
   0.0530826    0.0318119   -0.0183443   -0.0490767    0.0342877    0.0178035   0.00073031  -0.00637735    0.0431641
#
  0.0105507 -0.00480267   0.0128987  0.00131427   0.0412314  0.00281303 -0.00400247 -0.00899827  -0.0188041   0.0314967
   0.055919    0.010318   0.0216753 -0.00277511  -0.0429306   0.0222238  -0.0143971  -0.0616141   0.0144407  -0.0140735
  0.0090417   0.0918337 0.000630465    0.040189  0.00344357    0.053104 -0.00261805  -0.0372651    0.047473 -0.00157069
 -0.0349654   0.0144609  -0.0243551  -0.0467517  -0.0121793 -0.00433384 -0.00213278   0.0150188   0.0215437   -0.012942
 -0.0215314  0.00659395 -0.00209106  0.00148428   0.0127469   0.0501818   0.0485313  -0.0213938  -0.0223147  -0.0418357
 -0.0430934   0.0240065 -0.00458208   0.0099418    0.045331  -0.0407682  -0.0412656  -0.0799114   0.0642452  -0.0366043
 -0.0345227   0.0161226   0.0255164  -0.0828164 -0.00793369   0.0135925   0.0426705  -0.0167647   0.0111944   0.0217423
 -0.0321568   0.0245486   0.0622192  -0.0363821    -0.03291  0.00275248  0.00130406  -0.0129693   0.0665335   0.0165683
  0.0306756   0.0221516  -0.0301301   0.0538754  0.00634016  -0.0323401    0.029711  -0.0334872   0.0337663  0.00265349
-6.4532e-05   -0.115302  -0.0195843   0.0210701    0.022717 -0.00516311   0.0205687  0.00179592   0.0285764  -0.0763244
#
   0.0590901    0.0163024  -0.00636032  -0.00769136    0.0830278  -0.00398517    0.0178363   -0.0243076     0.021166    0.0303002
  -0.0656849   -0.0353607    0.0774638    0.0162246    0.0400603   -0.0407681   -0.0149528  -0.00032773    0.0454707  -0.00512418
  -0.0095715   -0.0722948   -0.0551617   -0.0110891    0.0163679   -0.0259219   -0.0500944   -0.0163878    0.0288172    0.0206377
  -0.0410626   0.00359763    0.0699455   0.00136019     0.033825    0.0389977    0.0307852   -0.0899094    0.0364542    0.0151426
  -0.0134914    0.0239867 -0.000585533   -0.0209981    0.0188767    0.0140541    0.0111195    0.0232623   0.00306524   -0.0547952
  -0.0117781   0.00121002    0.0225794  -0.00784595 -0.000623362   -0.0462843    0.0304319   -0.0239897   -0.0524118   -0.0277506
  0.00144714   -0.0408384    0.0256661   0.00630972   -0.0173147  -0.00342405  -0.00204796  -0.00736655   0.00923671    0.0174406
  -0.0113312   -0.0185688   -0.0876314   -0.0538204   -0.0462309    0.0290888  -0.00807104   0.00922457    -0.102841   0.00253735
  -0.0238634    0.0375574  -0.00517353   -0.0380707   -0.0374042    -0.053074    0.0200107   -0.0230139    0.0506749    0.0165996
   0.0213414  -0.00734641    0.0111015    0.0166293   -0.0209668    0.0353106    -0.026826   -0.0165969    0.0346518    0.0141838
#
   0.0352821    -0.014147   -0.0177625   -0.0166179  -0.00646152   0.00125039   -0.0272003   -0.0139591    0.0207329   -0.0412865
  0.00551087    0.0092137   -0.0040835     0.067386    0.0239395   -0.0734706   -0.0441048   -0.0403937 -8.28842e-05    0.0415151
   0.0121682    0.0659946    0.0415558    0.0323322   -0.0203352   -0.0631809  -0.00771504   -0.0214243    0.0487542   -0.0555037
#
!
<77>:44
   0.0340377   -0.0147433   -0.0147986   -0.0351916    0.0881431   -0.0369884  -0.00747266   -0.0280799    0.0293075
   0.0183854   0.00442807    0.0290462  -0.00305158   -0.0322686  -0.00277385     0.014732     0.041621  -0.00104241
  -0.0599593   -0.0251313   -0.0381909   -0.0124555   -0.0180793   -0.0153859   0.00432587    0.0490266  -0.00572677
 -0.00424162   -0.0123931  -0.00296838   -0.0269107   -0.0309781  -0.00688998  -0.00250398     0.035322   -0.0195433
  -0.0511771  -0.00275481    0.0397066    0.0260793    0.0351271   -0.0274208 -0.000442214    0.0480767    0.0329313
   0.0163725   0.00773397    0.0451333   -0.0145624   -0.0289377    0.0692184   -0.0272737    0.0215271    0.0501186
   0.0460909   0.00607223    0.0304816    -0.047243    0.0527212    0.0460496  0.000154396    0.0185501    0.0262428
 -0.00608794   -0.0384036   -0.0143996   -0.0100952    0.0642242    0.0336132    0.0456623   -0.0757306      0.03162
 -0.00308936   -0.0303632   -0.0140948   -0.0169091    0.0556037   -0.0328722    0.0622974   -0.0305584   -0.0349602
   0.0553418    0.0248833   -0.0384258   -0.0247607    0.0299538   0.00925473   -0.0136033   -0.0195856    0.0455643
#
   0.0368467     0.010285   0.00338179    0.0120626    0.0423301   -0.0165883   0.00870686   -0.0160526  -0.00485223     0.024366
   0.0378682   -0.0138699      0.03331   -0.0153963   -0.0488067   0.00898454  -0.00111819   -0.0504499    0.0159487   -0.0134983
  -0.0344017    0.0662614   -0.0111206    0.0590591  -0.00595383     0.059306   -0.0127426   -0.0385575    0.0478759   -0.0187596
  -0.0240071     0.018438    0.0146827   -0.0419528   0.00232813   -0.0166269   -0.0194264 -0.000142146   0.00754458   -0.0204273
 -0.00864057    0.0108625   -0.0262644   -0.0134162    0.0214738    0.0519257    0.0344136   -0.0276888    -0.015375   -0.0545207
  -0.0667201    0.0226351   -0.0138855    0.0200692    0.0613696   -0.0206686   -0.0146575   -0.0880508    0.0574282    -0.013988
   -0.013595     0.024315    0.0344514   -0.0678131   0.00238108  -0.00213349    0.0400875   -0.0255456   0.00219643    0.0284719
  -0.0249206    0.0425867    0.0416827   -0.0402326   -0.0410807  0.000677556   -0.0169731   -0.0269085    0.0544102   0.00722868
  -0.0100541  -0.00172213   -0.0224306    0.0472434   -0.0176721   -0.0341876    0.0270465    -0.036331    0.0599723  -0.00485289
   0.0310516   -0.0989646   -0.0404009    0.0253596   0.00491181   0.00128682    0.0392959    0.0342792    0.0385915   -0.0784944
#
   0.0582327    0.0102232   -0.0107131   -0.0208669    0.0686979   -0.0206414    0.0244962   -0.0142582  -0.00778777    0.0134309
  -0.0736877   -0.0405984    0.0572714   0.00873542    0.0239383   -0.0386846  -0.00346651  -0.00220759    0.0415462  -0.00906324
  -0.0261448   -0.0561655   -0.0542167   -0.0244312    0.0314916   -0.0203532   -0.0479447   -0.0233303    0.0189714    0.0464045
  -0.0456285   0.00659186    0.0608372   -0.0281559    0.0359385    0.0155389    0.0295787   -0.0856765    0.0117786  0.000937666
  -0.0189493    0.0103887  -0.00844567   -0.0314445    0.0191421    0.0222896    0.0390147    0.0326768   0.00703958   -0.0321806
  -0.0163239    0.0252005    0.0197316   -0.0060814   -0.0167649   -0.0600573    0.0279724   -0.0219206   -0.0762057    0.0125165
   -0.021319   -0.0597303    0.0256131  -0.00756986   0.00866255  0.000924009  -0.00248483   -0.0108144   -0.0288639    0.0338375
  -0.0194227    -0.011552   -0.0731533   -0.0533758   -0.0357899    0.0130201   0.00787287    0.0200704   -0.0727187    0.0131984
  -0.0232462     0.036584     0.024964   -0.0417071   -0.0370259   -0.0421396     0.049692   -0.0167718    0.0359548   0.00621715
  0.00720613   -0.0151366 -0.000673437    0.0257562   -0.0168048    0.0197854   -0.0173303   -0.0381116    0.0143359   0.00872564
#
  0.0290162 -0.00428014  -0.0125094  -0.0409614  0.00560181 -0.00270671    -0.03552  -0.0231996   0.0180977   -0.057243
  0.0303962  0.00417405 0.000993222   0.0601512     0.04198  -0.0689002  -0.0444181  -0.0256751 -0.00481597   0.0482517
 0.00494395   0.0580526   0.0517083   0.0164633  -0.0107549  -0.0604574  -0.0235932  -0.0261089   0.0428087  -0.0286326
#
!
<16>:43
   0.0454278   -0.0298815   -0.0146629   -0.0385401    0.0804118   -0.0702048   -0.0229422   -0.0114819    0.0373399
  0.00294209   0.00567394    0.0348409    0.0107419   -0.0275675   0.00661136   0.00548843     0.019685    0.0135187
  -0.0362505  -0.00988629   -0.0461475  -0.00574932 -0.000789159   0.00728408  -0.00948525    0.0453803  -0.00429194
  0.00422073    -0.034693   -0.0409822   -0.0272473   -0.0281392   0.00930711    0.0168119    0.0249842  -0.00116867
  -0.0449322   -0.0199116    0.0434029    0.0371902    0.0107205   -0.0137294   -0.0163826    0.0339693    0.0551505
  -0.0184924    0.0259081    0.0443242   0.00251529   -0.0276105    0.0806402   -0.0268681   0.00899548    0.0402546
   0.0585982    0.0168234    0.0276786   -0.0559245    0.0532356    0.0647166   -0.0140285    0.0148119    0.0365836
 -0.00142783   -0.0238087    0.0110791  -0.00920946    0.0705108    0.0374616    0.0567433   -0.0545292    0.0402763
  0.00218349   -0.0507306   -0.0272855  -0.00190002    0.0522626   -0.0135375     0.041362    0.0032488   -0.0139126
   0.0625729    0.0145145   -0.0326705   -0.0408803    0.0339827  -0.00406696  -0.00676974    -0.024686    0.0496912
#
   0.0114002   0.00107732   0.00172238    0.0045619    0.0552731    -0.013549    0.0260215   -0.0152231   0.00453199    0.0121284
   0.0307512   0.00541207    0.0298857   0.00479777   -0.0521699   0.00856564 -0.000827453   -0.0557521   -0.0311106   -0.0295932
  -0.0233753    0.0701858   -0.0133852    0.0574939   0.00290281    0.0726345   -0.0139176   -0.0443847    0.0449641  -0.00461822
  -0.0121194    0.0153367    -0.030726   -0.0379037   0.00366207   -0.0279091  -0.00863955   -0.0013149   0.00228099   -0.0237344
  -0.0053891    0.0220733   -0.0157715    0.0132582    0.0510556    0.0549771    0.0271795   -0.0149334   -0.0178498   -0.0290307
  -0.0823496    0.0353577    -0.012629  0.000551638     0.053474   -0.0256565    -0.027652    -0.100509    0.0549867  -0.00339546
  -0.0447751    0.0185512    0.0164288   -0.0956839   -0.0255679  -0.00706431    0.0560795   -0.0272022    0.0166279    0.0235071
  -0.0255215   0.00644611    0.0554949   -0.0384909   -0.0542703   -0.0146042    0.0174201   -0.0254426    0.0517313   0.00775903
   0.0079189  -0.00160113   -0.0447922    0.0472446   -0.0242999   -0.0414495     0.022578  -0.00740268    0.0407408  -0.00686223
   0.0128784    -0.105775   -0.0432356    0.0229062   0.00931712  -0.00508886       0.0529    0.0222644    0.0303707   -0.0903574
#
   0.0657749   0.00901426    0.0106718   -0.0331629    0.0660339   0.00083615    0.0160819   -0.0209579   0.00345496    0.0288574
