<0>:Score:898
Distance:3.16228
  0.00170626      0.01927    0.0415018   -0.0187255    0.0352782   -0.0132795   -0.0161985   -0.0611273   -0.0206141
   0.0316157   -0.0126907   -0.0124854   0.00657836  -0.00768841   0.00776809   -0.0186656  -0.00255779   -0.0305004
  -0.0387517   -0.0200652     0.039496   0.00175969   -0.0249064    0.0435219    0.0412418  -0.00308485   -0.0077407
-0.000949539    0.0139368   0.00119678   0.00872433    0.0241452    0.0129853   -0.0192081   -0.0608465    0.0149095
     0.01946    0.0197343 -0.000570982   -0.0207236    -0.055904    0.0422466   -0.0494629   0.00996996    0.0181858
   0.0316998  -0.00967932    0.0383481    0.0316744  -0.00778534    0.0174629    0.0876635   -0.0280908    0.0536707
  -0.0247825   -0.0183706   0.00734776   -0.0180775   -0.0104909   -0.0223872    0.0184481   0.00791198    0.0151293
 -0.00700086     0.023324   -0.0492424   -0.0441813   0.00852456   0.00781138    0.0281745   -0.0507118   -0.0287822
  -0.0331926   0.00610053   -0.0120528  -0.00394766   -0.0083787    0.0785685  -0.00289544   -0.0126747   0.00741127
  0.00561313   -0.0131559     0.094553    0.0152383    0.0138137    0.0164306   -0.0201417   0.00657843    0.0443453
#
   0.0340037    0.0053728    0.0525974   -0.0502702     0.046929   -0.0494508   -0.0071396    0.0344259   -0.0164222   -0.0158708
 -0.00825908   -0.0594368   -0.0951292   -0.0469425    0.0040203   -0.0107803  -0.00679641    0.0292671   -0.0132868    0.0500573
   0.0332227    0.0071027    0.0347892   -0.0684061    0.0366614    0.0430272    0.0162812   -0.0570754    0.0181225   0.00309105
   0.0163794   -0.0338289  -0.00426372    0.0200852   0.00860034   -0.0527732   -0.0758021   -0.0185256 -0.000671841   -0.0237549
  -0.0130041     0.045237   0.00369745 -0.000158224    0.0522014   -0.0431015    0.0678597     0.010497    0.0443733    0.0464265
  -0.0198568    0.0466648   -0.0215238   -0.0276856   -0.0285594    0.0322479    -0.025833   -0.0342186    0.0309784    0.0356941
  0.00671862    0.0224842    -0.019738    0.0525294   -0.0108479    0.0134221   0.00805795    0.0215564  -0.00219612    0.0112856
   0.0363372     0.019735  -0.00175184   -0.0158858    0.0352446    0.0229454    0.0737268   0.00768502   -0.0325584    0.0601949
  -0.0883695     0.011756    0.0535544   -0.0277406   -0.0154025   -0.0381807   -0.0323304     0.010595    0.0396404   -0.0284976
  -0.0893657   -0.0354125   -0.0749893    0.0364171    0.0364466    0.0459038   -0.0190422  -0.00608376   -0.0453866     0.034306
#
 -0.0212132  -0.0271727 -0.00374531  0.00798775   0.0470097    -0.03903    0.069116  0.00144452   0.0402159  -0.0277144
 -0.0136627  -0.0243371  0.00203332  0.00779321 -0.00685883  -0.0411103  -0.0333474   0.0165267  0.00970781 -0.00906968
 -0.0102797   0.0470966   0.0150205  -0.0474103   -0.044496  0.00543287 0.000957829  -0.0495226  -0.0285965  -0.0126838
   0.100279  -0.0710123  0.00893248   0.0349934  0.00217606  -0.0461755    -0.02119 -0.00807587  0.00273391  -0.0580874
  0.0366081 -0.00418165    0.011859   0.0838879   -0.029963   0.0269714  -0.0401586  -0.0586914  -0.0100801   0.0102988
 -0.0172619  -0.0194947  -0.0831389  -0.0209254  -0.0261221 -0.00382192  -0.0372745   0.0110627  0.00928521   0.0221118
  0.0204956    0.082597 -0.00807859   0.0195283   0.0427702  -0.0385667    0.014982  0.00912551  -0.0132509  -0.0243197
 -0.0253287   0.0044426   -0.023112  -0.0322574   0.0160999   0.0403304  -0.0462838   0.0655004 -0.00221971   0.0394718
 -0.0392771 -0.00610225  0.00208419   0.0435785  -0.0578897   0.0506167   -0.024316  -0.0537964   -0.033518  -0.0405487
 -0.0404413  -0.0126175   0.0148832  -0.0188427   -0.027351  -0.0129807  -0.0100978  0.00735485   0.0790782   0.0427247
#
 0.00750276  0.00403476   0.0174504   0.0610878   0.0576644  -0.0133127 0.000880462  -0.0480333  -0.0358231  -0.0479702
  0.0358532  -0.0112679   0.0119734   0.0406832  0.00406385  -0.0491654   0.0775184  -0.0150413  -0.0167259 -0.00892429
  0.0146863  0.00682279   0.0486175 -0.00103467  -0.0194255 -0.00698589  -0.0186388  -0.0448681  -0.0295588 0.000519934
#
!
<31>:Score:898
Distance:4.12311
  0.00674946    0.0109081    0.0514184   -0.0189084    0.0357918   -0.0132719   -0.0156361   -0.0563762   -0.0155965
   0.0399775  -0.00905128   -0.0139394    0.0122889  -0.00842554   0.00583999   -0.0170967   0.00237557   -0.0363269
  -0.0332392   -0.0173514    0.0306116   0.00650487   -0.0208727     0.045214    0.0392592  -0.00367716  -0.00775133
-2.47754e-05    0.0197835 -0.000364432   0.00797668    0.0191672    0.0087067   -0.0168712   -0.0501942   0.00885241
   0.0244479    0.0131721  0.000201371   -0.0163549   -0.0559595    0.0483077     -0.04996   0.00926297    0.0284172
   0.0267363   -0.0139074    0.0429904    0.0342848   -0.0054229    0.0146298    0.0925365   -0.0257265    0.0519802
  -0.0322893   -0.0187441   0.00526847   -0.0254224  -0.00585197   -0.0208101    0.0163978   0.00818106    0.0187987
  -0.0161562    0.0233418   -0.0512494   -0.0340548   0.00885569   0.00590935    0.0156389   -0.0504772   -0.0284091
  -0.0287232    0.0071835   -0.0102028   -0.0102518  -0.00683031    0.0762252  -0.00845365  -0.00985832   0.00229884
  0.00903368  -0.00762815    0.0935842    0.0129286   0.00842189     0.016767   -0.0201454  -0.00248421      0.03934
#
   0.0352547    0.0102077    0.0518901   -0.0518421    0.0476182   -0.0508983  -0.00690304    0.0363962   -0.0129718   -0.0151528
  0.00114419   -0.0504963   -0.0975164   -0.0522226 -0.000570474   -0.0120091  -0.00137494    0.0274217   -0.0168165    0.0474528
   0.0329087    0.0147732    0.0316816   -0.0678863    0.0414102    0.0485034    0.0192391   -0.0524555    0.0235942    0.0023889
   0.0143957   -0.0321291  -0.00285127    0.0190624   0.00115549   -0.0554445   -0.0677045   -0.0184938  0.000754797   -0.0241498
  -0.0130171    0.0383751  -0.00366247  -0.00305208    0.0521377   -0.0364438    0.0628257   0.00208755     0.042332     0.043592
  -0.0272805    0.0455958   -0.0203559   -0.0265579   -0.0330914    0.0297648   -0.0244261   -0.0308851     0.036429    0.0378776
   0.0119461    0.0245015    -0.016138     0.048378   -0.0105694    0.0107247   0.00810933    0.0150506  -0.00487276    0.0123041
   0.0307083    0.0106488   0.00430227   -0.0132776    0.0285427      0.01487    0.0688557    0.0101481    -0.022786    0.0491038
  -0.0895043   0.00917995    0.0488607   -0.0372382   -0.0125377   -0.0354341   -0.0271325    0.0195289    0.0396749   -0.0208251
  -0.0969391   -0.0331918   -0.0707329    0.0284767    0.0420829    0.0445854   -0.0197691   -0.0128244   -0.0363514    0.0337353
#
  -0.0145389   -0.0263756  -0.00896823   0.00343074    0.0390266   -0.0319871    0.0589692   0.00621874    0.0350464   -0.0200128
  -0.0131458   -0.0214657 -1.44024e-05   0.00580278  -0.00770434   -0.0366081   -0.0407277     0.021372    0.0131798  0.000674674
 -0.00883504    0.0405304   0.00692985    -0.050808    -0.049127   0.00648654  -0.00400629   -0.0500965   -0.0277891  -0.00931539
    0.102156   -0.0688107   0.00910504    0.0316091   0.00478837   -0.0315197   -0.0118059   -0.0155645  -0.00328384   -0.0545033
    0.034618   0.00417715    0.0145266    0.0730276   -0.0318637    0.0202638   -0.0424141   -0.0532025   -0.0108351    0.0191476
 -0.00792021   -0.0180385   -0.0745211    -0.028088   -0.0308191  -0.00186931   -0.0393975   0.00330427   0.00772895    0.0284216
   0.0286317     0.082489  -0.00573568    0.0199623     0.037056   -0.0426224    0.0152519    0.0150399  -0.00188649   -0.0221673
  -0.0258691   0.00525384   -0.0165628    -0.031425     0.015004    0.0443531   -0.0510273    0.0734006 -2.93315e-05    0.0428268
  -0.0358891  -0.00423088  0.000368429    0.0381281   -0.0576882    0.0558985    -0.014663   -0.0516901   -0.0318882   -0.0405804
  -0.0366321   -0.0108882     0.010431    -0.018509   -0.0252829   -0.0144233   -0.0106545   0.00971987    0.0656914    0.0365241
#
   0.0119487   0.00463033    0.0238885    0.0576872    0.0580379  -0.00892141    0.0101505   -0.0423289   -0.0376687   -0.0389837
   0.0334813   -0.0132431     0.011073    0.0442588   0.00818943   -0.0481971    0.0813105   -0.0199192   -0.0121228   -0.0154146
   0.0142873   0.00256524     0.049523   0.00273202    -0.023615 -0.000430443  -0.00929007   -0.0367645   -0.0253607  -0.00589291
#
!
<26>:Score:898
Distance:4.12311
    0.010978   0.00648678    0.0579515   -0.0203678    0.0383048   -0.0131087   -0.0129563   -0.0528496   -0.0123779
   0.0469933  2.71961e-05   -0.0113535    0.0194478  -0.00761673   0.00297567   -0.0145989   0.00353658   -0.0464378
  -0.0315145   -0.0182494    0.0272645    0.0135852   -0.0206779    0.0435333    0.0380913  -0.00475226  -0.00449895
  0.00377901    0.0251482   0.00455176   0.00679549    0.0135345    0.0032653  -0.00915722    -0.041194   0.00623463
    0.030694   0.00675849   0.00151202   -0.0150331    -0.053431    0.0541109   -0.0493275   0.00753872    0.0379754
   0.0246411   -0.0224021    0.0485948    0.0332081 -0.000557845    0.0151103     0.092525   -0.0239275    0.0499727
  -0.0332679   -0.0205226 -0.000615994    -0.028431  -0.00520071   -0.0167545    0.0159708   0.00942786     0.017502
  -0.0141045    0.0229742    -0.049984   -0.0253804   0.00355234   0.00353264   0.00976448   -0.0517703   -0.0279901
  -0.0249074   0.00923615  -0.00749151   -0.0154929  -0.00117983    0.0738356   -0.0113874  -0.00832068    0.0033196
   0.0155314   0.00039295    0.0921073    0.0137188    0.0049087    0.0169866   -0.0131524     -0.01162    0.0355874
#
   0.034039   0.0126266   0.0490266  -0.0528292   0.0437569  -0.0465822 -0.00764374   0.0327404  -0.0121258  -0.0129571
  0.0118986  -0.0399913  -0.0991836  -0.0536072 -0.00213049  -0.0162679  0.00566049   0.0181677  -0.0170066   0.0432995
  0.0337182   0.0209768   0.0296766  -0.0638357   0.0449541   0.0525931   0.0215825  -0.0472869   0.0326975   0.0085065
  0.0101447  -0.0372844 -0.00392985   0.0170848  -0.0053847  -0.0574843  -0.0587797  -0.0174817  0.00509732  -0.0252536
 -0.0153477   0.0380987 -0.00385055 -0.00960461   0.0486613  -0.0298341   0.0592188 -0.00715817   0.0398992   0.0390537
 -0.0336051     0.04285  -0.0192503  -0.0245898  -0.0405137   0.0275939  -0.0229277  -0.0258973    0.041407   0.0376508
  0.0169151   0.0231518  -0.0180182   0.0456347  -0.0095822  0.00857169   0.0074285   0.0134936 -0.00602873   0.0154688
  0.0255654 -0.00066561  0.00709291 -0.00941208   0.0225504   0.0074456   0.0581351   0.0140929  -0.0150258   0.0406381
 -0.0890009   0.0154141   0.0512766  -0.0423329  -0.0093938  -0.0278647  -0.0194124   0.0218942   0.0421444  -0.0171333
  -0.104511   -0.036005  -0.0667062   0.0176118   0.0472127   0.0437013  -0.0201892  -0.0213381  -0.0295404   0.0308976
#
 -0.00680859   -0.0245555   -0.0150858 -0.000712153    0.0273263   -0.0267692    0.0504414   0.00854473    0.0254378   -0.0126959
 -0.00990528    -0.017066  -0.00221484 -0.000953229   -0.0114568   -0.0341388   -0.0487847    0.0247419    0.0163238   0.00463152
 -0.00604128    0.0321262  -0.00310673   -0.0521235   -0.0522828    0.0112897  -0.00586029   -0.0513491   -0.0229823  -0.00628087
    0.100859   -0.0702636   0.00987395    0.0286604   0.00733297   -0.0200489   0.00207078   -0.0178951  -0.00956885   -0.0484885
   0.0277351    0.0114443    0.0170103    0.0602584   -0.0398663   0.00732547   -0.0413688   -0.0494816  -0.00886441    0.0289677
-0.000153572   -0.0202245   -0.0689193   -0.0371604   -0.0366222  -0.00287313   -0.0421327  -0.00471393     0.012191    0.0360738
   0.0327626    0.0782089    -0.009677    0.0229383    0.0342799   -0.0477285    0.0201384    0.0190462   0.00393083   -0.0176798
  -0.0292715   0.00747616   -0.0134549   -0.0258467    0.0154615    0.0490931   -0.0568658    0.0794479   0.00250633    0.0486824
  -0.0314043  -0.00502366  -0.00548861    0.0374676   -0.0551782    0.0602715  -0.00725332   -0.0482403   -0.0322577   -0.0381588
  -0.0315563   -0.0109645   0.00888673   -0.0146857   -0.0260767    -0.016571  -0.00860897    0.0123378    0.0546425     0.029924
#
  0.00932727   0.00231058    0.0308159     0.051828    0.0555545  -0.00517787    0.0176156   -0.0361162   -0.0387304   -0.0331494
   0.0312365   -0.0129557    0.0162038    0.0465254     0.006459   -0.0440238    0.0833003   -0.0207982  -0.00891694   -0.0215495
    0.013332   0.00158612    0.0470481   0.00805013   -0.0236325   0.00750752 -0.000617062   -0.0315102   -0.0211493   -0.0120107
#
!
<86>:Score:898
Distance:4.12311
  0.00944453   0.00167032    0.0595318  0.000199502    0.0436944   -0.0218746    0.0034081   -0.0469147   -0.0211026
    0.025929  -0.00418211   -0.0131963    0.0194851   -0.0013533   -0.0070976   -0.0192237   0.00928731   -0.0360654
  -0.0447836 -0.000288285    0.0288282  0.000827673   -0.0167641    0.0449368    0.0374549  -0.00756644    0.0139442
  0.00652573    0.0371977   0.00971264    0.0165584    0.0216582    0.0156994   -0.0102915     -0.04986    0.0104043
   0.0192271   0.00753141    0.0147587   -0.0111058   -0.0590087    0.0391684   -0.0263921   0.00919552    0.0297654
   0.0164301   -0.0177015      0.03144    0.0435179   -0.0109782    0.0134973    0.0886057   -0.0360161    0.0462143
  -0.0403955  -0.00165225  0.000820282   -0.0328719   -0.0279468   -0.0119541   0.00996879     0.010909   0.00518105
  -0.0117721     0.031145   -0.0506633   -0.0245089     0.011609   0.00824993    0.0239947   -0.0662898   -0.0262585
   -0.053239  -0.00426817   -0.0154691   -0.0207924   0.00608455     0.069645  -0.00357762  -0.00872847   0.00336455
   0.0110746  -0.00459618    0.0847606    0.0250942   -0.0229157   0.00910336    -0.032585   -0.0184055    0.0348117
#
   0.0350912    0.0287998    0.0601827    -0.044808    0.0608004   -0.0493403   0.00273193    0.0553845  -0.00510762   -0.0170031
  0.00256254   -0.0387302    -0.103219   -0.0593843   -0.0079065  -0.00352421   0.00287983    0.0285493   -0.0230207    0.0575886
   0.0301452   0.00523099    0.0468707   -0.0723436    0.0394789    0.0483493    0.0345668   -0.0580103   0.00275195    -0.012354
   0.0347968   -0.0229293  -0.00040908     0.005032  -0.00748216   -0.0460164    -0.062944   -0.0202702   0.00426141   -0.0270506
 0.000696798    0.0291144   0.00132778   0.00401857    0.0495061   -0.0526057    0.0661771   0.00822211    0.0371262    0.0314685
  -0.0103023    0.0543503  -0.00910505   -0.0196271   -0.0340398    0.0409646   -0.0327808   -0.0276291    0.0337972    0.0150726
  0.00783893    0.0367859   -0.0294234    0.0467336  -0.00486224   0.00601009 -0.000301524    0.0262247   -0.0099878    0.0204878
   0.0281086  -0.00236644   0.00983655  -0.00734135    0.0258018    0.0162266    0.0688505  -0.00541903   -0.0295846    0.0309541
  -0.0779422   0.00873347     0.066316   -0.0268708  -0.00461014   -0.0460975   -0.0385903    0.0367199    0.0473309   -0.0336166
  -0.0923458   -0.0388178   -0.0718461    0.0479011    0.0313356    0.0627987   -0.0114491   -0.0196491   -0.0365086    0.0289783
#
  0.00343773   -0.0100445   -0.0125473   0.00452589    0.0330474   -0.0272916    0.0523405    0.0103335    0.0161589   -0.0269714
  -0.0185891   -0.0325002  -0.00809308  -0.00920291 -0.000440493   -0.0336323   -0.0434036    0.0263324    0.0117001    0.0132298
 -0.00186218    0.0510053     0.014464   -0.0577097   -0.0521457   0.00675772  0.000567663   -0.0615322   -0.0253692  -0.00883393
    0.102681   -0.0703197    0.0101635    0.0182362 -2.21289e-06   -0.0260055   -0.0112082  -0.00748518   0.00535669   -0.0566619
    0.033316    0.0211355    0.0279624    0.0618845   -0.0492225    0.0160773   -0.0197725   -0.0426014   -0.0345728    0.0285768
  -0.0197662   -0.0114138   -0.0790713   -0.0339618   -0.0278992   0.00847469   -0.0385686   0.00465977    0.0182454    0.0325817
   0.0262505    0.0776365  -0.00575162    0.0276466    0.0403556   -0.0486371    0.0132428    0.0138718    0.0284809   -0.0146379
  -0.0193219    0.0125781   -0.0244277   -0.0192396    0.0232585    0.0460395   -0.0557761     0.066232   -0.0126379    0.0562533
  -0.0537511   -0.0182066 -0.000308942    0.0530502   -0.0681068    0.0513488   -0.0194632   -0.0641367   -0.0191114   -0.0403717
  -0.0357091  -0.00258295   0.00566887  -0.00915817 -0.000184281   -0.0071159  -0.00483327    0.0369693    0.0688794    0.0387618
#
 0.00955002 -0.00674567    0.027854   0.0734876   0.0606019 -0.00054822  0.00454198  -0.0284572  -0.0522055  -0.0339233
  0.0308764  -0.0298965 -0.00214746   0.0465255   0.0075624  -0.0523667   0.0880214  -0.0213772  -0.0312028  -0.0264195
  0.0160368 -0.00966823   0.0590835   0.0081553 -0.00909152   -0.008155 0.000836634  -0.0281995 -0.00866888 -0.00630031
#
!
<28>:Score:897
Distance:4.12311
  -0.0085554   0.00113627    0.0654768   -0.0291227    0.0334667  -0.00759237  -0.00474884   -0.0313357   -0.0124497
   0.0310677   0.00472961   -0.0109826    0.0126402  -0.00575675  -0.00768571  -0.00888855   0.00631407   -0.0626663
  -0.0177472    -0.019517    0.0286568    0.0376073   -0.0220912    0.0310013    0.0480592   -0.0109843   -0.0247192
  -0.0041023      0.04228    0.0198616    0.0139301    0.0176058    0.0114245   -0.0109552   -0.0141365   0.00642582
   0.0233739   -0.0060405  -0.00677769    -0.015475   -0.0594302    0.0621019   -0.0509306    0.0069583    0.0357189
   0.0185646   -0.0478313    0.0358446    0.0390645  -0.00346518    0.0243346    0.0993503   -0.0341776    0.0536327
  -0.0361397   -0.0335703  -0.00876208   -0.0372591  -0.00363196    -0.018939    0.0239505   -0.0100376    0.0109426
   -0.008148   -0.0027113   -0.0508009   -0.0209481   0.00318211  -0.00296206  0.000184971   -0.0534638   -0.0282852
  -0.0301827     0.024534  -0.00722709  -0.00087956   0.00923866    0.0627091   -0.0247184   -0.0147859   0.00154678
  0.00972123  -0.00362013    0.0969371 -0.000423612  -0.00969384    0.0141944  0.000813578  -0.00119792    0.0354102
#
    0.012425    0.0180777    0.0436206   -0.0463447    0.0345642   -0.0636361   0.00213753    0.0390002   0.00245877    -0.017213
   0.0330465   -0.0387503     -0.10405   -0.0374335  -0.00396846   -0.0198751   0.00161616    0.0178796    -0.011491    0.0520296
   0.0243119  -0.00461272    0.0418628   -0.0608636    0.0548573    0.0629186   -0.0022536   -0.0512534    0.0270863    0.0134659
   0.0112407   -0.0301262  -0.00318218   0.00998333    0.0071469   -0.0461969   -0.0353395 -0.000385486    0.0114944  -0.00822667
  -0.0231567    0.0556994   0.00551181  -0.00331888    0.0515043   -0.0344647    0.0791524   -0.0175397    0.0374125    0.0445928
  -0.0402903    0.0424782   -0.0180113   -0.0150254   -0.0404763    0.0386657   -0.0226999   -0.0229317    0.0613009    0.0189731
  0.00705036    0.0240018   -0.0595411    0.0396148   0.00551371    0.0128558    0.0328248    0.0132031  -0.00365398   0.00722958
   0.0282815  -0.00778066  -0.00417561   -0.0204032    0.0322307   0.00802022    0.0558076    0.0215772  -0.00295721    0.0456309
  -0.0701011  -0.00458328    0.0531836   -0.0603264   -0.0133025   -0.0268054     -0.04418    0.0197418    0.0333941   -0.0246962
   -0.108202   -0.0312362   -0.0750636    0.0224974    0.0264761    0.0651716   -0.0285406   -0.0154402   -0.0260397    0.0443601
#
 -0.0178959 -0.00599169  -0.0114367  -0.0015805   0.0346669  -0.0233774   0.0336446 -0.00157472   0.0279577  -0.0132228
 -0.0191333 -0.00754042 -0.00512004  0.00570816   -0.043894  -0.0313082  -0.0442718   0.0162576    0.015124  -0.0246461
 -0.0167985   0.0112343 -0.00935042  -0.0626458  -0.0342173   0.0154537 0.000118171   -0.044397  -0.0205994  -0.0130951
  0.0938953  -0.0672541  0.00340344   0.0197901   0.0047205  -0.0109023 -0.00384024 -0.00655246  -0.0133172  -0.0587019
  0.0350378 -0.00604604   0.0315966   0.0638772   -0.050327  0.00666061  -0.0144547  -0.0649738  -0.0046277   0.0206836
 0.00837017  -0.0222388  -0.0577798  -0.0666181  -0.0152935  0.00502284  -0.0243631   0.0185182   0.0170507   0.0474999
  0.0341108   0.0841265  -0.0311003   0.0206299   0.0246928   -0.065975  0.00976942  0.00264148  0.00392816  0.00318394
 -0.0171942  0.00934126  -0.0207767  -0.0271797   0.0134348   0.0179452  -0.0613129   0.0773043 -0.00507859   0.0474471
 -0.0192805  -0.0140691  -0.0176213   0.0447027  -0.0428449   0.0662312  0.00868781  -0.0441864  -0.0205381   -0.049789
 -0.0389057  -0.0205033   0.0101314  -0.0139755 -0.00970183  -0.0170348 -0.00725395   0.0188481   0.0314555   0.0589919
#
  0.0172809  0.00456495   0.0300265   0.0558181   0.0468937 -0.00776838   0.0234328  -0.0244551  -0.0244789  -0.0372145
   0.024391 -0.00971855   0.0132885    0.054405 -0.00497824  -0.0451573   0.0855325  -0.0261961  -0.0153465  -0.0196333
  0.0022715   0.0105115   0.0313031  -0.0103624  -0.0254411 -0.00273528   0.0102813  -0.0262165   0.0030997  -0.0293244
#
!
<29>:Score:897
Distance:4.12311
  -0.0057476   0.00866545    0.0608169   -0.0148617     0.051595   0.00018424  -0.00851977   -0.0398571   -0.0260354
   0.0391589    0.0149633   -0.0161666    0.0214596  0.000513699   0.00433326  -0.00590668   -0.0168333   -0.0356859
  -0.0152594   -0.0506489     0.019975  -0.00503683   -0.0124763    0.0240397    0.0431227    0.0060125   -0.0101488
-0.000238346    0.0170341   0.00480104    0.0217336    0.0236379  -0.00166426  -0.00159614   -0.0264391   -0.0106101
   0.0174739  -0.00744488    -0.017079   -0.0231471   -0.0713299    0.0449953   -0.0369564  -0.00104638    0.0551476
  0.00184157    -0.037188     0.035137    0.0306788    0.0084116    0.0114657    0.0965121   -0.0328067    0.0385457
  -0.0604011   -0.0310693    0.0106839   0.00224571  -0.00407266   -0.0354077    0.0014233 -0.000122439    0.0170016
  -0.0108731    0.0117008   -0.0424524   -0.0339504   -0.0197185   0.00901329    0.0149325   -0.0508711   -0.0488284
  -0.0236084    0.0201908  -0.00194004   -0.0169088   -0.0241096    0.0671163   -0.0240964   -0.0173416   0.00774182
  0.00434928    0.0170415    0.0851158   0.00491368   0.00213107    0.0263413   -0.0214316   -0.0119672    0.0278403
#
   0.029483  0.00777896   0.0419598  -0.0435323   0.0322984  -0.0343763 -0.00435889   0.0251647  -0.0199021  -0.0377755
 0.00495845  -0.0440654  -0.0882437  -0.0447437 -0.00482201  -0.0253757   0.0027383   0.0102718   -0.021901   0.0422462
  0.0351809   0.0284296   0.0398194  -0.0439241   0.0402535   0.0329571  0.00988291  -0.0601368   0.0483927  -0.0123603
 -0.0067473  -0.0507237  -0.0114897  0.00886223 -0.00670785  -0.0373122   -0.047288  -0.0106023   0.0195712  -0.0203098
 0.00534711   0.0550492  -0.0117211 -0.00690996   0.0396146  -0.0274602   0.0670018  -0.0161358   0.0263735   0.0442522
 -0.0318923   0.0382894  -0.0241272  -0.0179489  -0.0285414    0.032109  -0.0152083  -0.0217439   0.0427665   0.0286406
 0.00689938   0.0130429  -0.0382708   0.0602856  -0.0102769  0.00511934  0.00852248  0.00864713 -0.00146133    0.027814
  0.0185558  0.00699008   0.0061874  -0.0023179  0.00385177 -0.00580534   0.0592611   0.0351067 -0.00259494   0.0399968
 -0.0731165  0.00779234    0.043425    -0.05419  -0.0274755  -0.0277559  -0.0180344    0.021905   0.0401672  -0.0231569
  -0.114229  -0.0351293  -0.0745343   0.0412554   0.0473606   0.0485769  -0.0211794  -0.0221433  -0.0148589   0.0361497
#
 -0.00330977   -0.0301887   -0.0218808    -0.012937     0.050999   -0.0263577    0.0420842   -0.0160019    0.0191424   -0.0209966
  -0.0180269   -0.0280268  -0.00478087   -0.0124247   -0.0196836   -0.0171466     -0.05781    0.0264691   0.00135244   0.00264414
  -0.0207001   0.00676085   0.00567344    -0.025192   -0.0525158     0.020861   0.00478489   -0.0357852   -0.0263027   -0.0196905
    0.105706   -0.0663066   0.00678588    0.0316246  0.000328172   -0.0135348  -0.00542808   -0.0067699  -0.00765039   -0.0457955
   0.0333129    0.0182965    0.0186609    0.0400378   -0.0486088   0.00446722   -0.0381142   -0.0592698 -5.60256e-05    0.0264926
 -0.00717969   -0.0322759   -0.0558597    -0.040043   -0.0474617    0.0176682   -0.0252522     0.015564    0.0180262    0.0464988
    0.043268    0.0811471   -0.0125027    0.0224677    0.0195088   -0.0375177   0.00855889     0.016906   0.00819486   -0.0148853
  -0.0403139  -0.00264116  -0.00817934   -0.0220593    0.0170575    0.0401005   -0.0423252    0.0693611  -0.00305037    0.0397297
  -0.0299877   -0.0114326  -0.00377002    0.0343448   -0.0552754    0.0478299  -0.00664332   -0.0266962    -0.011903    -0.053033
  -0.0331889   -0.0183716  3.01473e-05  -0.00917176   -0.0391421   -0.0203387   -0.0279698   0.00326726    0.0596424    0.0306293
#
   0.0280898    -0.010326    0.0122431    0.0375121    0.0600397   -0.0315063   0.00957835   -0.0201526   -0.0248505   -0.0392961
   0.0281289   0.00604297 -3.45545e-05    0.0430873   -0.0110793   -0.0460922     0.082806   -0.0181323   -0.0223049  -0.00339933
 0.000681225  0.000921778    0.0381719  0.000112046   -0.0104684    0.0233808    0.0184047    -0.026948   -0.0208732   -0.0155956
#
!
<1>:Score:897
Distance:4.12311
  0.0117927  0.00254615    0.061335  -0.0190914   0.0363054  -0.0132643  -0.0150737   -0.051625  -0.0105789
  0.0483393 -0.00541182  -0.0153934   0.0179995 -0.00916266   0.0039119  -0.0155278  0.00730892  -0.0421534
 -0.0277266  -0.0146377   0.0217273     0.01125   -0.016839    0.046906   0.0372767 -0.00426947 -0.00776196
0.000899988   0.0256301 -0.00192565  0.00722902   0.0141893  0.00442813  -0.0145343  -0.0395418  0.00279528
  0.0294358  0.00661003 0.000973724  -0.0119861   -0.056015   0.0543688  -0.0504572  0.00855598   0.0386485
  0.0217728  -0.0181355   0.0476327   0.0368953 -0.00306045   0.0117966   0.0974095  -0.0233623   0.0502896
  -0.039796  -0.0191176  0.00318918  -0.0327672 -0.00121302  -0.0192331   0.0143475  0.00845013   0.0224682
 -0.0253115   0.0233596  -0.0532564  -0.0239282  0.00918681  0.00400732  0.00310322  -0.0502427  -0.0280361
 -0.0242537  0.00826648 -0.00835288  -0.0165558 -0.00528191   0.0738818  -0.0140119 -0.00704195 -0.00281359
  0.0124542 -0.00210035   0.0926154   0.0106189  0.00303012   0.0171035  -0.0201491  -0.0115469   0.0343347
#
  0.0365057   0.0150426   0.0511828   -0.053414   0.0483073  -0.0523458 -0.00666649   0.0383664 -0.00952141  -0.0144348
  0.0105475  -0.0415558  -0.0999036  -0.0575027 -0.00516124   -0.013238  0.00404654   0.0255764  -0.0203463   0.0448483
  0.0325948   0.0224436   0.0285741  -0.0673664    0.046159   0.0539796   0.0221971  -0.0478356    0.029066  0.00168674
  0.0124121  -0.0304294 -0.00143883   0.0180395 -0.00628936  -0.0581158  -0.0596069  -0.0184619  0.00218143  -0.0245447
 -0.0130301   0.0315132  -0.0110224 -0.00594594   0.0520741   -0.029786   0.0577918 -0.00632187   0.0402908   0.0407574
 -0.0347041   0.0445269  -0.0191881  -0.0254302  -0.0376234   0.0272816  -0.0230191  -0.0275516   0.0418795   0.0400611
  0.0171736   0.0265187   -0.012538   0.0442267  -0.0102909  0.00802724  0.00816071  0.00854474 -0.00754941   0.0133225
  0.0250793   0.0015625   0.0103564  -0.0106693   0.0218408  0.00679471   0.0639845   0.0126111  -0.0130136   0.0380127
  -0.090639  0.00660389    0.044167  -0.0467358 -0.00967281  -0.0326876  -0.0219346   0.0284628   0.0397095  -0.0131525
  -0.104512  -0.0309711  -0.0664766   0.0205363   0.0477191   0.0432669   -0.020496   -0.019565  -0.0273163   0.0331646
#
-0.00786464  -0.0255786  -0.0141911 -0.00112628   0.0310434  -0.0249442   0.0488225    0.010993    0.029877  -0.0123111
  -0.012629  -0.0185943 -0.00206212  0.00381234 -0.00854986  -0.0321059   -0.048108   0.0262174   0.0166517    0.010419
 -0.0073904   0.0339642 -0.00116077  -0.0542057   -0.053758  0.00754022 -0.00897041  -0.0506703  -0.0269816 -0.00594698
   0.104033  -0.0666091  0.00927759   0.0282247  0.00740068  -0.0168638  -0.0024217   -0.023053 -0.00930158  -0.0509192
  0.0326278   0.0125359   0.0171943   0.0621673  -0.0337644   0.0135561  -0.0446696  -0.0477136  -0.0115901   0.0279964
 0.00142145  -0.0165823  -0.0659032  -0.0352506  -0.0355161 8.32917e-05  -0.0415206 -0.00445417  0.00617269   0.0347315
  0.0367678   0.0823809 -0.00339277   0.0203962   0.0313418  -0.0466782   0.0155219   0.0209543  0.00947793   -0.020015
 -0.0264095  0.00606507  -0.0100137  -0.0305926    0.013908   0.0483757  -0.0557709   0.0813009  0.00216105   0.0461818
 -0.0325012 -0.00235951 -0.00134733   0.0326778  -0.0574867   0.0611803 -0.00501007  -0.0495838  -0.0302584  -0.0406121
  -0.032823 -0.00915879  0.00597868  -0.0181753  -0.0232149   -0.015866  -0.0112113   0.0120849   0.0523046   0.0303235
#
  0.0163946   0.0052259   0.0303267   0.0542865   0.0584115 -0.00453015   0.0194206  -0.0366245  -0.0395144  -0.0299972
  0.0311094  -0.0152183   0.0101727   0.0478345    0.012315  -0.0472287   0.0851027  -0.0247971 -0.00751968  -0.0219048
  0.0138883  -0.0016923   0.0504286  0.00649871  -0.0278044  0.00612501 5.86264e-05  -0.0286608  -0.0211625  -0.0123058
#
!
<72>:Score:897
Distance:4.12311
  0.0217797   0.0104696   0.0712874  -0.0224323   0.0486919  -0.0348529  -0.0282154  -0.0662786 -0.00984831
  0.0504863  -0.0106265  -0.0147406   0.0128729 -0.00524678   0.0106689 -0.00684293  0.00471154  -0.0304877
 -0.0481405   -0.030251    0.053628  -0.0176035  -0.0246019   0.0555598   0.0496023  0.00211196 -0.00805652
5.57165e-05   0.0211414  0.00769317   0.0130715   0.0244788   0.0198072  -0.0280704  -0.0541671    0.011928
  0.0116889   0.0178959  0.00307921  -0.0255894  -0.0686354   0.0521309  -0.0243525  0.00376532  0.00821552
  0.0137484  -0.0107748   0.0319947   0.0593619  0.00297314   0.0406398   0.0853077  -0.0357404   0.0485845
   -0.03679  -0.0317111  0.00672803  -0.0319623  -0.0125932  -0.0219569   0.0248825   0.0125713   0.0268528
 -0.0178542   0.0387559  -0.0602302  -0.0389278   0.0320472   0.0150989  0.00724495  -0.0551913  -0.0241048
 -0.0406467   0.0138432  -0.0141076  -0.0105413 0.000938888   0.0665571  -0.0162494  -0.0169513    0.028794
 0.00212139  -0.0152544    0.113465     0.01571  0.00869126   0.0110324  -0.0155264  -0.0177914     0.04354
#
   0.0316195     0.013062    0.0566929    -0.061927    0.0519225   -0.0570802    0.0027388    0.0337061    -0.012257   -0.0014367
 -0.00332184   -0.0512706   -0.0914146    -0.058522  -0.00425309   -0.0145954  -0.00419611   0.00832095   -0.0168155    0.0391977
   0.0396813    0.0283717    0.0308249    -0.073161    0.0464035    0.0482103    0.0296377   -0.0521019   0.00767324  -0.00802175
   0.0139574   -0.0339343  -0.00636619    0.0409827    0.0140299   -0.0514552   -0.0637109   -0.0202896   0.00176555    -0.020498
 -0.00107793    0.0422264 -0.000769503    0.0217638    0.0521474   -0.0396451    0.0542317 -0.000370564    0.0539425    0.0502669
  -0.0311814    0.0549755   -0.0306623   -0.0182687   -0.0196814    0.0297913   0.00248006   -0.0297305     0.030558    0.0363345
   0.0151578    0.0119768   -0.0228593    0.0454872   0.00918592   0.00701161    0.0163966    0.0199887   -0.0283198   0.00346824
   0.0115769   0.00267284     0.011212  -0.00268982    0.0128745    0.0182606    0.0764025    0.0108315   -0.0294019    0.0508947
   -0.103961    0.0180579    0.0486052   -0.0245778   0.00799774   -0.0352521   -0.0240451    0.0162888    0.0405163   -0.0192619
  -0.0826027   -0.0291682    -0.074449     0.027439    0.0475631    0.0556693   -0.0146226  -0.00120902   -0.0467408    0.0456282
#
0.000968999  -0.0288687  -0.0122194 -0.00717023   0.0312404  -0.0452244   0.0547578   0.0167978   0.0458983   -0.017313
 -0.0125465  -0.0318391  0.00974065  0.00726009 -0.00209345  -0.0320704  -0.0545969   0.0162774  0.00615875   0.0062994
-0.00102485   0.0393999  0.00352318  -0.0510026  -0.0433616   0.0147313 -0.00976369  -0.0715385  -0.0237679 -0.00745234
   0.110359  -0.0596262   0.0152672    0.042394   0.0147215  -0.0304039   -0.021146  -0.0194713  0.00851608  -0.0602042
  0.0347912  0.00901066   0.0248498   0.0721591  -0.0284544   0.0142367  -0.0366067  -0.0708117  -0.0128735   0.0100534
 0.00257065  -0.0314492  -0.0612463  -0.0152825  -0.0309276  -0.0169167  -0.0526839  -0.0117814   0.0177215   0.0284273
  0.0324668   0.0863756  -0.0108233   0.0184862   0.0397659  -0.0369737   0.0250062   0.0290847 -0.00204176  -0.0268056
 -0.0308778  0.00229414  -0.0189274  -0.0274946  0.00626222   0.0437989  -0.0373657   0.0699242   0.0094123   0.0488911
 -0.0547989  -0.0187374    -0.01385   0.0370535  -0.0516022   0.0628062 -0.00102649  -0.0467329  -0.0208649  -0.0353057
 -0.0364534  -0.0208779 0.000691965  -0.0327163   -0.035972    -0.01112 -0.00763285  0.00928113   0.0660638   0.0327871
#
  0.0174901   0.0114159   0.0283664   0.0465712   0.0659009 -0.00584972   0.0161096   -0.035609   -0.026115  -0.0331367
  0.0354745  0.00790155  0.00581145   0.0262378    0.030189  -0.0468005   0.0770517  -0.0333994 -0.00155196  -0.0364384
 0.00672897   0.0118641   0.0472253  0.00478582  -0.0262311  0.00104173  -0.0257779  -0.0188305  -0.0341217  -0.0122805
#
!
<90>:Score:874
Distance:4.12311
  0.00805815    0.0277799    0.0590808  -8.8998e-05    0.0455499   -0.0176537    0.0139893    -0.070981   -0.0103331
   0.0301689   0.00499469  -0.00790807    0.0195433    0.0158517   0.00528259   -0.0252232  -0.00534954   -0.0461498
  -0.0420153   -0.0243054    0.0253323    0.0216032   -0.0102177    0.0569948    0.0417827     0.010137   -0.0115359
  0.00780614    0.0169396  -0.00184576  -0.00143678    0.0119586    0.0103365   -0.0142209   -0.0325008  -0.00502328
   0.0295133   0.00115049 -0.000772462   -0.0155026   -0.0538342    0.0416948   -0.0549141     0.019348    0.0334188
   0.0171349  -0.00536042    0.0440178    0.0498001   -0.0122233    0.0177288    0.0997888   -0.0245239    0.0637659
  -0.0361645   -0.0279821   0.00516755   -0.0348145  -0.00307732   -0.0336065 -0.000512395    0.0159325    0.0333315
  -0.0237896    0.0220345    -0.049126    -0.033953   0.00757666   0.00558512      0.02975   -0.0486405   -0.0378313
   -0.020954  -0.00374127   -0.0024319  -0.00655283    0.0191337    0.0703606    -0.012308  -0.00610676    0.0124263
  0.00974542   -0.0137119    0.0789047   0.00829667   0.00664505   0.00576137   -0.0312113    0.0110887    0.0332831
#
   0.0309715    0.0113979     0.047631   -0.0580505    0.0457391   -0.0531863   -0.0120198    0.0403099    -0.020561   -0.0161589
 -0.00675734   -0.0561121    -0.104438   -0.0616454  -0.00236082  -0.00801809   -0.0159859     0.028013   -0.0227671     0.053953
     0.01358    0.0286729    0.0194432   -0.0773889    0.0501193    0.0429339   0.00571844   -0.0614573     0.028785  -0.00363615
 -0.00454958   -0.0246398    0.0196323    0.0216585  -0.00407147   -0.0413758   -0.0863182   -0.0113066   0.00219973   -0.0217123
  -0.0111451    0.0276418  -0.00436009  -0.00898525    0.0538816   -0.0369259    0.0451147 -0.000725228    0.0399899    0.0503472
   -0.036217     0.040471   -0.0173277    -0.046779   -0.0320439    0.0337305   -0.0100572   -0.0372212    0.0376157    0.0437733
   0.0114828    0.0222816   -0.0169387    0.0693507  -0.00394086    0.0125716  -0.00315509    0.0150646   0.00388736    0.0207013
   0.0357643     0.022055    0.0143919   -0.0184534    0.0443732     0.019036    0.0725631  0.000798317  -0.00805703    0.0416251
  -0.0827402    0.0130908     0.050321   -0.0535901   -0.0192356   -0.0422371   -0.0131106    0.0155788    0.0196044   -0.0200226
  -0.0946431   -0.0291666   -0.0745725    0.0363768    0.0536199    0.0527864   -0.0137296   -0.0129973   -0.0441626    0.0296973
#
-0.000102732   -0.0199873  -0.00192764    0.0200137    0.0423859   -0.0236564    0.0564965  -0.00409259    0.0459337   -0.0206589
 -0.00942358   -0.0226124    0.0030908    0.0096934    -0.014922    -0.046593   -0.0479202     0.027817    0.0247262   0.00756105
 -0.00951579     0.047706    0.0208163   -0.0625518   -0.0365831    0.0108713  -0.00994974   -0.0410698   -0.0193537   0.00537347
   0.0953545   -0.0705992     0.018785    0.0402411   -0.0114324   -0.0404137   -0.0238989   -0.0226045   -0.0101829   -0.0610619
   0.0391407   -0.0120277    0.0266414    0.0707093   -0.0481371    0.0329399   -0.0339424   -0.0640082  -0.00092091   0.00253354
  -0.0268852   -0.0175084   -0.0739872   -0.0269817   -0.0424638     0.013478    -0.041348    0.0238005    0.0205004    0.0108642
   0.0184731    0.0773247  -0.00397054    0.0262504    0.0370078   -0.0397589    0.0223302    0.0299515  -0.00425629   -0.0231527
   -0.018903    0.0118593   -0.0158843   -0.0251919    0.0262953    0.0239539    -0.051542    0.0669976   0.00742314    0.0478975
  -0.0516132  -0.00141116  -0.00730953    0.0492079   -0.0357928    0.0684636   -0.0135626   -0.0481508   -0.0225461   -0.0190431
  -0.0250974   -0.0225527    0.0177952   -0.0268306   -0.0339181   -0.0232693  -0.00957432   0.00520211    0.0674023    0.0358078
#
   0.0333837    0.0229965    0.0214759    0.0558222    0.0606805  -0.00197379 -0.000567548   -0.0346794   -0.0262176   -0.0416398
   0.0214732   -0.0263432  -0.00405625     0.049385    0.0158384    -0.043054    0.0896881  -0.00450625    0.0038665   -0.0202979
    0.010473   0.00239203     0.045641   0.00287227   -0.0458261   0.00616305   -0.0136689   -0.0523671   -0.0360126    -0.011878
#
!
<63>:Score:871
Distance:4.12311
  0.0158343  0.00464963   0.0739761   -0.029211   0.0500927   0.0150899  -0.0189059  -0.0606086  -0.0107389
  0.0493239   0.0124987 0.000382598   0.0125379   0.0161099   0.0281296  -0.0112112 -0.00677465  -0.0712117
  -0.044866  -0.0303488   0.0464992   0.0192311 -0.00606003   0.0401184     0.02537 -0.00335675   0.0107084
 -0.0028608   0.0266808 -0.00248032 -0.00316599    0.017527  -0.0144581  -0.0197183  -0.0193947   0.0124883
  0.0540614  0.00859154 -0.00116757  -0.0208385  -0.0565809   0.0619531   -0.026669  0.00149147    0.028488
  0.0164634  -0.0356529   0.0357804   0.0368216 0.000251661   0.0280895   0.0823942  -0.0258133   0.0400097
 -0.0286756  -0.0261043  -0.0142834  -0.0330354  0.00818633   -0.042926  0.00741407    0.012284 -0.00661932
  0.0229949   0.0213097  -0.0330951  -0.0244111  0.00800243 0.000608522   0.0385242  -0.0301565  -0.0261102
 -0.0268886   0.0255031  0.00102651 -0.00686491 -0.00485705   0.0789071  -0.0111266 0.000994814  0.00221005
  0.0337921   0.0121744   0.0890874    0.027014   0.0077992  0.00443138 -0.00586812 -0.00337183   0.0366963
#
     0.03227    0.0133797    0.0594893    -0.039258     0.020492   -0.0474933   0.00780566    0.0152514   -0.0120422    0.0186343
   0.0272372   -0.0271948    -0.108289   -0.0267027   -0.0052059   -0.0231197    0.0162226   -0.0195236  -0.00654308    0.0259261
   0.0439521    0.0119577    0.0240121   -0.0406149     0.071834    0.0452695     0.021255   -0.0472179    0.0568032   0.00860519
   0.0191348   -0.0386847  -0.00375215   0.00643793  0.000978552   -0.0636212   -0.0546005 -0.000647884    0.0139174     -0.02644
  -0.0274316    0.0480315    0.0170874   -0.0282615     0.045207   -0.0298759    0.0417515   0.00130167    0.0438048    0.0367679
  -0.0156268    0.0383852   -0.0286506   -0.0186607   -0.0364137   0.00508388  -0.00935132   -0.0263508      0.06306    0.0290045
 0.000224438   0.00570553   -0.0285835    0.0314959  -0.00715587    0.0143694     0.009732    0.0206506  -0.00806642   0.00441759
   0.0318906   -0.0203653  -0.00265371   -0.0224754    0.0294703   0.00899254     0.053398    0.0197116   -0.0224222    0.0600744
  -0.0749988     0.034015     0.066082   -0.0417208   0.00259116   -0.0299135  -0.00139358    0.0166414    0.0418094   -0.0201262
  -0.0771634   -0.0549872   -0.0730153    0.0300603    0.0619129    0.0426901  -0.00765697   -0.0054639   -0.0478201    0.0389894
#
   0.0162746  -0.00522645  -0.00168382   -0.0178235    0.0300659   -0.0313842    0.0553802  -0.00791461    0.0117405    0.0115324
 -0.00557494   -0.0266743    -0.012368   -0.0108559    -0.010691   -0.0359453   -0.0387536    0.0155484    0.0187773    -0.031826
  -0.0112259    0.0364856  -0.00543683   -0.0394288    -0.061674    0.0423003  -0.00866705   -0.0476686   -0.0323721   -0.0212643
    0.108362    -0.057316    0.0161361   0.00989893    0.0120464   -0.0330864  -0.00322343  -0.00534312   -0.0280142   -0.0581735
   0.0473507   0.00619314    0.0346053    0.0546254    -0.032008   -0.0162804   -0.0348143   -0.0650121   0.00930165    0.0247621
  -0.0124902   -0.0183328   -0.0750486   -0.0327068   -0.0370235   -0.0117481    -0.022338     0.020859 -0.000113227    0.0414826
   0.0275326    0.0772018     -0.03891    0.0166061    0.0430593    -0.068017    0.0354153    0.0145053   0.00556253  -0.00642379
  -0.0274827    0.0106141   -0.0215804   -0.0211644    0.0233069    0.0472753   -0.0378304    0.0881859  -0.00286374    0.0500658
   -0.030192   0.00502591  -0.00987442    0.0579894   -0.0577987    0.0420541   -0.0100932   -0.0400811   -0.0153323   -0.0400461
  -0.0268246   -0.0269386    0.0252373 -0.000441944   -0.0472685  -0.00862977    0.0146356    0.0155596    0.0715239    0.0308009
#
-0.00669074  -0.0358529   0.0346683   0.0537856   0.0724418  0.00106964  0.00480857   -0.029982  -0.0356965  -0.0394277
  0.0236366  -0.0176527   0.0413324    0.039424  -0.0108175  -0.0481377   0.0854849 -0.00579521  -0.0063158  -0.0162624
  0.0146158 -0.00803016    0.048542    0.014922 -0.00976754  0.00253672  0.00704699  -0.0244233  -0.0203228  0.00247308
#
!
<62>:Score:865
Distance:2.23607
  0.00748972    0.0223597    0.0655338   -0.0274351    0.0294749   -0.0216765   -0.0375648   -0.0528888  -0.00539643
   0.0489638   -0.0311339   -0.0240659  -0.00228393   -0.0182171   0.00805107   -0.0184709  -0.00958303   -0.0264533
  -0.0215795   -0.0182941    0.0323126  -0.00339248   -0.0179662    0.0398927    0.0417127  -0.00363572  -0.00582589
-0.000614586    0.0270569   0.00416112    0.0110515    0.0174037   -0.0104912  -0.00632202    -0.050243   0.00391692
    0.025911 -0.000682837  -0.00794867    -0.024789   -0.0596342    0.0592238   -0.0406978    0.0302316    0.0234481
   0.0362552  -0.00913469    0.0411943    0.0420755   -0.0027086   0.00327592     0.107177   -0.0340996    0.0560855
  -0.0349529  -0.00675842  -0.00986231   -0.0116323  -0.00466739    -0.032656    0.0270508   0.00523126   0.00445103
  -0.0157905    0.0115334   -0.0412034   -0.0449726   -0.0215311    0.0227021    0.0252432    -0.060833  -0.00506121
  -0.0241507   0.00907914   0.00818599   -0.0331074   -0.0200397    0.0834849   -0.0146453   -0.0173333   -0.0168533
  0.00593648   -0.0149264    0.0815558   0.00944478    0.0059175    0.0241474   -0.0107674  -0.00371389    0.0350404
#
   0.031962   0.0112055   0.0626393  -0.0638291   0.0550492  -0.0483046   0.0082736   0.0272762  -0.0214422   -0.023364
  0.0193768  -0.0395718  -0.0892206  -0.0376842  0.00666622  -0.0171364 -0.00504954   0.0294791  -0.0240628   0.0470171
  0.0516566   0.0392861   0.0404818  -0.0797027   0.0600087   0.0524421 -0.00225267  -0.0501587    0.019449   0.0111751
   0.014562  -0.0293471  0.00163519   0.0204503   0.0138677  -0.0698824  -0.0700156  -0.0114556  0.00858143  -0.0272602
-0.00836922   0.0303516  0.00488927  0.00309785   0.0556315  -0.0374023   0.0477847 -0.00116385   0.0356743   0.0551099
 -0.0405303    0.032906  -0.0231945  -0.0288074  -0.0498201   0.0291861  -0.0161391  -0.0268164   0.0287304   0.0504959
 0.00702485   0.0302358 -0.00282811   0.0457109  -0.0138725  0.00991433   0.0141621   0.0234204 -0.00701351   0.0109325
  0.0292879 -0.00331036  0.00766704  -0.0135946   0.0244531   0.0128707   0.0708483   0.0223605  -0.0226844   0.0530437
   -0.10677  0.00376823   0.0425042  -0.0445616  -0.0228371  -0.0334161  -0.0150909  0.00752563   0.0352763  -0.0171424
 -0.0870939  -0.0378995  -0.0653004   0.0206115   0.0444003   0.0424579  -0.0205167  -0.0214027  -0.0382123   0.0310773
#
 -0.00892643   -0.0171199   -0.0203712  -0.00231148    0.0443195   -0.0217859    0.0670377    0.0172955    0.0392363   -0.0164492
  -0.0144371   -0.0359876   0.00777313   0.00192281  -0.00830471   -0.0123884   -0.0419334    0.0223149    0.0186471  -0.00302046
 -0.00619234    0.0431168    0.0079369   -0.0529859   -0.0482858   0.00758517   0.00577242   -0.0538039  -0.00732738  -0.00805418
    0.101111     -0.06192   0.00862615    0.0273044 -0.000708232    -0.042595  -0.00438998  0.000510429    0.0126369   -0.0639769
   0.0349117    0.0148904  0.000300043    0.0877506   -0.0206365    0.0277382   -0.0132564   -0.0557443   -0.0230539    0.0204206
  0.00267666  -0.00158407   -0.0726212   -0.0170369   -0.0376445   -0.0148664   -0.0332024 -0.000904499  5.64482e-06   0.00721523
   0.0381804    0.0790235  -0.00645789    0.0226319    0.0133824   -0.0421247    0.0261293    0.0100529  -0.00702882   -0.0168934
  -0.0391834  -0.00415664   -0.0017813   -0.0266623    0.0209926    0.0325144   -0.0523227    0.0458257    0.0105308    0.0311249
  -0.0206216   0.00862202   0.00221351    0.0269002   -0.0569418    0.0499695   -0.0036356   -0.0595981   -0.0371932   -0.0269931
  -0.0444492   -0.0163415    0.0113443   -0.0168305   -0.0170036  -0.00383881   -0.0109627   0.00217214    0.0625108     0.037693
#
   0.0043114    0.0174876    0.0313586    0.0720461    0.0578846     0.003523   -0.0029155   -0.0300528    -0.039348   -0.0572718
   0.0342726  -0.00608057 -0.000628637    0.0372695  -0.00546772   -0.0549767    0.0740414  -0.00597268  -0.00260555   -0.0119451
   0.0129074   -0.0097963     0.028503    0.0107373   -0.0208742  -0.00229151   -0.0135403   -0.0286017   -0.0112711  -0.00897597
#
!
<38>:Score:843
Distance:4.12311
 0.00345673    0.018192   0.0696195  -0.0101608   0.0276609 -0.00918484 -0.00907058  -0.0397794   -0.010473
  0.0388781     -0.0117  -0.0290882   0.0294692 -0.00289629 -0.00807788  -0.0340133   0.0111512  -0.0520861
 -0.0271355  -0.0225189   0.0101857   0.0065896  -0.0213547   0.0680768   0.0338965  -0.0137618  -0.0155282
-0.00913321   0.0245978 -0.00883857   0.0211866  0.00865861 -0.00122079  -0.0254742  -0.0458077   0.0213257
  0.0203122   0.0138457  -0.0154977  -0.0130148  -0.0545157    0.046936  -0.0484058  0.00343285   0.0314739
  0.0262255  -0.0175715   0.0446733    0.033169   0.0103042   0.0134006   0.0994338  -0.0206742   0.0430221
 -0.0299471 -0.00966955 -0.00797296  -0.0255986  -0.0193461  -0.0135281   0.0220447  0.00902572  0.00765015
 -0.0281283   0.0100131  -0.0369607  -0.0264273   0.0198365 -0.00705086   0.0275641  -0.0675423  -0.0391509
 -0.0151043   0.0152719 -0.00288218 -0.00447894  0.00174363   0.0843361  -0.0167927  -0.0131801 -0.00854516
  0.0252947  -0.0140062   0.0877035    0.028372  0.00575198   0.0222397  -0.0244143  -0.0174574   0.0443667
#
   0.0228752   0.00496117     0.048144   -0.0560231     0.047913   -0.0708604   -0.0019378    0.0376345   -0.0205894  -0.00424801
   0.0131777    -0.052039    -0.104153   -0.0378738   0.00649493   0.00122363   -0.0174948    0.0265168   -0.0239375    0.0381121
   0.0286458    0.0179524    0.0323496   -0.0771834    0.0486175    0.0498515    0.0112379     -0.06368  0.000793709    0.0011749
  0.00672785   -0.0349002   0.00445859    0.0156675   -0.0105543    -0.047325   -0.0702813   -0.0109175    0.0162818   -0.0191231
 -0.00980111    0.0487152   0.00461742   0.00347231    0.0448876   -0.0293696    0.0671758    0.0133352    0.0389946    0.0291388
  -0.0381683    0.0467566   -0.0192502   -0.0290399   -0.0344585    0.0226401   -0.0287615   -0.0381929    0.0451679     0.035521
   0.0115878    0.0121225   -0.0194527    0.0546047  -0.00639295    0.0180561    0.0188016    0.0250836 -0.000830015   0.00455868
    0.035287   0.00595761    0.0250197  -0.00488965    0.0317332     0.020845    0.0660307    0.0057198   -0.0278978    0.0473136
  -0.0833781    0.0163432    0.0489274   -0.0258766   -0.0260411   -0.0241764   -0.0404225    0.0220128     0.042408   -0.0335141
    -0.10314   -0.0351398   -0.0801663    0.0304211    0.0234611    0.0427645    0.0092408  -0.00554535   -0.0374302    0.0441546
#
  -0.0170967  -0.00389491   0.00823546   0.00288316     0.041737   -0.0213981      0.06432    0.0119526    0.0379029   -0.0286747
 -0.00840423   -0.0106157  -0.00119059    0.0128061  -0.00818654   -0.0564117   -0.0323859   0.00810821    0.0258947   0.00230006
   0.0059242    0.0365472   0.00114171   -0.0485705    -0.043589  -0.00302578   -0.0113105   -0.0602683   -0.0183471   -0.0109334
   0.0898925   -0.0547858    0.0285499    0.0525988   0.00597309   -0.0472501   -0.0175159   -0.0102756  -0.00684374   -0.0385435
   0.0463391   0.00294514    0.0154021    0.0640654   -0.0440531     0.013457   -0.0505725   -0.0462061  -0.00724088    0.0158532
  0.00641167   -0.0212255   -0.0889738   -0.0270255   -0.0512651   0.00906954   -0.0378002     0.010647    0.0059561    0.0161306
   0.0248667    0.0888739   0.00332803   0.00208606    0.0296439   -0.0482411  0.000198893    0.0303159   0.00492249   -0.0201006
  -0.0368729   -0.0139766   -0.0122216   -0.0186695   0.00621663    0.0502211   -0.0535576    0.0769768 -0.000659844    0.0446978
   -0.056031  -0.00924365   0.00169632    0.0589724   -0.0511513    0.0598754   -0.0168619   -0.0532585    -0.044892   -0.0441447
  -0.0442847  -0.00404511    0.0185026  -0.00260275   -0.0201684  -0.00886271   -0.0109558  -0.00363499    0.0703939    0.0303373
#
  0.0111728 -0.00390571   0.0114339     0.04819   0.0287253 -0.00972037  0.00286242  -0.0454217  -0.0380572  -0.0418303
 0.00521742  -0.0149376   0.0057375   0.0503641   0.0201289  -0.0487698    0.088357  -0.0268586 -0.00930219  -0.0236347
  0.0163558  0.00192447   0.0522658   0.0132807 -0.00701317 -0.00117444  0.00317051  -0.0557043  -0.0266098 -0.00996568
#
!
<82>:Score:810
Distance:4.12311
 0.00847537    0.021997   0.0499473  -0.0311653   0.0287812  -0.0157461 -0.00973106   -0.068426  -0.0206043
  0.0377308  -0.0175917  -0.0154069   0.0134799   -0.012909  -0.0178289  -0.0234499   0.0202093  -0.0359312
 -0.0394981 -0.00321681   0.0303194   0.0136921  -0.0122903   0.0337147   0.0258225  -0.0162913 -0.00293324
 -0.0177468   0.0102639   0.0144797   0.0195864   0.0175741   0.0149732  -0.0248353  -0.0611995 -0.00275308
  0.0118271   0.0135897  0.00532226  -0.0283018   -0.059119   0.0670886  -0.0410575  0.00962838   0.0301105
 0.00356807  -0.0104139   0.0353644   0.0343926  -0.0210952  0.00709924    0.108208  -0.0359699   0.0429152
 -0.0462334 -0.00547386  0.00575237   -0.015193  -0.0238711  -0.0272016   0.0251507  0.00838819   0.0130963
-0.00843854   0.0291671  -0.0559529  -0.0291444   0.0196016  -0.0140412   0.0275996  -0.0459172  -0.0288956
 -0.0303347  0.00882078  -0.0251627  -0.0187411  0.00545122   0.0734392  -0.0225913   -0.012379  0.00803704
 0.00899397 0.000773717    0.113576 -0.00870849  0.00852918   0.0107358  -0.0148368 -0.00458163   0.0446656
#
  0.0345718    0.018519   0.0365295  -0.0601131   0.0340139  -0.0539456 -0.00203326   0.0196113  -0.0123456 -0.00528086
 0.00111181  -0.0427482   -0.103526  -0.0576674 -0.00401096  -0.0131392  0.00823997   0.0309803  -0.0224344    0.049763
  0.0269407    0.021048   0.0403906  -0.0746111   0.0369437   0.0399473   0.0033726  -0.0644578  0.00731933  0.00159653
  0.0147577  -0.0368036 -0.00151135   0.0190675  0.00747137  -0.0499469  -0.0774237   0.0043915   0.0103634  -0.0126824
 -0.0239346   0.0159155  -0.0198682   0.0020458   0.0499499  -0.0514808   0.0482916 -0.00640279   0.0507811   0.0439818
 -0.0211995   0.0290574  -0.0153704  -0.0218963  -0.0348681    0.012724   -0.012072  -0.0255146   0.0460951   0.0394954
  0.0275695   0.0251842  -0.0116912   0.0713594 -0.00655045   0.0213726  0.00380829   0.0254411 -0.00937237  0.00277639
  0.0357898  0.00115907  0.00320673  -0.0131419   0.0238205   0.0113964   0.0682785   0.0258645  -0.0302758   0.0465519
 -0.0859534  0.00403139   0.0483538  -0.0383737 -0.00417271  -0.0300211   -0.020093   0.0166671   0.0339136  -0.0219705
 -0.0961882  -0.0458912   -0.063121   0.0210017   0.0481143   0.0292589 -0.00759399  -0.0053356  -0.0432258   0.0439853
#
  -0.0263684   -0.0299248   -0.0190127      0.02242    0.0531642   -0.0538199    0.0319098    0.0168767     0.039992   -0.0211769
  -0.0135569   -0.0125531  -0.00338366    0.0181952  -0.00204704   -0.0263553   -0.0286662    0.0126982    0.0236965    0.0143673
 -0.00612524    0.0381816   -0.0110768   -0.0405544   -0.0354476    0.0281038    0.0080583   -0.0488353   -0.0214097  -0.00782312
   0.0971502   -0.0526057    0.0091273    0.0370509  -0.00390141   -0.0290059    0.0143787  -0.00706856   0.00166781   -0.0507631
  0.00851723   -0.0113369    0.0155962    0.0775423   -0.0418714    0.0167038   -0.0428493   -0.0351705   -0.0146797    0.0293338
 0.000725111   0.00565227   -0.0859583   -0.0290344   -0.0307085   0.00179171   -0.0293557   0.00334009    0.0157809    0.0271408
    0.028611     0.086325   -0.0185518    0.0263305    0.0302873   -0.0522033    0.0215079    0.0299683   0.00515771   -0.0271719
  -0.0263184   0.00772814   -0.0136133   -0.0321665    0.0156949    0.0587448   -0.0422351    0.0814127   0.00332705    0.0516523
  -0.0400244  -0.00419704   0.00199101    0.0302794   -0.0805325    0.0680748  -0.00378846   -0.0590624   -0.0258866   -0.0393924
  -0.0268084 -0.000896628    0.0251148   -0.0164823   -0.0106838  -0.00990362   0.00867139    0.0155255    0.0628352    0.0344357
#
 0.00547452   0.0150404  0.00684967   0.0699927   0.0735274 -0.00556903   0.0193352  -0.0370792  -0.0174154  -0.0391867
  0.0360833  0.00371337   0.0278773   0.0577491  0.00573154  -0.0518797   0.0890868  -0.0252937  -0.0270983  -0.0140388
  0.0198696 6.78481e-05   0.0699804 -0.00824376  -0.0271301   0.0168972 -0.00998619  -0.0385254  -0.0263797 -0.00424217
#
!
<47>:Score:792
Distance:4.12311
   0.0173175   0.00483983    0.0601044   -0.0262472    0.0408001   -0.0122795   0.00866041   -0.0660462  -0.00354028
   0.0268454    0.0265351 -0.000121099    0.0147632  -0.00193997    0.0201855   -0.0267309    0.0174216   -0.0741125
  -0.0501345   -0.0166055     0.031649   0.00551421   -0.0200809    0.0455782    0.0512226   -0.0248394    0.0103339
   0.0237526    0.0344057    0.0347377  -0.00421386    0.0163015   -0.0112945  -0.00902292   -0.0258287    0.0255926
    0.055266      0.00757  -0.00162426  -0.00968194     -0.04731    0.0512852    -0.031301    0.0219284    0.0197354
   0.0362299    -0.031402    0.0284197     0.027931  -0.00391486    0.0289376    0.0812922   -0.0435611    0.0538305
  -0.0283758   -0.0231901   -0.0113735   -0.0351421   -0.0120414   -0.0185445    0.0228127    0.0228247   0.00309072
   0.0125529    0.0259847   -0.0348532   -0.0193925   -0.0187965 -0.000631443    0.0307975   -0.0292755   -0.0321874
  -0.0154814    0.0258811  -0.00975662   0.00658753   -0.0132937    0.0673521    -0.016664   -0.0199149    0.0104524
   0.0280022    0.0341667    0.0801256   0.00288641   0.00495135    0.0201564    0.0233526  -0.00583298    0.0180876
#
  0.0234195   0.0335015   0.0445981  -0.0414158   0.0427606  -0.0241658  0.00217077   0.0155766  -0.0229967  -0.0113671
  0.0078504  -0.0164464   -0.078346  -0.0490928 -0.00723932  -0.0100432  -0.0103767 -0.00863322  0.00786436   0.0360537
  0.0416781   0.0178044   0.0329854  -0.0587825   0.0379946   0.0556539    0.033306  -0.0627864   0.0435803   0.0105733
  0.0101052  -0.0492603  -0.0103948     0.01457  -0.0173603   -0.054697  -0.0350205  0.00620326    0.027154  -0.0284354
 -0.0296019   0.0661392   -0.010645  -0.0118062   0.0429463  -0.0274111   0.0653321 -0.00222769   0.0482104    0.063588
 -0.0409331   0.0286301   -0.028721  -0.0252193   -0.042737   0.0328451  -0.0451174  -0.0215429   0.0541903   0.0445902
 0.00431289   0.0236134  -0.0372331   0.0338604 -0.00943131 -0.00157587   0.0213949 -0.00306379  -0.0117182  0.00159411
  0.0297518 -0.00242988  -0.0128467 -0.00957022   0.0229952  -0.0108738   0.0415426  0.00165141  -0.0284595     0.03924
 -0.0926508   0.0299658   0.0706904  -0.0488353  -0.0164592  -0.0034784 -0.00931026   0.0107299   0.0363694  -0.0298562
 -0.0986971  -0.0460351  -0.0662238   0.0281171   0.0330841   0.0336668  -0.0229357  -0.0310825  -0.0554762   0.0122232
#
 0.00220552  0.00686717  -0.0373449 1.97535e-05  0.00965409   -0.028045   0.0527702   0.0160055  0.00911998   -0.023869
-0.00108385  -0.0379418 0.000203524  -0.0200447  -0.0130172  -0.0371016  -0.0388781  0.00738101   0.0083715 -0.00744827
 0.00113999   0.0399749 -0.00410636  -0.0592825  -0.0509091   0.0196577  -0.0111087  -0.0660977  -0.0216406 -0.00548926
  0.0924726   -0.074753  0.00158317  0.00995076 -0.00729259  -0.0461807  0.00337658 -0.00949021  -0.0207101  -0.0681621
  0.0115331  0.00354532   0.0258542     0.05204   -0.039239 -0.00433149  -0.0361279  -0.0674394  -0.0159551   0.0199213
 -0.0133424  -0.0299701  -0.0920648  -0.0492246  -0.0278927 -0.00511051  -0.0346957  0.00764897  0.00155107    0.041914
 0.00416432   0.0694781 -0.00615578   0.0298728   0.0447546  -0.0524331   0.0324982  0.00957313 -0.00504562  -0.0148694
 -0.0436136 0.000201893  -0.0108715  -0.0245559   0.0299419   0.0249146  -0.0690454   0.0423484  -0.0106209   0.0404463
 -0.0346649  0.00391728  -0.0199197   0.0577459  -0.0438726    0.056501  0.00896966  -0.0412878  -0.0350327  -0.0396763
 -0.0231695  -0.0418842   0.0225193   -0.012258  -0.0397342  -0.0143284   0.0057519   0.0197506   0.0728138   0.0291933
#
  -0.0120076   0.00430066     0.026394    0.0374535    0.0630715   0.00117286  -0.00038962   -0.0269187   -0.0479112   -0.0553453
   0.0283509   -0.0069486    0.0347968    0.0107058  -0.00169759   -0.0400239    0.0597995  -0.00239694   0.00182477  -0.00923739
-0.000397026   0.00348376    0.0267966  -0.00742848  -0.00922884    0.0160448 -0.000138189   -0.0392115   -0.0231293  -0.00604383
#
!
<49>:Score:784
Distance:4.12311
    0.020453    0.0241542    0.0425161   -0.0185229    0.0370737   -0.0232158   0.00177134   -0.0671209   0.00273478
   0.0463931    0.0303672   -0.0159066    0.0134173    0.0184114    0.0301939   -0.0200976    0.0094973   -0.0541151
  -0.0414701   -0.0423777     0.050651    0.0197707   -0.0242668    0.0320392    0.0477509  -0.00986193   -0.0163491
 -0.00210321    0.0313385    0.0363774  -0.00610692    0.0333702    0.0228358   -0.0227258   -0.0186938    0.0227545
   0.0398962    0.0169942  -0.00551531   -0.0299508   -0.0408173    0.0522143   -0.0477013    0.0366047    0.0263153
 0.000531746   -0.0314282    0.0407944    0.0291427 -0.000688134    0.0228836    0.0820664   -0.0325698    0.0323267
   -0.014882   -0.0228109   0.00670195   -0.0194205   0.00120504   -0.0384462   0.00893905    0.0308395      0.00475
   0.0270245    0.0179968   -0.0270093   -0.0360619   -0.0161399   0.00801658   0.00916299   -0.0346753   -0.0316499
-0.000474512     0.025745  -0.00727817    0.0084223     0.021098     0.050007   -0.0211477   -0.0159566    0.0155083
   0.0283023     0.015099    0.0661402   0.00782383    0.0192115    0.0458258    0.0270241  -0.00510017     0.022905
#
   0.0455083  -0.00598412    0.0478657   -0.0404647    0.0436572     -0.03739    0.0132753    0.0265493   -0.0219735    0.0104739
  -0.0034896   -0.0443304   -0.0930543   -0.0482503   0.00150656   -0.0422687   0.00791241   0.00779462   -0.0052208    0.0332419
   0.0511353    0.0223186    0.0301985    -0.037888    0.0466958    0.0332599     0.023905   -0.0523792    0.0411419   0.00710137
  0.00758619   -0.0598744    0.0105317 -0.000708575   0.00512765   -0.0506649   -0.0587609     0.006299    0.0217658   -0.0292038
   -0.032815    0.0441989    0.0108995  -0.00714413    0.0401099   -0.0243376     0.065479   0.00526642    0.0423559    0.0497724
  -0.0235466    0.0209102   -0.0170369   -0.0435321   -0.0462895    0.0254673  -0.00386982   -0.0346436    0.0557607    0.0367145
  0.00170782   0.00393498   -0.0307052    0.0288609   -0.0215121    0.0173051   -0.0171783  -0.00159234   -0.0058894   0.00596833
  0.00507727  -0.00260992  -0.00688237   -0.0186885    0.0308564   0.00548315     0.044196    0.0216795   -0.0102179    0.0398918
  -0.0586923    0.0277471    0.0745154   -0.0349946  0.000412161   -0.0291699   -0.0106673    0.0114627     0.044904   -0.0205375
   -0.103157    -0.041773   -0.0585877    0.0133902    0.0516431    0.0480722   -0.0208224   -0.0240703   -0.0360287   0.00964889
#
-0.00301372  0.00332021  -0.0116443  0.00355859   0.0193949  -0.0322069   0.0685286  0.00994755   0.0220404 -0.00331384
-0.00229384 0.000486573   0.0070519  -0.0174981 -0.00612101  -0.0475646  -0.0332775  0.00838907   0.0243274 -0.00923486
 -0.0182443   0.0400834 -0.00620647  -0.0442853  -0.0508998   0.0176018  0.00029774  -0.0483218  -0.0195555  -0.0215485
  0.0776381  -0.0673184 -0.00218731    0.019676    0.012743  -0.0446595  0.00974883  -0.0180912 -0.00588175  -0.0465441
 0.00356142 -0.00268309   0.0107095   0.0419847  -0.0212078 -0.00326778  -0.0234269  -0.0423358  0.00209478   0.0233253
-0.00752941  -0.0375671  -0.0840128  -0.0395656   -0.028415  -0.0103073  -0.0442819  0.00662555   0.0110675   0.0205308
  0.0129466   0.0745272  -0.0212172   0.0193566   0.0437396  -0.0624975   0.0253055  0.00165697   0.0174421 -0.00995932
 -0.0236749  0.00645189  -0.0125009  -0.0198029   0.0207285   0.0307134   -0.053167   0.0564939  0.00259056    0.040861
 -0.0327757  -0.0087205  -0.0359829   0.0566748  -0.0380174    0.045696   0.0130538   -0.037511  -0.0285967  -0.0345685
 -0.0129306  -0.0352637  0.00899465  0.00262471   -0.010409  -0.0147109 -0.00258461   0.0102343    0.080493   0.0234227
#
-0.00477119  -0.0300968   0.0319012   0.0367358   0.0475652   -0.025355   0.0127994  -0.0421688  -0.0372792  -0.0249925
 0.00757684  0.00108874   0.0361926   0.0395952  -0.0399966  -0.0369208   0.0877265  -0.0214906 0.000198989  -0.0253261
-0.00310264   0.0095762   0.0292857   0.0101479  -0.0181809   0.0221023 -0.00506879  -0.0385919  -0.0205129 -0.00483526
#
!
<84>:Score:770
Distance:4.12311
 0.00540835  0.00785318   0.0549612  -0.0073411   0.0353653  -0.0154883  -0.0303326  -0.0525504  -0.0127192
   0.028703  -0.0247296  -0.0160487   0.0196202  0.00231357   0.0147075 -0.00494629   0.0133263  -0.0162617
 -0.0298937 -0.00104934   0.0318425   0.0122461  -0.0156084   0.0412299   0.0304902  0.00670863  -0.0239525
 -0.0170274   0.0186901   0.0165638   0.0186942   0.0222488  0.00840078 -0.00949746  -0.0477438   0.0266764
  0.0320301   0.0152511 -0.00146177    -0.02694   -0.058009   0.0455217  -0.0528848   0.0144071   0.0392655
  0.0148964    -0.01727   0.0463193   0.0252776  -0.0211626   0.0157217   0.0877875  -0.0234019   0.0531773
 -0.0306214  -0.0214656  0.00195501  -0.0406606 -0.00336123  -0.0246011   0.0201511   0.0238147    0.032246
 -0.0198517   0.0239188  -0.0516793  -0.0348435   0.0164125   0.0044634   0.0211133  -0.0470227 -0.00329959
-0.00733248  0.00117852  -0.0212103  -0.0174132 -0.00183384   0.0728229 -0.00573747  0.00613462 -0.00380775
 0.00971344  -0.0202021    0.094065   0.0321915   0.0253596  0.00716767  -0.0269123  -0.0127387   0.0640542
#
   0.0487539    0.0133898    0.0545343     -0.04885    0.0615025    -0.056591  -0.00489623      0.05484 -0.000875854   -0.0105727
 -0.00103121   -0.0429078   -0.0985888   -0.0481885   0.00736493  -0.00886083   -0.0117315    0.0367553    -0.031905    0.0431316
   0.0341546    0.0224138    0.0395739   -0.0743967    0.0431471    0.0339112    0.0186685   -0.0386652    0.0158924    0.0194185
   0.0161468   -0.0370262  -0.00499273    0.0162178    0.0179282   -0.0595578   -0.0565583   -0.0141186  -0.00319874   -0.0230155
  -0.0181917     0.046095  -0.00820743   -0.0108022    0.0381376   -0.0559082      0.05935    -0.015884    0.0349976    0.0295475
  -0.0393453    0.0452064   -0.0252123   -0.0146129    -0.036221    0.0151548    -0.041434   -0.0312584    0.0460282    0.0244902
  0.00686593    0.0112887   -0.0165611    0.0432197   -0.0104682     0.014956    0.0410888    0.0217206   -0.0132656    0.0144854
    0.035317   0.00952323   0.00223553   -0.0347178     0.019206    0.0178413    0.0648756    0.0245915   -0.0297326    0.0382405
  -0.0979874   0.00651547    0.0576173   -0.0287417   -0.0323403   -0.0331745   -0.0381056   0.00648888     0.047239   -0.0141291
  -0.0903127   -0.0141388   -0.0730607    0.0249061    0.0346273    0.0432614  -0.00429264   -0.0107827   -0.0240157    0.0226875
#
 -0.0131577  -0.0391989  0.00641663 0.000632222   0.0280619  -0.0327556   0.0420855   0.0102216   0.0189366  -0.0145256
 0.00518217   -0.025045   0.0150491  0.00114845  -0.0272268  -0.0419732  -0.0564919   0.0342282   0.0251543   -0.026563
 -0.0111838   0.0590182 -0.00716726  -0.0756999  -0.0398448  0.00244462  0.00256005  -0.0485132  -0.0132094   0.0020919
   0.107857  -0.0557005   0.0165298   0.0238031  -0.0195043  -0.0296367  -0.0162647  -0.0104482  0.00712839  -0.0353514
  0.0399095   0.0168421    0.014394   0.0709024  -0.0253852   0.0153924  -0.0505286  -0.0509835  -0.0259646   0.0427573
-0.00728543  -0.0102467  -0.0783075  -0.0383157  -0.0293808  -0.0193309   -0.044897 -0.00670132  0.00538533   0.0226668
  0.0261956   0.0817687  0.00460552  0.00773487   0.0338627  -0.0407124   0.0141952   0.0026924  0.00137739   -0.016213
 -0.0300596 -0.00680294  -0.0260318  -0.0295163   0.0149634   0.0316194  -0.0447774   0.0756188  2.7697e-05   0.0495384
 -0.0215512  0.00120813 -0.00176076   0.0399974  -0.0542574   0.0652539   -0.016435  -0.0608245  -0.0266515  -0.0363603
 -0.0165404  -0.0113258  0.00811292  -0.0386626  -0.0174033  -0.0251832 -0.00770587   0.0167602   0.0725965   0.0551541
#
   0.0104072  -0.00168426    0.0222733    0.0622084    0.0556599   -0.0150331    0.0217849   -0.0524777   -0.0312082   -0.0519087
   0.0304057   -0.0107944     0.013814    0.0296552   0.00257185   -0.0569837    0.0933843   -0.0172452   -0.0273342   -0.0133824
-0.000373363  -0.00357621    0.0377551  -0.00426363   -0.0129941   0.00900431    -0.015989   -0.0338963   -0.0181562   0.00364958
#
!
<94>:Score:742
Distance:4.12311
 -0.00503062    0.0082131    0.0552257   -0.0108672     0.029146   -0.0300684   -0.0231527   -0.0526462   -0.0268112
    0.045988   -0.0183315   -0.0083178    0.0101453  -0.00801117   0.00816747   -0.0330984   0.00873414   -0.0362416
  -0.0434087   -0.0183869    0.0272118  -0.00588595   -0.0316171    0.0608773    0.0411198   -0.0172492   -0.0106535
   0.0140187    0.0209111    0.0113617  -0.00307225    0.0182649  -0.00401706    -0.014292   -0.0626974    0.0164271
   0.0298796    0.0211567   0.00345914   -0.0238931   -0.0632559     0.048333   -0.0506834    0.0092893    0.0356249
   0.0183552  -0.00607554    0.0282738    0.0459163  -0.00601864    0.0152304    0.0897375   -0.0335977    0.0594526
  -0.0359878   -0.0283584   0.00550372   -0.0356436 -0.000348055   -0.0216438    0.0402723    0.0137809   0.00039626
  -0.0147705    0.0318298   -0.0506235   -0.0415676    0.0101385   0.00295203     0.017437   -0.0482523   -0.0310929
  -0.0250273    0.0171247   -0.0394378   -0.0135291  -0.00604072    0.0751919  -0.00361411    -0.024896   0.00417945
 -0.00365063   0.00318274     0.105253    0.0110845   0.00187139    0.0215753    -0.027058    0.0012411    0.0242107
#
    0.044302  -0.00380037    0.0350915   -0.0518498    0.0323217   -0.0677658  -0.00010494    0.0399221   0.00144996 -0.000153336
   0.0033253   -0.0501349   -0.0955204   -0.0533837   0.00681423   -0.0147226   -0.0101426    0.0188586   -0.0333012    0.0423346
   0.0485029    0.0164016    0.0432783   -0.0753603    0.0629603    0.0470638    0.0175515   -0.0473918      0.02443  0.000959064
  0.00743131   -0.0242334   0.00357956    0.0172621    -0.015136   -0.0764266   -0.0883617  -0.00605894  0.000940609   -0.0105303
  -0.0326989    0.0474739   0.00444745  -0.00994564    0.0612117   -0.0273373    0.0731178    0.0076498    0.0254806    0.0346472
  -0.0263482    0.0400081   0.00327214   -0.0285269   -0.0378628    0.0266024   -0.0401224   -0.0127665    0.0306932    0.0428933
   0.0109036    0.0218061   -0.0249132     0.037896   -0.0159388    0.0181475    0.0118308   -0.0110021    0.0150074    0.0190636
   0.0325442    0.0152098 -0.000422134    -0.028869   0.00410006    0.0171469     0.053264    0.0195766    -0.017456    0.0451549
  -0.0822858    0.0157732    0.0584985   -0.0353132   -0.0116971    -0.036412   -0.0234227    0.0258846    0.0227446   -0.0101195
   -0.103619    -0.031767   -0.0727682    0.0478065    0.0473196    0.0521691   -0.0296083  -0.00967067   -0.0218194    0.0429512
#
  -0.0116475   -0.0362607   -0.0076528  0.000699599    0.0356352   -0.0415317    0.0720393   0.00838868    0.0464739    -0.031055
 -0.00620258   -0.0119078   0.00192849    0.0108729   -0.0153002   -0.0411608   -0.0331879    0.0124371    0.0117085  -0.00603834
  -0.0114831    0.0346924  -0.00512755   -0.0681144   -0.0485425 -0.000142717    -0.002295   -0.0347971   -0.0128741  -0.00371523
   0.0897048    -0.072317   0.00777282    0.0357396    0.0154691    -0.034727   -0.0178592  -0.00585239  0.000408418   -0.0433554
   0.0203624   0.00722031    0.0169601    0.0734709   -0.0264453    0.0106664   -0.0442678    -0.045231   -0.0124059    0.0379249
  -0.0140055   -0.0232429   -0.0598066   -0.0327571    -0.019101   0.00677121   -0.0403601   -0.0185557    0.0060115    0.0375442
   0.0122896    0.0786154   0.00726349    0.0263884    0.0586864    -0.048317    0.0251883   0.00462524     0.011084   -0.0302707
  -0.0456521    0.0147644   -0.0197161   -0.0349531    0.0173301    0.0432701   -0.0487407    0.0747343  -0.00149646    0.0460894
  -0.0378255   0.00263754  0.000318413    0.0255818   -0.0636916    0.0527315   -0.0379115   -0.0536647   -0.0535496   -0.0320734
   -0.030457   -0.0153927   0.00516912  -0.00923443   -0.0165932   -0.0224248   -0.0168926      0.02857     0.078419    0.0420969
#
  0.0176083   0.0186291   0.0316387   0.0489086   0.0434218  -0.0145286    0.011766  -0.0299294  -0.0496819  -0.0479904
  0.0291983  -0.0176525   0.0214801   0.0435043 -0.00366997  -0.0518427   0.0937804  -0.0157965  -0.0174409  -0.0207412
  0.0323451 -0.00331392   0.0562434  0.00754463  -0.0334004   0.0055167  0.00368322   -0.034363  -0.0156017  -0.0393714
#
!
<39>:Score:736
Distance:4.12311
 -0.00479327  -0.00778682      0.05239   -0.0378731    0.0439788   -0.0205416   -0.0133648   -0.0433701  -0.00897499
   0.0306163     0.026231    0.0061602    0.0268892    0.0142621     0.019227   -0.0107174   0.00814097   -0.0639436
  -0.0195758   -0.0545344     0.041761   0.00140468  -0.00177661    0.0418864    0.0603815   -0.0192291 -0.000663524
   0.0308147    0.0224289   0.00857486  -0.00925114    0.0165063    0.0153485   -0.0255463   -0.0288387   0.00170068
   0.0189258      0.01174   0.00321236    -0.016118   -0.0620139    0.0600437   -0.0634104    0.0252524     0.025494
   0.0174643   -0.0144003    0.0545158    0.0320411    0.0164163    0.0212271    0.0913979   -0.0209383    0.0465596
  -0.0290759   -0.0271124  -0.00190116   -0.0314456  -0.00600331   -0.0514168    0.0234091     0.028381  0.000698415
   0.0223489    0.0317403   -0.0546351   -0.0361637   0.00247714   0.00736994   0.00471837   -0.0451122   -0.0220257
   -0.032537     0.023549   0.00230174   0.00612838   0.00159846    0.0710361  -0.00842333   -0.0168074    0.0234433
   0.0282994    0.0137631    0.0756538    0.0150435  -0.00344035    0.0461624    0.0258501  -0.00581557    0.0270285
#
   0.0444966    0.0257498     0.043856   -0.0666931    0.0521256   -0.0380624     0.017605    0.0345948  -0.00946701    0.0136861
 -0.00617081   -0.0264022    -0.103069   -0.0420928   -0.0158097   -0.0293462  -0.00677947  -0.00540157   -0.0100047    0.0423306
   0.0467011    0.0231329     0.017212   -0.0453058    0.0369173    0.0251361    0.0177612   -0.0649475    0.0409387   0.00227394
-0.000967298   -0.0621019   -0.0129009   0.00407816  0.000108694   -0.0651219   -0.0681534   0.00329736    0.0248958   -0.0149313
  -0.0275366    0.0470495  -0.00551788   -0.0151465    0.0442595   -0.0327633     0.056066  -0.00556938    0.0419071    0.0508852
  -0.0260978    0.0354221   -0.0204341   -0.0250266   -0.0404149    0.0226673   -0.0227529   -0.0228073    0.0566006    0.0232135
   0.0152034    0.0226144   -0.0375468    0.0468559   -0.0106191    0.0156755     0.021881    0.0161296   0.00533439    0.0158208
   0.0231048   -0.0101187   -0.0113707   0.00296933    0.0313075 -0.000277438    0.0689398     0.017278  0.000172872    0.0449734
  -0.0889289    0.0115088     0.073076    -0.045597   -0.0136195  -0.00166683   -0.0293399    0.0117658    0.0257484    -0.040011
   -0.115656   -0.0180986   -0.0585514  -0.00381367    0.0509615    0.0571427  -0.00468989   -0.0261419   -0.0530232    0.0279943
#
 0.00414787  -0.0235977  -0.0233387 -0.00485668   0.0228437  -0.0320611   0.0567828   0.0258505    0.017608 -0.00051561
 -0.0160846   -0.013307  0.00493704 -0.00892053  -0.0230071   -0.048399  -0.0362487   0.0165792   0.0132762  -0.0121691
  0.0049259   0.0258933   0.0058522  -0.0391626  -0.0344275   0.0413832  -0.0226687  -0.0518693   -0.034974 -0.00328329
  0.0911076   -0.090877   0.0161114   0.0255245   0.0215116    -0.03699 -0.00447541   0.0018569  -0.0208092  -0.0346015
  0.0198317 0.000336435   0.0246295   0.0597729  -0.0289928  -0.0191064  -0.0390578  -0.0647144  -0.0184319   0.0514669
  0.0067255  -0.0222296  -0.0605151  -0.0392698  -0.0292359 -0.00400498  -0.0465532   0.0126507  0.00921437   0.0274202
  0.0328674   0.0606178  -0.0159552  0.00563406   0.0357339  -0.0734108   0.0172481  0.00612647 -0.00835724  -0.0186539
 -0.0496251 -0.00241447  -0.0168504  -0.0115007   0.0185793   0.0476509   -0.037638   0.0812254 -0.00482063   0.0386176
 -0.0522717   0.0030577  -0.0215531   0.0423842   -0.053824   0.0554883   0.0101545  -0.0308191  -0.0307954   -0.042519
 -0.0411071  -0.0326589   0.0189548   -0.009258  -0.0204773  -0.0206547   0.0185891   0.0189905   0.0379707   0.0261369
#
 0.00401048  -0.0184847   0.0298773    0.029535   0.0301198  -0.0324822   0.0249865  -0.0321641  -0.0471181  -0.0361745
  0.0246974 -0.00763129   0.0279304   0.0527422  -0.0198381  -0.0375399   0.0688138  -0.0176193  -0.0179891  -0.0209252
0.000695817  0.00405526   0.0397203   0.0132129 -0.00871323   0.0125533 -0.00880002  -0.0329242  -0.0359603  -0.0171432
#
!
<54>:Score:731
Distance:4.12311
-0.00373148 0.000555894   0.0306192  -0.0140439   0.0229649 -0.00584246  -0.0279233  -0.0498451  -0.0280777
  0.0261147  -0.0484138  -0.0111741   0.0285277  -0.0185296   0.0182392  -0.0170885   0.0069913  -0.0334772
 -0.0329613  -0.0259716   0.0436575  -0.0137837  -0.0272532   0.0444307    0.051017 1.92818e-05 0.000772686
-0.00521071   0.0257473   0.0199418   0.0128948  0.00395333  0.00069911  -0.0249695  -0.0547462  0.00171054
    0.03479   0.0222368  0.00351668  -0.0223689  -0.0545946   0.0493557  -0.0372739  0.00355134   0.0211016
  0.0198074  -0.0133316   0.0381435   0.0269175 -0.00805427   0.0184206   0.0884761   -0.045665   0.0636669
 -0.0394897  -0.0220623 -0.00416382  -0.0163163 0.000492026  -0.0261651  0.00795438 -0.00145441   0.0141953
 0.00383653   0.0387884  -0.0746081  -0.0407301    0.004747    0.011587   0.0145618  -0.0570575  -0.0171409
 -0.0289534   0.0163295 -0.00652211 -0.00469532 -0.00949666   0.0880816 -0.00769783  -0.0362907  0.00436146
  0.0087645  -0.0230849   0.0780036   0.0299934  0.00223077   0.0249516  -0.0334088 -0.00358365    0.032949
#
   0.022201   0.0121025   0.0458323  -0.0557356   0.0402781  -0.0370386 -0.00176932   0.0337213   -0.017281  -0.0304144
 -0.0261142  -0.0505575    -0.11177  -0.0493385  0.00359778  -0.0228178 -0.00949528   0.0322414  -0.0335098   0.0590794
  0.0380517   0.0113139   0.0162102  -0.0527542    0.017284   0.0578516  0.00815024  -0.0396065   0.0131712 -0.00854746
  0.0125238  -0.0267833 -0.00829991    0.021924   0.0181177  -0.0489829  -0.0603026  -0.0281372  0.00750158  -0.0405512
 -0.0244681   0.0480216  -0.0107011  0.00904277   0.0519501   -0.013953   0.0471583   0.0119031   0.0362882   0.0547311
 -0.0287414   0.0643292  -0.0126531  -0.0112135  -0.0357521    0.022335   -0.039845  -0.0289593   0.0765961   0.0359344
-0.00166317   0.0293711   -0.024386   0.0487966  -0.0258025   0.0164417   0.0307856 -0.00313737  0.00172684   0.0128142
  0.0220545   0.0277823     0.01389  -0.0169066   0.0294336   0.0313977   0.0740961   0.0164884  -0.0179557   0.0581982
 -0.0969819  0.00487983   0.0518705  -0.0338135  0.00777421  -0.0289345  -0.0265382   0.0111841   0.0343201  -0.0243671
  -0.109198  -0.0168193    -0.06292   0.0376282   0.0479273   0.0500967  -0.0147383  -0.0157717  -0.0221606   0.0335636
#
 -0.00585615   -0.0438214   0.00112369    0.0194251    0.0385383   -0.0208346    0.0577663    0.0116764    0.0278123   -0.0347678
 -0.00939812   -0.0268726   -0.0108084    0.0185377  -0.00603952   -0.0258745   -0.0436917    0.0340469  0.000457829   0.00498043
  0.00774265     0.031643    0.0109718   -0.0499052   -0.0633616  0.000254736   0.00109475   -0.0650493   -0.0294414   -0.0154666
   0.0889281   -0.0566444   0.00312407    0.0279647    0.0183472   -0.0252413    -0.011702   -0.0163305   0.00251539   -0.0525999
   0.0400202   -0.0037754   0.00380108    0.0728271   -0.0223141     0.036645   -0.0258851   -0.0508033   -0.0123262    0.0198332
  -0.0151101    -0.012322   -0.0650853   -0.0179198   -0.0343217   -0.0134991   -0.0507654    0.0186236   0.00360299     0.039301
   0.0366921    0.0911886   0.00169844    0.0221738    0.0395247   -0.0603767    0.0147831    0.0169537   0.00265423   -0.0114373
   -0.031088   0.00474554   -0.0228669   -0.0303532    0.0339714    0.0409047   -0.0390917    0.0740847   0.00417843     0.054597
  -0.0347105 -0.000370081    0.0168495    0.0462572   -0.0435151    0.0752195   -0.0198588   -0.0295442   -0.0383393   -0.0481954
  -0.0481563    0.0038596    0.0107161   -0.0229263   -0.0237026  -0.00281781   -0.0172055   0.00852645    0.0596131    0.0428462
#
  0.0127309   0.0225174  0.00191662   0.0593284    0.067007 0.000564996 -0.00210433  -0.0417165  -0.0184142  -0.0327665
  0.0353435  -0.0163516 -0.00581109   0.0527945  0.00499891  -0.0436544   0.0828871  -0.0178781   -0.011224  -0.0190479
 0.00711445 -0.00047818   0.0445933   0.0081129  -0.0273063   0.0180421 -0.00835145  -0.0593547   -0.044001 -0.00148442
#
!
<88>:Score:731
Distance:10.0499
 -0.00143371    0.0031424    0.0421066   -0.0133516    0.0291544   -0.0124559   -0.0232903   -0.0658044  -0.00530638
   0.0534108  -0.00193623   -0.0254758    0.0202813    0.0070186    0.0174369   -0.0294263  2.23185e-05   -0.0372698
  -0.0384272   -0.0243626    0.0198943   0.00920086   -0.0186988    0.0342209    0.0316996  -0.00674196   0.00856213
 -0.00560988    0.0224657    0.0205613    0.0207292    0.0136199    0.0155616   -0.0347017   -0.0570463 -0.000467114
   0.0343759    0.0213794  -0.00346556  -0.00610283   -0.0531524    0.0354601   -0.0545669   -0.0160118    0.0207972
   0.0202408   -0.0168818    0.0402379    0.0424844   0.00688935    0.0184822     0.091944   -0.0346675    0.0464209
  -0.0424737   -0.0204046   -0.0158747   -0.0309666   0.00495134   -0.0361455    0.0376374   0.00640382      0.01465
  0.00265742     0.027869   -0.0483831   -0.0188218 -9.66241e-05   0.00420792    0.0194931   -0.0572155   -0.0382979
  -0.0372127   0.00828429   -0.0208823 -0.000995004   -0.0169758    0.0815203  -0.00930633  -0.00376268   0.00102499
   0.0145361    -0.010392    0.0885361    0.0177659   0.00993305    0.0233005   -0.0220357   0.00555842    0.0391098
#
  0.0407607   0.0214439    0.033841  -0.0564609    0.060665  -0.0414394  -0.0291646   0.0281445  -0.0109903    0.012389
 -0.0175645  -0.0564974   -0.104693  -0.0635595  0.00194382  -0.0241178   0.0134661   0.0248497  -0.0223619   0.0362844
  0.0438683   0.0101035   0.0337838  -0.0668545   0.0370961   0.0455191   0.0122104  -0.0540655   0.0272081  0.00131351
  0.0179676  -0.0366588   0.0123213   0.0340708  0.00264814  -0.0586186  -0.0779289  -0.0308835   0.0144115  -0.0294751
 -0.0151264   0.0405068   -0.013188 -0.00812104   0.0600241  -0.0522538   0.0667645  0.00707947   0.0210083   0.0449929
 -0.0377521   0.0377307  -0.0324906  -0.0158389  -0.0177478   0.0383613  -0.0221686  -0.0408219   0.0286256   0.0321061
 0.00781702   0.0254345  -0.0225752    0.076844  -0.0125563  0.00626917   0.0144346  0.00670946  -0.0159666   0.0227221
  0.0421549   0.0155191  -0.0163555  -0.0190616   0.0411487 -0.00107336   0.0544972   0.0158188  -0.0156871    0.058033
 -0.0904385   0.0121968   0.0442437  -0.0395821  -0.0207674  -0.0385858  -0.0304061   0.0135138    0.026979  -0.0163816
 -0.0993193  -0.0367797  -0.0789902   0.0306118   0.0399634   0.0399384  -0.0279444  -0.0179379  -0.0536885   0.0366583
#
 -0.00985762    -0.027442  -0.00804485  -0.00195344    0.0482677   -0.0390693    0.0527622   0.00903071    0.0350199   -0.0266104
   0.0107462   -0.0301549  -0.00274485    0.0126441  -0.00622362   -0.0431884   -0.0524727    0.0237492   0.00706706   0.00120899
 -0.00117889    0.0348763   0.00923995   -0.0502734   -0.0555282 -0.000727563  -0.00122281   -0.0469182   -0.0319789    0.0118017
    0.121889   -0.0820644   0.00369814    0.0241362   0.00326392   -0.0430319   -0.0205554   -0.0339302  -0.00295061   -0.0295678
   0.0142149    0.0228608   0.00675572    0.0758724   -0.0388376    0.0403521   -0.0457714   -0.0518397   -0.0110967    0.0144001
  -0.0279225    -0.010286   -0.0773974   -0.0225488   -0.0378002  -0.00837392   -0.0383981   0.00642474 -9.28546e-05    0.0393382
     0.01212    0.0679238   -0.0107399   0.00413788    0.0345527   -0.0223232    0.0219339    0.0165908   0.00157483   -0.0232812
  -0.0186902   -0.0040669    0.0061382   -0.0307877   0.00954396     0.061904   -0.0406068    0.0733085    0.0116344    0.0259501
   -0.059844   0.00749086   -0.0184881    0.0241537   -0.0549941    0.0522738  -0.00989857   -0.0544058   -0.0383394   -0.0437414
   -0.049366 -0.000962098    0.0142318   -0.0216999   -0.0200205   -0.0259843  -0.00160853    0.0199308    0.0673035    0.0577017
#
-0.00469614   0.0082494   0.0290264   0.0589941   0.0679635   -0.013106 -0.00726182  -0.0386144  -0.0317837  -0.0326724
   0.033742  -0.0232269   0.0263738   0.0474069   0.0267121  -0.0515617   0.0812915  -0.0327172 -0.00175519  -0.0086881
-0.00375647 0.000671128   0.0540521   0.0131198  -0.0315912  0.00546681  0.00277426  -0.0288973  -0.0367934  0.00266287
#
!
<48>:Score:720
Distance:4.12311
  0.00619088    0.0240153     0.059678   -0.0261309    0.0320453   -0.0241388  -0.00911751    -0.068382   -0.0130413
   0.0374798  -0.00413317   -0.0330331   -0.0101379  -0.00547143    0.0150188   -0.0277157   0.00682335   -0.0523388
  -0.0232759   -0.0078228    0.0154331    0.0110908   -0.0126832    0.0409397    0.0530188  -0.00667352   -0.0187959
 -0.00541466     0.024174   0.00173446   0.00555401    0.0147805    0.0133573   -0.0343112   -0.0487053    0.0104482
   0.0244789    0.0145967  -0.00881199   -0.0192886    -0.062761    0.0511934    -0.048329   0.00804265    0.0569345
    0.030843   0.00604764    0.0469293    0.0496917   -0.0158993   0.00813896     0.103963   -0.0192972    0.0275153
  -0.0328576  -0.00292014    0.0116478  -0.00704829   0.00549626   -0.0211251    0.0137647    0.0120098    0.0188406
  -0.0144032   0.00998985   -0.0492635   -0.0244235   0.00621021    0.0075921    0.0188701   -0.0556481   -0.0204024
  -0.0214578   0.00585662   -0.0118585   -0.0297207   -0.0116765    0.0686365    -0.019094   0.00991406  -0.00961072
   0.0116322  -0.00904441    0.0822359  -0.00319629    0.0148934 -7.70329e-05  -0.00364399    0.0196564    0.0524641
#
  0.0212894   0.0126925   0.0498868  -0.0634626   0.0549533   -0.055972 -0.00380594   0.0439827 -0.00368536 -0.00712289
 0.00471721  -0.0449644  -0.0926679  -0.0581061 -0.00519188  -0.0120902 -0.00527155   0.0274193  0.00577642   0.0564406
  0.0192943    0.021151   0.0341841  -0.0796419   0.0433944   0.0468051   0.0138748  -0.0606077   0.0212526  0.00576931
 0.00916114  -0.0279649 -0.00780677    0.018553  0.00674352  -0.0504659  -0.0648548  -0.0200806   0.0177802  -0.0306428
-0.00779228   0.0371961   -0.013694  0.00455295   0.0385213  -0.0295066   0.0697402  0.00102159   0.0469389   0.0396761
 -0.0200209   0.0536902  -0.0139488  -0.0326146  -0.0357287   0.0459725  -0.0283806  -0.0238631   0.0379373   0.0324873
  0.0203558   0.0101838  -0.0355079   0.0519621  -0.0109145  0.00584671  0.00317134   0.0126393 -0.00207072   0.0118115
  0.0361263  0.00332799 1.40568e-06  -0.0102349   0.0354101 -0.00679619   0.0845004  0.00107803  -0.0147222   0.0479706
 -0.0953399  0.00968352   0.0362652  -0.0390218  -0.0120339  -0.0276055  -0.0196429   0.0180437   0.0353007  -0.0276693
    -0.1148  -0.0416416  -0.0792354   0.0354807   0.0599625   0.0337013  -0.0244231  -0.0162612  -0.0406943   0.0267756
#
  -0.0253192   -0.0286415  -0.00142881    0.0116379    0.0387388   -0.0234581    0.0660318    0.0155222    0.0418731   -0.0213502
  -0.0118297   -0.0233908   0.00870953   0.00670979   -0.0138541   -0.0467899    -0.019997    0.0266075  -0.00468002   0.00205537
 -0.00878282    0.0524751    0.0254155   -0.0583884   -0.0402675    0.0207328   0.00260265   -0.0462233   -0.0325202  -0.00606075
    0.118869   -0.0593837   0.00499192    0.0165516     0.011961   -0.0331019   0.00251249   -0.0220008    0.0142093   -0.0484599
   0.0194569    0.0136411    0.0163618     0.079692   -0.0363393     0.020414   -0.0618128   -0.0496438   -0.0213308   0.00268104
 -0.00824066   -0.0130251   -0.0610764   -0.0192899   -0.0319038    0.0109844   -0.0528833    0.0120008   -0.0105995    0.0168108
   0.0511809    0.0759136   0.00205706    0.0334132    0.0207628   -0.0213707    0.0165184    0.0213079   0.00768223   -0.0139821
  -0.0168845    0.0162869   -0.0193086   -0.0306832    0.0123738      0.03915   -0.0400317    0.0666543   -0.0087948     0.041781
  -0.0375456   0.00330636 -0.000731241    0.0327727   -0.0544672    0.0470471    -0.030459    -0.042304    -0.024853   -0.0276854
  -0.0559561    -0.011651    0.0310734   0.00849574   -0.0221871  -0.00885786  -0.00162079    0.0116632    0.0621535    0.0353381
#
 0.00976001  0.00394964   0.0152662   0.0569974   0.0525242  -0.0260272   0.0170115  -0.0352207  -0.0469575  -0.0540801
  0.0189217  -0.0163574    0.012216    0.051605   0.0159834  -0.0546559   0.0814339  -0.0182417  -0.0233768  -0.0101601
-0.00458954 0.000835634   0.0449989  0.00184703  -0.0112949 -0.00223197  -0.0322398  -0.0448613  -0.0203372  0.00216948
#
!
<60>:Score:695
Distance:4.12311
  -0.0135164    0.0132332    0.0491069  -0.00961562    0.0287707   -0.0120422   -0.0286731   -0.0676377   -0.0127443
   0.0505114    -0.010179   -0.0233969    0.0306435   -0.0158717  -0.00228663   -0.0105901   -0.0235202   -0.0319047
  -0.0324559 -0.000548068    0.0474671   -0.0141943  -0.00456426    0.0393546    0.0461455   -0.0143085   -0.0175665
  -0.0149278    0.0173777  -0.00613767    0.0196647    0.0140143  -0.00568742   -0.0216372   -0.0496652    0.0135189
    0.034261    0.0178927    0.0198102  -0.00579417   -0.0514857    0.0402629   -0.0388874    0.0146487    0.0377077
   0.0428621     -0.01562    0.0436728    0.0501848   -0.0201704    0.0214461     0.083923  -0.00914435    0.0425703
  -0.0478482   -0.0124452   0.00540361   -0.0237767   -0.0159974   -0.0189981    0.0340602    0.0200687   0.00637082
  -0.0186729    0.0143544   -0.0449685    -0.039177  -0.00996566   0.00860828    0.0145045   -0.0568956   -0.0189359
  -0.0331223    0.0207852  -0.00513621   -0.0155694  -0.00791755    0.0677746  -0.00320313   0.00128043  -0.00121283
   0.0106469    0.0014221     0.088461    0.0218482   0.00239641    0.0215384   -0.0162913  -0.00152872    0.0362246
#
  0.0381408  0.00170898   0.0526507  -0.0610298   0.0401882  -0.0615158  -0.0126036   0.0435584  -0.0153071 -0.00898873
-0.00485582  -0.0485427  -0.0779679   -0.050572 -0.00239433  -0.0158841  -0.0127353   0.0339626 -0.00905726   0.0566848
  0.0393961   0.0203544   0.0412239  -0.0614198   0.0511119   0.0468238   0.0263402  -0.0354381   0.0214071 -0.00440665
   0.014927  -0.0296744 -0.00566566  0.00948182  -0.0113038  -0.0451529  -0.0578419  -0.0258728  0.00701111   -0.040863
 -0.0178405   0.0516664  -0.0129615  -0.0142606   0.0731052  -0.0256802   0.0582588  0.00311575   0.0361455   0.0331181
 -0.0222321   0.0623201  -0.0238554  -0.0324531  -0.0378827   0.0224905  -0.0260876  -0.0550213   0.0467293   0.0418617
  0.0177686   0.0275845  -0.0218019   0.0655298 -0.00777476   0.0211581  -0.0130446  0.00501046 -0.00355655    0.015631
  0.0361577 -0.00242479   0.0157276  -0.0301567    0.027717   0.0272025   0.0600801   0.0107178  -0.0597304   0.0471067
  -0.095776   0.0208538     0.04418  -0.0308346   -0.022785  -0.0420304  -0.0309135   0.0291588   0.0428012  -0.0163575
  -0.116341  -0.0284378  -0.0569685    0.031752   0.0142279   0.0259013  -0.0314195   -0.018632  -0.0338853   0.0377663
#
  -0.0106405   -0.0195138   -0.0117658    -0.017851    0.0363041   -0.0577347    0.0501538    0.0108383    0.0378625 -0.000807983
 -0.00597731    -0.020664    0.0107235    0.0272845   0.00295903    -0.048571   -0.0390418    0.0124611   0.00532585   0.00650953
  -0.0102816    0.0486527   -0.0170784   -0.0563766   -0.0377684    0.0303809   -0.0153516   -0.0563231   -0.0309276   0.00686989
    0.104713   -0.0618244    0.0141836    0.0198637   0.00149614   -0.0330831  -0.00257788   -0.0198814  -0.00353108   -0.0398666
   0.0267518   0.00677056    0.0237974    0.0709239  -0.00949569    0.0257269   -0.0292499   -0.0481475  -0.00955587   0.00978179
 -0.00354974  -0.00634353   -0.0677683   -0.0408582   -0.0399495    0.0108239   -0.0255258  -0.00177678   0.00968174    0.0334694
   0.0385908    0.0783421  -0.00146761    0.0282098    0.0443605   -0.0611562    0.0191434     0.012213   -0.0152456   -0.0217692
  -0.0240478 -0.000738872  -0.00344778   -0.0252497 -0.000595211    0.0435108   -0.0466749    0.0702175    0.0113416    0.0567495
  -0.0339779   -0.0103623   0.00096495    0.0545635   -0.0667861    0.0587213   -0.0134805   -0.0623512    -0.040457   -0.0366386
  -0.0364948   -0.0253251    0.0190506  -0.00880427  -0.00852013   -0.0115643   -0.0281954    0.0117465    0.0695708    0.0360307
#
 0.00408481   0.0169731   0.0319517   0.0762109   0.0350128  -0.0144694  0.00985112  -0.0744567  -0.0353767  -0.0383947
  0.0429314 -0.00791543   0.0231106   0.0588147  0.00671916  -0.0505829   0.0863559  -0.0341966  -0.0181851 -0.00604475
-0.00831631    0.016612    0.044159  0.00258206  -0.0374196 -0.00417153  -0.0168344  -0.0455912  -0.0214493 -0.00708816
#
!
<40>:Score:683
Distance:10.0499
-0.000338113    0.0107631    0.0525495   -0.0310018    0.0296004  -0.00569369   -0.0159261   -0.0569967   0.00183279
   0.0488318   -0.0153673   -0.0165054   0.00520522   -0.0176625   0.00622352   -0.0324192    0.0218831   -0.0381338
  -0.0385466   -0.0176753    0.0397998  -0.00326906   -0.0137594    0.0440414    0.0389036    0.0107672   -0.0215248
  -0.0240304    0.0202074  -0.00273747    0.0207031    0.0125459    0.0136525   -0.0155883   -0.0705238     0.008024
   0.0218874   0.00737184   -0.0116784   -0.0192364   -0.0513575    0.0614393   -0.0464589    0.0270102    0.0139778
   0.0404658   -0.0103037    0.0492837    0.0299429   -0.0152165    0.0193446    0.0787606   -0.0247808    0.0365854
  -0.0413047  -0.00628936    0.0155544   -0.0331337   0.00097879   -0.0217996    0.0290807    0.0245499    0.0261318
  -0.0314994    0.0312339   -0.0491688   -0.0286082  -0.00978612   0.00652002   0.00664442   -0.0453521   -0.0380001
  -0.0145379    0.0186606   -0.0128118    0.0129645  -0.00485912    0.0613416  -0.00287522  -0.00576065 -0.000964378
  0.00718141   -0.0172046    0.0891311    0.0225087    0.0177123    0.0167572   -0.0215132  -0.00447909    0.0455463
#
   0.0337789   0.00855821    0.0468224   -0.0386807    0.0481193   -0.0421774   -0.0073332     0.058417   0.00220108     -0.03565
  -0.0032365    -0.070113     -0.11343   -0.0447265   0.00154455  -0.00986449  -0.00184777    0.0332697   -0.0137735    0.0636713
   0.0123478    0.0220599    0.0532696   -0.0819367     0.037892     0.047426    0.0280439   -0.0558612   0.00602118  0.000416756
  0.00948451   -0.0467592   0.00904512    0.0303475  -0.00566328   -0.0696137   -0.0690019   -0.0269281  -0.00885196   -0.0142362
  -0.0154985    0.0474883  -0.00441484 -0.000294966    0.0451764    -0.033152    0.0652273   -0.0102443    0.0415658    0.0409971
  -0.0302238    0.0522007   -0.0268388   -0.0227302   -0.0447745    0.0325389   -0.0321237   -0.0394919    0.0400582      0.03216
   0.0117494    0.0420558   -0.0125706    0.0490277   -0.0129141    0.0189992   0.00504559    0.0275797   0.00419749   0.00312932
   0.0237895    0.0220358    0.0150568   -0.0325563    0.0374803    0.0278975    0.0770828   0.00488538  -0.00832594    0.0497903
  -0.0928122    0.0119342    0.0432016   -0.0453082   -0.0135351   -0.0377632   -0.0204174   0.00371688    0.0223016   -0.0101231
   -0.101959   -0.0411594   -0.0826903    0.0162204    0.0349637    0.0454169   -0.0180588  -0.00253656   -0.0184761    0.0219602
#
 -0.0253314  -0.0216276  0.00234254  0.00881485    0.039099  -0.0287119   0.0507645  0.00633744   0.0300844  -0.0259256
 -0.0142526  -0.0275045  -0.0109982 -0.00791168 -0.00497182  -0.0318782  -0.0458456  0.00903655   0.0136553   -0.016347
 -0.0165724   0.0575067 -0.00252794  -0.0336664  -0.0464384   0.0068336  0.00339701   -0.036617  -0.0358349  -0.0206075
   0.107412  -0.0713431  0.00598268   0.0453249   0.0136314  -0.0279246 0.000568024 -0.00719108 -0.00197537  -0.0379898
  0.0124512  0.00832754   0.0218499    0.075088  -0.0526875    0.032767  -0.0286319  -0.0592352 -0.00960605   0.0173665
 -0.0243404  -0.0267466  -0.0789455  -0.0289793  -0.0449529  0.00354609  -0.0426827   0.0267896   0.0098594   0.0334866
  0.0398637   0.0849476 -0.00783199   0.0115773   0.0182024  -0.0525144 -0.00480397  0.00656698 -0.00932358 -0.00268366
-0.00452277 -0.00632391  -0.0283781  -0.0153729   0.0262218   0.0434682  -0.0420754   0.0781522 -0.00474592   0.0515624
 -0.0305944 -0.00889091   0.0163081   0.0269498  -0.0573477    0.059181  -0.0010724  -0.0418885  -0.0267008   -0.026341
 -0.0415399 -0.00487238  0.00690223  -0.0316017  -0.0148315    -0.00875  -0.0252958   0.0157663   0.0642395   0.0450933
#
  0.0147908 -0.00179529   0.0357089   0.0455299   0.0621628  -0.0237152 0.000110009   -0.039791  -0.0323647  -0.0504012
   0.024007 -0.00701936  0.00792098   0.0420147  0.00469951   -0.049917   0.0826991  -0.0183134  -0.0277384 -0.00997977
  0.0294224  -0.0106876   0.0419946  0.00915638     -0.0152 -0.00421173 -0.00613151  -0.0461914  -0.0326648 -0.00805569
#
!
<70>:Score:660
Distance:10.0499
  0.0215951   0.0124166   0.0520934   -0.028018   0.0410482  -0.0283576 -0.00218251  -0.0596726 -0.00863092
  0.0511975 -0.00957377  -0.0301882   0.0197534  -0.0145825  0.00238186  -0.0192971   0.0125761  -0.0374704
 -0.0300862  -0.0169239   0.0334674  0.00871962  -0.0332509   0.0269054   0.0467748  0.00459199 -0.00326416
   0.011069   0.0270185 -0.00197553   0.0274875   0.0272405   0.0201865  -0.0167474  -0.0502493 -0.00433002
   0.031993   0.0199827  0.00202049 -0.00960882  -0.0583705    0.044516  -0.0498845 -0.00200855   0.0259364
  0.0357721  -0.0165131   0.0384115   0.0345771  -0.0046726   0.0156582    0.101638  -0.0325035    0.048309
 -0.0367956  -0.0180308   0.0101438  -0.0184512 -0.00334688  0.00809328   0.0169177    0.011738   0.0104472
 -0.0101268   0.0246735  -0.0682405  -0.0289916   0.0270863  0.00666255   0.0054475  -0.0342954  -0.0226902
 -0.0276601   0.0094905 -0.00198393  -0.0122913  0.00415216   0.0902282  0.00148259 -0.00298088 -0.00386271
 0.00632774    -0.03223    0.130519   0.0106914  0.00160497   0.0237068  -0.0214111   0.0034925    0.043116
#
   0.0458452    0.0249869    0.0439578   -0.0625751    0.0459041   -0.0505897   -0.0107801    0.0287446   -0.0360249   -0.0161803
  0.00453684   -0.0476148    -0.107026   -0.0597677     0.013993   -0.0178592   0.00670396    0.0360071  -0.00861229      0.04002
   0.0160584   0.00696082      0.03598   -0.0696181    0.0408999    0.0568219    0.0190432   -0.0633792     0.009284  -0.00172693
   0.0275553   -0.0241671 -0.000824484    0.0217567  -0.00320754   -0.0660851   -0.0653011  -0.00704666  -0.00338699   -0.0273983
  -0.0265735    0.0468075   0.00327966   0.00812634    0.0565245   -0.0423503    0.0727156  -0.00974673     0.054353    0.0402942
  -0.0342238    0.0467212   -0.0173399   -0.0342193    -0.046361    0.0508617   -0.0179782   -0.0166117     0.033287    0.0517238
   0.0246285    0.0276803  -0.00765248    0.0520878   -0.0067959 -0.000711907   0.00715008    0.0162138    0.0112948   0.00337796
   0.0318681   0.00926673     0.018599   -0.0252991    0.0389936    0.0225136    0.0534618    0.0213195   -0.0150462    0.0481206
  -0.0979381    0.0147257      0.05941    -0.029206  -0.00910347   -0.0373805   -0.0225421    0.0354644    0.0356048   -0.0205264
  -0.0966526   -0.0342993   -0.0902141    0.0170794    0.0498431    0.0277467   -0.0238285  -0.00911019   -0.0241443    0.0426841
#
 -0.00693096   -0.0338236   -0.0129112    0.0126311     0.041418   -0.0473663    0.0559258    0.0020373    0.0273759   -0.0395974
  -0.0187908   -0.0299764    0.0118196  -0.00416932  -0.00980928   -0.0462139   -0.0379427    0.0217717    0.0232312    0.0079404
  -0.0302644    0.0405503   0.00707425   -0.0488075   -0.0566406   0.00190931   0.00878553   -0.0364583  -0.00842312   -0.0144056
    0.103914   -0.0531461    0.0056179    0.0143482  -0.00999879   -0.0390013  -0.00700954     -0.02021  0.000912811   -0.0520794
   0.0183519    0.0125517    0.0120381    0.0683336   -0.0224144    0.0215323   -0.0445065   -0.0529624   -0.0287401    0.0176749
  -0.0150385   -0.0194222   -0.0576988   -0.0219782    -0.035163   0.00203532   -0.0346281   0.00909831    0.0165079    0.0199055
   0.0136029    0.0784077   0.00141869    0.0248151    0.0552058   -0.0290889  -0.00384127   0.00861164   -0.0105385   -0.0253565
  -0.0212765    0.0047268   -0.0201353   -0.0325585    0.0246938    0.0588579   -0.0355692     0.066488 -0.000638313    0.0485776
  -0.0516182   -0.0143395   -0.0132125    0.0387341   -0.0423005    0.0517316    -0.005701   -0.0621978   -0.0459633   -0.0409392
  -0.0356228   -0.0110351    0.0104671  -0.00984705   -0.0316291  -0.00988634   -0.0143684  -0.00031669    0.0632505    0.0551009
#
  0.0155434 -0.00927205    0.014719   0.0492016   0.0562726 -0.00433347  0.00406291   -0.040625  -0.0263613  -0.0529541
  0.0494447 -0.00886448  0.00385976   0.0359052    0.018759  -0.0544863   0.0787601  -0.0272341 0.000648281 -0.00740567
  0.0117955  0.00623589   0.0542166  0.00487122  -0.0407419  -0.0125534  -0.0144107  -0.0420337  -0.0246021  -0.0156675
#
!
<30>:Score:660
Distance:10.0499
   0.0163125    0.0048785    0.0565103   -0.0348907    0.0437328  -0.00536831 -0.000622136   -0.0554284   -0.0087794
   0.0426405    0.0191401  -0.00382259    0.0279151   0.00858077    0.0163902   -0.0132901   0.00151045   -0.0611895
  -0.0344191   -0.0353898    0.0429529    0.0104186   -0.0213747    0.0360913    0.0432871   0.00169502   0.00629287
   0.0112877    0.0298064    0.0161746   0.00251503    0.0129444   0.00559414   -0.0125273   -0.0290238    0.0172902
      0.0316   0.00491411   0.00245352   -0.0211526   -0.0512489    0.0591214   -0.0420051    0.0115073    0.0330754
   0.0252072   -0.0305867    0.0422361    0.0281794   0.00589287    0.0244715     0.081851   -0.0263251     0.050054
  -0.0287023   -0.0230415  -0.00289073   -0.0271239  -0.00815883   -0.0312272    0.0222679    0.0210561 -0.000463854
  0.00885377    0.0258279   -0.0355724   -0.0268286   0.00158768  -0.00242522    0.0260559   -0.0401904   -0.0241877
  -0.0202848    0.0235105  0.000839143  -0.00453698   0.00746202    0.0649196  -0.00668588   -0.0159667   0.00726478
   0.0214355    0.0144729    0.0914476    0.0128509   0.00580352    0.0240308   0.00853157  -0.00314281    0.0358444
#
   0.0290127    0.0171279     0.052027   -0.0561642    0.0405131   -0.0399961   0.00468685    0.0193236   -0.0164371   -0.0026786
  0.00617946   -0.0296281   -0.0981613   -0.0463985   -0.0005735   -0.0226798   0.00561151  -0.00382047  -0.00409936    0.0328465
   0.0431616    0.0177489    0.0223808   -0.0528782    0.0452813    0.0419281    0.0172523   -0.0461501    0.0464579     0.012114
  0.00487115   -0.0430557  -0.00889522   0.00645933   0.00203508   -0.0598229   -0.0563168    -0.003185    0.0201495    -0.026496
  -0.0248284    0.0486717   0.00898913   -0.0132739    0.0417167   -0.0252719    0.0528333 -0.000800679    0.0375045    0.0435202
  -0.0286299    0.0354854   -0.0219194   -0.0275577    -0.040624    0.0216135   -0.0237784   -0.0194866    0.0484403    0.0361375
  0.00599455    0.0167115   -0.0368061    0.0408509  -0.00935598    0.0101832    0.0130644    0.0212928   -0.0091095    0.0055404
   0.0239649   -0.0110865   -0.0122089   -0.0113297     0.021751   0.00200335    0.0482945     0.015829   -0.0101678    0.0415133
