<0>:Score:1800
Distance:0
  0.00718885    0.0119355    0.0575351   -0.0223164     0.040433   -0.0100963  -0.00992347   -0.0549135   -0.0163455
   0.0423011    0.0127347  -0.00632539    0.0202461  -0.00483256   0.00231434   -0.0110636  -0.00296634   -0.0519704
  -0.0389102   -0.0269775    0.0372028    0.0176084   -0.0227854      0.03411    0.0441337  -0.00380267  -0.00173162
  0.00471909    0.0223534    0.0183271   0.00932189    0.0105439   0.00337878  -0.00445946   -0.0380314    0.0152675
   0.0302036   0.00599723   -0.0023861   -0.0176764   -0.0498353    0.0559955   -0.0452162   0.00408702    0.0418175
    0.024574   -0.0317388    0.0485964    0.0276891   0.00169788    0.0189723    0.0828957   -0.0242153    0.0500691
  -0.0217425   -0.0243629  -0.00391238   -0.0187982   -0.0156509   -0.0158364    0.0179147   0.00698531   0.00710989
  0.00515166      0.01762   -0.0429525   -0.0286468  -0.00663114   0.00101594    0.0195242   -0.0507461   -0.0292679
  -0.0252302    0.0109889  -0.00162739   -0.0118743   0.00346779    0.0720646  -0.00821699    -0.012395    0.0127779
   0.0171657    0.0039527    0.0927102    0.0185704   0.00541163    0.0149634 -0.000359982  -0.00897352    0.0348807
#
  0.0314942   0.0102469   0.0462333  -0.0510105   0.0340372   -0.037106 -0.00717581   0.0219149  -0.0149558  -0.0128325
  0.0156875  -0.0380068  -0.0968009  -0.0429487 -0.00358239  -0.0229102  0.00788227  0.00360496  -0.0119431   0.0377435
  0.0308616   0.0163491   0.0350917  -0.0558235   0.0456544   0.0468747   0.0179861  -0.0466753   0.0365342   0.0153244
 0.00410164  -0.0475104 -0.00729234   0.0124482  0.00190607  -0.0525174   -0.056084  -0.0118797   0.0109511  -0.0243264
 -0.0177409   0.0531948  0.00717669  -0.0125167   0.0402769   -0.027797   0.0632362  -0.0105515   0.0427413   0.0363076
 -0.0333374   0.0401506  -0.0252876  -0.0257434  -0.0435683   0.0281105  -0.0170999  -0.0256329   0.0455122   0.0314436
  0.0150111   0.0177514  -0.0325324   0.0454599 -0.00526253   0.0090357  0.00562732   0.0221829 -0.00566575   0.0162306
   0.023728 -0.00656536 -0.00107354  -0.0109694   0.0227885  0.00947532   0.0519706   0.0217945  -0.0167457   0.0456502
 -0.0830525   0.0254888   0.0577306  -0.0374061  -0.0093196  -0.0215223  -0.0195027   0.0117689   0.0452402  -0.0244422
  -0.105195  -0.0404871  -0.0697952   0.0209851   0.0452178   0.0495728  -0.0208862  -0.0189138  -0.0317491   0.0286206
#
  -0.0060886   -0.0243435   -0.0159872  0.000697944    0.0244994   -0.0314193    0.0481836   0.00528425     0.019248     -0.01259
  -0.0108807   -0.0148585   -0.0037095  -0.00987864   -0.0198997   -0.0334913    -0.049348    0.0205591    0.0139465  -0.00844188
  -0.0061286    0.0234422 -0.000916101   -0.0462338   -0.0506236    0.0167632   0.00245278   -0.0502048    -0.016086  -0.00760979
   0.0921703   -0.0729532    0.0104642    0.0294027   0.00758221    -0.023834   0.00903757  -0.00553046   -0.0102557   -0.0435656
   0.0211437    0.0105177    0.0225163    0.0566367   -0.0504956  -0.00111966    -0.033015   -0.0570258  -0.00383231    0.0262584
 -0.00459939   -0.0242298   -0.0739386   -0.0392515   -0.0357078  -0.00546442   -0.0410739  -0.00260673    0.0234679    0.0417515
   0.0267945    0.0704121   -0.0184377    0.0296636    0.0364834   -0.0506283    0.0268916    0.0145715  -0.00675963   -0.0118037
   -0.030107   0.00827259   -0.0170932   -0.0176881    0.0129747    0.0451039   -0.0584078    0.0737753   0.00349932    0.0517623
  -0.0265551    -0.010223   -0.0154321     0.044353   -0.0478403    0.0553046  -0.00726217   -0.0410681   -0.0351456   -0.0351219
  -0.0341124   -0.0181556   0.00940161  -0.00896064   -0.0344344   -0.0167967  -0.00703483    0.0144397    0.0569534    0.0318302
#
 0.00194968 -0.00329326   0.0287779     0.04815   0.0500417 -0.00828092   0.0140053  -0.0327647  -0.0311498  -0.0384204
  0.0289572 -0.00562372   0.0248903   0.0434917  -0.0046809  -0.0396244   0.0777833  -0.0161013  -0.0116761  -0.0235328
 0.00782592  0.00474153   0.0373596   0.0097165  -0.0170902   0.0090608  0.00108659  -0.0353872   -0.021309  -0.0141696
#
!
<1>:Score:1790
Distance:0
   0.0040167   0.00752625    0.0589861   -0.0370356    0.0500246   -0.0241827   -0.0218457   -0.0801932    0.0032834
   0.0576561   0.00703032   -0.0148102    0.0139518    0.0114748  -0.00640395   -0.0168797   0.00671431   -0.0336608
  -0.0612054   -0.0211905    0.0340356    0.0254753   -0.0289193    0.0489012    0.0366653  -0.00856377   0.00214563
  -0.0236968   0.00615189    0.0172093  -0.00580098    0.0280708  -0.00427157    0.0015928   -0.0370344   0.00191676
    0.027644  -0.00395688  -0.00648992 -0.000585281   -0.0500989    0.0567708   -0.0314521  -0.00177334    0.0509858
   0.0191137   -0.0206826    0.0408789    0.0443141  -0.00225898    0.0109156     0.101287   -0.0389439    0.0432513
  -0.0286812    -0.013358   0.00574818   -0.0199688   0.00104793   -0.0177609   0.00806009     0.015651   0.00885828
  -0.0154944    0.0309954   -0.0484479   -0.0414743  -0.00151547    0.0246987    0.0204278   -0.0511969   -0.0365761
  -0.0306747  -0.00337668   -0.0151559   -0.0153113   -0.0145401      0.08282   0.00422797   -0.0207878    0.0118873
   0.0348201   0.00927991    0.0752659  -0.00882448    0.0145602    0.0398268   0.00204626   -0.0119602    0.0462326
#
   0.0187002    0.0200517    0.0506193   -0.0480899    0.0192914   -0.0534295   -0.0166974     0.025309   -0.0302256   -0.0109489
   0.0153144   -0.0330219    -0.108922   -0.0675619   -0.0125628   -0.0243285   0.00441922   0.00156005   -0.0216686    0.0536845
   0.0177895    0.0166087    0.0527222    -0.065644    0.0484457    0.0547191    0.0421753   -0.0521609    0.0412289    0.0125005
  0.00621648   -0.0254494  -0.00492915    0.0163077    0.0101396      -0.0497   -0.0555659   -0.0185921 -0.000620102   -0.0342553
  -0.0327842    0.0580777   0.00710253   0.00342464    0.0648683   -0.0281779    0.0735599  -0.00389057    0.0369916    0.0300102
  -0.0344575    0.0471514   -0.0220746   -0.0224599   -0.0413277    0.0296699   -0.0274877  -0.00239231    0.0572625    0.0248247
   0.0211463    0.0300842   -0.0176886    0.0580221   0.00842454     0.016977    0.0217641    0.0150674   0.00391476  -0.00198467
   0.0431051   0.00474157   0.00747337   -0.0205165    0.0244303   0.00563465    0.0576847    0.0236737    -0.020163    0.0391694
  -0.0830644   0.00777225    0.0428151   -0.0377874   0.00342546   -0.0208916   -0.0262305   0.00162889    0.0434393  -0.00904085
  -0.0964172   -0.0402071   -0.0683395    0.0217073     0.019806    0.0521421   -0.0216881   -0.0223424   -0.0403842    0.0363558
#
-0.00721542  -0.0240887  -0.0365861 0.000284016   0.0233233  -0.0168053   0.0580824 -0.00213261   0.0144377  -0.0266217
 -0.0183493  -0.0233917  -0.0148757 -0.00714481  -0.0157477  -0.0276605  -0.0483654   0.0233054   0.0330871  -0.0161606
 -0.0166741   0.0424241  -0.0252863  -0.0443444  -0.0350854   0.0258124  -0.0148083  -0.0513838  -0.0320081  -0.0169328
  0.0843586  -0.0570485   0.0171752   0.0256769   0.0125984  -0.0261553   -0.022161  -0.0153964 -0.00838482  -0.0595142
  0.0212524   0.0132796   0.0393857   0.0239165  -0.0447754   0.0117939  -0.0283984  -0.0739527  0.00184417   0.0429297
-0.00259205  -0.0222112  -0.0916307  -0.0278798  -0.0432344 -0.00555912  -0.0313647   -0.014826   0.0249885   0.0264405
  0.0287406   0.0734485  -0.0206935   0.0271524    0.043094  -0.0253199   0.0105845   0.0125496  0.00743803  -0.0244917
 -0.0290698   0.0074193  -0.0310194  -0.0177265    0.025111   0.0437788  -0.0569642   0.0496067  0.00974064   0.0573107
 -0.0533525  -0.0138484  -0.0189437   0.0456664  -0.0478578   0.0528233  -0.0117867  -0.0716628  -0.0421988  -0.0379563
 -0.0411059  -0.0169895  0.00992055 -0.00283112  -0.0376411  -0.0152218  -0.0177048   0.0169169   0.0670025  0.00145596
#
 0.00574898  0.00714618   0.0355993   0.0454767   0.0619775  0.00786911 -0.00246038  -0.0323569  -0.0472096  -0.0415534
  0.0390392 -0.00197736   0.0122096   0.0612346   0.0101467  -0.0408096   0.0646002  -0.0319631 -0.00718697  -0.0141023
  0.0319437 0.000293001   0.0321837  0.00878638  -0.0216916 -0.00520224  -0.0190504  -0.0319055  -0.0229637   0.0161903
#
!
<3>:Score:1790
Distance:0
  0.00633855   0.00690761    0.0663842   -0.0392728    0.0431235   -0.0240473  -0.00817403   -0.0569581   -0.0210848
    0.050637    0.0073853  -0.00224845  -0.00989716 -0.000917275  -0.00060947   -0.0237922   0.00431457   -0.0424694
  -0.0398529 -0.000312525   0.00873534    0.0125686   -0.0152224    0.0486546    0.0450066   -0.0151004  -0.00626855
  -0.0120843   0.00577044     0.004638   -0.0057493    0.0330527   0.00372753   -0.0135368     -0.04198   -0.0138751
   0.0241998  -0.00971605   0.00309242  -0.00714947   -0.0537438    0.0363268   -0.0437648    0.0137676     0.053342
   0.0125857   -0.0151079    0.0300882    0.0517535  -0.00868105   0.00848514     0.105783   -0.0290379    0.0590688
  -0.0345772  -0.00244431   0.00294274   -0.0167066  -0.00851024   -0.0296557   0.00117014    0.0199434    0.0140272
  -0.0228052    0.0316666   -0.0641047   -0.0351849    0.0198805    0.0179659    -0.006986   -0.0280478    -0.026464
  -0.0191288   -0.0111335 -0.000864966   -0.0315351    0.0110888    0.0669476  -0.00691719   -0.0238819    0.0157174
   0.0412106  -0.00823742    0.0902085  -0.00550965    0.0231954     0.041149   -0.0172069   -0.0170494     0.051261
#
  0.0185475   0.0324603   0.0545951  -0.0334794   0.0232956  -0.0524541 0.000439131   0.0250177   -0.022877  -0.0139621
-0.00200881  -0.0336409  -0.0877541  -0.0549552 -0.00980617   -0.013397 -0.00645959    0.017977 -0.00589791   0.0557855
  0.0108857     0.02201   0.0547919  -0.0680695   0.0575632    0.044728   0.0355187  -0.0575488   0.0243744  -0.0104351
  0.0150944     -0.0357  0.00831899   0.0200103   0.0165226  -0.0777528  -0.0372602  -0.0247661 -0.00874847  -0.0472076
 -0.0227446   0.0422719 -0.00669941  -0.0156989   0.0488579  -0.0183745   0.0729845 -0.00092575   0.0668503   0.0437296
  -0.034845   0.0406228  -0.0210929  -0.0222636  -0.0432756   0.0288659  -0.0366575 -0.00943437   0.0370558   0.0363572
  0.0113187   0.0318001  -0.0119932   0.0716698 -0.00530815    0.036836   0.0214938  0.00929274 -0.00380167  0.00296741
  0.0189206   0.0156635   0.0158572  -0.0271767   0.0130431   0.0102077   0.0621165   0.0200653   -0.021936   0.0443144
 -0.0829027 -0.00966772   0.0673526  -0.0250145 -0.00406951  -0.0245833  -0.0372252   0.0119395   0.0171182  -0.0213689
 -0.0990958  -0.0139758  -0.0789779   0.0600344   0.0313205   0.0586872  -0.0343551  -0.0336187  -0.0477345    0.020662
#
  -0.0221091   -0.0205327   -0.0299583   0.00420692    0.0310452   -0.0226387    0.0741756   0.00341742    0.0179853   -0.0156958
  -0.0338266   -0.0107304   -0.0128086  -0.00360082   0.00327182   -0.0418154   -0.0474968    0.0250274    0.0280503    0.0018068
 -0.00754344     0.028777   -0.0116536    -0.048645   -0.0322259    0.0240653   -0.0140448   -0.0549375   -0.0333716   0.00444801
    0.102614   -0.0574176    0.0129083    0.0290925  -0.00176078   -0.0366231   -0.0272261  -0.00443267   0.00229277   -0.0785704
   0.0320768 -4.85445e-05    0.0301652    0.0488707    -0.027494    0.0270465    -0.058534   -0.0729079  -0.00103044    0.0406018
  0.00670751    -0.027429   -0.0678714   -0.0280005   -0.0408091   0.00896888   -0.0325951   -0.0184108    0.0188208     0.028789
   0.0163668    0.0754274   -0.0199884    0.0321127    0.0418619   -0.0365624    0.0108564    0.0271912    0.0115243   -0.0148588
 -0.00470327   0.00704325   -0.0432904    -0.043749    0.0313647    0.0528313   -0.0348399    0.0541645  0.000510069    0.0424869
  -0.0578577  -0.00239142  -0.00919551    0.0383427   -0.0465423    0.0600152   -0.0169243   -0.0455839   -0.0376576   -0.0476696
  -0.0316003   -0.0257545    0.0188534   -0.0322878   -0.0327223   -0.0263362   -0.0154706    0.0194029    0.0675922   0.00677963
#
  0.0106593   0.0035693   0.0229412   0.0525946   0.0749306   0.0154408 -0.00458856  -0.0390768  -0.0300206  -0.0369249
  0.0333104 -0.00241798    0.016703   0.0742447  -0.0153554  -0.0546526   0.0606999  -0.0483841  -0.0190587   -0.019214
  0.0186565  0.00157824   0.0357325   0.0256169  -0.0263809  -0.0068417  -0.0255687  -0.0407685  -0.0260207   0.0100666
#
!
<2>:Score:1789
Distance:0
  0.00692142    0.0138669    0.0620281   -0.0257273    0.0254291   -0.0182326   -0.0160773   -0.0635904  -0.00519727
   0.0436676    0.0180437   -0.0078053   0.00255953    0.0147364  -0.00379627   -0.0120337    0.0111538   -0.0492019
  -0.0638591   -0.0237387    0.0161719    0.0120274   -0.0235376    0.0371883     0.031347    0.0071418   0.00947851
  -0.0165498    0.0104228    0.0362248    0.0027503     0.022207    0.0130383   -0.0150426   -0.0381953    0.0181267
   0.0358196    0.0260354   -0.0135992  -0.00411639   -0.0554924     0.046358   -0.0180371    0.0148973    0.0574105
-0.000231746   -0.0267278    0.0444005    0.0687748  -0.00488997     0.034996    0.0822622   -0.0290089     0.056198
  -0.0273921   -0.0102173    0.0111195   -0.0149418   0.00498954   -0.0137786  -0.00920694    -0.026983    0.0170261
  0.00478328    0.0447517   -0.0631764   -0.0458421   -0.0240673    0.0103728     0.013362   -0.0653155   -0.0149669
  -0.0251713    0.0226608   0.00966435    -0.011274    0.0104729    0.0441593  -0.00604141   -0.0350639    0.0337777
   0.0184214  -0.00427603      0.08296   0.00520351    0.0121767   0.00101332   0.00273758    -0.016749    0.0117592
#
 0.00490964   0.0149829   0.0527641  -0.0531434   0.0311599  -0.0532495 -0.00360337   0.0348555 -0.00232837  -0.0187975
 0.00436001  -0.0356061  -0.0898209  -0.0695697  -0.0261386   -0.023496 0.000314066  0.00402625 -0.00287407  0.00876462
  0.0277195  0.00403954   0.0252375  -0.0457756   0.0499244   0.0479797    0.016232  -0.0451526   0.0269188   0.0156907
  0.0249821  -0.0156759 -0.00330409   0.0058462  0.00605281  -0.0447119  -0.0508602 -0.00762175   0.0178131  -0.0453694
 -0.0222434   0.0516772  -0.0107858  -0.0103187   0.0463941  -0.0520375   0.0578157   -0.021729   0.0444549   0.0548978
  -0.020903   0.0504749  -0.0310787  -0.0456522  -0.0535821  0.00921188  -0.0112101   -0.011245   0.0451194   0.0283857
 0.00609802   0.0201499  -0.0256925   0.0219307 0.000625064   0.0202132 -0.00412575   0.0286769 -0.00360899  0.00973155
  0.0366743  -0.0151464  -0.0044342  -0.0260258   0.0481809   0.0103712   0.0719824   0.0343436  -0.0108158   0.0506806
 -0.0807831  -0.0051522   0.0372027  -0.0482078  0.00101643  -0.0266827  -0.0209227   0.0185484   0.0354309 -0.00648845
  -0.101927   -0.044459  -0.0638329   0.0160109   0.0362082   0.0683549  -0.0213768  -0.0136595  -0.0277526   0.0414937
#
  0.00186168   -0.0172166   -0.0202633   -0.0045357    0.0123425  -0.00602377    0.0430543   0.00273061    0.0194801   -0.0128231
  -0.0157451   -0.0229644   -0.0475044   -0.0198868   -0.0224654  -0.00518821   -0.0549879    0.0154997    0.0102158   0.00961089
   -0.018099    0.0272202   0.00667374   -0.0405247   -0.0253414   -0.0181183   -0.0173145   -0.0554769  -0.00747992  -0.00523279
    0.067813   -0.0503588 -0.000584046    0.0416517   0.00906531   -0.0428843    -0.001237   -0.0231392   -0.0217197     -0.04157
   0.0352406    0.0193251    0.0474513    0.0528625   -0.0235828    0.0120765   -0.0161749   -0.0488024   -0.0160943    0.0378099
 -0.00361743   -0.0197144   -0.0721252   -0.0299498   -0.0376313  -0.00886667   -0.0227377   -0.0174563    0.0174534    0.0264795
   0.0323277    0.0843163   -0.0169347   0.00547966     0.036394   -0.0517293    0.0426541   0.00396448   -0.0151946   -0.0205848
  -0.0141426    0.0153219   -0.0287493   -0.0174671    0.0268738    0.0259735   -0.0664333    0.0529345  0.000281865    0.0542621
  -0.0243398   -0.0036378   -0.0225143    0.0485197    -0.040702    0.0722458   -0.0305367   -0.0541237   -0.0218244   -0.0193885
  -0.0295098   -0.0331031    0.0198285   -0.0309253   -0.0320475    -0.012582  -0.00066866    0.0230487    0.0294216     0.021451
#
   0.036013  0.00893989   0.0281304   0.0484374   0.0294392  -0.0128738   0.0238392  -0.0323592 -0.00794436  -0.0479098
  0.0465692  0.00455889   0.0149805   0.0535684  0.00425028  -0.0497507   0.0602842  -0.0170476  -0.0224221 0.000252539
 0.00740712   0.0163782   0.0241303   0.0128744  -0.0250861  0.00838429  0.00151673  -0.0540003  -0.0242909    0.013459
#
!
<8>:Score:1789
Distance:0
 -0.00414287  0.000158338    0.0546664   -0.0310296    0.0286914   -0.0176068   -0.0170806   -0.0474015   -0.0141641
   0.0440946  -0.00326286  -0.00260638    0.0064931  -0.00531301 -0.000368335   -0.0132449    0.0120775   -0.0362282
  -0.0472826   -0.0215012    0.0181417   0.00685248   -0.0125607    0.0378567    0.0358388   -0.0135947 -0.000319065
 -0.00221971   0.00891839  0.000205297   0.00818499    0.0206659   -0.0103426   -0.0238006   -0.0385101   0.00837224
   0.0304667    0.0165522    0.0195372   -0.0065659   -0.0380925    0.0405259   -0.0274316    0.0222347    0.0458321
 -0.00124504   -0.0327654    0.0508663    0.0411346  -0.00507274    0.0223925    0.0849307   -0.0366131     0.060472
  -0.0306148   -0.0188126   0.00140488   -0.0292507   -0.0184043   -0.0216019    0.0153797   0.00614728    0.0209021
 -0.00479352    0.0338569   -0.0563494    -0.039128    0.0288508     0.013974   0.00929501   -0.0335058   -0.0382323
  0.00574263     0.011318   0.00644513   -0.0158272    0.0179481     0.064717   -0.0116908   -0.0154374   0.00790004
   0.0233179   -0.0013436    0.0993456    0.0102278    0.0275865     0.056513   -0.0192221   -0.0107926    0.0509778
#
  0.0310357   0.0298112   0.0391728  -0.0509446    0.021205   -0.041813  0.00564098   0.0191574 -0.00476657  -0.0288775
-0.00340403  -0.0313798  -0.0916372  -0.0345604  -0.0137306  -0.0234261 -0.00591067  0.00311917 -0.00309093   0.0474258
  0.0181839   0.0115095   0.0591696  -0.0538043   0.0320124   0.0508384   0.0234736    -0.05703   0.0254341  0.00955363
 -0.0064457  -0.0513337 -0.00989518  0.00897684  0.00212851  -0.0664418   -0.051014  -0.0175464   0.0150327  -0.0305855
 -0.0206207   0.0503473 -0.00655591  0.00736971   0.0278896  -0.0280289   0.0775419  -0.0159925   0.0457718   0.0455783
  -0.033396   0.0442799  -0.0342083  -0.0342764  -0.0266019   0.0415708  -0.0526596  -0.0187144   0.0435105   0.0398006
 0.00392789   0.0199611  -0.0129828   0.0466285  -0.0175897    0.017065   0.0290826  0.00675839 -0.00665212  0.00610284
  0.0381509  0.00103563   0.0149336  -0.0261739   0.0115126   0.0022266   0.0484383   0.0140616  -0.0259741   0.0246992
 -0.0774611  0.00782541   0.0614656  -0.0360357 -0.00992968   -0.026639  -0.0147411   0.0172946   0.0393001  -0.0310447
  -0.097038  -0.0254164  -0.0968781   0.0471099   0.0205035   0.0488025  -0.0294834  -0.0076885  -0.0393373  0.00986883
#
  -0.0153954   -0.0236706   -0.0163085  -0.00913544    0.0140281   -0.0286327    0.0599204   -0.0174802    0.0376839   -0.0151374
 -0.00664995   -0.0105068  -0.00495753    -0.016913  -0.00858368   -0.0220495   -0.0521885    0.0113016     0.025494   0.00132997
 -0.00668867    0.0193779 -2.84873e-05    -0.051497   -0.0328971     0.011569  -0.00261613    -0.060581    -0.023016   -0.0156328
    0.116415   -0.0664641   0.00868689    0.0183242  -0.00841418    -0.039368   -0.0170886    0.0163316   0.00661742   -0.0603737
   0.0158502  -0.00576294    0.0310645    0.0610188   -0.0458168    0.0331382   -0.0654628   -0.0792496   -0.0111667    0.0255585
 -0.00816645   -0.0102081   -0.0804252    -0.035882    -0.052812   0.00223907   -0.0412363   -0.0229686   0.00505785    0.0336129
   0.0128004    0.0872238  -0.00452437    0.0356774    0.0332423   -0.0493101    0.0449061    0.0368235   0.00451485   -0.0151054
  -0.0235231    0.0224027   -0.0347488   -0.0290145    0.0322147    0.0487315   -0.0344287    0.0699807    0.0034534    0.0377891
  -0.0469871   -0.0166566   -0.0110778    0.0291385   -0.0695777    0.0556132  -0.00861646   -0.0632484   -0.0420491   -0.0311812
  -0.0293614  -0.00805279   0.00591492   -0.0343826   -0.0291888   -0.0428118    -0.016987    0.0121753    0.0619653    0.0163642
#
    0.016451  -0.00551562    0.0310585    0.0596657    0.0606727   0.00550125   0.00338042   -0.0473992   -0.0353295   -0.0423098
   0.0297262   -0.0216523   0.00992024    0.0725042  -0.00777889   -0.0481011    0.0743228   -0.0266703   -0.0227959   -0.0188804
   0.0124294   -0.0177443    0.0374195    0.0163203   -0.0359997    0.0177075  -0.00322867   -0.0513018   -0.0294227 -0.000754526
#
!
<7>:Score:1787
Distance:0
   0.0162273      0.02554    0.0709438   -0.0295591   0.00902591   -0.0345056   -0.0211403   -0.0626492 -0.000129589
    0.024591    0.0163724 -0.000294469    0.0163779    0.0272785   0.00339366  -0.00439596  -0.00891728   -0.0486239
  -0.0606105  -0.00911069    0.0460026    0.0197997   -0.0113769    0.0487819    0.0467597  -0.00845181    0.0132965
 -0.00254739    0.0136867    0.0339831 -0.000469505    0.0304578   -0.0151151  -0.00016544   -0.0480322    0.0307721
   0.0335745   0.00545598  -0.00027593  -0.00166909   -0.0663621    0.0427338   -0.0478292  -0.00434355    0.0493703
 -0.00151788   -0.0227225    0.0305616    0.0451769 -0.000939477    0.0383813    0.0877347   -0.0338044    0.0713392
  -0.0295558   -0.0143823    0.0235042   -0.0159661   -0.0334558   -0.0168757  -0.00548355    0.0151773   0.00332065
 -0.00584761    0.0350122   -0.0353769   -0.0190282   -0.0151902   0.00358735    0.0208032    -0.050453   -0.0130851
  -0.0231659     0.021023   0.00446055   -0.0101313    0.0029015    0.0562614   -0.0169248  -0.00380385   0.00391937
   0.0122791  -0.00910936    0.0817964    0.0201548     0.025827   0.00854025   0.00552028   -0.0177487    0.0369238
#
   0.0315582    0.0250876    0.0436568   -0.0192446    0.0460728   -0.0483095   0.00467743     0.031967    -0.011628    -0.018591
   0.0372467    -0.023392    -0.101034   -0.0546726   -0.0142027   -0.0228332   -0.0151767   0.00567831  -0.00524035    0.0290178
   0.0316268    0.0355399    0.0396028   -0.0578692    0.0370004    0.0219691    0.0190052   -0.0608243    0.0338138  3.52857e-05
   0.0172611   -0.0448633   -0.0117397    0.0136781   0.00847644   -0.0479977   -0.0384778  0.000712674    0.0244271   -0.0273602
-2.65824e-05    0.0506234    -0.028698   -0.0139319    0.0503221   -0.0392767    0.0455353    -0.010864    0.0350344    0.0634222
  -0.0177163    0.0484473    -0.023101   -0.0280676   -0.0382024     0.027834   -0.0292352    -0.023712    0.0552308     0.027362
  0.00311893    0.0219116    -0.014139    0.0571684    0.0166081    0.0109053 -0.000992512    0.0140949   -0.0126201  -0.00102957
  0.00289127   -0.0147517    0.0185974   -0.0266656    0.0140627  -0.00104934    0.0570697    0.0236534   -0.0300228    0.0516865
  -0.0819434  -0.00480472     0.046942   -0.0552131  -0.00316815   -0.0390696   -0.0307607    0.0358303    0.0336495    -0.017842
  -0.0976726   -0.0228225   -0.0728328    0.0105311    0.0390159    0.0738941    -0.017905  -0.00301722   -0.0578942    0.0181679
#
-0.00328706  -0.0221725   -0.017712   0.0127609   0.0110329  -0.0142323   0.0230388 0.000314745   0.0123506  -0.0235982
 -0.0371884  -0.0338957  -0.0237687 -0.00368149  -0.0302518  -0.0189427  -0.0515403   0.0247903   0.0315619  -0.0104973
-0.00738572  0.00747939 -0.00969591  -0.0421272  -0.0461147 -0.00662404  -0.0261395  -0.0501356 -0.00558044 0.000971495
  0.0813594  -0.0511994  0.00864454   0.0225193  0.00294601  -0.0125649   -0.031741  -0.0222032  -0.0176694  -0.0381966
  0.0270374   0.0105714   0.0350443   0.0455557  -0.0284513 -0.00013586  -0.0312006  -0.0524913   -0.008871   0.0298882
 -0.0294018  -0.0308142  -0.0815888  -0.0251863  -0.0370777  -0.0277177  -0.0158567 0.000334371   0.0276866   0.0282476
  0.0464346   0.0783141  -0.0115425   0.0219681   0.0319783  -0.0414054   0.0391234   0.0161125  -0.0398512  -0.0337079
   -0.01467   0.0164908  -0.0366622  -0.0127191 -0.00708386   0.0179175   -0.054367   0.0644473   0.0106221   0.0503154
 -0.0366738 4.43004e-05   -0.025098   0.0505097   -0.046616   0.0364382  -0.0392728  -0.0445432  -0.0258063  -0.0457596
 -0.0406306  -0.0485316  0.00303263  -0.0169128  -0.0414778  -0.0134513  -0.0263162   0.0379444    0.040997   0.0311166
#
 0.00872811  0.00370891   0.0298456   0.0680914   0.0582453  -0.0200895   0.0149068  -0.0413806  -0.0344026  -0.0276234
  0.0258147  0.00309792  0.00527745    0.068777   0.0273312   -0.031024   0.0750149  -0.0164504   -0.009071  -0.0119074
 0.00783834  0.00996154 -0.00105463  0.00396775  -0.0192326  0.00510081  0.00575467  -0.0549223 -0.00311307  0.00516313
#
!
<48>:Score:1787
Distance:0
   0.0104093  0.000775158    0.0788226   -0.0130116    0.0419849   -0.0173089  -0.00571405   -0.0660292   -0.0182832
   0.0515331   -0.0048357    -0.012201   0.00844903   -0.0012307   -0.0107239  -0.00365651    0.0134968    -0.047615
   -0.048233   -0.0105452    0.0346129  0.000760552   -0.0297613     0.042653     0.044718   -0.0105565    0.0164466
  -0.0212584    0.0116439    0.0099318  -0.00214602    0.0215857   0.00388004    0.0170402   -0.0448205 -0.000778951
   0.0340788  0.000571322 -1.74428e-05  -0.00900138   -0.0508429    0.0431731   -0.0349652   0.00499539    0.0537548
  0.00929516   -0.0265751     0.054733    0.0313957   0.00115247    0.0017435      0.10872    -0.039804    0.0628148
  -0.0283989   -0.0149783   -0.0046211  -0.00912304   -0.0121343   -0.0308996    0.0188078    0.0038522  -0.00302701
  -0.0130292   0.00720152   -0.0433658   -0.0409225  -0.00109113    0.0139071    0.0226425   -0.0340614   -0.0542915
  -0.0132165   0.00153028  -0.00780059   -0.0192023   0.00503568    0.0709368   0.00132902   -0.0312334    0.0242381
   0.0211316   0.00281624    0.0896219    0.0112194    0.0224125     0.034239   0.00742837   -0.0260563    0.0137818
#
   0.0243322     0.024502    0.0519866   -0.0402547    0.0235109   -0.0340003  -0.00449985    0.0377423   -0.0209708     -0.01201
   0.0110288   -0.0356366    -0.114028   -0.0644406   -0.0140348   -0.0345433  -0.00316682   0.00301689   -0.0159777    0.0608123
   0.0135724    0.0227766    0.0438596   -0.0626054    0.0515128    0.0575696    0.0106917   -0.0540866    0.0513012    0.0333909
  -0.0104397   -0.0176412   -0.0129873     0.012747       0.0179   -0.0474496   -0.0408516    0.0108264    0.0193236   -0.0381367
  -0.0201626    0.0448189  -0.00475057   -0.0213091    0.0460461   -0.0355151    0.0636597   -0.0118863    0.0491534    0.0356415
  -0.0166902    0.0416399   -0.0166827   -0.0326752   -0.0450174    0.0107137   -0.0238458  -0.00455226    0.0465031     0.022916
   0.0430192      0.02196   -0.0138132     0.033933   0.00624292   0.00444716    0.0168322  -0.00120293   0.00524132 -0.000590808
   0.0443961   0.00798473     0.002066   -0.0274698    0.0254447    0.0116702     0.057694    0.0147974   0.00147844    0.0374697
  -0.0930583    0.0186521    0.0482886   -0.0340244   0.00239411   -0.0241655   -0.0176596    0.0109235    0.0601996    -0.026624
   -0.117372    -0.051984   -0.0724769 -0.000773271     0.026756    0.0566136   -0.0107452   -0.0254359   -0.0186136    0.0360465
#
  0.00197025   -0.0295375   -0.0183582  -0.00604392    0.0261609   -0.0216249    0.0508079   0.00346446   0.00586969   -0.0192489
  -0.0163566   -0.0248534  -0.00260622   -0.0173368    -0.018552   -0.0115839   -0.0336396     0.020169    0.0183872   -0.0239153
  -0.0140412    0.0150545   -0.0331772   -0.0452243   -0.0324986    0.0120041  -0.00771346   -0.0630463   -0.0158819   -0.0120254
   0.0932217   -0.0640598    0.0251872    0.0251274  -0.00913414   -0.0323364   -0.0172084   0.00272001   -0.0147589   -0.0494818
   0.0168252    0.0227565    0.0160128    0.0148567   -0.0257201   -0.0253393   -0.0222267   -0.0688524  -0.00416314    0.0387761
  -0.0055627   -0.0308629   -0.0939701    -0.029888   -0.0437868   -0.0036172   -0.0293274    -0.003163     0.012981    0.0174483
   0.0394768    0.0900076   -0.0250034    0.0152438     0.034696   -0.0256464      0.02625   0.00735978 -0.000628995   -0.0103376
  -0.0447926   0.00552029   -0.0346605   -0.0186068    0.0250041    0.0495495   -0.0407785    0.0589009  -0.00471132    0.0528471
   -0.036852  -0.00722175   -0.0147623    0.0453164   -0.0405929     0.051941  -0.00971745   -0.0607705   -0.0308861   -0.0253466
  -0.0416189   -0.0192591   0.00493622    0.0102974   -0.0299043  -0.00987857 -0.000598892    0.0176535    0.0524574    0.0197277
#
 0.00703652   0.0015521   0.0364572   0.0427236   0.0592953 -0.00280744 0.000255949  -0.0198384  -0.0332529   -0.048111
  0.0375768 -0.00103502  0.00177154   0.0595913   0.0106625  -0.0397949   0.0852567  -0.0349014   0.0129558  -0.0178816
   0.033107   0.0222272   0.0344993  0.00431276 -0.00748226  0.00227357  -0.0161077  -0.0566351  -0.0173257 -0.00447168
#
!
<6>:Score:1787
Distance:0
   0.0067637   0.00942154    0.0619597   -0.0307946    0.0417783   -0.0170718  -0.00904875   -0.0559358   -0.0187151
    0.046469      0.01006  -0.00428692   0.00517445  -0.00287492  0.000852435   -0.0174279  0.000674115   -0.0472199
  -0.0393815    -0.013645    0.0229691    0.0150885   -0.0190039    0.0413823    0.0445702  -0.00945152  -0.00400008
  -0.0036826    0.0140619    0.0114825    0.0017863    0.0217983   0.00355316  -0.00899811   -0.0400057  0.000696217
   0.0272017  -0.00185941  0.000353162   -0.0124129   -0.0517896    0.0461611   -0.0444905    0.0089273    0.0475797
   0.0185799   -0.0234233    0.0393423    0.0397213  -0.00349158    0.0137287    0.0943392   -0.0266266    0.0545689
  -0.0281598   -0.0134036 -0.000484819   -0.0177524   -0.0120806    -0.022746   0.00954241    0.0134644    0.0105685
 -0.00882679    0.0246433   -0.0535286   -0.0319159    0.0066247   0.00949094    0.0062691   -0.0393969   -0.0278659
  -0.0221795 -7.22945e-05  -0.00124618   -0.0217047   0.00727827    0.0695061  -0.00756709   -0.0181384    0.0142477
   0.0291882  -0.00214236    0.0914594   0.00653035    0.0143035    0.0280562  -0.00878343   -0.0130115    0.0430708
#
  0.0250208   0.0213536   0.0504142  -0.0422449   0.0286664  -0.0447801 -0.00336834   0.0234663  -0.0189164  -0.0133973
 0.00683934  -0.0358239  -0.0922775  -0.0489519 -0.00669428  -0.0181536 0.000711342    0.010791 -0.00892051   0.0467645
  0.0208737   0.0191796   0.0449418  -0.0619465   0.0516088   0.0458014   0.0267524  -0.0521121   0.0304543  0.00244466
 0.00959803  -0.0416052 0.000513321   0.0162292  0.00921435  -0.0651351  -0.0466721  -0.0183229  0.00110131   -0.035767
 -0.0202427   0.0477334 0.000238641  -0.0141078   0.0445674  -0.0230857   0.0681103 -0.00573864   0.0547958   0.0400186
 -0.0340912   0.0403867  -0.0231903  -0.0240035  -0.0434219   0.0284882  -0.0268787  -0.0175336    0.041284   0.0339004
  0.0131649   0.0247758  -0.0222628   0.0585649 -0.00528534   0.0229359   0.0135605   0.0157378 -0.00473371  0.00959899
  0.0213243  0.00454908  0.00739185   -0.019073   0.0179158  0.00984152   0.0570436   0.0209299  -0.0193408   0.0449823
 -0.0829776  0.00791052   0.0625416  -0.0312103 -0.00669456  -0.0230528   -0.028364   0.0118542   0.0311792  -0.0229055
  -0.102146  -0.0272314  -0.0743866   0.0405097   0.0382692     0.05413  -0.0276207  -0.0262662  -0.0397418   0.0246413
#
 -0.0140989  -0.0224381  -0.0229727  0.00245243   0.0277723   -0.027029   0.0611796  0.00435084   0.0186167  -0.0141429
 -0.0223536  -0.0127945 -0.00825906 -0.00673973 -0.00831396  -0.0376533  -0.0484224   0.0227933   0.0209984 -0.00331754
-0.00683602   0.0261096 -0.00628486  -0.0474394  -0.0414247   0.0204143 -0.00579603  -0.0525711  -0.0247288 -0.00158089
  0.0973923  -0.0651854   0.0116863   0.0292476  0.00291072  -0.0302286 -0.00909425 -0.00498157 -0.00398149   -0.061068
  0.0266102  0.00523458   0.0263408   0.0527537  -0.0389948   0.0129634  -0.0457745  -0.0649668 -0.00243137   0.0334301
 0.00105406  -0.0258294   -0.070905   -0.033626  -0.0382585  0.00175223  -0.0368345  -0.0105087   0.0211444   0.0352702
  0.0215807   0.0729197  -0.0192131   0.0308881   0.0391726  -0.0435954    0.018874   0.0208813  0.00238231  -0.0133312
 -0.0174051  0.00765792  -0.0301918  -0.0307186   0.0221697   0.0489676  -0.0466239   0.0639699   0.0020047   0.0471246
 -0.0422064  -0.0063072  -0.0123138   0.0413478  -0.0471913   0.0576599  -0.0120933   -0.043326  -0.0364016  -0.0413957
 -0.0328563  -0.0219551   0.0141275  -0.0206242  -0.0335783  -0.0215664  -0.0112527   0.0169213   0.0622728   0.0193049
#
 0.00630447  0.00013802   0.0258595   0.0503723   0.0624862  0.00357994  0.00470838  -0.0359208  -0.0305852  -0.0376726
  0.0311338 -0.00402085   0.0207967   0.0588682  -0.0100181  -0.0471385   0.0692416  -0.0322427  -0.0153674  -0.0213734
  0.0132412  0.00315988    0.036546   0.0176667  -0.0217356  0.00110955  -0.0122411  -0.0380779  -0.0236648 -0.00205146
#
!
<4>:Score:1786
Distance:0
  0.0103459 0.000669587   0.0437029  -0.0362139   0.0455989  -0.0192684  -0.0115274  -0.0341583  -0.0329523
  0.0378771  0.00598849 -0.00162798 -0.00263893  -0.0138426 -0.00287025  -0.0142933   0.0041607  -0.0423739
 -0.0476778 -0.00623517   0.0135184   0.0181902  -0.0388749   0.0597736   0.0369363  -0.0243766  -0.0185272
 -0.0129284    0.024702   0.0122421  0.00669507   0.0231673 0.000622064   0.0208991  -0.0251082  0.00237117
  0.0319772  0.00483418  0.00454236  -0.0273232  -0.0417899   0.0375219  -0.0397708  0.00153229   0.0572773
  0.0133749  -0.0243108   0.0425102   0.0409963  0.00411195   0.0170923   0.0948439   -0.017528    0.054011
 -0.0220233 -0.00234592   0.0247244  -0.0151894  -0.0244438  -0.0160902   0.0188284   0.0203127    0.015053
  -0.015845   0.0162656  -0.0569194  -0.0183694   0.0352878    0.011923   0.0180461  -0.0443161  -0.0192322
-0.00849355 -0.00468766 -0.00704977  -0.0195868   0.0056088   0.0934173  -0.0115826  -0.0275005  0.00405204
    0.02056  0.00925442   0.0811245  0.00169462   0.0285393   0.0333527  -0.0113097  -0.0221484   0.0477493
#
   0.0167374   0.00155523     0.064106   -0.0512711    0.0403602   -0.0368029    0.0134885    0.0320106   -0.0247441   -0.0032881
-0.000678968   -0.0178871    -0.106245   -0.0628774  -0.00940411   -0.0301742  -0.00654327   0.00334439   -0.0127735    0.0312389
   0.0351614    0.0287715    0.0284597   -0.0522059    0.0444475    0.0409638    0.0314984   -0.0386595    0.0323174    0.0203431
 -0.00518289   -0.0418454    0.0176081    0.0141294    0.0175445   -0.0696986   -0.0452788   -0.0220647  -0.00375018   -0.0372878
   -0.015007     0.057155  -0.00433892   -0.0257246    0.0599661   -0.0176751    0.0732269   0.00491502    0.0644759    0.0348867
  -0.0246186    0.0345265   -0.0333066   -0.0145452   -0.0387224    0.0343685   -0.0257362   -0.0361152    0.0384397    0.0320902
    0.013556    0.0137994   -0.0201677    0.0797369   0.00731751    0.0143779    0.0022954    0.0134558   -0.0163352    0.0187739
   0.0247001  -0.00710425   0.00801121   -0.0127405    0.0217438   0.00101622    0.0682669    0.0214188   -0.0328147    0.0352765
  -0.0751905    0.0180286    0.0584493   -0.0374883   -0.0143921   -0.0190176   -0.0120758   0.00469468    0.0211436   -0.0256456
   -0.105131   -0.0431823   -0.0823214    0.0423003     0.029084    0.0576842   -0.0160867   -0.0361734   -0.0426456    0.0136542
#
 -0.0212583  0.00333873  -0.0335474  0.00169781   0.0192869  -0.0154125   0.0707704  -0.0069143   0.0212132  -0.0114854
 -0.0325771 -0.00192101   0.0128361 -0.00196865  -0.0227521   -0.030791  -0.0478695   0.0120334   0.0204991 -0.00591597
 0.00158986   0.0252595 -0.00386609  -0.0432281  -0.0511593    0.019472  -0.0105334   -0.046909  -0.0244202 -0.00510528
  0.0945253  -0.0618125   0.0225598   0.0281797   0.0122615  -0.0155931  -0.0130938 -0.00960586  0.00312653  -0.0662163
  0.0143157 -0.00533562   0.0138716   0.0289612  -0.0390314  0.00736993  -0.0455116  -0.0439752 -0.00793018   0.0173925
 -0.0134037  -0.0198305  -0.0789126   -0.030336  -0.0396225  -0.0101438  -0.0493258  -0.0158802   0.0217017   0.0184237
  0.0273516   0.0687757  -0.0216016  0.00329355   0.0414347  -0.0503357   0.0207457   0.0261118  -0.0172854   -0.016225
  -0.025572  0.00352731  -0.0270903  -0.0359503   0.0258474   0.0465536  -0.0490855   0.0786395   0.0142102    0.041537
 -0.0346255  -0.0243435  -0.0194749   0.0282666  -0.0446288   0.0546458  -0.0209727  -0.0403122  -0.0239219  -0.0569099
 -0.0288715  -0.0292053 -0.00228688  -0.0310444  -0.0528724  -0.0217594  0.00187761  0.00897107   0.0639414   0.0360165
#
   0.0161768   -0.0121584     0.043748    0.0353541    0.0544083 -0.000389581    0.0125014   -0.0512428  -0.00608785   -0.0281399
   0.0251276   0.00135598     0.020578     0.062113 -0.000694623   -0.0491095    0.0554018   -0.0315679   -0.0251879   -0.0168838
   -0.017599  -0.00514221    0.0509646    0.0201291    -0.014455   -0.0114626   -0.0336203   -0.0231377    -0.037987   -0.0158963
#
!
<31>:Score:1786
Distance:0
  0.00560277   0.00973086    0.0582606    -0.029676    0.0452288   -0.0171395   -0.0158846   -0.0675533  -0.00653104
   0.0499786    0.0098825   -0.0105678    0.0170989    0.0033211  -0.00204481   -0.0139717   0.00187399   -0.0428156
  -0.0500578    -0.024084    0.0356192    0.0215418   -0.0258524    0.0415056    0.0403995  -0.00618322  0.000207005
 -0.00948885    0.0142526    0.0177682   0.00176045    0.0193073 -0.000446393  -0.00143333   -0.0375329   0.00859213
   0.0289238   0.00102018  -0.00443801  -0.00913085   -0.0499671    0.0563832   -0.0383341   0.00115684    0.0464017
   0.0218438   -0.0262107    0.0447376    0.0360016 -0.000280548    0.0149439    0.0920914   -0.0315796    0.0466602
  -0.0252118   -0.0188605  0.000917898   -0.0193835  -0.00730148   -0.0167987    0.0129874    0.0113181   0.00798409
 -0.00517138    0.0243077   -0.0457002   -0.0350605  -0.00407331    0.0128573     0.019976   -0.0509715    -0.032922
  -0.0279524   0.00380612  -0.00839164   -0.0135928  -0.00553615    0.0774423  -0.00199451   -0.0165914    0.0123326
   0.0259929   0.00661631    0.0839881   0.00487294   0.00998592    0.0273951  0.000843136   -0.0104668    0.0405566
#
   0.0250972    0.0151493    0.0484263   -0.0495502    0.0266643   -0.0452678   -0.0119366    0.0236119   -0.0225907   -0.0118907
   0.0155009   -0.0355144    -0.102861   -0.0552553   -0.0080726   -0.0236193   0.00615075    0.0025825   -0.0168059     0.045714
   0.0243255    0.0164789    0.0439069   -0.0607338    0.0470501    0.0507969    0.0300807   -0.0494181    0.0388816    0.0139125
  0.00515906   -0.0364799  -0.00611075    0.0143779   0.00602285   -0.0511087    -0.055825   -0.0152359   0.00516549   -0.0292908
  -0.0252625    0.0556363   0.00713961    -0.004546    0.0525726   -0.0279875     0.068398  -0.00722105    0.0398664    0.0331589
  -0.0338974     0.043651   -0.0236811   -0.0241016    -0.042448    0.0288902   -0.0222938   -0.0140126    0.0513874    0.0281342
   0.0180787    0.0239178   -0.0251105     0.051741   0.00158101    0.0130063    0.0136957    0.0186251 -0.000875497   0.00712295
   0.0334165 -0.000911896   0.00319991   -0.0157429    0.0236094   0.00755498    0.0548276    0.0227341   -0.0184544    0.0424098
  -0.0830585    0.0166305    0.0502728   -0.0375968  -0.00294707   -0.0212069   -0.0228666   0.00669891    0.0443397   -0.0167415
   -0.100806   -0.0403471   -0.0690674    0.0213462    0.0325119    0.0508574   -0.0212872   -0.0206281   -0.0360667    0.0324882
#
 -0.00665201   -0.0242161   -0.0262866   0.00049098    0.0239113   -0.0241123     0.053133   0.00157582    0.0168429   -0.0196059
   -0.014615   -0.0191251  -0.00929261  -0.00851172   -0.0178237   -0.0305759   -0.0488567    0.0219323    0.0235168   -0.0123012
  -0.0114014    0.0329332   -0.0131012   -0.0452891   -0.0428545    0.0212878  -0.00617778   -0.0507943    -0.024047   -0.0122713
   0.0882644   -0.0650008    0.0138197    0.0275398    0.0100903   -0.0249947  -0.00656173   -0.0104634  -0.00932028   -0.0515399
    0.021198    0.0118987     0.030951    0.0402766   -0.0476355    0.0053371   -0.0307067   -0.0654892 -0.000994068    0.0345941
 -0.00359572   -0.0232205   -0.0827846   -0.0335656   -0.0394711  -0.00551177   -0.0362193  -0.00871636    0.0242282     0.034096
   0.0277676    0.0719303   -0.0195656     0.028408    0.0397887   -0.0379741     0.018738    0.0135605  0.000339198   -0.0181477
  -0.0295884   0.00784595   -0.0240563   -0.0177073    0.0190428    0.0444413    -0.057686     0.061691   0.00661998    0.0545365
  -0.0399538   -0.0120357   -0.0171879    0.0450097   -0.0478491    0.0540639  -0.00952442   -0.0563654   -0.0386722   -0.0365391
  -0.0376091   -0.0175726   0.00966108  -0.00589588   -0.0360377   -0.0160092   -0.0123698    0.0156783     0.061978    0.0166431
#
  0.00384933   0.00192646    0.0321886    0.0468134    0.0560096 -0.000205904   0.00577247   -0.0325608   -0.0391797   -0.0399869
   0.0339982  -0.00380054      0.01855    0.0523631   0.00273287    -0.040217    0.0711918   -0.0240322  -0.00943154   -0.0188176
   0.0198848   0.00251726    0.0347717   0.00925144   -0.0193909   0.00192928   -0.0089819   -0.0336463   -0.0221364   0.00101037
#
!
<9>:Score:1785
Distance:0
  0.0173566 -0.00134723   0.0728971  -0.0190822   0.0327997 -0.00857574   -0.018919  -0.0710489  -0.0306746
  0.0566082   0.0186352   -0.012781   0.0288578  0.00190016  0.00920387  0.00345209  -0.0191369  -0.0686087
-0.00427212  -0.0254618    0.024812 0.000843776  -0.0256681   0.0341288   0.0440678 -0.00881799   0.0236392
 0.00999233   0.0350252   0.0032773   0.0175933    0.021714  -0.0116971   -0.010512  -0.0489356   0.0282555
  0.0432651   0.0165369  0.00274708 -0.00418862  -0.0771013   0.0554488    -0.04568  0.00271179   0.0468179
 0.00865219  -0.0445718    0.055338   0.0566116  -0.0224343   0.0339515   0.0767787  -0.0203057   0.0434764
 -0.0163299  -0.0101354   0.0279329  -0.0170291  -0.0055307  -0.0186433   0.0209865   0.0226504    0.005355
 -0.0206898    0.029219  -0.0239541  -0.0254887  0.00314918  0.00322529  -0.0225922  -0.0667224  -0.0429899
 -0.0379804   0.0215231  0.00187196   0.0211368  0.00123333   0.0814777  -0.0273249  -0.0187634 -0.00553242
 0.00966604  -0.0169913   0.0704424   0.0392297   0.0321703   0.0205576   0.0121564 0.000523274   0.0224798
#
   0.0222707    0.0128092    0.0492564   -0.0600659    0.0387647   -0.0398996   0.00501456    0.0340953    0.0165798   -0.0156751
    0.014359   -0.0488305   -0.0774876   -0.0362057   -0.0103523   -0.0235469    0.0188171 -0.000365816 -2.41319e-05    0.0197943
   0.0288141    -0.007127   0.00547077   -0.0564338    0.0303176    0.0514094    0.0241929   -0.0534644    0.0363342  -0.00424051
    0.030088   -0.0313878  -0.00748879    0.0178655   0.00544349   -0.0310038    -0.064444  -0.00488062   0.00835123    -0.044483
 -0.00630432    0.0546178   -0.0131485   -0.0188758    0.0510476   -0.0333116    0.0512746   0.00845265    0.0390204    0.0513384
  -0.0190737    0.0531001   -0.0161645   -0.0290654   -0.0567667    0.0228583   -0.0284672   -0.0423326    0.0260672    0.0453889
   0.0119805  -0.00259637   -0.0246751    0.0434021   -0.0219888   -0.0139062     0.010664   0.00856182  -0.00824777    0.0251404
   0.0157565   -0.0151963     -0.02014  -0.00974304   0.00301576    0.0227969    0.0526836    0.0134453   0.00690734    0.0606055
  -0.0842347    0.0194375    0.0442653    -0.038785   -0.0110591   -0.0286304   -0.0130668   0.00365557    0.0402636   -0.0186221
   -0.116609   -0.0406758   -0.0512567  -0.00234339    0.0548439    0.0611438   0.00040314   -0.0283278   -0.0363798     0.043084
#
  0.00589924   -0.0444527     0.016421   -0.0097025    0.0163656   -0.0293236    0.0445803    0.0175025    0.0205935    -0.020911
  -0.0418865   -0.0151696   -0.0164094  -0.00371043   -0.0161546   -0.0256112   -0.0673968   0.00345598    0.0290852    0.0112647
  -0.0147159    0.0207741     0.026601   -0.0369899     -0.04745   0.00999584   -0.0253759    -0.064961  -0.00452654   -0.0173284
       0.112   -0.0737497    0.0126148   0.00702069   0.00381958   -0.0450274    0.0133763   -0.0128412   -0.0148915   -0.0323749
   0.0298172   0.00394241    0.0178249    0.0651388   -0.0493678   0.00179335   -0.0247322   -0.0735463   -0.0358679    0.0112137
 -0.00268433   -0.0184696   -0.0643762  -0.00638027   -0.0154645    0.0118851   -0.0408019   -0.0018901    0.0491817    0.0185659
   0.0187395      0.07891  -0.00712101 -0.000212171    0.0382127   -0.0322237    0.0294011   0.00216312   0.00288954   -0.0251973
  -0.0219589   0.00355941   -0.0142707   -0.0377341    0.0225225     0.029919   -0.0632149     0.057955   -0.0119994    0.0349618
  -0.0273904   0.00142221    -0.012821    0.0304446   -0.0235583    0.0582437  -0.00964244   -0.0312686   -0.0232347   -0.0350108
  -0.0306499 -0.000820389    0.0184984   0.00125688   -0.0375868  -0.00238677   -0.0203146    0.0163881    0.0504596    0.0318205
#
  0.0137055 -0.00932926     0.01318   0.0445957   0.0569812  0.00177714  0.00803071  -0.0435303  -0.0348421  -0.0273818
  0.0316202   0.0102439    0.010908   0.0309008  -0.0068143  -0.0393203   0.0677964  -0.0154902 -0.00474124 -0.00124365
-0.00184147   0.0115785   0.0461144   0.0176446 -0.00991754  0.00711222 -0.00178286  -0.0296792  -0.0336985  -0.0133875
#
!
<10>:Score:1785
Distance:0
   0.0150499   0.00570894    0.0547564   -0.0199006    0.0276076   0.00149375   -0.0051329    -0.054206   0.00394748
   0.0490116    0.0229978   -0.0230636    0.0160712    0.0149533   0.00952109   0.00264759  -0.00357294   -0.0424211
  -0.0296172   -0.0108126     0.019483  -0.00827924   -0.0187648    0.0374202    0.0527337   0.00627821    0.0156682
    0.005398    0.0298646    0.0134261  0.000441095    0.0170047    0.0142396   -0.0311923     -0.01069    0.0236588
   0.0323278   0.00307106   -0.0147185   -0.0120039   -0.0533515    0.0448939   -0.0402282    0.0117534    0.0157187
   0.0174262   -0.0414064    0.0466504    0.0526441    0.0252642   0.00442509    0.0966147   -0.0169242    0.0440303
  -0.0242121  -0.00271882    0.0235609  -0.00833365   -0.0214609    -0.024136  0.000345523   0.00417194  -0.00641681
  -0.0131361    0.0152349   -0.0348838   -0.0190215  -0.00689223   -0.0307475  -0.00870317   -0.0352203   -0.0412677
  -0.0179461    0.0184302    0.0108176   0.00260578   -0.0124149    0.0511366   -0.0120687   -0.0234675    0.0127338
  0.00339422 -0.000347156    0.0697704    0.0336932    0.0214782    0.0227634   -0.0218885   0.00545691  -0.00619901
#
  0.0155215   0.0146207   0.0445722  -0.0383246   0.0330479  -0.0277665  0.00152148   0.0192892   0.0207372  0.00196841
  0.0294564  -0.0395775  -0.0953388  -0.0396104  -0.0219914  -0.0166016  0.00540663  -0.0013013  -0.0158877   0.0352527
   0.034626 -0.00110233  0.00831871  -0.0657193   0.0435524   0.0399451   0.0120055   -0.041265   0.0285547  -0.0171825
  0.0203053  -0.0205753  -0.0157041   0.0177674   0.0147704  -0.0386077  -0.0394093 -0.00250155  0.00498809  -0.0271269
-0.00740902   0.0136875  0.00686055   0.0106104   0.0627359 -0.00991259   0.0698671  0.00345275   0.0482713   0.0338472
 -0.0214696   0.0441907  -0.0243723  -0.0371392  -0.0679034  0.00747252  -0.0239675  -0.0119786   0.0275306   0.0353226
 -0.0214907   0.0182884  -0.0201324    0.037208  0.00433176   0.0118953   0.0100043  0.00187014  -0.0311223  0.00447543
  0.0131968  -0.0222678  0.00807743  -0.0241168   0.0159555     0.01668   0.0578665   0.0171937 -0.00161792   0.0388829
 -0.0735449  0.00554773   0.0502801  -0.0405865 -0.00586627  -0.0393341  -0.0216292   0.0220837   0.0314688 -0.00838555
 -0.0887787  0.00384489  -0.0621946    0.017305   0.0520879   0.0535528  -0.0154816  -0.0126516   -0.026233   0.0525281
#
 -0.00998078   -0.0173765  -0.00298587   0.00475609   0.00730871   -0.0294019    0.0369265    0.0108835    0.0329976  -0.00517571
  -0.0234791   -0.0430439   -0.0114957   -0.0011491    -0.021867   -0.0354074   -0.0465948    0.0273753    0.0250687   -0.0112692
 -0.00571634    0.0203701    0.0186454   -0.0408449    -0.049921   0.00791962 -3.18061e-05   -0.0560584    0.0108641  -0.00610923
    0.104953   -0.0588078  0.000827227    0.0289277   0.00501746   -0.0240145    0.0038786   -0.0200979   -0.0260338   -0.0565593
    0.029129    0.0251953    0.0417941    0.0730708    -0.036138    -0.025554   -0.0432165   -0.0559099  -0.00563026 -5.67554e-05
 0.000394008   -0.0207567   -0.0586734   -0.0221352   -0.0202528  0.000961541    -0.012317    0.0160914    0.0275772    0.0317833
   0.0235829    0.0754887     0.011585    0.0118918    0.0305796   -0.0375949  -0.00282173   0.00534797   0.00568051   -0.0232857
  -0.0240524    0.0123638   -0.0300221   -0.0470256    0.0110414    0.0280445   -0.0496733    0.0467097   0.00704123    0.0302425
  -0.0315015   0.00223496   -0.0105385    0.0404444   -0.0437941    0.0542085   -0.0104713   -0.0319688   -0.0307791   -0.0138131
  -0.0521455   -0.0175647  -0.00092414  -0.00361087   -0.0404174  -0.00956742   -0.0173689    0.0160607    0.0512057    0.0341799
#
   0.023852  0.00169964   0.0138285   0.0306946   0.0515336  -0.0142213   0.0162766  -0.0287753  -0.0266279  -0.0299573
   0.030238  0.00694325   0.0178074    0.032028  0.00825146   -0.051498   0.0566341  -0.0202025  0.00590956  -0.0225064
 -0.0141317   0.0103714   0.0319655   0.0156757  -0.0180817  -0.0211231 -0.00683578  -0.0314887  -0.0151174  -0.0031784
#
!
<11>:Score:1785
Distance:0
   0.0139862    0.0207106    0.0614538   -0.0168885    0.0267659   -0.0267349   -0.0147229   -0.0586453  -0.00674404
   0.0255133    0.0150455    -0.027985  -0.00288679    0.0128761  -0.00715759  -0.00791235   -0.0238332   -0.0526782
  -0.0641788   -0.0346353    0.0316802    0.0170037   -0.0279822    0.0322775    0.0487746   0.00641182   0.00439842
  -0.0106379    0.0208457    0.0153085    0.0161438    0.0221789   -0.0228181   -0.0317909   -0.0304191    0.0149034
   0.0265301   0.00819557   -0.0164468  -0.00304913   -0.0570251      0.06384   -0.0419272     0.012393     0.040859
   0.0121682   -0.0456558    0.0424638    0.0607482   -0.0160993    0.0298271    0.0809806   -0.0156232    0.0544112
  -0.0181706   -0.0191534    0.0302251      -0.0157    -0.022305   -0.0264737  -0.00614046   -0.0157235    -0.003132
 0.000731945    0.0268652   -0.0425593   -0.0103088  -0.00830153 -0.000288484    0.0135008   -0.0507023   -0.0322429
  -0.0293859    0.0386489    0.0147398   -0.0196909   -0.0185859    0.0557816   -0.0126038    -0.015463    0.0194079
   0.0127465   -0.0237405    0.0779179    0.0188248    0.0277213    0.0206505   0.00205855  -0.00743874     0.021166
#
   0.0396474    0.0329824    0.0392287   -0.0375253    0.0474099   -0.0302265  -0.00979532     0.038198   0.00758609    -0.029783
   0.0333771   -0.0544309   -0.0982512   -0.0580771   -0.0291738    -0.020261  -0.00716104   -0.0025958   -0.0130581     0.010397
   0.0396286 -0.000707966    0.0297581   -0.0539162    0.0405126    0.0238746    0.0200026    -0.060693     0.024641   -0.0029068
  0.00369149    -0.038935   -0.0142445  -0.00411873     0.027657   -0.0294609   -0.0430086  -0.00148135    0.0143581    -0.026775
-0.000227552     0.045545   -0.0157553  -0.00318158    0.0540921   -0.0454478    0.0543425  -0.00886991    0.0514631    0.0450725
 -0.00973868    0.0387411   -0.0180634   -0.0438127   -0.0287299    0.0221815   -0.0109287  0.000825551    0.0346572    0.0378607
 -0.00469487    0.0116132   -0.0258408    0.0372821  -0.00649283    0.0210484    0.0166336  -0.00650234  -0.00119613    0.0130766
   0.0251002   -0.0195463    0.0147452   -0.0111364    0.0263101    0.0106983    0.0546083   0.00972444  -0.00749504    0.0404546
  -0.0636024   -0.0113549    0.0260068   -0.0503907  -0.00337099   -0.0397718   -0.0224986     0.027699     0.040901   -0.0218103
   -0.100685    -0.009224   -0.0715537   0.00929103    0.0467639    0.0576703   -0.0153531  -0.00893834   -0.0275013    0.0268113
#
-0.00953975   -0.015662  -0.0288409  0.00289114   0.0217234  -0.0210053   0.0495867  0.00858124   0.0175671  -0.0161224
 -0.0287881 -0.00262924  -0.0158543  -0.0163417  -0.0314029   -0.019053  -0.0447571   0.0283386  0.00585471  0.00294571
 -0.0300858  0.00203223    0.015138  -0.0496781  -0.0431937  0.00116233 0.000303133  -0.0678499  -0.0017268   -0.001655
   0.077498  -0.0602123 -0.00336104   0.0365572  0.00621177  -0.0280801 -0.00500215  -0.0199741  -0.0126316  -0.0370971
  0.0508821 -0.00012975   0.0286404   0.0549623  -0.0302837   0.0106684  -0.0260931  -0.0556664 -0.00992008   0.0141676
 -0.0170453   -0.025335  -0.0650066  -0.0281173  -0.0204681  -0.0145593  -0.0186077   0.0115155  0.00636195   0.0481973
  0.0346719   0.0886198  -0.0136009   0.0114534   0.0456582   -0.056411   0.0180445    0.013928  -0.0133643  -0.0245057
-0.00250312 0.000459505  -0.0114879  -0.0337318  0.00332127   0.0374153  -0.0519093   0.0575642  0.00932032   0.0346325
 -0.0234292 -0.00352078  -0.0228782   0.0405056  -0.0352891   0.0389897 -0.00684073  -0.0249716  -0.0324583  -0.0283787
 -0.0404458  -0.0306659   0.0128821  -0.0218414  -0.0466446  -0.0123223   -0.016471   0.0248527   0.0415671   0.0610291
#
  0.0200093   0.0037892   0.0357299   0.0536494   0.0333112  -0.0262158   0.0267282  -0.0197647  -0.0245786   -0.033597
  0.0136514   0.0161581   0.0138499   0.0647336   0.0225809  -0.0479233   0.0759698  -0.0068191 -0.00634912  -0.0144851
 0.00620224   0.0182423   0.0253685  0.00336399 -0.00945934  0.00658553   0.0127703  -0.0568994  -0.0284651 -0.00706964
#
!
<12>:Score:1785
Distance:0
   0.0267887   0.00709485    0.0809071   -0.0134576    0.0259301  -0.00808572   -0.0231323   -0.0378134   -0.0113727
   0.0503235   0.00517334   -0.0140645    0.0182397    0.0210741  -0.00627796   0.00642276   -0.0134747   -0.0500828
  -0.0204088   -0.0118676    0.0270036   -0.0129947  -0.00823175    0.0565781    0.0500695  0.000252404   0.00680378
 0.000894726    0.0304651  -0.00540819   0.00803234    0.0245218   0.00446411   -0.0272592    -0.034113   0.00884258
   0.0517212  -0.00553461   -0.0126801  -0.00138245   -0.0552033    0.0533981   -0.0441933   0.00906818    0.0266717
  0.00446623   -0.0395455    0.0469746    0.0706846 -0.000443383   0.00378652    0.0894274  -0.00442743    0.0662417
  -0.0345147   -0.0258098    0.0442109   -0.0117452   0.00421447    -0.029469    0.0230338   0.00523483   -0.0129269
  -0.0179602    0.0245213   -0.0260696   -0.0152161  -0.00219857   -0.0117775   -0.0185254   -0.0594463   -0.0375236
  -0.0226385     0.016338    0.0141594  -0.00800159    -0.011632    0.0586787   -0.0167409     -0.02045   0.00946569
   0.0141593   -0.0226704    0.0742339    0.0141511    0.0282198    0.0271374  0.000659796   -0.0056329   0.00465197
#
     0.02477    0.0246845    0.0378224   -0.0536919    0.0434915   -0.0397507    0.0017909     0.040521    0.0316958   -0.0119016
   0.0220268   -0.0466806   -0.0929895   -0.0473704  -0.00688663   -0.0222483   0.00551229   0.00161937   -0.0310224    0.0265635
   0.0377444  -0.00389425    0.0246618   -0.0680268    0.0329238    0.0469848     0.023523    -0.039989    0.0280996   -0.0229794
   0.0372344  -0.00416152  -0.00802059    0.0198812    0.0206264   -0.0252206   -0.0602976  0.000277525    0.0152449   -0.0319972
   0.0196507    0.0155111   -0.0323032  -0.00922288    0.0627168   -0.0327841    0.0448038   0.00728841    0.0279622    0.0578364
  -0.0133083    0.0334655  -0.00219011   -0.0498942   -0.0537744    0.0209324    -0.039034   -0.0166265    0.0245032    0.0444049
 -0.00943747   -0.0038484  -0.00999832    0.0392191   -0.0186176  -0.00327672    0.0164305   -0.0159433   -0.0249402    0.0151926
   0.0111553  -0.00719583   0.00552982    -0.017487    0.0132794     0.011863    0.0510453    0.0142845  -0.00338727    0.0571168
  -0.0874594   0.00439961    0.0481331   -0.0519988  -0.00536017   -0.0352937   -0.0236422    0.0287256    0.0338319  -0.00906678
   -0.103683  -0.00351432   -0.0483392   0.00511746    0.0416119    0.0545437 -0.000926233   -0.0137234    -0.043578    0.0522981
#
  -0.0106667   -0.0198273   0.00889731  -0.00547356    0.0141233   -0.0185178    0.0420859    0.0198672    0.0227357   -0.0172922
  -0.0168032   -0.0275616  -0.00641861   0.00238453   -0.0220688   -0.0221174   -0.0482326    0.0254676    0.0183646    0.0211478
  -0.0143714    0.0170775    0.0349896   -0.0396813   -0.0521907    0.0126067   -0.0226721   -0.0552912  -0.00093939   -0.0153254
    0.105738   -0.0717519   -0.0122503    0.0255161   0.00813917   -0.0238977  -0.00926634   -0.0344081   -0.0045865    -0.039678
   0.0526848    0.0175861    0.0227785    0.0688551    -0.024445 -0.000239742   -0.0443557    -0.049136   -0.0235619   0.00488984
    0.011815   -0.0232868   -0.0676216   -0.0162857    -0.018654  -0.00532838   -0.0167977    0.0104871    0.0168715    0.0343818
   0.0356716     0.106413   0.00659063   0.00512338    0.0438197   -0.0317449   0.00642558    0.0113121  -0.00994891   -0.0211538
  -0.0212182  -0.00527149   -0.0139599   -0.0531017    0.0177768    0.0370554   -0.0470918    0.0544093  -0.00426648    0.0218233
  -0.0316841  -0.00138383   -0.0236873    0.0443113    -0.044962    0.0611792   -0.0154192   -0.0486463   -0.0342392   -0.0446835
  -0.0563063   -0.0167183   0.00711241   -0.0128792    -0.039977   0.00120297   -0.0183617    0.0177774    0.0612887    0.0380336
#
  0.0109142  0.00298698   0.0257004   0.0383128    0.042415  -0.0131365   0.0247001   -0.025011  -0.0465234  -0.0364948
  0.0170118  0.00964242     0.01316   0.0473636   0.0270782  -0.0514833   0.0766816 -0.00235296 -0.00113047  -0.0233626
 0.00650916   0.0227463   0.0412513  0.00730403   -0.022391  -0.0173213  -0.0055484  -0.0443481  -0.0188764 -0.00327814
#
!
<13>:Score:1785
Distance:0
   0.019094  0.00758153   0.0648702     -0.0223   0.0347418  0.00056899 -0.00686973  -0.0495137 -0.00564867
  0.0413686  0.00942697  -0.0155086    0.013927   0.0185638 -0.00824391 -0.00484428 0.000452124  -0.0542532
 -0.0282259  -0.0107797   0.0191713   -0.016687 -0.00217271   0.0365487   0.0612189 0.000356872  0.00884413
-0.00733938   0.0479257  0.00540061  -0.0043934   0.0129803   0.0137619  -0.0317914  -0.0155486   0.0270202
   0.037724  -0.0113897  -0.0214512 -0.00949829  -0.0485421   0.0467257  -0.0374965  0.00346388   0.0166174
 0.00273339  -0.0440924   0.0373246   0.0608853   0.0156389  0.00410865   0.0741881    -0.01815   0.0450034
 -0.0324714  -0.0153089   0.0185187 -0.00726466  -0.0140523  -0.0199331  0.00443388 -0.00662127  -0.0047324
 -0.0201251   0.0280803  -0.0349246   -0.010494  -0.0124079   -0.024807 -0.00422792  -0.0384285  -0.0288731
 -0.0223006    0.011729  0.00878799  0.00846131  -0.0204008   0.0531874  -0.0169388  -0.0193061  0.00591765
  0.0115755 -0.00208017   0.0587429   0.0219944    0.023757   0.0245338   -0.028142   0.0104605   0.0039949
#
   0.0261829    0.0200512    0.0431847   -0.0330566    0.0326606   -0.0376077  -0.00376441    0.0230945    0.0200035  -0.00312111
   0.0237802   -0.0454017    -0.100732   -0.0337109   -0.0178417   -0.0146066   0.00511615 -0.000863453   -0.0233074    0.0347059
   0.0335178   0.00154667   0.00618634   -0.0620027    0.0356166     0.052931    0.0145175   -0.0297384    0.0210259   -0.0144325
   0.0316024   -0.0180089  -0.00866491    0.0158285    0.0230485   -0.0488179   -0.0456912  -0.00453403   0.00449832   -0.0300299
 3.81596e-05    0.0149079  -0.00697575   0.00886626    0.0690375   -0.0137404    0.0612726   0.00645322    0.0591956    0.0370177
  -0.0193158      0.03513   -0.0146351   -0.0287433   -0.0644973   0.00619989   -0.0232174   -0.0101892    0.0161577    0.0385572
  -0.0220998    0.0193202   -0.0178253    0.0357451   0.00590131   0.00867465   0.00527891  0.000358954    -0.029525   0.00582574
    0.023028   -0.0141566   0.00579775   -0.0117095    0.0138364  -0.00166271    0.0534487    0.0219568  -0.00352571    0.0447987
  -0.0828198   0.00608697    0.0527263   -0.0476311  -0.00863006   -0.0544289   -0.0257138    0.0145286    0.0223084  -0.00834352
  -0.0947217   0.00248266   -0.0660133   0.00670248    0.0420361    0.0579085 -0.000490897   -0.0133377   -0.0336278    0.0554491
#
  -0.0079081   -0.0177333  0.000167749    -0.006355    0.0121957    -0.021219    0.0334023     0.015195    0.0312145   -0.0067215
   -0.026268   -0.0426318   -0.0104713  0.000652285   -0.0163391   -0.0286623   -0.0492053    0.0321447    0.0177393  -0.00576373
 -0.00745357    0.0122461    0.0174334   -0.0423465   -0.0586478    0.0237588  -0.00233585   -0.0476003   0.00414084   0.00336658
     0.10446   -0.0518558   -0.0066197    0.0253928   0.00942019   -0.0175847   0.00238262   -0.0270352   -0.0279937   -0.0550076
    0.037938    0.0222809    0.0435659    0.0684376    -0.042921   -0.0180904   -0.0470972   -0.0554734   -0.0109838    0.0040635
   0.0139108   -0.0201023   -0.0651337   -0.0245349   -0.0270908  0.000493773  -0.00467583    0.0178566    0.0231561    0.0337713
   0.0283936     0.080039    0.0129123   0.00665945    0.0388097   -0.0459445 -0.000248241  -0.00206284 -0.000919652   -0.0266544
  -0.0174132  -0.00237117   -0.0210535   -0.0472931  -0.00260885    0.0283001   -0.0441418    0.0528973  -0.00380324    0.0411712
  -0.0281456   0.00116645   -0.0151983    0.0411794   -0.0413857    0.0585069  -0.00968875   -0.0371622    -0.031268   -0.0227612
  -0.0553001  -0.00914345  -0.00378482  -0.00445685   -0.0471043  -0.00971485    -0.015079    0.0118432    0.0586687    0.0340949
#
  0.0215441  0.00601587   0.0145369   0.0352258   0.0527842  -0.0151657   0.0230345  -0.0171434  -0.0301442  -0.0323027
  0.0357494   0.0119322   0.0149918   0.0424636   0.0106732  -0.0495655   0.0564822 -0.00996841  0.00787764  -0.0264814
 0.00138474  0.00322076   0.0296359  0.00306934  -0.0115346  -0.0311882 -0.00908057  -0.0344391  -0.0065136 -0.00046772
#
!
<14>:Score:1785
Distance:0
   0.0129747   0.00492617    0.0484963   -0.0312712    0.0206685    -0.013891   0.00387394   -0.0613058    -0.022349
   0.0403312  -0.00960754   -0.0271157    0.0136793  0.000648446   0.00355272   -0.0102566   0.00117391   -0.0466516
  -0.0276093   -0.0212001    0.0216387   0.00635967   -0.0218045    0.0425079    0.0310728     -0.01452   -0.0259361
  0.00271646    0.0253193    0.0256304   0.00351225  -0.00143603   0.00805318   -0.0180639   -0.0288894   0.00315594
   0.0220232   -0.0070748  -0.00351404   -0.0153509   -0.0363211    0.0310389    -0.041837    0.0276067    0.0335485
-0.000152183   -0.0173446    0.0475491    0.0298773   -0.0118631    0.0157875    0.0905468   -0.0466736     0.012785
  -0.0286958  -0.00352115  -0.00661945   -0.0173036  -0.00983582   -0.0268554  0.000413342    0.0223361    0.0114468
  -0.0151475    0.0194809   -0.0527736   -0.0239906  -0.00291459    0.0184748   0.00527386   -0.0564581   -0.0339586
  -0.0195932   -0.0087308   -0.0199609    -0.017544   -0.0141497     0.094818  -0.00157932  -0.00136215    0.0271527
   0.0155687   -0.0046666     0.109264    0.0171471   0.00215439    0.0215007   -0.0026409  -0.00685687    0.0594307
#
   0.0249348    0.0256767    0.0641739   -0.0552988    0.0386234   -0.0314208    -0.011111    0.0496728    -0.019228   -0.0166744
   0.0278599   -0.0406377    -0.110247   -0.0553563   0.00799902   -0.0258003  -0.00686898    0.0184149   0.00687056    0.0468246
   0.0260458 -0.000133194    0.0305852   -0.0624202    0.0560709    0.0492922    0.0267367   -0.0769466    0.0238948    0.0218449
  0.00615625   -0.0317771   0.00900341   0.00304592   0.00287842   -0.0783151   -0.0622905    -0.016686 -0.000292873   -0.0121614
  -0.0234296    0.0487213  -0.00438858    0.0023408    0.0403043    -0.011443    0.0518375   0.00332199    0.0684527    0.0437114
  -0.0457452     0.045577   -0.0318394    -0.023887   -0.0485423    0.0320805   -0.0252391   -0.0156617    0.0363904    0.0444351
  0.00486737    0.0427123   -0.0410993    0.0671478   -0.0216638    0.0196861   0.00548104    0.0168224    -0.012921   0.00325942
   0.0213193   -0.0207536  -0.00222675  -0.00310078    0.0327546     0.019866    0.0787214   0.00795523    -0.015453    0.0415895
  -0.0888174    0.0166058    0.0445302    -0.032216  -0.00566971   -0.0371885   -0.0138915  -0.00468243    0.0421379   -0.0190981
  -0.0957306   -0.0382611   -0.0578221    0.0270523     0.042167    0.0448878   -0.0183399   -0.0187652   -0.0493951    0.0297327
#
  -0.0275447   -0.0370157   0.00438835    -0.003143     0.031177   -0.0182768    0.0340843    0.0251008    0.0341823  -0.00676647
 -0.00618769  -0.00352275 -0.000462358   0.00103306   -0.0075065   -0.0419276   -0.0497855    0.0207954    0.0199928  -0.00808923
   -0.016297     0.040631   -0.0132685   -0.0600454   -0.0364918 -0.000467255  -0.00437781   -0.0373226   -0.0285565   0.00468892
   0.0946526   -0.0476146    0.0345632    0.0443789  -0.00142255   -0.0279375   -0.0240998   -0.0140902  -0.00933419   -0.0343589
   0.0204548   0.00784818    0.0519572    0.0604327   -0.0186772   0.00907952   -0.0484959   -0.0405793   -0.0116168    0.0260318
 -0.00233185   -0.0224229    -0.072299   -0.0581368   -0.0506713    0.0165091   -0.0368999  -0.00350409    0.0227831    0.0285043
   0.0372006     0.096011   0.00447012  -0.00152885    0.0370121    -0.054137    0.0278582    0.0252441    0.0102554   -0.0163611
  -0.0125061    0.0126191   -0.0105805   -0.0190412    0.0170575    0.0380761   -0.0587934    0.0716545    0.0067275    0.0565652
  -0.0245743     0.019629   -0.0163486    0.0301928   -0.0557517    0.0554701  -0.00943557   -0.0484827   -0.0348266   -0.0393551
  -0.0669813    -0.029208 -0.000754238   -0.0253854   -0.0371332   -0.0228316   -0.0216954  -0.00386907    0.0591276   0.00980357
#
  0.0236119  0.00515369   0.0249498   0.0529732   0.0447891  0.00431908   0.0057282  -0.0097596  -0.0330054  -0.0309237
  0.0360845  -0.0272864   0.0259278   0.0563521  0.00137519  -0.0361594   0.0813836   -0.050636  -0.0066575  -0.0317322
0.000335424  0.00980398   0.0466412   0.0258229  -0.0178302  0.00419884   0.0233176   -0.023137   -0.030489  0.00891298
#
!
<15>:Score:1785
Distance:0
  0.00851785  -0.00757338    0.0663699   -0.0154757    0.0304487 -0.000494168   -0.0194353   -0.0401724   0.00482107
   0.0210324    0.0173198   -0.0280042    0.0134302    0.0391787   0.00214063   0.00380157  -0.00297685   -0.0508796
  -0.0204389   0.00793961    0.0209543   0.00300517   -0.0053494    0.0414687    0.0481549   -0.0131727    0.0207938
  0.00170341    0.0582128    0.0157522    0.0266466    0.0130523     0.031787   -0.0332638   -0.0124602    0.0316224
   0.0512007    0.0205072   -0.0294876   -0.0132402   -0.0648588    0.0343688   -0.0296829    0.0160469   0.00338403
   0.0181125   -0.0381627    0.0330614    0.0688534   0.00250309   -0.0246041    0.0569693 -0.000228854    0.0448265
  -0.0158925   -0.0227524      0.02532   -0.0334299   -0.0113107   -0.0233967   0.00982987 -0.000362971   0.00295993
  -0.0136316    0.0154975   -0.0298309    -0.005658    -0.013064   -0.0474364   -0.0136934   -0.0275205   -0.0306923
  -0.0215265    0.0163905   0.00816484   0.00915163   0.00758516    0.0562534  -0.00844341    -0.022257     0.020615
   0.0219816    -0.022999    0.0643088    0.0157007    0.0152169    0.0165519   -0.0243488  -0.00822628   0.00913853
#
   0.0404162    0.0181787    0.0483778    -0.065885    0.0241338    -0.026675   0.00598252    0.0239826    0.0212214   0.00242228
   0.0274414   -0.0598881    -0.100779   -0.0343541  -0.00978863   -0.0121777  -0.00766707    -0.011783  -0.00377111    0.0345925
   0.0310064   0.00839575    0.0257726   -0.0597102    0.0435593    0.0394611      0.02638   -0.0450326    0.0248804   -0.0290692
   0.0187987   -0.0218304  -0.00118172    0.0302553    0.0214746   -0.0398108   -0.0366416 -0.000293591  -0.00590943   -0.0329098
 -0.00482976    0.0230176   -0.0220339    0.0156052    0.0714768    -0.031518    0.0590635   -0.0014022    0.0479333     0.038704
  -0.0322119    0.0321762   -0.0179635   -0.0229381   -0.0599165   0.00570013   -0.0155161  -0.00477923    0.0396718    0.0385586
 -0.00661703    0.0095107   -0.0403275    0.0366822   0.00393746   -0.0110569   0.00199776  -0.00174967  -0.00268912   0.00798844
  0.00675901  -0.00108688   -0.0123523   -0.0350102    0.0179778    0.0215682     0.051904    0.0182952   0.00291852    0.0421515
  -0.0575469   0.00442827    0.0436032   -0.0321049   -0.0220251   -0.0508411   -0.0240272    0.0456208    0.0173648   -0.0100003
  -0.0978948   0.00494399   -0.0777563    0.0211625    0.0466512    0.0539667   -0.0373474  0.000215585   -0.0180675     0.068498
#
 0.00447631  -0.0184038 -0.00808786 -0.00379179   0.0273111  -0.0404686   0.0467599   0.0144577   0.0241365   0.0114579
 -0.0361215  -0.0357894 0.000767872 -0.00340577  -0.0295489  -0.0287146  -0.0366917   0.0394033     0.01819 -0.00634138
 -0.0210893   0.0107459  0.00880781  -0.0541886  -0.0705022  0.00158341 -0.00856999  -0.0381007  -0.0125242  -0.0058094
   0.106388  -0.0531087  -0.0344449   0.0263704 -0.00175306  -0.0203838 -0.00157594  -0.0107824  -0.0115458  -0.0618675
  0.0310621   0.0186977   0.0396562   0.0689135  -0.0213704  -0.0220925  -0.0613469  -0.0576493  -0.0288767  0.00718055
 0.00639973 -0.00708472  -0.0601538  -0.0447866 -0.00846862  0.00380956 -0.00422358 -0.00221343  0.00117895   0.0398027
  0.0378574   0.0862272  0.00650857  -0.0036711   0.0364702  -0.0418813 -0.00783313 -0.00586734   0.0128053 -0.00843661
 -0.0190992  0.00161505  -0.0181516  -0.0297333  0.00213438   0.0447629  -0.0336966   0.0699285    0.011132   0.0354549
 -0.0374323   0.0111604  -0.0289151   0.0407379  -0.0291205   0.0635819 -0.00639764  -0.0481066  -0.0196182  -0.0436264
 -0.0590168  -0.0339015  0.00569727   0.0159416  -0.0267866  -0.0080928  -0.0153778   0.0118348   0.0457975   0.0466904
#
  0.00948975  -0.00558579    0.0260832    0.0130171    0.0361737    0.0148156    0.0143595   -0.0403706   -0.0280722   -0.0178637
   0.0220701   -0.0121921   0.00707344    0.0377973 -0.000793336   -0.0597197    0.0638554   -0.0147595    0.0143324    -0.015464
  -0.0108745    0.0131476    0.0243557    0.0101907  -0.00993292  -0.00751144   0.00718173   -0.0158292   -0.0117805  -0.00372178
#
!
<16>:Score:1785
Distance:0
   0.0119252  -0.00263138    0.0658968   -0.0187502    0.0440418   -0.0175114    -0.012259   -0.0472033   -0.0147019
   0.0425624  -0.00198904   -0.0133184    0.0313698   -0.0155192   0.00257205  -0.00553288  -0.00718201   -0.0395637
  -0.0365168    -0.035557    0.0178813    0.0045728   -0.0272142    0.0512187    0.0356603   -0.0236062   -0.0222676
 -0.00270936    0.0214404   0.00984162   0.00212709   0.00100801    0.0169343   -0.0197991    -0.044411   0.00875251
   0.0229984     0.014938   0.00891441   -0.0137814   -0.0457704    0.0494687   -0.0541016      0.02135    0.0384132
   0.0177403   -0.0216694    0.0588219    0.0329668    0.0159473   0.00257556    0.0931029   -0.0328885    0.0570201
   -0.032282   -0.0332598    0.0140277   -0.0398281   -0.0405899   -0.0207959    0.0186868   0.00789034    0.0322518
  -0.0181853    0.0197124   -0.0543401   -0.0221652   0.00517528     0.019706    0.0216148   -0.0454041   -0.0266333
   -0.026026  -0.00319731  -0.00407312   -0.0408172 -2.05586e-05    0.0670167   -0.0270225  -0.00351353  -0.00948755
   0.0143675    0.0203996    0.0951782   0.00254898   -0.0149009   0.00703311 -3.80981e-06   -0.0243061    0.0325626
#
   0.0370047    0.0290417    0.0559047   -0.0543573    0.0491787   -0.0329747 -0.000481284    0.0326097   -0.0294522  -0.00705582
   0.0239132   -0.0541137   -0.0928155   -0.0502726   -0.0119906   -0.0245894   0.00448127    0.0401413   0.00374441    0.0354789
   0.0453308    0.0149475    0.0180135   -0.0522524    0.0523166    0.0622288    0.0121353   -0.0237139    0.0295151   0.00984935
   0.0126408   -0.0361347   -0.0117054    0.0217273   -0.0128233   -0.0533938   -0.0663603  -0.00706303  0.000554288   -0.0473988
  -0.0064853    0.0208987   -0.0142596  -0.00963425    0.0506341   -0.0299291    0.0461168  -0.00907034    0.0413233     0.019623
  -0.0273185    0.0291015   -0.0240566    -0.022264   -0.0490555    0.0351944   -0.0303717    -0.014195    0.0376271    0.0528079
    0.019768    0.0259663   -0.0157233    0.0613706   -0.0182641    0.0148744    0.0100326   0.00818144      0.01864    0.0241316
   0.0175944  -0.00377947    -0.011766    -0.020496    0.0181479   0.00792653    0.0578462   0.00323695   -0.0283046     0.052853
  -0.0660829   0.00928035    0.0698182   -0.0394511   -0.0276418   -0.0323766   -0.0230922    0.0281544    0.0428209   -0.0126565
   -0.110309   -0.0211605   -0.0637275    0.0146219    0.0534956    0.0453131   -0.0184686   -0.0293396   -0.0433844    0.0236929
#
  -0.0050921   -0.0104282   -0.0242778   0.00255619    0.0270837   -0.0275777    0.0414581    0.0105626    0.0297342    -0.021919
  -0.0127987  -0.00945008  -0.00766826   0.00471563    0.0077807   -0.0336583   -0.0280602    0.0287045    0.0314616    0.0135449
  -0.0226529    0.0368306    0.0115929   -0.0441344   -0.0616054    0.0179987 -0.000211168   -0.0568613   -0.0242519    0.0160239
   0.0907433   -0.0670744   0.00835497    0.0237681    0.0180506   -0.0331139    0.0141906 -0.000929334   -0.0013319   -0.0480389
   0.0282446   0.00581475    0.0149535    0.0602722   -0.0452071 -0.000127041    -0.012898   -0.0467922   0.00440099    0.0382325
  -0.0131117  -0.00989204   -0.0705226    -0.020024   -0.0296332   0.00728832    -0.047396  0.000230358    0.0156198    0.0377499
   0.0348204    0.0625276   0.00199085    0.0260467    0.0309768   -0.0407463     0.034318    0.0256169   0.00391981   -0.0189845
  -0.0269558    0.0174376  -0.00776638  -0.00808716    0.0165455     0.036149   -0.0641696    0.0967177  -0.00445079     0.041382
  -0.0416543  -0.00407798   -0.0170095    0.0489364   -0.0592776    0.0663515   0.00732788   -0.0541318   -0.0557474   -0.0362111
  -0.0280268  -0.00500797   0.00949185   -0.0154675    -0.026342   -0.0221394  -0.00232377    0.0320271    0.0521081     0.021212
#
   0.016881 -0.00314815   0.0540334   0.0458341   0.0543283 -0.00981634  0.00736679  -0.0247545  -0.0503851  -0.0276955
  0.0115563  -0.0193069   0.0251483   0.0421182 -0.00476962  -0.0610217   0.0842988   -0.020801  -0.0288689  -0.0178822
   0.017708   0.0098689   0.0329534  0.00722109  -0.0030749  0.00696496   0.0164429  -0.0338415 -0.00718732   -0.017304
#
!
<17>:Score:1785
Distance:0
   0.0195355  -0.00488304    0.0654795   -0.0494174    0.0428284 -0.000170673  -0.00953822   -0.0609125   0.00963131
   0.0338529   0.00826701   0.00126214    0.0313112    0.0134095    0.0180496   0.00651702    0.0043282   -0.0571435
  -0.0252038    0.0022238    0.0145786  -0.00961989   0.00219496    0.0323981    0.0496591  -0.00621711     0.018484
 -0.00518455    0.0412956   0.00474159   0.00717808     0.020713  -0.00873211   -0.0584509   -0.0289247    0.0151529
   0.0320575  -0.00477054   -0.0115228   -0.0258911   -0.0481231     0.039287   -0.0350776   0.00254985   0.00457496
  0.00118451    -0.032441    0.0591338    0.0574495  -0.00406758    0.0123837    0.0793774  -0.00947954    0.0372564
  -0.0297029   -0.0214361    0.0257979  -0.00167269   -0.0105846  -0.00926674  -0.00424282   0.00313826  -0.00745142
 -0.00632673    0.0266881    -0.029367  -0.00970371   -0.0184694   -0.0366037    0.0064328    -0.028582    -0.032016
  -0.0257377    0.0197516    0.0104324  0.000298155  -0.00740877    0.0541097   -0.0131959   -0.0178785    0.0102316
  0.00896494  -0.00298089     0.062598    0.0379587    0.0281616    0.0321451   -0.0163323   0.00613596    0.0147724
#
  0.0257557   0.0114974   0.0497515  -0.0371034   0.0189269    -0.04071  -0.0286798   0.0299951    0.035796 -0.00340464
  0.0263771  -0.0263339   -0.105965  -0.0187998  0.00167432  -0.0266244 0.000745499 -0.00236938 -0.00224158   0.0448273
  0.0417905  0.00576471 0.000885019  -0.0767441   0.0452138   0.0390466   0.0174665  -0.0535459   0.0318625  -0.0184595
  0.0359354  -0.0257343 -0.00505812   0.0140927   0.0186019  -0.0600019  -0.0340358   -0.011492 0.000169954  -0.0269479
  -0.014025   0.0242019   -0.015177  0.00317952   0.0834324  -0.0132789   0.0422438  0.00679245    0.044734    0.049473
 -0.0253075   0.0318986  -0.0255781  -0.0311781  -0.0586814 0.000355992   0.0112014 -0.00102942   0.0147094   0.0247219
 -0.0116827   0.0192589  -0.0296926   0.0338739   0.0133463  0.00589111    0.011045  0.00159086  -0.0112512  0.00518304
  0.0106156 -0.00650067 0.000591112 -0.00341165   0.0123755 0.000640914   0.0318397    0.016869 -0.00636378    0.034038
 -0.0665259    0.014179     0.03548  -0.0413467  -0.0229948  -0.0620607  -0.0124403   0.0227152   0.0295761 -0.00380679
 -0.0932498  -0.0136708  -0.0677957  0.00768433   0.0401131   0.0440407  0.00165739 -0.00360056  -0.0443391   0.0510811
#
  -0.0153926   -0.0258223 -0.000295694   -0.0288945    0.0094957   -0.0317719    0.0277121    0.0240759    0.0396346   -0.0101181
  -0.0226784   -0.0332865   -0.0197088   0.00652531  -0.00506057   -0.0238009   -0.0488032     0.029071   0.00707868   -0.0253143
   -0.014959    0.0108631    0.0255613   -0.0262843   -0.0729396    0.0321862  -0.00474348   -0.0498665    0.0121374  -0.00250373
   0.0984918   -0.0584694   0.00516832    0.0343701   0.00498124   -0.0108972   0.00348968   -0.0409936   -0.0393238   -0.0561709
   0.0467936     0.037237    0.0546097    0.0700549   -0.0283897   -0.0173767   -0.0417086   -0.0635103  -0.00854449   0.00557075
  0.00309525  -0.00332434   -0.0557744   -0.0103718   -0.0131077  -0.00162777   -0.0189603    0.0258495    0.0334576    0.0458988
   0.0259637    0.0979717    0.0153186   0.00321456    0.0565503   -0.0578927 -0.000891005   -0.0067727  -0.00691043    -0.027169
  -0.0135118  -0.00194967   -0.0234887    -0.045146   -0.0189277    0.0430172   -0.0256901      0.04649   0.00997396    0.0366751
  -0.0264201    0.0025306  -0.00237695    0.0497526   -0.0386151    0.0565765   0.00143118    -0.043929   -0.0479222   -0.0398275
  -0.0422897    -0.018504  -0.00145948   0.00280778   -0.0498178   -0.0011161   -0.0121864    0.0104605    0.0601722    0.0303977
#
  0.0257016 -0.00419448   0.0408976   0.0461517   0.0523461  -0.0155068   0.0197477   -0.022905  -0.0246036  -0.0319344
   0.027419   0.0204247   0.0376257   0.0555023  0.00863503  -0.0409951    0.041401 -0.00780573   0.0160472  -0.0221697
 -0.0124505  -0.0042977   0.0261592   0.0151442 -0.00193569  -0.0389363  -0.0114755   -0.028396  -0.0106171  -0.0149801
#
!
<18>:Score:1785
Distance:0
   0.0150252   0.00220132    0.0620556   -0.0261441    0.0343664 -0.000851582  -0.00763777   -0.0468198  -0.00649109
   0.0419001   0.00986383   -0.0193088    0.0175991    0.0191072  -0.00277003   -0.0013022  -0.00244576   -0.0509904
  -0.0288815  -0.00984493    0.0253613   -0.0117195  -0.00621367    0.0352482    0.0607735   0.00012701    0.0103227
 -0.00670202    0.0433058   0.00661712   0.00157706    0.0128296    0.0133684   -0.0311116   -0.0162031    0.0259786
   0.0376944  -0.00698872   -0.0180108   -0.0133508   -0.0487345    0.0479515   -0.0330047   0.00118597    0.0199228
  0.00722416   -0.0432277    0.0341837    0.0570152    0.0145931   0.00342107    0.0741648    -0.016828    0.0470981
  -0.0291637   -0.0168279    0.0195934   -0.0136471   -0.0160726   -0.0216312   0.00330491  -0.00168995  -0.00482803
  -0.0147665    0.0233748   -0.0327104  -0.00977898  -0.00837309   -0.0252661  -0.00329614   -0.0379104   -0.0330543
  -0.0244588    0.0109856   0.00887425   0.00741224   -0.0150107    0.0513921   -0.0150931   -0.0196431   0.00626329
   0.0117688  -0.00331531    0.0604088    0.0227756    0.0218787    0.0193082   -0.0251941   0.00894265   0.00223946
#
   0.0236738    0.0207999    0.0422505     -0.03662    0.0314174   -0.0381043  -0.00232071    0.0220154    0.0176997  -0.00510461
   0.0259518   -0.0411123   -0.0977613   -0.0338312   -0.0185576   -0.0129626   0.00504168  -0.00373342   -0.0188018    0.0366624
   0.0312477   0.00157434   0.00745634   -0.0587954    0.0385195    0.0482264    0.0186903   -0.0363941    0.0264262   -0.0155745
   0.0275987    -0.019345  -0.00548823    0.0131861    0.0190189   -0.0497411   -0.0458184  -0.00482127   0.00529428   -0.0312843
 -0.00233922    0.0175699   -0.0095942   0.00890425    0.0643847   -0.0158929    0.0590064   0.00531708    0.0546908    0.0388794
  -0.0203587     0.034294   -0.0167227   -0.0332827   -0.0631821   0.00590845   -0.0182826   -0.0126365    0.0198815    0.0381139
  -0.0180272    0.0195285   -0.0229073    0.0367324   0.00494224   0.00774716   0.00732624   0.00319913   -0.0263883   0.00507404
   0.0191583   -0.0146802   0.00210738   -0.0138564    0.0148946    0.0021881    0.0541676    0.0183825 -0.000482964    0.0446667
  -0.0826939   0.00856352    0.0486921   -0.0497103  -0.00729055   -0.0497759   -0.0235295    0.0182954    0.0233075   -0.0154386
  -0.0971026   0.00180859     -0.06811    0.0128117    0.0427295    0.0559843  -0.00684319   -0.0122839    -0.032293    0.0527369
#
  -0.0102295   -0.0176169  7.78004e-05  -0.00455682    0.0126113   -0.0257055    0.0318476    0.0153178    0.0300878  -0.00143225
  -0.0261043     -0.03883  -0.00975674 -0.000531322   -0.0184798   -0.0305847   -0.0473087    0.0296353    0.0161942  -0.00527123
 -0.00875778    0.0136098    0.0157441   -0.0455558   -0.0579954    0.0198103  -0.00389769   -0.0479826   0.00233676   -0.0017572
    0.105862   -0.0525199  -0.00460187    0.0202069   0.00837991   -0.0204861 -8.88101e-05   -0.0278915   -0.0275931   -0.0523836
   0.0372814    0.0244193    0.0394974    0.0671882   -0.0393698   -0.0178263   -0.0472347   -0.0574836   -0.0128118   0.00701847
  0.00855212   -0.0220569   -0.0622732   -0.0239414   -0.0233814   0.00255382   -0.0138913    0.0171653    0.0223004    0.0340565
   0.0316932    0.0818336   0.00923141   0.00842101    0.0368004   -0.0471234  -0.00122004   0.00109477 -0.000784704   -0.0248153
  -0.0198973 -0.000651635   -0.0216295   -0.0476556   0.00328133    0.0294479   -0.0459198    0.0508525 -0.000903941    0.0371558
  -0.0313714   0.00164528   -0.0135912    0.0381449   -0.0391652    0.0554084  -0.00834279   -0.0419998    -0.028785   -0.0259473
  -0.0520781   -0.0144265  -0.00334273 -0.000995362    -0.041437   -0.0110206   -0.0125477    0.0115351    0.0506978    0.0350016
#
   0.013513  0.00276898   0.0178398   0.0357528   0.0489743  -0.0110268   0.0193084  -0.0212603  -0.0315254  -0.0336296
  0.0306456  0.00778725   0.0193177   0.0439874  0.00728673  -0.0506183   0.0577744  -0.0111652  0.00929309  -0.0225658
-0.00213397    0.008033   0.0288043  0.00598597  -0.0119231  -0.0262097 -0.00880071   -0.032192 -0.00926175 0.000322617
#
!
<19>:Score:1785
Distance:0
  0.0104749  -0.0170731   0.0623938  -0.0384317   0.0240339 -0.00312876  0.00293328  -0.0665376 -0.00577411
  0.0496553 -0.00875079   -0.028191 -0.00215561   0.0138639 -0.00400847  0.00828054 0.000471591  -0.0595408
 -0.0372136  -0.0212211   0.0164835 -0.00844494     0.01013   0.0285493   0.0575442 0.000110454  0.00517475
 -0.0129673   0.0297924  0.00653767  0.00649768   0.0133727   0.0250125  -0.0476064  -0.0189482   0.0254093
  0.0284244    0.012426  -0.0357642  -0.0220628  -0.0421063   0.0591228  -0.0190765 -0.00543881   0.0359812
 0.00983048  -0.0489586   0.0124288   0.0738018  0.00314681  -0.0014592   0.0768102  -0.0265187   0.0360447
  -0.034037  -0.0161355  0.00535662   -0.015323  -0.0220402  -0.0321445 0.000267832   0.0295198 -0.00370966
0.000201908   0.0256482  -0.0309136 -0.00805786  -0.0149246  -0.0207416   0.0154336  -0.0362924   -0.034479
 -0.0389935 -0.00432764    0.024729  0.00549193  0.00726693   0.0451521  -0.0122523  -0.0249645  0.00955894
 0.00872955  0.00133553   0.0689477   0.0292866   0.0241863   0.0222634 -0.00895132 -0.00148405  -0.0241737
#
   0.0357497     0.014904    0.0458607   -0.0277348    0.0461282   -0.0231484  -0.00483743    0.0109124     0.022387  0.000942879
   0.0235707   -0.0281128    -0.103336   -0.0356984   -0.0074693   0.00237788    0.0115655   0.00640144   -0.0219902    0.0409475
   0.0437687   0.00774104    0.0132445    -0.063868    0.0371695    0.0445643     0.020197   -0.0458711    0.0257058  -0.00987321
   0.0247914  -0.00767589   -0.0230772    0.0117794    0.0323478   -0.0523176   -0.0540184   0.00509475   0.00399958   -0.0340701
   0.0118663      0.01353   0.00285044   0.00548053    0.0616558   -0.0209893     0.067792   0.00316573    0.0544587     0.053476
 -0.00607334    0.0531701    -0.029974   -0.0185774   -0.0413132   0.00256227   -0.0293657   -0.0167573    0.0236357    0.0324073
-0.000664907    0.0209551   -0.0288945    0.0386084   0.00613786    0.0076965  -0.00386811    0.0190774   -0.0193327   0.00420873
   0.0253992   -0.0305936    0.0118615    -0.018842     0.021719   0.00426201    0.0435966    0.0176182   0.00703463    0.0430104
  -0.0699041  -0.00378084    0.0448289   -0.0700771  -0.00734559   -0.0504785   -0.0508995    0.0211549    0.0264282  -0.00561414
   -0.094929   -0.0087731   -0.0535468    0.0219616    0.0632609    0.0691899  -0.00171799   -0.0125585   -0.0233365    0.0342407
#
 -0.0106143  0.00529774  0.00889961  -0.0202826   0.0199998  -0.0167103   0.0270667  0.00373336   0.0508708  0.00274556
 -0.0291486  -0.0391092  0.00126639  -0.0157712  -0.0351671  -0.0271042  -0.0403722   0.0423502   0.0206769   0.0157935
 -0.0263291   0.0114008   0.0195468   -0.054032  -0.0480161   0.0257891  -0.0154621  -0.0498181  -0.0136806  0.00294931
   0.106379  -0.0490599   0.0044105   0.0318621   0.0103115 -0.00808893   0.0124454  -0.0273754  -0.0277338  -0.0283829
   0.031921   0.0239332   0.0485502   0.0657766  -0.0516251  -0.0301849  -0.0339828  -0.0528007  -0.0102585 -0.00567475
  0.0281624  -0.0293777  -0.0553094  -0.0104458  -0.0126851  0.00185423  -0.0037383   0.0124582   0.0307874   0.0151739
  0.0396583   0.0893498    0.019767   0.0209717   0.0311833  -0.0529569  0.00186019  0.00298352    0.016636  -0.0237759
 -0.0188624  0.00733365  -0.0157807  -0.0561236  0.00999724   0.0376599  -0.0425319   0.0325606 -0.00380686   0.0374541
 -0.0297208   0.0105371  -0.0228076   0.0390925  -0.0325275   0.0679903  -0.0187891  -0.0384347  -0.0110735  -0.0329981
 -0.0593099  -0.0145587  -0.0260939  0.00349324  -0.0360146  -0.0166535 -0.00934031  0.00791972   0.0482783   0.0279173
#
  0.0146628   0.0134363   0.0191757   0.0275073   0.0603472 -0.00326608   0.0157736 -0.00240819  -0.0420834  -0.0218002
  0.0354514  0.00175436   0.0103756   0.0313935 0.000107217  -0.0311001   0.0651968  -0.0283829   0.0219642  -0.0372518
  -0.019108   0.0130358   0.0388489 -0.00524983 -0.00875849  -0.0254752 -0.00907866 -0.00961332 0.000727292  0.00114453
#
!
<21>:Score:1785
Distance:0
   0.0133416   0.00783661    0.0770553   -0.0176189    0.0313754  -0.00496145   -0.0172723   -0.0463979   -0.0153133
    0.042639    0.0144177   -0.0127524    0.0168195   0.00843223 -0.000633243  0.000660462  -0.00854406   -0.0486144
  -0.0312831   -0.0234852    0.0331675   0.00250384  -0.00907269     0.039641    0.0541287  0.000856237  -0.00147048
 -0.00298052    0.0234216    0.0109289    0.0135506    0.0146839   0.00699875   -0.0222554   -0.0271977     0.017006
   0.0370811  -0.00128175    -0.014726  -0.00587679   -0.0535858    0.0581683   -0.0413619   0.00394318    0.0416908
  0.00724887   -0.0389807    0.0453826    0.0501262  -0.00224568   0.00888811    0.0839286     -0.01334    0.0590922
  -0.0271608   -0.0273342    0.0247176   -0.0116633   -0.0114242   -0.0274719     0.019332  1.89648e-06  -0.00608093
 -0.00553744    0.0140029   -0.0321448   -0.0232003   -0.0056039  -0.00796912  -0.00151419   -0.0497406   -0.0354276
  -0.0227844    0.0138684    0.0129088  -0.00716742   -0.0073659    0.0628306   -0.0142844   -0.0193372   0.00997636
   0.0104213   -0.0102525    0.0856468    0.0158883    0.0128737    0.0183075   0.00184653  -0.00315043    0.0155744
#
   0.0304817    0.0199363    0.0432286   -0.0510852    0.0355609    -0.038623  0.000452575    0.0290446    0.0106359   -0.0158748
   0.0211627   -0.0432785    -0.093121   -0.0389106   -0.0149892   -0.0249678   0.00599508 -0.000710178   -0.0222366    0.0276917
   0.0272097   0.00295293    0.0352431   -0.0587337    0.0433518    0.0418184    0.0168965   -0.0437865    0.0289934   -0.0106501
    0.017272   -0.0240373  -0.00647266    0.0115963    0.0199408    -0.032997   -0.0562153   0.00015151    0.0145889   -0.0249986
  0.00315908    0.0405332    -0.013952  -0.00609115     0.047452   -0.0271148    0.0564785  -0.00463082    0.0405937    0.0472122
  -0.0256688    0.0369514   -0.0226394   -0.0416503   -0.0460277    0.0245155   -0.0195539   -0.0248687    0.0423468    0.0346392
 0.000577043   0.00726813   -0.0293361    0.0385574  -0.00723241   0.00221439    0.0101577   0.00378142   -0.0185602    0.0114884
   0.0134704   -0.0101599  -0.00186286    -0.019707    0.0166171    0.0120865    0.0568846    0.0258873  -0.00761602    0.0523384
  -0.0804288   0.00803063    0.0448391   -0.0483197  -0.00792613   -0.0309515   -0.0280136    0.0214807    0.0380922    -0.017766
    -0.10547   -0.0161391   -0.0631267    0.0254224    0.0416887    0.0597794   -0.0127187  -0.00824936   -0.0354161    0.0427113
#
 -0.00993777   -0.0243252  -0.00266025  -0.00130797    0.0243637   -0.0273808    0.0377009    0.0138056     0.022805   -0.0138204
  -0.0221146   -0.0217198  -0.00692426  -0.00522124   -0.0263812   -0.0217508   -0.0479433    0.0204277    0.0134093    0.0012116
  -0.0137538    0.0118287    0.0251876   -0.0393285   -0.0526062    0.0135216  -0.00541534   -0.0493344  -0.00816659   -0.0126263
   0.0938551   -0.0672508  -0.00149844    0.0274835   0.00840383   -0.0215809 -0.000895376   -0.0143172   -0.0077833    -0.040314
   0.0392589     0.015391    0.0313667    0.0620855   -0.0381595   0.00222919   -0.0344068   -0.0599772   -0.0129632   0.00908195
 0.000876671   -0.0206606   -0.0707687   -0.0261308   -0.0230441  -0.00189226   -0.0258171   0.00775038    0.0220394    0.0432273
   0.0322939    0.0871475  -0.00335411    0.0211261    0.0361114   -0.0429104    0.0152469    0.0109998   -0.0105222   -0.0135025
  -0.0197608  -0.00083252   -0.0123811   -0.0350216   0.00776191    0.0333025   -0.0523259    0.0602161  0.000242698     0.035161
  -0.0245878  -0.00694199   -0.0241217    0.0426856   -0.0411657    0.0530635  -0.00574585   -0.0374575   -0.0340261   -0.0414807
  -0.0522102   -0.0237093   0.00175921   -0.0110563   -0.0425877  -0.00637292   -0.0168428     0.018629    0.0567428    0.0387899
#
  0.0130338 -0.00127059   0.0229591   0.0438606   0.0451017   -0.013744   0.0184499  -0.0251315  -0.0294256  -0.0374837
  0.0192477  0.00735085   0.0169771   0.0441499  0.00912876   -0.046967   0.0734631  -0.0121789 -0.00704891  -0.0273111
0.000299082    0.010281   0.0332237  0.00713127   -0.020357 -0.00525663   0.0020138  -0.0385598  -0.0203653  -0.0126999
#
!
<22>:Score:1785
Distance:0
  0.0204968   0.0108523   0.0835074  -0.0191376   0.0423039  -0.0111982   -0.014928  -0.0511816  -0.0220045
  0.0265527  0.00927569  -0.0233837   0.0247266   0.0205738   0.0246705  -0.0191981  0.00777413  -0.0472226
 -0.0257714  -0.0218458   0.0335531  0.00683935  -0.0142303   0.0316126   0.0517509 -0.00111409 -0.00904435
 -0.0163066  0.00743613  0.00208304   0.0221053  0.00320642 0.000918482  -0.0223964  -0.0263224   0.0321829
  0.0305361 -0.00586368  -0.0114221   0.0123924   -0.056576   0.0545754  -0.0409008   0.0108906   0.0467497
  0.0148859  -0.0347943   0.0490762   0.0527824 -0.00282098  0.00120905   0.0975349  0.00290678   0.0471157
 -0.0181734  -0.0232964   0.0263948  -0.0122994  0.00292673  -0.0172668    0.019533 -0.00376383   0.0144716
 -0.0197765  0.00861816  -0.0310001  -0.0270729 -0.00238297 0.000690573 -0.00465367  -0.0394075  -0.0253878
 -0.0344518   0.0239398 -0.00651219   -0.011617  -0.0112938   0.0627559  -0.0340256   -0.024112   0.0090322
  0.0101803 -0.00845497   0.0942576   0.0288178  0.00979311   0.0100189  0.00171641  -0.0154915   0.0150228
#
  0.0434725    0.012478   0.0475761  -0.0530419   0.0391189  -0.0302317 -0.00800193   0.0198876   0.0126005  -0.0266777
  0.0387828  -0.0361953  -0.0956473  -0.0409169  -0.0347507   -0.028677 -0.00901221   0.0195981  -0.0283545   0.0159085
  0.0169599   0.0029958   0.0368367  -0.0548869   0.0499443    0.044655  0.00593623   -0.031984   0.0397459  -0.0110322
  0.0179229  -0.0267445  -0.0196272   0.0211646   0.0361152  -0.0109257  -0.0525905  0.00822426   0.0115193  -0.0317518
 0.00400516   0.0233792  -0.0172454  -0.0104619   0.0553074  -0.0290197   0.0467744  -0.0328491   0.0364147   0.0360998
 -0.0126277    0.040979  -0.0273353  -0.0277223   -0.044804   0.0249556  -0.0114437  -0.0184271   0.0352474   0.0607302
  0.0122107  0.00104571  -0.0442685   0.0304678   -0.019043 0.000100238    0.021317    0.013722  -0.0104474   0.0281754
  0.0215876   0.0112378  0.00607906  -0.0105517    0.034254   0.0224919   0.0560031   0.0191535  -0.0129301   0.0745534
 -0.0971326   0.0128124   0.0510136  -0.0409561 -0.00868275  -0.0382729 0.000837979   0.0225365   0.0429867  -0.0135257
  -0.101495  -0.0166119  -0.0572743   0.0114813   0.0461013   0.0574753  -0.0217595 -0.00860574  -0.0280252   0.0271331
#
 -0.00740692   -0.0407848   0.00165468   -0.0127773    0.0393261   -0.0309602    0.0440261   0.00168885    0.0218901   -0.0153227
  -0.0143857   -0.0208308   -0.0102243   0.00276262   -0.0302774 -0.000546796   -0.0630368    0.0216433     0.026069    0.0125674
  -0.0240527   0.00295683    0.0278679   -0.0244921   -0.0535374   0.00397853   -0.0219591   -0.0497187    -0.020781   -0.0196693
   0.0865501   -0.0637093 -5.43172e-05    0.0371912    0.0135049   -0.0413196   0.00448165   0.00558707  -0.00269574     -0.05706
   0.0328588    0.0133836    0.0223087    0.0523889   -0.0489562    0.0034911   -0.0294622   -0.0627247   -0.0315106     0.024243
  0.00239754    -0.030338   -0.0689036   -0.0163121  -0.00977445    0.0104668   -0.0215115      0.01726    0.0117083    0.0461749
   0.0205825     0.113416   0.00344717  -0.00190251    0.0481461    -0.031724       0.0143   0.00939453  -0.00970682   -0.0188069
  -0.0131184   0.00280817   -0.0136934   -0.0389638    0.0148493    0.0442958   -0.0576494    0.0687857  0.000306969    0.0590044
   -0.024787    0.0139856    -0.012094    0.0334484   -0.0419927    0.0373864   -0.0116245   -0.0320938   -0.0341107   -0.0399445
  -0.0645043   -0.0192706   -0.0078947   -0.0103697   -0.0337795 -0.000352491   -0.0310374    0.0154497    0.0662222    0.0396043
#
   0.0178256   0.00423466   0.00590654    0.0316215    0.0357665  -0.00997187    0.0265339   -0.0288158   -0.0146401   -0.0416883
    0.013332     0.014433    0.0238178    0.0597709    0.0198427   -0.0221666    0.0629144  -0.00905187   0.00705182   -0.0293841
-0.000613278   0.00145193    0.0232475  -0.00618697   -0.0253526   -0.0158454   -0.0118991    -0.039262   -0.0131098   -0.0196036
#
!
<23>:Score:1785
Distance:0
   0.0170701   0.00272193    0.0516009   -0.0235968    0.0361396  -0.00833396    0.0046902   -0.0510419  -0.00964726
   0.0465235    0.0130715 -0.000936305    0.0180342   -0.0106591   0.00448278    -0.023526   0.00487786    -0.040076
  -0.0356114   -0.0153949    0.0273992    0.0130838  -0.00148685    0.0420352    0.0232305   -0.0201548   -0.0305305
   0.0130443    0.0377223   0.00363282      0.00145    0.0152265    0.0072754   -0.0202515   -0.0333339   -0.0032266
   0.0397498    0.0124021   -0.0098568   -0.0171001   -0.0527515     0.051593   -0.0380213   0.00109153    0.0189343
   0.0437135   -0.0217307    0.0491888     0.047837   -0.0058698    0.0173241    0.0939526   -0.0200334    0.0588206
   -0.037271   -0.0111727     0.016516   -0.0280691    0.0116371   -0.0187048    0.0132404    0.0077646   0.00359555
   0.0137915    0.0110797   -0.0314505   -0.0284788    0.0102332    0.0101149   0.00145556    -0.050178  -0.00234332
  -0.0208041    0.0126076  -0.00222098   -0.0141946  -0.00469061    0.0598187  -0.00986763  -0.00498716    0.0244712
  -0.0118143    0.0168256     0.100613    0.0152496  -0.00688011   0.00540648  -0.00667379   -0.0202807    0.0291221
#
   0.0239868    0.0284324     0.056847   -0.0583782    0.0658514   -0.0464072    0.0015881    0.0358427   -0.0040355  -0.00437547
   0.0206077      -0.0425    -0.103485   -0.0705025 -0.000311013  -0.00764377    -0.003145    0.0298383  -0.00518088    0.0323293
   0.0363187    0.0299259    0.0357301   -0.0579588    0.0476235    0.0394542    0.0213583   -0.0370614    0.0197913   -0.0111553
   0.0114458   -0.0378861  -0.00700276     0.015721   -0.0166786    -0.079154   -0.0462384   -0.0270507   0.00798997   -0.0304851
  -0.0168927    0.0330445   -0.0243382    -0.011562     0.056223   -0.0233945    0.0651847  0.000313091    0.0193932    0.0398862
  -0.0255399    0.0493283   -0.0226558   -0.0252341   -0.0434315    0.0370857    -0.018587   -0.0232649    0.0403032     0.036129
   0.0268607    0.0394631   -0.0102297    0.0391205    0.0100283  -0.00420075   0.00794781    0.0145675   0.00264077    0.0261864
   0.0397589  -0.00132969  -0.00135506 -0.000179083    0.0371122   0.00875473    0.0605915    0.0123636  -0.00824404    0.0249951
   -0.107473     0.023823      0.03561   -0.0566064   -0.0401719   -0.0258485   -0.0132065    0.0294614    0.0407539   -0.0184883
   -0.115495   -0.0373957   -0.0701462    0.0362813    0.0695528    0.0468021   -0.0507959   -0.0357898   -0.0230378    0.0340745
#
-0.000675798   -0.0344402   -0.0117913   0.00334782    0.0272465   -0.0310241    0.0591867  -0.00810094    0.0160969   -0.0231465
 -0.00708862   -0.0215161   -0.0166208  -0.00462035   -0.0210234   -0.0298386   -0.0427017    0.0334191   0.00878663   0.00183001
 -0.00366521    0.0431893    0.0015219   -0.0598664   -0.0342208    0.0233082   0.00748445   -0.0437323   -0.0220231   0.00126132
   0.0953996    -0.090857   0.00371101    0.0206081    0.0112731  -0.00801651    0.0247028   -0.0116595    0.0201013   -0.0414731
    0.026351    0.0235959    0.0359546    0.0515635   -0.0551839   0.00661621   -0.0369602   -0.0367565   -0.0251718    0.0349725
  -0.0090416   -0.0241172   -0.0633492   -0.0385249   -0.0356551   -0.0149312   -0.0390452 -0.000456049    0.0137907    0.0366995
   0.0482258    0.0860769   -0.0075842    0.0176393    0.0358175    -0.051309    0.0189228    0.0304743    0.0146693  -0.00455496
   -0.030709    0.0157236   -0.0268396    -0.032988   0.00129594    0.0434141   -0.0377714    0.0779156   0.00596392    0.0460419
  -0.0226231    0.0073232   -0.0134122     0.049436   -0.0597085    0.0361899   -0.0152497   -0.0562269   -0.0238134   -0.0588555
  -0.0461547  6.92648e-05    0.0260121   -0.0117896   -0.0258043   -0.0137639   -0.0190191    0.0157231    0.0543985    0.0397701
#
  0.0149154 -0.00154742   0.0356156   0.0400483   0.0636954  0.00578412   0.0117858  -0.0356985  -0.0398617  -0.0258499
  0.0300102  -0.0101585   0.0162948   0.0420708 0.000858203  -0.0509102   0.0804176  -0.0122305 -0.00836032  -0.0274203
 0.00858799    0.022188   0.0532909   0.0267318  -0.0207543 -0.00829025 -0.00868154  -0.0359532  -0.0154397 -0.00369152
#
!
<24>:Score:1785
Distance:0
   0.0205806    0.0183115    0.0692124   -0.0114267    0.0681475   -0.0262761    -0.029386   -0.0575193    -0.018204
   0.0495813  -0.00336141    -0.013485   0.00873988   -0.0135098 -2.40162e-05   -0.0114128   0.00934677   -0.0617573
  -0.0446233   -0.0403874     0.033554    0.0192845   -0.0292812    0.0348258    0.0509871  -0.00803906   -0.0105781
 0.000458996    0.0366686    0.0169143   0.00715052 -0.000320594   0.00236636  -0.00506824   -0.0316637  -0.00260503
   0.0481522     0.013261  -0.00221777   -0.0293234   -0.0642009    0.0597082   -0.0535395    0.0152088    0.0343892
   0.0440932   -0.0214659    0.0528964    0.0315749  -0.00510255    0.0279895     0.098494   -0.0417468    0.0442082
  -0.0226642   -0.0198329  -0.00202822   -0.0112184   -0.0119095   -0.0145191    0.0197721   0.00493976    0.0109717
-0.000330736    0.0243594   -0.0352873   -0.0255398   -0.0143478   -0.0106581    0.0184968   -0.0492291   -0.0376498
  -0.0299729  -0.00206765    -0.015136   -0.0234496  0.000116093    0.0788275  -0.00490417   -0.0130153  -0.00172789
   0.0310792  -0.00286512    0.0938373    0.0181271    0.0195771    0.0176965   0.00928227   0.00190322    0.0432734
#
  0.0347037  0.00427981   0.0507529  -0.0624316    0.050134  -0.0519954  -0.0273104   0.0386033  -0.0233959 -0.00658812
 0.00779587  -0.0539081   -0.107354  -0.0499737  0.00951424  -0.0196085  0.00846101   0.0187834  -0.0220358   0.0534581
  0.0329298   0.0210768   0.0260816  -0.0624739   0.0450422   0.0409578   0.0232737   -0.043855   0.0306803   0.0242897
-0.00333247  -0.0518789   0.0075662   0.0270429  0.00057364  -0.0523041   -0.059913  -0.0175862  0.00766621  -0.0191054
 -0.0171511   0.0499589   0.0117676  -0.0241335   0.0490694  -0.0298791   0.0575767  0.00577849   0.0264097   0.0397931
