<0>:57
   0.025737  -0.0107602  -0.0075334  -0.0317065   0.0709932  -0.0475887  -0.0102355  0.00119321   0.0128273
  0.0130706  0.00785795   0.0272585  -0.0192201  -0.0387366  0.00671492 -0.00659909   0.0181857  0.00245898
 -0.0642026  -0.0134042  -0.0319179   0.0124007  -0.0123912   0.0161129  0.00214177   0.0515776 -0.00831221
 -0.0107312  -0.0165401   0.0200257 -0.00655112  -0.0408366  0.00347957   0.0203164    0.027915 -0.00123328
 -0.0666149  -0.0156754   0.0368518   0.0107951    0.021943  -0.0136526  -0.0389354   0.0348766   0.0254618
-0.00563613   0.0125728   0.0252848  -0.0137932  -0.0205715   0.0374019  -0.0317894   0.0109372   0.0518472
  0.0496965   0.0319948   0.0428884  -0.0249922   0.0615701   0.0532075  -0.0212371     0.01565   0.0271306
 -0.0232741  -0.0251245 -0.00829213  -0.0118641   0.0603526   0.0092938   0.0382071  -0.0431606   0.0280495
 -0.0287124  -0.0274221  -0.0228167 -0.00797987   0.0304254  -0.0157245   0.0457199  -0.0158935  -0.0301226
  0.0513071   0.0262031   -0.033266  -0.0252692    0.035377  0.00259644  -0.0063172  -0.0183779   0.0461734
#
  0.0110732  0.00993063 -0.00793599  0.00631204   0.0314997  0.00354366  0.00805062  -0.0134073  -0.0248778   0.0300668
  0.0428369  -0.0141407  0.00355495   0.0133276  -0.0342245   0.0350738 -0.00693829  -0.0670316  0.00370293 -0.00436623
  -0.019794   0.0607682 -0.00553405   0.0459132   -0.011421   0.0533216  -0.0167583  -0.0227909   0.0324887  -0.0115507
 -0.0271302   0.0364877 0.000224039  -0.0411131  -0.0108626  -0.0128788  -0.0232504   0.0187259 -0.00212828   0.0137193
-0.00421217 0.000640765 -0.00572337  -0.0121775   0.0437009   0.0530037   0.0508051  -0.0218884  -0.0137002  -0.0482635
 -0.0671546   0.0152775  0.00432387   0.0122385   0.0475939  -0.0217485 0.000770451  -0.0847598   0.0408156  -0.0459643
 -0.0446319  0.00413844   0.0211314  -0.0888103  -0.0226293 -0.00123125   0.0209653   -0.034786  0.00974756   0.0302922
 -0.0177573  0.00590938   0.0503006  -0.0531718  -0.0329189  -0.0153351  -0.0197676  -0.0143721   0.0667331 -0.00206013
-0.00759795  0.00317103  -0.0367864   0.0520539  0.00185591  -0.0136549   0.0109947  -0.0219127   0.0689935 -0.00230253
  0.0102921  -0.0760756  -0.0552522   0.0424061 -0.00748686  -0.0248843   0.0423177    0.027266   0.0318291  -0.0559374
#
   0.0504998    0.0196999   0.00047434  -0.00155217    0.0400637   -0.0210108    0.0259391   -0.0234107   0.00827111    0.0228067
  -0.0578504   -0.0375949    0.0802172  -0.00482867    0.0149597   -0.0315323   -0.0102224    0.0176056    0.0232381   -0.0350937
  -0.0175522   -0.0493876   -0.0643315   -0.0265264    0.0125357   -0.0317557   -0.0366801  -0.00178244    0.0428894    0.0513298
  -0.0285168    0.0151879     0.070695   -0.0277422    0.0110324    0.0420622    0.0389467   -0.0693007   0.00188069   -0.0117186
  0.00562934    0.0110015    -0.027687   -0.0307804    0.0114784    0.0390373   0.00467498   0.00617679   -0.0228438   -0.0551712
   0.0155931    0.0140002     0.016816  0.000432162   -0.0207804   -0.0299127   0.00855492   -0.0282882   -0.0703057   -0.0225426
  -0.0060369   -0.0556001     0.042456  -0.00743126   -0.0120592   -0.0109476    0.0290263   0.00196739     0.025384    0.0297229
 -0.00196748  -0.00990265   -0.0989223   -0.0475119    -0.041192    0.0174825    0.0331084    0.0124427   -0.0756689   -0.0171548
  -0.0368983    0.0286901 -0.000246429   -0.0415126  -0.00445353   -0.0347168    0.0413284   -0.0207182    0.0280396  -0.00439796
   0.0240137   -0.0114334    0.0191741     0.014476   -0.0030855     0.045902   -0.0243276   -0.0163092    0.0229698    0.0192389
#
   0.0149667   0.00100663   -0.0108651   -0.0369186    0.0173767 -0.000732745   -0.0199218  -0.00525597    0.0275563   -0.0375898
 -0.00954187  -0.00375867    0.0168685    0.0766329    0.0111792   -0.0627117    -0.057975   -0.0250104   -0.0205889    0.0459799
  0.00186536    0.0520679    0.0539607    0.0144452   -0.0155105   -0.0547379  -0.00833608   -0.0159079    0.0555287   -0.0428487
#
!
<62>:57
  0.0261217  -0.0170998  -0.0161535  -0.0509276   0.0939092  -0.0727064  -0.0221386 -0.00937513    0.014315
   0.021539  0.00194777   0.0466772  -0.0142775  -0.0204504 -0.00280153  -0.0194591   0.0340159 -0.00719026
 -0.0726843  -0.0174715   -0.047178   0.0133135 -0.00444769   0.0197376  0.00473942   0.0473868  0.00809877
 -0.0236115  -0.0207219   0.0166615   -0.012349  -0.0446439  0.00359082   0.0277869   0.0432522  -0.0115569
 -0.0578499   -0.025497   0.0346197   0.0244134  0.00443682 -0.00814828  -0.0306532   0.0235149   0.0257825
-0.00172779   0.0205141   0.0176871  -0.0421151  -0.0141566   0.0301871  -0.0225443   0.0238302   0.0257191
  0.0390922   0.0116149   0.0344791  -0.0382802   0.0774672   0.0376596  -0.0131734   0.0316587   0.0188485
 -0.0144849  -0.0335488  0.00457415  0.00351428    0.073852   0.0398372   0.0370867  -0.0469572   0.0277899
 -0.0196413  -0.0199047  -0.0418876 0.000505686   0.0474656 -0.00499355   0.0523304   -0.018166  -0.0323319
    0.07269   0.0285571  -0.0227705 -0.00702189   0.0317044 -0.00468006  -0.0226839  -0.0198925   0.0404713
#
 -0.00137059   0.00365425   0.00655275    0.0227009     0.013191    0.0255787   0.00572214   0.00954296   -0.0186003     0.029725
   0.0497218 -0.000314601    0.0138152  -0.00807103   -0.0390095    0.0257746  -0.00534747   -0.0617385   -0.0094545   -0.0324608
  -0.0243351    0.0705083   -0.0211571    0.0380339  -0.00349483    0.0567138   -0.0128605   -0.0125553    0.0364544   -0.0100564
   -0.032416    0.0171931  -0.00530167    -0.026259 -0.000606307  -0.00447942   -0.0313299    0.0181293    0.0155963  -0.00942109
   0.0089659    0.0236853   0.00811242   0.00708272    0.0210755     0.046427    0.0273736   -0.0372046   -0.0244338    -0.049366
  -0.0767385   0.00621679  0.000115659  -0.00526258    0.0509643    -0.016469   0.00139223   -0.0746727    0.0482998   -0.0382727
  -0.0657202 -0.000740023  -0.00590986    -0.087675    -0.013626  -0.00347402    0.0284968   -0.0324645   0.00236127   0.00492878
 -0.00743639    0.0190661    0.0293601    -0.040238   -0.0324379  0.000526579  -0.00287692   -0.0243679    0.0709991   0.00456694
   0.0147872    0.0149359   -0.0111354    0.0717394   -0.0116196   -0.0282282  -0.00829888   -0.0166205    0.0556914   -0.0135003
  0.00358118    -0.090288   -0.0388522    0.0337124  -0.00614197  -0.00527138    0.0256715    0.0375757   0.00831085   -0.0550855
#
  0.0345198 -0.00140474   -0.011966  -0.0243529   0.0680403  -0.0122528   0.0310821  -0.0137216  0.00331842    0.029011
 -0.0807654  -0.0489781   0.0719044 0.000328185  0.00159288  -0.0136965 -0.00849109   0.0112285   0.0374552  -0.0458403
-0.00985919  -0.0624522  -0.0731414  -0.0271598   0.0114291  -0.0400544  -0.0335704   0.0101807   0.0424587   0.0287403
 -0.0214774   0.0013023   0.0676869  -0.0113284   0.0168675    0.039695   0.0340639  -0.0847681 -0.00535483  -0.0127475
-0.00880872  0.00664472 -0.00721821 -0.00104325    0.014569    0.033936  0.00883343  0.00531097 -0.00390472  -0.0504983
  0.0199572   0.0155784 -0.00448453  0.00403423  -0.0373598  -0.0446204   0.0389551  -0.0286276  -0.0640359  -0.0336981
-0.00848693  -0.0593496    0.028217  -0.0236116  -0.0041826  -0.0104505   0.0274403  0.00404619  -0.0100602   0.0266526
 0.00365777  -0.0185415  -0.0962716   -0.037917   -0.045266  0.00843274   0.0401856  0.00550252  -0.0787755   0.0123944
 -0.0252048   0.0430535   0.0178108  -0.0312616   -0.027803    -0.02915   0.0351767 -0.00839335    0.022413  0.00910605
  0.0358814  -0.0111631  0.00444512   0.0150891  -0.0144466   0.0447871  -0.0291087  -0.0277682   0.0366853  0.00648353
#
  0.0303365   0.0199571 -0.00871007  -0.0235826  0.00144048  -0.0179618  0.00253513  -0.0309421   0.0240433  -0.0380613
 -0.0139416  -0.0209219   0.0216903   0.0890405   0.0162614  -0.0799737  -0.0463837  -0.0322982 -0.00499182   0.0436346
 0.00466927   0.0708015   0.0657192   0.0347489   -0.039504  -0.0695269   -0.024954  -0.0231849   0.0651892  -0.0341437
#
!
<77>:54
  0.0391848  -0.0314334 -0.00208854  -0.0446914       0.086  -0.0589274  -0.0174252 -0.00104133   0.0125423
  0.0161676   0.0299844   0.0283902  -0.0103959  -0.0438514  -0.0156851  -0.0184063   0.0275327   0.0147194
 -0.0794124  -0.0198533  -0.0363874   0.0132975  -0.0127855   0.0191745  0.00889118   0.0662472  -0.0181897
-0.00369324   -0.028566 -0.00241828  0.00780596   -0.046022   0.0193481   0.0231716   0.0145241  -0.0113126
 -0.0411784  0.00162482     0.04724    0.028213   0.0165148  -0.0197499   -0.027871   0.0227895    0.037698
  0.0161581   0.0156983   0.0185756  0.00387323 -0.00179477   0.0313531  -0.0426347   0.0197188   0.0197302
  0.0369227   0.0257331   0.0399782  -0.0205213    0.069513   0.0586619  -0.0311098   0.0113845   0.0170552
 -0.0114813  -0.0378279  -0.0126386  -0.0239049   0.0542641  0.00299075   0.0378592  -0.0475694     0.03625
 -0.0159716  -0.0334033  -0.0129828  0.00139294   0.0172145 -0.00580214   0.0395979  -0.0241898  -0.0434799
  0.0415542   0.0151854  -0.0348279  -0.0137499   0.0274834   0.0112104 -0.00256895   -0.034127   0.0239744
#
 -0.00971386 -0.000950681  -0.00423288  -0.00971998    0.0324883    0.0252857   0.00383841  -0.00578748   0.00341139    0.0246877
   0.0486057   -0.0111714    0.0128331  -0.00775762    -0.027569    0.0398509  -0.00100696   -0.0709346   0.00350963  -0.00477905
  -0.0178212    0.0398994   -0.0106633    0.0276052    0.0149076    0.0556019   -0.0195597   -0.0167146    0.0165617  -0.00718999
  -0.0104403    0.0167887   -0.0109233   -0.0282957   -0.0035093   0.00123504   -0.0143144   0.00827118   0.00398649   -0.0252837
 0.000609052  -0.00143924  -0.00958124   -0.0156532    0.0299237    0.0381808    0.0188309   -0.0293798  -0.00791091   -0.0445961
  -0.0539372   0.00880957  -0.00821293   0.00204699    0.0402349   -0.0471884  -0.00423327   -0.0813801    0.0454331   -0.0769531
  -0.0561788   0.00832261    0.0277109   -0.0957586   -0.0103267   -0.0145357    0.0424152   -0.0458634   0.00431842    0.0259996
  -0.0279249    0.0260466    0.0467624   -0.0629177   -0.0385366     0.014388  -0.00810633   -0.0110962    0.0516325    0.0059296
 -0.00582703   -0.0102356   -0.0278128    0.0261857  -0.00119964   -0.0231914    0.0146562  -0.00124221    0.0853433   0.00987279
  0.00224269   -0.0957414   -0.0571436    0.0301605 -0.000945211   -0.0271506    0.0259575    0.0240928    0.0398662   -0.0412213
#
  0.0634811   0.0125535  0.00394579  0.00341323    0.059374 -0.00688905   0.0375375  -0.0203445   0.0152712    0.030075
 -0.0532621  -0.0271339     0.07639  -0.0116078   0.0370787  -0.0316638 -0.00893242   0.0104288   0.0280583 -0.00675486
 -0.0232606  -0.0510561  -0.0717791  -0.0302182   0.0218062  -0.0403974  -0.0370943   0.0062485   0.0334259   0.0391541
 -0.0288353  0.00335641   0.0777568   -0.030431   0.0171451   0.0330058   0.0443203  -0.0754754  0.00588197  -0.0179319
 -0.0148419   0.0228039  -0.0194064  -0.0208552   0.0126548   0.0330491   0.0130858  0.00903308  -0.0121309  -0.0563087
0.000976488  0.00864853   0.0255513   0.0136436 -0.00152922  -0.0507042   0.0248601 -0.00856337  -0.0415647  -0.0183953
 0.00590651  -0.0511486   0.0381381 -0.00287769  -0.0141652  -0.0137259  0.00854583  0.00138304   0.0107021   0.0294607
  -0.012738   0.0113074  -0.0849421  -0.0369247  -0.0395964   0.0223357   0.0284539   0.0126515  -0.0848442  -0.0138711
 -0.0356321   0.0218868  -0.0112023  -0.0226442  -0.0173871   -0.044726   0.0541987   0.0113905   0.0108093 -0.00983429
  0.0236559  -0.0122189  0.00828211  0.00818665 0.000780364   0.0572272  -0.0406693  -0.0081911   0.0283415   0.0225247
#
  0.0217653  0.00325916  -0.0148109  -0.0288486    0.011509  -0.0114336 -0.00758277  -0.0138084   0.0307632  -0.0475055
 0.00678358  -0.0255801   0.0118071    0.100852  0.00825493  -0.0774965  -0.0597724  -0.0318429  -0.0151652   0.0517768
-0.00462601   0.0705735   0.0516728   0.0201609  -0.0269502  -0.0688886 -0.00517232  -0.0271718   0.0282724  -0.0424073
#
!
<3>:53
   0.0357424   -0.0235642   -0.0155056   -0.0305114    0.0625773   -0.0464351   0.00275165    0.0105014   0.00574511
  0.00271631  -0.00791351    0.0444957   -0.0230303   -0.0268909   0.00898094   -0.0312687    0.0417016   -0.0111471
  -0.0488418   -0.0157766   -0.0379508   0.00739879   -0.0384993    0.0143868   -0.0130957    0.0592561  -0.00723291
  -0.0222933   -0.0262944    0.0105377   0.00743479   -0.0310808  -0.00804535    0.0169595    0.0218878  -0.00136502
  -0.0588517   -0.0123334    0.0385221    0.0157853    0.0311013   -0.0232201   -0.0298288    0.0428474    0.0499327
   0.0116511     0.003038    0.0203794   -0.0267419   -0.0116641    0.0193558    -0.012682    0.0288665    0.0417089
   0.0422361      0.02238    0.0345193   -0.0360531    0.0671987    0.0652541   -0.0107616  0.000433614 -0.000154277
  -0.0200497   -0.0363162   -0.0109135   -0.0167385    0.0554257    0.0267793   0.00847827   -0.0558425     0.034792
  -0.0142169   -0.0168755   -0.0291939  -0.00723081    0.0161078   -0.0177847    0.0554644  -0.00683641   -0.0662795
     0.05908    0.0218374   -0.0129616   -0.0262871    0.0236995   0.00698703   -0.0182485   0.00268609    0.0525994
#
-0.00280035  0.00830159  0.00683483  -0.0164133    0.025519  0.00361749    0.020058 -0.00705431  -0.0232315    0.022955
  0.0327795 -0.00168155  0.00310444  -0.0140012  -0.0438996   0.0273872 -0.00905452  -0.0765462   0.0223925 -0.00975377
-0.00953041   0.0341945  -0.0243662   0.0187529  0.00709751    0.043675  -0.0161507 -0.00959573   0.0338957   0.0044613
 -0.0262581   0.0214292  -0.0269148  -0.0286775  -0.0299607  -0.0112119  -0.0259938   0.0196441  0.00105003  -0.0122839
-0.00294628   0.0357921  0.00653251  -0.0021428   0.0311684   0.0638275   0.0425267  -0.0347656  -0.0270786    -0.04642
 -0.0474424   0.0175036 -0.00237032   0.0187194   0.0174428   -0.005114  -0.0122353   -0.096659   0.0450208  -0.0256346
 -0.0673939 -0.00484962   0.0168342  -0.0726884 -0.00836293  -0.0219177   0.0687496  -0.0469837  0.00788443    0.020275
 0.00621298  0.00825521   0.0477874  -0.0504672  -0.0475725   0.0285247 -0.00460801   0.0119121   0.0405025   0.0182195
  0.0033885  -0.0131544  -0.0516278   0.0475141 -0.00708559  0.00642117   0.0157025  -0.0180052    0.069555  0.00935652
  0.0112544  -0.0835854  -0.0440035    0.031457  0.00947495 -0.00937251    0.021022   0.0275158   0.0298114  -0.0453318
#
   0.0470858    0.0120566  -0.00513094  -0.00786413    0.0326479   0.00201351    0.0226683   -0.0103324   0.00350633    0.0230002
  -0.0838323    -0.041692    0.0922502   -0.0102698    0.0137084   -0.0539945   -0.0144282    0.0166429    0.0436837    -0.035459
-0.000665694   -0.0563171   -0.0797187   -0.0109462    0.0238627   -0.0257816   -0.0226223  -0.00275134    0.0350136    0.0430738
  -0.0173497   0.00675373    0.0622452   -0.0217819   0.00861265     0.029597    0.0345975   -0.0687992   0.00432196   -0.0140693
   0.0079224   0.00744142   -0.0175485   -0.0314592   0.00305317    0.0325593    0.0136307  -0.00277415   0.00545992   -0.0530744
  0.00250568   0.00745872    0.0166667   0.00381624   -0.0182266   -0.0256747    0.0239348   -0.0155714   -0.0737651    -0.014652
  -0.0327714   -0.0392633    0.0446477 -0.000619651   0.00232531   -0.0181161    0.0269663  -0.00358226   0.00895248   0.00938117
    0.015785   -0.0335181   -0.0847724   -0.0421618   -0.0426953    0.0270896    0.0326499   0.00956248   -0.0603746   -0.0264598
  -0.0158069    0.0498158   -0.0116859   -0.0406023   -0.0189607   -0.0491227    0.0316427   -0.0418812    0.0258153  -0.00191502
   0.0235844   0.00123261   0.00386293    0.0285032   -0.0249807    0.0556169   -0.0228321   -0.0264555    0.0233148   0.00627866
#
   0.0311737   -0.0390355   -0.0291463   -0.0479935    0.0153567    0.0193466    -0.024483   -0.0137138   0.00609323    -0.038006
  0.00988021   -0.0145565    0.0167031    0.0637735   0.00591729   -0.0597961    -0.045378   -0.0386874  -0.00335562    0.0383678
   0.0128539    0.0532647    0.0489013    0.0116642   -0.0140852   -0.0518024   -0.0176917 -0.000868187    0.0364225   -0.0268607
#
!
<72>:48
   0.0348529   -0.0101872   -0.0219567   -0.0284219    0.0616855   -0.0484379   -0.0240326   0.00328644     0.011174
   0.0151116     0.013598    0.0400146   -0.0190428   -0.0133913   0.00245535   -0.0139375    0.0311904   0.00264519
   -0.062595   -0.0254653   -0.0505496    0.0178984   -0.0106905    0.0208309 -0.000505612    0.0607909  0.000350097
 -0.00152767     -0.02903    0.0147381    0.0218648   -0.0308204   0.00742175    0.0148653    0.0283734   0.00244134
  -0.0672155   -0.0107653    0.0374345    0.0296501    0.0162314  -0.00214818   -0.0310085    0.0516058   0.00946423
   0.0118798    0.0172868    0.0240639  -0.00968446    0.0029626    0.0312522   -0.0212611    0.0226777     0.038675
   0.0607795    0.0336165    0.0135965   -0.0303676    0.0326036    0.0595492   -0.0109315    0.0221856    0.0451389
 -0.00945771   -0.0195084   -0.0256305       0.0114    0.0857344    0.0389109    0.0417466   -0.0454192     0.023077
  -0.0339499   -0.0124072   -0.0419729   -0.0129244     0.027866   -0.0151383    0.0519032   -0.0228942   -0.0465922
   0.0492715    0.0230582   -0.0338717   -0.0167707    0.0461726   0.00281692   0.00394295   -0.0361305    0.0491622
#
   0.0104846    0.0181427   0.00797973   0.00975066    0.0180999    0.0165474    0.0161636   -0.0191842  -0.00487804     0.030297
   0.0419564   -0.0254215   0.00873471   0.00137029   -0.0386312    0.0334274 -6.89132e-05   -0.0747529   0.00290257   -0.0108435
 -0.00729597    0.0623918  -0.00772288    0.0328959    0.0110834    0.0661551   -0.0309536   -0.0378359     0.031213   0.00418888
  -0.0401465    0.0271036   0.00232106   -0.0461237   -0.0265134   -0.0180618  -0.00825296     0.015233   -0.0121714   -0.0245606
   0.0111179    0.0264954  -0.00492283   0.00140908    0.0434709    0.0642886    0.0429101   -0.0113027   -0.0288889   -0.0226934
   -0.063483   0.00561591  9.80436e-05     0.026001    0.0388757   -0.0100998  -0.00175602   -0.0763411    0.0493241   -0.0304894
    -0.04729   0.00459552    0.0134701   -0.0812752  -0.00729365   -0.0014558    0.0142345   -0.0363733   0.00865804    0.0323839
  -0.0336191   0.00947051    0.0482668   -0.0577281   -0.0420414   -0.0179519  -0.00960768 -0.000953758    0.0582901  -0.00534351
 0.000103919   0.00940511   -0.0260968    0.0616415   0.00202595   -0.0127382    0.0146793  -0.00953286    0.0761023   -0.0131382
  0.00717872   -0.0640428   -0.0516291    0.0450515  0.000148725  -0.00453585    0.0326906   0.00473694    0.0151272   -0.0664667
#
   0.0463082   0.00947638   0.00291326 -0.000883179    0.0530614    0.0126852    0.0358672   -0.0213601  -0.00524342    0.0232627
  -0.0520809   -0.0250099    0.0787128  -0.00448637    0.0264814   -0.0258378   -0.0193489    0.0260022    0.0293081   -0.0358249
 -0.00755992   -0.0392914   -0.0820316  -0.00879631    0.0104601   -0.0401941   -0.0335532   -0.0147475    0.0439109    0.0416362
  -0.0199454   0.00714083    0.0920539   -0.0402442    0.0103172    0.0222504     0.026724   -0.0784101 -0.000617442   -0.0301705
  0.00688116   0.00150994   -0.0296641   -0.0328234      0.02674    0.0543676    0.0174134   0.00185738   -0.0317787    -0.068665
  0.00602624    0.0121649  -0.00046885   0.00425379   -0.0106945   -0.0381058     0.015454   -0.0239597   -0.0765878   -0.0341171
   -0.029071   -0.0479934    0.0339637   -0.0024448    0.0151451   0.00134786    0.0166297    0.0106038   0.00107183    0.0462931
   0.0044176   -0.0246475    -0.103225   -0.0433668   -0.0396505    0.0268022    0.0390135    0.0134741   -0.0586268   -0.0320556
  -0.0200847    0.0525807   0.00845076   -0.0324287  -0.00685758   -0.0425336     0.028326    -0.013276     0.034169   0.00904386
    0.046472   -0.0154883    0.0172535    0.0178529   -0.0139105    0.0451535   -0.0164508   -0.0230177    0.0278566    0.0129907
#
   0.015895 -0.00570061  -0.0228464 -0.00985988 -0.00334562  -0.0250189 -0.00432528   -0.022017   0.0283511  -0.0560486
  -0.012944  -0.0135174  0.00726136   0.0924612  0.00812446  -0.0786488  -0.0756145  -0.0169491  0.00263301   0.0249895
-0.00223499    0.026806   0.0561644   0.0264161  -0.0208288  -0.0603738  -0.0173314  -0.0264551   0.0445519  -0.0393611
#
!
<89>:44
    0.034399   -0.0153803   -0.0202615   -0.0569235    0.0791435   -0.0467653   -0.0251256   -0.0150367   0.00648989
  0.00546948   0.00951816    0.0531159   -0.0305535   -0.0394079   0.00704038    -0.022796    0.0465109  -0.00680322
     -0.0701   -0.0225031   -0.0495588  0.000995696     0.013326   0.00988784   0.00283138    0.0599478   0.00782005
 -0.00413161   -0.0289593    0.0102173   -0.0131706   -0.0580521   0.00436086   0.00753297    0.0290442   -0.0104665
   -0.075399   -0.0155744    0.0393055    0.0339564    0.0189881 -0.000757237    -0.025776    0.0305217    0.0152561
 -0.00103787    0.0178533    0.0351833   -0.0124346  -0.00664452    0.0592602   -0.0199534    0.0139127    0.0327539
    0.044284    0.0453698   0.00978876   -0.0153658    0.0554361    0.0551845   -0.0305627    0.0178741    0.0311802
  0.00531719    -0.026977  0.000851571  -0.00599024    0.0472119    0.0249447    0.0291634   -0.0488719    0.0320537
  -0.0163521   -0.0321886   -0.0298923  -0.00285317    0.0662913  -0.00221706    0.0410037   -0.0233848   -0.0433691
   0.0596008    0.0181285   -0.0205386   -0.0301412    0.0425209    0.0155091   0.00142138   -0.0346976    0.0345747
#
 -0.00277754    0.0251812   0.00553209    0.0199954    0.0391643    0.0173015    0.0120972   -0.0254172   -0.0271344    0.0221887
   0.0393945   -0.0104054  -0.00543869  -0.00119803    -0.051842   0.00716049  -0.00467782   -0.0594016    0.0133943  -0.00851741
  -0.0206619    0.0423066   -0.0149268     0.056041   0.00567064    0.0616844   -0.0112966  -0.00387031    0.0377693   -0.0151993
  -0.0331865    0.0419258   0.00341276   -0.0277102  -0.00257474   -0.0222944   -0.0158898   0.00520521   -0.0343892   -0.0218299
  0.00556254  -0.00696143   -0.0132047   -0.0166406    0.0432495    0.0723271    0.0493775   -0.0170055   -0.0245867   -0.0434658
   -0.069105 -0.000351784    0.0216652    0.0303424    0.0496229   -0.0304317   0.00364663   -0.0856539    0.0697281    -0.043173
  -0.0532693  -0.00247499   0.00619123   -0.0806037   -0.0320545   -0.0136882    0.0287068   -0.0135448    0.0180625    0.0284432
  -0.0366362   0.00460927    0.0496511   -0.0596565   -0.0364962  0.000621652   -0.0132903  -0.00767502       0.0415   -0.0174054
 -0.00750933   0.00189343   -0.0237611    0.0352494    0.0145558  -0.00955364    0.0175905    -0.016464    0.0634253  -0.00484578
  0.00732242   -0.0831768   -0.0451359    0.0294382   0.00821515   -0.0170972    0.0243979    0.0499561    0.0348296   -0.0619201
#
   0.0725216    0.0215278 -0.000224127   0.00286164    0.0386986  -0.00916251    0.0292274   -0.0231153  -0.00196665    0.0132368
  -0.0669445   -0.0394204    0.0732443    0.0173238    0.0115846   -0.0544566   -0.0103487    0.0210794    0.0162001   -0.0300074
   -0.001479    -0.063455    -0.056665   -0.0153321    0.0229053   -0.0325242   -0.0339545    0.0132661    0.0417086    0.0431699
  -0.0339108    0.0191452    0.0666572   -0.0207951   0.00947052    0.0390406    0.0279786   -0.0523189   0.00153159  -0.00329971
   0.0103202    0.0109176    -0.019879   -0.0356281    0.0180954    0.0547318   -0.0114028    0.0188046   -0.0173652   -0.0413183
  0.00376626   0.00719654    0.0103653   0.00538036   -0.0163068   -0.0284232      0.03511   -0.0131277   -0.0684998  0.000149202
 0.000433372   -0.0372849    0.0159083   0.00263325   0.00186271 -0.000784767    0.0180682  -0.00447707   0.00926489    0.0315156
 -0.00475667   -0.0334536    -0.110359   -0.0296386   -0.0463384   0.00872046   0.00876898 -0.000642503   -0.0685582   -0.0139872
 -0.00490903    0.0486479    0.0135443   -0.0255099  -0.00774054   -0.0378704     0.025964    0.0062124     0.015748   0.00927451
   0.0309541   0.00298733    0.0184248    0.0179671    0.0111797     0.027847   -0.0244472   -0.0193337    0.0133909   0.00782203
#
  0.0312051 -0.00948244  -0.0191484  -0.0140718   0.0260771  0.00950261  -0.0121551 -0.00361301   0.0170942  -0.0392907
 0.00431558   0.0124642  0.00166446    0.069263   0.0280218  -0.0793719  -0.0574762 -0.00936542  -0.0073161   0.0530127
  0.0141913   0.0592881   0.0426294   0.0123838  -0.0100701   -0.049528  -0.0112744  -0.0180903   0.0423322  -0.0490592
#
!
<92>:42
   0.0333853    -0.015669   -0.0221612   -0.0304704    0.0867894   -0.0743807   -0.0261571  -0.00221529     0.013099
   0.0130643    0.0150979    0.0134153   -0.0340626   -0.0418057   0.00737177   -0.0255143    0.0414966   -0.0104561
  -0.0722967  -0.00487869   -0.0447014   0.00340606 -0.000234496    0.0191752    0.0170438    0.0644736   -0.0162393
  -0.0137181    -0.018266   0.00238498  -0.00544087   -0.0475917   0.00995547   0.00939487    0.0249893    -0.001212
  -0.0528789   -0.0117881    0.0250445    0.0115184    0.0146626  -0.00793385   -0.0250397    0.0485509    0.0205019
 -0.00550183    0.0122408    0.0209072   -0.0170091  -0.00671807    0.0437198   -0.0243541    0.0138665    0.0355736
   0.0427494  -0.00288095    0.0402106   -0.0267823    0.0563561    0.0447407    -0.034838    0.0274769    0.0313874
 -0.00388264   -0.0290768  -0.00706587  -0.00149102    0.0779757  -0.00578332    0.0292975   -0.0435438    0.0230479
  -0.0284713   -0.0279743    -0.024031  -0.00324562    0.0156635   -0.0204109    0.0452458   -0.0217232   -0.0115235
   0.0590112     0.015245   -0.0392665   -0.0424977    0.0311522  -0.00173007   0.00865922   -0.0199452    0.0505152
#
  0.00170191    0.0164974  -0.00597784   0.00825704    0.0146137   0.00904122    0.0157121   -0.0111962   -0.0228597    0.0185675
   0.0150088   -0.0207119   0.00520491   -0.0133829   -0.0538148    0.0285388  -0.00779998   -0.0749508  -0.00173898   -0.0265983
 -0.00595009    0.0612175   -0.0346001    0.0438418  -0.00938663    0.0482348   -0.0234648  -0.00688292    0.0507837  -0.00304216
  -0.0402261     0.016984   -0.0220677    -0.040411   -0.0138703    -0.010757  -0.00774711   0.00481814  0.000147727     -0.01141
  -0.0103927    0.0334523   0.00479266  -0.00523379    0.0381312    0.0536717    0.0283608   -0.0338503   -0.0220372   -0.0651892
  -0.0635255   0.00478933   0.00125655   0.00891436    0.0282364   -0.0276562    0.0182837   -0.0903715    0.0663827   -0.0425481
  -0.0581826  -0.00986833   0.00740473   -0.0919798    -0.010308  -0.00781286    0.0453244   -0.0480618   0.00665966    0.0192093
  -0.0325286    -0.010274    0.0516504    -0.062169    -0.035446  -0.00137094   -0.0098355   0.00721307    0.0577238 -0.000942199
   0.0251434  -0.00110974   -0.0136456    0.0622566  -0.00167004   -0.0116782    0.0211659   -0.0334784    0.0532332   -0.0296778
   0.0180489   -0.0846386   -0.0567152    0.0225896  0.000273787     0.002116   0.00668127    0.0357093    0.0321296   -0.0564813
#
   0.0354138   0.00166698   0.00394158   -0.0236184    0.0502385   -0.0114219    0.0406069  -0.00911389  5.85819e-05    0.0287309
  -0.0664792   -0.0151402    0.0559463    0.0045771     0.034828   -0.0573164  -0.00618666   0.00692407    0.0211113   -0.0194159
  -0.0300777   -0.0806433    -0.071154   -0.0398634    0.0173165   -0.0258324   -0.0384373   0.00570956    0.0262385     0.043165
   -0.028634   0.00521905    0.0788677   -0.0117185    0.0116927   0.00706383    0.0473517   -0.0548525   0.00723778  -0.00929219
    -0.00689    0.0154129   -0.0261049   -0.0123026    0.0189096    0.0274402    0.0109553    0.0033031   -0.0113156   -0.0498336
  -0.0129494   0.00548576    0.0115047  -0.00969345    -0.014089   -0.0432707    0.0292712   -0.0226471   -0.0333308   -0.0222852
 0.000836608   -0.0459214     0.043698   -0.0149092   0.00872955  0.000609952    0.0248782  -0.00568261 -0.000277657    0.0351023
  -0.0152704   -0.0208956    -0.102149   -0.0236616   -0.0676588    0.0153428    0.0194763    0.0102775   -0.0602319  -0.00828154
  -0.0265713    0.0444029   0.00602501    -0.043733  -0.00752046   -0.0422502    0.0309528  -0.00569834    0.0138536   0.00877031
   0.0390363   0.00477194   0.00577989    0.0275677   -0.0262589    0.0361706   -0.0385872     -0.02691    0.0433954  -0.00418127
#
  0.0332412  -0.0147013  -0.0153637  -0.0303497   0.0146631 -0.00200158  -0.0275151  0.00152726   0.0344862  -0.0298498
 0.00265603  -0.0174918   0.0072997   0.0776643  0.00689808  -0.0647978  -0.0566184  -0.0367951  0.00432555   0.0432245
 0.00688197   0.0413997   0.0404224   0.0182047   -0.028322  -0.0682164  -0.0134694  -0.0347839   0.0483571  -0.0310185
#
!
<1>:41
    0.040908   -0.0224248   -0.0199501   -0.0557075    0.0805139   -0.0622543   -0.0279685   -0.0140172    0.0186533
-0.000440909    0.0171337    0.0359708   -0.0198089   -0.0212784 -0.000311376   -0.0241669    0.0474341 -0.000291523
  -0.0698145   -0.0171799   -0.0465299   0.00064934   -0.0073612    0.0200992   0.00581065    0.0682598   -0.0057952
 -0.00391047   -0.0310274  -0.00610892  -0.00619696   -0.0540932    0.0119284    0.0161537    0.0243492   -0.0149914
  -0.0438156   -0.0135198    0.0307261    0.0281476   0.00332017  -0.00143484   -0.0292431    0.0314967    0.0273603
 -0.00383596    0.0280994    0.0253824   -0.0123346  -0.00463595    0.0535212    -0.010751    0.0210652    0.0323867
    0.036392    0.0223588   0.00882876   -0.0265111    0.0498773    0.0507087   -0.0250844    0.0233409    0.0233041
  0.00992523   -0.0242881   -0.0170524 -0.000334749    0.0677086    0.0236152    0.0359344   -0.0501893    0.0245758
  -0.0296129   -0.0237576   -0.0462024   0.00252117    0.0454931  -0.00470605    0.0519381   -0.0253863   -0.0349699
   0.0589469    0.0152399   -0.0238771    -0.019032    0.0299678   0.00927858  -0.00961419   -0.0287925    0.0403904
#
 -0.00189806    0.0106377   0.00973174   -0.0111136    0.0284794    0.0277344    0.0104227    0.0024322    -0.010964    0.0169278
   0.0325478  -0.00766409   0.00802667    -0.016638   -0.0553124    0.0254972  -0.00667711   -0.0588624  -0.00183317    -0.022737
  -0.0237212    0.0485508   -0.0188083    0.0224817    0.0106265    0.0697481   -0.0265414   -0.0111012    0.0334826   0.00874788
  -0.0321676    0.0137961   -0.0257728   -0.0362844  -0.00699929  -0.00281493   -0.0188675   0.00682159  0.000875951    -0.025173
   0.0124669    0.0276905    0.0119113  -0.00240242    0.0288447    0.0602137    0.0194704   -0.0281126   -0.0197315   -0.0446982
  -0.0578421    0.0036006   0.00625047   0.00307441    0.0376639   -0.0240859   0.00972788   -0.0811093    0.0579855   -0.0306121
  -0.0622221  -0.00369991   0.00414392    -0.072767  -0.00535898  -0.00465113     0.052359   -0.0291518   0.00167481    0.0179401
  -0.0228967   0.00915371    0.0424586   -0.0582897   -0.0409106  -0.00135376   0.00814015  -0.00628486    0.0568428    0.0124029
 -0.00393123   0.00391688   -0.0117567    0.0447415 -0.000655497   -0.0166392   0.00883012  -0.00738326    0.0588165   -0.0147308
  -0.0090578   -0.0975428   -0.0453293     0.030415   0.00599031  -0.00445364     0.017258    0.0352573    0.0313269   -0.0672542
#
   0.0443713  -0.00293989   -0.0113327   -0.0191632    0.0673043   0.00217944    0.0364688   -0.0174314    0.0108906     0.024478
  -0.0778338    -0.030987    0.0623416  0.000763192    0.0205327   -0.0402499   -0.0227871    0.0153699    0.0361149   -0.0201227
 -0.00604118   -0.0578834   -0.0780973   -0.0198507    0.0185052   -0.0326294   -0.0414446    0.0103505     0.026301    0.0329057
   -0.017632   0.00801912    0.0666792   -0.0183783    0.0195467      0.03525    0.0330864   -0.0714715    0.0063302   -0.0234527
 -0.00368642    0.0104542   -0.0129239   -0.0136366    0.0194795     0.031846   0.00595664  0.000557265  -0.00429956   -0.0542049
 -0.00387103   0.00761571   0.00135484  -0.00784907    -0.021917   -0.0415611    0.0413756   -0.0194306   -0.0475579   -0.0208007
 -0.00753192   -0.0426181    0.0292593    0.0008158  -0.00310936   0.00901784 -0.000994079   -0.0127549   -0.0122618    0.0457646
 -0.00491294   -0.0157362   -0.0930066   -0.0289885   -0.0679735    0.0175557    0.0161354  -0.00538835   -0.0763813  0.000482417
 -0.00747387    0.0496477    0.0111155   -0.0270729   -0.0276687   -0.0492273    0.0335944  -0.00239107    0.0261201    0.0170247
   0.0363323   0.00163435    -0.011411    0.0228642   -0.0282099    0.0470981   -0.0257843    -0.021119    0.0348865   0.00974466
#
   0.0366665  -0.00121855   -0.0265522  -0.00719682   0.00135448   -0.0126986   -0.0035566   -0.0123169     0.019177   -0.0414098
  0.00108004   -0.0115804 -0.000119119    0.0873252    0.0193189   -0.0796263   -0.0416404   -0.0186293   0.00810222    0.0241075
   0.0137462    0.0681038    0.0610117    0.0195263   -0.0305529   -0.0694076   -0.0277022   -0.0238777    0.0331203    -0.030897
#
!
<93>:41
  0.0485783   -0.011864 -0.00526837  -0.0327435   0.0451688  -0.0604321  -0.0134032  -0.0113613     0.01458
 0.00304493 -0.00206356   0.0433052  -0.0286215  -0.0196184  0.00228317  -0.0152976   0.0245547 -0.00949493
 -0.0610153  -0.0136542  -0.0391242 -0.00523719  -0.0120454   0.0263651  -0.0110241   0.0634772  -0.0210121
 -0.0141542  -0.0218642  0.00559602  -0.0137906  -0.0492467   0.0176308  0.00699479   0.0316518  0.00028242
 -0.0375967 -0.00780197   0.0240502    0.026753   0.0012552  -0.0154863  -0.0339198   0.0196903   0.0283647
 0.00177058   0.0271918   0.0363006  -0.0232954  -0.0155533    0.037874  -0.0197376   0.0260965   0.0353071
  0.0189303   0.0183846   0.0377692  -0.0228558   0.0430276   0.0626799 -0.00833526   0.0284477   0.0248202
-0.00542693  -0.0191465   -0.029522  -0.0192884   0.0613122   0.0363747   0.0143178  -0.0425682   0.0291992
 -0.0235766  -0.0250174   -0.044415  0.00541273   0.0350682  -0.0198109    0.035459  -0.0129847  -0.0155688
  0.0535793   0.0197818  -0.0240247  -0.0229918   0.0358639  0.00661694 -0.00578574  -0.0182094   0.0488177
#
   0.0276148    0.0187624  -0.00254463   0.00122494    0.0365859     0.015167    0.0133105   -0.0037446    0.0158656    0.0234051
   0.0533519   -0.0195024   0.00770547    0.0126144   -0.0516735    0.0407537  -0.00828668   -0.0686981  0.000882751   -0.0209668
  -0.0228357    0.0534385     0.015439    0.0255739  -0.00790591    0.0564688   -0.0267544  -0.00386777    0.0152415 -0.000439342
  -0.0157834    0.0108188   -0.0218354   -0.0109148   -0.0069518   -0.0041201    -0.024453  -0.00208366    0.0216055   -0.0105428
-0.000809586    0.0033006 -0.000283866  -0.00825856    0.0329357    0.0659646    0.0428755   -0.0347209   -0.0151982   -0.0615729
  -0.0659543    0.0144609  -0.00021996    0.0202163    0.0458763   -0.0284704  -0.00835737   -0.0650908    0.0485053   -0.0362233
  -0.0523462  -0.00954027    0.0103638    -0.077105    -0.022013    0.0103698    0.0413042   -0.0260438    0.0131775    0.0162957
   -0.020853    0.0135909    0.0538227   -0.0543145   -0.0217069  -0.00452548   -0.0106207  -0.00360841    0.0786574    0.0192241
  -0.0138471    0.0212631  -0.00795455    0.0475161   0.00153014   -0.0251516     0.010237   0.00620217    0.0621435  -0.00995819
   0.0171695    -0.078814   -0.0438381    0.0460807   -0.0110337  -0.00253066    0.0258467    0.0258264    0.0294019   -0.0599532
#
   0.0601314   0.00127897   0.00527959   -0.0207355    0.0562904    -0.024322    0.0265387  -0.00839973     0.017974     0.023433
  -0.0342463   -0.0493881    0.0745997  -0.00658727   0.00300672    -0.024124   -0.0161535    0.0203969    0.0341233   -0.0154808
   -0.012395    -0.058101   -0.0562337  -0.00581917    0.0126532   -0.0170813   -0.0227379    0.0124259    0.0342397    0.0613574
  -0.0291728 -0.000910304    0.0687141    -0.015748     0.025682    0.0345451    0.0562958   -0.0603926   -0.0203751   -0.0236247
 -0.00627484    0.0213827  -0.00726969   -0.0276133      0.02581    0.0363626    0.0100531    0.0105693   0.00603657    -0.070517
    0.023116    0.0175647   0.00615728  -0.00492916  -0.00767802   -0.0365151     0.032409   -0.0409862   -0.0642393   -0.0250015
  -0.0127911   -0.0461071    0.0467907   0.00195822   0.00284312    0.0154995      0.03301  -0.00566129    0.0084175    0.0294664
   0.0155142   -0.0126705   -0.0912173    -0.044335   -0.0786945    0.0219574    0.0354028   0.00414932   -0.0831614   -0.0147047
  -0.0293371     0.042291    0.0135376   -0.0297943   -0.0294351   -0.0347589    0.0466322   -0.0253412    0.0183651    0.0107441
   0.0211611    -0.005776   -0.0038583    0.0287501  -0.00924981    0.0450694     -0.02427  0.000384018    0.0246998    0.0155416
#
  0.0145406  0.00520644  -0.0270666  -0.0292406  0.00834395  -0.0111056 -0.00484225 -0.00622805   0.0316879  -0.0402356
-0.00631579 -0.00134617  0.00851245   0.0917151  0.00400913  -0.0772767  -0.0506852   -0.032314  -0.0146329   0.0398794
  0.0165396     0.07289   0.0617169   0.0147597 -0.00825138  -0.0602295  0.00190219  -0.0174622   0.0381405  -0.0597177
#
!
<69>:38
  0.0232926  -0.0156144    0.002841  -0.0541261   0.0898003  -0.0558651  -0.0115402 -0.00336319  0.00495411
-0.00906615   0.0126738   0.0465044  -0.0266835  -0.0209259   0.0135391   -0.014775   0.0413959 0.000338825
 -0.0640217   -0.012492  -0.0451371 -0.00338854  -0.0234364 -0.00564268  0.00159521   0.0512826  0.00526796
 0.00207995  -0.0244834 0.000403051   -0.010925  -0.0387642   0.0150353   0.0115563   0.0219903 -0.00849678
 -0.0635182  -0.0012237   0.0323846   0.0233842   0.0240624 -0.00543714  -0.0338664   0.0341029   0.0258922
-0.00537827  0.00884528   0.0315449  -0.0110758  -0.0312757   0.0339572   -0.031661   0.0165293   0.0591846
  0.0272067   0.0346325    0.020571  -0.0230843   0.0707993   0.0552373  -0.0264222  0.00842341   0.0177447
 0.00339906  -0.0335097  -0.0301796   0.0151205   0.0712619    0.006491   0.0185761  -0.0285255   0.0275907
 -0.0267873   -0.029781  -0.0285302  -0.0101251   0.0360567 -0.00524976   0.0580747  -0.0268509  -0.0162916
  0.0575772   0.0246981  -0.0449223  -0.0218602   0.0380076   0.0234288 -0.00721948  -0.0235828   0.0309882
#
  0.00883514   0.00910566   0.00820699     0.010624    0.0407957    0.0193218   0.00208044  -0.00809686   -0.0334238    0.0127503
   0.0411598    -0.022337    0.0184492  -0.00844139    -0.040707    0.0347211   -0.0126046   -0.0579022  -0.00266081 -0.000817889
  -0.0220266    0.0552836   -0.0014744    0.0374786   0.00901774    0.0467236   -0.0325262   -0.0202052     0.029812  -0.00290365
  -0.0355791    0.0317351  -0.00871943   -0.0473038   -0.0194828   -0.0136089   -0.0240221     0.018349   0.00468348  -0.00239444
  0.00748691    0.0117444 -0.000816576     0.006446    0.0475461    0.0477882    0.0268336   -0.0363498   -0.0382502   -0.0387233
  -0.0668922    0.0130758   0.00631635    0.0139653    0.0413983   -0.0330715   0.00682064   -0.0803398    0.0498307   -0.0606004
  -0.0456373   0.00610861   0.00804471   -0.0741545   -0.0250857  -0.00467389    0.0242067   -0.0357038  -0.00308608   0.00621588
  -0.0410765   0.00446489    0.0437563   -0.0603056   -0.0327861     -0.00937    -0.018388   -0.0045154    0.0725994    0.0163831
 0.000734901   -0.0135054   -0.0242097    0.0399986   0.00943845   -0.0143396    0.0096349   -0.0134637      0.06342  -0.00362568
  0.00744927   -0.0879835   -0.0616629     0.048447   0.00239262    0.0105671   0.00986021    0.0144057    0.0200547     -0.05783
#
   0.0500392    0.0111504  -0.00344433   0.00106632    0.0638187  -0.00556125     0.032833   -0.0243207   0.00908733   -0.0120517
  -0.0590452    -0.029635    0.0703805   -0.0032863    0.0104037   -0.0199932   -0.0152481   0.00733221    0.0135629   -0.0408333
  0.00168982   -0.0542872   -0.0635359   -0.0354379    0.0109259   -0.0341846   -0.0383909   0.00392645    0.0469402    0.0438388
 -0.00257906   0.00458338    0.0633874   -0.0349099    0.0135581     0.038076    0.0349499   -0.0811148    0.0024204   -0.0257498
   0.0176905   0.00804259   -0.0136522   -0.0201976    0.0161068    0.0388395   0.00332939  0.000203754  0.000616612   -0.0447255
   0.0208155  0.000197001   0.00127921   -0.0168819  -0.00472946   -0.0365237    0.0377162   -0.0259784   -0.0668177   -0.0205988
   -0.023232   -0.0559749    0.0496527   -0.0254434   0.00193567  -0.00616363    0.0160722 -0.000764469  -0.00487674    0.0547178
  0.00126782  -0.00799004    -0.114179   -0.0190014   -0.0623409    0.0153726    0.0317792   0.00668929   -0.0680722  -0.00628831
  -0.0371988    0.0410016     0.006021   -0.0277864  -0.00674254   -0.0526068    0.0380572   -0.0103377    0.0166351    0.0236588
    0.023159  -0.00960792  -0.00243519    0.0199363   -0.0170188     0.050366   -0.0372895   -0.0189015   0.00351937    0.0305518
#
  0.0306502    0.010606  -0.0251243  -0.0364705  -0.0094599  -0.0185081  -0.0194172  -0.0128464   0.0125332  -0.0343103
-0.00625077  -0.0129638   0.0169165   0.0842672  0.00844364  -0.0611248  -0.0589525 -0.00977535 -0.00400936   0.0164001
  0.0122989   0.0525836   0.0535478    0.018186   -0.019652  -0.0512878  -0.0329451 -0.00761215   0.0454881  -0.0325085
#
!
<80>:37
   0.0300828  -0.00781601   -0.0136755   -0.0325207    0.0829883    -0.059663   -0.0134491  -0.00667609   -0.0013128
   0.0172583   -0.0137462    0.0455402   -0.0231916   -0.0254232   -0.0131556   -0.0206019     0.025964   0.00352366
  -0.0761341    -0.024905   -0.0440884    0.0124609   -0.0151347    0.0107193    0.0160859    0.0569199   0.00455318
 -0.00174004  -0.00942889    0.0038654  -0.00806472   -0.0431255     0.022808    0.0140803    0.0142441   -0.0108238
  -0.0719996    -0.019715    0.0448321    0.0184756     0.010943   -0.0246724   -0.0330216    0.0229207    0.0154531
 -0.00421045    0.0213492    0.0364291   -0.0166709    0.0014095     0.044372    -0.035238   0.00922962     0.033923
   0.0434154    0.0246721    0.0479021   -0.0104591    0.0477886    0.0203893   -0.0318057    0.0193785    0.0251063
  -0.0281721   -0.0286833   -0.0175216   -0.0100613    0.0996973    0.0177566    0.0556136   -0.0535596    0.0184101
  -0.0139202   0.00107366   -0.0341097   0.00275376    0.0473042  -0.00509435    0.0638356   -0.0369527   -0.0367208
   0.0527761    0.0255568   -0.0385938   -0.0226405    0.0406327   -0.0160977 -0.000803237   -0.0253313    0.0380542
#
  0.00431317    0.0132934   0.00138193 -0.000144241    0.0369796    0.0139805    0.0193054   -0.0131371   -0.0132319    0.0208098
   0.0542451  0.000595082     0.029749  0.000482198   -0.0494762    0.0226409   0.00918401   -0.0693205    0.0150329   -0.0220149
  -0.0329441    0.0273961  -0.00218393    0.0380194  -0.00743595    0.0676782   -0.0189401   -0.0201689    0.0399624    0.0111502
  -0.0369494    0.0513504  -0.00571091   -0.0251721   -0.0246506   0.00956929   -0.0202054    0.0184339  -0.00834791   -0.0195604
  -0.0024663    0.0276541   0.00615239   -0.0195018    0.0484379    0.0774996    0.0324097   -0.0315698  -0.00319547   -0.0388004
  -0.0714878  -0.00384033   0.00417742    0.0119842    0.0396226   -0.0231288 -0.000610476   -0.0825069    0.0405851   -0.0407036
  -0.0559246     -0.01104   0.00550348   -0.0853982   -0.0281056   0.00351785    0.0330952   -0.0271652    0.0166626    0.0319098
 -0.00850959    0.0133614    0.0492805   -0.0503002    -0.029102   -0.0178447   -0.0203531  -0.00595912    0.0479298    0.0151844
-0.000672188  -0.00601169   -0.0053323    0.0494247   0.00988028  -0.00133839  -0.00232995   -0.0126317    0.0575536  -0.00856812
   0.0242767   -0.0698194   -0.0657995    0.0375347    0.0194489 -0.000460468    0.0462199     0.030764    0.0228621   -0.0596015
#
   0.0494995    0.0353815   -0.0104579   -0.0060178    0.0494235  -0.00763973    0.0219166   -0.0174039    0.0231812    0.0184352
  -0.0729784    -0.032523     0.072365  -0.00577623    0.0226357   -0.0337248   -0.0228101    0.0114479    0.0167093   -0.0221504
  -0.0129452   -0.0652925   -0.0647067   -0.0234355    0.0147929   -0.0227884   -0.0319039  -0.00405881    0.0349685    0.0426524
  -0.0291095   0.00586804    0.0558803  -0.00906837    0.0249673    0.0295255     0.036233   -0.0788163   0.00534428   -0.0499056
  0.00445021   0.00067183    -0.023117    -0.040068   0.00802011    0.0470961   -0.0172916    0.0186855   -0.0157519    -0.045677
   0.0127803    0.0225644    0.0023478  -0.00789791   -0.0192141   -0.0352089    0.0328679  -0.00722529   -0.0536222   -0.0249252
   0.0181095   -0.0577745    0.0416731   -0.0188303   -0.0217838   0.00925862   0.00386054  -0.00772173 -0.000349838    0.0406068
  -0.0101171   -0.0125176     -0.10282   -0.0350096   -0.0699857    0.0152884    0.0158346   -0.0181598   -0.0744448   -0.0133774
  -0.0307394    0.0411765    0.0160428   -0.0274102  -0.00931424   -0.0395911    0.0436212   -0.0132587    0.0180945  -0.00527328
   0.0320779  -0.00443758    0.0157862    0.0342802   0.00297482    0.0295337   -0.0226504   -0.0117185    0.0500942   0.00956495
#
  0.0363901  0.00255938  -0.0185434  -0.0253652   0.0210842  0.00642541  -0.0234287 -0.00816441  0.00937953  -0.0324963
 -0.0210883  -0.0130949  0.00183723   0.0913085   0.0155312  -0.0714314  -0.0561332  -0.0162007 0.000920274   0.0354926
 0.00984261   0.0582616   0.0586291  0.00155937  -0.0262017  -0.0758192  -0.0150529    -0.01111   0.0539607  -0.0229539
#
!
<2>:36
  0.0483185  -0.0346113  -0.0245179  -0.0314282   0.0630539  -0.0778499  -0.0220811 -0.00420888   0.0202668
  0.0276345 -0.00673166   0.0372701   -0.016658  -0.0203638  -0.0281201  -0.0236999   0.0530138  -0.0228764
  -0.065786  0.00168023  -0.0294788  -0.0202692  -0.0186825  0.00856277  -0.0131112   0.0613399   0.0138627
-0.00897369  -0.0143264  0.00897487  -0.0136243  -0.0327677 -0.00428653   0.0222693   0.0290365 -0.00630814
  -0.052454 -0.00714637   0.0329683   0.0165427   0.0331696 -0.00116845  -0.0131864   0.0500305    0.022036
   0.010235  0.00974699 -0.00237146  -0.0193121  0.00749254   0.0311414  -0.0255093  0.00609662   0.0405688
  0.0333945   0.0298546   0.0161144  -0.0259697   0.0773133   0.0365111  -0.0108322  0.00422032 -0.00627451
 -0.0393756  -0.0383927  -0.0121599  0.00224585   0.0520438 -0.00136372   0.0300511   -0.047343   0.0323572
 -0.0385298   0.0134641  -0.0120038 -0.00126086   0.0313495  -0.0216627   0.0489058  -0.0256122   -0.027117
  0.0410628   0.0261448  -0.0297157 -0.00540923   0.0336454   0.0193903 -0.00472865  -0.0276801   0.0361967
#
   0.0147424    0.0249717   -0.0140855  -0.00575598    0.0122296  -0.00035322      0.01389   -0.0079317   -0.0134783    0.0229252
   0.0230506  -0.00565089   0.00472813   0.00726669  -0.00730876    0.0172402   -0.0241566   -0.0817596    0.0244281  0.000802524
  -0.0165922    0.0367741  -0.00506924     0.018419   0.00715086    0.0631864   -0.0201323  -0.00489434    0.0532919  -0.00729187
  -0.0416056     0.027535  -0.00831624   -0.0396121   0.00134227   -0.0112371   -0.0266226    0.0130946    0.0125876  -0.00851494
  -0.0104117     0.013923  -0.00252767   -0.0124657    0.0435924    0.0426931     0.058439   -0.0355536   -0.0422925   -0.0470044
  -0.0524725   0.00198321    0.0099361    0.0238174    0.0264019   -0.0193858  -0.00600451    -0.114979    0.0529413   -0.0305784
   -0.070272   0.00039522   0.00621601   -0.0697348  -0.00425214   -0.0282794    0.0435203   -0.0184411    0.0219394   0.00882272
  0.00333136    0.0170536    0.0276472   -0.0473491   -0.0286841   0.00105793   0.00990814    0.0175265    0.0383024    0.0170118
-0.000442673  -0.00513267   -0.0254241    0.0331221   0.00821041   0.00757734   0.00644473   -0.0144179    0.0507568  -0.00446083
  0.00823941   -0.0930463   -0.0441944    0.0302525   0.00869624   -0.0108272   0.00758436    0.0317479    0.0320597   -0.0722341
#
   0.0456834   0.00107819   -0.0308454  0.000369184    0.0534234   -0.0116536    0.0237274   -0.0115657    0.0133168    0.0454222
  -0.0982739   -0.0494803    0.0485154  0.000620839    0.0182199   -0.0327037   -0.0165387    0.0201371    0.0462912   -0.0291522
 -0.00627164   -0.0518931   -0.0664486   -0.0365001    0.0142265   -0.0225258   -0.0079217    0.0208973    0.0161313    0.0320077
  -0.0105408   0.00413611    0.0746604   -0.0293554    0.0201583    0.0242624    0.0391203   -0.0701099  -0.00220781   0.00134353
  0.00839877    0.0340328  -0.00831512   -0.0103313    0.0191178    0.0327101  -0.00202837    0.0211692    -0.013449   -0.0526604
  0.00266436    0.0123862    0.0130066    0.0137443   -0.0130226   -0.0448851    0.0357789   -0.0258308   -0.0711516   -0.0210216
  -0.0193332   -0.0662999    0.0504945      0.01062    -0.013721  -0.00789034    0.0118553  -0.00238492  -0.00286176    0.0230388
   0.0139954   -0.0255351   -0.0914524   -0.0373123   -0.0681436   0.00457077    0.0158636   0.00530657   -0.0427176   -0.0039755
  -0.0143235     0.028577   0.00339291    -0.037219   -0.0190519   -0.0778215    0.0364928   -0.0364852 -0.000725848   0.00418055
   0.0368521   -0.0114751   -0.0174705   0.00393012    -0.016411    0.0408639   -0.0235986   -0.0311371     0.033561  -0.00394285
#
 0.00734867  -0.0148081  -0.0287321  -0.0464155     0.01764  0.00123074  -0.0270393  -0.0080129   0.0384359  -0.0626268
 0.00211245 -0.00125784  0.00472559   0.0767989   0.0181167  -0.0615942  -0.0612827  -0.0349985 -0.00781347   0.0254384
  0.0122937   0.0564371   0.0643133   0.0146504  -0.0223691  -0.0646451  -0.0257218 -0.00831207   0.0458516  -0.0302278
#
!
<95>:35
   0.0329396   -0.0269822  -0.00822447   -0.0423545    0.0787218   -0.0497123    -0.014677    -0.001109   0.00352131
-0.000814463   0.00687057    0.0359997   -0.0204286   -0.0375046   0.00936155   -0.0319273    0.0370146    -0.011333
  -0.0610202   -0.0185079   -0.0289303   0.00260591  -0.00714204    0.0138313    -0.014335     0.066614   -0.0143957
  -0.0107015   -0.0309657     0.015977  -0.00500007   -0.0325347    0.0111953    0.0271488   0.00848242  -0.00937228
  -0.0641584   -0.0269347    0.0314475    0.0308168    0.0105464  -0.00937373   -0.0263312    0.0531573    0.0227081
   -0.014677    0.0155018    0.0301272   -0.0315185  -0.00734003    0.0350446   -0.0120652    0.0084345    0.0381912
   0.0454704    0.0295117     0.035504   -0.0211263    0.0612074    0.0639012   -0.0366203    0.0250117    0.0398989
   0.0069104    -0.033609   -0.0113053   0.00560111    0.0731242    0.0119483    0.0383444   -0.0462856    0.0295617
  -0.0140939   -0.0288334   -0.0502331 -0.000750415    0.0401952 -7.83831e-05    0.0329463    -0.026046   -0.0217185
   0.0395314    0.0300137   -0.0475268   -0.0265069    0.0289526    0.0103603  -0.00639334   -0.0112381    0.0400649
#
-0.00254401  0.00412342 -0.00278834   0.0137004   0.0364041   0.0128142   0.0185483  0.00249518 -0.00860288   0.0331566
  0.0230268 -0.00390597  0.00804641  -0.0125279  -0.0321013   0.0315606  -0.0103783  -0.0679773  -0.0100789  -0.0149841
-0.00448212   0.0488708  -0.0100099   0.0416781  -0.0104077   0.0636701  -0.0117719  -0.0131119   0.0435094    0.005778
 -0.0372016    0.030215 -0.00757936  -0.0284333 -0.00382409  -0.0129068  -0.0195389 -0.00476584  -0.0140509   0.0217833
-0.00428347   0.0144388 -0.00440416  0.00953445   0.0306568    0.048142   0.0333244  -0.0213965  -0.0225586  -0.0426369
 -0.0565399  0.00227599   0.0156655  -0.0105905   0.0481066  -0.0181529  -0.0012097  -0.0997124   0.0443481  -0.0321068
 -0.0457729  0.00882749  0.00386267  -0.0909768  -0.0302901    0.013926   0.0461616  -0.0113196  -0.0037462   0.0250512
-0.00448624  0.00323221   0.0629276  -0.0570505  -0.0342699 -0.00280685 -0.00460742   -0.013176   0.0611949 -0.00338543
 -0.0115704   0.0118276  -0.0265761   0.0632726 -0.00512663   -0.033907   0.0217935  -0.0150203   0.0539126  0.00173739
 0.00251115   -0.094714  -0.0564897   0.0222638  0.00634366  -0.0143375   0.0240684   0.0466108   0.0281124  -0.0529075
#
   0.0528089  -0.00635828  -0.00346512  -0.00566976    0.0355936   -0.0259466    0.0372567   -0.0152879   0.00958539    0.0284658
  -0.0692571   -0.0453939    0.0867411  -0.00133292     0.016577    -0.029618   -0.0171924    0.0259369    0.0291304   -0.0234961
  -0.0113935   -0.0604367   -0.0731756   -0.0172732    0.0303467   -0.0314122   -0.0575349 -0.000336063    0.0530998       0.0459
  -0.0141244    0.0113037    0.0834324   -0.0237475    0.0108434    0.0445898     0.034791   -0.0756624   0.00813972   -0.0151956
  0.00156735   0.00492093    -0.037174   -0.0270046    0.0198913    0.0595543   0.00837545    0.0172217   -0.0215682   -0.0730966
   0.0225505  -0.00142155  0.000792138  -0.00619681   -0.0246515   -0.0335364    0.0401082   -0.0313163   -0.0613807   -0.0138619
 -0.00121399   -0.0570191    0.0326272  -0.00383427  -0.00597749   0.00424954    0.0218223  -0.00031517   0.00373087    0.0328232
   0.0165397   -0.0220005   -0.0860483   -0.0486051   -0.0499757    0.0128362    0.0102729  -0.00153685   -0.0826465   0.00104237
 -0.00831298    0.0451481    0.0220659    -0.024565    -0.010294   -0.0300919    0.0380792  -0.00984648    0.0413624  -0.00283177
   0.0258969   0.00252176    0.0147669    0.0101059  -0.00667414    0.0457014   -0.0236028   -0.0280937    0.0259821    0.0314826
#
  0.0241358 -0.00935285  -0.0222868  -0.0125106   -0.017807  -0.0148909  -0.0299277  -0.0395502   0.0309568  -0.0403357
 -0.0128823   0.0121101  -0.0042093   0.0943146   0.0223245  -0.0568471  -0.0528515  -0.0220031  0.00589877   0.0440577
 0.00157937   0.0505461   0.0602611   0.0179458  -0.0236133    -0.07403  -0.0104861   -0.015839   0.0410067  -0.0371863
#
!
<61>:35
   0.0456626  -0.00993667   -0.0187717   -0.0524117    0.0636537   -0.0576561   -0.0145823  -0.00211283    0.0286492
  0.00323685    0.0354796    0.0337483   -0.0236875   -0.0275125  -0.00197879   -0.0164027    0.0282298   0.00186031
  -0.0676462   -0.0101372   -0.0477603   0.00414195  -0.00375723    0.0155101 -0.000498024    0.0610433   -0.0123796
  0.00636292   -0.0247163 -0.000685807  -0.00211277   -0.0382738    0.0113887    0.0153238    0.0202518   -0.0248576
  -0.0616737  -0.00473001    0.0435104    0.0199526    0.0139271  -0.00611242   -0.0404061    0.0329834    0.0186607
  0.00310014    0.0157071    0.0195434   -0.0296569 -0.000513626    0.0415221  -0.00934177   0.00806943    0.0285005
   0.0349345    0.0322324    0.0332372     -0.03037    0.0412771     0.044756   -0.0360227      0.02959    0.0430532
  -0.0109114   -0.0372541   -0.0327968  -0.00934187    0.0654995 -0.000323111     0.042235   -0.0382285    0.0459001
  -0.0102181   -0.0217488   -0.0313713   -0.0218609    0.0342487  -0.00639026    0.0528815   -0.0293849     -0.01189
   0.0664873   0.00720462   -0.0244812   -0.0150457    0.0262678   0.00293763  -0.00677034    -0.021901    0.0581925
#
 -0.00601514    0.0128454    0.0222476    -0.019367    0.0282961   0.00246816   0.00286748  -0.00238734   -0.0186333    0.0245713
   0.0308211  -0.00983846    0.0175019 -0.000718649   -0.0462313    0.0244432  -0.00936431   -0.0632572   0.00126101   -0.0211143
  -0.0459141    0.0544505   -0.0223904    0.0298246  -0.00512378    0.0609557   -0.0180322   -0.0257958    0.0268466  0.000349854
   -0.015017    0.0248241   -0.0103504   -0.0506814  -0.00172375  -0.00496331   -0.0170675    0.0107595     0.018201   -0.0126336
 0.000761761    0.0119707    0.0108695   -0.0269828    0.0275159    0.0279309    0.0377408   -0.0339972  -0.00998367   -0.0401867
  -0.0529803     0.010318    0.0128674   0.00374968    0.0297444   -0.0337218  -0.00967421   -0.0806151     0.035248   -0.0260475
   -0.044019  0.000822474    0.0164199   -0.0825635   -0.0160307  -0.00116867    0.0279911   -0.0267268  -0.00443996    0.0412887
  -0.0410864   0.00383865     0.041794    -0.064717   -0.0445388     -0.00289   -0.0318497  -0.00734339    0.0529207    0.0146797
  0.00447642    0.0117366   -0.0315368    0.0562021    0.0112951    -0.023121   0.00408864   -0.0128662    0.0622071   -0.0118633
  0.00273427   -0.0826425   -0.0425766    0.0201582  -0.00403645      -0.0192    0.0182376    0.0235494    0.0483785    -0.069705
#
   0.0556307   0.00844488    -0.014215   -0.0142617    0.0542196   0.00329034    0.0382183   -0.0366379    0.0222314    0.0251099
  -0.0518308   -0.0344572    0.0556034    0.0143421    0.0198167   -0.0306937   -0.0123052    0.0131358    0.0219402   -0.0137604
  -0.0259528   -0.0691432   -0.0589225   -0.0207445    0.0131255   -0.0414674   -0.0473065    0.0142038    0.0278954    0.0505981
  -0.0144019   0.00477886    0.0748085   -0.0118168   0.00535999    0.0334954    0.0202476   -0.0673977    0.0162723  -0.00658562
 -0.00109224   0.00914123   -0.0306651   -0.0313929     0.023489    0.0310278    0.0012863   0.00839302   -0.0317974   -0.0651969
 -0.00131437    0.0172621  -0.00249718  -0.00834157    -0.017041   -0.0313253    0.0216048   -0.0186853   -0.0591731   -0.0262016
  0.00136667   -0.0505585     0.036689  -0.00679745   -0.0378619    -0.011867   0.00663082   0.00123989   0.00940766    0.0551441
  0.00980011   -0.0337129    -0.074344   -0.0295472   -0.0557254    0.0345773    0.0143254 -0.000610793   -0.0843895   -0.0126142
  -0.0174465     0.028549    0.0137403   -0.0400976   -0.0214699   -0.0410498    0.0459879    -0.015162    0.0276922    0.0134435
   0.0292676   -0.0134651  -0.00884272    0.0348453   -0.0254733     0.035555   -0.0186785    -0.029254    0.0474754    0.0254654
#
 0.00481743 -0.00668305  -0.0114604  -0.0338326  0.00306803 -0.00736622 -0.00728407   0.0087492   0.0210068   -0.043072
 0.00403291  0.00122419   0.0132028   0.0935236   0.0207935  -0.0739353  -0.0486655  -0.0158481  0.00764981   0.0403983
 0.00709636   0.0664329   0.0651433    0.015681  -0.0125518  -0.0679779   -0.027328  -0.0147682   0.0305367  -0.0385155
#
!
<67>:34
    0.048604   -0.0177796     -0.01516   -0.0247612    0.0771905   -0.0426144   -0.0244267   -0.0103074    0.0135814
 -0.00982421   0.00761444    0.0262483  -0.00342646   -0.0429422   0.00388787   -0.0162947    0.0438692   0.00874645
  -0.0658996   -0.0238216   -0.0238874 -0.000519833  0.000903137    0.0177888   0.00956023     0.056006 -0.000958513
 -0.00791025   -0.0171483  0.000933098   -0.0014127   -0.0500299  0.000785621    0.0108983    0.0416989     0.019149
  -0.0508295   -0.0119642    0.0377161   0.00421119   0.00714239   -0.0147234   -0.0324459    0.0423663    0.0258274
 -0.00747606    0.0219298    0.0143368   -0.0263709  -0.00229745     0.040841   -0.0113938    0.0102477    0.0519626
   0.0423433    0.0183239    0.0138209   -0.0218849    0.0526756    0.0630406  -0.00816051  -0.00311054    0.0172411
 -0.00335076   -0.0187901   -0.0100415   0.00043135    0.0801791    0.0240125    0.0382743   -0.0617805    0.0343488
  -0.0389178   -0.0294823    -0.052505  -0.00130785    0.0487647  -0.00734205    0.0466318   -0.0309624   -0.0388152
   0.0622945    0.0219202  -0.00174384   -0.0267158    0.0265719   0.00157688  -0.00183316   -0.0110661     0.046913
#
    0.022462    0.0114414   0.00719362  0.000922821   0.00742311    0.0156116    0.0254072   -0.0104893   -0.0247191    0.0216782
   0.0413536    -0.010535  -0.00159676   0.00860248   -0.0329066    0.0429345   0.00148155   -0.0597659  -0.00165905   -0.0169155
   -0.032702    0.0518811     -0.01621    0.0171441   0.00591735    0.0490528  -0.00623471   -0.0122578     0.037081   0.00434686
   -0.024017   0.00189569   -0.0313232   -0.0605508  -0.00991009   -0.0016049   -0.0168072  0.000774223  -0.00962935   -0.0153469
  0.00669814    0.0142237  6.13453e-05  0.000363582    0.0352269    0.0730609    0.0171294   -0.0270361   -0.0010106    -0.038211
  -0.0598117    0.0213046    0.0135006  -0.00549525    0.0494945   -0.0316119   -0.0133804    -0.070402    0.0496647   -0.0364037
  -0.0560817    0.0127774  -0.00515027   -0.0901659   -0.0125873   -0.0210695    0.0282468   -0.0283969    0.0114347    0.0111902
   -0.021584  0.000559037    0.0460741   -0.0647255   -0.0371796    0.0173155 -0.000106787   -0.0221273    0.0868381  -0.00690285
 -0.00578003   -0.0051137   -0.0321618    0.0485964   -0.0235423   -0.0111876 -0.000959154   -0.0135575    0.0690922   -0.0199264
  0.00520961   -0.0874709   -0.0418039    0.0227196    0.0109017   -0.0279314    0.0423649    0.0361515    0.0379642   -0.0513728
#
   0.0531891    0.0013536   -0.0109047  -0.00355703    0.0361263  0.000737791    0.0383974   -0.0221023    0.0079655    0.0319041
  -0.0676574   -0.0382784    0.0683137   0.00543386      0.04295   -0.0496435   -0.0216466    0.0326574    0.0166608   -0.0247348
   0.0054721     -0.08184   -0.0686788   -0.0263932    0.0162329    -0.023216   -0.0378927  -0.00594468    0.0231156    0.0438155
  -0.0383599    0.0247604    0.0544297   -0.0160984    0.0185096    0.0344138    0.0428584   -0.0534777    0.0113743   -0.0024046
  0.00152843     0.018175   -0.0239769   -0.0294184   0.00764733    0.0292999   0.00885004  -0.00557914   -0.0119917   -0.0526703
   0.0115116    0.0248289   0.00205109  -0.00610335  -0.00540466   -0.0403373    0.0301062   -0.0323511   -0.0547697   -0.0425193
-0.000973387   -0.0535562     0.049433   0.00465664   -0.0206706  -0.00564207   0.00995834  -0.00614772  -0.00283918    0.0418797
   0.0217594   -0.0102012   -0.0933459   -0.0450614   -0.0444621    0.0165525    0.0278697   0.00544366   -0.0911674    -0.023156
   -0.033595    0.0486697    0.0115174   -0.0513245  -0.00751878   -0.0254325    0.0355292   -0.0151186    0.0188776   0.00706084
   0.0436053  -0.00372647   0.00652997    0.0189892   -0.0304475    0.0413035   -0.0263403   -0.0366103    0.0315907     0.010478
#
   0.025508    0.011216 -0.00306167  -0.0224119  0.00474145  0.00571082  -0.0231057  -0.0023293   0.0226427  -0.0507957
 0.00276528 -0.00800725  0.00339909   0.0677304   0.0262373  -0.0711052  -0.0461421   -0.010303  -0.0175064    0.027297
 0.00343428   0.0689137   0.0561216  0.00442516  -0.0228769   -0.061171 -0.00629663   -0.030422   0.0650382  -0.0475814
#
!
<99>:33
  0.0465705  -0.0149472   -0.021816  -0.0312388   0.0653567  -0.0575713 -0.00919307 -0.00742717   0.0334023
-0.00904607   0.0140114   0.0111975  0.00255605  -0.0381341  0.00545744 -0.00534901   0.0347339 -0.00740562
 -0.0533944  -0.0192087  -0.0471028   0.0122269  -0.0100489   0.0148702  -0.0138169   0.0592841   -0.017276
-0.00955098  -0.0209099   0.0020758  -0.0143509  -0.0434424 -0.00376762   0.0210493   0.0134671 0.000380364
 -0.0375708  -0.0322638    0.034259   0.0178763   0.0176646   0.0010905  -0.0347929   0.0446414   0.0147618
 -0.0178684    0.026757   0.0271229  -0.0152533   -0.020207   0.0342285  -0.0362741  0.00632982   0.0517793
  0.0533426    0.021916   0.0349517  -0.0336686    0.048909    0.039646  -0.0126261   0.0141096   0.0387351
 0.00411637 -0.00739963 -0.00895513  -0.0226602   0.0750151  0.00892336   0.0318388  -0.0427896   0.0231793
  -0.035117 -0.00402582  -0.0203468  -0.0123004   0.0296443  -0.0184465    0.041607  -0.0251787  -0.0237949
  0.0650187   0.0287064  -0.0346631  -0.0253173   0.0303517  0.00592064 -0.00331355  -0.0312816   0.0406195
#
  -0.0203515    0.0117698  -0.00707153   -0.0138104    0.0450264   0.00418724    0.0212504    -0.017531   -0.0106354    0.0348404
   0.0308135   -0.0168398   0.00566503    0.0210052    -0.037099    0.0426945   -0.0260045   -0.0653869   0.00928551   -0.0293369
  -0.0383756    0.0421622  6.38729e-05     0.046011   0.00336993    0.0653156   -0.0239915   -0.0234972    0.0338406  -0.00933057
  -0.0399632    0.0250399  -0.00889223    -0.028263  -0.00915029  -0.00937416    -0.027098   0.00314172   0.00481993   -0.0196708
   0.0064237    0.0198177    0.0172468   -0.0188299    0.0381371    0.0550538    0.0506577   -0.0338016   -0.0224104   -0.0640443
  -0.0551153      0.02054   0.00251717   -0.0113624    0.0565621   -0.0114666    0.0102964   -0.0896395    0.0450837   -0.0269996
  -0.0374275   -0.0117304    0.0128606   -0.0661049  -0.00456577  -0.00387438    0.0299878   -0.0307947 -0.000612929    0.0338954
   -0.014732  -0.00244298    0.0447394   -0.0598985   -0.0382526   0.00426418  -0.00647683  -0.00865939    0.0765016   0.00914853
 -0.00293971     0.027128   -0.0309391    0.0458909   -0.0111999    -0.018017   0.00411226   -0.0190339    0.0809717   -0.0163814
 -0.00764615   -0.0717677    -0.041551     0.033718    0.0115871   0.00844816     0.048294    0.0231342    0.0226792   -0.0687307
#
   0.056381   0.0100637 -0.00238197  0.00861894   0.0551048 -0.00980772   0.0211919  -0.0302372   0.0137871   0.0204241
  -0.077509  -0.0376858   0.0874033  0.00502526   0.0189546  -0.0415966 -0.00705269   0.0236287   0.0438538  -0.0136403
-0.00777529  -0.0455474  -0.0723768  -0.0127905   0.0173863  -0.0188637  -0.0412018  -0.0205303    0.044785   0.0406661
 -0.0278004   0.0138363   0.0635557  -0.0195051  0.00677396    0.025559   0.0465118  -0.0728959  0.00673074  -0.0115824
  0.0100281   0.0206307  -0.0138171  -0.0260479    0.031799   0.0384793   0.0111369   0.0214231 -0.00511385   -0.059754
-0.00439564  0.00523538  9.7492e-05  -0.0116242  -0.0189265  -0.0390994    0.030496  -0.0282496  -0.0539587    -0.02114
-0.00545991  -0.0484707   0.0283724  0.00138141     -0.0118  0.00345999   0.0210127   0.0063981   0.0205491   0.0678723
-0.00864861  -0.0176065   -0.077573  -0.0259554  -0.0517249   0.0248233   0.0157601  0.00930459  -0.0833345 -0.00366687
 -0.0225154   0.0271646 -0.00387045  -0.0290072 -0.00224216  -0.0348102   0.0317641  -0.0132547   0.0245213   0.0105608
  0.0235765  -0.0115515  0.00250857  0.00844167   -0.022567   0.0530209  -0.0170858 -0.00522819   0.0371754 0.000123729
#
  0.0146335   0.0179494  -0.0297793 -0.00889735  0.00114788   -0.015204  -0.0108754  -0.0137026   0.0284736  -0.0340846
 -0.0066439 -0.00550049 -0.00436794   0.0834262   0.0254423  -0.0633409  -0.0464896  -0.0338855  0.00633244   0.0399644
 0.00632238   0.0624446    0.060739   0.0138526  -0.0148797   -0.068955  -0.0122978  -0.0149298   0.0691041  -0.0367573
#
!
<81>:31
   0.0155852   -0.0156971   -0.0114868   -0.0326484    0.0640121   -0.0661764   -0.0377315   -0.0292655    0.0219785
    0.011516  0.000776026    0.0331023   -0.0104305  -0.00599361     0.017601  -0.00507925    0.0275971    0.0152836
  -0.0588459   -0.0110399   -0.0647728   0.00335029   -0.0153955    0.0100414   -0.0145729    0.0618419   -0.0128958
 -0.00254013   -0.0224424 -0.000455355   -0.0211099   -0.0643748   0.00553173    0.0310727    0.0190126   -0.0127233
  -0.0448444  -0.00889121    0.0364717    0.0152658    0.0170616    0.0164157   -0.0392076    0.0459191   0.00672615
 -0.00900306    0.0111152    0.0319061  -0.00902104   -0.0186907    0.0350027   0.00311597    0.0236756    0.0644498
   0.0508371    0.0278726     0.032968   -0.0328129    0.0702244    0.0529188   -0.0207626    0.0362081    0.0198003
 -0.00124352   -0.0297156   -0.0247094  -0.00656692    0.0716909    0.0178568    0.0368387   -0.0526975    0.0137225
  -0.0201634   -0.0232806   -0.0391047   -0.0083209     0.057288  0.000508095    0.0483159   -0.0330567   -0.0113705
   0.0475046    0.0186697   -0.0338618  -0.00971595    0.0107551  0.000249362  -0.00709457    -0.019556    0.0436923
#
   0.0129516   0.00277937  -0.00919278  -0.00162549    0.0329115    0.0104742  -0.00113638  -0.00197869   -0.0215482    0.0411285
   0.0390865   -0.0170556    0.0160738    0.0092015   -0.0331215    0.0169395   -0.0119795   -0.0616397    9.574e-06   -0.0137941
  -0.0437443    0.0346617  0.000679129    0.0154589    0.0137023    0.0736702   -0.0174431  -0.00192153    0.0303616   0.00506575
  -0.0363926    0.0156867   -0.0266975   -0.0452222    -0.011793   0.00866673   -0.0179106    0.0160576   -0.0113012   -0.0141125
   0.0149713    0.0174801   0.00915134  -0.00444603    0.0424626    0.0577789    0.0372279   -0.0273238  -0.00658927   -0.0509159
  -0.0632791   -0.0101429   -0.0129399     0.010565    0.0219835   -0.0215726 -0.000391783   -0.0858575    0.0625895   -0.0370771
  -0.0463998    0.0126636    0.0154448   -0.0745793   -0.0120655  -0.00365632    0.0379487   -0.0411119   0.00467056    0.0231996
  -0.0305218  -0.00598748    0.0440083   -0.0507215   -0.0406076   0.00640533  0.000663882   -0.0177095    0.0873975   0.00822082
  -0.0251365   0.00305123    -0.011471    0.0423367   0.00168964  -0.00690221   0.00479844      -0.0224    0.0633742  -0.00290943
-0.000657668   -0.0900807   -0.0671783    0.0509715  2.38166e-05   -0.0248203     0.028797    0.0431457    0.0254824   -0.0482071
#
   0.031888   0.0127435 -0.00697613  -0.0180319   0.0633961   -0.014429   0.0228873  -0.0114167 -0.00450928   0.0221885
 -0.0544728  -0.0320881   0.0638941 -0.00355861    0.019762  -0.0400003  -0.0137414   0.0283529    0.024471  -0.0258924
 -0.0143471    -0.04928  -0.0709917  -0.0185374  0.00842434  -0.0365506  -0.0404401 -0.00603961   0.0536784   0.0290909
 -0.0308289  0.00642474    0.075363  -0.0209342   0.0252069    0.044022   0.0256632  -0.0694983 -0.00785783  -0.0198261
-0.00165304   0.0245216  -0.0183771  -0.0332458   0.0319585   0.0330461  0.00710514 -0.00143865  -0.0168334  -0.0573699
  0.0357634   0.0343289   0.0114139  0.00193444  -0.0352837  -0.0377264   0.0246125  -0.0262413  -0.0448984  -0.0215143
 0.00596542  -0.0360363   0.0464123  -0.0125472  -0.0127075 -0.00767373   0.0205132  -0.0183774 -0.00822636   0.0533813
 -0.0208778  0.00167204  -0.0857483  -0.0243374  -0.0439879   0.0147501   0.0183851   0.0161233  -0.0835657   0.0100131
 -0.0286837   0.0100231   0.0159161  -0.0240859  -0.0310758  -0.0409217   0.0339724 -0.00558366   0.0230243    0.017783
  0.0260763 -0.00620608  0.00377974  0.00845696 -0.00323393   0.0529644  -0.0196926  0.00144143   0.0174192 -0.00791533
#
   0.0161319   0.00246293   -0.0160947 -0.000183114    0.0212355  -0.00881942  -0.00749671   -0.0186226    0.0198161   -0.0645166
  -0.0174098   -0.0014951    0.0108134     0.090377  -0.00347586   -0.0854198    -0.047549   -0.0370163    0.0160496    0.0444819
  0.00249778    0.0549477    0.0311165     0.020813   -0.0271399   -0.0657074  -0.00615876  -0.00425093    0.0603095   -0.0321814
#
!
<20>:31
   0.0319516     -0.02754   -0.0275621   -0.0454504    0.0698485   -0.0595056    -0.019973    0.0144852   0.00392205
   0.0263969     0.032176    0.0523117   -0.0151154   -0.0351063   -0.0121029   -0.0071253    0.0534019  -0.00722731
  -0.0586898  -0.00357177    -0.033036   -0.0117573  -0.00703236    0.0206366  -0.00460683    0.0678475    0.0168882
  -0.0075857   -0.0457833    0.0128962   0.00120342   -0.0301425  -0.00852975    0.0430557    0.0146866  -0.00906478
  -0.0437223  -0.00545214    0.0316175    0.0304152    0.0213117 -0.000676799   -0.0322423    0.0229132    0.0457475
-0.000311584   0.00645963    0.0305539   -0.0163545  -0.00300586    0.0237784   -0.0112407    0.0111293     0.030061
   0.0428488    0.0367296    0.0338017   -0.0405535     0.053053    0.0586386   -0.0389017    0.0129853    0.0209032
 -0.00631465   -0.0325538   -0.0296684   -0.0178689    0.0458017    0.0164005    0.0129818   -0.0301611    0.0311622
  -0.0225245   -0.0154436    -0.032241   -0.0078893    0.0457287    -0.023098     0.038414   -0.0256514   -0.0645689
   0.0589773    0.0186977  -0.00568286    -0.025431   0.00914693   0.00305876  -0.00858578  -0.00785235    0.0496858
#
-0.000202634  -0.00120549  -0.00503471  0.000714848    0.0345573    0.0173026   0.00761186 -5.26248e-05   -0.0131569    0.0209178
    0.038395   -0.0173897  -0.00504726     0.005955   -0.0376906    0.0341026   -0.0146619    -0.095414   0.00385505   -0.0232258
  -0.0140792    0.0549546   -0.0142385    0.0323485   0.00443482    0.0485846   -0.0167776   -0.0109754     0.037329  -0.00746216
  -0.0299259    0.0290533   -0.0203044   -0.0255851   -0.0105367   -0.0120327   -0.0141726    0.0119722   0.00357089  -0.00261197
 -0.00476188    0.0250298   0.00525658   -0.0106196    0.0289549    0.0272376    0.0372543   -0.0116051   -0.0221064   -0.0539272
  -0.0691537    0.0110465    0.0046454   0.00516357    0.0238108   -0.0171016   0.00279079   -0.0846507    0.0389445    -0.039341
  -0.0891323   0.00123219    0.0238958   -0.0684279   0.00101959  -0.00801935    0.0481702   -0.0067963    0.0140182   0.00865588
   0.0152464    0.0325892    0.0253116   -0.0489171   -0.0470411 -0.000709372 -3.70307e-05   0.00942831    0.0561246   0.00823487
  0.00157714   -0.0085873   -0.0334362    0.0577152 -0.000902239   -0.0160731     0.013234   -0.0264967    0.0632701   0.00491833
   0.0202115     -0.08334   -0.0409283    0.0188764  -0.00155796   -0.0142029    0.0218284    0.0189468    0.0218087   -0.0643717
#
   0.0435805     0.001639   -0.0176141   0.00738886    0.0608863   -0.0103518     0.037191   -0.0261161    0.0205324    0.0293599
  -0.0801227   -0.0367368     0.080336   -0.0124634   0.00477485   -0.0553107  -0.00368355    0.0131588    0.0289487   -0.0446162
  -0.0122057   -0.0508153   -0.0784619   -0.0306758    0.0227575   -0.0126278   -0.0268313   0.00435283    0.0163342    0.0400078
  -0.0144669    0.0272055    0.0757487   -0.0183179    0.0100093    0.0381924    0.0398566   -0.0740181   0.00148892   -0.0227673
-0.000465324    0.0278468   0.00244174   -0.0247114    0.0212578    0.0428666   -0.0123878   0.00298006  -0.00385819   -0.0516436
-0.000800559   0.00899279   0.00209545 -0.000209355   -0.0256017    -0.029804    0.0300118   -0.0100055   -0.0572487    -0.022155
  -0.0126269   -0.0489571    0.0379242    0.0083588   -0.0100105  -0.00662096  -0.00326482  -0.00248456   -0.0033828    0.0192458
   0.0128978   -0.0271635   -0.0792551   -0.0178123   -0.0541796    0.0153916    0.0271871  -0.00664807   -0.0558684   -0.0111365
  -0.0100708    0.0445762    0.0163946   -0.0430033  -0.00554578   -0.0501083    0.0540424    -0.037776    0.0147586  -0.00661151
 -0.00109354   -0.0116454  6.37408e-05    0.0271264   -0.0164285    0.0446824   -0.0272773   0.00165181    0.0178652   0.00783202
#
 0.0344768 -0.0188409  -0.038626 -0.0264048 0.00826923  0.0033658 -0.0358123 0.00486124 0.00960332 -0.0265605
0.00143422 0.00974945 0.00922374  0.0506809  0.0287331 -0.0682501 -0.0268979 -0.0237255 -0.0148815  0.0277141
0.00697896  0.0310055  0.0503002  0.0207915 -0.0280091 -0.0570548 -0.0308535 -0.0141942  0.0299219 -0.0312219
#
!
<4>:30
    0.108916   -0.0337453  -0.00684686  -0.00484064    0.0860549   -0.0723967   -0.0236874   0.00853013    0.0517387
   0.0162427   -0.0229314  -0.00659289   -0.0416128   -0.0657573   -0.0105552    0.0215283    0.0232702    0.0143962
   -0.081649   -0.0635074   -0.0119287    0.0076643  -0.00613322   -0.0514813   0.00857765    0.0420514   -0.0111476
 -0.00964352   -0.0161716    0.0243919   -0.0163686   0.00176677   -0.0409888    0.0333824   -0.0190593   -0.0431078
   -0.033974   -0.0385494     0.056459    0.0554788  -0.00509772   -0.0512696   0.00127299    0.0488528    0.0200837
   0.0254893  -0.00352637    0.0361312   0.00876497  -0.00206204    0.0681658    0.0212506   0.00722109    0.0246273
  0.00288283    0.0214234    0.0359318  8.40385e-05    0.0624094     0.029661     0.034611   -0.0115946   -0.0403255
 -0.00682319 -0.000663238   -0.0645297  -0.00275539     0.076077    0.0347983  -0.00333865    0.0122759   0.00829485
  -0.0546098   -0.0116153  -0.00515241   0.00254744    0.0185183   -0.0163977    0.0438781    0.0268155   0.00030533
   0.0352014    0.0173204   -0.0815831  -0.00948157     0.055755    0.0463718   -0.0417396  -0.00344871     0.035118
#
   0.0441923    0.0238875   -0.0153046    0.0362369    0.0127089  -0.00331773    0.0121142    0.0330246  -0.00804191    0.0218117
  -0.0180876    0.0316579  -0.00703429    -0.055096    0.0116702   -0.0463431    0.0170077   -0.0466256   -0.0371389  -0.00993578
  -0.0280952    0.0466203   -0.0148984   -0.0138784  -0.00532903   -0.0341575    0.0171204   -0.0187635    0.0470386   0.00516864
  0.00870505   -0.0279453   -0.0239246    -0.026223   0.00510254   -0.0275501    0.0179308    0.0655671   0.00992486     0.018474
 -0.00903883    0.0569959    0.0316458   -0.0266132     0.029247    0.0232455    0.0053059   -0.0250982    0.0328984   0.00515551
  -0.0652599    0.0315808   -0.0323029   -0.0203112    0.0851028   0.00841381   -0.0386487   -0.0927894    0.0679947   0.00778308
  -0.0473383   -0.0635894    0.0281031   -0.0586231   0.00230229   -0.0133739    0.0738282   -0.0571046    0.0087824    0.0237032
  -0.0451279   -0.0117219    0.0245819    -0.043118   -0.0823255   -0.0403921  -0.00294526    0.0495045    0.0590485    0.0208096
  0.00738587    0.0262329   -0.0659161     0.029228    0.0388348    0.0139832    0.0158393   -0.0195968    0.0467172   -0.0113023
   0.0349795      -0.1068   -0.0360999    0.0284776     0.044702 -0.000161456  -0.00117938    0.0442315    0.0088172    -0.116461
#
  0.0199845   -0.026093 -0.00254058   0.0197205   0.0275078  -0.0305457  -0.0106987  -0.0473853   0.0416512  -0.0412431
 -0.0459335  -0.0331462  0.00365107 0.000152919   0.0766187  -0.0306741   0.0271212  -0.0249584   0.0153345    0.031821
 -0.0415974  -0.0482316  -0.0481786    0.035888   0.0378901  -0.0279224 -0.00821545   0.0419865  -0.0117635   0.0438911
 -0.0396964  -0.0332569   0.0395111    0.037674 -0.00558422   0.0173412   0.0147458  -0.0828402  0.00322115   0.0227045
 -0.0123347   0.0247877    0.030424  -0.0706398   0.0449999  -0.0457347  -0.0434146   0.0302519 -0.00540297   -0.086748
 -0.0320386   0.0294056  -0.0322847  0.00538968  0.00143438  -0.0355588   0.0919738   0.0116671  -0.0816752   0.0277079
  0.0589759  -0.0710185   0.0330371   -0.017731      0.0704  -0.0340203  0.00651229   0.0562669  -0.0148897  0.00310598
 -0.0328632  -0.0225639  -0.0108383  -0.0277667  -0.0629165    0.031097  -0.0285284 -0.00827226  -0.0980751 -0.00387554
 -0.0240688   0.0724383   0.0435586   -0.069102   0.0244235  -0.0168931   0.0781098   0.0112607  -0.0319211   -0.030321
  0.0527203    0.046017   0.0280185   0.0351871  -0.0451287   0.0307295  -0.0146192  -0.0148068   0.0162329   0.0268941
#
 -0.0119235  -0.0314783   0.0173487 -0.00970887  -0.0048464  0.00338511   -0.027135   0.0330383   0.0419115   0.0221425
  0.0423797  -0.0676998    0.042683   0.0125456   0.0311939  -0.0622726  -0.0462991  -0.0266146   0.0130786   0.0397865
  0.0110528   0.0545909   0.0522433  -0.0182736  -0.0449204  -0.0318139  -0.0351851    0.026968  0.00870225  -0.0295166
#
!
<10>:28
   0.101787   -0.029714  -0.0196691  -0.0229302   0.0940883  -0.0817989  -0.0365921  0.00479269   0.0530518
  0.0216255  -0.0363375 -0.00259495  -0.0514105  -0.0756933  -0.0125041   0.0341911   0.0200097 -0.00417401
 -0.0911108  -0.0716416  -0.0114015  0.00765579  0.00459064  -0.0531351 -0.00197902   0.0581212   -0.011875
 -0.0250683  -0.0186093   0.0116021 -0.00828128   0.0104418  -0.0373174   0.0342054  0.00849011  -0.0471694
 -0.0244391  -0.0588931    0.048716   0.0573043  0.00880515  -0.0393372  0.00115451   0.0518165  0.00701838
  0.0379109  -0.0135518   0.0248918  0.00698117 -0.00195588   0.0670387    0.038663   0.0129783   0.0240501
 0.00464585   0.0208455    0.055375 0.000351163   0.0664536   0.0156568   0.0509628  0.00750844  -0.0247879
0.000723459  0.00538539  -0.0631904  -0.0092948   0.0795174   0.0495595 -0.00844859     0.01011 -0.00577232
 -0.0551607  -0.0219001   0.0139028  0.00486508  -0.0124116  -0.0073206   0.0457686   0.0188773 -0.00604872
  0.0132686 -0.00913919  -0.0568856   -0.011521   0.0286214   0.0194963  -0.0367731  -0.0162233   0.0465983
#
   0.0489222   0.00271324  -0.00205567    0.0277144  0.000935024   0.00298844    0.0252344    0.0360909   -0.0174128    0.0134971
  -0.0408173    0.0279024     -0.02293   -0.0564479     0.031036   -0.0447442    0.0438434   -0.0410567    -0.055311  -0.00336567
  -0.0458317    0.0413244   -0.0208792   0.00280093  -0.00900426   -0.0298707     0.034459   -0.0298526    0.0495479    0.0272062
   0.0232861   -0.0353522   -0.0394697  -0.00403146   0.00618527   -0.0389093    0.0318325    0.0634347   0.00552411   0.00466648
 -0.00849433    0.0564165    0.0209054   -0.0438755     0.038723    0.0405566    0.0311056      -0.0537    0.0490782   0.00823388
  -0.0576512    0.0307981   -0.0326708   -0.0239194    0.0775754    0.0107913   -0.0642182   -0.0934147     0.088984   -0.0142561
  -0.0412349    -0.083327    0.0370979   -0.0394947  -0.00880654   -0.0396114    0.0757242   -0.0592974   0.00236385    0.0245765
  -0.0462947   -0.0221194    0.0189797   -0.0446932   -0.0806437   -0.0171024   0.00592474    0.0555016    0.0697984    0.0119314
    0.033348    0.0500231   -0.0944552    0.0344394    0.0502697    0.0247925     0.028854  0.000399646    0.0342534 -3.83304e-05
   0.0374368    -0.107861   -0.0074958    0.0268457    0.0340082   0.00641051   -0.0123354    0.0297342   -0.0038155    -0.127282
#
  0.0295902  -0.0254755  -0.0127493   0.0450046   0.0203286  -0.0343475  -0.0289965  -0.0400475   0.0371151   -0.046492
 -0.0722586  -0.0523767   0.0222368  -0.0153094   0.0645062 -0.00926704   0.0222061   -0.028001   0.0217989   0.0328915
 -0.0286359  -0.0544065  -0.0446881    0.032583   0.0364287  -0.0519103  -0.0021738   0.0406641  -0.0162886   0.0349118
 -0.0384249  -0.0579792   0.0379498   0.0346854   0.0045627   0.0129167   0.0265406  -0.0501244  -0.0263936   0.0130942
 -0.0239728   0.0200905   0.0229458  -0.0638989   0.0388238  -0.0323421  -0.0386053     0.03758 -0.00646683  -0.0810615
 -0.0307394   0.0444677  -0.0299602  0.00934138   0.0106884  -0.0415268    0.089554  0.00753846   -0.074973   0.0267504
  0.0753894  -0.0575533   0.0437444  -0.0205385   0.0770677  -0.0118853   0.0137561   0.0424872  -0.0330875   0.0202312
 -0.0472993  0.00443945  -0.0118408  -0.0483753  -0.0478154   0.0344402  -0.0253377  -0.0217672  -0.0782026 0.000937933
 -0.0270319   0.0615092   0.0632486  -0.0679554  0.00823288 -0.00306493   0.0759464  0.00580979  -0.0426702  -0.0290471
  0.0402083   0.0446181   0.0231709   0.0314936  -0.0622127    0.035527  0.00890547  0.00315171   0.0140927   0.0308025
#
 -0.0120615  -0.0149854   0.0446218 -0.00618011 0.000579791  0.00214209  -0.0199464   0.0249138   0.0364208   0.0116339
  0.0408956  -0.0579758   0.0260732   0.0470214 -0.00134863  -0.0491222  -0.0299708 -0.00577317 -0.00211341    0.010385
  0.0225634   0.0507764   0.0392726  -0.0316037  -0.0555601  -0.0187149  -0.0390643   0.0273231  -0.0102716  -0.0375743
#
!
<78>:28
  0.0213303  -0.0312001  -0.0189345  -0.0215018   0.0893013  -0.0669191  -0.0286159  -0.0119735  0.00788044
  0.0198112   0.0276229   0.0438484  -0.0235749  -0.0414404  0.00186618  -0.0306425   0.0248929  -0.0155824
 -0.0963152 -0.00214201  -0.0462401   0.0127135  -0.0199372   0.0264536  0.00717122   0.0723311  -0.0142167
 -0.0209194  -0.0375635  -0.0071914 -0.00103606  -0.0670179 -0.00369342 -0.00145881   0.0176854  0.00870626
 -0.0464327  -0.0339265   0.0369261  0.00150708   0.0101572 -0.00907335  -0.0342828   0.0244753   0.0229874
 -0.0278915    0.017196   0.0322724 -0.00374235  -0.0146028   0.0518765    -0.02858  0.00452676   0.0285796
  0.0372852   0.0250147   0.0339455  -0.0312604   0.0483236   0.0556022  -0.0427139  0.00972786 0.000824793
 -0.0198227  -0.0190858  -0.0249982  0.00398602   0.0731902   0.0160378   0.0401976  -0.0330551    0.020897
 -0.0257169 -0.00199859  -0.0423257   0.0052775   0.0304484  -0.0125885   0.0489015  -0.0318006 -0.00490965
  0.0737907   0.0110174  -0.0108489  -0.0137332   0.0361581   0.0119041  -0.0138527  -0.0170073   0.0394912
#
  0.0106621   0.0152226   0.0013639  -0.0102641   0.0193377   0.0262677 -0.00210845  0.00226234  -0.0135063   0.0189303
  0.0333742 -0.00732092 0.000792822  0.00421647  -0.0423894   0.0401067 -0.00531123   -0.061359  -0.0098081 -0.00327572
 -0.0286273   0.0589216  -0.0176293   0.0378938 -0.00383294   0.0445122  -0.0239995  -0.0215114   0.0302141   0.0100639
 -0.0309218 -0.00528483  -0.0187085  -0.0276294  -0.0121656  0.00315467  -0.0243638   0.0243302 -0.00444955  0.00645334
-0.00762084   0.0334645  0.00825309  -0.0176172   0.0371622   0.0502141   0.0338064  -0.0304786  -0.0146973  -0.0555037
 -0.0711068   0.0178673   0.0104512   0.0257143   0.0441259  -0.0324809  0.00578423  -0.0770675   0.0620602  -0.0414013
  -0.039034   0.0204226  0.00708416  -0.0743428  -0.0218671  0.00103224   0.0476338  -0.0287544  0.00761312   0.0330607
 -0.0100332   0.0245537   0.0458762  -0.0596141 -0.00997216  -0.0187359 -0.00477355  -0.0253421   0.0740626 -0.00722466
  0.0115354   0.0131165  -0.0115842   0.0404191 -0.00604977 -0.00828847  0.00789322  -0.0188611   0.0748236  -0.0196194
  0.0136259  -0.0947207  -0.0431271   0.0466501   0.0168511  -0.0236476   0.0348195   0.0259917   0.0390247  -0.0600296
#
   0.0287694   0.00844583   -0.0249095  -0.00980054    0.0334164  -0.00989007    0.0417471   -0.0137556  -0.00394287    0.0368898
  -0.0604728   -0.0443667    0.0632436    0.0109395    0.0178013   -0.0429305   -0.0218057    0.0305339    0.0295842   -0.0225355
  -0.0113208   -0.0480017    -0.085381   -0.0297612     0.023996   -0.0385534   -0.0304051   0.00989683    0.0259062    0.0349822
 -0.00833424    0.0181148    0.0578236   -0.0269338    0.0161602    0.0412557    0.0351131   -0.0669202    0.0013797   -0.0206976
  -0.0177823 -0.000149397  -0.00381043   -0.0289617  -0.00376426    0.0214321     0.016785    0.0132798   -0.0115135   -0.0396514
   0.0153265    0.0124789    0.0240888  -0.00120167   -0.0111788   -0.0197297    0.0375914   -0.0336156   -0.0704909   -0.0233055
 -0.00400536   -0.0326226    0.0334187   0.00565512   0.00056536   0.00390818    0.0200617   0.00795583   0.00506675    0.0301439
  -0.0102739   0.00305203   -0.0881324   -0.0366984   -0.0521141    0.0260218    0.0135082  -0.00425681    -0.085177   -0.0223237
  -0.0224185    0.0302459  0.000767862    -0.025785   -0.0219441    -0.055461    0.0444608   -0.0222088    0.0250047   0.00873289
   0.0177907   -0.0100935   0.00655807   0.00772685   -0.0325304    0.0476453    -0.016145    -0.038908     0.039764    0.0178622
#
  0.0250153  0.00455277  -0.0226969  -0.0215935  0.00356501  0.00414492  -0.0285828 -0.00456549   0.0256474  -0.0174666
 0.00596275  -0.0168475  0.00373798   0.0945256   0.0181098  -0.0729315  -0.0560366   -0.016494 -0.00718868    0.010178
0.000451394   0.0606895   0.0814855    0.013522  -0.0262804  -0.0650563  -0.0192171  -0.0241974   0.0613445  -0.0437394
#
!
<12>:26
    0.096875    -0.029273  -0.00282437   -0.0287138    0.0675901   -0.0757587   -0.0153829  -0.00302849    0.0470898
   0.0239125   -0.0260365   -0.0197462   -0.0324458   -0.0680299   -0.0107207    0.0204433    0.0158395   0.00930486
  -0.0970345   -0.0519293   -0.0186297    0.0134316  -0.00590009   -0.0406515 -0.000681657     0.034091   -0.0194172
  -0.0206436   -0.0120147    0.0124587  -0.00327152    0.0233791   -0.0657464    0.0302507   0.00403043   -0.0479862
  -0.0204631   -0.0306692    0.0390551    0.0645215   0.00603053   -0.0643667   0.00577816    0.0503017    0.0081173
   0.0557602   -0.0124493    0.0405999   0.00433185  -0.00544644    0.0742585     0.019615  -0.00116197  -0.00130345
   0.0143638    0.0310541    0.0305246    0.0103689    0.0674639   0.00999728    0.0514987  -0.00750802   -0.0367381
  0.00794907  -0.00210838   -0.0777306  -0.00335167    0.0744259    0.0298027   -0.0330209    0.0253571    0.0310981
   -0.049761   -0.0209872   0.00353724   -0.0131211    0.0173575   -0.0288842    0.0366195    0.0130138   -0.0104804
   0.0258206  -0.00605202   -0.0891829   -0.0173048    0.0547645    0.0244403   -0.0222812   -0.0066782    0.0607139
#
  0.0505714   0.0196956  0.00502155   0.0265618   0.0137044   0.0217741   0.0392974   0.0515794  -0.0118554   0.0215551
 -0.0306867   0.0263463  -0.0272672   -0.067429   0.0190864   -0.047421   0.0318645  -0.0394786  -0.0287284  -0.0072644
 -0.0291749   0.0390547  -0.0101771  -0.0115246    0.024675  -0.0234894   0.0567175  -0.0361122   0.0336621  0.00600812
  0.0367659  -0.0416301  -0.0316634  -0.0316636   0.0127288  -0.0341195   0.0179834    0.062931   0.0255164   0.0141552
-0.00646487   0.0373514   0.0260133  -0.0223833   0.0475747   0.0506748  0.00539856   -0.014637   0.0520129   0.0198456
 -0.0598723   0.0525976  -0.0539827  -0.0213865   0.0705717  0.00929978  -0.0427123   -0.109938   0.0681525   0.0069977
 -0.0433825  -0.0792204   0.0616567  -0.0568983   0.0042082  -0.0149792   0.0798957  -0.0727854   0.0173433   0.0232141
 -0.0649139  -0.0213781   0.0209677  -0.0216243  -0.0822598  -0.0302868  0.00420652   0.0623501   0.0672895  0.00687827
 0.00261195     0.01435  -0.0567531    0.039035    0.031687   0.0363509    0.016186 -0.00381622   0.0616621  -0.0185234
  0.0547155    -0.10404  -0.0273696   0.0117512   0.0462495  0.00752142 -0.00693309   0.0254204   0.0106604  -0.0971585
#
  0.0191324  -0.0446999   0.0053487   0.0237909   0.0260716 0.000214102  -0.0104227  -0.0242102   0.0262317  -0.0522519
 -0.0525682  -0.0456052  0.00565961  -0.0115328   0.0415626  -0.0302059   0.0397397  -0.0332314   0.0186418    0.047088
  -0.025425  -0.0431037  -0.0659552   0.0524885    0.013831  -0.0435247 -0.00761671   0.0475001  -0.0219137   0.0349691
   -0.02094  -0.0488427    0.034176   0.0442264 0.000369172   0.0154825   0.0050775  -0.0778001  0.00631496   0.0299648
 -0.0139965   0.0310294   0.0195726  -0.0739614   0.0411817  -0.0546759  -0.0556219   0.0408576  -0.0205337  -0.0963489
 -0.0456485   0.0297996  -0.0524394  0.00608398   0.0231364  -0.0335513   0.0801211   0.0265282   -0.067442   0.0450334
  0.0811602  -0.0742848   0.0312473  -0.0262554   0.0844132 -0.00697227   0.0144135    0.053407  -0.0334475   0.0160787
 -0.0464157  -0.0287845  -0.0261481  -0.0411509  -0.0475159   0.0363463  -0.0289868  -0.0126265   -0.106585 -0.00106176
 -0.0263759    0.077775   0.0731195  -0.0655039   0.0184712 -0.00427677   0.0781347   0.0343367  -0.0324535  -0.0262057
  0.0430245    0.049541   0.0527202   0.0289417  -0.0636173   0.0188888 -0.00292502 -0.00859658   0.0202565   0.0123144
#
 -0.0102932  -0.0325475   0.0243855  -0.0148873 -0.00715172  -0.0046278  -0.0205306   0.0239621    0.030069   0.0334804
  0.0510392  -0.0522222   0.0394604   0.0157324   0.0304994  -0.0287942  -0.0268822 -0.00966109   0.0152809    0.018057
-0.00454427   0.0396027   0.0314723  -0.0215333  -0.0580097  -0.0267841  -0.0403508    0.050348 -0.00166123  -0.0212453
#
!
<70>:26
   0.0239195   -0.0265776  -0.00751821    -0.039936    0.0707593   -0.0554052   -0.0455101  -0.00361715    0.0283008
   0.0191016    0.0146787     0.036945   0.00728271   -0.0247847   0.00206752    -0.030312    0.0111794    0.0211365
  -0.0593732   -0.0142732   -0.0326744    0.0211191   -0.0381582    0.0224783 -0.000475829    0.0651323  -0.00347712
  0.00206434   -0.0233361  -0.00163652  2.65214e-05   -0.0458687    0.0104957    0.0178367    0.0260434    0.0179305
  -0.0475905   -0.0226151     0.020845    0.0370521  -0.00249057   -0.0123784   -0.0274124    0.0419746    0.0333055
  -0.0074962    0.0223787    0.0344682   -0.0130435  -0.00596771    0.0611041   -0.0229428   0.00377822    0.0477126
   0.0588364    0.0273822  -0.00113823   -0.0319236    0.0245788    0.0693701   -0.0311804    0.0323308     0.028604
  0.00262729    -0.028527   -0.0279263    -0.019791    0.0582141    0.0282714    0.0407257     -0.03587     0.029172
  -0.0254817   -0.0271232   -0.0386096   0.00220541    0.0427874   -0.0243986    0.0363403   -0.0142458   -0.0181964
   0.0554882    0.0283894   -0.0257496   -0.0135793    0.0114022    0.0157163  -0.00893476   -0.0178088    0.0245137
#
   0.0058692   0.00654591    0.0109809   0.00495385    0.0458662 -0.000407462    0.0252601   0.00966425   -0.0254955    0.0187522
   0.0341998   -0.0159671    0.0210251  -0.00149996   -0.0534227    0.0236001   -0.0319933   -0.0674936   -0.0146863   -0.0216713
  -0.0215314    0.0735608   -0.0176596    0.0396188  -0.00641081    0.0452693   -0.0202049   -0.0315936    0.0330449  -0.00724475
  -0.0322117    0.0308741   -0.0227189   -0.0432072  -0.00806608  -0.00131799  -0.00711229  -0.00596529    0.0129291   -0.0138901
 -0.00653805    0.0202757   0.00692921  -0.00412212    0.0291191    0.0521813    0.0286118   -0.0249303     -0.03176   -0.0505456
  -0.0578303   0.00522805    0.0189834    0.0222605    0.0268128   -0.0307697   0.00513312   -0.0658723    0.0518487   -0.0411856
  -0.0372686   -0.0169603   0.00803832   -0.0699361  -0.00879909  -0.00360305    0.0339202   -0.0269516   0.00632314    0.0291739
  -0.0160354   0.00652902     0.051539   -0.0558529   -0.0408284    0.0165476   -0.0199985    -0.012906    0.0556552    0.0117362
 -0.00872435   0.00839464  -0.00770777    0.0377824   0.00703572   -0.0325484     0.016907   -0.0106565    0.0640589   -0.0246158
  -0.0143837    -0.075972   -0.0464056    0.0440703   -0.0231638  -0.00631606    0.0165609    0.0179085    0.0277937   -0.0709949
#
   0.0639091 -0.000668085   -0.0137487   -0.0125495    0.0326918  -0.00686481    0.0214198   -0.0107794  0.000554772    0.0179473
  -0.0689357   -0.0262948     0.089887    0.0123841     0.019308   -0.0449867   -0.0237106   0.00617263 -0.000835636   -0.0160249
 -0.00706718   -0.0354715   -0.0629263    -0.012434    0.0121175   -0.0280855    -0.031528    0.0124936    0.0351053    0.0224207
    -0.01702    0.0162229     0.053904   -0.0129571   0.00594316    0.0439504     0.036978   -0.0705184   -0.0203947   -0.0174756
   0.0154457   0.00352943   -0.0288447   -0.0281274    0.0174489    0.0250323   0.00162081  -0.00583025  -0.00740137    -0.051782
  0.00357784  -0.00751598    0.0159112   -0.0162263   -0.0216398    -0.050621    0.0298847   -0.0339746   -0.0811165   0.00240497
  -0.0105242   -0.0611842    0.0221772   -0.0102839  -0.00611843  -0.00685765  -0.00899088   -0.0147791   -0.0150242    0.0362919
-0.000881864   -0.0311527   -0.0778436   -0.0309727   -0.0457528    0.0235896    0.0102794  -0.00591136   -0.0690795  -0.00461422
  -0.0159162    0.0541224   0.00977294    -0.036141   -0.0263391   -0.0403247    0.0321075   0.00721821    0.0379994    -0.010666
  0.00633641  -0.00224451    0.0157808    0.0273199   -0.0241237    0.0417811   -0.0133098   -0.0163587    0.0273234    0.0159943
#
  0.0249889   -0.017212  -0.0142169  -0.0215943  0.00461501 -0.00416663 -0.00307792 -0.00782454   0.0305924  -0.0436565
0.000331392   -0.019063   0.0124504   0.0873588  0.00811055  -0.0752785  -0.0482805  -0.0120626 -0.00687786   0.0305509
  0.0214668   0.0584693    0.061491  0.00996022  -0.0239681  -0.0525205  -0.0227041  -0.0251484   0.0494764  -0.0239332
#
!
<11>:25
    0.038227   -0.0351217   -0.0122346   -0.0212499    0.0747954   -0.0696584   -0.0144443   0.00520069    0.0127131
 -0.00144986   0.00284005    0.0398073   -0.0224564   -0.0222223   0.00805409  -0.00365638    0.0360574 -0.000163399
  -0.0636547   -0.0155805   -0.0326349  0.000296988   -0.0355176    0.0134565   -0.0118821    0.0721953   -0.0109879
  -0.0114918   -0.0327744    0.0103449   0.00210842   -0.0349372   -0.0138075    0.0070044    0.0397249   0.00113061
  -0.0605609   -0.0119906     0.040996    0.0473076    0.0161398  0.000107258   -0.0271242    0.0251335     0.048632
  -0.0149037   0.00424729    0.0136528    -0.013298  0.000288118    0.0415933   -0.0171592    0.0415986    0.0379755
   0.0448161    0.0320162    0.0272714    -0.034717    0.0781516    0.0592542   -0.0244457    0.0214824    0.0144245
   -0.016662   -0.0217879  -0.00144903  -0.00883845    0.0544809    0.0164878    0.0218628   -0.0376932    0.0236057
   -0.023761  -0.00585081    -0.024288    0.0160112    0.0426069   0.00107497    0.0488001   -0.0166164   -0.0689428
   0.0491262    0.0268621    -0.024738   -0.0105591    0.0176855    0.0211864   -0.0027127   0.00248384    0.0176122
#
   0.0050554    0.0179253  -0.00522891    0.0109628       0.0421   0.00697968  -0.00100781   -0.0140528  -0.00997012    0.0325666
   0.0352441   -0.0160128   0.00307205  -0.00857085   -0.0303357    0.0349691    -0.021144   -0.0597521    0.0207505   0.00300579
   -0.024599    0.0474949  -0.00546235    0.0346673   0.00844055    0.0716842   -0.0257387  -0.00164117    0.0405367 -0.000416713
  -0.0266608    0.0321441   -0.0105532   -0.0501107  -0.00237904   -0.0178673   -0.0236878   0.00200349   0.00548035   -0.0263029
   0.0163408    0.0319606   0.00444804   0.00404862    0.0254954    0.0495906    0.0445091   -0.0219259   -0.0142028   -0.0451083
  -0.0564951    0.0233392    0.0063483    0.0281638    0.0213882   -0.0215141  -0.00369179   -0.0756743    0.0520846   -0.0383803
  -0.0854333  -0.00274295    0.0203966   -0.0662673   -0.0205825   -0.0201756    0.0482869    -0.028423   0.00612545   0.00153406
 -0.00933883    0.0194739    0.0304792   -0.0361858   -0.0373122   -0.0062966   0.00651603   0.00275548    0.0444956    0.0148246
  0.00108456  -0.00883575   -0.0343168    0.0415547    -0.021317   -0.0111496   -0.0127225   -0.0139212    0.0568087   0.00790059
 -0.00668773    -0.088855   -0.0334893    0.0261311   0.00216699   -0.0110388   0.00853977    0.0267095    0.0286178   -0.0733683
#
  0.0472568  0.00287032  -0.0272315 -0.00899482   0.0446663  -0.0325517   0.0253915  -0.0101717   0.0402608   0.0299274
 -0.0915129  -0.0558958   0.0503083  -0.0117797   0.0173245  -0.0437243  -0.0100068   0.0183768   0.0157158   0.0067122
-0.00133255  -0.0493402  -0.0690895  -0.0340517    0.014378  -0.0243963  -0.0138779   0.0125769   0.0443641   0.0347578
 0.00469711  0.00439508   0.0838892   0.0145741   0.0196365   0.0413084   0.0242945  -0.0646295  -0.0116144 -0.00642097
  0.0121138   0.0103087  -0.0131958  -0.0240255   0.0108434   0.0420377  -0.0173102   0.0177391  0.00359229  -0.0482743
 0.00529618   0.0287448     0.03354 0.000551636  0.00273169 -0.00561761   0.0428982 -0.00112361  -0.0612871  -0.0040846
 -0.0384932  -0.0528204   0.0449619  -0.0198553  -0.0167469  -0.0205591   0.0440567  0.00178659   -0.014413    0.022911
  0.0196649 -0.00922697  -0.0889626  -0.0293253  -0.0481538    0.024309   0.0281015 -0.00476292  -0.0719345  -0.0280421
 -0.0237834   0.0361666  0.00981827  -0.0468211  -0.0124066  -0.0452693   0.0421598  -0.0152585    0.020889  0.00350215
 0.00356379 -0.00159271   0.0142965   0.0379104   -0.010769   0.0397218  -0.0189709  -0.0297891   0.0179912   0.0192944
#
  0.0339041  -0.0280621  -0.0270158  -0.0257071  0.00048469  -0.0120117  -0.0311908   0.0131168   0.0235998  -0.0302241
-0.00901935 -0.00103924   0.0125375   0.0689283   0.0261596  -0.0761252  -0.0406115  -0.0300163 -0.00320624   0.0375844
  0.0027484   0.0472392   0.0577039   0.0202244 -0.00510523  -0.0663757  -0.0233655 -0.00281489   0.0772412  -0.0383586
#
!
<5>:25
   0.0617957    -0.037665  -0.00630804   0.00355298    0.0318525   -0.0682035   -0.0393359    0.0509636    0.0625835
   0.0395364    0.0106998   -0.0338516  -0.00903978 -0.000664111   -0.0499771    0.0281609    0.0471776    0.0129154
  -0.0833676    -0.102581    0.0629795   -0.0226794   -0.0340353     -0.08369    0.0231317    0.0952087    0.0263882
   0.0205365   -0.0178762  -0.00843239   -0.0583731    0.0683916   -0.0597142    0.0278018  -0.00096445   -0.0790073
  -0.0627888   -0.0840779   -0.0171474     0.103862   -0.0457427   -0.0814008   0.00693761   0.00814927    -0.010115
   0.0160137    0.0090787    0.0356817   0.00743342   -0.0208266    0.0818267    0.0757946    0.0137912  -0.00837366
  -0.0216528    0.0418166    0.0492135   -0.0237228    0.0824352    0.0321135    0.0649129  -0.00330218   0.00516151
   0.0437218   -0.0465315   -0.0786204   -0.0160639    0.0594652     0.068876    0.0246577    0.0248641    0.0147975
  -0.0928194   -0.0412843    0.0308102   -0.0166521   0.00061572   -0.0359255    0.0875713  -0.00670183    0.0404924
   0.0298506   -0.0208937   -0.0141347   -0.0950415   0.00696188    0.0706751   -0.0488806   -0.0166771     0.025616
#
   0.0403248    0.0484017    -0.068277   -0.0214338    0.0384723    -0.057956   -0.0152719      0.01996   -0.0644574    -0.024927
  -0.0465065    0.0543984   0.00572441    -0.059822    0.0155547   -0.0582494   0.00846715   -0.0525042   -0.0632217    0.0282911
   0.0241724    0.0355555      0.01536    0.0113731  -0.00685237   -0.0304594   -0.0217354    0.0522696    0.0798888   0.00907398
   0.0782178   -0.0192757   -0.0539306    0.0137764   -0.0188729   -0.0327164    0.0148474     0.121775   -0.0161063    0.0110318
  -0.0419333    0.0577085    0.0374189    0.0489032   -0.0964936   -0.0246326    0.0518198  -0.00181637    0.0291921 -0.000494255
  -0.0774656    0.0676468    0.0381924   -0.0386327      0.12013   -0.0118573    0.0100759  -0.00496223     0.119919  -0.00266402
  -0.0974459    -0.131916   -0.0440578    -0.011155    0.0351692  -0.00234776    0.0601435    -0.106068    0.0262215    0.0285816
  -0.0281893    0.0112646   -0.0751442   -0.0738154   -0.0426217    0.0155591   -0.0129647    0.0142319    0.0949205    0.0354977
  0.00811535    -0.015579    -0.043661    0.0962916    0.0178427   -0.0178437   -0.0296402   -0.0093041    0.0596296  -0.00914328
