<0>:99
      0.0339  -0.00612816  -0.00833264   -0.0422309    0.0867975   -0.0495274   -0.0240815   -0.0282781    0.0291817
  0.00505862   0.00335079    0.0293218     -0.01082   -0.0278658     0.014894 -0.000279357    0.0222369   0.00300318
  -0.0565121   -0.0123128   -0.0321744   0.00727974   -0.0148557   0.00439267  -0.00354729    0.0518868  -0.00207316
  -0.0126327   -0.0266713  -0.00378489   -0.0166557   -0.0269371  -0.00129874   0.00973679    0.0342158  -0.00265476
   -0.049411  -0.00940256    0.0448069    0.0235666    0.0134854   -0.0219824   -0.0144911     0.047573     0.039269
 -0.00784702    0.0119148    0.0543691    -0.010676   -0.0257616    0.0711294   -0.0265849    0.0122077    0.0392152
   0.0551296   0.00516314    0.0383958   -0.0327037    0.0526216    0.0471001  -0.00805847   0.00958044    0.0389776
  0.00122375   -0.0277225   -0.0129435   -0.0225471    0.0537514     0.026706    0.0420258   -0.0537156    0.0322681
   -0.014457   -0.0311335   -0.0376481   -0.0150086    0.0624764  -0.00748449    0.0516215  -0.00671656   -0.0250225
   0.0481719    0.0233775   -0.0363458   -0.0466576    0.0314846    0.0115161   0.00345291    -0.012907    0.0471864
#
  0.0180264 -0.00385498 -0.00212605  -0.0021943   0.0429725  0.00338639   0.0137729  -0.0212132 -0.00548273   0.0315206
  0.0497024  0.00638007   0.0170679 -0.00239184  -0.0466463  0.00465481  -0.0146847  -0.0463265  0.00190863  -0.0172442
-0.00923361   0.0642272  -0.0121214    0.044508  0.00376755    0.053726  -0.0131062  -0.0217019   0.0376458    0.004528
 -0.0288478   0.0181266 -0.00530079  -0.0419706 -0.00543126  -0.0173092  -0.0144705   0.0110364   0.0134161  -0.0215283
-0.00723099   0.0172489 -0.00574504 0.000158381   0.0353253   0.0622364   0.0406964   -0.015815  -0.0207825  -0.0372635
  -0.069459   0.0242258 -0.00506192  0.00482154   0.0511551  -0.0317933   -0.028268  -0.0868559   0.0620849  -0.0136056
 -0.0398518   0.0119754   0.0210801  -0.0715657 -0.00021973  0.00425915   0.0499402  -0.0337449  0.00623128   0.0210185
 -0.0216461   0.0173045    0.058396  -0.0357764  -0.0340747  0.00176762  0.00414513  -0.0185562   0.0562738  0.00925339
  0.0105734   0.0119584  -0.0285903   0.0545632  -0.0170167  -0.0327587   0.0171221  -0.0251382   0.0477107 0.000866368
  0.0131912    -0.10138  -0.0322025   0.0208921  0.00624317   -0.011144   0.0244008   0.0276626   0.0274741  -0.0759758
#
   0.0621033    0.0127461   -0.0117042   -0.0266537    0.0741746  -0.00875791    0.0225854   -0.0220106   0.00534191    0.0280125
  -0.0614086   -0.0414998     0.069847    0.0164152    0.0306483    -0.045082   -0.0081886   -0.0016165    0.0463794   -0.0273747
  -0.0271584   -0.0540151   -0.0690436   -0.0108316    0.0198155   -0.0287382   -0.0369185   -0.0268662    0.0288891    0.0338963
   -0.041122    0.0139351    0.0701845   -0.0292758    0.0317701    0.0252207    0.0453964   -0.0825374     0.020156  0.000398785
  -0.0189201    0.0125172  -0.00484915   -0.0179208    0.0236758    0.0305892    0.0124505   0.00587019    0.0015779   -0.0549611
-0.000940787   0.00782921   0.00958945   0.00415717  -0.00327784   -0.0523014    0.0344333   -0.0248028   -0.0629982  -0.00629494
 0.000113635   -0.0636925    0.0254993  -0.00725716   0.00615727  -0.00272994  -0.00152711  0.000722331   -0.0108661    0.0236384
  -0.0323279   -0.0147115   -0.0852832   -0.0580043   -0.0433413    0.0317737   0.00633286   0.00849953   -0.0801543  -0.00290351
  -0.0196119      0.03224     0.012706   -0.0351766   -0.0213416   -0.0504836    0.0414595   -0.0190882    0.0341904   0.00849116
   0.0212572   -0.0105819    0.0102261    0.0246782   -0.0125149     0.032288    -0.019826   -0.0209699    0.0293765    0.0170894
#
  0.0262098 -0.00731285  -0.0132939   -0.027737  0.00065745 -0.00284179  -0.0325944  -0.0225194    0.020591  -0.0393579
  0.0101906   0.0166748  0.00386729    0.070584   0.0364175  -0.0617224  -0.0351951   -0.015573 -0.00266306   0.0493489
 0.00399212   0.0742236   0.0503926   0.0275189 -0.00738671  -0.0618126   -0.019414    -0.02986   0.0414803  -0.0319754
#
!
<64>:98
   0.0317806   -0.0115558   -0.0127233   -0.0601751    0.0825082   -0.0535899   -0.0293689   -0.0138842    0.0200454
  0.00350684  -0.00790196    0.0180303  -0.00461164   -0.0450335    0.0245618   -0.0119422    0.0371525    0.0056845
  -0.0626425   -0.0306419   -0.0444241  -0.00428766   -0.0125274    0.0096174  -0.00490207    0.0490801  -0.00888234
  -0.0152971   -0.0300005   -0.0183087   0.00157235   -0.0248613  -0.00650878    0.0101488    0.0222903  -0.00302593
  -0.0583409   -0.0110498    0.0477449    0.0293526    0.0326549   0.00320342    -0.023849    0.0415918    0.0439713
  -0.0244435   0.00784404    0.0446261   -0.0118245   -0.0439032    0.0675014   -0.0212317    0.0233646    0.0378601
    0.044442 -0.000417963    0.0315435   -0.0343812    0.0602607    0.0421319   -0.0126271   0.00630575    0.0521291
  -0.0193382   -0.0221147  -0.00301702   -0.0306682    0.0789873    0.0327033    0.0353931   -0.0630551    0.0171423
  -0.0235198   -0.0353483   -0.0401311  -0.00484113    0.0597886  -0.00822301    0.0588472   -0.0112466   -0.0307267
   0.0440826    0.0339005   -0.0266277  -0.00732926     0.040704   0.00719714    0.0117632  -0.00529736    0.0462052
#
  -0.0026153  -0.00969735    0.0214382    0.0131764    0.0361218   0.00764582    0.0247604   -0.0168063   -0.0103978    0.0367144
   0.0369349     0.028955    0.0249437 -0.000878201    -0.028587   0.00973281   -0.0164895   -0.0558873  -0.00345211  -0.00711191
 -0.00681255    0.0761901   0.00553099    0.0357502   0.00586655    0.0802861   -0.0232038   -0.0207847    0.0448627 -0.000820413
  -0.0335587     0.034345  -0.00660705   -0.0477971  -0.00923502   -0.0178071   -0.0142913    0.0251286    0.0168864  -0.00824457
  -0.0109987    0.0205546   0.00418707   -0.0175625    0.0483185    0.0570941    0.0414237   -0.0287624    -0.021543   -0.0256382
  -0.0740231    0.0278709   0.00305592   0.00497519    0.0410388   -0.0302851   -0.0337432   -0.0894293    0.0374287   -0.0295298
  -0.0396722    0.0289904    0.0124837   -0.0735777   -0.0153319  2.80613e-05    0.0373599   -0.0352897 -0.000135356    0.0331705
  -0.0256851   0.00746876    0.0521422   -0.0328627   -0.0133798   -0.0299422   -0.0113575   -0.0320284    0.0566605   0.00715304
  0.00951093    0.0166543   -0.0233615    0.0412413   -0.0218282   -0.0148512    0.0403589   -0.0157688    0.0570873   -0.0124534
   0.0196956   -0.0882781    -0.032058   0.00640949 -0.000655815   -0.0168649    0.0453881    0.0268863   0.00979774   -0.0759668
#
   0.0655698    0.0204189   -0.0125073  -0.00967429    0.0487887  -0.00545912    0.0297103    -0.018644   0.00572342    0.0363705
  -0.0687833   -0.0364695    0.0715174   0.00579013    0.0338016   -0.0347709  -0.00403276   0.00823777    0.0407556   -0.0197564
  -0.0333459   -0.0528505   -0.0480241   0.00391498    0.0314459   -0.0335239   -0.0299151   -0.0245687    0.0257443    0.0338382
  -0.0517176   -0.0202977    0.0606366  -0.00589892    0.0322589    0.0148559    0.0271235   -0.0826828    0.0026543  0.000472108
  -0.0187298     0.023243   0.00511682   -0.0449753   0.00506002    0.0275133  -0.00869948    0.0138464  -0.00716603   -0.0386236
  0.00766568    0.0111011   0.00437028   -0.0197884 -0.000599177   -0.0411948     0.040393   -0.0173662   -0.0631121  -0.00733193
 -0.00776659   -0.0304548    0.0266396    -0.015963   0.00252411    -0.014033  -0.00208916   -0.0160908   -0.0160882    0.0372767
 -0.00926974    0.0114748   -0.0980582   -0.0536303   -0.0479997   0.00243745    0.0241824   -0.0142489   -0.0694482    0.0138005
  -0.0326099    0.0458828   0.00631821    -0.036594   -0.0273412   -0.0492767    0.0444878  -0.00145942    0.0304144    0.0326826
   0.0256489  -0.00588472    0.0327313    0.0287665   -0.0130193    0.0301116    -0.022124   -0.0232033    0.0243536     0.036086
#
  0.0207726  -0.0196919   -0.014906  -0.0318297   0.0139432  -0.0222813  -0.0347427 -0.00450686   0.0221538  -0.0497825
  0.0185796   0.0166191 -0.00249665   0.0707711   0.0208601  -0.0508844  -0.0525177  -0.0117281  0.00627623   0.0607283
-0.00293054   0.0691986   0.0503845   0.0182812  -0.0129511  -0.0585848 -0.00813149  -0.0233774    0.044572  -0.0268558
#
!
<72>:98
  0.00304552   -0.0093305    -0.012121   -0.0483996    0.0780266   -0.0529693   -0.0277535    0.0022557     0.031235
   0.0162417    0.0111477     0.027833   0.00349302   -0.0348207   0.00232716   0.00110425    0.0311196  0.000149916
  -0.0650828   -0.0219887   -0.0309762  -0.00150756   -0.0178306    0.0105921    0.0256808    0.0586228   -0.0358578
  -0.0103479   -0.0238812 -0.000330778   -0.0216386   -0.0491228   0.00288692    0.0241876    0.0146859   0.00149109
   -0.061701  0.000976023    0.0364238    0.0364037    0.0122187   -0.0167568   -0.0199782    0.0476328    0.0326464
  -0.0043765   0.00227816    0.0416754   -0.0185712   -0.0354175    0.0490087   -0.0366106  -0.00670108    0.0450339
   0.0521593    0.0170841    0.0417323   -0.0493604     0.063043    0.0515223   -0.0199554    0.0202253    0.0369361
 -0.00345403   -0.0203834  -0.00723709   -0.0228215    0.0523413    0.0252717    0.0467445   -0.0705441    0.0260417
  -0.0324565   -0.0372056   -0.0322929  -0.00301345    0.0657181  0.000374458    0.0493414  -0.00102092   -0.0241614
   0.0478645    0.0509214   -0.0397497    -0.026654    0.0276024    0.0080582   -0.0174782  -0.00146282    0.0354568
#
  0.0252423 0.000236884  -0.0106953  -0.0081074   0.0515891 -0.00713377   0.0212781  -0.0364281  -0.0121512   0.0123128
  0.0566908  -0.0118238   0.0240207   0.0139523  -0.0358907   0.0202486   -0.018725   -0.069693 -0.00693965  -0.0135876
   0.017235   0.0578985  -0.0109469   0.0258484   0.0114453   0.0462352  -0.0151074  -0.0176016   0.0353639 -0.00638378
 -0.0472491   0.0214865  0.00190368  -0.0395168   0.0073721  -0.0293728 -0.00442936   0.0116468   0.0266337  -0.0299144
-0.00367705 0.000174369   -0.013062  0.00214936   0.0305118   0.0492751   0.0378764  -0.0426192  -0.0210665  -0.0383001
 -0.0460783   0.0343691 -0.00366906   0.0138629   0.0366514  -0.0357812  -0.0131924  -0.0662115   0.0670103  -0.0335976
 -0.0150162   0.0136728 -0.00231162  -0.0822664  -0.0151779 -0.00953237   0.0410259  -0.0238878 -0.00614907   0.0108198
 -0.0309282  0.00502129   0.0471915  -0.0351252  -0.0406252 -0.00082511  0.00725271  -0.0064035   0.0510434   0.0270193
  0.0192951 -0.00934545  -0.0184842   0.0498498 -0.00948322   -0.016958   0.0164645  -0.0054675   0.0414287  0.00221239
  0.0153516  -0.0862329  -0.0444968   0.0206233   0.0158164 -0.00229989   0.0158012   0.0312346   0.0240729  -0.0840263
#
    0.045833    0.0100549   0.00101068   -0.0132858    0.0708076  -0.00508498    0.0172763   -0.0352522   0.00833436    0.0392217
  -0.0547496   -0.0491207    0.0833062    0.0219824    0.0462014   -0.0297549   0.00321092   -0.0142322    0.0515066   -0.0248674
  -0.0174937   -0.0658625   -0.0613037   -0.0185601    0.0200137   -0.0155731   -0.0280792   -0.0114536    0.0182005    0.0302176
  -0.0337648    0.0319416    0.0650386   -0.0211272    0.0431257    0.0274839    0.0575753   -0.0867518    0.0274777  -0.00622736
  -0.0133967    0.0268673   -0.0068069   -0.0286804    0.0225025    0.0228476   0.00189186    0.0228028  -0.00092152   -0.0457876
   0.0173079    0.0126124    0.0177192   -0.0111738   -0.0265956   -0.0478536      0.02995   -0.0220511   -0.0626535   -0.0164315
  -0.0107476   -0.0361681    0.0152725  -0.00179876   0.00994263    -0.025772  -0.00793658 -0.000348071   -0.0131888    0.0564832
  -0.0291769  -0.00691665   -0.0798789   -0.0556552   -0.0514561    0.0297436    0.0100196  -0.00570958   -0.0967887      0.02049
  -0.0368224   0.00537343    0.0071158   -0.0295987   -0.0211303   -0.0350735    0.0362709   -0.0159292      0.05056    0.0183504
   0.0181253  -0.00373412     0.032234    0.0201795  -0.00812201     0.045104   -0.0173371   -0.0113663    0.0328629    0.0172119
#
  0.0137896 -0.00776543  -0.0130988  -0.0330455  0.00748649  0.00620872   -0.047252  -0.0102896   0.0433134  -0.0390919
  0.0250019   0.0302215   0.0207794    0.058356   0.0231942  -0.0648761  -0.0398069  -0.0232817 -0.00517745   0.0612177
 0.00432607   0.0682882   0.0448796   0.0240074 -0.00820519  -0.0668514  -0.0232672  -0.0148291   0.0246504  -0.0335421
#
!
<1>:96
  0.0381003   -0.013524   -0.018603  -0.0274829   0.0826723  -0.0634308  -0.0220729  -0.0096838   0.0318675
  0.0147055  0.00535044   0.0176262 -0.00688593  -0.0301255  0.00387285 -0.00170185   0.0365663 -0.00178119
 -0.0566529  -0.0342225  -0.0367563 -0.00508077  0.00045755   0.0148602  0.00781086   0.0508813   -0.018297
-0.00782974  -0.0143881  -0.0100529  -0.0106845  -0.0541848 -0.00380268   0.0191899   0.0207049 -0.00480716
 -0.0554611  -0.0136561   0.0380009   0.0255548    0.025913 -0.00882958  -0.0254956   0.0438309   0.0259863
-0.00900819  0.00837896   0.0245513 -0.00881278  -0.0385309   0.0403089   -0.016021   0.0136965   0.0423163
  0.0406337    0.032262   0.0332657  -0.0356948   0.0624413   0.0524485   -0.019762  0.00883582   0.0401951
-0.00957919   -0.025682  -0.0172306  -0.0190294   0.0760856   0.0433093   0.0494432   -0.052083   0.0313931
 -0.0213591  -0.0421032  -0.0319606  0.00736144    0.052927  -0.0129923   0.0532486  -0.0189912   -0.026695
  0.0530313   0.0352701  -0.0293994  -0.0213449   0.0334939  0.00194614  -0.0200808  -0.0101452   0.0309064
#
  0.00775204  0.000852918  -0.00254092  -0.00439358    0.0422459   0.00581734    0.0128196     -0.01649  0.000728172    0.0151157
   0.0219913  -0.00944664    0.0222048    0.0082395   -0.0460368    0.0175226   -0.0144377   -0.0670005   -0.0104937   -0.0019394
 -0.00488317    0.0578043  -0.00742046    0.0367645   0.00457584    0.0664353   -0.0325602   -0.0229162    0.0371177   -0.0174588
  -0.0279609    0.0215584   -0.0122422   -0.0445955 -0.000292068   -0.0268228   -0.0218992    0.0179971     0.019742  -0.00351459
 -0.00336609    0.0081404    -0.014089  -0.00681964    0.0345655    0.0651452    0.0318194   -0.0336437  -0.00232124     -0.03324
  -0.0599342    0.0331206  -0.00221719   0.00555274    0.0483734   -0.0260789  -0.00647242    -0.090849    0.0577394   -0.0361412
  -0.0379216   0.00731813    0.0198547   -0.0820289   -0.0109006 -0.000552565    0.0374597   -0.0273859 -0.000472642    0.0288466
   -0.033138   0.00879233    0.0417949   -0.0299889    -0.031663  -0.00078086   -0.0139058   -0.0101784     0.057661   0.00539352
   0.0247602  -0.00118914   -0.0240927    0.0445256   -0.0107755   -0.0189766     0.017818   -0.0186613    0.0665743  -0.00468047
   0.0210912   -0.0957493    -0.035276    0.0248813   0.00894037   -0.0058338    0.0379985    0.0323301    0.0105315   -0.0686638
#
   0.0505323   0.00998857  -0.00528584   -0.0249981    0.0653288   -0.0105426    0.0246486   -0.0224563   0.00919575    0.0241661
  -0.0681214   -0.0346413    0.0658186  0.000943388    0.0231988    -0.023266  -0.00623786  -0.00460999    0.0370413   -0.0209341
 -0.00946776   -0.0528431   -0.0589553    -0.029731    0.0280186   -0.0212354   -0.0179808    -0.012071    0.0158416    0.0341075
   -0.033309   0.00813802    0.0685219  -0.00475739    0.0274025     0.022936    0.0305382   -0.0921521   0.00828303  -0.00709191
  -0.0119626    0.0216045  -0.00726246   -0.0362359  0.000273079    0.0317677   0.00570431    0.0206169  -0.00423357   -0.0499348
  0.00859645    0.0198121    0.0198465   -0.0206745   -0.0148631    -0.038007    0.0267588   -0.0319409   -0.0596372  -0.00765456
  -0.0153046   -0.0361876    0.0235068   0.00441289  -9.1805e-05   -0.0101994   0.00468117    -0.009099    -0.013465    0.0540391
  -0.0200686   -0.0183592   -0.0823066   -0.0500685   -0.0502563    0.0199701    0.0289504  -0.00652957   -0.0766015    0.0181212
  -0.0333586    0.0452132 -0.000972497   -0.0354757   -0.0205252   -0.0432953    0.0515694    -0.016295    0.0277421    0.0128143
   0.0161208  -0.00413827    0.0138509    0.0298885   -0.0103107    0.0556567   -0.0283777   -0.0196723    0.0331893     0.023595
#
 0.0241779 -0.0184474 -0.0317946 -0.0267986  0.0182586 0.00228779 -0.0271631 -0.0148604  0.0317384 -0.0413369
 0.0051634 0.00497829  0.0120981  0.0663065  0.0160464 -0.0571047 -0.0509627 -0.0286612 0.00979873  0.0553685
 0.0104597  0.0609483  0.0574236  0.0243787 -0.0203568 -0.0635503 -0.0103736 -0.0183419  0.0380383 -0.0502495
#
!
<67>:96
   0.028042  0.00130901 -0.00223726  -0.0371872   0.0698569  -0.0608823  -0.0193922  -0.0112886    0.041244
 0.00785222  0.00365462   0.0116503 -0.00556975  -0.0315373   0.0225426  -0.0108088   0.0229148 -0.00399869
 -0.0680963  -0.0380265  -0.0379161  0.00848011  -0.0153995  0.00800367   0.0317518    0.040878  -0.0173074
 -0.0100339   -0.030907  -0.0153964  -0.0129534  -0.0416794  0.00349635 -0.00134652  0.00743321  -0.0146504
 -0.0319474  0.00540775   0.0467088   0.0275653   0.0199179  -0.0166263  -0.0211728   0.0530684   0.0358174
 0.00182243   0.0101039   0.0449974 -0.00773915   -0.039886   0.0569686  -0.0233191   0.0211509   0.0604313
  0.0446255   0.0223038   0.0269856  -0.0230389   0.0706561   0.0450614  -0.0191514  0.00822717   0.0218048
 -0.0136523  -0.0395231  0.00191462  -0.0465708    0.074879   0.0261223   0.0487407  -0.0521643   0.0288759
 0.00194246   -0.046985   -0.017211  0.00401527   0.0607667 -0.00508039   0.0618793  -0.0139406   -0.047218
   0.049821     0.02871  -0.0262134  -0.0500526   0.0465719  -0.0036259   0.0164384  -0.0281752   0.0388241
#
 -0.0121092 -0.00202374  0.00831904   0.0171619   0.0368221   0.0327028   0.0293818  -0.0375378   0.0146408   0.0234926
  0.0214037  0.00651497  0.00995489     0.01049  -0.0406309   0.0174378  -0.0244438  -0.0598077 -0.00190143  0.00302118
-0.00096465   0.0687356 -0.00262659   0.0488515  0.00791452   0.0560039  -0.0506912  -0.0205415   0.0511737 -0.00870556
 -0.0271117   0.0275569 -0.00967793  -0.0618037   0.0085804 -0.00618761 -0.00863938  0.00738268   0.0109503 -0.00909666
 -0.0230562  0.00677238  -0.0181617 -0.00359219   0.0459611   0.0700475   0.0497234  -0.0355887  -0.0128229   -0.025843
 -0.0737265   0.0285373  -0.0146218  0.00960129   0.0565775  -0.0218751 -0.00843761  -0.0990868   0.0546641  -0.0172474
 -0.0308947  0.00191585  0.00810514  -0.0786461  0.00735613  0.00529672   0.0452457  -0.0379263 -0.00427127  0.00869027
 -0.0273273   0.0170224   0.0447925  -0.0454064  -0.0368068  0.00713405  0.00174722 -0.00708452   0.0558869   0.0175664
  0.0141987 -0.00790189  -0.0282405   0.0539729  0.00727845  -0.0354905 0.000880455  -0.0124915   0.0674946 -0.00575004
0.000177595  -0.0901704  -0.0347595   0.0327921   0.0135001  0.00977202   0.0313598    0.017942   0.0158545  -0.0696158
#
   0.0649143    0.0139373   -0.0102476    -0.022678     0.075867  -0.00474657    0.0212499   -0.0367306 -0.000539122    0.0213037
  -0.0684616   -0.0368633    0.0556839    0.0118046    0.0362862   -0.0359807   -0.0164463   -0.0046297    0.0315464   -0.0226332
 -0.00641944   -0.0494593    -0.065598   -0.0275889    0.0297574   -0.0296635   -0.0353186   -0.0163778    0.0321978    0.0413723
  -0.0326834 -0.000913909    0.0821731   -0.0148872    0.0338695    0.0195221    0.0477153   -0.0797984    0.0253379  -0.00706929
  -0.0207918    0.0265606  -0.00746115   -0.0399428    0.0108705    0.0135606    0.0185164   0.00487194    0.0157008    -0.056556
  0.00268544   -0.0018415   0.00156735  -0.00592951  -0.00608086   -0.0561205    0.0373081   -0.0186333   -0.0676648   -0.0184234
 -0.00263606    -0.041386    0.0102203   -0.0275206   -0.0124565  -0.00592606    0.0129224    0.0226049   -0.0295964    0.0361824
  -0.0403174    -0.021072   -0.0993041   -0.0449295    -0.048924    0.0328614    0.0189709   -0.0188502   -0.0736634   0.00175408
  -0.0348937    0.0381751    0.0028934   -0.0224592    -0.014525   -0.0467277    0.0464701   -0.0211462    0.0351718  -0.00991837
   0.0184933  0.000587241   0.00133799    0.0295694  -0.00671922    0.0551587   -0.0119945   -0.0259046    0.0175366    0.0216956
#
  0.0266205  -0.0146164  -0.0250944  -0.0283002   0.0102476  -0.0106189  -0.0302459 -0.00850176   0.0252792  -0.0432619
  0.0100247   0.0134793 -0.00165285   0.0655938  0.00860522  -0.0641957  -0.0440379  -0.0160606   0.0271907   0.0609544
  -0.011089   0.0846961   0.0564949   0.0260401  -0.0122415  -0.0568877 -0.00902353  -0.0199252   0.0299618  -0.0384752
#
!
<2>:95
   0.0357114   -0.0150582   -0.0161724   -0.0355949    0.0792129   -0.0591762   -0.0205875   -0.0080479    0.0238039
   0.0105101   0.00892313    0.0246205   -0.0132002   -0.0300665   0.00353731  -0.00854242    0.0346881 -0.000348732
  -0.0618307   -0.0247573   -0.0379901  0.000722118  -0.00470933    0.0164831   0.00589354       0.0554   -0.0126754
 -0.00757529   -0.0190859  -0.00154726  -0.00852925   -0.0508249   0.00195065    0.0187125    0.0234185  -0.00645976
  -0.0553382   -0.0141268    0.0358949     0.022513    0.0192723  -0.00818665   -0.0297924    0.0385088    0.0261987
 -0.00687212    0.0143575    0.0249425   -0.0109383   -0.0255673    0.0428852   -0.0186456    0.0148489    0.0422167
   0.0418389    0.0297194    0.0295622   -0.0307232    0.0590825    0.0522033   -0.0214614    0.0141656    0.0327063
 -0.00812682   -0.0251942   -0.0149514   -0.0125644    0.0700581    0.0298819     0.043257    -0.049379    0.0288529
  -0.0252609   -0.0338465   -0.0332351   0.00231605    0.0454432   -0.0116038    0.0510388   -0.0198155   -0.0296207
   0.0540791    0.0279958   -0.0289855   -0.0217477    0.0330832   0.00394182   -0.0140232   -0.0168652    0.0370942
#
   0.0061698   0.00556853 -0.000821524  -0.00339719    0.0361177    0.0107282    0.0110281   -0.0109888  -0.00859636    0.0193065
   0.0298418   -0.0101745    0.0139978   0.00329215   -0.0454026    0.0239041   -0.0106227   -0.0649737   -0.0047794   -0.0077455
  -0.0133204    0.0562319  -0.00979583    0.0354809   0.00208928    0.0639851    -0.027105   -0.0199311    0.0350517   -0.0094301
  -0.0288049    0.0233502   -0.0125083   -0.0416471  -0.00461151   -0.0173348   -0.0214791    0.0153854   0.00955793  -0.00462072
 0.000380644     0.011153  -0.00549754  -0.00705481    0.0354191    0.0608769    0.0334786   -0.0293221  -0.00951855   -0.0398605
  -0.0612163    0.0212798   0.00153499   0.00660461    0.0455012   -0.0244981 -0.000611628   -0.0868917      0.05357   -0.0372147
  -0.0456743    0.0037687    0.0162462   -0.0814088   -0.0124474  -0.00174688    0.0370609   -0.0296774   0.00261927    0.0264814
  -0.0267325   0.00816194    0.0440873   -0.0428599   -0.0342889  -0.00456264  -0.00985976   -0.0102535    0.0597245   0.00528244
  0.00949781   0.00117741   -0.0241821    0.0464616  -0.00508764   -0.0170618    0.0138652   -0.0166546    0.0652396  -0.00659856
   0.0108542   -0.0912792   -0.0427834    0.0306459   0.00409605   -0.0102514    0.0338932    0.0317959    0.0210547   -0.0651298
#
   0.0489839   0.00918429   -0.0053575   -0.0176779    0.0595064  -0.00997915    0.0279262   -0.0214387    0.0093883    0.0239042
  -0.0679817   -0.0344661     0.068549 -0.000544674    0.0204725   -0.0295786   -0.0113713   0.00593887    0.0333589   -0.0242712
  -0.0106322   -0.0532393   -0.0650848   -0.0264598    0.0217695    -0.026714   -0.0285216  -0.00389351    0.0252184    0.0381126
  -0.0281917   0.00987078    0.0686045   -0.0139088     0.021346     0.030796    0.0332774   -0.0812691   0.00619424   -0.0123388
 -0.00549556    0.0161662    -0.013784   -0.0292222     0.007876    0.0336047   0.00551006    0.0119919  -0.00890263   -0.0523114
  0.00722874      0.01531     0.014466   -0.0121915   -0.0181059   -0.0368719     0.025862   -0.0279001   -0.0592845   -0.0146631
  -0.0110445   -0.0426483    0.0296822  0.000552581  -0.00383805  -0.00558215   0.00934865  -0.00724637  -0.00345196    0.0458914
  -0.0117544   -0.0155893   -0.0891355   -0.0441594   -0.0524195    0.0187446    0.0267862   -0.0015012   -0.0763133   0.00489252
  -0.0277723    0.0421911   0.00223101   -0.0348842   -0.0182931   -0.0426337    0.0445154   -0.0139248     0.027411   0.00956384
   0.0231469  -0.00451889   0.00886623    0.0242793   -0.0129792    0.0510784   -0.0267169   -0.0191932    0.0310587    0.0190434
#
  0.0249972 -0.00927669  -0.0252516  -0.0244281   0.0138121 -0.00221395  -0.0194512  -0.0118234   0.0275525  -0.0404184
0.000466243 -0.00134562   0.0102364   0.0741428   0.0156477  -0.0641369  -0.0503852  -0.0252406   0.0017777   0.0452061
 0.00913275   0.0605171   0.0574549   0.0206822  -0.0216943  -0.0628115  -0.0141964  -0.0191173   0.0411814  -0.0435612
#
!
<97>:95
   0.0350902  -0.00540063  -0.00776028   -0.0102682    0.0798596    -0.072147   -0.0242485   -0.0231071    0.0344423
  0.00960657     0.013029    0.0328477   0.00161953    -0.025924   0.00608381  -0.00189474    0.0284686 -0.000654886
  -0.0807295   -0.0305073   -0.0334626    0.0120129  -0.00367411    0.0116088   0.00854494    0.0257134   -0.0344427
  -0.0139312   -0.0327888  -0.00986641    -0.013533   -0.0423023   -0.0220895   0.00817514    0.0296095   0.00734342
  -0.0658609  -0.00363042    0.0449468    0.0303883    0.0267848   -0.0130834   -0.0235925    0.0413436    0.0433023
  -0.0144609    0.0215328     0.034768   -0.0258261   -0.0346781    0.0462073   -0.0427737  -0.00227147     0.017154
   0.0483388    0.0146259     0.041217   -0.0222193    0.0439881    0.0463183  -0.00823386   0.00954736    0.0476344
 -0.00182328   -0.0444141   -0.0131879   -0.0313024    0.0762014    0.0429044     0.038503   -0.0512885    0.0373847
  -0.0048416   -0.0335975   -0.0242815  -0.00907693    0.0531237   -0.0111938    0.0417943   -0.0153589    -0.026465
   0.0644997    0.0417255   -0.0256242   -0.0442696    0.0278397   0.00139424   -0.0173612   -0.0204633    0.0169551
#
 0.00847122  -0.0164252  0.00231149 -0.00935002   0.0436943 -0.00580347  0.00688949  -0.0154283  0.00233101    0.029786
  0.0691034  0.00380725   0.0154677   0.0128395  -0.0464662 -0.00144611 -0.00582087   -0.051434  -0.0194687  -0.0101705
-0.00548178   0.0689998 -0.00904847   0.0296459 -0.00549904   0.0468913  -0.0197169  -0.0263812   0.0337252  0.00654036
 -0.0183535   0.0255616  0.00268366  -0.0367183 -0.00116512  -0.0040154 -0.00406618 0.000881727    0.022077 -0.00448269
-0.00738941   0.0135145  -0.0197773  0.00400215   0.0456665   0.0752496   0.0304741  -0.0212009 -0.00752657  -0.0422195
 -0.0743339 -0.00109485 -0.00748688   0.0147045   0.0465357  -0.0289345  -0.0280029  -0.0670328   0.0586231 -0.00691157
 -0.0277609   0.0135957   0.0322547  -0.0652492  -0.0118536  0.00648944   0.0363348  -0.0436747 -0.00197478   0.0355358
 -0.0236657   0.0265422   0.0355085   -0.031108  -0.0354556  0.00429693  -0.0164819 -0.00743253   0.0667167   0.0131014
-0.00337037  0.00843808   -0.019452   0.0452872 -0.00494189  -0.0234075   0.0123752  -0.0173836   0.0489075 -0.00667595
 0.00652395  -0.0889633  -0.0195636  0.00992936  -0.0112866   0.0043018   0.0395411    0.033714   0.0322888  -0.0678284
#
   0.0340877    0.0232435  -0.00503111   -0.0185579     0.077833  -0.00512458    0.0321152   -0.0125788  -0.00356864    0.0339944
  -0.0684041   -0.0101816    0.0671465    0.0036354      0.02332   -0.0439133  -0.00480861    0.0161378    0.0471605   -0.0362456
  -0.0249818   -0.0690308   -0.0726177   -0.0355333    0.0333298   -0.0165006   -0.0304236   -0.0276291    0.0193966    0.0390667
   -0.031147   -0.0117537    0.0565185   -0.0335841    0.0239848     0.029755    0.0195119   -0.0682349    0.0171378   -0.0202135
  -0.0179514    0.0223213   0.00218363   -0.0290007    0.0264123    0.0335957    0.0140557    0.0276134  0.000577861   -0.0528807
 -0.00352647    0.0188949   0.00903389   -0.0107709  -0.00851438   -0.0484918     0.019142    -0.030409   -0.0466404   0.00108082
   0.0210521   -0.0629203    0.0187216   0.00228229   -0.0119597   -0.0027937  -0.00564854  -0.00628799   -0.0240021    0.0338464
  -0.0219009   -0.0150338    -0.085485   -0.0550463   -0.0535141    0.0251011    0.0229942  -0.00564348   -0.0867076  -0.00381535
  -0.0157318    0.0333659   0.00893585   -0.0380491   -0.0229777   -0.0480413    0.0607333   -0.0130219    0.0418259    0.0155669
   0.0152132   -0.0256348 -0.000118709   0.00481936    -0.022851    0.0515848   -0.0348891  -0.00947163    0.0440726    0.0209488
#
  0.0202156  -0.0220047  0.00195458  -0.0266859  -0.0012625 -0.00344748  -0.0312063  -0.0202089   0.0372624  -0.0669073
 0.00724489   0.0224563  0.00144549   0.0625687   0.0229965  -0.0617931  -0.0389111   -0.024468  0.00954608   0.0766844
-0.00483581    0.069854   0.0604234   0.0200244 -0.00486435  -0.0582464  -0.0247162  -0.0418494   0.0389756  -0.0464362
#
!
<5>:92
  0.0387582  -0.0165459  -0.0123128  -0.0347719    0.094397   -0.058816  -0.0151861  -0.0109633   0.0390218
  0.0242626   0.0028154   0.0198734 -0.00143548  -0.0493855   0.0172244 -0.00721138   0.0376431  0.00274969
 -0.0628388  -0.0245692    -0.03325   0.0262714  -0.0184733   0.0191373   0.0153029   0.0493667  -0.0272444
 -0.0134739   -0.020554   0.0142335  -0.0125609  -0.0484518   0.0198757   0.0212877   0.0182823 -0.00435907
 -0.0599607  -0.0261333   0.0378768   0.0199104  0.00740934  -0.0120522  -0.0287519   0.0475571   0.0332989
 0.00632601    0.017206   0.0290122  -0.0216397  -0.0172419   0.0328188  -0.0137256  0.00746904   0.0580173
  0.0505693   0.0456485   0.0242857  -0.0495324   0.0511086   0.0552423  -0.0278226   0.0177311   0.0398423
 0.00552038  -0.0238023  -0.0185647 -0.00365622   0.0542771   0.0287833   0.0348327  -0.0558386   0.0247224
  -0.019194  -0.0417934  -0.0524674 -0.00112391    0.051217 0.000855361   0.0570514  -0.0269538  -0.0308696
  0.0655091   0.0429538  -0.0264658  -0.0133433   0.0200733   0.0034124  0.00456683  -0.0206882   0.0218495
#
  0.00959194   -0.0158944   -0.0129941  -0.00943518    0.0339453    0.0276185    0.0114802   -0.0305242   0.00396174    0.0347028
   0.0161401    0.0111149    0.0129758   0.00118439   -0.0414039    0.0267748    -0.016512   -0.0680716   0.00849147    0.0103697
 -0.00258384    0.0639095   -0.0242144    0.0399723 -6.70892e-05    0.0801351   -0.0129117   -0.0478734    0.0420706   -0.0129701
  -0.0463069   0.00707537   -0.0171523    -0.042623   -0.0100087  -0.00985873   -0.0268813  -0.00304069    0.0110382  -0.00550271
  -0.0170962   -0.0111572   -0.0113356   -0.0162016    0.0441832    0.0673954    0.0294106   -0.0191483   -0.0265655    -0.053105
  -0.0696268   0.00141837   -0.0027428  -0.00211159    0.0529293   -0.0238983  -0.00486996    -0.075542    0.0612767   -0.0376385
  -0.0453125   -0.0041531   0.00420572   -0.0983232   -0.0286704  -0.00804615     0.026165   -0.0191505  -0.00740134     0.021991
  -0.0322416    0.0180512    0.0542801   -0.0399544   -0.0374446    0.0169437   -0.0128928    0.0107811     0.071403  -0.00498307
  0.00617404   0.00616705   -0.0330374    0.0411368   -0.0238624   0.00273717    0.0120885   -0.0154051    0.0751235   0.00178894
  0.00378654   -0.0842097   -0.0270535    0.0405517  -0.00742192   -0.0254839    0.0364885      0.02775    0.0120565   -0.0662978
#
   0.0561938   0.00792479   0.00649081  -0.00935078    0.0494611 -0.000938172    0.0243926  -0.00433283 -0.000678461    0.0306217
  -0.0603802   -0.0405003    0.0709296  -0.00910245    0.0256118  -0.00556238  -0.00842773    0.0226845     0.045496   -0.0174326
  -0.0139402   -0.0766455   -0.0720285   -0.0201427    0.0250876   -0.0409074   -0.0289571   -0.0182915    0.0264092    0.0338772
  -0.0479582    0.0135932     0.068734    0.0069446    0.0259493     0.046112    0.0369073   -0.0751353  -0.00750771    0.0053505
   0.0100723    0.0137006   -0.0322122    -0.021232   0.00864494    0.0498432    0.0205943    0.0246547    -0.010586   -0.0357296
 -0.00441274   0.00624334    0.0172096  -0.00806413   -0.0300274   -0.0373178    0.0308621   -0.0444211    -0.054999   -0.0262162
 -0.00910996   -0.0448389    0.0243122 -0.000662454   -0.0134596   -0.0145069    0.0183133   -0.0053002    0.0011475    0.0496781
  -0.0252627   -0.0257984    -0.101113   -0.0549011   -0.0529966   0.00386447    0.0160907   0.00203377   -0.0625654    -0.018851
  -0.0137354    0.0593719   -0.0153235    -0.012877   -0.0312238   -0.0405453      0.04848    0.0056824    0.0369505   0.00141512
   0.0177158  -0.00225621    0.0156138    0.0112896  -0.00706293    0.0388619   -0.0256122   -0.0133078     0.034032    0.0307749
#
   0.0215566    -0.001633   -0.0187471  -0.00123966    0.0205122  0.000299444   -0.0188217   -0.0053122     0.052669   -0.0264946
  -0.0160151    0.0188207    0.0349151    0.0823679    0.0116143    -0.083654   -0.0625185   -0.0405449 -0.000682305    0.0435491
   0.0217175    0.0519267    0.0743176    0.0111022    -0.030296   -0.0509412   -0.0294287   -0.0222505    0.0235794    -0.063935
#
!
<4>:89
  0.0391848  -0.0314334 -0.00208854  -0.0446914       0.086  -0.0589274  -0.0174252 -0.00104133   0.0125423
  0.0161676   0.0299844   0.0283902  -0.0103959  -0.0438514  -0.0156851  -0.0184063   0.0275327   0.0147194
 -0.0794124  -0.0198533  -0.0363874   0.0132975  -0.0127855   0.0191745  0.00889118   0.0662472  -0.0181897
-0.00369324   -0.028566 -0.00241828  0.00780596   -0.046022   0.0193481   0.0231716   0.0145241  -0.0113126
 -0.0411784  0.00162482     0.04724    0.028213   0.0165148  -0.0197499   -0.027871   0.0227895    0.037698
  0.0161581   0.0156983   0.0185756  0.00387323 -0.00179477   0.0313531  -0.0426347   0.0197188   0.0197302
  0.0369227   0.0257331   0.0399782  -0.0205213    0.069513   0.0586619  -0.0311098   0.0113845   0.0170552
 -0.0114813  -0.0378279  -0.0126386  -0.0239049   0.0542641  0.00299075   0.0378592  -0.0475694     0.03625
 -0.0159716  -0.0334033  -0.0129828  0.00139294   0.0172145 -0.00580214   0.0395979  -0.0241898  -0.0434799
  0.0415542   0.0151854  -0.0348279  -0.0137499   0.0274834   0.0112104 -0.00256895   -0.034127   0.0239744
#
 -0.00971386 -0.000950681  -0.00423288  -0.00971998    0.0324883    0.0252857   0.00383841  -0.00578748   0.00341139    0.0246877
   0.0486057   -0.0111714    0.0128331  -0.00775762    -0.027569    0.0398509  -0.00100696   -0.0709346   0.00350963  -0.00477905
  -0.0178212    0.0398994   -0.0106633    0.0276052    0.0149076    0.0556019   -0.0195597   -0.0167146    0.0165617  -0.00718999
  -0.0104403    0.0167887   -0.0109233   -0.0282957   -0.0035093   0.00123504   -0.0143144   0.00827118   0.00398649   -0.0252837
 0.000609052  -0.00143924  -0.00958124   -0.0156532    0.0299237    0.0381808    0.0188309   -0.0293798  -0.00791091   -0.0445961
  -0.0539372   0.00880957  -0.00821293   0.00204699    0.0402349   -0.0471884  -0.00423327   -0.0813801    0.0454331   -0.0769531
  -0.0561788   0.00832261    0.0277109   -0.0957586   -0.0103267   -0.0145357    0.0424152   -0.0458634   0.00431842    0.0259996
  -0.0279249    0.0260466    0.0467624   -0.0629177   -0.0385366     0.014388  -0.00810633   -0.0110962    0.0516325    0.0059296
 -0.00582703   -0.0102356   -0.0278128    0.0261857  -0.00119964   -0.0231914    0.0146562  -0.00124221    0.0853433   0.00987279
  0.00224269   -0.0957414   -0.0571436    0.0301605 -0.000945211   -0.0271506    0.0259575    0.0240928    0.0398662   -0.0412213
#
  0.0634811   0.0125535  0.00394579  0.00341323    0.059374 -0.00688905   0.0375375  -0.0203445   0.0152712    0.030075
 -0.0532621  -0.0271339     0.07639  -0.0116078   0.0370787  -0.0316638 -0.00893242   0.0104288   0.0280583 -0.00675486
 -0.0232606  -0.0510561  -0.0717791  -0.0302182   0.0218062  -0.0403974  -0.0370943   0.0062485   0.0334259   0.0391541
 -0.0288353  0.00335641   0.0777568   -0.030431   0.0171451   0.0330058   0.0443203  -0.0754754  0.00588197  -0.0179319
 -0.0148419   0.0228039  -0.0194064  -0.0208552   0.0126548   0.0330491   0.0130858  0.00903308  -0.0121309  -0.0563087
0.000976488  0.00864853   0.0255513   0.0136436 -0.00152922  -0.0507042   0.0248601 -0.00856337  -0.0415647  -0.0183953
 0.00590651  -0.0511486   0.0381381 -0.00287769  -0.0141652  -0.0137259  0.00854583  0.00138304   0.0107021   0.0294607
  -0.012738   0.0113074  -0.0849421  -0.0369247  -0.0395964   0.0223357   0.0284539   0.0126515  -0.0848442  -0.0138711
 -0.0356321   0.0218868  -0.0112023  -0.0226442  -0.0173871   -0.044726   0.0541987   0.0113905   0.0108093 -0.00983429
  0.0236559  -0.0122189  0.00828211  0.00818665 0.000780364   0.0572272  -0.0406693  -0.0081911   0.0283415   0.0225247
#
  0.0217653  0.00325916  -0.0148109  -0.0288486    0.011509  -0.0114336 -0.00758277  -0.0138084   0.0307632  -0.0475055
 0.00678358  -0.0255801   0.0118071    0.100852  0.00825493  -0.0774965  -0.0597724  -0.0318429  -0.0151652   0.0517768
-0.00462601   0.0705735   0.0516728   0.0201609  -0.0269502  -0.0688886 -0.00517232  -0.0271718   0.0282724  -0.0424073
#
!
<3>:88
    0.037074   -0.0263276  -0.00377708   -0.0321023     0.079038    -0.058586   -0.0287165   0.00353639    0.0218184
 -0.00972037  0.000433118    0.0414518   -0.0110683   -0.0379486  -0.00101705  -0.00127934    0.0226609   0.00907304
  -0.0454807   -0.0397977    -0.024158  0.000902647   -0.0156578    0.0233166 -0.000281686    0.0576066   -0.0107594
  0.00328479   -0.0353168  -0.00523289  -0.00406519   -0.0383062   -0.0192176    0.0152418    0.0212883   -0.0195632
  -0.0525212   0.00363676    0.0318913    0.0239432   0.00359788   -0.0103464   -0.0242395    0.0267095     0.037947
   0.0147095   0.00951983    0.0186779   -0.0199705    -0.019908    0.0471491   -0.0393388    0.0209624    0.0491771
   0.0405886    0.0221887    0.0304856   -0.0313372    0.0631197    0.0408487   -0.0121784     0.014986    0.0187571
   0.0137262   -0.0236902   -0.0180898   -0.0188149    0.0628654    0.0364355     0.039698   -0.0570035    0.0162225
   -0.023263   -0.0308453   -0.0498089    0.0264555    0.0524046  0.000944708    0.0356162  -0.00739588  -0.00508178
   0.0608097    0.0514966   -0.0353806   -0.0352442    0.0310202   0.00442202    0.0155707   -0.0206747    0.0285455
#
   0.0102081   0.00797908   0.00298111  -0.00191164    0.0347918     0.012107    0.0245154   -0.0116057  -0.00866196    0.0101483
   0.0327197   -0.0046607    0.0146027  -0.00615827   -0.0430804    0.0307295   -0.0158584   -0.0568437   -0.0174417   0.00186521
  -0.0206044    0.0606481    -0.012153    0.0359865   0.00214943    0.0618387   -0.0256424   -0.0293011    0.0463019   -0.0200678
   -0.028862    0.0203632   -0.0257892   -0.0509334  0.000555133   -0.0252435   -0.0286166    0.0178261    0.0182418   0.00590397
  0.00576315    0.0187313    -0.022982   0.00395435    0.0393773    0.0649676    0.0519185   -0.0355952    0.0112387   -0.0498696
  -0.0503915    0.0122995    0.0138357    0.0068664     0.036495   -0.0397866   -0.0190871   -0.0872243    0.0606711   -0.0400866
  -0.0362916  0.000236813    0.0163618   -0.0884283  -0.00740036  -0.00505062    0.0383027    -0.030304    0.0101407     0.024426
  -0.0295305   0.00663456    0.0658599    -0.034299   -0.0315418  -0.00128908  -0.00764784   -0.0221156    0.0625047   0.00383307
   0.0199992   0.00916187   -0.0298519    0.0490027 -0.000586034   -0.0156194    0.0191864   -0.0296274    0.0674644   -0.0180543
  0.00980959   -0.0741193   -0.0482244    0.0214145  -0.00401732  -0.00901743     0.024213    0.0222207    0.0222487   -0.0772249
#
   0.053884   0.0108763  -0.0109058  -0.0277909   0.0480445  -0.0343456   0.0206049  -0.0268928   0.0130501   0.0336992
  -0.076267   -0.051177   0.0626411   0.0060769  0.00557921  -0.0193138  -0.0189428  0.00273026   0.0261154  -0.0236127
 -0.0136807  -0.0578088  -0.0463371  -0.0146701  0.00983418  -0.0208458  -0.0295852  0.00117515   0.0233192    0.055795
 -0.0353018  -0.0093967   0.0597481 -0.00726614   0.0315193   0.0225808   0.0384573  -0.0822684   0.0203047  -0.0184444
-0.00855917   0.0141057  -0.0183251  -0.0245446  0.00876444     0.05359 -0.00379574   0.0157734   -0.011458  -0.0269795
0.000977634   0.0203887  0.00738117 -0.00371766  -0.0374838  -0.0407879   0.0352125  -0.0350868  -0.0602482  -0.0218058
 -0.0161314  -0.0576914   0.0355969 0.000501845  0.00416213 -0.00605071  0.00654068 -0.00668504  0.00172105   0.0578169
  -0.010703  -0.0171249  -0.0916321  -0.0407331  -0.0572869  0.00627722   0.0320087  0.00468022   -0.081264 -0.00451807
 -0.0121435   0.0461321  -0.0203534  -0.0221391  -0.0338048  -0.0471557   0.0394661  -0.0049297   0.0247634 0.000975171
   0.041039  0.00117194  0.00545265  0.00587173  -0.0231158   0.0297865  -0.0434641  -0.0193876   0.0360798  0.00482145
#
  0.0324354 -0.00765759  -0.0205707  -0.0164869   0.0134894 -0.00994659  -0.0109905 -0.00801807   0.0317439   -0.021011
 0.00143434  -0.0172272  0.00412696   0.0782846   0.0176684  -0.0515675  -0.0645198   -0.018544 -0.00190634   0.0614614
-0.00594269   0.0638051   0.0655901   0.0277256   -0.011874  -0.0490345   -0.006364  -0.0348271   0.0399315   -0.028087
#
!
<8>:87
  0.0333225  -0.0165925  -0.0137418   -0.043707   0.0757535  -0.0549215   -0.019102 -0.00641199   0.0157403
 0.00631484   0.0124958   0.0316147  -0.0195145  -0.0300075  0.00320177   -0.015383   0.0328099  0.00108373
 -0.0670085   -0.015292  -0.0392239  0.00652501 -0.00987622    0.018106  0.00397621   0.0599187  -0.0070537
-0.00732084  -0.0237837  0.00695837 -0.00637404  -0.0474649  0.00770398   0.0182351   0.0261321 -0.00811235
 -0.0552152  -0.0145976    0.033789   0.0194713   0.0126316 -0.00754372  -0.0340893   0.0331867    0.026411
-0.00473604   0.0203361   0.0253336  -0.0130639  -0.0126037   0.0454615  -0.0212702   0.0160012    0.042117
  0.0430442   0.0271768   0.0258586  -0.0257516   0.0557237   0.0519581  -0.0231607   0.0194955   0.0252174
-0.00667446  -0.0247063  -0.0126723 -0.00609942   0.0640306   0.0164545   0.0370708  -0.0466749   0.0263127
 -0.0291627  -0.0255899  -0.0345096 -0.00272935   0.0379593  -0.0102153    0.048829  -0.0206399  -0.0325463
   0.055127   0.0207215  -0.0285716  -0.0221506   0.0326724  0.00593751  -0.0079657  -0.0235852   0.0432819
#
  0.00458756    0.0102841  0.000897876  -0.00240079    0.0299896    0.0156391   0.00923666  -0.00548756   -0.0179209    0.0234973
   0.0376924   -0.0109024   0.00579081   -0.0016552   -0.0447684    0.0302855   -0.0068077    -0.062947  0.000934876   -0.0135516
  -0.0217576    0.0546595   -0.0121712    0.0341974 -0.000397288    0.0615349   -0.0216498    -0.016946    0.0329856   -0.0014014
  -0.0296489    0.0251419   -0.0127744   -0.0386988  -0.00893095  -0.00784685    -0.021059    0.0127738 -0.000626164  -0.00572686
  0.00412738    0.0141656   0.00309394  -0.00728997    0.0362728    0.0566087    0.0351378   -0.0250005   -0.0167158   -0.0464809
  -0.0624984   0.00943904   0.00528717   0.00765648    0.0426289   -0.0229172   0.00524917   -0.0829345    0.0494005   -0.0382882
   -0.053427  0.000219268    0.0126377   -0.0807886   -0.0139941  -0.00294119    0.0366622   -0.0319689   0.00571118    0.0241162
   -0.020327   0.00753154    0.0463796   -0.0557308   -0.0369148  -0.00834442  -0.00581375   -0.0103285     0.061788   0.00517137
 -0.00576459   0.00354395   -0.0242715    0.0483977  0.000600208   -0.0151471   0.00991241    -0.014648     0.063905  -0.00851665
 0.000617128   -0.0868092   -0.0502908    0.0364105 -0.000748277    -0.014669    0.0297879    0.0312616     0.031578   -0.0615958
#
   0.0474355   0.00838001  -0.00542917   -0.0103577     0.053684   -0.0094157    0.0312039    -0.020421   0.00958085    0.0236423
  -0.0678421    -0.034291    0.0712794  -0.00203274    0.0177462   -0.0358911   -0.0165048    0.0164877    0.0296765   -0.0276082
  -0.0117967   -0.0536355   -0.0712144   -0.0231886    0.0155205   -0.0321926   -0.0390624   0.00428403    0.0345952    0.0421177
  -0.0230744    0.0116035    0.0686871   -0.0230603    0.0152895    0.0386561    0.0360166   -0.0703861   0.00410545   -0.0175856
 0.000971457    0.0107279   -0.0203055   -0.0222085    0.0154789    0.0354416   0.00531581   0.00336703   -0.0135717   -0.0546881
  0.00586103     0.010808   0.00908541  -0.00370845   -0.0213487   -0.0357369    0.0249652   -0.0238594   -0.0589318   -0.0216717
 -0.00678441   -0.0491091    0.0358576  -0.00330773  -0.00758429 -0.000964864    0.0140161  -0.00539374   0.00656107    0.0377438
 -0.00344021   -0.0128194   -0.0959644   -0.0382502   -0.0545828    0.0175191    0.0246219   0.00352717   -0.0760251  -0.00833619
  -0.0221861    0.0391689   0.00543452   -0.0342927   -0.0160611    -0.041972    0.0374614   -0.0115546    0.0270798   0.00631339
    0.030173  -0.00489952   0.00388154    0.0186701   -0.0156477       0.0465    -0.025056   -0.0187141    0.0289282    0.0144918
#
   0.0258166 -0.000105961   -0.0187086   -0.0220577   0.00936559  -0.00671569   -0.0117392  -0.00878643    0.0233667   -0.0394998
 -0.00423091  -0.00766952   0.00837471    0.0819791     0.015249    -0.071169   -0.0498077   -0.0218199  -0.00624333    0.0350437
  0.00780576    0.0600859    0.0574862    0.0169858   -0.0230317   -0.0620727   -0.0180191   -0.0198928    0.0443245   -0.0368728
#
!
<6>:83
  0.0261217  -0.0170998  -0.0161535  -0.0509276   0.0939092  -0.0727064  -0.0221386 -0.00937513    0.014315
   0.021539  0.00194777   0.0466772  -0.0142775  -0.0204504 -0.00280153  -0.0194591   0.0340159 -0.00719026
 -0.0726843  -0.0174715   -0.047178   0.0133135 -0.00444769   0.0197376  0.00473942   0.0473868  0.00809877
 -0.0236115  -0.0207219   0.0166615   -0.012349  -0.0446439  0.00359082   0.0277869   0.0432522  -0.0115569
 -0.0578499   -0.025497   0.0346197   0.0244134  0.00443682 -0.00814828  -0.0306532   0.0235149   0.0257825
-0.00172779   0.0205141   0.0176871  -0.0421151  -0.0141566   0.0301871  -0.0225443   0.0238302   0.0257191
  0.0390922   0.0116149   0.0344791  -0.0382802   0.0774672   0.0376596  -0.0131734   0.0316587   0.0188485
 -0.0144849  -0.0335488  0.00457415  0.00351428    0.073852   0.0398372   0.0370867  -0.0469572   0.0277899
 -0.0196413  -0.0199047  -0.0418876 0.000505686   0.0474656 -0.00499355   0.0523304   -0.018166  -0.0323319
    0.07269   0.0285571  -0.0227705 -0.00702189   0.0317044 -0.00468006  -0.0226839  -0.0198925   0.0404713
#
 -0.00137059   0.00365425   0.00655275    0.0227009     0.013191    0.0255787   0.00572214   0.00954296   -0.0186003     0.029725
   0.0497218 -0.000314601    0.0138152  -0.00807103   -0.0390095    0.0257746  -0.00534747   -0.0617385   -0.0094545   -0.0324608
  -0.0243351    0.0705083   -0.0211571    0.0380339  -0.00349483    0.0567138   -0.0128605   -0.0125553    0.0364544   -0.0100564
   -0.032416    0.0171931  -0.00530167    -0.026259 -0.000606307  -0.00447942   -0.0313299    0.0181293    0.0155963  -0.00942109
   0.0089659    0.0236853   0.00811242   0.00708272    0.0210755     0.046427    0.0273736   -0.0372046   -0.0244338    -0.049366
  -0.0767385   0.00621679  0.000115659  -0.00526258    0.0509643    -0.016469   0.00139223   -0.0746727    0.0482998   -0.0382727
  -0.0657202 -0.000740023  -0.00590986    -0.087675    -0.013626  -0.00347402    0.0284968   -0.0324645   0.00236127   0.00492878
 -0.00743639    0.0190661    0.0293601    -0.040238   -0.0324379  0.000526579  -0.00287692   -0.0243679    0.0709991   0.00456694
   0.0147872    0.0149359   -0.0111354    0.0717394   -0.0116196   -0.0282282  -0.00829888   -0.0166205    0.0556914   -0.0135003
  0.00358118    -0.090288   -0.0388522    0.0337124  -0.00614197  -0.00527138    0.0256715    0.0375757   0.00831085   -0.0550855
#
  0.0345198 -0.00140474   -0.011966  -0.0243529   0.0680403  -0.0122528   0.0310821  -0.0137216  0.00331842    0.029011
 -0.0807654  -0.0489781   0.0719044 0.000328185  0.00159288  -0.0136965 -0.00849109   0.0112285   0.0374552  -0.0458403
-0.00985919  -0.0624522  -0.0731414  -0.0271598   0.0114291  -0.0400544  -0.0335704   0.0101807   0.0424587   0.0287403
 -0.0214774   0.0013023   0.0676869  -0.0113284   0.0168675    0.039695   0.0340639  -0.0847681 -0.00535483  -0.0127475
-0.00880872  0.00664472 -0.00721821 -0.00104325    0.014569    0.033936  0.00883343  0.00531097 -0.00390472  -0.0504983
  0.0199572   0.0155784 -0.00448453  0.00403423  -0.0373598  -0.0446204   0.0389551  -0.0286276  -0.0640359  -0.0336981
-0.00848693  -0.0593496    0.028217  -0.0236116  -0.0041826  -0.0104505   0.0274403  0.00404619  -0.0100602   0.0266526
 0.00365777  -0.0185415  -0.0962716   -0.037917   -0.045266  0.00843274   0.0401856  0.00550252  -0.0787755   0.0123944
 -0.0252048   0.0430535   0.0178108  -0.0312616   -0.027803    -0.02915   0.0351767 -0.00839335    0.022413  0.00910605
  0.0358814  -0.0111631  0.00444512   0.0150891  -0.0144466   0.0447871  -0.0291087  -0.0277682   0.0366853  0.00648353
#
  0.0303365   0.0199571 -0.00871007  -0.0235826  0.00144048  -0.0179618  0.00253513  -0.0309421   0.0240433  -0.0380613
 -0.0139416  -0.0209219   0.0216903   0.0890405   0.0162614  -0.0799737  -0.0463837  -0.0322982 -0.00499182   0.0436346
 0.00466927   0.0708015   0.0657192   0.0347489   -0.039504  -0.0695269   -0.024954  -0.0231849   0.0651892  -0.0341437
#
!
<7>:83
   0.0401538  -0.00609081   -0.0174098   -0.0430877     0.084525   -0.0562592   -0.0223212   -0.0114959     0.024279
  0.00475475   0.00226576    0.0171468  -0.00620915    -0.038444   0.00397135  -0.00662598    0.0407192    0.0166914
  -0.0763116   -0.0359024    -0.045982 -0.000380196   0.00571589    0.0161665  -0.00421331     0.030752   -0.0085728
 -0.00207783   -0.0075597   -0.0106917  -0.00669532   -0.0361493  0.000749288    0.0145319    0.0192795   -0.0118311
  -0.0614675   -0.0324746    0.0353749    0.0216454    0.0351972   -0.0136985   -0.0368099    0.0331641    0.0285396
  -0.0144454  -0.00262456     0.016866   -0.0248322   -0.0231731    0.0478005   -0.0342557   0.00238643    0.0481044
   0.0331611    0.0525453    0.0156167   -0.0279025    0.0424574    0.0756094  -0.00646826    0.0149433    0.0320208
  -0.0183375  -0.00963172   -0.0134921  0.000801754    0.0487903    0.0319327     0.035816   -0.0572647    0.0298617
  -0.0147459   -0.0304365   -0.0157606  -0.00989377    0.0385291  -0.00276421    0.0492091  -0.00749394    -0.026287
   0.0528004    0.0274049   -0.0289329   -0.0137103    0.0509405   0.00142958  -0.00727946    -0.025762    0.0134674
#
   0.0188241   0.00187577  -0.00607012   0.00713087    0.0178314      0.01229    0.0157526  -0.00321161   -0.0213061    0.0319352
   0.0283736   -0.0130557    0.0139409  -0.00352716   -0.0396218    0.0242365   -0.0248009   -0.0555682   -0.0160074  -0.00769088
   -0.003418    0.0591618   -0.0112308    0.0351766  -0.00326388    0.0603161   -0.0279563   -0.0113004    0.0195694  -0.00644994
  -0.0187712   0.00610947  -0.00977414   -0.0539142  -0.00902537   -0.0215907   -0.0146507    0.0218409    0.0187761  -0.00754797
 -0.00767747   0.00425555   -0.0124694  -0.00829028    0.0355635     0.057875     0.020534   -0.0585214  -0.00930252   -0.0559895
  -0.0674256     0.032787  -0.00124361  -0.00212424    0.0453517    -0.034263   -0.0116436   -0.0966646    0.0405476   -0.0313039
  -0.0502669    0.0135961     0.010819   -0.0790986  -0.00828454    -0.024559    0.0252848     -0.04385    0.0186665    0.0254345
  -0.0310382    0.0241811    0.0531036   -0.0560842   -0.0409042   -0.0132457   -0.0185089 -5.12935e-05    0.0531492   0.00717268
   0.0149746   0.00432561   -0.0312898    0.0413487  -0.00773711   -0.0230142   0.00205081  -0.00710894    0.0646848   -0.0118223
   0.0178975   -0.0978154    -0.046512    0.0178135    0.0139777  -0.00800391    0.0118175    0.0474007    0.0108258   -0.0439738
#
   0.0588776    0.0248619   -0.0164248   -0.0324356      0.07207  -0.00455561    0.0376643   -0.0362151    0.0153686    0.0510626
  -0.0673282    -0.036712    0.0586671   0.00241301    0.0171806   -0.0284691   -0.0179932   0.00383326    0.0382585   -0.0207137
 -0.00809909   -0.0504151   -0.0623699   -0.0219718    0.0202675   -0.0333546   -0.0261262   0.00481861    0.0230802    0.0355768
  -0.0138942    0.0197545    0.0637298 -0.000189266    0.0295095    0.0195766    0.0404278   -0.0923759    0.0173903  -0.00226709
  -0.0250675    0.0194774   -0.0113187   -0.0373679    0.0235703    0.0421694    0.0152738    0.0167245   -0.0106576   -0.0718431
  0.00672538   0.00728864    0.0260518   -0.0205775   -0.0249087   -0.0507629     0.018341  -0.00736025   -0.0771234   -0.0109011
 -0.00977836   -0.0543993   0.00982697   0.00352114  -0.00479178  -0.00992283   0.00866875  -0.00401882  -0.00911447    0.0222956
 -0.00633822    -0.027624   -0.0894415   -0.0447629   -0.0601954    0.0236903     0.025112    0.0133643   -0.0615408     0.006474
  -0.0235417    0.0271158  0.000201493   -0.0514124   -0.0310951   -0.0352894    0.0267987   -0.0207576    0.0424456    0.0215946
   0.0332683    0.0150406  -9.5982e-05    0.0281315   -0.0225657    0.0532566   -0.0165237   -0.0365166    0.0293986    0.0228539
#
  0.0367477 -0.00616039  -0.0234849  -0.0371307   0.0114542 -0.00340322  -0.0190376  -0.0234157   0.0371064  -0.0419415
0.000712727 -0.00675989 -0.00965964   0.0878008   0.0251832  -0.0507874  -0.0512042  -0.0188838  0.00696947   0.0415314
0.000942717   0.0680611   0.0452036   0.0241743  -0.0162421  -0.0659539  -0.0292435  0.00146323   0.0445934  -0.0327358
#
!
<9>:82
   0.025737  -0.0107602  -0.0075334  -0.0317065   0.0709932  -0.0475887  -0.0102355  0.00119321   0.0128273
  0.0130706  0.00785795   0.0272585  -0.0192201  -0.0387366  0.00671492 -0.00659909   0.0181857  0.00245898
 -0.0642026  -0.0134042  -0.0319179   0.0124007  -0.0123912   0.0161129  0.00214177   0.0515776 -0.00831221
 -0.0107312  -0.0165401   0.0200257 -0.00655112  -0.0408366  0.00347957   0.0203164    0.027915 -0.00123328
 -0.0666149  -0.0156754   0.0368518   0.0107951    0.021943  -0.0136526  -0.0389354   0.0348766   0.0254618
-0.00563613   0.0125728   0.0252848  -0.0137932  -0.0205715   0.0374019  -0.0317894   0.0109372   0.0518472
  0.0496965   0.0319948   0.0428884  -0.0249922   0.0615701   0.0532075  -0.0212371     0.01565   0.0271306
 -0.0232741  -0.0251245 -0.00829213  -0.0118641   0.0603526   0.0092938   0.0382071  -0.0431606   0.0280495
 -0.0287124  -0.0274221  -0.0228167 -0.00797987   0.0304254  -0.0157245   0.0457199  -0.0158935  -0.0301226
  0.0513071   0.0262031   -0.033266  -0.0252692    0.035377  0.00259644  -0.0063172  -0.0183779   0.0461734
#
  0.0110732  0.00993063 -0.00793599  0.00631204   0.0314997  0.00354366  0.00805062  -0.0134073  -0.0248778   0.0300668
  0.0428369  -0.0141407  0.00355495   0.0133276  -0.0342245   0.0350738 -0.00693829  -0.0670316  0.00370293 -0.00436623
  -0.019794   0.0607682 -0.00553405   0.0459132   -0.011421   0.0533216  -0.0167583  -0.0227909   0.0324887  -0.0115507
 -0.0271302   0.0364877 0.000224039  -0.0411131  -0.0108626  -0.0128788  -0.0232504   0.0187259 -0.00212828   0.0137193
-0.00421217 0.000640765 -0.00572337  -0.0121775   0.0437009   0.0530037   0.0508051  -0.0218884  -0.0137002  -0.0482635
 -0.0671546   0.0152775  0.00432387   0.0122385   0.0475939  -0.0217485 0.000770451  -0.0847598   0.0408156  -0.0459643
 -0.0446319  0.00413844   0.0211314  -0.0888103  -0.0226293 -0.00123125   0.0209653   -0.034786  0.00974756   0.0302922
 -0.0177573  0.00590938   0.0503006  -0.0531718  -0.0329189  -0.0153351  -0.0197676  -0.0143721   0.0667331 -0.00206013
-0.00759795  0.00317103  -0.0367864   0.0520539  0.00185591  -0.0136549   0.0109947  -0.0219127   0.0689935 -0.00230253
  0.0102921  -0.0760756  -0.0552522   0.0424061 -0.00748686  -0.0248843   0.0423177    0.027266   0.0318291  -0.0559374
#
   0.0504998    0.0196999   0.00047434  -0.00155217    0.0400637   -0.0210108    0.0259391   -0.0234107   0.00827111    0.0228067
  -0.0578504   -0.0375949    0.0802172  -0.00482867    0.0149597   -0.0315323   -0.0102224    0.0176056    0.0232381   -0.0350937
  -0.0175522   -0.0493876   -0.0643315   -0.0265264    0.0125357   -0.0317557   -0.0366801  -0.00178244    0.0428894    0.0513298
  -0.0285168    0.0151879     0.070695   -0.0277422    0.0110324    0.0420622    0.0389467   -0.0693007   0.00188069   -0.0117186
  0.00562934    0.0110015    -0.027687   -0.0307804    0.0114784    0.0390373   0.00467498   0.00617679   -0.0228438   -0.0551712
   0.0155931    0.0140002     0.016816  0.000432162   -0.0207804   -0.0299127   0.00855492   -0.0282882   -0.0703057   -0.0225426
  -0.0060369   -0.0556001     0.042456  -0.00743126   -0.0120592   -0.0109476    0.0290263   0.00196739     0.025384    0.0297229
 -0.00196748  -0.00990265   -0.0989223   -0.0475119    -0.041192    0.0174825    0.0331084    0.0124427   -0.0756689   -0.0171548
  -0.0368983    0.0286901 -0.000246429   -0.0415126  -0.00445353   -0.0347168    0.0413284   -0.0207182    0.0280396  -0.00439796
   0.0240137   -0.0114334    0.0191741     0.014476   -0.0030855     0.045902   -0.0243276   -0.0163092    0.0229698    0.0192389
#
   0.0149667   0.00100663   -0.0108651   -0.0369186    0.0173767 -0.000732745   -0.0199218  -0.00525597    0.0275563   -0.0375898
 -0.00954187  -0.00375867    0.0168685    0.0766329    0.0111792   -0.0627117    -0.057975   -0.0250104   -0.0205889    0.0459799
  0.00186536    0.0520679    0.0539607    0.0144452   -0.0155105   -0.0547379  -0.00833608   -0.0159079    0.0555287   -0.0428487
#
!
<15>:78
  0.0382764  -0.0126217  -0.0322191  -0.0228881   0.0656453  -0.0647606 -0.00766969  -0.0264372   0.0204552
  0.0151157  0.00130524   0.0297375   -0.016874  -0.0403159  0.00530019  -0.0028211   0.0309109  0.00322516
 -0.0551782  -0.0283524  -0.0463522 -0.00723991 -0.00350398 -0.00452256  0.00503865   0.0495619  -0.0177981
-0.00279721   -0.016596 -0.00316173  -0.0119273  -0.0581615  0.00629134   0.0232759   0.0237576 -0.00738387
 -0.0590535  -0.0242628   0.0299252   0.0238512   0.0252873 -0.00430863  -0.0286075   0.0349597   0.0479348
 0.00103925   0.0169471   0.0304908 -0.00299743  -0.0500022    0.051023  -0.0292568  -0.0100442   0.0548045
  0.0266632   0.0378603   0.0304533  -0.0395167   0.0651717   0.0565372 -0.00783863 -0.00440075   0.0238914
 0.00787889  -0.0157948  -0.0202933 -0.00829944   0.0531049   0.0327172   0.0448312  -0.0541458    0.018661
 -0.0364106  -0.0343948   -0.045891  0.00683528   0.0349697 -0.00756228    0.043512  -0.0300435   -0.018125
  0.0471926   0.0329052  -0.0141044  -0.0112826   0.0174488 0.000959731  -0.0202814  -0.0336641   0.0227271
#
-0.00378239 -0.00486064 0.000878429 -0.00544851   0.0425958   0.0152801    0.011767 -0.00904723 -0.00861444   0.0323125
  0.0538903 -0.00835396  0.00919964   0.0117995  -0.0427841  0.00869548  -0.0241472  -0.0649664  -0.0143325  0.00176688
  -0.015106   0.0506123  -0.0171028   0.0314918 -0.00613275   0.0704881  -0.0123723  -0.0158683   0.0298693  -0.0220314
 -0.0196064   0.0197848  -0.0142347  -0.0365141  -0.0146423  -0.0214874  -0.0265378   0.0424862 -0.00238815  -0.0054938
-0.00407151 -0.00380789 -0.00484506   -0.006658   0.0172613   0.0555909   0.0304587  -0.0193014  -0.0166052  -0.0235169
 -0.0663863    0.015279 -0.00191143 -0.00377036   0.0513446  -0.0204846  -0.0031395  -0.0923341   0.0565912  -0.0347472
 -0.0620625  0.00997693   0.0212141  -0.0907772  0.00688305 -0.00236427   0.0394332  -0.0154086   0.0118529   0.0453575
  -0.027754  0.00861326   0.0564258  -0.0237171  -0.0389021  0.00551259   -0.012974 -0.00650597   0.0512171  0.00660428
  0.0159753  0.00618973  -0.0236952   0.0380565 -0.00665296  -0.0223702  0.00845521  -0.0090577   0.0685123  -0.0206934
  0.0119855   -0.063104  -0.0603465   0.0280234 -0.00766459  -0.0340055   0.0402559   0.0540144   0.0300754   -0.036418
#
  0.0573361  -0.0109229  0.00236953  -0.0184193   0.0698248   -0.023883   0.0308374  -0.0344892   0.0247726   0.0256857
 -0.0784034  -0.0306529   0.0740227 -0.00603409   0.0136104  -0.0380609  -0.0206264    0.007581   0.0261997  -0.0304371
-0.00362464  -0.0557543  -0.0646681  -0.0378191   0.0188018  -0.0230009  -0.0518327  -0.0151392   0.0214171   0.0395929
 -0.0169605   0.0186045   0.0658098  -0.0235617   0.0139949    0.030914   0.0509358  -0.0693126   0.0150695 -0.00933385
 -0.0126366  0.00414822   -0.022025  -0.0101076  0.00799555   0.0357192  0.00189338    0.021381 0.000928423  -0.0455053
  0.0221399   0.0244948 -0.00705799  -0.0129359  0.00311363  -0.0176789   0.0157475  -0.0381126  -0.0734477   -0.013651
-0.00428932   -0.026382    0.013202  0.00366773 -0.00635447  0.00178815   0.0038306 -0.00361612  0.00152365   0.0500995
 0.00425443 -0.00789492  -0.0867141  -0.0453694  -0.0617641   0.0118833    0.032522  -0.0188867  -0.0727304   0.0210191
 -0.0240235   0.0489739 -0.00249679  -0.0245342   -0.037804  -0.0426171   0.0481858  -0.0150089    0.026084   0.0164597
  0.0256611 -0.00443185   0.0221044   0.0204647  -0.0091409   0.0690365  -0.0334163  -0.0247394     0.02769   0.0119193
#
   0.0316885  -0.00150005   -0.0366484   -0.0187027   0.00576211  -0.00723109   -0.0359035 -0.000994127    0.0331287   -0.0284704
 -0.00751217  -0.00255876    0.0274382    0.0737819    0.0164912   -0.0637635   -0.0396187   -0.0239086  -0.00200535    0.0545935
  0.00177895    0.0510224    0.0582788   0.00290096   -0.0535698   -0.0793047   -0.0406845   -0.0176233    0.0579297   -0.0371221
#
!
<10>:77
   0.0261595   -0.0238126   -0.0173208   -0.0402759    0.0672289   -0.0510966  5.18811e-05  -0.00368539    0.0280469
 -0.00593503    0.0161243    0.0328524  -0.00160229   -0.0182813   -0.0102287  -0.00680695    0.0448498   -0.0193819
  -0.0601575   -0.0265563   -0.0398074   -0.0213369    0.0067716   0.00707603    0.0164236    0.0539449   -0.0170165
   0.0150176   -0.0168558   -0.0104209    0.0141908   -0.0447143     -0.01553    0.0150829    0.0268907   -0.0188245
  -0.0728906   -0.0124186    0.0527592    0.0265856   0.00989755    0.0127412   -0.0249884    0.0282153    0.0255672
 0.000122133    0.0162835    0.0228632   -0.0112546   -0.0350257    0.0376471   -0.0225518    0.0172757    0.0501104
   0.0441856    0.0304577    0.0301828   -0.0441475     0.049472    0.0730198    -0.036565    0.0228091    0.0380007
-0.000692443    -0.011957  -0.00904099   -0.0215163    0.0685387    0.0193906    0.0276069   -0.0687242    0.0213029
  -0.0293344    -0.014803   -0.0241076   0.00466897     0.046714  -0.00693327    0.0518459   -0.0114337   -0.0095097
   0.0558805     0.018699    -0.041672   -0.0274283    0.0390949  -0.00036531    -0.011556   -0.0303286    0.0431708
#
  0.0082777  0.00982906 -0.00642509 -0.00119784   0.0368888   0.0107332   0.0069207   -0.015237 -0.00156659   0.0112084
  0.0425156 -0.00605437   0.0170127 -0.00527008  -0.0368311   0.0497565 -0.00369781   -0.077114  -0.0164314  -0.0127777
-0.00639833   0.0604331  -0.0226505   0.0463709   0.0162212   0.0799137  -0.0234388  -0.0234172   0.0367472  -0.0162876
 -0.0386846   0.0417192 -0.00746849  -0.0513393  0.00398464  -0.0194775  -0.0286167  0.00861221  0.00633802 -0.00622407
 0.00655569   0.0162273   -0.018428  -0.0105317   0.0277109   0.0586082   0.0285475  -0.0215532 -0.00862656  -0.0469151
 -0.0514439   0.0186408  -0.0241276   0.0119901   0.0392479  -0.0294683  -0.0120707  -0.0758064   0.0629094  -0.0311899
 -0.0457515  0.00832702   0.0203649  -0.0931489  -0.0259682 -0.00715969   0.0432769  -0.0457881 -0.00827108   0.0397519
 -0.0293514 1.70597e-05    0.029595  -0.0329399  -0.0238978  0.00183769  -0.0113938 -0.00987946   0.0598664  0.00265495
  0.0112434  0.00321327  -0.0184237   0.0356921  0.00370647 -0.00197368   0.0110125  -0.0207761   0.0637227  -0.0132605
  0.0114124  -0.0925473  -0.0539038   0.0407902  -0.0186382 -0.00256261   0.0496577   0.0378657    0.024076  -0.0429639
#
  0.0584695 -0.00872674  -0.0144018  -0.0141054   0.0564931  -0.0214629   0.0253067 -0.00937721  0.00762097   0.0135138
 -0.0648073  -0.0337698   0.0751142  0.00858324   0.0147389  -0.0196848 -0.00426643   0.0093204    0.025904  -0.0204208
 -0.0362971  -0.0371942  -0.0647305  -0.0235655   0.0177713  -0.0392795  -0.0258088  0.00162328   0.0300638   0.0439413
 -0.0273751   0.0277355   0.0633593 -0.00920381  0.00336302   0.0399206    0.030041  -0.0772346 -0.00960897 -0.00156052
 -0.0211414   0.0183931 -0.00362622 -0.00308632   0.0265787   0.0457088 -0.00893797   0.0166926  0.00181136  -0.0681044
 0.00643731   0.0179059   0.0256415  -0.0184254  -0.0139558  -0.0166145   0.0375209  -0.0205398  -0.0530773  0.00794355
 -0.0144672   -0.052183   0.0445149  0.00775605 0.000445232   -0.020617  0.00856692  0.00240592 -0.00683759   0.0363073
 -0.0263322  -0.0189204  -0.0763307  -0.0259238  -0.0485707   0.0273385   0.0270259  0.00114107  -0.0677851  0.00998793
 -0.0140952   0.0397939  -0.0257495  -0.0237442  -0.0227852  -0.0426583   0.0531178   0.0158268   0.0267992   0.0118875
  0.0162365 -0.00945524  0.00300198   0.0276442  -0.0216248   0.0707895  -0.0153556  -0.0132785   0.0397975   0.0409319
#
    0.015025   -0.0112754   -0.0195049   -0.0394582     0.015773   0.00817285   -0.0241898   -0.0184429    0.0352355   -0.0304368
-0.000515101    0.0105054   0.00422163    0.0671151    0.0235861    -0.052453   -0.0571967    -0.035201    0.0126328    0.0379704
   0.0110722    0.0659077    0.0582215   0.00434725   -0.0167717   -0.0548661  -0.00558402   -0.0161442    0.0412153   -0.0491591
#
!
<13>:77
   0.0491837  -0.00829179   -0.0220905   -0.0554115    0.0850564   -0.0430866   -0.0129907  -0.00993735    0.0108489
   0.0114207   0.00255069    0.0247648  -0.00772453   -0.0205837  -0.00569355    -0.013562    0.0308248    0.0149486
  -0.0510273   -0.0248632   -0.0325446     0.006787   -0.0127026    0.0139355   0.00931575    0.0436605   -0.0195397
  -0.0113462    -0.025772 -0.000402324   0.00164498   -0.0639655    0.0148637    0.0262016    0.0294998  -0.00818558
  -0.0435312  -0.00122266    0.0527832    0.0206006    0.0280501   0.00410681   -0.0301243    0.0364293    0.0297231
  -0.0132608   0.00825549    0.0136061   -0.0181516   -0.0178614    0.0415386  -0.00897035    0.0154914    0.0544312
   0.0445188    0.0227288    0.0319837   -0.0260837    0.0473293     0.034852   -0.0288742   0.00777963    0.0390925
  -0.0116579   -0.0322312   -0.0191295   -0.0128737    0.0564624    0.0431355    0.0634893   -0.0494629     0.038057
  -0.0179683   -0.0420044   -0.0338953  -0.00744111    0.0382988  -0.00976561    0.0514269   0.00105606   -0.0325824
   0.0628112    0.0275674   -0.0415008   -0.0324307    0.0113682    0.0120661   -0.0272709   -0.0239825    0.0387996
#
  0.00600832    0.0118133 -0.000904594    0.0154077    0.0533472   0.00831295    0.0124537  -0.00741785  -0.00690815    0.0109417
   0.0340702   -0.0200024   0.00842507    0.0162358   -0.0564466    0.0295938  -0.00886649   -0.0710915  -0.00956496    -0.010846
  -0.0104465    0.0697044   -0.0112963     0.037027   0.00678926    0.0649604   -0.0297816   -0.0193889    0.0402173   -0.0263711
 -0.00724858    0.0467838  -0.00752188   -0.0252411   -0.0136392   -0.0232567   -0.0261444    0.0255926  -0.00135159   0.00617864
-0.000145025   0.00814234   -0.0134328  -0.00493693    0.0370637     0.060096    0.0455759   -0.0245181   0.00604538   -0.0412596
  -0.0567233    0.0149497  -0.00783659     0.015159    0.0609054   -0.0465513  -0.00728901    -0.067967    0.0596489   -0.0512604
  -0.0312467   0.00902104    0.0114035   -0.0846995    -0.016841  -0.00235259    0.0555024   -0.0316698   0.00246113    0.0298823
  -0.0301891   0.00674389    0.0479861   -0.0477543  -0.00444672  -0.00613923   -0.0337764   -0.0116419    0.0569912    0.0089332
 -0.00604562  -0.00258002   -0.0187053    0.0547016   -0.0108303   -0.0144489    0.0146843  -0.00440611    0.0584385   0.00485043
  -0.0157452   -0.0958267   -0.0417686    0.0364838   0.00742055   -0.0110518    0.0306529    0.0410292    0.0115276   -0.0664821
#
  0.0455204  0.00927347  -0.0132082  -0.0208411   0.0554723 -0.00989773   0.0266544  -0.0325213  0.00991679   0.0186009
 -0.0708624  -0.0329028    0.065159  0.00431743   0.0212557  -0.0169708  -0.0202887  -0.0152926   0.0365967  -0.0309509
-0.00746192  -0.0535321  -0.0538534  -0.0258115  0.00675403  -0.0281505  -0.0326253  0.00902897   0.0388689   0.0400599
 -0.0337994   0.0139281   0.0749072  -0.0132983   0.0178468   0.0200403   0.0361943   -0.101517  0.00238309   -0.018029
   0.013277  0.00704244  -0.0176557  -0.0252588   0.0148945    0.046893   0.0156148 0.000846454  -0.0148245  -0.0562644
 0.00912548   0.0207112   0.0108836 -0.00654452 -0.00685356  -0.0317422   0.0101894  -0.0227299  -0.0666015  -0.0306409
-0.00752846  -0.0203433   0.0270605  0.00266816 -0.00992102  -0.0109791   0.0137407  -0.0209431  0.00903452   0.0600044
 -0.0150748  -0.0059679  -0.0782003  -0.0661338  -0.0560755   0.0248899   0.0105777   0.0180409  -0.0765718  0.00454906
 -0.0525579   0.0613193  0.00925516   -0.044383  -0.0149032  -0.0494969   0.0488754  -0.0265867   0.0404836  0.00496807
  0.0373408 -0.00354363  0.00258496   0.0413983 -0.00657779   0.0556424  -0.0345569  -0.0257418    0.019126  0.00192441
#
  0.0180568 -0.00211922  -0.0246296  -0.0149919   0.0252099  0.00609927  -0.0107937  -0.0144328   0.0181774  -0.0291597
-0.00300043 -0.00706789   0.0127879    0.064988   0.0216501   -0.070519  -0.0546552  -0.0192881   0.0162178   0.0458867
  0.0071068   0.0791037   0.0380543   0.0169648  -0.0209633  -0.0698644  0.00324514  -0.0249811   0.0602247   -0.031295
#
!
<12>:75
   0.0348529   -0.0101872   -0.0219567   -0.0284219    0.0616855   -0.0484379   -0.0240326   0.00328644     0.011174
   0.0151116     0.013598    0.0400146   -0.0190428   -0.0133913   0.00245535   -0.0139375    0.0311904   0.00264519
   -0.062595   -0.0254653   -0.0505496    0.0178984   -0.0106905    0.0208309 -0.000505612    0.0607909  0.000350097
 -0.00152767     -0.02903    0.0147381    0.0218648   -0.0308204   0.00742175    0.0148653    0.0283734   0.00244134
  -0.0672155   -0.0107653    0.0374345    0.0296501    0.0162314  -0.00214818   -0.0310085    0.0516058   0.00946423
   0.0118798    0.0172868    0.0240639  -0.00968446    0.0029626    0.0312522   -0.0212611    0.0226777     0.038675
   0.0607795    0.0336165    0.0135965   -0.0303676    0.0326036    0.0595492   -0.0109315    0.0221856    0.0451389
 -0.00945771   -0.0195084   -0.0256305       0.0114    0.0857344    0.0389109    0.0417466   -0.0454192     0.023077
  -0.0339499   -0.0124072   -0.0419729   -0.0129244     0.027866   -0.0151383    0.0519032   -0.0228942   -0.0465922
   0.0492715    0.0230582   -0.0338717   -0.0167707    0.0461726   0.00281692   0.00394295   -0.0361305    0.0491622
#
   0.0104846    0.0181427   0.00797973   0.00975066    0.0180999    0.0165474    0.0161636   -0.0191842  -0.00487804     0.030297
   0.0419564   -0.0254215   0.00873471   0.00137029   -0.0386312    0.0334274 -6.89132e-05   -0.0747529   0.00290257   -0.0108435
 -0.00729597    0.0623918  -0.00772288    0.0328959    0.0110834    0.0661551   -0.0309536   -0.0378359     0.031213   0.00418888
  -0.0401465    0.0271036   0.00232106   -0.0461237   -0.0265134   -0.0180618  -0.00825296     0.015233   -0.0121714   -0.0245606
   0.0111179    0.0264954  -0.00492283   0.00140908    0.0434709    0.0642886    0.0429101   -0.0113027   -0.0288889   -0.0226934
   -0.063483   0.00561591  9.80436e-05     0.026001    0.0388757   -0.0100998  -0.00175602   -0.0763411    0.0493241   -0.0304894
    -0.04729   0.00459552    0.0134701   -0.0812752  -0.00729365   -0.0014558    0.0142345   -0.0363733   0.00865804    0.0323839
  -0.0336191   0.00947051    0.0482668   -0.0577281   -0.0420414   -0.0179519  -0.00960768 -0.000953758    0.0582901  -0.00534351
 0.000103919   0.00940511   -0.0260968    0.0616415   0.00202595   -0.0127382    0.0146793  -0.00953286    0.0761023   -0.0131382
  0.00717872   -0.0640428   -0.0516291    0.0450515  0.000148725  -0.00453585    0.0326906   0.00473694    0.0151272   -0.0664667
#
   0.0463082   0.00947638   0.00291326 -0.000883179    0.0530614    0.0126852    0.0358672   -0.0213601  -0.00524342    0.0232627
  -0.0520809   -0.0250099    0.0787128  -0.00448637    0.0264814   -0.0258378   -0.0193489    0.0260022    0.0293081   -0.0358249
 -0.00755992   -0.0392914   -0.0820316  -0.00879631    0.0104601   -0.0401941   -0.0335532   -0.0147475    0.0439109    0.0416362
  -0.0199454   0.00714083    0.0920539   -0.0402442    0.0103172    0.0222504     0.026724   -0.0784101 -0.000617442   -0.0301705
  0.00688116   0.00150994   -0.0296641   -0.0328234      0.02674    0.0543676    0.0174134   0.00185738   -0.0317787    -0.068665
  0.00602624    0.0121649  -0.00046885   0.00425379   -0.0106945   -0.0381058     0.015454   -0.0239597   -0.0765878   -0.0341171
   -0.029071   -0.0479934    0.0339637   -0.0024448    0.0151451   0.00134786    0.0166297    0.0106038   0.00107183    0.0462931
   0.0044176   -0.0246475    -0.103225   -0.0433668   -0.0396505    0.0268022    0.0390135    0.0134741   -0.0586268   -0.0320556
  -0.0200847    0.0525807   0.00845076   -0.0324287  -0.00685758   -0.0425336     0.028326    -0.013276     0.034169   0.00904386
    0.046472   -0.0154883    0.0172535    0.0178529   -0.0139105    0.0451535   -0.0164508   -0.0230177    0.0278566    0.0129907
#
   0.015895 -0.00570061  -0.0228464 -0.00985988 -0.00334562  -0.0250189 -0.00432528   -0.022017   0.0283511  -0.0560486
  -0.012944  -0.0135174  0.00726136   0.0924612  0.00812446  -0.0786488  -0.0756145  -0.0169491  0.00263301   0.0249895
-0.00223499    0.026806   0.0561644   0.0264161  -0.0208288  -0.0603738  -0.0173314  -0.0264551   0.0445519  -0.0393611
#
!
<25>:74
   0.0300828  -0.00781601   -0.0136755   -0.0325207    0.0829883    -0.059663   -0.0134491  -0.00667609   -0.0013128
   0.0172583   -0.0137462    0.0455402   -0.0231916   -0.0254232   -0.0131556   -0.0206019     0.025964   0.00352366
  -0.0761341    -0.024905   -0.0440884    0.0124609   -0.0151347    0.0107193    0.0160859    0.0569199   0.00455318
 -0.00174004  -0.00942889    0.0038654  -0.00806472   -0.0431255     0.022808    0.0140803    0.0142441   -0.0108238
  -0.0719996    -0.019715    0.0448321    0.0184756     0.010943   -0.0246724   -0.0330216    0.0229207    0.0154531
 -0.00421045    0.0213492    0.0364291   -0.0166709    0.0014095     0.044372    -0.035238   0.00922962     0.033923
   0.0434154    0.0246721    0.0479021   -0.0104591    0.0477886    0.0203893   -0.0318057    0.0193785    0.0251063
  -0.0281721   -0.0286833   -0.0175216   -0.0100613    0.0996973    0.0177566    0.0556136   -0.0535596    0.0184101
  -0.0139202   0.00107366   -0.0341097   0.00275376    0.0473042  -0.00509435    0.0638356   -0.0369527   -0.0367208
   0.0527761    0.0255568   -0.0385938   -0.0226405    0.0406327   -0.0160977 -0.000803237   -0.0253313    0.0380542
#
  0.00431317    0.0132934   0.00138193 -0.000144241    0.0369796    0.0139805    0.0193054   -0.0131371   -0.0132319    0.0208098
   0.0542451  0.000595082     0.029749  0.000482198   -0.0494762    0.0226409   0.00918401   -0.0693205    0.0150329   -0.0220149
  -0.0329441    0.0273961  -0.00218393    0.0380194  -0.00743595    0.0676782   -0.0189401   -0.0201689    0.0399624    0.0111502
  -0.0369494    0.0513504  -0.00571091   -0.0251721   -0.0246506   0.00956929   -0.0202054    0.0184339  -0.00834791   -0.0195604
  -0.0024663    0.0276541   0.00615239   -0.0195018    0.0484379    0.0774996    0.0324097   -0.0315698  -0.00319547   -0.0388004
  -0.0714878  -0.00384033   0.00417742    0.0119842    0.0396226   -0.0231288 -0.000610476   -0.0825069    0.0405851   -0.0407036
  -0.0559246     -0.01104   0.00550348   -0.0853982   -0.0281056   0.00351785    0.0330952   -0.0271652    0.0166626    0.0319098
 -0.00850959    0.0133614    0.0492805   -0.0503002    -0.029102   -0.0178447   -0.0203531  -0.00595912    0.0479298    0.0151844
-0.000672188  -0.00601169   -0.0053323    0.0494247   0.00988028  -0.00133839  -0.00232995   -0.0126317    0.0575536  -0.00856812
   0.0242767   -0.0698194   -0.0657995    0.0375347    0.0194489 -0.000460468    0.0462199     0.030764    0.0228621   -0.0596015
#
   0.0494995    0.0353815   -0.0104579   -0.0060178    0.0494235  -0.00763973    0.0219166   -0.0174039    0.0231812    0.0184352
  -0.0729784    -0.032523     0.072365  -0.00577623    0.0226357   -0.0337248   -0.0228101    0.0114479    0.0167093   -0.0221504
  -0.0129452   -0.0652925   -0.0647067   -0.0234355    0.0147929   -0.0227884   -0.0319039  -0.00405881    0.0349685    0.0426524
  -0.0291095   0.00586804    0.0558803  -0.00906837    0.0249673    0.0295255     0.036233   -0.0788163   0.00534428   -0.0499056
  0.00445021   0.00067183    -0.023117    -0.040068   0.00802011    0.0470961   -0.0172916    0.0186855   -0.0157519    -0.045677
   0.0127803    0.0225644    0.0023478  -0.00789791   -0.0192141   -0.0352089    0.0328679  -0.00722529   -0.0536222   -0.0249252
   0.0181095   -0.0577745    0.0416731   -0.0188303   -0.0217838   0.00925862   0.00386054  -0.00772173 -0.000349838    0.0406068
  -0.0101171   -0.0125176     -0.10282   -0.0350096   -0.0699857    0.0152884    0.0158346   -0.0181598   -0.0744448   -0.0133774
  -0.0307394    0.0411765    0.0160428   -0.0274102  -0.00931424   -0.0395911    0.0436212   -0.0132587    0.0180945  -0.00527328
   0.0320779  -0.00443758    0.0157862    0.0342802   0.00297482    0.0295337   -0.0226504   -0.0117185    0.0500942   0.00956495
#
  0.0363901  0.00255938  -0.0185434  -0.0253652   0.0210842  0.00642541  -0.0234287 -0.00816441  0.00937953  -0.0324963
 -0.0210883  -0.0130949  0.00183723   0.0913085   0.0155312  -0.0714314  -0.0561332  -0.0162007 0.000920274   0.0354926
 0.00984261   0.0582616   0.0586291  0.00155937  -0.0262017  -0.0758192  -0.0150529    -0.01111   0.0539607  -0.0229539
#
!
<11>:71
   0.0357424   -0.0235642   -0.0155056   -0.0305114    0.0625773   -0.0464351   0.00275165    0.0105014   0.00574511
  0.00271631  -0.00791351    0.0444957   -0.0230303   -0.0268909   0.00898094   -0.0312687    0.0417016   -0.0111471
  -0.0488418   -0.0157766   -0.0379508   0.00739879   -0.0384993    0.0143868   -0.0130957    0.0592561  -0.00723291
  -0.0222933   -0.0262944    0.0105377   0.00743479   -0.0310808  -0.00804535    0.0169595    0.0218878  -0.00136502
  -0.0588517   -0.0123334    0.0385221    0.0157853    0.0311013   -0.0232201   -0.0298288    0.0428474    0.0499327
   0.0116511     0.003038    0.0203794   -0.0267419   -0.0116641    0.0193558    -0.012682    0.0288665    0.0417089
   0.0422361      0.02238    0.0345193   -0.0360531    0.0671987    0.0652541   -0.0107616  0.000433614 -0.000154277
  -0.0200497   -0.0363162   -0.0109135   -0.0167385    0.0554257    0.0267793   0.00847827   -0.0558425     0.034792
  -0.0142169   -0.0168755   -0.0291939  -0.00723081    0.0161078   -0.0177847    0.0554644  -0.00683641   -0.0662795
     0.05908    0.0218374   -0.0129616   -0.0262871    0.0236995   0.00698703   -0.0182485   0.00268609    0.0525994
#
-0.00280035  0.00830159  0.00683483  -0.0164133    0.025519  0.00361749    0.020058 -0.00705431  -0.0232315    0.022955
  0.0327795 -0.00168155  0.00310444  -0.0140012  -0.0438996   0.0273872 -0.00905452  -0.0765462   0.0223925 -0.00975377
-0.00953041   0.0341945  -0.0243662   0.0187529  0.00709751    0.043675  -0.0161507 -0.00959573   0.0338957   0.0044613
 -0.0262581   0.0214292  -0.0269148  -0.0286775  -0.0299607  -0.0112119  -0.0259938   0.0196441  0.00105003  -0.0122839
-0.00294628   0.0357921  0.00653251  -0.0021428   0.0311684   0.0638275   0.0425267  -0.0347656  -0.0270786    -0.04642
 -0.0474424   0.0175036 -0.00237032   0.0187194   0.0174428   -0.005114  -0.0122353   -0.096659   0.0450208  -0.0256346
 -0.0673939 -0.00484962   0.0168342  -0.0726884 -0.00836293  -0.0219177   0.0687496  -0.0469837  0.00788443    0.020275
 0.00621298  0.00825521   0.0477874  -0.0504672  -0.0475725   0.0285247 -0.00460801   0.0119121   0.0405025   0.0182195
  0.0033885  -0.0131544  -0.0516278   0.0475141 -0.00708559  0.00642117   0.0157025  -0.0180052    0.069555  0.00935652
  0.0112544  -0.0835854  -0.0440035    0.031457  0.00947495 -0.00937251    0.021022   0.0275158   0.0298114  -0.0453318
#
   0.0470858    0.0120566  -0.00513094  -0.00786413    0.0326479   0.00201351    0.0226683   -0.0103324   0.00350633    0.0230002
  -0.0838323    -0.041692    0.0922502   -0.0102698    0.0137084   -0.0539945   -0.0144282    0.0166429    0.0436837    -0.035459
-0.000665694   -0.0563171   -0.0797187   -0.0109462    0.0238627   -0.0257816   -0.0226223  -0.00275134    0.0350136    0.0430738
  -0.0173497   0.00675373    0.0622452   -0.0217819   0.00861265     0.029597    0.0345975   -0.0687992   0.00432196   -0.0140693
   0.0079224   0.00744142   -0.0175485   -0.0314592   0.00305317    0.0325593    0.0136307  -0.00277415   0.00545992   -0.0530744
  0.00250568   0.00745872    0.0166667   0.00381624   -0.0182266   -0.0256747    0.0239348   -0.0155714   -0.0737651    -0.014652
  -0.0327714   -0.0392633    0.0446477 -0.000619651   0.00232531   -0.0181161    0.0269663  -0.00358226   0.00895248   0.00938117
    0.015785   -0.0335181   -0.0847724   -0.0421618   -0.0426953    0.0270896    0.0326499   0.00956248   -0.0603746   -0.0264598
  -0.0158069    0.0498158   -0.0116859   -0.0406023   -0.0189607   -0.0491227    0.0316427   -0.0418812    0.0258153  -0.00191502
   0.0235844   0.00123261   0.00386293    0.0285032   -0.0249807    0.0556169   -0.0228321   -0.0264555    0.0233148   0.00627866
#
   0.0311737   -0.0390355   -0.0291463   -0.0479935    0.0153567    0.0193466    -0.024483   -0.0137138   0.00609323    -0.038006
  0.00988021   -0.0145565    0.0167031    0.0637735   0.00591729   -0.0597961    -0.045378   -0.0386874  -0.00335562    0.0383678
   0.0128539    0.0532647    0.0489013    0.0116642   -0.0140852   -0.0518024   -0.0176917 -0.000868187    0.0364225   -0.0268607
#
!
<17>:68
    0.034399   -0.0153803   -0.0202615   -0.0569235    0.0791435   -0.0467653   -0.0251256   -0.0150367   0.00648989
  0.00546948   0.00951816    0.0531159   -0.0305535   -0.0394079   0.00704038    -0.022796    0.0465109  -0.00680322
     -0.0701   -0.0225031   -0.0495588  0.000995696     0.013326   0.00988784   0.00283138    0.0599478   0.00782005
 -0.00413161   -0.0289593    0.0102173   -0.0131706   -0.0580521   0.00436086   0.00753297    0.0290442   -0.0104665
   -0.075399   -0.0155744    0.0393055    0.0339564    0.0189881 -0.000757237    -0.025776    0.0305217    0.0152561
 -0.00103787    0.0178533    0.0351833   -0.0124346  -0.00664452    0.0592602   -0.0199534    0.0139127    0.0327539
    0.044284    0.0453698   0.00978876   -0.0153658    0.0554361    0.0551845   -0.0305627    0.0178741    0.0311802
  0.00531719    -0.026977  0.000851571  -0.00599024    0.0472119    0.0249447    0.0291634   -0.0488719    0.0320537
  -0.0163521   -0.0321886   -0.0298923  -0.00285317    0.0662913  -0.00221706    0.0410037   -0.0233848   -0.0433691
   0.0596008    0.0181285   -0.0205386   -0.0301412    0.0425209    0.0155091   0.00142138   -0.0346976    0.0345747
#
 -0.00277754    0.0251812   0.00553209    0.0199954    0.0391643    0.0173015    0.0120972   -0.0254172   -0.0271344    0.0221887
   0.0393945   -0.0104054  -0.00543869  -0.00119803    -0.051842   0.00716049  -0.00467782   -0.0594016    0.0133943  -0.00851741
  -0.0206619    0.0423066   -0.0149268     0.056041   0.00567064    0.0616844   -0.0112966  -0.00387031    0.0377693   -0.0151993
  -0.0331865    0.0419258   0.00341276   -0.0277102  -0.00257474   -0.0222944   -0.0158898   0.00520521   -0.0343892   -0.0218299
  0.00556254  -0.00696143   -0.0132047   -0.0166406    0.0432495    0.0723271    0.0493775   -0.0170055   -0.0245867   -0.0434658
   -0.069105 -0.000351784    0.0216652    0.0303424    0.0496229   -0.0304317   0.00364663   -0.0856539    0.0697281    -0.043173
  -0.0532693  -0.00247499   0.00619123   -0.0806037   -0.0320545   -0.0136882    0.0287068   -0.0135448    0.0180625    0.0284432
  -0.0366362   0.00460927    0.0496511   -0.0596565   -0.0364962  0.000621652   -0.0132903  -0.00767502       0.0415   -0.0174054
 -0.00750933   0.00189343   -0.0237611    0.0352494    0.0145558  -0.00955364    0.0175905    -0.016464    0.0634253  -0.00484578
  0.00732242   -0.0831768   -0.0451359    0.0294382   0.00821515   -0.0170972    0.0243979    0.0499561    0.0348296   -0.0619201
#
   0.0725216    0.0215278 -0.000224127   0.00286164    0.0386986  -0.00916251    0.0292274   -0.0231153  -0.00196665    0.0132368
  -0.0669445   -0.0394204    0.0732443    0.0173238    0.0115846   -0.0544566   -0.0103487    0.0210794    0.0162001   -0.0300074
   -0.001479    -0.063455    -0.056665   -0.0153321    0.0229053   -0.0325242   -0.0339545    0.0132661    0.0417086    0.0431699
  -0.0339108    0.0191452    0.0666572   -0.0207951   0.00947052    0.0390406    0.0279786   -0.0523189   0.00153159  -0.00329971
   0.0103202    0.0109176    -0.019879   -0.0356281    0.0180954    0.0547318   -0.0114028    0.0188046   -0.0173652   -0.0413183
  0.00376626   0.00719654    0.0103653   0.00538036   -0.0163068   -0.0284232      0.03511   -0.0131277   -0.0684998  0.000149202
 0.000433372   -0.0372849    0.0159083   0.00263325   0.00186271 -0.000784767    0.0180682  -0.00447707   0.00926489    0.0315156
 -0.00475667   -0.0334536    -0.110359   -0.0296386   -0.0463384   0.00872046   0.00876898 -0.000642503   -0.0685582   -0.0139872
 -0.00490903    0.0486479    0.0135443   -0.0255099  -0.00774054   -0.0378704     0.025964    0.0062124     0.015748   0.00927451
   0.0309541   0.00298733    0.0184248    0.0179671    0.0111797     0.027847   -0.0244472   -0.0193337    0.0133909   0.00782203
#
  0.0312051 -0.00948244  -0.0191484  -0.0140718   0.0260771  0.00950261  -0.0121551 -0.00361301   0.0170942  -0.0392907
 0.00431558   0.0124642  0.00166446    0.069263   0.0280218  -0.0793719  -0.0574762 -0.00936542  -0.0073161   0.0530127
  0.0141913   0.0592881   0.0426294   0.0123838  -0.0100701   -0.049528  -0.0112744  -0.0180903   0.0423322  -0.0490592
#
!
<99>:68
  0.0451714 -0.00948241  -0.0253214  -0.0356805    0.089724  -0.0474426  -0.0266633 -0.00847417   0.0421078
  0.0122508  0.00752202   0.0168494  -0.0041908   -0.019414  0.00603809 0.000277397   0.0143234  0.00392216
 -0.0552043  -0.0136052  -0.0382556   -0.016572  -0.0183584   0.0130178   0.0271134   0.0609746  0.00112941
 -0.0246642   -0.009006 -0.00808851  -0.0265189   -0.040349  -0.0121016  0.00973526   0.0306193   -0.001803
 -0.0485096  -0.0292085   0.0451275    0.036221  0.00859668  -0.0198309  -0.0037532   0.0482969   0.0291076
 -0.0130607   0.0246815   0.0234093 -0.00699918  -0.0239702   0.0451521  -0.0341222   0.0129277   0.0365842
  0.0556579   0.0159236   0.0277418  -0.0252268    0.050269   0.0554417 -0.00275751  0.00994993   0.0478863
 -0.0126834  -0.0261361 -0.00911505  -0.0239411   0.0790346   0.0280498   0.0608342   -0.057094   0.0558813
 -0.0357221  -0.0324516  -0.0297739  -0.0042319   0.0435152  -0.0261531   0.0462581 -0.00354783  -0.0171287
  0.0450622   0.0533636  -0.0391851   -0.040303   0.0476905   0.0265682  -0.0190218  -0.0105896   0.0233883
#
   0.0147394     0.011677   0.00557817    0.0121309    0.0483156  -0.00215788    0.0207577   0.00817975  -0.00359413    0.0315821
   0.0364011   -0.0204591    0.0193528   0.00174015   -0.0424433    0.0123586   -0.0263183   -0.0553788  -0.00571369    0.0051486
 -0.00088442    0.0606684    -0.026333     0.054389    0.0104187     0.041698   -0.0425604   -0.0120007    0.0283579   -0.0129751
  -0.0252578    0.0220772  -0.00692799   -0.0409033   -0.0173216   -0.0222001   -0.0131092    0.0196348    0.0294574   -0.0264566
   0.0152951   0.00239464    -0.005763   -0.0202425    0.0327944    0.0781758    0.0289651   0.00467175   -0.0263547   -0.0305377
  -0.0727489    0.0282161   -0.0105755   0.00343033    0.0634459   -0.0346989   -0.0132812   -0.0734327    0.0554719   -0.0171511
  -0.0420047    0.0249484    0.0297191   -0.0911943 -0.000426265 -9.29181e-05    0.0461877   -0.0382396   -0.0137387    0.0424243
  -0.0222894    0.0254387    0.0425822   -0.0258041   -0.0347327   0.00228153   -0.0186804    -0.024215    0.0652301  -0.00796547
   0.0233309 -0.000800186   -0.0269511     0.042593   -0.0280833   -0.0217957    0.0160051   -0.0127344    0.0577702   -0.0118383
  0.00769967   -0.0985276   -0.0369263    0.0121961 -0.000464939  -0.00665426    0.0399657    0.0420068    0.0160233   -0.0663038
#
   0.055643  0.00970446 -0.00827909  -0.0378773   0.0713286  -0.0290318   0.0212548  -0.0314952  0.00255933   0.0333132
 -0.0711429  -0.0344631   0.0560086 -0.00289513   0.0329609  -0.0213211  -0.0184483  -0.0116797   0.0523791  -0.0376464
  -0.023932  -0.0508614  -0.0655089  -0.0101555   0.0129634  -0.0110847  -0.0180341  -0.0289031   0.0363217   0.0311562
 -0.0326932    0.023042    0.060453   -0.018462   0.0179761   0.0411533   0.0373757  -0.0830111   0.0255825 -0.00154986
 -0.0331556   0.0155804  0.00756709  -0.0251043   0.0115255   0.0382347  0.00476088  0.00400191 -0.00763609  -0.0460396
-0.00365763  0.00580147  0.00495743  -0.0200813 -0.00990304  -0.0279792   0.0282583  -0.0311286  -0.0593353  -0.0158238
  -0.017231  -0.0809545   0.0193596 -0.00150188 -0.00161281 -0.00350992  -0.0150937  0.00892291  -0.0285199   0.0479773
 -0.0437012  -0.0182288  -0.0815838  -0.0362635  -0.0486017   0.0284778   0.0107876  -0.0033864  -0.0678548  0.00641328
 -0.0155449    0.033191  0.00149758   -0.043348  -0.0314545  -0.0556318   0.0418331  -0.0295432   0.0210639  0.00928847
  0.0210654  0.00880645 -0.00417921   0.0227405  -0.0279373   0.0285007  -0.0320611 -0.00557789   0.0240177   0.0168782
#
 0.00913807  -0.0137755  -0.0134877     -0.0187 -0.00238656    0.013284  -0.0328516  -0.0170835   0.0384339  -0.0373864
  0.0135913 -0.00431042  0.00681768   0.0589923   0.0284545  -0.0631962  -0.0266471  -0.0229378 -0.00564084   0.0483285
   -0.00329    0.061364   0.0442333   0.0292136   -0.019879  -0.0714925  -0.0157639  -0.0161786    0.051128   -0.038313
#
!
<96>:67
   0.0348661   -0.0290537   -0.0140489   -0.0520149    0.0613724    -0.053264   -0.0260847   -0.0199129    0.0359455
   0.0175176    0.0132484      0.01087  -0.00773778   -0.0274134    0.0114874  -0.00182687    0.0333428   0.00289971
  -0.0626951   -0.0134972   -0.0312364   0.00745888      0.00151 -4.52116e-05   0.00947948    0.0665684     0.010612
  -0.0112705   -0.0114871  -0.00849553   -0.0145413   -0.0564451    -0.011245   0.00680965    0.0271752  0.000754771
  -0.0446733   0.00290505    0.0446326    0.0211579    0.0283101   -0.0210127   -0.0151562    0.0381046    0.0363713
  0.00204968   0.00232292    0.0408447   -0.0109081   -0.0502039     0.064438   -0.0254906    0.0127088    0.0333419
   0.0589874    0.0238311    0.0231193   -0.0448444    0.0654502    0.0273037   -0.0026304   0.00929805    0.0421824
  -0.0130115   -0.0134083   -0.0355184   -0.0374287    0.0645041    0.0207244    0.0442737   -0.0581154    0.0435467
  -0.0339233   -0.0398244   -0.0451909    0.0111976    0.0613764  0.000663535    0.0494373  -0.00811202    -0.022826
   0.0416465    0.0441901   -0.0419825   -0.0301641    0.0386418    0.0177113   0.00836046   -0.0149618     0.051174
#
    0.022953   -0.0208284   0.00275146   0.00123686    0.0367311  -0.00142085   0.00561421   -0.0111157    0.0128986    0.0211545
   0.0434797   0.00945456    0.0279375  0.000784748   -0.0402918    0.0130569   -0.0174756   -0.0571365    -0.019653  -0.00847639
  -0.0106725    0.0470718   0.00311504    0.0464701    0.0106242    0.0743187   -0.0147124   -0.0319735    0.0371043  -0.00470221
  -0.0451825    0.0150889   -0.0154344   -0.0299457  0.000228104   -0.0190055  -0.00516434    0.0234801     0.015147   -0.0158934
  0.00180594    0.0173034   0.00658847   -0.0142779     0.047228    0.0842036    0.0462567    -0.017923  -0.00809358   -0.0223065
  -0.0645061    0.0260934   0.00809218  -0.00743052    0.0426855   -0.0348004   -0.0314748   -0.0966012    0.0475342   -0.0335602
  -0.0285278   0.00705095    0.0290574   -0.0661243   0.00290821 -0.000651528    0.0334894   -0.0270974  -0.00748493    0.0225663
  -0.0280681    0.0298156    0.0571631   -0.0584476   -0.0444761  -0.00279929   -0.0233126  -0.00609943    0.0403986   0.00929615
  0.00662067    0.0123107   -0.0299026    0.0641376  -0.00389878   -0.0258421    0.0202381   -0.0159299    0.0675914  -0.00279877
    0.018351    -0.117085   -0.0296631    0.0228816   0.00494209   -0.0168409    0.0296078    0.0411549    0.0279699   -0.0673655
#
   0.065789  0.00528135  -0.0173896  -0.0424853    0.092792  0.00438846   0.0196157  -0.0330008  0.00377816   0.0257095
 -0.0542653   -0.028974   0.0758413  -0.0132408   0.0145342  -0.0377761  -0.0182946  -0.0184347   0.0630804  -0.0230544
 -0.0326992  -0.0507133  -0.0622779  -0.0164445   0.0298331  -0.0373768  -0.0257293  -0.0187744   0.0421264   0.0430813
 -0.0278992   0.0243366   0.0869197  -0.0167362   0.0299387   0.0231021   0.0378016  -0.0810775   0.0301631 -0.00141004
 -0.0353242  0.00501648  -0.0196055  -0.0252992 -0.00187777   0.0272124   0.0143271   0.0068231  -0.0110356  -0.0394604
  0.0121292 -0.00196949   0.0252156 0.000555825  -0.0165026  -0.0645592   0.0472362   -0.021461  -0.0576559    -0.01604
-0.00755553  -0.0398046   0.0373722  0.00563103   0.0234303   0.0125562 -0.00323895 -0.00785008  0.00347805   0.0481552
 -0.0325575 -0.00356374  -0.0827219  -0.0413846   -0.035027  0.00642702   0.0195429   -0.010401  -0.0895674  0.00943712
 -0.0478515   0.0247713  -0.0125262  -0.0200324  -0.0177303  -0.0462833   0.0414052  -0.0243131   0.0368497   0.0139375
  0.0153379  0.00106028 -0.00913096   0.0318596 -0.00928903   0.0446769  -0.0345244 -0.00296626   0.0209731  0.00450815
#
  0.0358848  -0.0130309  -0.0226104  -0.0170369   0.0115936   0.0109766 -0.00346674   -0.025372   0.0385047  -0.0319817
-0.00126968  0.00552366  0.00189099   0.0754525   0.0319707  -0.0442799  -0.0406099  -0.0159426 -0.00355635   0.0620431
 0.00256396   0.0470112    0.048258   0.0146318  -0.0303407  -0.0570549  -0.0150186  -0.0160663   0.0312671  -0.0334833
#
!
<14>:66
    0.024355   0.00109388    -0.017917   -0.0336749    0.0831546   -0.0414518   -0.0203589   -0.0108477   0.00413594
   0.0244325   0.00391345    0.0432181   -0.0163091   -0.0397504  -0.00957927  -0.00479933     0.029312   -0.0118985
  -0.0523124   -0.0268997   -0.0414465   0.00318872   -0.0117548  -0.00679511    0.0171468    0.0577205   -0.0267317
  0.00982381   -0.0291305   -0.0306417   -0.0175298   -0.0467888   0.00766267    0.0184528    0.0336221 -4.09127e-06
  -0.0536582   -0.0153722    0.0396971    0.0269064    0.0246746   0.00280415   -0.0367704    0.0277313    0.0284052
  0.00134149    0.0225604    0.0248357   -0.0162317    -0.028043    0.0293203   -0.0229808    0.0203875    0.0332715
   0.0403374   0.00596425    0.0404139   -0.0283536    0.0720768    0.0462489  -0.00828513   0.00789154    0.0237951
  -0.0167361   -0.0162936   -0.0159698   -0.0172398    0.0763601    0.0459542    0.0516026   -0.0514339     0.021045
  -0.0295537   -0.0377259   -0.0462172 -0.000161837     0.045913   -0.0189635    0.0520261   -0.0132397   -0.0396648
   0.0411007    0.0320609   -0.0272487   -0.0195423    0.0239132    0.0169529    -0.013759    -0.021449    0.0349532
#
   0.0171382  -0.00437215   0.00427643   0.00681911    0.0135363    0.0274336    0.0191347   -0.0177057   -0.0213741    0.0202356
   0.0252947   -0.0027832   0.00310505  -0.00819612   -0.0422006    0.0308379   -0.0112308   -0.0642821   0.00105263   -0.0260513
  -0.0304031    0.0637285   -0.0165345    0.0285532   -0.0081232    0.0793858   -0.0270673  -0.00440923    0.0362549   -0.0228629
  -0.0217346    0.0289391   0.00528396   -0.0482795   -0.0146876   -0.0208463   -0.0250992    -0.016165   0.00246028    0.0120114
  0.00239145    0.0115033  -0.00699786   0.00628907    0.0459991     0.069795    0.0190287   -0.0279169  -0.00104882   -0.0328881
  -0.0712161    0.0231351   0.00404809  -0.00550494    0.0439153   -0.0192701    0.0109956   -0.0665844    0.0493774   -0.0307742
  -0.0579124 -0.000964794    0.0133477    -0.077455  -0.00200239   -0.0166503    0.0421026   -0.0271177   0.00661775    0.0189916
 -0.00733271   0.00158863    0.0469632   -0.0457183   -0.0462934   0.00315755  -0.00158925  -0.00997994    0.0499905   0.00210765
 -0.00123066    0.0160391   -0.0311919    0.0498889   0.00369161   -0.0308446     0.022956   -0.0217942     0.056228  -0.00414978
  0.00322059   -0.0996481   -0.0443161    0.0193198  -0.00834388   -0.0239196    0.0348692    0.0272393    0.0311761   -0.0590396
#
  0.0403123   0.0151383 -0.00296841   -0.004703   0.0749888  -0.0125871   0.0243177  -0.0376938  0.00894846   0.0172351
 -0.0714299  -0.0308587   0.0853052  -0.0086764   0.0242856  -0.0209457  -0.0158598   0.0210053   0.0293912  -0.0244614
  -0.013989  -0.0311722  -0.0539293   -0.014868  0.00866474  -0.0201686  -0.0335776   -0.016227    0.027391   0.0433532
 -0.0283762   0.0037598    0.058891   -0.016993   0.0109155   0.0228499   0.0368221  -0.0686485  -0.0113611 -0.00423201
-0.00716936   0.0213749  -0.0243139  -0.0433686   0.0287443    0.034887  0.00695123  0.00365464  -0.0201965  -0.0549004
  0.0121178   0.0150268  0.00406972   0.0101056  -0.0145777  -0.0278681   0.0327606 -0.00407644  -0.0568755  -0.0163806
 -0.0215506  -0.0427503   0.0433814  0.00693667   0.0117143 -0.00931994   0.0104008  0.00306473  -0.0185172   0.0324594
 -0.0163908  0.00297787  -0.0893768  -0.0469379  -0.0319504   0.0221351   0.0227018  -0.0183823  -0.0790503  0.00860745
 -0.0450197   0.0409773  0.00157353  -0.0302582  -0.0143029  -0.0456722   0.0600752 -0.00185145   0.0340606  0.00939782
  0.0124949  0.00542893  0.00842043   0.0187447 4.99572e-05   0.0524477 -0.00912211  -0.0275068   0.0276122   0.0220868
#
   0.0269655   -0.0130137   -0.0132423   -0.0189785    0.0127049  -0.00639856   -0.0123538  -0.00740334    0.0341983   -0.0330411
   0.0113231   0.00790659  -0.00172275    0.0779862    0.0130806   -0.0660254   -0.0530399   -0.0344917  -0.00796896     0.042263
  0.00373601    0.0580719    0.0430274    0.0357147   -0.0200462   -0.0561117 -0.000709513   -0.0184348     0.038546   -0.0561842
#
!
<16>:64
  0.0485783   -0.011864 -0.00526837  -0.0327435   0.0451688  -0.0604321  -0.0134032  -0.0113613     0.01458
 0.00304493 -0.00206356   0.0433052  -0.0286215  -0.0196184  0.00228317  -0.0152976   0.0245547 -0.00949493
 -0.0610153  -0.0136542  -0.0391242 -0.00523719  -0.0120454   0.0263651  -0.0110241   0.0634772  -0.0210121
 -0.0141542  -0.0218642  0.00559602  -0.0137906  -0.0492467   0.0176308  0.00699479   0.0316518  0.00028242
 -0.0375967 -0.00780197   0.0240502    0.026753   0.0012552  -0.0154863  -0.0339198   0.0196903   0.0283647
 0.00177058   0.0271918   0.0363006  -0.0232954  -0.0155533    0.037874  -0.0197376   0.0260965   0.0353071
  0.0189303   0.0183846   0.0377692  -0.0228558   0.0430276   0.0626799 -0.00833526   0.0284477   0.0248202
-0.00542693  -0.0191465   -0.029522  -0.0192884   0.0613122   0.0363747   0.0143178  -0.0425682   0.0291992
 -0.0235766  -0.0250174   -0.044415  0.00541273   0.0350682  -0.0198109    0.035459  -0.0129847  -0.0155688
  0.0535793   0.0197818  -0.0240247  -0.0229918   0.0358639  0.00661694 -0.00578574  -0.0182094   0.0488177
#
   0.0276148    0.0187624  -0.00254463   0.00122494    0.0365859     0.015167    0.0133105   -0.0037446    0.0158656    0.0234051
   0.0533519   -0.0195024   0.00770547    0.0126144   -0.0516735    0.0407537  -0.00828668   -0.0686981  0.000882751   -0.0209668
  -0.0228357    0.0534385     0.015439    0.0255739  -0.00790591    0.0564688   -0.0267544  -0.00386777    0.0152415 -0.000439342
  -0.0157834    0.0108188   -0.0218354   -0.0109148   -0.0069518   -0.0041201    -0.024453  -0.00208366    0.0216055   -0.0105428
-0.000809586    0.0033006 -0.000283866  -0.00825856    0.0329357    0.0659646    0.0428755   -0.0347209   -0.0151982   -0.0615729
  -0.0659543    0.0144609  -0.00021996    0.0202163    0.0458763   -0.0284704  -0.00835737   -0.0650908    0.0485053   -0.0362233
  -0.0523462  -0.00954027    0.0103638    -0.077105    -0.022013    0.0103698    0.0413042   -0.0260438    0.0131775    0.0162957
   -0.020853    0.0135909    0.0538227   -0.0543145   -0.0217069  -0.00452548   -0.0106207  -0.00360841    0.0786574    0.0192241
  -0.0138471    0.0212631  -0.00795455    0.0475161   0.00153014   -0.0251516     0.010237   0.00620217    0.0621435  -0.00995819
   0.0171695    -0.078814   -0.0438381    0.0460807   -0.0110337  -0.00253066    0.0258467    0.0258264    0.0294019   -0.0599532
#
   0.0601314   0.00127897   0.00527959   -0.0207355    0.0562904    -0.024322    0.0265387  -0.00839973     0.017974     0.023433
  -0.0342463   -0.0493881    0.0745997  -0.00658727   0.00300672    -0.024124   -0.0161535    0.0203969    0.0341233   -0.0154808
   -0.012395    -0.058101   -0.0562337  -0.00581917    0.0126532   -0.0170813   -0.0227379    0.0124259    0.0342397    0.0613574
