<0>:Score:2400
Distance:38.1596
  0.00718885    0.0119355    0.0575351   -0.0223164     0.040433   -0.0100963  -0.00992347   -0.0549135   -0.0163455
   0.0423011    0.0127347  -0.00632539    0.0202461  -0.00483256   0.00231434   -0.0110636  -0.00296634   -0.0519704
  -0.0389102   -0.0269775    0.0372028    0.0176084   -0.0227854      0.03411    0.0441337  -0.00380267  -0.00173162
  0.00471909    0.0223534    0.0183271   0.00932189    0.0105439   0.00337878  -0.00445946   -0.0380314    0.0152675
   0.0302036   0.00599723   -0.0023861   -0.0176764   -0.0498353    0.0559955   -0.0452162   0.00408702    0.0418175
    0.024574   -0.0317388    0.0485964    0.0276891   0.00169788    0.0189723    0.0828957   -0.0242153    0.0500691
  -0.0217425   -0.0243629  -0.00391238   -0.0187982   -0.0156509   -0.0158364    0.0179147   0.00698531   0.00710989
  0.00515166      0.01762   -0.0429525   -0.0286468  -0.00663114   0.00101594    0.0195242   -0.0507461   -0.0292679
  -0.0252302    0.0109889  -0.00162739   -0.0118743   0.00346779    0.0720646  -0.00821699    -0.012395    0.0127779
   0.0171657    0.0039527    0.0927102    0.0185704   0.00541163    0.0149634 -0.000359982  -0.00897352    0.0348807
#
  0.0314942   0.0102469   0.0462333  -0.0510105   0.0340372   -0.037106 -0.00717581   0.0219149  -0.0149558  -0.0128325
  0.0156875  -0.0380068  -0.0968009  -0.0429487 -0.00358239  -0.0229102  0.00788227  0.00360496  -0.0119431   0.0377435
  0.0308616   0.0163491   0.0350917  -0.0558235   0.0456544   0.0468747   0.0179861  -0.0466753   0.0365342   0.0153244
 0.00410164  -0.0475104 -0.00729234   0.0124482  0.00190607  -0.0525174   -0.056084  -0.0118797   0.0109511  -0.0243264
 -0.0177409   0.0531948  0.00717669  -0.0125167   0.0402769   -0.027797   0.0632362  -0.0105515   0.0427413   0.0363076
 -0.0333374   0.0401506  -0.0252876  -0.0257434  -0.0435683   0.0281105  -0.0170999  -0.0256329   0.0455122   0.0314436
  0.0150111   0.0177514  -0.0325324   0.0454599 -0.00526253   0.0090357  0.00562732   0.0221829 -0.00566575   0.0162306
   0.023728 -0.00656536 -0.00107354  -0.0109694   0.0227885  0.00947532   0.0519706   0.0217945  -0.0167457   0.0456502
 -0.0830525   0.0254888   0.0577306  -0.0374061  -0.0093196  -0.0215223  -0.0195027   0.0117689   0.0452402  -0.0244422
  -0.105195  -0.0404871  -0.0697952   0.0209851   0.0452178   0.0495728  -0.0208862  -0.0189138  -0.0317491   0.0286206
#
  -0.0060886   -0.0243435   -0.0159872  0.000697944    0.0244994   -0.0314193    0.0481836   0.00528425     0.019248     -0.01259
  -0.0108807   -0.0148585   -0.0037095  -0.00987864   -0.0198997   -0.0334913    -0.049348    0.0205591    0.0139465  -0.00844188
  -0.0061286    0.0234422 -0.000916101   -0.0462338   -0.0506236    0.0167632   0.00245278   -0.0502048    -0.016086  -0.00760979
   0.0921703   -0.0729532    0.0104642    0.0294027   0.00758221    -0.023834   0.00903757  -0.00553046   -0.0102557   -0.0435656
   0.0211437    0.0105177    0.0225163    0.0566367   -0.0504956  -0.00111966    -0.033015   -0.0570258  -0.00383231    0.0262584
 -0.00459939   -0.0242298   -0.0739386   -0.0392515   -0.0357078  -0.00546442   -0.0410739  -0.00260673    0.0234679    0.0417515
   0.0267945    0.0704121   -0.0184377    0.0296636    0.0364834   -0.0506283    0.0268916    0.0145715  -0.00675963   -0.0118037
   -0.030107   0.00827259   -0.0170932   -0.0176881    0.0129747    0.0451039   -0.0584078    0.0737753   0.00349932    0.0517623
  -0.0265551    -0.010223   -0.0154321     0.044353   -0.0478403    0.0553046  -0.00726217   -0.0410681   -0.0351456   -0.0351219
  -0.0341124   -0.0181556   0.00940161  -0.00896064   -0.0344344   -0.0167967  -0.00703483    0.0144397    0.0569534    0.0318302
#
 0.00194968 -0.00329326   0.0287779     0.04815   0.0500417 -0.00828092   0.0140053  -0.0327647  -0.0311498  -0.0384204
  0.0289572 -0.00562372   0.0248903   0.0434917  -0.0046809  -0.0396244   0.0777833  -0.0161013  -0.0116761  -0.0235328
 0.00782592  0.00474153   0.0373596   0.0097165  -0.0170902   0.0090608  0.00108659  -0.0353872   -0.021309  -0.0141696
#
!
<1>:Score:2390
Distance:38.1596
   0.0040167   0.00752625    0.0589861   -0.0370356    0.0500246   -0.0241827   -0.0218457   -0.0801932    0.0032834
   0.0576561   0.00703032   -0.0148102    0.0139518    0.0114748  -0.00640395   -0.0168797   0.00671431   -0.0336608
  -0.0612054   -0.0211905    0.0340356    0.0254753   -0.0289193    0.0489012    0.0366653  -0.00856377   0.00214563
  -0.0236968   0.00615189    0.0172093  -0.00580098    0.0280708  -0.00427157    0.0015928   -0.0370344   0.00191676
    0.027644  -0.00395688  -0.00648992 -0.000585281   -0.0500989    0.0567708   -0.0314521  -0.00177334    0.0509858
   0.0191137   -0.0206826    0.0408789    0.0443141  -0.00225898    0.0109156     0.101287   -0.0389439    0.0432513
  -0.0286812    -0.013358   0.00574818   -0.0199688   0.00104793   -0.0177609   0.00806009     0.015651   0.00885828
  -0.0154944    0.0309954   -0.0484479   -0.0414743  -0.00151547    0.0246987    0.0204278   -0.0511969   -0.0365761
  -0.0306747  -0.00337668   -0.0151559   -0.0153113   -0.0145401      0.08282   0.00422797   -0.0207878    0.0118873
   0.0348201   0.00927991    0.0752659  -0.00882448    0.0145602    0.0398268   0.00204626   -0.0119602    0.0462326
#
   0.0187002    0.0200517    0.0506193   -0.0480899    0.0192914   -0.0534295   -0.0166974     0.025309   -0.0302256   -0.0109489
   0.0153144   -0.0330219    -0.108922   -0.0675619   -0.0125628   -0.0243285   0.00441922   0.00156005   -0.0216686    0.0536845
   0.0177895    0.0166087    0.0527222    -0.065644    0.0484457    0.0547191    0.0421753   -0.0521609    0.0412289    0.0125005
  0.00621648   -0.0254494  -0.00492915    0.0163077    0.0101396      -0.0497   -0.0555659   -0.0185921 -0.000620102   -0.0342553
  -0.0327842    0.0580777   0.00710253   0.00342464    0.0648683   -0.0281779    0.0735599  -0.00389057    0.0369916    0.0300102
  -0.0344575    0.0471514   -0.0220746   -0.0224599   -0.0413277    0.0296699   -0.0274877  -0.00239231    0.0572625    0.0248247
   0.0211463    0.0300842   -0.0176886    0.0580221   0.00842454     0.016977    0.0217641    0.0150674   0.00391476  -0.00198467
   0.0431051   0.00474157   0.00747337   -0.0205165    0.0244303   0.00563465    0.0576847    0.0236737    -0.020163    0.0391694
  -0.0830644   0.00777225    0.0428151   -0.0377874   0.00342546   -0.0208916   -0.0262305   0.00162889    0.0434393  -0.00904085
  -0.0964172   -0.0402071   -0.0683395    0.0217073     0.019806    0.0521421   -0.0216881   -0.0223424   -0.0403842    0.0363558
#
-0.00721542  -0.0240887  -0.0365861 0.000284016   0.0233233  -0.0168053   0.0580824 -0.00213261   0.0144377  -0.0266217
 -0.0183493  -0.0233917  -0.0148757 -0.00714481  -0.0157477  -0.0276605  -0.0483654   0.0233054   0.0330871  -0.0161606
 -0.0166741   0.0424241  -0.0252863  -0.0443444  -0.0350854   0.0258124  -0.0148083  -0.0513838  -0.0320081  -0.0169328
  0.0843586  -0.0570485   0.0171752   0.0256769   0.0125984  -0.0261553   -0.022161  -0.0153964 -0.00838482  -0.0595142
  0.0212524   0.0132796   0.0393857   0.0239165  -0.0447754   0.0117939  -0.0283984  -0.0739527  0.00184417   0.0429297
-0.00259205  -0.0222112  -0.0916307  -0.0278798  -0.0432344 -0.00555912  -0.0313647   -0.014826   0.0249885   0.0264405
  0.0287406   0.0734485  -0.0206935   0.0271524    0.043094  -0.0253199   0.0105845   0.0125496  0.00743803  -0.0244917
 -0.0290698   0.0074193  -0.0310194  -0.0177265    0.025111   0.0437788  -0.0569642   0.0496067  0.00974064   0.0573107
 -0.0533525  -0.0138484  -0.0189437   0.0456664  -0.0478578   0.0528233  -0.0117867  -0.0716628  -0.0421988  -0.0379563
 -0.0411059  -0.0169895  0.00992055 -0.00283112  -0.0376411  -0.0152218  -0.0177048   0.0169169   0.0670025  0.00145596
#
 0.00574898  0.00714618   0.0355993   0.0454767   0.0619775  0.00786911 -0.00246038  -0.0323569  -0.0472096  -0.0415534
  0.0390392 -0.00197736   0.0122096   0.0612346   0.0101467  -0.0408096   0.0646002  -0.0319631 -0.00718697  -0.0141023
  0.0319437 0.000293001   0.0321837  0.00878638  -0.0216916 -0.00520224  -0.0190504  -0.0319055  -0.0229637   0.0161903
#
!
<3>:Score:2389
Distance:38.1596
  0.00692142    0.0138669    0.0620281   -0.0257273    0.0254291   -0.0182326   -0.0160773   -0.0635904  -0.00519727
   0.0436676    0.0180437   -0.0078053   0.00255953    0.0147364  -0.00379627   -0.0120337    0.0111538   -0.0492019
  -0.0638591   -0.0237387    0.0161719    0.0120274   -0.0235376    0.0371883     0.031347    0.0071418   0.00947851
  -0.0165498    0.0104228    0.0362248    0.0027503     0.022207    0.0130383   -0.0150426   -0.0381953    0.0181267
   0.0358196    0.0260354   -0.0135992  -0.00411639   -0.0554924     0.046358   -0.0180371    0.0148973    0.0574105
-0.000231746   -0.0267278    0.0444005    0.0687748  -0.00488997     0.034996    0.0822622   -0.0290089     0.056198
  -0.0273921   -0.0102173    0.0111195   -0.0149418   0.00498954   -0.0137786  -0.00920694    -0.026983    0.0170261
  0.00478328    0.0447517   -0.0631764   -0.0458421   -0.0240673    0.0103728     0.013362   -0.0653155   -0.0149669
  -0.0251713    0.0226608   0.00966435    -0.011274    0.0104729    0.0441593  -0.00604141   -0.0350639    0.0337777
   0.0184214  -0.00427603      0.08296   0.00520351    0.0121767   0.00101332   0.00273758    -0.016749    0.0117592
#
 0.00490964   0.0149829   0.0527641  -0.0531434   0.0311599  -0.0532495 -0.00360337   0.0348555 -0.00232837  -0.0187975
 0.00436001  -0.0356061  -0.0898209  -0.0695697  -0.0261386   -0.023496 0.000314066  0.00402625 -0.00287407  0.00876462
  0.0277195  0.00403954   0.0252375  -0.0457756   0.0499244   0.0479797    0.016232  -0.0451526   0.0269188   0.0156907
  0.0249821  -0.0156759 -0.00330409   0.0058462  0.00605281  -0.0447119  -0.0508602 -0.00762175   0.0178131  -0.0453694
 -0.0222434   0.0516772  -0.0107858  -0.0103187   0.0463941  -0.0520375   0.0578157   -0.021729   0.0444549   0.0548978
  -0.020903   0.0504749  -0.0310787  -0.0456522  -0.0535821  0.00921188  -0.0112101   -0.011245   0.0451194   0.0283857
 0.00609802   0.0201499  -0.0256925   0.0219307 0.000625064   0.0202132 -0.00412575   0.0286769 -0.00360899  0.00973155
  0.0366743  -0.0151464  -0.0044342  -0.0260258   0.0481809   0.0103712   0.0719824   0.0343436  -0.0108158   0.0506806
 -0.0807831  -0.0051522   0.0372027  -0.0482078  0.00101643  -0.0266827  -0.0209227   0.0185484   0.0354309 -0.00648845
  -0.101927   -0.044459  -0.0638329   0.0160109   0.0362082   0.0683549  -0.0213768  -0.0136595  -0.0277526   0.0414937
#
  0.00186168   -0.0172166   -0.0202633   -0.0045357    0.0123425  -0.00602377    0.0430543   0.00273061    0.0194801   -0.0128231
  -0.0157451   -0.0229644   -0.0475044   -0.0198868   -0.0224654  -0.00518821   -0.0549879    0.0154997    0.0102158   0.00961089
   -0.018099    0.0272202   0.00667374   -0.0405247   -0.0253414   -0.0181183   -0.0173145   -0.0554769  -0.00747992  -0.00523279
    0.067813   -0.0503588 -0.000584046    0.0416517   0.00906531   -0.0428843    -0.001237   -0.0231392   -0.0217197     -0.04157
   0.0352406    0.0193251    0.0474513    0.0528625   -0.0235828    0.0120765   -0.0161749   -0.0488024   -0.0160943    0.0378099
 -0.00361743   -0.0197144   -0.0721252   -0.0299498   -0.0376313  -0.00886667   -0.0227377   -0.0174563    0.0174534    0.0264795
   0.0323277    0.0843163   -0.0169347   0.00547966     0.036394   -0.0517293    0.0426541   0.00396448   -0.0151946   -0.0205848
  -0.0141426    0.0153219   -0.0287493   -0.0174671    0.0268738    0.0259735   -0.0664333    0.0529345  0.000281865    0.0542621
  -0.0243398   -0.0036378   -0.0225143    0.0485197    -0.040702    0.0722458   -0.0305367   -0.0541237   -0.0218244   -0.0193885
  -0.0295098   -0.0331031    0.0198285   -0.0309253   -0.0320475    -0.012582  -0.00066866    0.0230487    0.0294216     0.021451
#
   0.036013  0.00893989   0.0281304   0.0484374   0.0294392  -0.0128738   0.0238392  -0.0323592 -0.00794436  -0.0479098
  0.0465692  0.00455889   0.0149805   0.0535684  0.00425028  -0.0497507   0.0602842  -0.0170476  -0.0224221 0.000252539
 0.00740712   0.0163782   0.0241303   0.0128744  -0.0250861  0.00838429  0.00151673  -0.0540003  -0.0242909    0.013459
#
!
<2>:Score:2386
Distance:38.1596
  0.00633855   0.00690761    0.0663842   -0.0392728    0.0431235   -0.0240473  -0.00817403   -0.0569581   -0.0210848
    0.050637    0.0073853  -0.00224845  -0.00989716 -0.000917275  -0.00060947   -0.0237922   0.00431457   -0.0424694
  -0.0398529 -0.000312525   0.00873534    0.0125686   -0.0152224    0.0486546    0.0450066   -0.0151004  -0.00626855
  -0.0120843   0.00577044     0.004638   -0.0057493    0.0330527   0.00372753   -0.0135368     -0.04198   -0.0138751
   0.0241998  -0.00971605   0.00309242  -0.00714947   -0.0537438    0.0363268   -0.0437648    0.0137676     0.053342
   0.0125857   -0.0151079    0.0300882    0.0517535  -0.00868105   0.00848514     0.105783   -0.0290379    0.0590688
  -0.0345772  -0.00244431   0.00294274   -0.0167066  -0.00851024   -0.0296557   0.00117014    0.0199434    0.0140272
  -0.0228052    0.0316666   -0.0641047   -0.0351849    0.0198805    0.0179659    -0.006986   -0.0280478    -0.026464
  -0.0191288   -0.0111335 -0.000864966   -0.0315351    0.0110888    0.0669476  -0.00691719   -0.0238819    0.0157174
   0.0412106  -0.00823742    0.0902085  -0.00550965    0.0231954     0.041149   -0.0172069   -0.0170494     0.051261
#
  0.0185475   0.0324603   0.0545951  -0.0334794   0.0232956  -0.0524541 0.000439131   0.0250177   -0.022877  -0.0139621
-0.00200881  -0.0336409  -0.0877541  -0.0549552 -0.00980617   -0.013397 -0.00645959    0.017977 -0.00589791   0.0557855
  0.0108857     0.02201   0.0547919  -0.0680695   0.0575632    0.044728   0.0355187  -0.0575488   0.0243744  -0.0104351
  0.0150944     -0.0357  0.00831899   0.0200103   0.0165226  -0.0777528  -0.0372602  -0.0247661 -0.00874847  -0.0472076
 -0.0227446   0.0422719 -0.00669941  -0.0156989   0.0488579  -0.0183745   0.0729845 -0.00092575   0.0668503   0.0437296
  -0.034845   0.0406228  -0.0210929  -0.0222636  -0.0432756   0.0288659  -0.0366575 -0.00943437   0.0370558   0.0363572
  0.0113187   0.0318001  -0.0119932   0.0716698 -0.00530815    0.036836   0.0214938  0.00929274 -0.00380167  0.00296741
  0.0189206   0.0156635   0.0158572  -0.0271767   0.0130431   0.0102077   0.0621165   0.0200653   -0.021936   0.0443144
 -0.0829027 -0.00966772   0.0673526  -0.0250145 -0.00406951  -0.0245833  -0.0372252   0.0119395   0.0171182  -0.0213689
 -0.0990958  -0.0139758  -0.0789779   0.0600344   0.0313205   0.0586872  -0.0343551  -0.0336187  -0.0477345    0.020662
#
  -0.0221091   -0.0205327   -0.0299583   0.00420692    0.0310452   -0.0226387    0.0741756   0.00341742    0.0179853   -0.0156958
  -0.0338266   -0.0107304   -0.0128086  -0.00360082   0.00327182   -0.0418154   -0.0474968    0.0250274    0.0280503    0.0018068
 -0.00754344     0.028777   -0.0116536    -0.048645   -0.0322259    0.0240653   -0.0140448   -0.0549375   -0.0333716   0.00444801
    0.102614   -0.0574176    0.0129083    0.0290925  -0.00176078   -0.0366231   -0.0272261  -0.00443267   0.00229277   -0.0785704
   0.0320768 -4.85445e-05    0.0301652    0.0488707    -0.027494    0.0270465    -0.058534   -0.0729079  -0.00103044    0.0406018
  0.00670751    -0.027429   -0.0678714   -0.0280005   -0.0408091   0.00896888   -0.0325951   -0.0184108    0.0188208     0.028789
   0.0163668    0.0754274   -0.0199884    0.0321127    0.0418619   -0.0365624    0.0108564    0.0271912    0.0115243   -0.0148588
 -0.00470327   0.00704325   -0.0432904    -0.043749    0.0313647    0.0528313   -0.0348399    0.0541645  0.000510069    0.0424869
  -0.0578577  -0.00239142  -0.00919551    0.0383427   -0.0465423    0.0600152   -0.0169243   -0.0455839   -0.0376576   -0.0476696
  -0.0316003   -0.0257545    0.0188534   -0.0322878   -0.0327223   -0.0263362   -0.0154706    0.0194029    0.0675922   0.00677963
#
  0.0106593   0.0035693   0.0229412   0.0525946   0.0749306   0.0154408 -0.00458856  -0.0390768  -0.0300206  -0.0369249
  0.0333104 -0.00241798    0.016703   0.0742447  -0.0153554  -0.0546526   0.0606999  -0.0483841  -0.0190587   -0.019214
  0.0186565  0.00157824   0.0357325   0.0256169  -0.0263809  -0.0068417  -0.0255687  -0.0407685  -0.0260207   0.0100666
#
!
<6>:Score:2385
Distance:38.1596
 -0.00414287  0.000158338    0.0546664   -0.0310296    0.0286914   -0.0176068   -0.0170806   -0.0474015   -0.0141641
   0.0440946  -0.00326286  -0.00260638    0.0064931  -0.00531301 -0.000368335   -0.0132449    0.0120775   -0.0362282
  -0.0472826   -0.0215012    0.0181417   0.00685248   -0.0125607    0.0378567    0.0358388   -0.0135947 -0.000319065
 -0.00221971   0.00891839  0.000205297   0.00818499    0.0206659   -0.0103426   -0.0238006   -0.0385101   0.00837224
   0.0304667    0.0165522    0.0195372   -0.0065659   -0.0380925    0.0405259   -0.0274316    0.0222347    0.0458321
 -0.00124504   -0.0327654    0.0508663    0.0411346  -0.00507274    0.0223925    0.0849307   -0.0366131     0.060472
  -0.0306148   -0.0188126   0.00140488   -0.0292507   -0.0184043   -0.0216019    0.0153797   0.00614728    0.0209021
 -0.00479352    0.0338569   -0.0563494    -0.039128    0.0288508     0.013974   0.00929501   -0.0335058   -0.0382323
  0.00574263     0.011318   0.00644513   -0.0158272    0.0179481     0.064717   -0.0116908   -0.0154374   0.00790004
   0.0233179   -0.0013436    0.0993456    0.0102278    0.0275865     0.056513   -0.0192221   -0.0107926    0.0509778
#
  0.0310357   0.0298112   0.0391728  -0.0509446    0.021205   -0.041813  0.00564098   0.0191574 -0.00476657  -0.0288775
-0.00340403  -0.0313798  -0.0916372  -0.0345604  -0.0137306  -0.0234261 -0.00591067  0.00311917 -0.00309093   0.0474258
  0.0181839   0.0115095   0.0591696  -0.0538043   0.0320124   0.0508384   0.0234736    -0.05703   0.0254341  0.00955363
 -0.0064457  -0.0513337 -0.00989518  0.00897684  0.00212851  -0.0664418   -0.051014  -0.0175464   0.0150327  -0.0305855
 -0.0206207   0.0503473 -0.00655591  0.00736971   0.0278896  -0.0280289   0.0775419  -0.0159925   0.0457718   0.0455783
  -0.033396   0.0442799  -0.0342083  -0.0342764  -0.0266019   0.0415708  -0.0526596  -0.0187144   0.0435105   0.0398006
 0.00392789   0.0199611  -0.0129828   0.0466285  -0.0175897    0.017065   0.0290826  0.00675839 -0.00665212  0.00610284
  0.0381509  0.00103563   0.0149336  -0.0261739   0.0115126   0.0022266   0.0484383   0.0140616  -0.0259741   0.0246992
 -0.0774611  0.00782541   0.0614656  -0.0360357 -0.00992968   -0.026639  -0.0147411   0.0172946   0.0393001  -0.0310447
  -0.097038  -0.0254164  -0.0968781   0.0471099   0.0205035   0.0488025  -0.0294834  -0.0076885  -0.0393373  0.00986883
#
  -0.0153954   -0.0236706   -0.0163085  -0.00913544    0.0140281   -0.0286327    0.0599204   -0.0174802    0.0376839   -0.0151374
 -0.00664995   -0.0105068  -0.00495753    -0.016913  -0.00858368   -0.0220495   -0.0521885    0.0113016     0.025494   0.00132997
 -0.00668867    0.0193779 -2.84873e-05    -0.051497   -0.0328971     0.011569  -0.00261613    -0.060581    -0.023016   -0.0156328
    0.116415   -0.0664641   0.00868689    0.0183242  -0.00841418    -0.039368   -0.0170886    0.0163316   0.00661742   -0.0603737
   0.0158502  -0.00576294    0.0310645    0.0610188   -0.0458168    0.0331382   -0.0654628   -0.0792496   -0.0111667    0.0255585
 -0.00816645   -0.0102081   -0.0804252    -0.035882    -0.052812   0.00223907   -0.0412363   -0.0229686   0.00505785    0.0336129
   0.0128004    0.0872238  -0.00452437    0.0356774    0.0332423   -0.0493101    0.0449061    0.0368235   0.00451485   -0.0151054
  -0.0235231    0.0224027   -0.0347488   -0.0290145    0.0322147    0.0487315   -0.0344287    0.0699807    0.0034534    0.0377891
  -0.0469871   -0.0166566   -0.0110778    0.0291385   -0.0695777    0.0556132  -0.00861646   -0.0632484   -0.0420491   -0.0311812
  -0.0293614  -0.00805279   0.00591492   -0.0343826   -0.0291888   -0.0428118    -0.016987    0.0121753    0.0619653    0.0163642
#
    0.016451  -0.00551562    0.0310585    0.0596657    0.0606727   0.00550125   0.00338042   -0.0473992   -0.0353295   -0.0423098
   0.0297262   -0.0216523   0.00992024    0.0725042  -0.00777889   -0.0481011    0.0743228   -0.0266703   -0.0227959   -0.0188804
   0.0124294   -0.0177443    0.0374195    0.0163203   -0.0359997    0.0177075  -0.00322867   -0.0513018   -0.0294227 -0.000754526
#
!
<29>:Score:2385
Distance:38.1596
  0.0150463   0.0323984   0.0809049  -0.0335707   0.0450708 -0.00174571  -0.0110664  -0.0529477  -0.0215984
  0.0414899    0.017564  -0.0106378  0.00453364  0.00786384 -0.00301401  -0.0210478  -0.0106865  -0.0485914
 -0.0364589  -0.0020248   0.0340582    0.032501  -0.0167803   0.0466888   0.0646109 -0.00102047  -0.0202025
 0.00178411  0.00822862  0.00157484  0.00931021   0.0162249  -0.0079435  -0.0206287  -0.0332068  0.00148945
  0.0273085 -0.00883133  -0.0122243  0.00431746  -0.0779096   0.0416377  -0.0405073  0.00872246   0.0333705
  0.0159454  -0.0228346   0.0163199   0.0505408 -0.00720396   0.0202049   0.0909296   -0.038525   0.0667813
 -0.0241414  0.00241997   0.0201273  -0.0248455  -0.0102145  -0.0223445   0.0213615   0.0193808  0.00230142
 -0.0179215   0.0334315   -0.048371  -0.0309391 0.000914872   0.0196961    0.020448  -0.0553527  -0.0363488
 -0.0270529 -0.00994469 0.000833705  -0.0220464   0.0256465    0.060425 -0.00761562  -0.0129382  0.00659271
  0.0375548 -0.00946482   0.0927258  0.00400899   0.0191585   0.0360028  -0.0136363  -0.0188854     0.05437
#
  0.0229725  -0.0012312   0.0523623  -0.0515661   0.0278397  -0.0472767 -0.00683311   0.0213837  -0.0177451  -0.0126039
  0.0162506  -0.0580767  -0.0858976  -0.0498395   0.0114056  -0.0448544   0.0129562   0.0143425  -0.0124067   0.0337659
  0.0224228   0.0341937   0.0458661  -0.0569408   0.0470523   0.0406157   0.0231116   -0.067935   0.0305732  0.00248273
-0.00145686   -0.037778 -0.00577862   0.0265585   0.0035723  -0.0639442  -0.0445482   -0.013156   -0.013864  -0.0448647
  -0.026119   0.0544946  0.00399001  -0.0260763   0.0450258  -0.0140877   0.0708211 -0.00959296   0.0449211   0.0357906
 -0.0361723   0.0284571  -0.0050485  -0.0153239   -0.041533   0.0447044  -0.0274692 -0.00940708   0.0333996  0.00903169
 0.00812718   0.0297673  -0.0156014   0.0784988 -0.00893147   0.0138474  0.00366828   0.0247375  0.00285982 -0.00117002
  0.0118386  0.00307508  -0.0190521  -0.0263945   0.0120646 -0.00445857   0.0663013    0.018626  -0.0212504   0.0387301
   -0.08177   0.0267966   0.0541392  -0.0438081  -0.0220383  -0.0118429  -0.0249769   0.0196381   0.0249948  -0.0300433
  -0.113472  -0.0119201  -0.0845929   0.0495011   0.0430093    0.044089  -0.0210918   -0.042031  -0.0387152    0.011353
#
 -0.00862657   -0.0317533  -0.00577369   -0.0144858    0.0423865   -0.0272925     0.059329    0.0171578    0.0189607   -0.0221748
  -0.0348989   -0.0100196  -0.00503813  -0.00834435   -0.0200465   -0.0293208   -0.0459399    0.0173714    0.0286238    -0.013488
-0.000399703    0.0288735   -0.0128861   -0.0574202   -0.0264114    0.0204906  -0.00496855   -0.0641952   -0.0279617   -0.0107196
   0.0865845   -0.0645829 -0.000131051    0.0379104  -0.00519441   -0.0310054   -0.0117711  0.000923438   -0.0175384   -0.0605255
  0.00743635    0.0019831    0.0279003    0.0417297   -0.0412016   0.00902294   -0.0489623   -0.0582902  -0.00342217    0.0487966
  -0.0207117   -0.0322866   -0.0748238   -0.0315261   -0.0477782    0.0261304    -0.028897  -0.00738602    0.0247554    0.0456551
   0.0252401    0.0658207   -0.0343887     0.034995    0.0482262    -0.055384    0.0206269   0.00547546    0.0141875   -0.0201926
  -0.0248058    0.0177101    -0.036746   -0.0337373    0.0145415    0.0509366   -0.0595407    0.0665876   0.00742636    0.0561111
  -0.0224893   -0.0077935   -0.0153971    0.0473718   -0.0510722    0.0674735   -0.0329318   -0.0527173   -0.0223772   -0.0265497
  -0.0552465   -0.0348224     0.019739   -0.0226117   -0.0237985   -0.0298003    -0.012937    0.0184282    0.0584862   0.00558402
#
 0.00867205  -0.0130105   0.0293789   0.0604633   0.0623716  0.00972385  -0.0020754  -0.0255618   -0.023913  -0.0327336
  0.0335078  0.00527453  0.00845962   0.0629328  -0.0385533  -0.0486515   0.0739169  -0.0239155  -0.0155638  -0.0388179
-0.00697411  0.00311401   0.0375532   0.0215563  -0.0281238 -0.00123355  -0.0172844  -0.0394916  -0.0193402 -0.00392863
#
!
<71>:Score:2385
Distance:38.1596
  0.0114997 -0.00119218   0.0753382   -0.046114   0.0235342 -0.00196718 -0.00550351  -0.0596084  -0.0103412
  0.0414181  0.00414247 -0.00547573   0.0170452  0.00714534  -0.0149943  0.00457123   0.0021982  -0.0914092
 -0.0451433   -0.043158 -0.00904418   0.0118328 -0.00723516   0.0307556   0.0533092 0.000741981  0.00276189
-0.00256984   0.0221097 -0.00209076  0.00268526   0.0264734  -0.0124506 -0.00462651  -0.0538307  0.00224491
  0.0172795  0.00952134   0.0284612 -0.00958543  -0.0511402   0.0518088  -0.0372567     0.02225   0.0447677
-0.00489597  -0.0245028   0.0259202   0.0569479  -0.0206747   0.0193828   0.0810944  -0.0250228   0.0553807
 0.00582728   -0.024532 -0.00229123  -0.0239878  -0.0207548  -0.0217821   0.0212848  0.00301762 -0.00767192
0.000499746   0.0388198  -0.0477356  -0.0292983   0.0334323 -0.00567639  0.00308898  -0.0466004  -0.0259735
-0.00646606   0.0150519   0.0192563  -0.0209007   -0.014426   0.0664615  0.00720096  -0.0131435   0.0152484
  0.0309446   0.0106618   0.0748104   0.0144459   0.0273532   0.0153296  -0.0102393  0.00494611   0.0310926
#
   0.0276723    0.0185566    0.0446972   -0.0484962   0.00836425   -0.0376581   0.00405048     0.012123   0.00397252   -0.0197017
 -0.00239521   -0.0447716   -0.0822661   -0.0254912   0.00493932   -0.0384274    0.0117832   -0.0174001   -0.0328955    0.0520724
    0.035902    0.0112517    0.0342168   -0.0700471    0.0277368    0.0409952    0.0296293   -0.0555929    0.0056821   -0.0259344
  0.00706965   -0.0477775   0.00496431     0.015927   0.00873679   -0.0728599   -0.0646463   -0.0108261  -0.00642561   -0.0361556
  -0.0237172    0.0311888   -0.0159002  -0.00561416    0.0373002    -0.021181    0.0600024   -0.0356823    0.0387635    0.0321205
  -0.0495857    0.0361444   -0.0205179   -0.0168457   -0.0450463    0.0295872   -0.0348745   -0.0271261    0.0417962    0.0398664
  0.00656478   0.00531209   -0.0267821    0.0478141   -0.0135751   0.00830546    0.0219441   0.00651819   0.00962767  0.000908176
   0.0199587    0.0103219   0.00234713   -0.0172461    0.0040003 -0.000539633    0.0467313    0.0109197  -0.00355071   0.00336144
  -0.0482404    0.0233141    0.0511734   -0.0362989   -0.0055858   -0.0379682   -0.0122458    0.0136872    0.0367811   -0.0132835
  -0.0846768   -0.0208795    -0.083261    0.0386315    0.0335135    0.0527463    -0.026025    0.0176296   -0.0386471    0.0220884
#
  -0.0275637   -0.0247178  -0.00817885    -0.017466    0.0116845   -0.0400438    0.0240491   -0.0144695    0.0447315   -0.0166227
  -0.0218158  -0.00556455   -0.0149102 -0.000915226   -0.0171679   -0.0276654   -0.0536188    0.0201414    0.0169171   -0.0126329
 -0.00271849    0.0392989   0.00773494   -0.0420311    -0.041752    0.0165328   -0.0167811   -0.0552673   -0.0241931  -0.00318952
    0.110508   -0.0534804  -0.00478709     0.031808    0.0251911    -0.024177  -0.00447819   0.00302125    0.0155331   -0.0700137
   0.0159108    0.0215382    0.0306726    0.0569466   -0.0259853   0.00754237   -0.0428866   -0.0637619    -0.010971    0.0224829
 -0.00303144   -0.0110811   -0.0598602   -0.0374377    -0.033373    0.0185649   -0.0476807    0.0143188   0.00585503    0.0315189
   0.0141602    0.0618593 -0.000912292    0.0269571    0.0393266   -0.0517134    0.0296119    0.0222252   -0.0100183   -0.0060071
  -0.0209385    0.0284303   -0.0190894   -0.0256664    0.0035288    0.0508459   -0.0312108    0.0732668   0.00769937    0.0466406
  -0.0425767   -0.0255187   -0.0176582    0.0411524    -0.058351    0.0525662  -0.00511489   -0.0477199   -0.0159484   -0.0332275
  -0.0403004    -0.039514     0.020846   -0.0257559   -0.0361822   -0.0308789   0.00135505    0.0239309    0.0485097    0.0130302
#
  0.0224042  -0.0204141   0.0342829   0.0478022   0.0799106  -0.0240504   0.0226921  -0.0330087  -0.0213523  -0.0181763
  0.0207719 -0.00915203   0.0264235   0.0451343  -0.0147786  -0.0396189   0.0542328  -0.0297618  -0.0045014  -0.0204658
  0.0160699 -0.00969764   0.0174788   0.0166537  -0.0235519  -0.0107977  0.00107477  -0.0307428  -0.0139822    -0.01416
#
!
<4>:Score:2384
Distance:38.1596
-0.000103674   0.00667751    0.0495725   -0.0344812     0.047314   -0.0150803   -0.0196477   -0.0615456    -0.029268
   0.0405602   -0.0132405   -0.0177625  -0.00922118   -0.0118957   -0.0039144   -0.0165072    0.0214829    -0.058929
   -0.032334   -0.0205305    0.0318036   0.00902002    -0.013549    0.0334876    0.0417535  -0.00801754  -0.00741486
 -0.00590138   0.00121754    0.0183281  -0.00680187    0.0386087    0.0136956  -0.00684715    -0.028002   0.00496997
   0.0201375   0.00986805   0.00824757    -0.011995   -0.0538532    0.0580306     -0.03173    0.0179169    0.0438537
   0.0209204   -0.0290413    0.0501125    0.0314692   0.00157146    0.0269487    0.0813231   -0.0204615    0.0399382
   -0.018993    -0.023884   0.00271475  -0.00586213  -0.00524235   -0.0211889    0.0275453    0.0233651   0.00419457
 -0.00703354    0.0263388   -0.0593878   -0.0209826    0.0037253   0.00163048     -0.01168   -0.0363202   -0.0315444
  -0.0350088    0.0180545    0.0129319   -0.0210375   0.00695963    0.0558185   0.00483081   -0.0143313    0.0137826
   0.0330221   0.00293344    0.0907178    0.0107483    0.0316156    0.0380744  -0.00402308   -0.0141526    0.0417052
#
  0.0255702   0.0231218    0.058334  -0.0407718   0.0338289   -0.039865  -0.0197971   0.0173725  -0.0458696 -0.00932744
  0.0111532  -0.0479454   -0.104421  -0.0484447  0.00266314  0.00938762   0.0306964 0.000466973   0.0034473   0.0531168
  0.0193524   0.0264725    0.057142  -0.0563308    0.054492   0.0492474   0.0402291  -0.0501377   0.0332824  0.00618446
-0.00101001  -0.0472949  0.00271803   0.0265955   0.0102481  -0.0627292  -0.0508212 -0.00462336 -0.00429098  -0.0465846
 -0.0149987   0.0302184 -0.00501591  -0.0203582   0.0495874  -0.0213066   0.0735303  0.00292128   0.0514503    0.019118
 -0.0403146   0.0461036  -0.0201562  -0.0143455  -0.0340593   0.0255448     -0.0258 -0.00514825   0.0493272   0.0259753
  0.0200632   0.0379842  -0.0102803   0.0554281  -0.0226358   0.0249846   0.0174499   0.0238664  -0.0106839   0.0165079
 0.00643893   0.0117121  0.00538964  -0.0128607   0.0186093  0.00203083   0.0646866   0.0190627 -0.00352887   0.0548716
  -0.067708  0.00247552   0.0661674  -0.0283343  0.00813812  -0.0381672  -0.0244766   0.0201464   0.0300113  -0.0111827
 -0.0905574  -0.0312795  -0.0739909   0.0278198   0.0429517   0.0609754  -0.0194713  -0.0122129  -0.0588763   0.0425324
#
  -0.0194239   -0.0188877    -0.022542  6.75194e-06    0.0364416   -0.0224909    0.0396029  -0.00631314    0.0261876   -0.0431386
  -0.0100225   -0.0197265   -0.0085752   -0.0133572  -0.00900074   -0.0448845   -0.0312493    0.0280479    0.0264947  -0.00810301
-2.99107e-05    0.0201286   -0.0144237   -0.0518461   -0.0547796    0.0310804  -0.00654402   -0.0332712   -0.0255398 -0.000527015
    0.110959   -0.0532295    0.0167579    0.0200832    0.0119327    -0.029209   -0.0194551  -0.00105653   0.00226393   -0.0580644
   0.0171375   0.00806072   0.00503342    0.0723839   -0.0269406   0.00483989   -0.0485903    -0.052082   0.00510494    0.0209482
  -0.0111451   -0.0231904    -0.081709   -0.0207516   -0.0390539    0.0128129   -0.0341149  -0.00722135     0.013175    0.0402877
    0.022215    0.0823167   -0.0238995    0.0263682    0.0308091    -0.023141   0.00865384    0.0292222   0.00171188  -0.00439481
  -0.0235352    0.0167123   -0.0299586   -0.0291443    0.0212342    0.0548501   -0.0501637    0.0615299    0.0114847    0.0453695
  -0.0550922   0.00426493    -0.016183    0.0495688   -0.0490333    0.0643625   -0.0200869   -0.0466008   -0.0229871   -0.0194499
  -0.0270352   -0.0236287    0.0131809   -0.0226781   -0.0245648   -0.0181983  -0.00875775    0.0230934    0.0582753    0.0270276
#
-0.00767011  0.00343678    0.023149   0.0360325   0.0558565  0.00602069 0.000802134   -0.049539  -0.0282545  -0.0522188
  0.0346169  0.00238839    0.023058   0.0524473 -0.00213319  -0.0485145   0.0823854    -0.04253  -0.0146118  -0.0455376
   0.018383    0.016547   0.0430807   0.0174795  -0.0237187 -0.00207386    -0.01543  -0.0509757  -0.0256116   -0.015724
#
!
<8>:Score:2383
Distance:38.1596
   0.0162273      0.02554    0.0709438   -0.0295591   0.00902591   -0.0345056   -0.0211403   -0.0626492 -0.000129589
    0.024591    0.0163724 -0.000294469    0.0163779    0.0272785   0.00339366  -0.00439596  -0.00891728   -0.0486239
  -0.0606105  -0.00911069    0.0460026    0.0197997   -0.0113769    0.0487819    0.0467597  -0.00845181    0.0132965
 -0.00254739    0.0136867    0.0339831 -0.000469505    0.0304578   -0.0151151  -0.00016544   -0.0480322    0.0307721
   0.0335745   0.00545598  -0.00027593  -0.00166909   -0.0663621    0.0427338   -0.0478292  -0.00434355    0.0493703
 -0.00151788   -0.0227225    0.0305616    0.0451769 -0.000939477    0.0383813    0.0877347   -0.0338044    0.0713392
  -0.0295558   -0.0143823    0.0235042   -0.0159661   -0.0334558   -0.0168757  -0.00548355    0.0151773   0.00332065
 -0.00584761    0.0350122   -0.0353769   -0.0190282   -0.0151902   0.00358735    0.0208032    -0.050453   -0.0130851
  -0.0231659     0.021023   0.00446055   -0.0101313    0.0029015    0.0562614   -0.0169248  -0.00380385   0.00391937
   0.0122791  -0.00910936    0.0817964    0.0201548     0.025827   0.00854025   0.00552028   -0.0177487    0.0369238
#
   0.0315582    0.0250876    0.0436568   -0.0192446    0.0460728   -0.0483095   0.00467743     0.031967    -0.011628    -0.018591
   0.0372467    -0.023392    -0.101034   -0.0546726   -0.0142027   -0.0228332   -0.0151767   0.00567831  -0.00524035    0.0290178
   0.0316268    0.0355399    0.0396028   -0.0578692    0.0370004    0.0219691    0.0190052   -0.0608243    0.0338138  3.52857e-05
   0.0172611   -0.0448633   -0.0117397    0.0136781   0.00847644   -0.0479977   -0.0384778  0.000712674    0.0244271   -0.0273602
-2.65824e-05    0.0506234    -0.028698   -0.0139319    0.0503221   -0.0392767    0.0455353    -0.010864    0.0350344    0.0634222
  -0.0177163    0.0484473    -0.023101   -0.0280676   -0.0382024     0.027834   -0.0292352    -0.023712    0.0552308     0.027362
  0.00311893    0.0219116    -0.014139    0.0571684    0.0166081    0.0109053 -0.000992512    0.0140949   -0.0126201  -0.00102957
  0.00289127   -0.0147517    0.0185974   -0.0266656    0.0140627  -0.00104934    0.0570697    0.0236534   -0.0300228    0.0516865
  -0.0819434  -0.00480472     0.046942   -0.0552131  -0.00316815   -0.0390696   -0.0307607    0.0358303    0.0336495    -0.017842
  -0.0976726   -0.0228225   -0.0728328    0.0105311    0.0390159    0.0738941    -0.017905  -0.00301722   -0.0578942    0.0181679
#
-0.00328706  -0.0221725   -0.017712   0.0127609   0.0110329  -0.0142323   0.0230388 0.000314745   0.0123506  -0.0235982
 -0.0371884  -0.0338957  -0.0237687 -0.00368149  -0.0302518  -0.0189427  -0.0515403   0.0247903   0.0315619  -0.0104973
-0.00738572  0.00747939 -0.00969591  -0.0421272  -0.0461147 -0.00662404  -0.0261395  -0.0501356 -0.00558044 0.000971495
  0.0813594  -0.0511994  0.00864454   0.0225193  0.00294601  -0.0125649   -0.031741  -0.0222032  -0.0176694  -0.0381966
  0.0270374   0.0105714   0.0350443   0.0455557  -0.0284513 -0.00013586  -0.0312006  -0.0524913   -0.008871   0.0298882
 -0.0294018  -0.0308142  -0.0815888  -0.0251863  -0.0370777  -0.0277177  -0.0158567 0.000334371   0.0276866   0.0282476
  0.0464346   0.0783141  -0.0115425   0.0219681   0.0319783  -0.0414054   0.0391234   0.0161125  -0.0398512  -0.0337079
   -0.01467   0.0164908  -0.0366622  -0.0127191 -0.00708386   0.0179175   -0.054367   0.0644473   0.0106221   0.0503154
 -0.0366738 4.43004e-05   -0.025098   0.0505097   -0.046616   0.0364382  -0.0392728  -0.0445432  -0.0258063  -0.0457596
 -0.0406306  -0.0485316  0.00303263  -0.0169128  -0.0414778  -0.0134513  -0.0263162   0.0379444    0.040997   0.0311166
#
 0.00872811  0.00370891   0.0298456   0.0680914   0.0582453  -0.0200895   0.0149068  -0.0413806  -0.0344026  -0.0276234
  0.0258147  0.00309792  0.00527745    0.068777   0.0273312   -0.031024   0.0750149  -0.0164504   -0.009071  -0.0119074
 0.00783834  0.00996154 -0.00105463  0.00396775  -0.0192326  0.00510081  0.00575467  -0.0549223 -0.00311307  0.00516313
#
!
<9>:Score:2383
Distance:38.1596
 0.00443103  0.00517694   0.0588901  -0.0354171   0.0491923   -0.023916   -0.040613  -0.0402214 -0.00731782
  0.0464012    0.007134 -0.00598814 -0.00676689 -0.00284077   -0.005007  -0.0182289   0.0040595  -0.0478997
  -0.037163   -0.012458   0.0203666   0.0175809  -0.0227407   0.0330811   0.0555771 -0.00652384 -0.00721716
 -0.0142753   0.0103649    0.016925 -0.00467102   0.0218904  0.00699829   -0.016064  -0.0475052   0.0079766
  0.0261819 -0.00656804  0.00452828  -0.0093142  -0.0406319   0.0436667   -0.023928  0.00905924   0.0381317
  0.0170943  -0.0316764    0.050503   0.0575601 -0.00203934   0.0237593   0.0836677  -0.0340335   0.0602083
 -0.0103821 -0.00387076   0.0221731  -0.0279654  0.00690493   -0.015927   0.0167902   0.0284001   0.0227468
 0.00237416   0.0319896  -0.0584388  -0.0271703 -0.00769587   0.0195861   0.0146293    -0.03948  -0.0125585
 -0.0198311 -0.00539641 -0.00421508  -0.0258688  0.00900083   0.0663147 -0.00327734  -0.0156435  0.00940784
 0.00902312  0.00177392   0.0880712 -0.00938926  0.00326507   0.0297552 -0.00826382  -0.0153788   0.0562768
#
  0.0289144  0.00787624   0.0354909  -0.0447786   0.0236012  -0.0413238  0.00157399   0.0242177  -0.0203882  -0.0230011
  0.0024794  -0.0245984  -0.0978609      -0.034 -0.00109322  -0.0326218  -0.0126953   0.0292414  -0.0137514   0.0379918
  0.0365422   0.0289608   0.0355498  -0.0597606   0.0318249   0.0397753   0.0415784  -0.0607226   0.0271266 0.000884705
-0.00316931  -0.0564483  0.00594257   0.0320245 -0.00428622  -0.0637036  -0.0468214  -0.0118063 -0.00309879  -0.0439649
  -0.012143   0.0603899  0.00530394  -0.0154579   0.0552267  -0.0120985   0.0741602 -0.00401873    0.041006    0.053633
 -0.0487991   0.0314288  -0.0176642  -0.0249321  -0.0430372   0.0384058  -0.0301213  -0.0115399   0.0425061   0.0484517
  0.0225039   0.0344657  -0.0141131   0.0624142 -0.00525665   0.0233051   0.0130952  0.00784889   0.0074655   0.0199811
  0.0224151  0.00402109 8.46754e-05  0.00860775   0.0398535  0.00752538   0.0564454   0.0238539  -0.0160681   0.0513895
 -0.0892269   0.0164849   0.0605206  -0.0278593  -0.0360801 -0.00330957  -0.0267178   0.0303467   0.0224232  -0.0287764
  -0.101364  -0.0107923  -0.0808536   0.0412196   0.0328073   0.0595325  -0.0369545  -0.0333846  -0.0298839   0.0231414
#
   0.0127238   -0.0224555   -0.0270458  -0.00446312    0.0167133    -0.028626    0.0619817   0.00542328    0.0186978  -0.00979226
  -0.0308705  0.000602442    -0.017563   -0.0171459   -0.0165962   -0.0356235   -0.0385092    0.0240173   0.00431417  0.000767021
 -0.00894225    0.0291145  -0.00753397   -0.0445688   -0.0585397    0.0205146   0.00410601   -0.0640698   -0.0207398   0.00246681
   0.0989528   -0.0641309    0.0218218    0.0212771   0.00543032   -0.0446303   0.00191166  -0.00024078    0.0125734   -0.0700422
   0.0259341   0.00903201    0.0262074    0.0551352   -0.0345537    0.0224691   -0.0332785    -0.075104   0.00546473    0.0448925
  -0.0104695   -0.0328879   -0.0602152   -0.0368193   -0.0336544   0.00111646   -0.0470115  -0.00155568    0.0171286    0.0406878
  0.00686004    0.0845497   -0.0155007    0.0301624     0.037758   -0.0551941   0.00755983    0.0245476    0.0112133  -0.00443107
  -0.0225028   -0.0017276   -0.0304136   -0.0231242    0.0349998    0.0549281   -0.0394738    0.0740004   0.00436537    0.0393508
  -0.0490285 -0.000670597   -0.0288828    0.0397311    -0.047611    0.0426915  -0.00249889    -0.039872   -0.0697893   -0.0498288
  -0.0260651   -0.0282104   0.00803685   -0.0500262   -0.0291866  -0.00349936  -0.00716227    0.0153288    0.0664995    0.0306508
#
   0.0114208  0.000332351    0.0262677    0.0695537    0.0573665   0.00573038    0.0125951    -0.035954   -0.0382743   -0.0352022
   0.0161159   -0.0118662    0.0301236    0.0552159   0.00311837   -0.0654815    0.0854848   -0.0267818  -0.00674111   -0.0320378
    0.033912   0.00376298    0.0297605     0.019968    -0.011038  -0.00167984 -0.000706381   -0.0411692   -0.0284969    -0.022904
#
!
<30>:Score:2383
Distance:38.1596
   0.0064819    0.0102025    0.0517797   -0.0349419    0.0354998  -0.00796991   -0.0134711    -0.056039   -0.0112355
   0.0390046  -0.00010672   0.00149133   0.00908724   0.00421217    0.0041039   -0.0102782      0.01314   -0.0578372
  -0.0294347    -0.024139  -0.00111764   0.00204156  -0.00202517    0.0334743    0.0497088  -0.00997581  -0.00176439
-0.000935362    0.0177583   0.00455018   0.00130524    0.0234355  -0.00341058   -0.0146667   -0.0341802   0.00359582
   0.0285739   0.00761123    0.0136305   -0.0083337   -0.0463016    0.0416416   -0.0349462    0.0145849    0.0422387
   0.0162303   -0.0250138    0.0423945    0.0417186   -0.0128751    0.0193299    0.0810268   -0.0253463    0.0473383
  -0.0198852   -0.0296924   0.00512357   -0.0201657   -0.0154286   -0.0180102    0.0120725    0.0166865   0.00489802
   0.0018192    0.0319415   -0.0439585   -0.0240451    0.0170431  -0.00792675    0.0132446   -0.0388841   -0.0344017
  -0.0136756    0.0121513    0.0113293   -0.0126922     0.009008    0.0589117  -0.00525089   -0.0266935    0.0100044
   0.0247577   -0.0117007    0.0848578    0.0148271    0.0222777    0.0381729   -0.0136936  -0.00186057     0.042699
#
  0.0318416   0.0224529   0.0427927  -0.0478812   0.0185786  -0.0348871 -0.00258751   0.0222212 -0.00364392   -0.017368
 0.00773282  -0.0392381  -0.0906037  -0.0371812 0.000373339  -0.0240668 -0.00181189  -0.0106302 -0.00676398   0.0401219
  0.0226262   0.0120825   0.0305001  -0.0593192    0.031983   0.0404112   0.0285609  -0.0638766   0.0290878 -0.00422699
 0.00823243  -0.0433724  0.00631887   0.0123685  0.00799614  -0.0586639  -0.0554653 -0.00583247   0.0138853  -0.0370614
  -0.019685   0.0435535  -0.0135691 -0.00817795   0.0476722  -0.0215256   0.0628429  -0.0169146   0.0429893    0.032125
 -0.0375558    0.039516  -0.0253418  -0.0358851  -0.0339285   0.0295948  -0.0295717  -0.0143881   0.0424033   0.0288054
 0.00625187   0.0200049   -0.026838   0.0400042  -0.0042185    0.015443    0.021573  0.00996863 -0.00213046  0.00926367
  0.0257001  0.00516773   0.0137112  -0.0228361  0.00389709 -0.00912794   0.0482737   0.0116972  -0.0170653    0.029961
 -0.0747067   0.0135318   0.0613223  -0.0238661  -0.0133941  -0.0405241  -0.0173063   0.0214921   0.0326996  -0.0247449
 -0.0779642  -0.0280305  -0.0850748   0.0351259   0.0397565   0.0431269  -0.0244498  -0.0081381  -0.0414042   0.0243441
#
 -0.00888945   -0.0236951  -0.00858988   -0.0159671    0.0114515   -0.0360002    0.0487743  -0.00535623    0.0382077   -0.0206096
  -0.0160301   -0.0166191  -0.00558502  -0.00948955   -0.0121487    -0.028585   -0.0533372     0.023154    0.0239574  0.000106877
    0.001554    0.0121776  0.000694052    -0.042541   -0.0488674    0.0142949  0.000929793   -0.0596937   -0.0114735   -0.0124127
    0.108853   -0.0638573   0.00386834     0.028337   0.00439673   -0.0200876   -0.0148067     0.002067  -0.00257179   -0.0700421
   0.0196984   0.00419013    0.0408043    0.0538825   -0.0394219    0.0046282    -0.048897   -0.0638466  -0.00242823    0.0270925
  -0.0084654  -0.00507511    -0.070268   -0.0243688   -0.0435297   0.00255605   -0.0304944  -0.00299676    0.0125761    0.0280551
  0.00966578    0.0850973  -0.00548718    0.0272946    0.0337573    -0.060482     0.031818    0.0256826   0.00108554   -0.0140904
  -0.0197809    0.0090155   -0.0270934   -0.0349402    0.0169797    0.0482685     -0.03919    0.0581622    0.0109159     0.040135
  -0.0365223   -0.0154719  -0.00425035    0.0398983     -0.05553    0.0490146  -0.00751745   -0.0532698   -0.0379407   -0.0281439
  -0.0382844   -0.0177688   0.00673556   -0.0167771   -0.0317979   -0.0238703 -0.000433108    0.0164922     0.051267    0.0226481
#
  0.0194305  -0.0117133   0.0241392   0.0562138   0.0636901  0.00087249   0.0165898  -0.0366175  -0.0295854  -0.0288246
  0.0272333  -0.0084462    0.010542   0.0590406 -0.00518738  -0.0395155   0.0695106  -0.0248858 -0.00993009  -0.0246441
  0.0195276  -0.0132379   0.0328258   0.0123413  -0.0196661 -0.00420166  -0.0100838  -0.0410937  -0.0321047 -0.00610434
#
!
<59>:Score:2383
Distance:38.1596
  0.00834291    0.0188604    0.0512114   -0.0271539    0.0257896    0.0185928   -0.0217527   -0.0761908   -0.0171363
   0.0338114  -0.00140851    0.0306762     0.017589    0.0235058    0.0246825   -0.0122077    0.0131442   -0.0576328
  -0.0120699   -0.0294869  -0.00739048  -0.00923257  -0.00366454    0.0367044    0.0494327   -0.0353773  -0.00671865
  -0.0041568   0.00407086    0.0134844   0.00946617    0.0275633   0.00624555  -0.00507194   -0.0191719   -0.0047721
   0.0244936  0.000961113    0.0222985  -0.00572684   -0.0550886    0.0469502   -0.0484301    0.0145307    0.0393716
   0.0166685   -0.0271446    0.0199929    0.0395615  -0.00158777    0.0250707    0.0907927   -0.0281559    0.0660704
  -0.0149939   -0.0205421    0.0208099  -0.00740764   -0.0230962  -0.00708854    0.0132562     0.040656    0.0131485
   0.0041213    0.0167415   -0.0581792   -0.0344005    0.0218196    -0.013651  0.000895221   -0.0285186   -0.0311663
 -0.00954617   0.00663832   0.00925662   -0.0128659  0.000756977     0.062906  -0.00275904   -0.0396562 -0.000403916
   0.0383565   -0.0118364     0.076516     0.012474    0.0460832    0.0378746   0.00205815    0.0100386    0.0622824
#
   0.0396373    0.0382968    0.0483528   -0.0405536    0.0359709   -0.0508456   0.00167729    0.0203939   0.00351097  -0.00502981
  0.00248545   -0.0375228   -0.0999358   -0.0406194   -0.0116408   -0.0270186   -0.0159202   -0.0196352   0.00239311    0.0420368
   0.0102821    0.0153818    0.0296465   -0.0520257    0.0307723    0.0474135    0.0273102    -0.065045    0.0398573  -0.00302828
 -0.00366307   -0.0490217   -0.0149858   0.00837932    0.0167857   -0.0534512   -0.0462625 -0.000763619   0.00794915   -0.0354683
  -0.0177485     0.031188   -0.0118371   -0.0128176    0.0345646  -0.00706767      0.06052   -0.0125684    0.0486911    0.0233681
  -0.0386799    0.0565333   -0.0388004   -0.0394253    -0.040303     0.023228   -0.0248093   0.00262432     0.063185    0.0215837
   0.0179714    0.0243263   -0.0465741    0.0266917  0.000814778   0.00286594    0.0293059   0.00445253  -0.00409283   0.00185552
   0.0193626   -0.0146022    0.0159317   -0.0212933 -2.76932e-05   -0.0171509    0.0364217   0.00858721   -0.0129607    0.0281098
  -0.0736365    0.0247271     0.074203   -0.0323726   -0.0299463   -0.0410471   -0.0142732    0.0291484    0.0273473   -0.0212033
   -0.063637   -0.0557771   -0.0958284    0.0341825     0.041479    0.0456443   -0.0208419  -0.00110118   -0.0575629     0.019707
#
 -0.00304947   -0.0262246  -0.00482246  -0.00748052   0.00650575   -0.0336933    0.0505415  -0.00892185    0.0410077   -0.0153519
  -0.0209521   -0.0189344   -0.0135919  -0.00784992  -0.00813488   -0.0232737   -0.0523969    0.0225082    0.0203834   -0.0030755
  -0.0114803    0.0225094   0.00563805   -0.0503027    -0.057787    0.0080826  -0.00785135   -0.0784722   0.00336693  -0.00884791
    0.116892   -0.0654334      0.01445    0.0231119    0.0123884   -0.0214016   -0.0277841  -0.00795863   -0.0068271   -0.0654524
    0.010337   0.00300287    0.0136345     0.061993   -0.0349548 -0.000125403   -0.0447399   -0.0687424  -0.00630781    0.0317178
  -0.0152834  -0.00554428   -0.0736174   -0.0491978   -0.0477879  -0.00696418   -0.0311998     0.013786    0.0184142    0.0271921
  0.00733236    0.0720026   -0.0202371    0.0275215    0.0230869   -0.0519065    0.0170722    0.0267851   0.00599785   0.00310277
  -0.0231849    0.0226636   -0.0406756    -0.020047    0.0236332    0.0537628   -0.0346708    0.0523932   0.00667556    0.0362782
  -0.0323292    -0.024589 -0.000672535    0.0416301   -0.0517749    0.0429994   -0.0121537   -0.0465928   -0.0447908   -0.0395487
  -0.0217123  -0.00392093    0.0112146   -0.0207186   -0.0346385   -0.0164495    0.0036953     0.019278    0.0427635    0.0245621
#
 0.00619822 -0.00625693   0.0197297   0.0659338    0.043707  0.00564871   0.0132795  -0.0383164  -0.0423496  -0.0315726
  0.0366778  -0.0259012   0.0158655   0.0694023 -0.00551026  -0.0383471    0.068411  -0.0180707 -0.00674088  -0.0256374
  0.0237865  -0.0355864   0.0350653  0.00165512  -0.0260616  -0.0134569  -0.0128645  -0.0515362  -0.0320822  -0.0087044
#
!
<5>:Score:2382
Distance:31.1763
-0.00197596   0.0252052   0.0421425  -0.0230945   0.0411533 -0.00763831  -0.0312771  -0.0741634  -0.0246088
  0.0330856 -0.00943813 -0.00410058  0.00993266  0.00819229  -0.0129518  -0.0101465 -0.00110867   -0.068938
 -0.0395931  -0.0232575   0.0227476   0.0329338 -0.00275542   0.0600572   0.0290516  -0.0145122  -0.0293342
-0.00702301  0.00965041   0.0131587   0.0156967   0.0180467   0.0263757  -0.0277578  -0.0332657   0.0138926
  0.0298337  0.00900429  -0.0152819  -0.0203095  -0.0692883   0.0455625  -0.0342764 -0.00236375   0.0325658
  0.0200412  -0.0321371   0.0473611   0.0475653 -0.00307255   0.0207903   0.0745587  -0.0244436   0.0607162
-0.00539957  -0.0311481 -0.00457357  -0.0128005  -0.0212604 -0.00835725   0.0133798   0.0115336  0.00151698
 0.00565491   0.0092828  -0.0439993  -0.0341045 -0.00462215  0.00579923   0.0119708  -0.0379098  -0.0280876
 -0.0236386   0.0166295  0.00612404 -0.00788623  0.00389045   0.0698236   0.0148559  -0.0216839   0.0194435
  0.0111952  0.00434713   0.0897974  0.00570041    0.029157   0.0389152 -0.00384309 -0.00653522    0.048789
#
   0.0178208    0.0295333    0.0666029   -0.0449248    0.0358474   -0.0262125   -0.0379561    0.0131568   -0.0319187   -0.0182528
   0.0210538   -0.0460166    -0.114124   -0.0460417   0.00294834  -0.00285721    0.0265217   0.00873035  0.000816377    0.0585235
   0.0149613    0.0286101    0.0248229   -0.0555784    0.0300002    0.0563626    0.0175754   -0.0515538    0.0134798  0.000988261
  -0.0192341   -0.0348232  -0.00773688     0.015185     0.019539   -0.0600578   -0.0551689    0.0045207   0.00489428    -0.034095
  -0.0193462    0.0415357   0.00312742   -0.0313468    0.0376506    -0.030261    0.0799549  -0.00572957    0.0608725    0.0185335
  -0.0347126    0.0275242  -0.00248916    -0.017489   -0.0426778    0.0368897   -0.0364521   -0.0214107    0.0342018    0.0235669
    0.034805    0.0216123   -0.0322272    0.0270666    -0.010606   0.00246309   0.00869074   0.00750809   -0.0107593    0.0288425
   0.0309046    0.0095061  -0.00339941 -0.000799764    0.0354621  -0.00406439    0.0672571     0.019843   -0.0127804    0.0464546
  -0.0841387   0.00618738    0.0531237   -0.0155972   0.00315857   -0.0305883   -0.0175423    0.0419954    0.0298967   -0.0247943
   -0.116401   -0.0138842   -0.0888682    0.0289065    0.0365585     0.070605   -0.0252113     -0.02612   -0.0392421    0.0247375
#
  -0.0120778   -0.0164746   -0.0259878  -0.00967964    0.0270034   -0.0176643    0.0470434  -0.00416568    0.0312516   -0.0380357
 -0.00466456  -0.00716865   -0.0139673  -0.00976025   -0.0103332   -0.0455045   -0.0382829    0.0332152   0.00552891   -0.0138784
  -0.0103051    0.0137413    0.0123531   -0.0450719   -0.0574992    0.0199043  0.000521203   -0.0391648   -0.0242243   -0.0078073
   0.0860764   -0.0667256   0.00272297    0.0130595    0.0351856   -0.0221588 -0.000502247  -0.00609826    0.0114724   -0.0368682
  0.00815312   0.00891189  -0.00133544    0.0386451   -0.0355412  0.000503061   -0.0450397   -0.0492563  -0.00216232   0.00859065
  -0.0147387  -0.00713635   -0.0902371   -0.0538241   -0.0427716  -0.00122154   -0.0344157   -0.0136033    0.0246578    0.0509745
   0.0235727    0.0735094   -0.0264714    0.0222832     0.045652   -0.0303749  -0.00264086   0.00565039  0.000983767   0.00423762
  -0.0345504    0.0145956   -0.0282811   -0.0271932    0.0070918    0.0556222   -0.0801366    0.0744868   -0.0021042     0.052735
   -0.025472   -0.0143328   -0.0107634    0.0437699   -0.0466362     0.054107   -0.0174684    -0.037142   -0.0061537   -0.0193285
  -0.0241424   -0.0152731   0.00783944   -0.0189947   -0.0303412   -0.0173931    0.0049659    0.0301904     0.060357    0.0227139
#
  0.00202225 -0.000550789    0.0229021     0.032594    0.0363815  -0.00365342   0.00786533   -0.0609935   -0.0346236   -0.0500657
   0.0402774  -0.00907398    0.0157289    0.0611731  -0.00901139   -0.0446399    0.0825593    -0.036839   -0.0143614   -0.0232463
   0.0103104    0.0201115    0.0460278   0.00509347  -0.00293381    0.0124818   -0.0160973    -0.054218   -0.0306324    -0.017764
#
!
<7>:Score:2382
Distance:38.1596
  -0.0119379    0.0185173    0.0534718   -0.0174399    0.0467218   0.00756021  -0.00545956   -0.0682158   -0.0387776
   0.0424078   0.00309282   -0.0178905   -0.0117253  -0.00676724  -0.00915607  -0.00861249    0.0118399   -0.0671138
  -0.0367306   -0.0276251    0.0375485    0.0130608      -0.0181    0.0413297    0.0328999    -0.006626  -0.00169719
  -0.0123782    0.0139024  -0.00695435   0.00818892    0.0146013    0.0222695    0.0102041   -0.0253264  -0.00501432
   0.0369016  -0.00985592   0.00886438   -0.0045483   -0.0475658    0.0525761   -0.0524875    0.0182295    0.0403003
   0.0223966   -0.0514977    0.0305474    0.0330884   0.00803243     0.013002    0.0836847   -0.0304253    0.0544846
  -0.0256702   -0.0253287  -0.00131745   -0.0357753   -0.0218809   -0.0165937    0.0164091    0.0203238   -0.0131246
 -0.00108362    0.0239562   -0.0360735   -0.0214898   0.00624653   -0.0130868    0.0156209   -0.0399547   -0.0407702
  -0.0334679  -0.00164554 -0.000700561   -0.0157681   0.00370545    0.0613505  -0.00297867   -0.0126618    0.0159726
   0.0337413   0.00176612     0.091626   0.00997014    0.0161783    0.0287396  -0.00896601   -0.0332488    0.0150683
#
   0.0178687   0.00838918    0.0385282   -0.0488858    0.0428623   -0.0222752  -0.00152677    0.0167385   -0.0340875   -0.0219148
  0.00847739   -0.0673821   -0.0755501   -0.0464359   0.00605419   -0.0136756  -0.00602779   0.00854064  0.000843832    0.0467725
   0.0341645    0.0241704    0.0513672   -0.0580095    0.0529061    0.0358929    0.0298197   -0.0419265    0.0466612    0.0111656
 -0.00574445   -0.0397673   0.00747137    0.0302609  -0.00212493   -0.0511289    -0.042131   0.00592038   0.00143902   -0.0156426
  -0.0183659     0.043206  -0.00586895  -0.00534057     0.048654   -0.0253469    0.0619261 -0.000169833    0.0578586    0.0144136
  -0.0343887    0.0494178   -0.0161467   -0.0173028   -0.0376221    0.0258974   -0.0110532     -0.01679    0.0386826    0.0237005
   0.0122654     0.032723   -0.0192168    0.0422459    -0.016098    0.0391696     0.012007    0.0309993   -0.0124977   0.00775301
  0.00538032   0.00776149   0.00147082   -0.0143004    0.0192941  7.45207e-05    0.0382558    0.0302935   -0.0159969    0.0527529
   -0.072983    0.0253657    0.0591688   -0.0284946     0.010574   -0.0380338   -0.0112386    0.0295314    0.0154139   -0.0142148
  -0.0927298   -0.0372324   -0.0820306    0.0408713    0.0395363    0.0825547   -0.0124045  -0.00495832   -0.0507354    0.0369755
#
  -0.0103114   -0.0267399   -0.0185778 -0.000815848    0.0249356   -0.0234237    0.0708183    0.0105165    0.0327502   -0.0329417
  -0.0252992   -0.0185013   -0.0123481   -0.0234376   -0.0106983   -0.0355613   -0.0446084    0.0325027     0.011548    0.0100529
  0.00379375   0.00525459  -0.00598939    -0.036763    -0.061453    0.0201432  -0.00457857   -0.0350432   -0.0229935  -0.00625698
   0.0917456   -0.0877102    0.0167887    0.0212282    0.0178105   -0.0393257  -0.00332706    -0.012498   0.00288633   -0.0398086
   0.0101158    0.0067063    0.0111575    0.0609339   -0.0493712  -0.00645757    -0.058323   -0.0501575   0.00239363    0.0360263
   0.0108007   -0.0236945   -0.0732096   -0.0273547   -0.0494072   0.00294775   -0.0485749   -0.0130165    0.0182075    0.0401263
   0.0315186    0.0555777   -0.0165383    0.0365037    0.0194605   -0.0381131    0.0141388    0.0276132   0.00434699   -0.0109796
   -0.035936   0.00984652   -0.0158235   -0.0224907    0.0213316    0.0418445   -0.0566099    0.0744604  0.000697958    0.0653643
  -0.0299979   -0.0118647   -0.0175714    0.0479238   -0.0366533    0.0519451   -0.0180353    -0.045765   -0.0200693   -0.0250734
  -0.0134599   -0.0146977   0.00601096  -0.00286536   -0.0411908   -0.0233161  -0.00370097    0.0281207    0.0735606    0.0372945
#
-0.00366234   0.0117881   0.0352167   0.0471314   0.0598975  -0.0164142  0.00413928  -0.0517614  -0.0284427  -0.0365488
  0.0328896   0.0157408   0.0332645   0.0464495  -0.0146455  -0.0445186     0.08792  -0.0111218   -0.011338  -0.0233143
   0.014217    0.028049   0.0328686    0.017499  -0.0401911  0.00973821 -0.00121966  -0.0562144   -0.018687 0.000563023
#
!
<10>:Score:2382
Distance:38.1596
  0.00804196    0.0166422    0.0635279    -0.027379    0.0313205  -0.00185456 -0.000156898   -0.0495645   -0.0120338
   0.0601985   0.00293987   0.00468957    0.0132398    -0.011267   0.00645381  -0.00154852   0.00215693    -0.056102
  -0.0391169  -0.00493095     0.028905    0.0289271  -0.00662655    0.0538976    0.0318872    -0.011297   0.00845084
  -0.0092447    0.0203286    0.0239494  -0.00814806    0.0262805  -0.00405176   -0.0177473   -0.0334442   0.00558036
   0.0307986    0.0289207  -0.00587813   -0.0196019   -0.0576509    0.0405274   -0.0422732   0.00485692    0.0492918
 -0.00285619   -0.0197596    0.0450428    0.0601385    -0.015667    0.0231387    0.0695916   -0.0611131    0.0581359
  -0.0313534    0.0119387    0.0248696  0.000405338  -0.00394351  -0.00551322   -0.0063894    0.0169098    0.0114117
-0.000194977    0.0347325   -0.0513804   -0.0376045    -0.019684  -0.00116887  0.000516464   -0.0441775   -0.0284714
  -0.0287244     0.018178    0.0257078  -0.00328657    0.0117593    0.0527553   -0.0178222   -0.0309393    0.0114386
    0.031791   -0.0275216    0.0769626   0.00527146    0.0104319    0.0200736   0.00363935   -0.0147746    0.0274701
#
   0.0502412    0.0140755    0.0634379   -0.0346946    0.0486154   -0.0332136    -0.017098    0.0197387   0.00477235   -0.0170534
 0.000812623    -0.061023    -0.106921   -0.0570604   0.00147759    -0.017206   0.00736003     0.015399   -0.0148749   0.00455187
   0.0346554   0.00608325    0.0172716   -0.0655512    0.0396583     0.043598    0.0243652   -0.0297801    0.0153766    0.0137106
   0.0344632   -0.0304501   0.00889071    0.0271162  -0.00973726   -0.0564781   -0.0297258   -0.0114134     0.013439   -0.0381688
  -0.0213304    0.0348103   0.00233631   -0.0226414    0.0538266   -0.0394331     0.060168  -0.00846397    0.0527959    0.0411668
  -0.0321029    0.0281823   -0.0425137   -0.0451742   -0.0459213 -0.000869374   -0.0166965   -0.0130713    0.0401124    0.0287826
   0.0155259   0.00756972   -0.0269527    0.0305634 -0.000768609    0.0138569  -0.00748159     0.011077  -0.00773548    0.0103309
   0.0301604   -0.0057601    0.0112341    -0.019301    0.0303069    0.0279699    0.0632858  0.000863273   -0.0143537     0.058512
  -0.0765469   -0.0144439    0.0437496   -0.0674653 -0.000843787    -0.031503   -0.0211554   0.00948039    0.0404177   0.00591031
   -0.109042    -0.030535   -0.0512929    0.0191485    0.0329267    0.0417276   -0.0326224   -0.0280664   -0.0421261    0.0491909
#
  -0.0134085   -0.0245112   -0.0148563   -0.0102407     0.026731   -0.0261318    0.0481982    0.0255648    0.0177128   -0.0236899
  -0.0531914   -0.0164014   -0.0458977   0.00333665 -0.000501529   -0.0336623   -0.0604825  -0.00716848 -0.000866969   -0.0112017
  -0.0201027   0.00700842   -0.0193706   -0.0402916   -0.0603846    0.0127435   -0.0310633   -0.0428654  5.26992e-05   -0.0243194
   0.0810432   -0.0556525  -0.00312728    0.0272848  -0.00686927   -0.0470455    0.0180943   -0.0308917   -0.0270893   -0.0204033
   0.0239934    0.0166076    0.0442536    0.0586293   -0.0119119   0.00676822   -0.0267086   -0.0533425   -0.0265685    0.0417249
 -0.00207338   -0.0064386   -0.0761705   -0.0328936   -0.0298772   -0.0229348   -0.0283138   0.00623666   0.00952061    0.0276356
   0.0163462    0.0884231   -0.0129273    0.0317179    0.0290218   -0.0457321    0.0367417    0.0011609    -0.021956   -0.0199612
  -0.0145812   -0.0042723   -0.0187776   -0.0146002     0.021525    0.0374172   -0.0500324    0.0482956   -0.0276547    0.0432864
  -0.0231921   0.00343641   0.00722073    0.0396067   -0.0362244    0.0653676    -0.024478   -0.0422107    -0.021666   -0.0479222
  -0.0365328   -0.0362521   0.00163677  -0.00156694   -0.0391844  -0.00512057    -0.017638    0.0165883    0.0624183    0.0301168
#
  0.00866206  -0.00328971    0.0237558    0.0433488    0.0369619  -0.00125386 -1.14485e-05    -0.025155   -0.0108251   -0.0468242
   0.0309887   0.00886966    0.0238767     0.055383   0.00964854   -0.0380969    0.0505059   -0.0071461    0.0195084   -0.0277511
   -0.010194  -0.00950162    0.0440064    0.0330006   -0.0121425   -0.0135192  -0.00980675   -0.0612939   -0.0378226   0.00117528
#
!
<11>:Score:2382
Distance:38.1596
  0.00103457    0.0125345    0.0593514   -0.0317528    0.0674991   0.00698388   -0.0103598   -0.0667083   -0.0268581
   0.0494468  -0.00559175  -0.00644282   0.00188585   -0.0115295  -0.00462193     -0.02031    0.0303323    -0.063896
  -0.0267461   -0.0280555    0.0406961   0.00897607   -0.0125251    0.0325128    0.0170917  -0.00376911  -0.00710465
  0.00323541    0.0203119    0.0206166 -0.000347801    0.0215934    0.0158083   -0.0205415   -0.0341816  -0.00243335
   0.0278797 -0.000380124  -0.00966353   -0.0282928   -0.0445489     0.043038   -0.0469023    0.0196003    0.0413068
   0.0294071    -0.033777    0.0380467    0.0300005   0.00569715    0.0214612    0.0897023     -0.01752    0.0449732
  -0.0176702   -0.0220748 -0.000396301   -0.0107575   -0.0054146   -0.0214285     0.013314    0.0251249   0.00119469
   0.0260689    0.0219533   -0.0485581    -0.020608  -0.00236172  -0.00121245   -0.0174726   -0.0269229   -0.0275545
  -0.0368854    0.0165454   0.00816126   0.00341375   0.00226169    0.0714174   -0.0240208   -0.0142254    0.0224243
   0.0099028   0.00123595    0.0796164     0.023556    0.0102344    0.0154901    0.0058987   -0.0210922      0.03549
#
   0.0220938   0.00859343    0.0580876   -0.0483295    0.0359563   -0.0341366   -0.0185063    0.0159746   -0.0458707  -0.00819753
   0.0266398    -0.052584     -0.12038   -0.0239903   0.00141567     -0.01158    0.0267624  -0.00195329   -0.0161647    0.0371827
   0.0323787   0.00595972    0.0461881   -0.0483308    0.0318126    0.0530482    0.0238865   -0.0478807    0.0397333   0.00761291
  0.00562264     -0.04587   0.00510648    0.0268849    0.0106267   -0.0485898   -0.0500733  -0.00828531  -0.00915709   -0.0289005
  -0.0179445    0.0297301 -0.000833035   -0.0229383    0.0601197   -0.0271667    0.0648008  -0.00915802    0.0476359    0.0239117
   -0.020007    0.0150549   -0.0285625   -0.0287967    -0.025705    0.0222274   -0.0249087   -0.0061192    0.0416745    0.0359718
   0.0287081    0.0152086  0.000665563    0.0522724  -0.00592136    0.0240321   -0.0130064    0.0384474  -0.00165318   0.00602688
  0.00730735  -0.00176554   -0.0105907 -0.000673606    0.0358288    0.0104291    0.0530267    0.0279162    -0.015422    0.0444232
  -0.0759007    0.0401406    0.0519908   -0.0275825  -0.00526494   -0.0262603   -0.0554007    0.0141869    0.0238908   -0.0224756
   -0.112784   -0.0364461   -0.0565377    0.0115419    0.0354017    0.0725991    -0.012855   -0.0268544   -0.0473493    0.0441022
#
 -0.0259691   -0.020849  -0.0104352  0.00220981   0.0279941  -0.0233885    0.037734   0.0196054   0.0342139  -0.0255178
 -0.0200823  -0.0165389 -0.00221766  0.00532738   -0.016438  -0.0388503   -0.040577    0.011887  0.00712445  -0.0138536
 -0.0128923   0.0151822 -0.00603281  -0.0526047  -0.0551616   0.0313296  0.00984104  -0.0447049  -0.0100328  -0.0105645
   0.115473  -0.0584099  -0.0065378   0.0384015  0.00128561  -0.0328437 0.000472173  0.00383425 -0.00687687  -0.0490339
  0.0265213   0.0247562   0.0198022   0.0630238   -0.054989 -0.00649344  -0.0448984  -0.0702369   0.0163558   0.0223052
-0.00309608  -0.0254634   -0.084756  -0.0205187  -0.0217979  -0.0104228  -0.0356535  -0.0115558   0.0140596   0.0440452
  0.0218983   0.0594506  -0.0185248   0.0438132   0.0253864  -0.0325687   0.0104183   0.0229809  -0.0097655   0.0106328
 -0.0228995   0.0108603  -0.0272275  -0.0213781  0.00635676    0.056225  -0.0544758   0.0634677  0.00767332   0.0376897
 -0.0467099  -0.0111711 -0.00748037   0.0434891  -0.0524288   0.0465984   -0.023563  -0.0429517  -0.0323304 -0.00909033
  -0.029459  -0.0210925  0.00885917  -0.0104243 -0.00139198  -0.0259398 -0.00588953   0.0130676   0.0567158   0.0372563
#
   0.0106783   0.00983173    0.0095811    0.0366822    0.0472388    0.0167215 -3.35716e-05   -0.0418125     -0.02113   -0.0328238
   0.0496108  -0.00468792     0.027221    0.0514679   0.00802951   -0.0405713    0.0763958   -0.0303669   -0.0196694   -0.0259788
  0.00109678    0.0143725    0.0535517    0.0303691   -0.0287401  -0.00993517   -0.0150872   -0.0325018   -0.0081891   -0.0140647
#
!
<12>:Score:2382
Distance:38.1596
 0.000888058    0.0167978    0.0643701   -0.0320807    0.0501487   -0.0242328    -0.014166   -0.0710436   0.00151972
     0.05408    0.0127977  -0.00269467    0.0176402   0.00870201   -0.0116733  -0.00862366 -0.000659784   -0.0431212
  -0.0528776    -0.020146    0.0373766    0.0249738   -0.0180874    0.0333575    0.0367085  -0.00308571  -0.00410215
 -0.00468185    0.0227357    0.0146327   0.00536596    0.0190934  -0.00254451  -0.00324033   -0.0395826   0.00378392
   0.0295111  -0.00170668 -0.000483413   -0.0135157   -0.0477579     0.047476   -0.0340212   0.00903163    0.0551714
   0.0298332   -0.0254642     0.045023     0.037583  -0.00709973     0.020099    0.0940089   -0.0295581    0.0425893
  -0.0203861   -0.0232142   0.00616891   -0.0194989 -0.000437827    -0.015948    0.0125316    0.0120493   0.00531546
 6.90198e-05    0.0200765   -0.0510095   -0.0365117    0.0022205    0.0162828     0.019198   -0.0491141   -0.0351757
  -0.0256924   0.00321249  -0.00848582    -0.014568  -0.00154173    0.0791546   -0.0174636   -0.0213495    0.0072004
   0.0231676   0.00322178     0.086201    0.0022749   0.00828601    0.0276926  0.000411608   -0.0113221    0.0427041
#
   0.026943   0.0160185   0.0467029   -0.053316   0.0199427  -0.0449919 -0.00678047   0.0269727  -0.0258625 -0.00846054
   0.021866   -0.032451   -0.101818   -0.052594 -0.00603461   -0.019808   0.0155188  0.00763843  -0.0195111   0.0397389
  0.0259435    0.023487   0.0480662  -0.0654424   0.0403259   0.0568401    0.021257  -0.0522814   0.0401652   0.0195837
  0.0146242  -0.0423502 -0.00853652  0.00743083    0.010564  -0.0615357  -0.0581307  -0.0144233  0.00736025  -0.0320082
 -0.0311017   0.0559072  0.00532736  -0.0180739   0.0663288   -0.029024   0.0678819  -0.0106597   0.0423512   0.0324941
 -0.0412372    0.045601  -0.0262383  -0.0227861  -0.0416243   0.0276266   -0.020322  -0.0132871   0.0473822   0.0233234
  0.0159562   0.0228501  -0.0357378   0.0516508 -0.00227793   0.0186237   0.0174163   0.0137471 -0.00630433   0.0109331
  0.0308225  -0.0058877  0.00396491  -0.0138219   0.0219917 -0.00178822   0.0527415      0.0237  -0.0220247   0.0338263
  -0.090341    0.015924   0.0432025  -0.0438414  -0.0121732  -0.0181865  -0.0210063  0.00231261   0.0451936  -0.0239956
  -0.106834  -0.0456775  -0.0659593   0.0266263   0.0325813   0.0544486  -0.0260371   -0.023964  -0.0434727   0.0366352
#
  -0.0102655   -0.0207466   -0.0283091   -0.0108427    0.0224395   -0.0150897    0.0518196   0.00616038   0.00599625   -0.0212269
  -0.0177415   -0.0139291  -0.00535415   -0.0126304   -0.0173931   -0.0263348   -0.0463879    0.0200998    0.0241528   -0.0208006
  -0.0124893    0.0311706   -0.0080939   -0.0406652   -0.0450938    0.0186238   -0.0106547   -0.0391023   -0.0236224 -0.000675424
   0.0764883   -0.0659902     0.015756    0.0270198   0.00732643   -0.0246821   -0.0137564   -0.0130971   -0.0188448   -0.0606369
    0.021051   0.00763662    0.0305353    0.0325295   -0.0496022   0.00816515   -0.0264941   -0.0669227  -0.00639173    0.0358935
  -0.0026689   -0.0215606   -0.0797344   -0.0376215    -0.039972  -0.00685784   -0.0314025   -0.0062849    0.0253945    0.0263543
   0.0320389    0.0757119   -0.0178765    0.0259763    0.0461208   -0.0296515    0.0212597   0.00868678  -0.00124978   -0.0177788
  -0.0299153    0.0103141   -0.0279563    -0.021008    0.0238765    0.0405732   -0.0588211     0.060415   0.00177496    0.0622568
  -0.0406978   -0.0117403    -0.024995     0.042363   -0.0508254    0.0536493  -0.00571673   -0.0558522   -0.0363091   -0.0443305
  -0.0398682   -0.0181519    0.0105393  -0.00441693   -0.0362302   -0.0120054   -0.0179793    0.0155249    0.0603311     0.017323
#
 0.00336642 -0.00270844   0.0226423   0.0550028   0.0553127  -0.0100956    0.012692  -0.0293875  -0.0388713  -0.0369606
  0.0334246 -0.00617298   0.0156544   0.0569899  0.00457913  -0.0388812   0.0674883   -0.026728  -0.0185283  -0.0139516
  0.0147357  0.00260792    0.032936  0.00341159  -0.0223449  -0.0015726 -0.00633667   -0.028498  -0.0282698 0.000986326
#
!
<13>:Score:2382
Distance:38.1596
   0.0133416   0.00783661    0.0770553   -0.0176189    0.0313754  -0.00496145   -0.0172723   -0.0463979   -0.0153133
    0.042639    0.0144177   -0.0127524    0.0168195   0.00843223 -0.000633243  0.000660462  -0.00854406   -0.0486144
  -0.0312831   -0.0234852    0.0331675   0.00250384  -0.00907269     0.039641    0.0541287  0.000856237  -0.00147048
 -0.00298052    0.0234216    0.0109289    0.0135506    0.0146839   0.00699875   -0.0222554   -0.0271977     0.017006
   0.0370811  -0.00128175    -0.014726  -0.00587679   -0.0535858    0.0581683   -0.0413619   0.00394318    0.0416908
  0.00724887   -0.0389807    0.0453826    0.0501262  -0.00224568   0.00888811    0.0839286     -0.01334    0.0590922
  -0.0271608   -0.0273342    0.0247176   -0.0116633   -0.0114242   -0.0274719     0.019332  1.89648e-06  -0.00608093
 -0.00553744    0.0140029   -0.0321448   -0.0232003   -0.0056039  -0.00796912  -0.00151419   -0.0497406   -0.0354276
  -0.0227844    0.0138684    0.0129088  -0.00716742   -0.0073659    0.0628306   -0.0142844   -0.0193372   0.00997636
   0.0104213   -0.0102525    0.0856468    0.0158883    0.0128737    0.0183075   0.00184653  -0.00315043    0.0155744
#
   0.0304817    0.0199363    0.0432286   -0.0510852    0.0355609    -0.038623  0.000452575    0.0290446    0.0106359   -0.0158748
   0.0211627   -0.0432785    -0.093121   -0.0389106   -0.0149892   -0.0249678   0.00599508 -0.000710178   -0.0222366    0.0276917
   0.0272097   0.00295293    0.0352431   -0.0587337    0.0433518    0.0418184    0.0168965   -0.0437865    0.0289934   -0.0106501
    0.017272   -0.0240373  -0.00647266    0.0115963    0.0199408    -0.032997   -0.0562153   0.00015151    0.0145889   -0.0249986
  0.00315908    0.0405332    -0.013952  -0.00609115     0.047452   -0.0271148    0.0564785  -0.00463082    0.0405937    0.0472122
  -0.0256688    0.0369514   -0.0226394   -0.0416503   -0.0460277    0.0245155   -0.0195539   -0.0248687    0.0423468    0.0346392
 0.000577043   0.00726813   -0.0293361    0.0385574  -0.00723241   0.00221439    0.0101577   0.00378142   -0.0185602    0.0114884
   0.0134704   -0.0101599  -0.00186286    -0.019707    0.0166171    0.0120865    0.0568846    0.0258873  -0.00761602    0.0523384
  -0.0804288   0.00803063    0.0448391   -0.0483197  -0.00792613   -0.0309515   -0.0280136    0.0214807    0.0380922    -0.017766
    -0.10547   -0.0161391   -0.0631267    0.0254224    0.0416887    0.0597794   -0.0127187  -0.00824936   -0.0354161    0.0427113
#
 -0.00993777   -0.0243252  -0.00266025  -0.00130797    0.0243637   -0.0273808    0.0377009    0.0138056     0.022805   -0.0138204
  -0.0221146   -0.0217198  -0.00692426  -0.00522124   -0.0263812   -0.0217508   -0.0479433    0.0204277    0.0134093    0.0012116
  -0.0137538    0.0118287    0.0251876   -0.0393285   -0.0526062    0.0135216  -0.00541534   -0.0493344  -0.00816659   -0.0126263
   0.0938551   -0.0672508  -0.00149844    0.0274835   0.00840383   -0.0215809 -0.000895376   -0.0143172   -0.0077833    -0.040314
   0.0392589     0.015391    0.0313667    0.0620855   -0.0381595   0.00222919   -0.0344068   -0.0599772   -0.0129632   0.00908195
 0.000876671   -0.0206606   -0.0707687   -0.0261308   -0.0230441  -0.00189226   -0.0258171   0.00775038    0.0220394    0.0432273
   0.0322939    0.0871475  -0.00335411    0.0211261    0.0361114   -0.0429104    0.0152469    0.0109998   -0.0105222   -0.0135025
  -0.0197608  -0.00083252   -0.0123811   -0.0350216   0.00776191    0.0333025   -0.0523259    0.0602161  0.000242698     0.035161
  -0.0245878  -0.00694199   -0.0241217    0.0426856   -0.0411657    0.0530635  -0.00574585   -0.0374575   -0.0340261   -0.0414807
  -0.0522102   -0.0237093   0.00175921   -0.0110563   -0.0425877  -0.00637292   -0.0168428     0.018629    0.0567428    0.0387899
#
  0.0130338 -0.00127059   0.0229591   0.0438606   0.0451017   -0.013744   0.0184499  -0.0251315  -0.0294256  -0.0374837
  0.0192477  0.00735085   0.0169771   0.0441499  0.00912876   -0.046967   0.0734631  -0.0121789 -0.00704891  -0.0273111
0.000299082    0.010281   0.0332237  0.00713127   -0.020357 -0.00525663   0.0020138  -0.0385598  -0.0203653  -0.0126999
#
!
<14>:Score:2382
Distance:38.1596
   0.0150499   0.00570894    0.0547564   -0.0199006    0.0276076   0.00149375   -0.0051329    -0.054206   0.00394748
   0.0490116    0.0229978   -0.0230636    0.0160712    0.0149533   0.00952109   0.00264759  -0.00357294   -0.0424211
  -0.0296172   -0.0108126     0.019483  -0.00827924   -0.0187648    0.0374202    0.0527337   0.00627821    0.0156682
    0.005398    0.0298646    0.0134261  0.000441095    0.0170047    0.0142396   -0.0311923     -0.01069    0.0236588
   0.0323278   0.00307106   -0.0147185   -0.0120039   -0.0533515    0.0448939   -0.0402282    0.0117534    0.0157187
   0.0174262   -0.0414064    0.0466504    0.0526441    0.0252642   0.00442509    0.0966147   -0.0169242    0.0440303
  -0.0242121  -0.00271882    0.0235609  -0.00833365   -0.0214609    -0.024136  0.000345523   0.00417194  -0.00641681
  -0.0131361    0.0152349   -0.0348838   -0.0190215  -0.00689223   -0.0307475  -0.00870317   -0.0352203   -0.0412677
  -0.0179461    0.0184302    0.0108176   0.00260578   -0.0124149    0.0511366   -0.0120687   -0.0234675    0.0127338
  0.00339422 -0.000347156    0.0697704    0.0336932    0.0214782    0.0227634   -0.0218885   0.00545691  -0.00619901
#
  0.0155215   0.0146207   0.0445722  -0.0383246   0.0330479  -0.0277665  0.00152148   0.0192892   0.0207372  0.00196841
  0.0294564  -0.0395775  -0.0953388  -0.0396104  -0.0219914  -0.0166016  0.00540663  -0.0013013  -0.0158877   0.0352527
   0.034626 -0.00110233  0.00831871  -0.0657193   0.0435524   0.0399451   0.0120055   -0.041265   0.0285547  -0.0171825
  0.0203053  -0.0205753  -0.0157041   0.0177674   0.0147704  -0.0386077  -0.0394093 -0.00250155  0.00498809  -0.0271269
-0.00740902   0.0136875  0.00686055   0.0106104   0.0627359 -0.00991259   0.0698671  0.00345275   0.0482713   0.0338472
 -0.0214696   0.0441907  -0.0243723  -0.0371392  -0.0679034  0.00747252  -0.0239675  -0.0119786   0.0275306   0.0353226
 -0.0214907   0.0182884  -0.0201324    0.037208  0.00433176   0.0118953   0.0100043  0.00187014  -0.0311223  0.00447543
  0.0131968  -0.0222678  0.00807743  -0.0241168   0.0159555     0.01668   0.0578665   0.0171937 -0.00161792   0.0388829
 -0.0735449  0.00554773   0.0502801  -0.0405865 -0.00586627  -0.0393341  -0.0216292   0.0220837   0.0314688 -0.00838555
 -0.0887787  0.00384489  -0.0621946    0.017305   0.0520879   0.0535528  -0.0154816  -0.0126516   -0.026233   0.0525281
#
 -0.00998078   -0.0173765  -0.00298587   0.00475609   0.00730871   -0.0294019    0.0369265    0.0108835    0.0329976  -0.00517571
  -0.0234791   -0.0430439   -0.0114957   -0.0011491    -0.021867   -0.0354074   -0.0465948    0.0273753    0.0250687   -0.0112692
 -0.00571634    0.0203701    0.0186454   -0.0408449    -0.049921   0.00791962 -3.18061e-05   -0.0560584    0.0108641  -0.00610923
    0.104953   -0.0588078  0.000827227    0.0289277   0.00501746   -0.0240145    0.0038786   -0.0200979   -0.0260338   -0.0565593
    0.029129    0.0251953    0.0417941    0.0730708    -0.036138    -0.025554   -0.0432165   -0.0559099  -0.00563026 -5.67554e-05
 0.000394008   -0.0207567   -0.0586734   -0.0221352   -0.0202528  0.000961541    -0.012317    0.0160914    0.0275772    0.0317833
   0.0235829    0.0754887     0.011585    0.0118918    0.0305796   -0.0375949  -0.00282173   0.00534797   0.00568051   -0.0232857
  -0.0240524    0.0123638   -0.0300221   -0.0470256    0.0110414    0.0280445   -0.0496733    0.0467097   0.00704123    0.0302425
  -0.0315015   0.00223496   -0.0105385    0.0404444   -0.0437941    0.0542085   -0.0104713   -0.0319688   -0.0307791   -0.0138131
  -0.0521455   -0.0175647  -0.00092414  -0.00361087   -0.0404174  -0.00956742   -0.0173689    0.0160607    0.0512057    0.0341799
#
   0.023852  0.00169964   0.0138285   0.0306946   0.0515336  -0.0142213   0.0162766  -0.0287753  -0.0266279  -0.0299573
   0.030238  0.00694325   0.0178074    0.032028  0.00825146   -0.051498   0.0566341  -0.0202025  0.00590956  -0.0225064
 -0.0141317   0.0103714   0.0319655   0.0156757  -0.0180817  -0.0211231 -0.00683578  -0.0314887  -0.0151174  -0.0031784
#
!
<15>:Score:2382
Distance:38.1596
   0.0139862    0.0207106    0.0614538   -0.0168885    0.0267659   -0.0267349   -0.0147229   -0.0586453  -0.00674404
   0.0255133    0.0150455    -0.027985  -0.00288679    0.0128761  -0.00715759  -0.00791235   -0.0238332   -0.0526782
  -0.0641788   -0.0346353    0.0316802    0.0170037   -0.0279822    0.0322775    0.0487746   0.00641182   0.00439842
  -0.0106379    0.0208457    0.0153085    0.0161438    0.0221789   -0.0228181   -0.0317909   -0.0304191    0.0149034
   0.0265301   0.00819557   -0.0164468  -0.00304913   -0.0570251      0.06384   -0.0419272     0.012393     0.040859
   0.0121682   -0.0456558    0.0424638    0.0607482   -0.0160993    0.0298271    0.0809806   -0.0156232    0.0544112
  -0.0181706   -0.0191534    0.0302251      -0.0157    -0.022305   -0.0264737  -0.00614046   -0.0157235    -0.003132
 0.000731945    0.0268652   -0.0425593   -0.0103088  -0.00830153 -0.000288484    0.0135008   -0.0507023   -0.0322429
  -0.0293859    0.0386489    0.0147398   -0.0196909   -0.0185859    0.0557816   -0.0126038    -0.015463    0.0194079
   0.0127465   -0.0237405    0.0779179    0.0188248    0.0277213    0.0206505   0.00205855  -0.00743874     0.021166
#
   0.0396474    0.0329824    0.0392287   -0.0375253    0.0474099   -0.0302265  -0.00979532     0.038198   0.00758609    -0.029783
   0.0333771   -0.0544309   -0.0982512   -0.0580771   -0.0291738    -0.020261  -0.00716104   -0.0025958   -0.0130581     0.010397
   0.0396286 -0.000707966    0.0297581   -0.0539162    0.0405126    0.0238746    0.0200026    -0.060693     0.024641   -0.0029068
  0.00369149    -0.038935   -0.0142445  -0.00411873     0.027657   -0.0294609   -0.0430086  -0.00148135    0.0143581    -0.026775
-0.000227552     0.045545   -0.0157553  -0.00318158    0.0540921   -0.0454478    0.0543425  -0.00886991    0.0514631    0.0450725
 -0.00973868    0.0387411   -0.0180634   -0.0438127   -0.0287299    0.0221815   -0.0109287  0.000825551    0.0346572    0.0378607
 -0.00469487    0.0116132   -0.0258408    0.0372821  -0.00649283    0.0210484    0.0166336  -0.00650234  -0.00119613    0.0130766
   0.0251002   -0.0195463    0.0147452   -0.0111364    0.0263101    0.0106983    0.0546083   0.00972444  -0.00749504    0.0404546
  -0.0636024   -0.0113549    0.0260068   -0.0503907  -0.00337099   -0.0397718   -0.0224986     0.027699     0.040901   -0.0218103
   -0.100685    -0.009224   -0.0715537   0.00929103    0.0467639    0.0576703   -0.0153531  -0.00893834   -0.0275013    0.0268113
#
-0.00953975   -0.015662  -0.0288409  0.00289114   0.0217234  -0.0210053   0.0495867  0.00858124   0.0175671  -0.0161224
 -0.0287881 -0.00262924  -0.0158543  -0.0163417  -0.0314029   -0.019053  -0.0447571   0.0283386  0.00585471  0.00294571
 -0.0300858  0.00203223    0.015138  -0.0496781  -0.0431937  0.00116233 0.000303133  -0.0678499  -0.0017268   -0.001655
   0.077498  -0.0602123 -0.00336104   0.0365572  0.00621177  -0.0280801 -0.00500215  -0.0199741  -0.0126316  -0.0370971
  0.0508821 -0.00012975   0.0286404   0.0549623  -0.0302837   0.0106684  -0.0260931  -0.0556664 -0.00992008   0.0141676
 -0.0170453   -0.025335  -0.0650066  -0.0281173  -0.0204681  -0.0145593  -0.0186077   0.0115155  0.00636195   0.0481973
  0.0346719   0.0886198  -0.0136009   0.0114534   0.0456582   -0.056411   0.0180445    0.013928  -0.0133643  -0.0245057
-0.00250312 0.000459505  -0.0114879  -0.0337318  0.00332127   0.0374153  -0.0519093   0.0575642  0.00932032   0.0346325
 -0.0234292 -0.00352078  -0.0228782   0.0405056  -0.0352891   0.0389897 -0.00684073  -0.0249716  -0.0324583  -0.0283787
 -0.0404458  -0.0306659   0.0128821  -0.0218414  -0.0466446  -0.0123223   -0.016471   0.0248527   0.0415671   0.0610291
#
  0.0200093   0.0037892   0.0357299   0.0536494   0.0333112  -0.0262158   0.0267282  -0.0197647  -0.0245786   -0.033597
  0.0136514   0.0161581   0.0138499   0.0647336   0.0225809  -0.0479233   0.0759698  -0.0068191 -0.00634912  -0.0144851
 0.00620224   0.0182423   0.0253685  0.00336399 -0.00945934  0.00658553   0.0127703  -0.0568994  -0.0284651 -0.00706964
#
!
<16>:Score:2382
Distance:38.1596
   0.0267887   0.00709485    0.0809071   -0.0134576    0.0259301  -0.00808572   -0.0231323   -0.0378134   -0.0113727
   0.0503235   0.00517334   -0.0140645    0.0182397    0.0210741  -0.00627796   0.00642276   -0.0134747   -0.0500828
  -0.0204088   -0.0118676    0.0270036   -0.0129947  -0.00823175    0.0565781    0.0500695  0.000252404   0.00680378
 0.000894726    0.0304651  -0.00540819   0.00803234    0.0245218   0.00446411   -0.0272592    -0.034113   0.00884258
   0.0517212  -0.00553461   -0.0126801  -0.00138245   -0.0552033    0.0533981   -0.0441933   0.00906818    0.0266717
  0.00446623   -0.0395455    0.0469746    0.0706846 -0.000443383   0.00378652    0.0894274  -0.00442743    0.0662417
  -0.0345147   -0.0258098    0.0442109   -0.0117452   0.00421447    -0.029469    0.0230338   0.00523483   -0.0129269
  -0.0179602    0.0245213   -0.0260696   -0.0152161  -0.00219857   -0.0117775   -0.0185254   -0.0594463   -0.0375236
  -0.0226385     0.016338    0.0141594  -0.00800159    -0.011632    0.0586787   -0.0167409     -0.02045   0.00946569
   0.0141593   -0.0226704    0.0742339    0.0141511    0.0282198    0.0271374  0.000659796   -0.0056329   0.00465197
#
     0.02477    0.0246845    0.0378224   -0.0536919    0.0434915   -0.0397507    0.0017909     0.040521    0.0316958   -0.0119016
   0.0220268   -0.0466806   -0.0929895   -0.0473704  -0.00688663   -0.0222483   0.00551229   0.00161937   -0.0310224    0.0265635
   0.0377444  -0.00389425    0.0246618   -0.0680268    0.0329238    0.0469848     0.023523    -0.039989    0.0280996   -0.0229794
   0.0372344  -0.00416152  -0.00802059    0.0198812    0.0206264   -0.0252206   -0.0602976  0.000277525    0.0152449   -0.0319972
   0.0196507    0.0155111   -0.0323032  -0.00922288    0.0627168   -0.0327841    0.0448038   0.00728841    0.0279622    0.0578364
  -0.0133083    0.0334655  -0.00219011   -0.0498942   -0.0537744    0.0209324    -0.039034   -0.0166265    0.0245032    0.0444049
 -0.00943747   -0.0038484  -0.00999832    0.0392191   -0.0186176  -0.00327672    0.0164305   -0.0159433   -0.0249402    0.0151926
   0.0111553  -0.00719583   0.00552982    -0.017487    0.0132794     0.011863    0.0510453    0.0142845  -0.00338727    0.0571168
  -0.0874594   0.00439961    0.0481331   -0.0519988  -0.00536017   -0.0352937   -0.0236422    0.0287256    0.0338319  -0.00906678
   -0.103683  -0.00351432   -0.0483392   0.00511746    0.0416119    0.0545437 -0.000926233   -0.0137234    -0.043578    0.0522981
#
  -0.0106667   -0.0198273   0.00889731  -0.00547356    0.0141233   -0.0185178    0.0420859    0.0198672    0.0227357   -0.0172922
  -0.0168032   -0.0275616  -0.00641861   0.00238453   -0.0220688   -0.0221174   -0.0482326    0.0254676    0.0183646    0.0211478
  -0.0143714    0.0170775    0.0349896   -0.0396813   -0.0521907    0.0126067   -0.0226721   -0.0552912  -0.00093939   -0.0153254
    0.105738   -0.0717519   -0.0122503    0.0255161   0.00813917   -0.0238977  -0.00926634   -0.0344081   -0.0045865    -0.039678
   0.0526848    0.0175861    0.0227785    0.0688551    -0.024445 -0.000239742   -0.0443557    -0.049136   -0.0235619   0.00488984
    0.011815   -0.0232868   -0.0676216   -0.0162857    -0.018654  -0.00532838   -0.0167977    0.0104871    0.0168715    0.0343818
   0.0356716     0.106413   0.00659063   0.00512338    0.0438197   -0.0317449   0.00642558    0.0113121  -0.00994891   -0.0211538
  -0.0212182  -0.00527149   -0.0139599   -0.0531017    0.0177768    0.0370554   -0.0470918    0.0544093  -0.00426648    0.0218233
  -0.0316841  -0.00138383   -0.0236873    0.0443113    -0.044962    0.0611792   -0.0154192   -0.0486463   -0.0342392   -0.0446835
  -0.0563063   -0.0167183   0.00711241   -0.0128792    -0.039977   0.00120297   -0.0183617    0.0177774    0.0612887    0.0380336
#
  0.0109142  0.00298698   0.0257004   0.0383128    0.042415  -0.0131365   0.0247001   -0.025011  -0.0465234  -0.0364948
  0.0170118  0.00964242     0.01316   0.0473636   0.0270782  -0.0514833   0.0766816 -0.00235296 -0.00113047  -0.0233626
 0.00650916   0.0227463   0.0412513  0.00730403   -0.022391  -0.0173213  -0.0055484  -0.0443481  -0.0188764 -0.00327814
#
!
<17>:Score:2382
Distance:38.1596
   0.019094  0.00758153   0.0648702     -0.0223   0.0347418  0.00056899 -0.00686973  -0.0495137 -0.00564867
  0.0413686  0.00942697  -0.0155086    0.013927   0.0185638 -0.00824391 -0.00484428 0.000452124  -0.0542532
 -0.0282259  -0.0107797   0.0191713   -0.016687 -0.00217271   0.0365487   0.0612189 0.000356872  0.00884413
-0.00733938   0.0479257  0.00540061  -0.0043934   0.0129803   0.0137619  -0.0317914  -0.0155486   0.0270202
   0.037724  -0.0113897  -0.0214512 -0.00949829  -0.0485421   0.0467257  -0.0374965  0.00346388   0.0166174
 0.00273339  -0.0440924   0.0373246   0.0608853   0.0156389  0.00410865   0.0741881    -0.01815   0.0450034
 -0.0324714  -0.0153089   0.0185187 -0.00726466  -0.0140523  -0.0199331  0.00443388 -0.00662127  -0.0047324
 -0.0201251   0.0280803  -0.0349246   -0.010494  -0.0124079   -0.024807 -0.00422792  -0.0384285  -0.0288731
 -0.0223006    0.011729  0.00878799  0.00846131  -0.0204008   0.0531874  -0.0169388  -0.0193061  0.00591765
  0.0115755 -0.00208017   0.0587429   0.0219944    0.023757   0.0245338   -0.028142   0.0104605   0.0039949
#
   0.0261829    0.0200512    0.0431847   -0.0330566    0.0326606   -0.0376077  -0.00376441    0.0230945    0.0200035  -0.00312111
   0.0237802   -0.0454017    -0.100732   -0.0337109   -0.0178417   -0.0146066   0.00511615 -0.000863453   -0.0233074    0.0347059
   0.0335178   0.00154667   0.00618634   -0.0620027    0.0356166     0.052931    0.0145175   -0.0297384    0.0210259   -0.0144325
   0.0316024   -0.0180089  -0.00866491    0.0158285    0.0230485   -0.0488179   -0.0456912  -0.00453403   0.00449832   -0.0300299
 3.81596e-05    0.0149079  -0.00697575   0.00886626    0.0690375   -0.0137404    0.0612726   0.00645322    0.0591956    0.0370177
  -0.0193158      0.03513   -0.0146351   -0.0287433   -0.0644973   0.00619989   -0.0232174   -0.0101892    0.0161577    0.0385572
  -0.0220998    0.0193202   -0.0178253    0.0357451   0.00590131   0.00867465   0.00527891  0.000358954    -0.029525   0.00582574
    0.023028   -0.0141566   0.00579775   -0.0117095    0.0138364  -0.00166271    0.0534487    0.0219568  -0.00352571    0.0447987
  -0.0828198   0.00608697    0.0527263   -0.0476311  -0.00863006   -0.0544289   -0.0257138    0.0145286    0.0223084  -0.00834352
  -0.0947217   0.00248266   -0.0660133   0.00670248    0.0420361    0.0579085 -0.000490897   -0.0133377   -0.0336278    0.0554491
#
  -0.0079081   -0.0177333  0.000167749    -0.006355    0.0121957    -0.021219    0.0334023     0.015195    0.0312145   -0.0067215
   -0.026268   -0.0426318   -0.0104713  0.000652285   -0.0163391   -0.0286623   -0.0492053    0.0321447    0.0177393  -0.00576373
 -0.00745357    0.0122461    0.0174334   -0.0423465   -0.0586478    0.0237588  -0.00233585   -0.0476003   0.00414084   0.00336658
     0.10446   -0.0518558   -0.0066197    0.0253928   0.00942019   -0.0175847   0.00238262   -0.0270352   -0.0279937   -0.0550076
    0.037938    0.0222809    0.0435659    0.0684376    -0.042921   -0.0180904   -0.0470972   -0.0554734   -0.0109838    0.0040635
   0.0139108   -0.0201023   -0.0651337   -0.0245349   -0.0270908  0.000493773  -0.00467583    0.0178566    0.0231561    0.0337713
   0.0283936     0.080039    0.0129123   0.00665945    0.0388097   -0.0459445 -0.000248241  -0.00206284 -0.000919652   -0.0266544
  -0.0174132  -0.00237117   -0.0210535   -0.0472931  -0.00260885    0.0283001   -0.0441418    0.0528973  -0.00380324    0.0411712
  -0.0281456   0.00116645   -0.0151983    0.0411794   -0.0413857    0.0585069  -0.00968875   -0.0371622    -0.031268   -0.0227612
  -0.0553001  -0.00914345  -0.00378482  -0.00445685   -0.0471043  -0.00971485    -0.015079    0.0118432    0.0586687    0.0340949
#
  0.0215441  0.00601587   0.0145369   0.0352258   0.0527842  -0.0151657   0.0230345  -0.0171434  -0.0301442  -0.0323027
  0.0357494   0.0119322   0.0149918   0.0424636   0.0106732  -0.0495655   0.0564822 -0.00996841  0.00787764  -0.0264814
 0.00138474  0.00322076   0.0296359  0.00306934  -0.0115346  -0.0311882 -0.00908057  -0.0344391  -0.0065136 -0.00046772
#
!
<18>:Score:2382
Distance:38.1596
   0.0129747   0.00492617    0.0484963   -0.0312712    0.0206685    -0.013891   0.00387394   -0.0613058    -0.022349
   0.0403312  -0.00960754   -0.0271157    0.0136793  0.000648446   0.00355272   -0.0102566   0.00117391   -0.0466516
  -0.0276093   -0.0212001    0.0216387   0.00635967   -0.0218045    0.0425079    0.0310728     -0.01452   -0.0259361
  0.00271646    0.0253193    0.0256304   0.00351225  -0.00143603   0.00805318   -0.0180639   -0.0288894   0.00315594
   0.0220232   -0.0070748  -0.00351404   -0.0153509   -0.0363211    0.0310389    -0.041837    0.0276067    0.0335485
-0.000152183   -0.0173446    0.0475491    0.0298773   -0.0118631    0.0157875    0.0905468   -0.0466736     0.012785
  -0.0286958  -0.00352115  -0.00661945   -0.0173036  -0.00983582   -0.0268554  0.000413342    0.0223361    0.0114468
  -0.0151475    0.0194809   -0.0527736   -0.0239906  -0.00291459    0.0184748   0.00527386   -0.0564581   -0.0339586
  -0.0195932   -0.0087308   -0.0199609    -0.017544   -0.0141497     0.094818  -0.00157932  -0.00136215    0.0271527
   0.0155687   -0.0046666     0.109264    0.0171471   0.00215439    0.0215007   -0.0026409  -0.00685687    0.0594307
#
   0.0249348    0.0256767    0.0641739   -0.0552988    0.0386234   -0.0314208    -0.011111    0.0496728    -0.019228   -0.0166744
   0.0278599   -0.0406377    -0.110247   -0.0553563   0.00799902   -0.0258003  -0.00686898    0.0184149   0.00687056    0.0468246
   0.0260458 -0.000133194    0.0305852   -0.0624202    0.0560709    0.0492922    0.0267367   -0.0769466    0.0238948    0.0218449
  0.00615625   -0.0317771   0.00900341   0.00304592   0.00287842   -0.0783151   -0.0622905    -0.016686 -0.000292873   -0.0121614
  -0.0234296    0.0487213  -0.00438858    0.0023408    0.0403043    -0.011443    0.0518375   0.00332199    0.0684527    0.0437114
  -0.0457452     0.045577   -0.0318394    -0.023887   -0.0485423    0.0320805   -0.0252391   -0.0156617    0.0363904    0.0444351
  0.00486737    0.0427123   -0.0410993    0.0671478   -0.0216638    0.0196861   0.00548104    0.0168224    -0.012921   0.00325942
   0.0213193   -0.0207536  -0.00222675  -0.00310078    0.0327546     0.019866    0.0787214   0.00795523    -0.015453    0.0415895
  -0.0888174    0.0166058    0.0445302    -0.032216  -0.00566971   -0.0371885   -0.0138915  -0.00468243    0.0421379   -0.0190981
  -0.0957306   -0.0382611   -0.0578221    0.0270523     0.042167    0.0448878   -0.0183399   -0.0187652   -0.0493951    0.0297327
#
  -0.0275447   -0.0370157   0.00438835    -0.003143     0.031177   -0.0182768    0.0340843    0.0251008    0.0341823  -0.00676647
 -0.00618769  -0.00352275 -0.000462358   0.00103306   -0.0075065   -0.0419276   -0.0497855    0.0207954    0.0199928  -0.00808923
   -0.016297     0.040631   -0.0132685   -0.0600454   -0.0364918 -0.000467255  -0.00437781   -0.0373226   -0.0285565   0.00468892
   0.0946526   -0.0476146    0.0345632    0.0443789  -0.00142255   -0.0279375   -0.0240998   -0.0140902  -0.00933419   -0.0343589
   0.0204548   0.00784818    0.0519572    0.0604327   -0.0186772   0.00907952   -0.0484959   -0.0405793   -0.0116168    0.0260318
 -0.00233185   -0.0224229    -0.072299   -0.0581368   -0.0506713    0.0165091   -0.0368999  -0.00350409    0.0227831    0.0285043
   0.0372006     0.096011   0.00447012  -0.00152885    0.0370121    -0.054137    0.0278582    0.0252441    0.0102554   -0.0163611
  -0.0125061    0.0126191   -0.0105805   -0.0190412    0.0170575    0.0380761   -0.0587934    0.0716545    0.0067275    0.0565652
  -0.0245743     0.019629   -0.0163486    0.0301928   -0.0557517    0.0554701  -0.00943557   -0.0484827   -0.0348266   -0.0393551
  -0.0669813    -0.029208 -0.000754238   -0.0253854   -0.0371332   -0.0228316   -0.0216954  -0.00386907    0.0591276   0.00980357
#
  0.0236119  0.00515369   0.0249498   0.0529732   0.0447891  0.00431908   0.0057282  -0.0097596  -0.0330054  -0.0309237
  0.0360845  -0.0272864   0.0259278   0.0563521  0.00137519  -0.0361594   0.0813836   -0.050636  -0.0066575  -0.0317322
0.000335424  0.00980398   0.0466412   0.0258229  -0.0178302  0.00419884   0.0233176   -0.023137   -0.030489  0.00891298
#
!
<19>:Score:2382
Distance:38.1596
  0.00851785  -0.00757338    0.0663699   -0.0154757    0.0304487 -0.000494168   -0.0194353   -0.0401724   0.00482107
   0.0210324    0.0173198   -0.0280042    0.0134302    0.0391787   0.00214063   0.00380157  -0.00297685   -0.0508796
  -0.0204389   0.00793961    0.0209543   0.00300517   -0.0053494    0.0414687    0.0481549   -0.0131727    0.0207938
  0.00170341    0.0582128    0.0157522    0.0266466    0.0130523     0.031787   -0.0332638   -0.0124602    0.0316224
   0.0512007    0.0205072   -0.0294876   -0.0132402   -0.0648588    0.0343688   -0.0296829    0.0160469   0.00338403
   0.0181125   -0.0381627    0.0330614    0.0688534   0.00250309   -0.0246041    0.0569693 -0.000228854    0.0448265
  -0.0158925   -0.0227524      0.02532   -0.0334299   -0.0113107   -0.0233967   0.00982987 -0.000362971   0.00295993
  -0.0136316    0.0154975   -0.0298309    -0.005658    -0.013064   -0.0474364   -0.0136934   -0.0275205   -0.0306923
  -0.0215265    0.0163905   0.00816484   0.00915163   0.00758516    0.0562534  -0.00844341    -0.022257     0.020615
   0.0219816    -0.022999    0.0643088    0.0157007    0.0152169    0.0165519   -0.0243488  -0.00822628   0.00913853
#
   0.0404162    0.0181787    0.0483778    -0.065885    0.0241338    -0.026675   0.00598252    0.0239826    0.0212214   0.00242228
   0.0274414   -0.0598881    -0.100779   -0.0343541  -0.00978863   -0.0121777  -0.00766707    -0.011783  -0.00377111    0.0345925
   0.0310064   0.00839575    0.0257726   -0.0597102    0.0435593    0.0394611      0.02638   -0.0450326    0.0248804   -0.0290692
   0.0187987   -0.0218304  -0.00118172    0.0302553    0.0214746   -0.0398108   -0.0366416 -0.000293591  -0.00590943   -0.0329098
 -0.00482976    0.0230176   -0.0220339    0.0156052    0.0714768    -0.031518    0.0590635   -0.0014022    0.0479333     0.038704
  -0.0322119    0.0321762   -0.0179635   -0.0229381   -0.0599165   0.00570013   -0.0155161  -0.00477923    0.0396718    0.0385586
 -0.00661703    0.0095107   -0.0403275    0.0366822   0.00393746   -0.0110569   0.00199776  -0.00174967  -0.00268912   0.00798844
  0.00675901  -0.00108688   -0.0123523   -0.0350102    0.0179778    0.0215682     0.051904    0.0182952   0.00291852    0.0421515
  -0.0575469   0.00442827    0.0436032   -0.0321049   -0.0220251   -0.0508411   -0.0240272    0.0456208    0.0173648   -0.0100003
  -0.0978948   0.00494399   -0.0777563    0.0211625    0.0466512    0.0539667   -0.0373474  0.000215585   -0.0180675     0.068498
#
 0.00447631  -0.0184038 -0.00808786 -0.00379179   0.0273111  -0.0404686   0.0467599   0.0144577   0.0241365   0.0114579
 -0.0361215  -0.0357894 0.000767872 -0.00340577  -0.0295489  -0.0287146  -0.0366917   0.0394033     0.01819 -0.00634138
 -0.0210893   0.0107459  0.00880781  -0.0541886  -0.0705022  0.00158341 -0.00856999  -0.0381007  -0.0125242  -0.0058094
   0.106388  -0.0531087  -0.0344449   0.0263704 -0.00175306  -0.0203838 -0.00157594  -0.0107824  -0.0115458  -0.0618675
  0.0310621   0.0186977   0.0396562   0.0689135  -0.0213704  -0.0220925  -0.0613469  -0.0576493  -0.0288767  0.00718055
 0.00639973 -0.00708472  -0.0601538  -0.0447866 -0.00846862  0.00380956 -0.00422358 -0.00221343  0.00117895   0.0398027
  0.0378574   0.0862272  0.00650857  -0.0036711   0.0364702  -0.0418813 -0.00783313 -0.00586734   0.0128053 -0.00843661
 -0.0190992  0.00161505  -0.0181516  -0.0297333  0.00213438   0.0447629  -0.0336966   0.0699285    0.011132   0.0354549
 -0.0374323   0.0111604  -0.0289151   0.0407379  -0.0291205   0.0635819 -0.00639764  -0.0481066  -0.0196182  -0.0436264
 -0.0590168  -0.0339015  0.00569727   0.0159416  -0.0267866  -0.0080928  -0.0153778   0.0118348   0.0457975   0.0466904
#
  0.00948975  -0.00558579    0.0260832    0.0130171    0.0361737    0.0148156    0.0143595   -0.0403706   -0.0280722   -0.0178637
   0.0220701   -0.0121921   0.00707344    0.0377973 -0.000793336   -0.0597197    0.0638554   -0.0147595    0.0143324    -0.015464
  -0.0108745    0.0131476    0.0243557    0.0101907  -0.00993292  -0.00751144   0.00718173   -0.0158292   -0.0117805  -0.00372178
#
!
<20>:Score:2382
Distance:38.1596
   0.0119252  -0.00263138    0.0658968   -0.0187502    0.0440418   -0.0175114    -0.012259   -0.0472033   -0.0147019
   0.0425624  -0.00198904   -0.0133184    0.0313698   -0.0155192   0.00257205  -0.00553288  -0.00718201   -0.0395637
  -0.0365168    -0.035557    0.0178813    0.0045728   -0.0272142    0.0512187    0.0356603   -0.0236062   -0.0222676
 -0.00270936    0.0214404   0.00984162   0.00212709   0.00100801    0.0169343   -0.0197991    -0.044411   0.00875251
   0.0229984     0.014938   0.00891441   -0.0137814   -0.0457704    0.0494687   -0.0541016      0.02135    0.0384132
   0.0177403   -0.0216694    0.0588219    0.0329668    0.0159473   0.00257556    0.0931029   -0.0328885    0.0570201
   -0.032282   -0.0332598    0.0140277   -0.0398281   -0.0405899   -0.0207959    0.0186868   0.00789034    0.0322518
  -0.0181853    0.0197124   -0.0543401   -0.0221652   0.00517528     0.019706    0.0216148   -0.0454041   -0.0266333
   -0.026026  -0.00319731  -0.00407312   -0.0408172 -2.05586e-05    0.0670167   -0.0270225  -0.00351353  -0.00948755
   0.0143675    0.0203996    0.0951782   0.00254898   -0.0149009   0.00703311 -3.80981e-06   -0.0243061    0.0325626
#
   0.0370047    0.0290417    0.0559047   -0.0543573    0.0491787   -0.0329747 -0.000481284    0.0326097   -0.0294522  -0.00705582
   0.0239132   -0.0541137   -0.0928155   -0.0502726   -0.0119906   -0.0245894   0.00448127    0.0401413   0.00374441    0.0354789
   0.0453308    0.0149475    0.0180135   -0.0522524    0.0523166    0.0622288    0.0121353   -0.0237139    0.0295151   0.00984935
